{"generation": 5000, "best": {"weights": [[[-103.87194753069555, -52.37731087783403, 127.10935109093576, 71.59412965224193, -13.23583921361786, -19.126477100213016, -67.35442978510598, 123.7935523564889], [-36.80468885086546, -33.51417295649108, -46.82751905524962, 51.94266013967421, -166.94755040352578, -58.70758649959676, 3.5840097929863246, 25.091918701295192], [47.28453608810636, 124.9246942746603, -45.84277364348481, -179.63763326044776, -4.576351939471969, -68.16124426517435, -17.641920226257923, -75.4909951022257], [-91.38790985779397, 60.39666938542422, -91.45636201501439, 58.23924070394869, 47.111362968173935, -5.432629769058369, -84.14379371048568, 31.880791688757412], [-130.9272807067813, 67.11790615223389, 95.9469071247261, -15.546991863960134, 13.562414412250508, -0.5324792000483829, -71.26444801429344, -32.06721988661187], [8.980080733074267, 33.89427007616604, 13.59790390948507, -70.89948523644806, 107.80492263548291, -13.08584462664779, -63.19036486560925, 86.7145730553906], [-67.15327269834783, -42.031813525339906, -53.81773437370002, 17.148709039889244, -153.60301058534722, -52.552633188567796, -2.9375984934380104, 37.887866734450995], [11.928771960613162, -17.156441158090985, -6.002148001447585, 30.24148679165326, -23.870519219975495, 1.6659326862629587, 97.8283243436254, 12.59626894347178], [-60.85377620471598, 42.2631178101964, 35.11959008768786, -30.903259265123783, 4.912467244268884, -0.24945489711098381, 200.4203574136586, -53.52010546021191], [-82.2288973809379, -79.66995161107067, 29.660584317728333, 46.68741634226271, 40.883303414707015, -2.3095325483401137, -46.47753177638448, -38.70438424305792]], [[80.81158760530259, -22.45262554110688, -106.87741994380082, -24.4456169399195, 39.46820537852465, 4.6904469031651335, -59.655890880991166, -65.97267073656283, 99.05596386300053, 61.05824593123228], [-46.7988217971481, -3.6666455411066, 42.54651442873969, 0.36682391905617173, -4.561829507847515, 8.3248244941479, 27.794166289763304, -1.4854307860664397, 100.46202297670378, -43.82359053257616], [-4.271965728532059, 45.54283033372715, -3.947697752214222, -37.236114692100905, -31.160274431262312, -20.29403188379835, 94.33737759261977, -67.03712651289995, 177.23868517442796, 13.858696533695595], [12.494198444775346, 48.71242860316443, 42.07328010383596, 34.11253701275095, 4.635086540900773, -0.7664266733649205, 0.4983636833403349, 21.058882046005852, 41.05248941373248, 11.08922938731245], [65.28318213381229, -69.88281153766533, -109.31006995796852, 22.985381914408034, 79.70470424242346, 128.52443739608023, 15.626715295797467, 41.34735942676994, 30.03131487636367, -94.8082982627687], [36.608981896418165, -35.645195271236545, -47.64693655788716, 77.75486651897761, 12.642399991550898, 30.17936875957554, 145.19508976737987, 9.981492013590561, -78.09764150879495, -51.241915631192235], [14.422565897026834, -39.51157319495179, 105.2423251579705, -38.72727713455872, 116.8053756919188, -13.494877510275874, 54.92651294514945, -15.630811363316896, -20.308703516763472, 24.791094381335938], [-13.26055583391231, 5.833599707016929, 82.51414282020721, 12.388274007814484, -54.18364589302158, 119.15146795043162, 42.95862750240155, 103.92049877427621, -79.09996701995097, 0.07602401689457583], [108.11058243057585, -74.17473228695884, -35.34518991587701, -21.714853283412733, 77.62346405116816, 73.48353209427206, -76.23441277369788, -48.000640441189745, -25.073304625008834, 10.065312837523873], [170.05847112669335, 93.4480004302911, 25.42006438018206, -23.255678616028582, 182.85105448633658, 136.73551480476107, 6.512557297154298, 97.76789064220488, -39.95975433483207, 40.03434025000312]], [[55.5782017888725, 124.13035823316704, 39.27934908243433, 46.472690576511155, -0.1449387829272043, 7.62518934450995, 24.014755460190628, 25.414238419108866, -10.39616229536981, -53.240207401398486], [159.3459491451865, 18.861323445057323, 8.331198350443978, 15.314637392706093, -11.00413577273136, -10.50004043209832, 79.7433167656743, -58.84535932650542, 87.57598098058108, 41.64854701545321]]], "bias": [[[0.5986972939746606], [-59.63312686235282], [-33.07883301491884], [15.500818781938488], [19.68438395347722], [43.78111606778088], [46.68085000866809], [169.2620981860274], [-104.31882064281382], [20.91426657843822]], [[-61.109814159939084], [9.374346649040449], [25.95445125777759], [17.63216178110334], [18.162112250425555], [127.02482636954065], [-7.276326093351951], [36.26998474819404], [20.887614344975386], [-9.988435111626131]], [[-120.2773877895918], [-137.31290660380992]]]}, "all": [{"weights": [[[-103.87194753069555, -52.37731087783403, 127.10935109093576, 71.59412965224193, -13.23583921361786, -19.126477100213016, -67.35442978510598, 123.7935523564889], [-36.80468885086546, -33.51417295649108, -46.82751905524962, 51.94266013967421, -166.94755040352578, -58.70758649959676, 3.5840097929863246, 25.091918701295192], [47.28453608810636, 124.9246942746603, -45.84277364348481, -179.63763326044776, -4.576351939471969, -68.16124426517435, -17.641920226257923, -75.4909951022257], [-91.38790985779397, 60.39666938542422, -91.45636201501439, 58.23924070394869, 47.111362968173935, -5.432629769058369, -84.14379371048568, 31.880791688757412], [-130.9272807067813, 67.11790615223389, 95.9469071247261, -15.546991863960134, 13.562414412250508, -0.5324792000483829, -71.26444801429344, -32.06721988661187], [8.980080733074267, 33.89427007616604, 13.59790390948507, -70.89948523644806, 107.80492263548291, -13.08584462664779, -63.19036486560925, 86.7145730553906], [-67.15327269834783, -42.031813525339906, -53.81773437370002, 17.148709039889244, -153.60301058534722, -52.552633188567796, -2.9375984934380104, 37.887866734450995], [11.928771960613162, -17.156441158090985, -6.002148001447585, 30.24148679165326, -23.870519219975495, 1.6659326862629587, 97.8283243436254, 12.59626894347178], [-60.85377620471598, 42.2631178101964, 35.11959008768786, -30.903259265123783, 4.912467244268884, -0.24945489711098381, 200.4203574136586, -53.52010546021191], [-82.2288973809379, -79.66995161107067, 29.660584317728333, 46.68741634226271, 40.883303414707015, -2.3095325483401137, -46.47753177638448, -38.70438424305792]], [[80.81158760530259, -22.45262554110688, -106.87741994380082, -24.4456169399195, 39.46820537852465, 4.6904469031651335, -59.655890880991166, -65.97267073656283, 99.05596386300053, 61.05824593123228], [-46.7988217971481, -3.6666455411066, 42.54651442873969, 0.36682391905617173, -4.561829507847515, 8.3248244941479, 27.794166289763304, -1.4854307860664397, 100.46202297670378, -43.82359053257616], [-4.271965728532059, 45.54283033372715, -3.947697752214222, -37.236114692100905, -31.160274431262312, -20.29403188379835, 94.33737759261977, -67.03712651289995, 177.23868517442796, 13.858696533695595], [12.494198444775346, 48.71242860316443, 42.07328010383596, 34.11253701275095, 4.635086540900773, -0.7664266733649205, 0.4983636833403349, 21.058882046005852, 41.05248941373248, 11.08922938731245], [65.28318213381229, -69.88281153766533, -109.31006995796852, 22.985381914408034, 79.70470424242346, 128.52443739608023, 15.626715295797467, 41.34735942676994, 30.03131487636367, -94.8082982627687], [36.608981896418165, -35.645195271236545, -47.64693655788716, 77.75486651897761, 12.642399991550898, 30.17936875957554, 145.19508976737987, 9.981492013590561, -78.09764150879495, -51.241915631192235], [14.422565897026834, -39.51157319495179, 105.2423251579705, -38.72727713455872, 116.8053756919188, -13.494877510275874, 54.92651294514945, -15.630811363316896, -20.308703516763472, 24.791094381335938], [-13.26055583391231, 5.833599707016929, 82.51414282020721, 12.388274007814484, -54.18364589302158, 119.15146795043162, 42.95862750240155, 103.92049877427621, -79.09996701995097, 0.07602401689457583], [108.11058243057585, -74.17473228695884, -35.34518991587701, -21.714853283412733, 77.62346405116816, 73.48353209427206, -76.23441277369788, -48.000640441189745, -25.073304625008834, 10.065312837523873], [170.05847112669335, 93.4480004302911, 25.42006438018206, -23.255678616028582, 182.85105448633658, 136.73551480476107, 6.512557297154298, 97.76789064220488, -39.95975433483207, 40.03434025000312]], [[55.5782017888725, 124.13035823316704, 39.27934908243433, 46.472690576511155, -0.1449387829272043, 7.62518934450995, 24.014755460190628, 25.414238419108866, -10.39616229536981, -53.240207401398486], [159.3459491451865, 18.861323445057323, 8.331198350443978, 15.314637392706093, -11.00413577273136, -10.50004043209832, 79.7433167656743, -58.84535932650542, 87.57598098058108, 41.64854701545321]]], "bias": [[[0.5986972939746606], [-59.63312686235282], [-33.07883301491884], [15.500818781938488], [19.68438395347722], [43.78111606778088], [46.68085000866809], [169.2620981860274], [-104.31882064281382], [20.91426657843822]], [[-61.109814159939084], [9.374346649040449], [25.95445125777759], [17.63216178110334], [18.162112250425555], [127.02482636954065], [-7.276326093351951], [36.26998474819404], [20.887614344975386], [-9.988435111626131]], [[-120.2773877895918], [-137.31290660380992]]]}, {"weights": [[[-98.28884043065375, -46.0193737874091, 127.49010948732362, 72.44746129456323, -14.94052540053263, -17.105484115217514, -62.76517795037212, 125.37667804273808], [-35.67677543497529, -27.702158204390233, -44.73878098354151, 50.40042631889445, -169.32739616725695, -60.41643956255225, 5.471823309754773, 22.13333463315726], [36.13808366418708, 124.85107756354118, -44.90142832308157, -179.4881373735649, -8.623022832290127, -75.98436088601044, -19.673208414208837, -70.52200034617535], [-90.08419799741057, 57.91312310550381, -90.92521561643903, 57.53374676355504, 47.111362968173935, -6.470218210682595, -85.23785976637227, 32.19086911373186], [-132.9385154801356, 66.58187262223588, 95.49045142208462, -15.018063412725224, 16.910153912184782, 1.0269430261192602, -71.8014802852375, -31.821883835726993], [7.317074575927737, 33.779489056085005, 15.459026568233481, -78.89290505371928, 106.43701284339383, -14.76045156787152, -59.65137710129186, 89.14730175678982], [-69.5383958023165, -44.091978741888404, -53.824915421642544, 17.963707473293034, -150.3525684514887, -55.91854202128969, -0.017463459074862388, 41.886984293189705], [11.334584826432238, -16.13598016426006, -6.257457111688436, 31.20452708635326, -22.54808248911023, -0.4781080536423645, 98.5487887625235, 13.880569863014891], [-61.58728109969233, 43.07564305366914, 34.7320395522591, -35.8628904143845, 4.904623817491983, -0.5645789938950035, 198.35360839320106, -54.07493990402366], [-81.68608330960303, -79.1039615343596, 29.083089686669936, 46.36782106807268, 40.04171533155994, -2.57507954492179, -45.42434287419903, -39.163230261405886]], [[81.0872269132226, -21.882003947699562, -109.93765602656958, -21.305138894004624, 43.399995446794875, 7.011915608761029, -56.036356066376726, -65.9537636834329, 99.24953308679758, 60.216059835048156], [-52.04028548946188, -8.738746385207413, 45.38258944274831, 2.157878879960312, -6.683233583928842, 9.145248102663412, 30.290857858562248, -0.4014313380885989, 100.04945820497454, -44.90330680263112], [-7.624594725866099, 49.112494165263286, -0.2306086296796202, -37.868597856650965, -31.290580297576042, -19.266476578995217, 95.04449445786707, -69.1049831239452, 177.49920221549166, 12.050805603159992], [13.532443301106845, 46.246119602424066, 35.60164757325212, 39.19882573806368, 7.104634929281691, -8.977727978419615, -0.19667270446691343, 23.739566548138324, 41.62675162906198, 13.902584382309312], [63.30876252078843, -71.45443434734844, -109.09492835092962, 22.993511560489992, 78.58361360382773, 129.2354977596791, 15.283109479497814, 42.0393589018532, 30.64014812241376, -94.8082982627687], [39.44697664221991, -36.71764471060251, -46.62203626892034, 78.02994712612976, 8.19305011438458, 32.9837385452121, 145.1177591104048, 11.081214129010492, -78.77679547951747, -51.241915631192235], [14.391186187898228, -36.76387287256781, 105.2423251579705, -40.42519842672725, 116.47659363667628, -13.494877510275874, 50.308572396386786, -17.207157583095054, -19.92694998250642, 23.77985470892257], [-9.725376541371856, 5.085374428593142, 81.65514358368728, 11.315936709013231, -53.78174391122605, 119.65157962514365, 39.917614826700785, 103.80399593780258, -81.11144660159, -0.038405580741530235], [108.25500286992128, -71.65822479731797, -37.61699185559475, -21.801583235991576, 76.32193354211414, 72.75338123347338, -77.0459820279365, -48.54341415643604, -25.37722399001728, 10.946679436664496], [171.7215641592316, 94.35509443292312, 25.94917216801113, -23.744984279350543, 181.76954661059517, 133.8075301535448, 2.7060410014606338, 98.18938128664574, -38.98138621209532, 38.54228807609024]], [[52.21418475267519, 130.92602680352246, 36.82555193548767, 52.04013012729651, -2.5607185127173584, 6.330633012314679, 22.77770153493298, 21.75123859309504, -8.05100114631347, -50.30874541495409], [159.36371033437928, 18.580216121101287, 8.153926851563678, 17.33112900389662, -8.84303324077397, -9.054902876133722, 79.7433167656743, -58.84535932650542, 87.50578103813417, 41.70708670340687]]], "bias": [[[3.2063050844100323], [-60.657660856839655], [-34.78691716570317], [15.500818781938488], [21.939097917230367], [41.39718236708037], [43.76280998235798], [169.2620981860274], [-104.2251596993209], [19.483502783692693]], [[-62.629429644527924], [9.88996289857604], [24.13056566262885], [15.64439185619006], [16.3730667697564], [127.78392827214199], [-5.488087338114154], [39.56347038868036], [20.398401409770422], [-9.179968653546506]], [[-119.83243949862435], [-137.8787526052678]]]}, {"weights": [[[-98.28884043065375, -46.17268085026253, 126.28908876250064, 73.71096300664317, -14.11085276066299, -18.839439021310145, -62.76517795037212, 125.37667804273808], [-35.48813670681835, -27.702158204390233, -44.486978002026405, 50.40042631889445, -168.69794017894952, -58.578632192907754, 5.188102177330749, 22.13333463315726], [35.76503019089717, 124.85107756354118, -45.08215353220467, -180.0411306348439, -9.77025253507076, -75.98436088601044, -19.81276510824647, -70.51552899049037], [-91.74045154962921, 65.02581740538005, -90.34019858723383, 54.555235052319055, 47.41736334253906, -7.014838418829457, -83.0004050237472, 28.66080192948185], [-132.03562528493438, 69.22399593229585, 94.98744399931522, -17.949270863153956, 12.888597827014678, -1.8158359807995055, -74.99962229555119, -32.28962309639349], [13.26943874831039, 36.16751041699159, 14.38710938190153, -71.17241905200495, 104.96652404846171, -15.737849232571904, -57.46439872590399, 83.67065565399061], [-63.02297006118537, -44.83811222364085, -51.221268898986935, 20.41735649095742, -153.344535121832, -49.22557914238836, -0.1516759016664536, 36.55816408939033], [10.289444718175487, -16.15595018784066, -7.057392327305818, 31.00743839506662, -23.321206717046916, 1.0143880157579226, 97.8283243436254, 12.707198260893303], [-60.85377620471598, 42.2631178101964, 35.11959008768786, -31.934042037416972, 5.107896554385853, -0.24945489711098381, 201.29413593215298, -53.677558295928264], [-82.50076227973648, -79.66995161107067, 29.16231418585773, 46.94894914421096, 40.04171533155994, -2.954751204043359, -45.65602887396598, -39.163230261405886]], [[82.07068773501089, -22.471594353703985, -109.93765602656958, -21.428545330588097, 40.98218896193395, 6.190108002870836, -56.036356066376726, -65.74939553057028, 98.9334744014424, 62.26813763658007], [-50.54586470238386, -8.686122296983108, 44.81203595278006, 2.429871140629564, -6.120787302267775, 9.145248102663412, 30.290857858562248, -0.8711202800836501, 99.15721023457903, -44.86605427066977], [-7.455846284878053, 45.785529922390964, -2.343166855138505, -37.868597856650965, -31.05567398420476, -19.266476578995217, 93.49499350600668, -68.16081601418227, 175.93534877664453, 12.050805603159992], [13.95007310259538, 44.56241437362611, 36.733485352297485, 39.19882573806368, 7.390609932195419, -9.08157251175378, 1.0123945806230308, 23.5953895605734, 42.271999460794994, 13.902584382309312], [63.30876252078843, -69.88281153766533, -110.12471895311845, 22.993511560489992, 79.61158440090023, 129.36853517315456, 15.626715295797467, 41.34735942676994, 30.08518916280154, -94.8082982627687], [39.27619902360042, -36.765088052487016, -48.138191953667445, 77.59370586001106, 9.356280123378482, 30.17936875957554, 144.671983419222, 9.981492013590561, -78.77679547951747, -51.241915631192235], [14.391186187898228, -38.936877755819104, 105.2423251579705, -39.79719787209812, 116.23410852398244, -13.494877510275874, 52.893169129017764, -17.05201643538146, -19.92694998250642, 23.1061455903191], [-10.81128161357637, 5.042688824987158, 82.51414282020721, 11.9285434974951, -54.18364589302158, 118.9547609773976, 42.49891235177608, 105.28879861895082, -79.02465690128655, 0.06530127045592893], [108.25500286992128, -72.48180097778196, -37.36100335042227, -21.801583235991576, 76.44497066904081, 72.75338123347338, -76.73593025015714, -48.54341415643604, -25.37722399001728, 10.065312837523873], [171.7215641592316, 93.91736773178901, 25.94917216801113, -24.53792685951015, 182.22052506944215, 136.3505177113767, 5.937069175779021, 97.76789064220488, -40.257809284088275, 39.974910156450704]], [[54.34582430730631, 129.8331888071885, 38.70935312116684, 51.71481434439176, -2.424311443048196, 7.279891556807273, 22.77770153493298, 20.65775817645431, -8.101747078582747, -50.30874541495409], [158.74514593008368, 18.580216121101287, 8.488335853598272, 16.827062130332667, -11.23672172571581, -10.50004043209832, 79.7433167656743, -58.84535932650542, 88.11929030429727, 41.40855973591472]]], "bias": [[[1.2253774142841245], [-59.85138727728364], [-33.07883301491884], [15.500818781938488], [21.61964287328935], [41.39718236708037], [44.55101824915045], [169.2620981860274], [-104.2251596993209], [20.469157097293127]], [[-61.97648254026571], [9.374346649040449], [26.721249788198502], [16.670449119093703], [18.162112250425555], [126.9663703055381], [-9.801515330123053], [38.17302752460651], [20.275144864902547], [-9.988435111626131]], [[-120.2773877895918], [-137.2540608807634]]]}, {"weights": [[[-104.43458305293478, -44.82779566385613, 124.74847342490767, 73.37793440360257, -14.45117160393333, -22.596400806972117, -60.74393401383022, 125.59269877446054], [-35.702286228480354, -30.640461588299903, -40.75849587410229, 48.81879194317534, -172.53861414370445, -55.99399812858801, 1.3067525701708853, 26.631451949963513], [41.5372284331097, 129.29465603628003, -46.36273055974956, -184.4381678124841, -2.153936318437291, -66.35829113208436, -15.891277629623318, -71.47469605665137], [-92.93813513072705, 60.753481846768786, -93.60631752098932, 57.32451663229617, 55.417466022617134, -7.5263656822367455, -79.91420641008143, 33.87955237673602], [-123.55923032640304, 66.81077447027405, 90.24683143971525, -22.370705173683255, 18.491211069932113, -2.056493568542598, -69.71578826456552, -43.198990380066135], [12.267581220768388, 35.69568575409343, 16.203707067905384, -73.72527286726545, 106.897459348148, -15.997587721185276, -59.80810937015559, 84.76929988380299], [-63.64530712973438, -40.234627981625515, -55.586498127982, 16.599606166685742, -157.85172073439912, -43.580933802296386, -0.38669709989641876, 39.89537851384344], [16.047343600282343, -23.298072603271994, -3.3136071422698663, 33.551870634199624, -26.549472665676415, -2.9929008125714334, 98.8902301806726, 5.120740380116993], [-59.09987117074136, 40.74877981629743, 33.37218399442004, -31.117021889504812, -2.954651267804164, 0.06740954030298422, 200.90613546188484, -51.57217093850275], [-80.34877663492293, -77.98538407059971, 29.632411722990184, 51.272456739876134, 34.51532191454801, -3.3628300355098384, -39.87185535652018, -42.464552088003224]], [[78.97150765166504, -26.292753113985537, -107.79249541010668, -26.11142029157434, 53.557497982682335, 3.6260620435024786, -70.45974572557505, -69.51716120853885, 103.38617888459441, 62.02077054239763], [-48.52341703038825, -2.6183254128008926, 45.99875909991, -2.039690418927209, -2.156132914668591, 5.402893368513478, 23.74769491124703, -2.899498825233083, 100.88598557164802, -50.847163515798734], [-6.81895434166221, 38.5194179039007, -1.499111226491224, -39.181606850016706, -32.988206995650216, -10.100671429709763, 96.1624972907203, -64.23909590066698, 183.3977455589138, 12.190988670178891], [9.67238094521761, 48.73174271975442, 43.21299904658565, 33.43302907579731, -2.431036612393954, -6.039164914923223, -5.323875510768565, 26.21127491712351, 43.628482171521426, 7.983012923633513], [61.607989684415166, -70.91909918985989, -112.93509917176333, 27.600430948436788, 76.94647378916639, 129.71196981880655, 12.339803525893569, 34.86985812729338, 30.635847435663354, -91.01305751959119], [38.10359950441203, -38.9348602709705, -42.87593053566713, 76.43111166656988, 9.553029740003717, 32.58983579360963, 148.87165622684023, 10.042342429377848, -74.89155211133551, -53.20625509183398], [14.67694965730938, -38.0169750550423, 110.57237375643211, -42.11193475102534, 113.74874069555997, -10.345021534288907, 57.91308338710474, -20.659940099197833, -9.574061876468466, 27.93552417537873], [-8.241693167955727, 0.10351875382874898, 78.76974969487456, 10.495164550651321, -53.96057762853905, 115.9131440135346, 42.65579747462069, 109.98206190398403, -79.40087766946878, -0.7162327905532216], [111.03289405521254, -72.86968166219701, -34.472210515406324, -30.57145259004498, 84.48443410739758, 67.09184645226696, -73.72474515909165, -53.99118294024136, -31.286728170540798, 10.07584949316543], [169.5117695059122, 93.8060758707987, 27.455995575329123, -21.036774616293826, 187.50858908169945, 135.53246498468766, 11.482868127959435, 101.29558067564703, -35.661569810730015, 40.68005985780732]], [[52.099961434196054, 129.73934868708602, 37.799558224393486, 51.92564027649018, -3.8925466378751565, 7.109289531307432, 19.849147421175434, 21.63579943374164, -6.5528574652406, -47.73174262203279], [158.2972487235234, 15.824097154293138, 8.471765589210914, 12.737224372667173, -13.34147644166769, -7.7531143675197765, 77.22310840952244, -58.40620044972128, 91.40242252656874, 40.195299359281854]]], "bias": [[[-2.127121565092783], [-59.55473953597115], [-28.66175987066763], [3.914385556813823], [34.138761897918286], [42.62384115120989], [45.914616405635165], [172.97740418391558], [-97.19883814024234], [16.07975957331464]], [[-63.85101621892889], [9.793395194151035], [22.991772718288573], [13.160156986059182], [16.99486522747173], [121.62313594746706], [-5.777142665593629], [38.00688649528744], [26.029929162064196], [-11.121021117722423]], [[-126.45199162697182], [-135.5664968017879]]]}, {"weights": [[[-102.92524877706883, -49.86102939984601, 126.65263311889717, 71.59412965224193, -13.23583921361786, -18.699176661849428, -68.78710245734807, 126.10809875982537], [-37.92582723855426, -33.399781883687446, -46.01957932553401, 51.94266013967421, -167.53525702287385, -58.35110317213545, 4.673733140204692, 25.263633464077966], [45.66612757455466, 124.68367392571838, -46.661312221071434, -177.62467032967734, -0.5935353192235175, -67.66480990499588, -16.27183398340394, -75.54353222473361], [-90.54078275425465, 61.11707438867987, -91.45636201501439, 57.70718694350311, 45.866781120148914, -6.095692965539812, -84.7729959150634, 32.301569633312674], [-131.80420641112673, 67.07486352434603, 95.9469071247261, -17.74711301699843, 15.667981804768447, 3.481542163451734, -71.41634116650762, -32.84798873134851], [9.976523422329656, 32.971406261949255, 14.881857517133307, -79.57725334546708, 108.35614463973793, -12.660127262656582, -59.65137710129186, 88.48242204176324], [-69.57166264819749, -45.05501205367439, -54.07040824094566, 18.891230260632973, -150.28645209239227, -50.598107221341905, -0.0036341468479551553, 42.202009701288034], [11.744719927738439, -20.82937764477707, -9.123655632669898, 31.791087524935882, -27.560673632530648, -1.7676184971470215, 97.22390548358105, 8.623703422201855], [-59.708160941888856, 42.506171944357725, 33.980804508653875, -33.366431610535756, -0.42633210104374797, -0.3873195193037833, 202.8450088303881, -45.21660701470627], [-81.88605533617368, -79.3969832762839, 29.48068361597201, 45.48336508462304, 31.97694314729612, -3.973763830949248, -42.66699633882092, -43.568633166205956]], [[80.54629246681216, -23.27656202427951, -103.54856742510182, -25.907137076102842, 45.63774047169857, 6.479941537157981, -63.53579683339564, -65.12436107329546, 94.45641433198088, 61.82916386766905], [-49.47730657692218, -3.4987454284094315, 44.2491953690046, 2.3567328639434004, -4.383150537197489, 6.245186059101666, 22.054385509834873, -2.506325421469529, 102.61928410448625, -50.84407652402079], [-11.03499884043248, 43.60481730573548, -0.026468023942904373, -38.54093198457183, -27.700489848961865, -15.396038655046294, 97.76962113494297, -67.7707924834602, 179.85713260995513, 14.853065592838075], [11.818854740127344, 48.503327341388164, 42.07970165034044, 34.59781449420387, 5.870580713666018, -2.869731281051278, 0.6906725016656245, 20.999622893333903, 43.004398900079735, 12.119172084517572], [67.0000071870842, -68.2028085280768, -113.2483313512265, 26.892745812415, 78.3685612173921, 128.47485568355242, 16.795884016932842, 38.8322876188857, 28.09217843275556, -93.46499199114554], [33.014973690720474, -38.09764358805562, -43.60401076740084, 77.5989469218689, 8.051821906714792, 33.10509379521016, 142.51197446127838, 9.831119013126479, -75.004621720104, -48.605478814283465], [13.759121419299131, -42.904874233215544, 108.20494017327283, -43.09582065117653, 114.93617157901136, -11.817649513305286, 53.880252198702806, -19.150134267025145, -12.837599238960388, 25.96847562218122], [-8.295699417261087, 2.350727532962412, 78.04732772902679, 11.758426200371465, -54.29958803301824, 115.67160405961683, 42.60796041021906, 107.4729425360751, -77.06527210069179, -3.172884836840055], [107.92502097483899, -74.71332029164444, -34.19768400694039, -30.623492211780896, 83.55864778212585, 70.65095925618292, -70.90322875649042, -46.64000923057939, -31.356170286079504, 11.639502851222636], [167.85154178241126, 92.92965801996252, 26.671460820227427, -22.422293905153925, 186.91900947694836, 136.48155586385982, 9.147490152366034, 101.54114885268514, -37.000640425788625, 40.06358382342917]], [[52.58431104415537, 131.00615354474314, 35.67716497627262, 51.793813095410016, -4.0444468754085205, 6.163832324232631, 22.704339734256436, 20.107712510646603, -3.142830512382506, -53.7584154647187], [158.748285022396, 15.62110760049984, 7.3572868625525585, 13.746981724843696, -10.800613407388335, -8.950350473035304, 77.57947999658721, -58.51879624750608, 88.1962133952634, 39.9621803633058]]], "bias": [[[0.020061764111206887], [-58.12506524803676], [-27.86046250589053], [3.2126884936575912], [34.7715641553612], [42.62384115120989], [43.4293159396737], [164.43801026569537], [-100.69393585212406], [18.12643256997582]], [[-60.02299426098638], [8.24340436692998], [21.848282155600888], [12.952878420138896], [17.335390835569893], [121.62313594746706], [-4.630541143273723], [38.01014745372976], [25.586557013764168], [-13.24748909064234]], [[-125.94864033664071], [-136.9131899362287]]]}, {"weights": [[[-98.45435674128785, -45.33418218528427, 126.28908876250064, 73.38911562284603, -13.541511613241994, -18.738630872355255, -62.10623244999263, 126.1294231472], [-35.48813670681835, -25.967817812254463, -44.486978002026405, 50.972830522609094, -168.69794017894952, -59.522210579000536, 5.188102177330749, 23.66169564432651], [35.76503019089717, 124.67865655353452, -45.08215353220467, -180.0411306348439, -11.060245801347387, -74.21475754305088, -19.640998106121664, -70.51552899049037], [-91.74045154962921, 65.02581740538005, -90.34019858723383, 54.555235052319055, 47.55832223530748, -7.014838418829457, -83.0004050237472, 28.128493833209006], [-133.17431685163402, 69.79032847122866, 93.73699201168766, -17.949270863153956, 12.888597827014678, -1.8158359807995055, -76.80851637903403, -33.41345464878834], [13.26943874831039, 34.25577572501858, 14.38710938190153, -72.10802256097885, 104.9645087768148, -15.737849232571904, -58.0795375678551, 83.67065565399061], [-61.31653580651911, -44.86544538605152, -51.221268898986935, 20.41735649095742, -153.344535121832, -49.68378861268035, -0.1516759016664536, 37.15237868498329], [10.783671025890477, -24.3412040207921, -8.692237957663037, 31.95572675292587, -26.638286764430354, -0.48025844557465214, 100.7537420473587, 6.134968318569262], [-60.91198510575132, 42.691678369416366, 36.44558055745843, -33.7198456105497, -1.2255205068479507, 2.667188811100927, 206.54013427827365, -46.17663420825556], [-80.5544395485138, -81.1634616743386, 29.28795229242179, 47.863868067966614, 31.790060002140216, -4.112470703204783, -45.35253489646832, -44.75181574934886]], [[83.19085814501146, -21.171854820071303, -109.93765602656958, -19.60907336978902, 40.150180354298705, 6.651383141876487, -57.02887874206079, -66.85558140972437, 98.9334744014424, 61.81350311544632], [-50.54586470238386, -8.686122296983108, 43.8735534838839, 2.429871140629564, -6.120787302267775, 9.333990957948746, 30.773944680809137, -0.8286430922510607, 99.15721023457903, -44.86605427066977], [-7.455846284878053, 45.785529922390964, -2.343166855138505, -39.20511254279139, -31.05567398420476, -20.103106901352554, 93.49499350600668, -68.24562076445939, 176.80406739840157, 11.967962442033272], [14.62036553964115, 44.20064290071039, 36.733485352297485, 38.55245996920077, 7.930426899020676, -9.08157251175378, 1.0123945806230308, 23.5953895605734, 42.271999460794994, 13.902584382309312], [63.827148491889986, -66.60915012754383, -113.03701114366042, 22.21021283629773, 73.36473064140861, 128.9290805217254, 18.24413478484533, 41.960791798262285, 31.903170150310117, -92.5444682490857], [33.19148603692068, -41.1907673349438, -43.60401076740084, 76.65347143299749, 10.241947229813308, 36.65445322620493, 144.9554740617369, 8.93237093027364, -74.11105545589184, -49.88942067440311], [14.017108611058251, -42.59902579337905, 109.2595441689817, -40.788359531128485, 112.06414649540908, -11.17308757440359, 57.6770831852189, -20.76965435326191, -11.57277239397013, 25.40684589945565], [-6.151324101115685, 2.1055508609378606, 79.34516768539449, 10.942951563192931, -53.79733255540778, 117.06102613252588, 43.64558104592919, 109.10917731228395, -77.30482073426668, -0.5568159980658609], [107.5799402429034, -70.36161556514556, -34.83675559700964, -31.75806500808191, 85.23092490553981, 69.37275310863967, -69.85535038706946, -47.436247285945946, -34.40797916133579, 13.44083878933068], [166.38957431469746, 93.90923682832747, 26.950946424923643, -21.09521916807268, 185.96614908669935, 136.4942008800673, 11.505635930347937, 99.46470658033395, -38.67580489431404, 39.639180850148556]], [[51.779316072856375, 130.34763039055215, 37.66680405345593, 51.71481434439176, -2.424311443048196, 7.279891556807273, 22.77770153493298, 18.755627273035255, -8.101747078582747, -50.52024805151774], [158.49503231779687, 16.554557818736207, 6.400336122175008, 10.569975741931032, -10.554416047378762, -5.228688258486116, 76.30640644677457, -61.266179602219644, 90.2780904534449, 40.18571916767507]]], "bias": [[[1.090074176945702], [-61.00454753156614], [-33.07883301491884], [15.500818781938488], [21.61964287328935], [41.39718236708037], [43.91427440754863], [167.81916607245606], [-103.17278314718713], [17.956302993387855]], [[-62.281059082163964], [9.595150423415946], [25.36638898500613], [16.670449119093703], [18.162112250425555], [127.82950730622841], [-9.801515330123053], [37.45275231402546], [21.99802742188954], [-14.150751448634425]], [[-117.54100305469112], [-136.15236173235843]]]}, {"weights": [[[-90.52416359294172, -52.54443164609233, 123.61889662563325, 74.09770105728774, -14.257224230536421, -23.96379900501559, -74.0623254349336, 126.5661044077353], [-31.6816789313114, -39.59419543036277, -32.45774613037737, 55.36137135041919, -166.73863367668238, -61.09004843835162, 9.186628707267383, 19.827732396039657], [41.250424746741466, 129.73885056879405, -43.054333220433705, -175.5455280526594, 4.121610724486829, -73.9837925495825, -15.135593077099093, -64.95743492597889], [-92.1166509960341, 61.91478688291696, -94.78311492532389, 57.1074371747972, 54.9178126467669, -6.867497723030571, -79.91420641008143, 33.255757112410244], [-124.93252116624913, 66.84235189598306, 90.36844332883007, -21.480757621790662, 18.43028876263459, -2.056493568542598, -73.06697081337295, -43.198990380066135], [12.918095717860032, 37.22706639396243, 16.241026652500143, -74.77930794692936, 106.73552487649208, -14.824620436338785, -59.80810937015559, 85.89119753677308], [-65.99697200418862, -38.07394327969097, -55.128146726042665, 16.28201807482137, -158.86141758874567, -45.34375221156071, -0.38669709989641876, 41.74031341576655], [9.1321908279029, -19.306761299497843, -8.74714972591751, 29.926171508715967, -25.771779129362386, 0.3564773363413942, 101.55187558052184, 8.99549386953543], [-59.92678479180916, 38.545687414644526, 37.051096135954246, -31.17076102345719, 0.0756389260618946, 2.981959459235763, 199.7430297724782, -58.64203570756156], [-78.45603947956718, -80.89775546908666, 32.13290663485605, 52.568412739155335, 36.46106237347485, -4.725102317670588, -45.5309240754668, -51.862595487327816]], [[79.5606202500178, -27.179734437618116, -106.74566718730216, -26.11142029157434, 54.12776800897138, 3.6260620435024786, -70.49590928688995, -70.08537402985743, 101.4129963825405, 62.02077054239763], [-49.54467778121854, -2.6183254128008926, 46.74267947719795, -3.318003631151576, -3.3697560429341067, 5.98174400115582, 22.344262245136157, -1.635357242279926, 99.1706880087923, -49.70879376252404], [-8.472459946614647, 37.879810305227466, -1.0145594477613233, -39.03567003160909, -32.988206995650216, -9.462491275288098, 96.35235531500452, -64.32136654788088, 183.14267541026894, 9.913555833351507], [10.456628502181529, 48.47278074022391, 43.21299904658565, 33.45277668079452, -1.9998017664865275, -6.591163847667531, -5.323875510768565, 27.313826570714202, 43.55955283483935, 9.63313857440803], [61.607989684415166, -71.18847978726698, -111.42509205411375, 26.856884777140262, 77.5145942079136, 129.83539643658543, 14.506754128587483, 37.66335788449967, 30.89613413390467, -90.98634172998369], [38.25015873084156, -40.83091172758553, -42.39682296886731, 74.81165484792761, 10.473809037093927, 32.58983579360963, 148.413095193601, 10.042342429377848, -75.73830064002524, -53.20625509183398], [14.109419493686582, -36.92848310373902, 106.76457247644367, -42.522798151770864, 114.4613464471909, -10.345021534288907, 57.91308338710474, -20.659940099197833, -9.939664880073435, 26.01818249534696], [-8.241693167955727, -1.3849971740568272, 78.10176144121162, 10.262652693945611, -54.6708134976017, 115.59359527359548, 42.13766102473486, 109.98206190398403, -77.8618216054302, -1.5315279298245938], [109.83523111792718, -74.36049336636707, -34.472210515406324, -30.57145259004498, 83.4944108787793, 67.76559774874593, -73.76227520601176, -53.35818548092966, -30.050808687054488, 10.25091763464087], [171.91499823883998, 100.59517442654831, 26.966382861000444, -23.12560987696119, 183.53774267891953, 128.04208329374762, 12.135320828514454, 97.08630358644294, -34.89004134362184, 38.01265420839573]], [[55.49784736870998, 129.7660704092919, 36.944085604852, 50.93987235255314, -2.424311443048196, 6.280383625608407, 23.410726085867758, 21.615801736056724, -8.19638135466305, -51.572436724946336], [158.74850346290003, 14.708190223053574, 7.19564784436779, 7.019377005583599, -10.57903571310138, -13.36451194756382, 79.490963604264, -50.51650066270007, 87.91105335906857, 40.602963162725]]], "bias": [[[-1.932601232794082], [-61.61851792705013], [-32.77811002059396], [4.75073496061366], [31.95170977522862], [42.789666913221346], [45.914616405635165], [166.95381120892083], [-103.77627460559673], [20.648055072483345]], [[-65.42469686101423], [10.918817287711303], [26.274189707012717], [16.670449119093703], [18.162112250425555], [126.9663703055381], [-6.068495484492261], [37.917789969023005], [20.275144864902547], [-11.547223620022665]], [[-126.36503504701214], [-138.1588544027947]]]}, {"weights": [[[-102.92524877706883, -49.41596215045865, 127.10935109093576, 72.37722388968386, -10.096362910722517, -19.29293312866354, -68.78656634381478, 122.83924978642793], [-36.43165951461773, -32.55185088456152, -45.8557628035488, 51.94266013967421, -167.96363982235636, -58.35110317213545, 2.8324580347276234, 24.770280701294464], [45.70193269685971, 124.9246942746603, -45.9799065627675, -178.51722283126625, -3.1116827399490665, -66.89424184469013, -21.17249645021848, -76.21549779582439], [-91.67702500495813, 58.97108192338083, -92.66280829251977, 59.20927315650748, 47.99044990387955, -3.7784602999972083, -87.80895979132718, 36.132811377115395], [-130.7037722295377, 67.25900368466873, 94.19883034555772, -18.209001515224138, 16.59216111696276, 0.7539138616161714, -76.24599738709618, -35.12474930270849], [10.866902950117453, 33.35752322062744, 15.321026322908892, -71.03699583884249, 102.99274659154263, -13.912961197175175, -61.006099743676316, 83.65241350741715], [-65.95439578193515, -44.1519471332637, -48.16724127881869, 16.69010976659883, -153.51445217078526, -50.357078702464825, -2.763717743330729, 40.11059846457656], [8.67772211580707, -20.730393988199726, -10.016424608580882, 31.516965380194453, -25.433666711634643, 0.6913187834384161, 101.90910740977985, 6.3898943021141665], [-61.00399607739806, 41.29510665436522, 33.610850870059934, -31.117021889504812, -0.5778998479595174, 0.06740954030298422, 200.90613546188484, -51.57217093850275], [-80.14283134184409, -77.76644903942307, 30.4928240214715, 51.272456739876134, 34.07751368107484, -4.215047530633325, -39.33580401995987, -42.464552088003224]], [[81.6435217466169, -24.85941085592927, -106.87741994380082, -25.691246478721506, 41.07450729555373, 3.441041868924057, -59.286254407481174, -64.96134843745384, 100.3755953884204, 60.72865612940378], [-48.41967239155659, -5.891059106557586, 43.81745500722777, 0.055991409271263004, -3.362465020164805, 6.854945109631824, 25.555733240484766, -2.477931709054172, 101.204472246422, -42.398133027762825], [-2.7997083274579584, 45.1042178442005, -5.97896638133993, -36.52914694121495, -32.01447442280563, -19.758351954063823, 94.94735630454842, -66.7364594235218, 177.8690626245881, 14.312558544351358], [12.929653398667755, 48.38157144324715, 42.12298937050699, 34.03836938032322, 2.2424968915384356, 2.4660778105742485, -0.1801517569092787, 21.06781651955788, 40.521074203123604, 13.257012342468101], [59.41235002346403, -68.4710645994936, -112.14593597038613, 29.170294653628, 77.60309697827027, 131.00349382416707, 16.256559819688356, 36.90196073825207, 30.453041266739067, -94.77642505024953], [36.5517672326858, -39.11616051132363, -43.806062676623526, 74.2249619222342, 12.543968270312464, 32.79899805351603, 145.56740264517975, 5.500161229008663, -72.24605176929934, -47.72567480778406], [13.774700232050236, -37.058773804114296, 106.92603292363263, -38.98000314806635, 114.56117291210865, -13.330810143755098, 50.75398021951625, -30.11786986708209, -11.19195746539072, 27.41450081734932], [-11.705230795335375, -0.4476382523461783, 79.57247943207464, 17.34703987940884, -57.70267526085774, 121.77752357949795, 34.06276670146986, 101.92733665499979, -84.73385911321175, 3.795387574201327], [110.84547334546018, -72.3939970571627, -33.68323720466392, -30.09488903711717, 84.05487191979441, 66.83604197627433, -74.71296761446897, -54.37364383557753, -31.486449525918093, 10.504311508309677], [171.5568251690002, 94.10314299488205, 27.455995575329123, -19.449445758651624, 187.50858908169945, 135.4510319787942, 12.864620034055633, 101.00735804940912, -34.98826416034726, 40.68005985780732]], [[53.34983173229027, 129.50263769377835, 39.406675603921656, 52.165651542107035, -3.3653142841470456, 7.717600462712811, 16.193960627956407, 21.311062356489806, -5.071480134273544, -47.114917622670504], [156.68698298144582, 15.06207453608618, 6.487903957846482, 13.660774011093558, -12.78490411328611, -7.838517232525584, 77.26512303750738, -58.26773646595886, 91.40242252656874, 40.50295639260311]]], "bias": [[[0.48357610548705565], [-60.08451221514555], [-33.93389089704822], [15.505116783753827], [24.61057032724662], [42.08980429442414], [47.93122450099742], [167.461087686455], [-105.34080838013257], [16.07975957331464]], [[-61.021317571647394], [10.263867020701543], [25.95445125777759], [15.18462362959227], [17.250762025614677], [120.17318453396837], [-5.438941361440104], [37.948126830205545], [26.907891089099806], [-12.11175751564421]], [[-121.7704064574438], [-137.7549260921965]]]}, {"weights": [[[-90.52416359294172, -51.58463519963971, 123.61889662563325, 73.63273453988188, -13.074528876629122, -23.96379900501559, -75.51931315971223, 127.4408240042895], [-31.6816789313114, -40.26579802044471, -32.45774613037737, 55.36137135041919, -166.73863367668238, -61.09004843835162, 9.186628707267383, 19.827732396039657], [41.885481699423515, 129.73885056879405, -43.054333220433705, -175.47917119076243, 4.178206662042167, -74.05068825753044, -15.135593077099093, -64.09359034239088], [-92.93813513072705, 61.91478688291696, -94.80157219761615, 56.93139015123639, 54.9178126467669, -6.867497723030571, -79.91420641008143, 33.255757112410244], [-123.55923032640304, 66.84235189598306, 90.6111495845049, -21.480757621790662, 18.491211069932113, -2.056493568542598, -72.52688849813123, -43.198990380066135], [12.918095717860032, 34.76897978985147, 16.914902532242003, -73.72527286726545, 106.897459348148, -15.025422172766394, -59.80810937015559, 84.54392406490531], [-63.30689181888681, -40.234627981625515, -55.128146726042665, 16.28201807482137, -158.86141758874567, -45.34375221156071, -0.38669709989641876, 39.982159022546135], [15.520932099996562, -23.298072603271994, -4.6994039586295075, 33.551870634199624, -26.217610131493494, -1.5165477422609055, 98.8902301806726, 5.120740380116993], [-59.09987117074136, 41.00413425947532, 32.329984661794704, -31.142283499907183, -2.8363312179817215, -0.02208292228340003, 201.47904238787473, -52.62909625124062], [-81.31259409939341, -77.98538407059971, 28.92399295840792, 51.272456739876134, 34.51532191454801, -3.026788355530753, -39.87185535652018, -42.464552088003224]], [[79.5606202500178, -27.179734437618116, -106.83265147322722, -26.11142029157434, 53.557497982682335, 3.6260620435024786, -70.49590928688995, -70.08537402985743, 101.4129963825405, 62.02077054239763], [-49.54467778121854, -2.6183254128008926, 45.99875909991, -2.458751984025522, -3.3697560429341067, 5.402893368513478, 23.74769491124703, -2.899498825233083, 100.88598557164802, -49.70879376252404], [-6.81895434166221, 37.879810305227466, -1.499111226491224, -39.181606850016706, -32.988206995650216, -9.462491275288098, 96.1624972907203, -64.23909590066698, 183.14267541026894, 12.190988670178891], [10.099333161132883, 48.73174271975442, 43.21299904658565, 33.43302907579731, -1.7971323611714614, -5.241180473723988, -5.323875510768565, 26.831419291754965, 43.635420866518665, 7.983012923633513], [61.607989684415166, -70.91909918985989, -113.2173072429796, 26.630361672965314, 78.09568072004016, 129.71196981880655, 14.506754128587483, 37.227120598649655, 31.825526477159293, -91.01305751959119], [37.752515775803076, -40.83091172758553, -42.39682296886731, 75.40083363232024, 10.473809037093927, 32.58983579360963, 148.413095193601, 10.042342429377848, -75.28981539822915, -53.20625509183398], [14.109419493686582, -38.0169750550423, 108.4889035376839, -42.05717386483504, 114.4613464471909, -10.345021534288907, 57.91308338710474, -20.659940099197833, -10.635073016974353, 27.47490202255217], [-8.241693167955727, 0.10351875382874898, 78.10176144121162, 10.495164550651321, -55.33569109147553, 115.9131440135346, 42.13766102473486, 109.98206190398403, -77.8618216054302, -0.7162327905532216], [109.83523111792718, -74.36049336636707, -34.472210515406324, -30.57145259004498, 84.48443410739758, 67.76559774874593, -73.76227520601176, -53.74814812323567, -31.78944170935323, 10.25091763464087], [168.3776109117225, 93.8622989985121, 27.455995575329123, -21.036774616293826, 188.68551886076096, 136.22636746252473, 11.71703930042911, 101.29558067564703, -35.54510999865168, 40.68005985780732]], [[54.32758883197562, 126.20214446978645, 34.466145291767454, 48.3054177042365, -2.5460544301322647, 6.115342469596682, 20.79686512899077, 23.435851809119804, -5.804332535673883, -44.845050798626836], [158.19899695586093, 15.824097154293138, 9.254294318344884, 14.006413406105205, -13.34147644166769, -7.7531143675197765, 78.24523792811173, -58.40620044972128, 91.40242252656874, 41.53450684342837]]], "bias": [[[-1.932601232794082], [-61.61851792705013], [-32.77811002059396], [3.80592503937864], [31.95170977522862], [42.789666913221346], [45.914616405635165], [171.61307781803043], [-97.19883814024234], [16.07975957331464]], [[-65.42469686101423], [9.598233787794012], [20.888530746526406], [16.22260919291723], [18.006497834594672], [125.35584944684517], [-5.777142665593629], [38.00688649528744], [26.029929162064196], [-11.121021117722423]], [[-126.36503504701214], [-135.5664968017879]]]}, {"weights": [[[-102.92524877706883, -49.42448833676667, 127.10935109093576, 71.59412965224193, -13.23583921361786, -19.84182114480831, -68.78710245734807, 123.7935523564889], [-36.50365529032051, -33.51417295649108, -46.41116205077369, 51.94266013967421, -167.96363982235636, -58.35110317213545, 4.673733140204692, 25.263633464077966], [45.66612757455466, 124.9246942746603, -45.84277364348481, -178.79003523182627, -3.1116827399490665, -67.66480990499588, -17.641920226257923, -75.54353222473361], [-90.24449968589383, 58.97108192338083, -91.45636201501439, 57.53374676355504, 47.111362968173935, -5.496979156204198, -84.7729959150634, 32.19086911373186], [-131.80420641112673, 67.29204789914638, 95.9469071247261, -15.952135688193968, 13.972399990225314, 1.0269430261192602, -70.17665085245841, -32.06721988661187], [7.103464396141696, 33.779489056085005, 15.459026568233481, -79.57725334546708, 106.00883777198166, -14.70050979004657, -59.65137710129186, 88.65445472003977], [-68.62732694337554, -44.091978741888404, -53.824915421642544, 18.806588243064848, -150.28645209239227, -52.23272269924067, -0.0036341468479551553, 41.82738477182969], [11.765761795028054, -19.428495104829558, -8.469929498166398, 33.323332873164055, -25.526901196198555, -0.6779501781995455, 101.03081569968984, 5.82438363113166], [-63.4120048722631, 46.18795225455013, 40.41680915702555, -33.15917134509094, 2.040762066519295, -5.6829655557314815, 203.01301362533977, -52.58223283664033], [-77.30219488193872, -79.00085512636055, 32.69564949010451, 56.38157582188678, 36.47991570224751, -4.831198068133411, -45.05528314158273, -51.58797750520867]], [[81.57302042114267, -22.45262554110688, -106.87741994380082, -25.77745769554585, 41.07450729555373, 5.304134606558203, -59.655890880991166, -65.14238527061721, 99.05596386300053, 60.72865612940378], [-47.56615857161427, -5.891059106557586, 43.81745500722777, 0.055991409271263004, -5.2827782868700215, 6.854945109631824, 25.96648446364043, -2.6153544352492712, 101.05655098968091, -44.24680117874297], [-3.6676364624248423, 44.35638475029901, -3.0829173993016985, -36.52914694121495, -31.51528175166824, -20.29403188379835, 94.26428641587049, -66.7364594235218, 177.8690626245881, 13.858696533695595], [12.437645234572287, 48.965626008267854, 42.07328010383596, 35.16572522538502, 2.2424968915384356, 1.0530703584945922, -0.1801517569092787, 21.23261137826328, 41.11427023706536, 13.257012342468101], [59.922679782974356, -68.4710645994936, -112.14593597038613, 28.70193652605416, 75.67075632925659, 130.96517883612012, 16.256559819688356, 37.336540139240036, 30.800358356846218, -94.64478308145992], [38.12408422844993, -38.56509788259785, -44.1291806982381, 74.80986912398916, 12.471141640215395, 32.79899805351603, 145.15513556653715, 7.541487046007206, -73.65147805549768, -47.72567480778406], [12.940218371674261, -37.61076873188644, 106.02731262373688, -38.98000314806635, 113.06719082440532, -14.011867616411243, 50.312475604786755, -29.145107209577912, -9.667949873299923, 25.146993106008434], [-11.558243728261516, -0.4476382523461783, 79.94743588483931, 16.653991698832165, -57.70267526085774, 121.84467414758025, 34.221533368103806, 101.92733665499979, -84.94240411699421, 3.168210925742767], [106.95478955928138, -71.04168805627441, -37.17447730679793, -23.696079095922084, 76.20422385368002, 73.00673174688133, -75.31677987177345, -44.18040384232015, -31.18408608676557, 11.930420429202599], [171.4110047429505, 98.97160345846129, 25.274583565987793, -22.04301900396498, 186.3044909505508, 128.6649575032037, 10.682303737088718, 97.89624427123422, -34.73064716055619, 37.967784661068215]], [[56.41901745990798, 128.3614454746427, 37.1433118668782, 51.71481434439176, -0.823244973328676, 6.280383625608407, 23.442131327401448, 21.640013945591168, -10.39980415896308, -50.41441125335167], [158.10393186714384, 13.398506839125606, 5.006386346674406, 9.119540823337665, -10.46618891078374, -11.028017579339572, 82.37859390358386, -50.890080054109795, 87.24594447570165, 43.899871491215436]]], "bias": [[[0.48357610548705565], [-60.08451221514555], [-33.93389089704822], [15.524836157964467], [21.61964287328935], [41.39718236708037], [44.55101824915045], [167.3133326076966], [-102.35591310644315], [20.901996399761483]], [[-61.021317571647394], [9.88996289857604], [25.95445125777759], [14.968912585452548], [18.162112250425555], [126.64113224155282], [-7.276326093351951], [38.7380807008511], [20.275144864902547], [-9.258596372394205]], [[-121.7704064574438], [-138.4138778524192]]]}, {"weights": [[[-96.99466195782686, -52.423126942087684, 130.69413322457848, 76.39610006481313, -10.768539121457048, -22.924850444777746, -67.51624916083745, 125.4029789556729], [-35.258358728640744, -28.38195093457963, -44.74463871200463, 52.5705485258532, -169.61233688231218, -58.35248397878495, 3.788432907025248, 25.802775398488926], [42.008200704705544, 128.70069005300172, -48.47923891715352, -176.17525755061013, -4.235503195033782, -68.71759769047672, -18.065306446981264, -77.50004203962081], [-86.2243423045939, 67.85163815993671, -88.71813503449233, 58.465037625481855, 46.93783802790974, -4.431481417638279, -86.78508449030973, 30.326044697069502], [-123.7298344721514, 66.5459649638931, 89.6075568900572, -21.480757621790662, 17.830306298085468, -2.2130182838774566, -71.96116859482684, -42.76183346091328], [11.636314543507831, 34.76897978985147, 16.914902532242003, -72.4231691283836, 107.65342988111009, -14.081438110357288, -58.97733458489939, 83.29299039659838], [-63.30689181888681, -42.258084614251125, -55.128146726042665, 16.28201807482137, -159.46203479334494, -45.86294227508587, -0.38669709989641876, 39.982159022546135], [17.883327857865346, -24.050471003000784, -3.6900171376920956, 35.414269139600904, -27.083772875947503, -0.9352925108246242, 99.85700419043984, 3.3628394253648546], [-58.0341999613708, 40.28178538998401, 31.827239901492412, -30.76039553685821, -2.8363312179817215, -0.02208292228340003, 200.94819048529587, -53.68304668310933], [-81.9992550233482, -77.84331626549074, 32.594179367748396, 51.502021913703636, 31.871884912841338, -2.179068976147088, -39.87185535652018, -44.24487606465808]], [[78.64912342047089, -22.151751938103164, -103.79046805560586, -26.33479055648896, 42.384323233692804, 3.470569255586767, -62.219550458515144, -62.76012319441283, 94.45641433198088, 61.31166802488405], [-48.71424981024145, -2.811497966752805, 45.310893589059816, 3.9869482491663675, -2.534854966566343, 7.583138496862781, 22.090179928505236, -2.799881242837366, 104.00761445216646, -48.75896333358425], [-8.235839538566472, 43.82068148688533, 0.1988237999192023, -37.66881912939719, -29.123697918479646, -15.155802201274533, 95.29296516308804, -69.74325254703649, 182.31831132440865, 13.217912339544725], [12.690841543367528, 48.192623248275, 43.995365266931145, 35.88240622036571, -1.14703135195641, -5.927752610602136, -3.246436329516514, 25.213619634438082, 44.17786598325507, 7.712285391916282], [61.213302454996956, -70.28047139493292, -113.49980182427747, 29.333574568033907, 77.7435493315153, 131.54518855609533, 15.739691896511731, 39.899608609670494, 32.199729155653515, -91.89495166818432], [38.80019905699928, -39.84913128123, -49.76132932416922, 78.79744210226909, 11.152921994829516, 34.98497080087038, 150.69917666463385, 9.049752795793692, -76.58303994948102, -48.97596468642105], [14.425455016075642, -40.219185189223296, 109.46961029122303, -38.052843899775425, 114.91910242697972, -11.986491590219318, 50.90245078279014, -13.152749657919664, -18.17884062275828, 18.663601264132996], [-7.5451632108595135, -0.4947918186933291, 78.59268016281551, 11.740246978524283, -54.92663602034356, 117.0494347969455, 42.13766102473486, 108.05123667898253, -77.8618216054302, -0.7162327905532216], [110.02650846664342, -73.87519135232743, -35.19011349635443, -30.826372061613373, 86.6909941425887, 67.76559774874593, -73.7808143537984, -55.355026498473144, -30.34199952861034, 8.2166484243721], [168.3776109117225, 93.8622989985121, 27.455995575329123, -20.511172683742615, 188.68551886076096, 137.09536996264083, 10.110743367616275, 101.04118684396458, -34.88803724738069, 40.61554340425304]], [[52.16073982330846, 130.73059804398707, 37.368876928323076, 46.08236198104817, -2.8058286986672463, 6.256126715495167, 25.136626187874047, 25.03765176009471, -8.490150793762735, -48.87666802382778], [158.19899695586093, 17.652625556143935, 9.074552367472037, 14.006413406105205, -14.696684471650155, -6.340162386433872, 78.24523792811173, -58.40620044972128, 91.40242252656874, 42.845858565228774]]], "bias": [[[-1.755334214025971], [-60.832911791745886], [-30.881193708521046], [15.164585219492531], [20.199097507828437], [42.62384115120989], [46.99293314073098], [171.87328902569752], [-97.19883814024234], [16.652968378983118]], [[-67.2515362708378], [3.974873504851645], [23.297284561470796], [16.204154068046456], [16.3398093798448], [125.88153862717537], [-3.560031542887006], [38.00688649528744], [27.56646646555224], [-11.736990234063354]], [[-126.36503504701214], [-135.5933405275224]]]}, {"weights": [[[-102.92524877706883, -49.87758486444941, 128.06851690949443, 71.59412965224193, -13.23583921361786, -19.84182114480831, -66.76281846097686, 123.7935523564889], [-36.50365529032051, -33.51417295649108, -46.41116205077369, 52.132574344647054, -167.20006214152235, -58.32573938246842, 4.675036513007356, 24.09467948666652], [43.76085715494673, 129.2332056058872, -46.36273055974956, -184.69447473337254, -1.7073997015677742, -64.92308920508583, -17.75818225731162, -71.47469605665137], [-92.71331854599246, 60.904706954056586, -93.60631752098932, 57.32451663229617, 54.33789843682796, -7.621223524291853, -79.83050271226206, 32.547508230973314], [-123.55923032640304, 68.01319055735698, 89.0167531081293, -22.237939036284804, 17.830306298085468, -2.0802670321004317, -72.76208512652067, -44.63651824338234], [14.514995209508022, 34.62485972781863, 16.914902532242003, -72.4231691283836, 107.65342988111009, -14.887940267351707, -58.370589367629925, 85.23793573178794], [-63.30689181888681, -40.566177055917, -56.206485255989314, 16.28201807482137, -159.7144666411972, -45.62750820483482, -0.38669709989641876, 39.982159022546135], [15.520932099996562, -24.482873738067543, -1.8758969178586415, 35.414269139600904, -27.083772875947503, -0.31653736063879423, 99.05087847962407, 5.104673672036319], [-59.09987117074136, 41.21620212359517, 31.827239901492412, -30.76039553685821, -2.8363312179817215, -0.20569176270773692, 202.72784426594907, -53.16438260469986], [-81.92721774364503, -77.45888428151024, 31.179014696829853, 51.33153600218468, 32.25610072631265, -4.377464756335979, -39.87185535652018, -44.948302220030406]], [[80.61797666138406, -22.975544738319893, -106.73167248517352, -25.77745769554585, 41.07450729555373, 5.304134606558203, -58.829808451542654, -65.81414729589054, 96.30186726888797, 60.72865612940378], [-47.56615857161427, -5.736667813769321, 44.69239849558841, -0.6342299193826578, -5.035722805656979, 6.854945109631824, 25.96648446364043, -3.5020238562349446, 101.05655098968091, -45.08942361500459], [-4.571495401404919, 44.35638475029901, -2.200836412326744, -36.52914694121495, -31.51528175166824, -20.29403188379835, 95.04216552211477, -69.39923051754913, 175.40806111687354, 13.858696533695595], [12.437645234572287, 48.965626008267854, 42.07328010383596, 34.08439976226045, 1.7239890172744272, 0.8055962246228929, -1.0381089400668113, 21.23261137826328, 40.38409125119016, 13.257012342468101], [58.26352211701392, -68.4710645994936, -112.66662187329192, 28.752273408708636, 75.67075632925659, 129.4798577823096, 16.256559819688356, 37.336540139240036, 32.049575732371636, -95.00821217884946], [37.08768683217773, -40.83091172758553, -42.39682296886731, 73.63081771804438, 9.564685678976309, 32.58983579360963, 149.47782570232388, 9.095970761408175, -75.20129100307993, -53.3034324223443], [13.483364169352871, -38.0169750550423, 109.298224132213, -41.8239972622267, 114.4613464471909, -11.430276504296657, 57.126189092806385, -20.659940099197833, -10.635073016974353, 24.83430355477426], [-8.579033179355818, -0.2562432099150153, 78.10176144121162, 10.495164550651321, -55.7810516693843, 115.9131440135346, 42.13766102473486, 108.05123667898253, -77.8618216054302, -0.9819878489863781], [110.02650846664342, -74.327455118638, -34.472210515406324, -30.57145259004498, 86.58380429681678, 67.76559774874593, -75.35411110133897, -54.52894526493531, -30.34199952861034, 10.856724659772313], [167.7444642506272, 93.94507397614504, 27.455995575329123, -20.511172683742615, 188.68551886076096, 136.495242812594, 11.153020238239458, 100.71473185200055, -35.54510999865168, 40.48207022322505]], [[54.04800416060276, 130.58211509088176, 37.30259924339016, 51.92564027649018, -5.398554947839879, 6.769597466974859, 20.44880568901217, 21.359248773410908, -5.55976700250726, -45.340488182542416], [158.96250456211655, 17.652625556143935, 9.695409021513129, 14.006413406105205, -13.614296004024542, -7.103540860331227, 78.24523792811173, -60.04194477531389, 91.40242252656874, 42.8179139391518]]], "bias": [[[1.7099017189111647], [-59.556359176572585], [-34.21160237613709], [2.7979466760816387], [34.866839702409415], [42.62384115120989], [46.64265976815786], [171.11346559941126], [-99.22577273210617], [16.47303768409355]], [[-61.021317571647394], [9.800727656890105], [27.64371677844821], [13.160156986059182], [18.705437023909653], [123.94340982123062], [-5.315420034489319], [38.00688649528744], [27.56646646555224], [-11.85994133567578]], [[-121.7704064574438], [-136.71440827367624]]]}, {"weights": [[[-98.6855228958115, -52.423126942087684, 129.31916144588376, 74.058726280194, -10.768539121457048, -23.4024340055743, -65.94285741787726, 125.95525696893247], [-35.258358728640744, -28.38195093457963, -45.98717591775536, 52.75588261913079, -169.4415155540269, -58.15216256253457, 4.00702402079131, 25.196852895342953], [42.62224558192224, 128.14180688193585, -48.708504393848024, -177.0072866882886, -6.133233656374125, -67.1982744172844, -17.639562966253216, -77.21727364382541], [-88.46028780678796, 65.84763445826367, -88.71813503449233, 58.465037625481855, 47.80537440482418, -4.877801502001373, -85.98068979273971, 30.634121287695663], [-130.53437895915746, 68.03368576488369, 94.23690609725371, -17.982386470504924, 16.908667050374696, -1.2253472688388283, -74.84235829172941, -34.80967658268972], [10.866902950117453, 35.792549961478855, 15.524522989591816, -70.83666515119212, 102.99274659154263, -14.584006981804901, -60.667364058718455, 82.78847284157261], [-65.95439578193515, -41.84554669458856, -50.22661733198739, 16.99296270146772, -154.1749567314669, -50.357078702464825, -1.607356081516904, 39.98759749812726], [8.67772211580707, -21.964627713372913, -8.914281842751237, 31.665183357066038, -25.433666711634643, 0.6913187834384161, 101.91735353307075, 4.92057919764169], [-58.70662794833438, 40.25740030411286, 32.887195544721706, -31.68781849261652, -2.8363312179817215, -0.02208292228340003, 202.7651022789244, -52.88923916862349], [-79.71529657074102, -79.27290757758416, 28.92399295840792, 51.272456739876134, 31.36705550287748, -4.704219224346377, -40.85930106405362, -40.65733693135585]], [[79.6018588000696, -22.151751938103164, -103.49817926431344, -26.33479055648896, 43.41192669368694, 5.048382111327703, -62.746247806112414, -64.70633958207877, 94.45641433198088, 61.82916386766905], [-50.40855815623163, -4.056031847361025, 45.0261342114785, 3.1869387315802533, -2.534854966566343, 6.245186059101666, 22.054385509834873, -2.799881242837366, 102.61928410448625, -49.53583425820817], [-8.439734560992322, 43.60481730573548, -0.549412386961206, -36.50307127098045, -27.700489848961865, -15.155802201274533, 95.43108626536551, -67.7707924834602, 181.52610204410763, 13.228712971883123], [12.690841543367528, 49.75823943414012, 43.995365266931145, 35.688295701518506, -1.7971323611714614, -6.04519259770913, -3.157257575594472, 26.266873274210138, 42.708800873064696, 7.712285391916282], [61.607989684415166, -70.16432420513635, -112.39979195026312, 28.084164723844353, 78.61087930991408, 131.54518855609533, 15.142944091009301, 39.10980035805304, 31.825526477159293, -91.89495166818432], [37.752515775803076, -40.83091172758553, -43.86198892379516, 75.55784568236726, 11.298258537406904, 32.23497368332155, 146.84974658067406, 10.042342429377848, -75.28981539822915, -52.76099830657695], [13.935856661633801, -39.947152724111554, 110.06791738709407, -43.67892354945124, 114.10135396283931, -9.0564910659647, 56.600991315533605, -19.651624352571, -10.240490776359687, 27.47490202255217], [-6.95759199954548, 0.6787119742407391, 78.10176144121162, 10.595545954829845, -53.6421178285262, 116.7483851864619, 42.13766102473486, 110.5253404386979, -77.2083246899917, -0.7162327905532216], [109.83523111792718, -73.09940978159433, -34.249766617436755, -30.404675895683354, 84.48443410739758, 67.37295617481108, -72.75244743071818, -52.11500637316526, -32.02786107404836, 10.282280713483908], [167.85980826171163, 93.8622989985121, 26.15179356635224, -21.18636000662508, 186.68254128666715, 136.22636746252473, 11.71703930042911, 101.29558067564703, -33.54985374925138, 40.68005985780732]], [[52.16073982330846, 130.73059804398707, 37.368876928323076, 46.61570572919683, -1.7173267364892955, 6.256126715495167, 23.243301356609386, 24.59531238877882, -7.3223795450103335, -49.42802106563704], [157.30928228812186, 15.824097154293138, 8.754123243990326, 13.685102457016795, -13.34147644166769, -6.602045362059034, 78.24523792811173, -59.61947735827729, 90.42929483953122, 41.19747188048518]]], "bias": [[[0.020061764111206887], [-61.10160082517718], [-31.6211045935667], [15.70293038882718], [22.496308818123875], [43.406105818593446], [45.914616405635165], [171.8032318185934], [-97.19883814024234], [17.11869831450043]], [[-65.41747606366373], [6.642847614206982], [24.74611685137394], [16.22260919291723], [17.85258322685007], [125.3193527527532], [-6.761905539737949], [38.199854474506566], [25.76896963907933], [-11.132054032173835]], [[-126.634562766258], [-134.78452881562043]]]}, {"weights": [[[-91.77260077751401, -51.8049130658917, 122.16545645844255, 73.63273453988188, -12.72691963619729, -23.96379900501559, -76.93986779960714, 128.87800186903914], [-28.990056408529707, -40.26579802044471, -32.62498602921235, 55.80983596193951, -165.00093237803483, -62.21039089490672, 9.186628707267383, 19.827732396039657], [43.65247901946151, 128.14180688193585, -48.708504393848024, -177.0072866882886, -8.005582114129574, -67.1982744172844, -18.295472313050233, -76.45726814631875], [-87.16434603683065, 65.33282164342077, -87.9900288813934, 58.55938301683043, 48.235582513319, -3.6146308953997917, -85.4367930711847, 30.634121287695663], [-130.53437895915746, 66.41057391426806, 94.23690609725371, -17.76373212857158, 16.096610849400733, -1.5292741453129186, -75.1381673113962, -34.80967658268972], [8.435962249314507, 35.12393039794785, 11.428680187843359, -70.41751099322337, 104.81619621447331, -11.462272110467048, -61.6973168677399, 85.82093118487234], [-65.44165281544694, -43.959935033915315, -60.39868451330262, 17.462389592919582, -154.06661567858598, -49.43903363701082, -0.5997474895337653, 39.50189302108047], [13.740240918021641, -19.493451620819606, -9.080446120258106, 31.211680240833342, -27.560673632530648, -0.177935653034749, 99.14175875952951, 3.894563661935968], [-60.999143584788655, 42.506171944357725, 33.2912345320816, -33.21743474074105, 0.028440751435830414, -0.5752741707983883, 204.1294300626595, -46.58601499706289], [-79.07935392206393, -81.58716750128185, 29.944104083326522, 46.07240723611853, 32.691927472432944, -3.982039619872916, -43.79096733503058, -46.82659513814188]], [[78.46052434835558, -24.843170630710052, -106.06729275579633, -24.930061247166925, 53.15327218237675, 3.9212119551736766, -70.79038429225363, -68.08966919300411, 102.77299699850651, 63.550030167236145], [-49.26948076662708, -2.842328810936157, 44.9203262463042, 0.4120138651311893, -3.3697560429341067, 5.402893368513478, 24.13063781631827, -2.5435626888560896, 100.42978062926515, -50.6584058578902], [-8.353176338981925, 39.096261248014116, -1.499111226491224, -38.112480407006686, -32.657683758266366, -9.69458228590434, 96.1624972907203, -63.39252185402086, 183.4153008028327, 14.099218948789632], [9.902186671388533, 48.896879577146755, 43.21299904658565, 32.74349593804559, -0.7859080549703916, -5.254064429741088, -4.054421189665347, 26.00435897266164, 43.635420866518665, 8.79571257367728], [61.03438003590695, -69.78548122247493, -113.49605961430818, 26.97846560766495, 79.41027617969846, 129.54837768735985, 13.278015757722425, 36.72537472568473, 30.714663842967383, -86.91461799768014], [38.82170862605615, -40.83091172758553, -42.39682296886731, 73.62299765131027, 9.873478464903856, 32.66674322344145, 148.413095193601, 10.042342429377848, -75.28981539822915, -53.20625509183398], [14.294865920750798, -41.56997871338552, 107.6465939006319, -38.53058999544318, 113.85436425588009, -10.92230238635838, 53.449267046438756, -20.76965435326191, -9.379511211997837, 26.40736545041106], [-7.740849001373697, 2.2906741183033983, 77.28108954896881, 11.047254124189593, -56.12679777166005, 116.72390572474137, 41.763418039273624, 107.52381616555171, -77.09746231053401, -1.309792676912132], [107.92502097483899, -73.18797242199413, -34.72427861745532, -31.193955064540333, 83.90702613001851, 67.91051664223829, -70.18360954675846, -47.177134982028626, -31.748414385609276, 12.306456215325941], [165.4560838175181, 95.84657713998196, 27.424892303704645, -22.441022485430626, 187.18277887770105, 137.78464229604901, 8.902132163809313, 100.34216974587578, -37.000640425788625, 41.68762542543825]], [[56.72335883370578, 129.7660704092919, 36.944085604852, 50.93987235255314, -2.3303435891805426, 6.3692226925626825, 23.410726085867758, 22.02461749634564, -7.557002889326726, -52.723554863786454], [157.57237945135552, 15.900564796749812, 7.674582116491052, 13.660860333331028, -9.188906371676964, -9.006539281514165, 74.70577551029373, -57.648495948289366, 89.42237773923284, 37.86967710423011]]], "bias": [[[-1.932601232794082], [-61.61851792705013], [-34.08292638673295], [4.6082762891975255], [31.016737661079183], [42.789666913221346], [43.48127265276886], [168.92463063952655], [-100.32027421515849], [17.128311036551583]], [[-66.59536690719635], [9.212438367955665], [25.230522723997215], [18.316172829165378], [16.94116041853753], [125.3193527527532], [-6.871245441566845], [38.469193927852544], [25.658938028516072], [-14.30748131394389]], [[-126.90829105329674], [-134.94873691391425]]]}, {"weights": [[[-95.70563965639738, -47.44637829859013, 125.78570166107427, 72.29188439009611, -13.95585254137701, -19.02546300010038, -62.360737507821334, 122.8091261542269], [-36.61958301952429, -26.97668770409505, -45.30959339200424, 51.77346172389741, -170.0646461712249, -58.418032397341634, 5.188102177330749, 23.54276763354904], [44.72370506761015, 127.2005235982554, -43.944167474373685, -185.0286720643537, -3.9194829920278953, -66.05643066214012, -17.084657349619555, -72.62842686263451], [-87.07771916673056, 63.48092325359134, -92.09306765370623, 60.04975300215791, 49.00872782100877, 0.8988327609812476, -83.7914360896371, 35.081036100301624], [-124.52663243705722, 68.53771159819453, 89.26891668470246, -22.6205771589262, 19.89472224929761, -2.154169511635452, -72.48770290789152, -41.28647483718146], [7.7076619383047476, 34.20089110649753, 14.214602419910383, -68.05752889345537, 106.1729227005332, -11.722492379176567, -61.6973168677399, 85.3492609017928], [-65.44165281544694, -43.38303519380451, -59.90581303882472, 18.007479686741963, -154.06661567858598, -49.08628879066543, -0.49785963304455616, 39.50189302108047], [11.744719927738439, -21.89233858489733, -8.920599352069425, 31.211680240833342, -27.560673632530648, -0.5494770786006812, 99.6604392168598, 8.623703422201855], [-60.06112575128148, 42.506171944357725, 33.980804508653875, -33.366431610535756, -0.42633210104374797, -0.8886556397207994, 204.38140425422424, -46.69412233168826], [-79.07935392206393, -81.58716750128185, 29.944104083326522, 46.762419242630415, 32.706187267168495, -3.982039619872916, -43.686138885484844, -45.13112127805049]], [[80.86276557416535, -28.614457946917277, -106.42126758453054, -26.396113712015325, 51.98410548517754, 1.8131632944790481, -69.9987200126021, -71.77617137295648, 101.0169759980104, 61.95379530983798], [-50.020676984777865, -2.6857152244673785, 43.34154212146665, -3.582537998126119, -2.900034830144774, 4.751267845809859, 22.413508983274244, -7.558427478370125, 100.3209804784577, -52.28558803347981], [-8.375453407562, 41.80571049454848, -1.0439921483107337, -35.0535188399177, -30.940916994539887, -10.06777472227215, 96.12532621361937, -64.77068104452046, 182.52617673754506, 12.931703078662462], [11.867903150027525, 48.503327341388164, 41.574411050952605, 34.59781449420387, 4.187583226534913, -4.16986570390808, 0.6906725016656245, 22.087078147050722, 43.004398900079735, 12.119172084517572], [66.55839921849858, -70.4294101298653, -112.68376798911012, 27.61188788151338, 78.3685612173921, 129.51592787731653, 17.57614813557903, 37.60192009071598, 31.161440207278734, -93.46499199114554], [34.36375014091754, -39.971294294565205, -43.60401076740084, 76.89807891612871, 8.051821906714792, 33.10509379521016, 142.71050738342748, 10.206442625883245, -75.004621720104, -48.605478814283465], [13.759121419299131, -41.56997871338552, 109.2595441689817, -40.71527938935843, 113.85436425588009, -10.92230238635838, 53.880252198702806, -20.76965435326191, -11.57277239397013, 26.40736545041106], [-8.085395460167085, 2.2906741183033983, 77.73335252533508, 10.942951563192931, -54.22630628344477, 115.67160405961683, 42.60796041021906, 107.4729425360751, -76.72372762342735, -1.309792676912132], [107.92502097483899, -73.88242966228633, -34.72427861745532, -30.623492211780896, 83.69535821212833, 68.93780609497706, -70.90322875649042, -48.077957755536936, -31.356170286079504, 11.446283625632038], [166.23538221560773, 93.34261065159376, 26.950946424923643, -21.524775335129107, 186.91900947694836, 136.48155586385982, 10.525156987250456, 100.4519877657875, -37.000640425788625, 40.06358382342917]], [[53.24867557056336, 131.00615354474314, 37.69458034539314, 53.286119620633414, -3.676410854659745, 6.163832324232631, 21.741355435194848, 21.11083754079502, -3.86187099212816, -51.896108381116385], [158.49503231779687, 16.04364986901112, 6.667154996949551, 13.660860333331028, -10.554416047378762, -7.866804588454929, 76.94816286466155, -58.51879624750608, 89.42237773923284, 39.17840960145217]]], "bias": [[[-2.2514313427697514], [-59.653861392923346], [-30.20529112226854], [2.2805160201586108], [25.267320453255042], [42.809865380015374], [43.89248522616067], [166.49779171225038], [-101.80961218620601], [18.330922998774284]], [[-59.24200422186717], [9.513066850325474], [24.868583616213456], [14.902070002739054], [16.715454518628203], [122.10018188742218], [-1.4647295852671534], [37.301802205683124], [26.734934520262595], [-14.0408542938875]], [[-115.81774601984554], [-135.1056635744087]]]}, {"weights": [[[-105.37590757734029, -49.42448833676667, 125.17934315190686, 72.63037466071582, -12.732462824726154, -19.84182114480831, -68.78710245734807, 122.52634972041504], [-36.33167447844375, -35.404767186280736, -45.823379517074436, 50.15541086663703, -167.96363982235636, -58.35110317213545, 4.942729531303501, 25.263633464077966], [47.53146111376727, 123.47480336874449, -45.84277364348481, -177.3406705970782, -3.1116827399490665, -66.77193871440802, -18.46795418223006, -76.49044954337224], [-92.02406572667834, 58.97108192338083, -93.2854037278739, 57.53374676355504, 46.36611854222324, -5.768590360287846, -85.02145087919371, 31.923104825667508], [-131.22028818584042, 66.42956684916203, 96.79794346806429, -15.952135688193968, 11.84918910681901, 2.981173875266421, -70.48154788435949, -32.06721988661187], [10.894855634111995, 37.31182717376376, 13.315045230198635, -69.4625810058252, 107.80492263548291, -13.08584462664779, -62.339408415453626, 86.78426099442858], [-64.11848601131953, -42.031813525339906, -53.81773437370002, 18.873058555808377, -153.50139711151078, -52.552633188567796, -2.628968148219012, 38.481912295645756], [8.323215766457793, -18.89654607481958, -8.914281842751237, 32.64543436219632, -28.821055077679524, 0.3564773363413942, 101.5917106484873, 9.44305476473504], [-59.92678479180916, 38.40242631261088, 37.46157224087525, -31.17076102345719, -0.7070002159922305, 2.981782758854516, 200.2055629674557, -60.96503076807499], [-78.59150741325129, -83.06565678357877, 32.38500975192228, 54.164930225845374, 36.40050433638862, -4.725102317670588, -45.78405222141344, -54.39576052298384]], [[80.81999508827057, -20.0151838695592, -109.93765602656958, -21.281939081750167, 40.98218896193395, 5.612580225341157, -53.400320659639796, -67.2102296145282, 99.48482147962936, 60.64572071250898], [-50.54586470238386, -7.999431624274075, 44.447564622325004, 2.4324833811694733, -6.120787302267775, 9.429692694007587, 29.79527870709437, -0.8711202800836501, 100.57219824790846, -42.94174905955368], [-6.805175754613292, 46.95383883511525, 0.7773236863651918, -33.73833685761796, -27.694194094503782, -13.205324030163645, 96.16526411826645, -66.05656451839178, 180.28193344893995, 9.419247980877508], [11.249997542769995, 47.565697449293324, 42.38662162078535, 35.11138253749268, 0.08896494903840646, -4.697550177484066, 0.18602815973184406, 23.527540068564104, 43.23588678420584, 11.720729832764299], [64.53537363403916, -69.21690242689965, -112.95790988077164, 24.20041494152869, 75.47510875221364, 130.45604652589032, 19.69556282002899, 39.806385306238006, 31.841893872713367, -94.46060543722605], [34.66843927618829, -40.119193478905544, -42.16559543476901, 76.77049538365361, 12.047886078755582, 34.22086843952297, 144.1616074864714, 9.427435686615317, -75.07914273791197, -49.26959218158413], [13.529273157779732, -37.71978061071418, 105.20146744175656, -40.750821374956224, 115.05245814756456, -14.150629545507147, 49.555532472688945, -28.821298320571383, -8.480379529881876, 25.149759875182795], [-13.028883577154547, 1.266087868618486, 81.0705026215575, 16.86080894230628, -57.60520037582728, 122.68648451866545, 34.2212183206261, 103.28399235319065, -84.1738845124612, 3.587581693451235], [109.84794505133581, -67.71611813191464, -40.754638267731266, -23.908590178119866, 78.91434286336441, 74.11670892836172, -73.9073227482598, -45.247254309810714, -30.882933548035755, 12.553091410939196], [171.4110047429505, 101.79986251735376, 24.60859806138278, -21.33324690466098, 182.66620800027954, 127.50479408617846, 12.947677603251563, 96.41794992833903, -35.16380170511353, 37.690351324069354]], [[53.94934780539367, 128.7403761223782, 38.70935312116684, 49.139165099736935, -2.5694941162725944, 7.065339424172124, 22.38256822528772, 20.65775817645431, -7.815099328523715, -50.221673754957294], [160.32264246019244, 14.708190223053574, 7.782288698219094, 6.900644987437116, -10.392642202267277, -13.316718868318938, 78.44571592075702, -50.76809312426281, 87.24594447570165, 40.93549128012469]]], "bias": [[[0.6236500692132279], [-61.398491444915315], [-34.1472346572408], [15.524836157964467], [22.109362662564436], [41.39718236708037], [43.179330831958204], [167.3133326076966], [-104.20850306013087], [20.58116154749222]], [[-62.92578964899265], [10.555992321127588], [24.536680934122092], [17.22946238478366], [19.592830229198274], [127.35727037397132], [1.656872786753637], [37.33921086721643], [21.135891528879224], [-11.547223620022665]], [[-120.2773877895918], [-138.1588544027947]]]}, {"weights": [[[-102.92524877706883, -49.39616187977371, 127.10935109093576, 73.1440976276515, -10.096362910722517, -19.29293312866354, -67.27702492440328, 122.83924978642793], [-36.43165951461773, -32.55185088456152, -45.8557628035488, 53.005211199108274, -167.69537915623636, -58.35110317213545, 2.8324580347276234, 24.770280701294464], [45.70193269685971, 124.45445039792578, -45.9799065627675, -178.51722283126625, -2.5415407802880043, -66.53837887168761, -22.268171793115776, -75.93650159481227], [-91.67702500495813, 59.53580218241779, -91.92244047077402, 59.20927315650748, 47.99044990387955, -3.7784602999972083, -88.56013798149876, 36.21988803507172], [-129.7290925452962, 67.11790615223389, 97.48512279121347, -16.39351830803601, 13.703729215187273, 0.022814065621522883, -72.95394947470305, -31.980044148499257], [8.68807337537174, 34.18247631838866, 13.59790390948507, -72.05466302529942, 107.19612468232688, -13.08584462664779, -63.19036486560925, 87.715283456402], [-67.15327269834783, -42.24237014513289, -53.11953896653611, 17.148709039889244, -151.97440360175034, -52.552633188567796, -2.9375984934380104, 38.05988351340508], [11.928771960613162, -18.67764488933676, -6.471904251460207, 31.333337020382988, -23.870519219975495, 1.6659326862629587, 97.8283243436254, 13.656630010244093], [-60.85377620471598, 40.944651299809024, 34.874407926753726, -30.903259265123783, 5.018370487511917, 1.8125351121064592, 200.4203574136586, -53.52010546021191], [-82.63182376829589, -78.62050123911845, 31.086535971649763, 46.74150143596167, 40.79981870040879, -2.633719600846427, -46.47753177638448, -38.70438424305792]], [[81.6435217466169, -24.959744905822962, -109.22582857839006, -26.21994128343209, 41.589660185547956, 3.441041868924057, -60.207824557076705, -64.96134843745384, 99.85068785010665, 60.72865612940378], [-48.41967239155659, -5.891059106557586, 43.81745500722777, -0.6860455641414949, -4.578466911665546, 7.380652218855872, 25.441091437367156, -2.477931709054172, 100.48681523097076, -42.398133027762825], [-3.5417487104300225, 44.39373863494449, -5.560610641312458, -37.02236933026791, -30.478764691839295, -19.758351954063823, 94.94735630454842, -67.99703508920487, 178.0521652565462, 15.265269309576805], [11.634971748561398, 50.3027997092325, 42.12298937050699, 34.5809522046892, 2.2424968915384356, 2.791188955449152, -1.4843560668682274, 21.06781651955788, 38.81233597964389, 13.257012342468101], [66.70079618891772, -69.88281153766533, -109.65184265659047, 23.025528508332865, 78.19217271527765, 128.52443739608023, 15.626715295797467, 41.83219491684736, 31.875927162993616, -94.8082982627687], [35.63655863187975, -35.48616289935772, -48.43229478205466, 79.43863754719125, 12.681682269463828, 29.52389654656963, 145.19508976737987, 9.789804784397026, -78.09764150879495, -51.241915631192235], [14.08300736289922, -39.392093146088584, 104.67544570875435, -39.92362695201683, 116.8053756919188, -13.610243768747583, 56.2794163234622, -15.630811363316896, -20.791516646689907, 25.977468219508893], [-13.26055583391231, 5.945989680219508, 81.77056440654262, 11.726151188380326, -55.19558062116444, 119.15146795043162, 42.741476148429996, 103.92049877427621, -79.09996701995097, 0.07602401689457583], [108.11058243057585, -74.21393439364759, -34.99894337559062, -21.714853283412733, 77.62346405116816, 72.65095428766578, -76.23441277369788, -49.263141300858, -25.073304625008834, 11.781101965049624], [170.1329559539812, 93.4480004302911, 25.42006438018206, -23.255678616028582, 182.22536010013903, 137.9207133581604, 5.476215524188293, 97.76789064220488, -39.95975433483207, 40.03434025000312]], [[53.00230469993437, 129.50263769377835, 39.406675603921656, 51.22629262074698, -3.3653142841470456, 7.434954788083117, 16.193960627956407, 20.25847915068199, -5.071480134273544, -47.114917622670504], [160.6124968847871, 18.861323445057323, 8.331198350443978, 14.216428486110145, -11.00413577273136, -10.84895543945637, 80.23281715540836, -58.84535932650542, 87.57598098058108, 41.64854701545321]]], "bias": [[[0.48357610548705565], [-60.08451221514555], [-33.93389089704822], [15.544458526937124], [17.856835756909824], [43.78111606778088], [46.68085000866809], [168.2654214801401], [-104.31882064281382], [20.100732157733354]], [[-60.79183463580809], [10.263867020701543], [25.95445125777759], [17.745917448035552], [16.028164421461312], [126.62413220083877], [-7.490841479628931], [37.82041009706365], [20.887614344975386], [-11.980182443849012]], [[-120.2773877895918], [-137.31290660380992]]]}, {"weights": [[[-96.99466195782686, -51.95791694957439, 130.69413322457848, 76.39610006481313, -10.768539121457048, -22.924850444777746, -67.51624916083745, 123.23433143024039], [-35.258358728640744, -28.38195093457963, -44.74463871200463, 52.5705485258532, -169.2063981916776, -58.02018830572581, 1.7988408683085106, 25.856619684511525], [42.25168958476118, 129.67328592097851, -49.16487912796581, -175.15429941270088, -4.235503195033782, -68.71759769047672, -18.248836106912965, -77.29795033569701], [-86.80318790405131, 67.85163815993671, -88.80155445765726, 57.61900807395999, 47.10042662948864, -3.8122712826133935, -86.49317328306684, 30.326044697069502], [-123.7298344721514, 67.57037081325218, 89.6075568900572, -20.124923165803835, 17.830306298085468, -3.6612971738897278, -71.81515676047759, -42.64515144750384], [12.67442301101033, 34.76897978985147, 16.914902532242003, -71.53919638934926, 107.65342988111009, -14.081438110357288, -58.97733458489939, 83.01743439341759], [-69.57166264819749, -45.05501205367439, -54.31888798030687, 19.823132998987194, -150.28645209239227, -50.598107221341905, -1.1849685309715898, 42.202009701288034], [11.744719927738439, -20.82937764477707, -10.895776995125203, 31.791087524935882, -27.560673632530648, -1.7676184971470215, 97.22390548358105, 8.623703422201855], [-59.708160941888856, 44.40645465719937, 33.57210085229393, -34.63486199932022, -0.42633210104374797, -0.8456695768487739, 202.8450088303881, -45.21660701470627], [-82.31294531538651, -78.99671282298631, 29.48068361597201, 45.48336508462304, 32.449402704041916, -3.973763830949248, -42.66699633882092, -41.68815374612741]], [[78.64912342047089, -22.700720729713836, -103.79046805560586, -27.179858082176136, 42.458071961772816, 3.470569255586767, -62.219550458515144, -61.849105687156396, 94.45641433198088, 61.051125887040406], [-47.11145556212655, -2.811497966752805, 45.310893589059816, 2.8380227908386404, -1.235785041272301, 8.86881675452426, 23.205895994584797, -3.6229607277428224, 101.31141212040295, -47.964229929628864], [-7.827493110147629, 43.82068148688533, 0.1988237999192023, -37.5930444854374, -29.123697918479646, -15.155802201274533, 95.29296516308804, -69.51106070180607, 183.4505970687416, 13.217912339544725], [12.690841543367528, 48.192623248275, 43.63949691863175, 35.88240622036571, -1.14703135195641, -6.501092451460774, -3.246436329516514, 22.764129104678823, 44.17786598325507, 6.034378874368879], [61.173661579853906, -70.28047139493292, -112.70933812085768, 28.56589995802503, 77.7435493315153, 131.54518855609533, 15.827266048405555, 37.7600924145491, 32.199729155653515, -92.26171486720052], [37.42453870666329, -40.932492598116056, -49.76132932416922, 78.07322618689763, 11.152921994829516, 34.18328195617038, 150.5293679285043, 10.019200864213952, -75.89628014909655, -48.97596468642105], [14.247116689619611, -40.10347876139343, 109.46961029122303, -38.052843899775425, 114.67225324367217, -12.600026141532899, 49.075878452213985, -13.152749657919664, -16.941132527498265, 18.663601264132996], [-6.210836927579051, -0.4947918186933291, 78.59268016281551, 11.740246978524283, -55.576969781304506, 116.34016960742368, 42.13766102473486, 109.96181510584135, -77.4472140765679, -0.7162327905532216], [107.92502097483899, -75.1502228379651, -35.429063986338186, -30.623492211780896, 83.55864778212585, 70.65095925618292, -70.90322875649042, -47.97717024517114, -30.941104699630014, 11.639502851222636], [167.85154178241126, 92.92965801996252, 26.386425182482206, -22.184494412029824, 186.91900947694836, 137.40643425644043, 9.105996685360626, 102.10937521630842, -36.21188029236813, 40.810020824110744]], [[51.72036947587892, 131.00615354474314, 35.87075022907581, 51.793813095410016, -5.984211836308173, 6.163832324232631, 22.47868523773525, 21.695566914968563, -3.142830512382506, -54.05311517673471], [158.748285022396, 15.40581333334522, 6.476807244885949, 13.746981724843696, -9.749780800434165, -9.605607989622513, 77.57947999658721, -58.51879624750608, 88.1962133952634, 39.864448120407985]]], "bias": [[[-0.550150485176272], [-58.12506524803676], [-26.8909965411395], [4.521951758696773], [35.65844623487942], [44.118254683595225], [43.4293159396737], [164.2851944943728], [-101.08765242415194], [19.056384041864384]], [[-67.2515362708378], [3.974873504851645], [21.848282155600888], [13.9370382166688], [17.335390835569893], [121.62313594746706], [-4.630541143273723], [37.09351542603278], [25.058727822456778], [-13.24748909064234]], [[-124.80950277794012], [-136.9131899362287]]]}, {"weights": [[[-102.22491416129529, -51.02091176879832, 127.10935109093576, 72.37722388968386, -10.096362910722517, -19.866561856209724, -68.78656634381478, 124.58754927644556], [-35.45091396988679, -32.55185088456152, -45.824580727478015, 51.48593224425716, -168.8499407136475, -58.35110317213545, 2.8324580347276234, 24.137707901920887], [46.964824146341066, 124.9246942746603, -45.9799065627675, -178.51722283126625, -3.1116827399490665, -66.89424184469013, -21.17249645021848, -75.60765826561159], [-91.67702500495813, 58.97712500629492, -92.10640265451592, 59.108992731562886, 49.000067218640375, -5.024568773084967, -88.13071441726638, 36.132811377115395], [-130.7037722295377, 67.06091942290887, 94.19883034555772, -20.256199709390135, 15.687282832343382, 0.45367143045435765, -76.95832426464197, -35.12474930270849], [8.283985308779977, 35.55532185952206, 14.098241690821965, -69.6775941824254, 106.69362514608527, -9.864825678116132, -62.864108760917844, 88.11940134959706], [-68.27000000098599, -45.63131252104823, -58.14268065544374, 16.670338748649584, -153.13522244210446, -49.08628879066543, -0.1743891382244026, 37.92171468063214], [11.591931766545843, -22.294677711431248, -6.183274588532746, 31.550421061114573, -27.560673632530648, -2.496710419482179, 99.97855999876327, 7.75393475462638], [-60.06112575128148, 44.47976868704474, 33.894506035381795, -32.925431694384365, -1.2255205068479507, 3.239493977317733, 204.50671692370526, -45.72338188915366], [-78.47692334933409, -80.65047053684388, 28.51339614838388, 49.3195889908131, 32.99335650379021, -3.2084234587368026, -45.35253489646832, -46.265517084329375]], [[81.6435217466169, -24.85941085592927, -106.87741994380082, -26.715100580812635, 40.70770592581256, 3.441041868924057, -59.48796641897649, -64.96134843745384, 100.90960933938477, 60.72865612940378], [-48.41967239155659, -6.146744362349433, 43.47336687003849, 0.055991409271263004, -3.362465020164805, 6.854945109631824, 25.061126789008146, -2.477931709054172, 101.204472246422, -42.398133027762825], [-4.514988142281263, 45.84633059333685, -5.4198409087087605, -36.52914694121495, -32.01447442280563, -19.758351954063823, 94.94735630454842, -66.7364594235218, 177.03944896022944, 13.744239753790932], [13.70755753649436, 48.38157144324715, 41.99927940349374, 34.03836938032322, 0.6195433543281104, 0.6301386591132934, -0.20091818107943077, 20.81204317423118, 40.521074203123604, 12.2182530040675], [59.41235002346403, -68.4710645994936, -112.5331645882656, 27.82650117353517, 77.60309697827027, 131.00349382416707, 16.957583610894826, 36.90196073825207, 30.822193503019825, -94.33414737037515], [36.611097523337264, -40.039720884435376, -44.902200910871855, 74.2249619222342, 12.543968270312464, 32.79899805351603, 145.56740264517975, 4.951537395804698, -72.24605176929934, -49.113831552734595], [13.761079621660802, -37.058773804114296, 107.86455193925909, -38.56454648087122, 114.27691324158194, -13.27828250726327, 51.65921156389149, -29.505085933477496, -11.739020679220978, 27.489757624498772], [-11.572923747764472, -0.4476382523461783, 78.07120163396804, 18.055364537332203, -57.36232876417983, 122.73196410185298, 34.06276670146986, 100.69071772523955, -84.25176964128299, 4.063934607126087], [106.18987384042568, -71.16485684628027, -34.40676060452861, -32.52146561480904, 84.9486961317306, 69.20846216004858, -69.50343177558395, -48.077957755536936, -33.812627203392864, 12.379495986388537], [168.3776109117225, 93.90923682832747, 26.950946424923643, -21.533712507905605, 185.99502537174652, 136.48155586385982, 11.98481391465333, 99.36391337583794, -37.000640425788625, 39.82214707712147]], [[53.34983173229027, 129.26187154775658, 39.406675603921656, 51.59671067009289, -3.917730727918557, 7.717600462712811, 16.193960627956407, 20.242436588933458, -6.387632591757843, -47.114917622670504], [158.87352828422445, 16.04364986901112, 3.218250686947412, 12.630184321343178, -10.554416047378762, -6.765112729525044, 76.94816286466155, -61.266179602219644, 89.20443926784775, 40.18571916767507]]], "bias": [[[0.48357610548705565], [-60.4815479693421], [-36.80274748129744], [15.505116783753827], [24.392246069294032], [42.48968176606003], [46.05356788064145], [167.8639799021762], [-101.48995145254477], [19.633108772138755]], [[-62.33246384143877], [10.263867020701543], [25.81861657495282], [15.18462362959227], [15.389634965662358], [125.35584944684517], [-5.777142665593629], [39.252391506043864], [26.112780858388508], [-14.150751448634425]], [[-121.7704064574438], [-136.50249805833317]]]}, {"weights": [[[-96.99466195782686, -53.332712834759704, 130.69413322457848, 76.98382097056633, -10.768539121457048, -22.43712761488419, -67.51624916083745, 126.07101637937458], [-35.258358728640744, -30.061088734009683, -44.74463871200463, 52.47682472903459, -169.79596717198487, -58.48886335185387, 3.912745681148854, 25.802775398488926], [42.008200704705544, 128.70069005300172, -48.47923891715352, -174.77526158444445, -4.235503195033782, -68.11133357158663, -18.065306446981264, -77.50004203962081], [-86.45864112203368, 67.85163815993671, -90.4820591635095, 58.465037625481855, 46.93783802790974, -4.431481417638279, -86.78508449030973, 30.326044697069502], [-123.7298344721514, 66.5459649638931, 89.6075568900572, -21.480757621790662, 17.830306298085468, -2.2130182838774566, -71.96116859482684, -42.76183346091328], [11.636314543507831, 33.045114656393906, 16.72545228558339, -73.02597048933157, 108.1370379675249, -14.081438110357288, -58.43775136399801, 83.29299039659838], [-62.95004552357576, -42.258084614251125, -55.23714419214811, 15.990927471045355, -159.46203479334494, -45.86294227508587, -0.6043346922007925, 39.982159022546135], [16.047343600282343, -24.0695047435314, -4.449701090434166, 33.551870634199624, -27.208770676303832, -2.9929008125714334, 98.8902301806726, 3.6372093551235922], [-58.19096981164524, 41.725058878544544, 33.76497968532986, -31.117021889504812, -2.954651267804164, 0.06740954030298422, 200.90613546188484, -52.709848356278215], [-80.34877663492293, -78.18124666687346, 28.579206883954036, 51.272456739876134, 33.79565530513243, -2.501718035197921, -39.87185535652018, -42.464552088003224]], [[78.64912342047089, -22.172234983948076, -102.20193181303559, -25.88006008439641, 42.384323233692804, 4.140438837689215, -63.005302172026965, -63.138169175157444, 95.67405124861415, 60.60763603302682], [-48.71424981024145, -4.37712649745561, 44.24891221124963, 3.35722036042497, -2.9860023153941837, 7.960270657160454, 22.090179928505236, -4.233408854277977, 103.78318260022675, -48.324541004044185], [-7.507357200767425, 43.16183101605655, 1.395984457331961, -37.72790543694295, -28.266309024727644, -15.155802201274533, 96.29794268957792, -69.97018726073317, 182.31831132440865, 13.687305402819204], [9.887357346147237, 48.73174271975442, 43.21299904658565, 33.43302907579731, -2.431036612393954, -6.918238202240646, -5.323875510768565, 26.21127491712351, 43.628482171521426, 7.983012923633513], [61.607989684415166, -70.91909918985989, -114.76480805723102, 27.600430948436788, 76.94647378916639, 130.36162551123317, 11.706232429507358, 34.86985812729338, 30.217840954569034, -91.01305751959119], [39.25537617144339, -38.9348602709705, -43.38168473798686, 76.43111166656988, 8.73906583250753, 31.971732872387577, 147.0388017081403, 8.96206327043694, -74.89155211133551, -53.20625509183398], [14.67694965730938, -38.0169750550423, 111.23163579994922, -42.11193475102534, 113.74874069555997, -9.103913553711148, 57.91308338710474, -20.659940099197833, -9.574061876468466, 27.642917772217277], [-7.480849719920866, 0.10067831580979011, 78.76974969487456, 10.495164550651321, -53.96057762853905, 115.9131440135346, 42.65579747462069, 109.98206190398403, -79.40087766946878, -0.7162327905532216], [111.03289405521254, -73.17859309788717, -34.26586476504887, -32.33339649186926, 84.48443410739758, 66.43104060293906, -75.16564141166819, -54.2047362376636, -31.286728170540798, 10.07584949316543], [169.74271618639983, 93.8060758707987, 25.55039021771494, -21.036774616293826, 188.47506069916554, 135.53246498468766, 11.43771376357621, 101.29558067564703, -34.29706802011009, 41.66569892871384]], [[52.099961434196054, 128.47942331499166, 37.799558224393486, 52.53316960679204, -4.494878182961349, 4.731088079979058, 20.157329926035093, 20.603524734497935, -8.556212773217766, -47.73174262203279], [157.4350211889599, 15.442886971428942, 9.953785299510773, 13.039717392539826, -14.36725729412907, -8.472318701767144, 77.22310840952244, -57.84164177531598, 91.95715137273618, 38.68688307596995]]], "bias": [[[-1.9461351245167648], [-60.6024031977948], [-28.70738505049198], [3.778169035905925], [35.34372791505972], [43.422688243396735], [46.12534472536062], [172.97740418391558], [-98.0378076027968], [17.739424837699104]], [[-66.95137893133067], [3.974873504851645], [23.856934126339148], [17.654376969190537], [16.99486522747173], [121.62313594746706], [-5.777142665593629], [38.00688649528744], [26.029929162064196], [-11.121021117722423]], [[-126.36503504701214], [-135.63544216574763]]]}, {"weights": [[[-102.92524877706883, -49.10975823838201, 128.72558360738725, 71.90664996892762, -13.23583921361786, -19.84182114480831, -65.17155922190138, 123.7935523564889], [-35.5743624001095, -29.740457699270866, -40.154638062954, 49.582356578165694, -173.12571833699522, -55.99399812858801, 1.4577501388195953, 22.86307848968553], [41.250424746741466, 129.942421839482, -42.21025834231604, -176.7487964062589, 3.8168840317032635, -73.76834432161466, -15.609635273931142, -64.95743492597889], [-93.04995462784217, 61.675203696591176, -95.32063189516579, 57.08193289666532, 54.97245133668214, -7.6073719911303535, -80.13839499782918, 35.18735740895145], [-124.6745826469507, 68.96946936151993, 94.73850414295313, -24.6047099485264, 16.414223374795828, -8.153561937329282, -71.12300058986986, -42.10332950743155], [8.862930474786458, 36.77652904999251, 15.057540924515061, -67.7868679229897, 106.01433635188206, -14.288433742207914, -63.658821800539705, 86.35729684836697], [-64.00246176718704, -43.38303519380451, -57.945190962815026, 17.235732492716366, -153.4340340170462, -49.08628879066543, -0.8920035366331207, 37.98014645769272], [12.734334950660447, -21.59928654017792, -7.851987382276037, 31.90424559873859, -27.560673632530648, -2.343365893794603, 99.85605736653008, 9.745970908604294], [-60.09304205711176, 42.98687284540579, 35.15721916038056, -35.92070309994186, -1.0245794745257508, -1.4866418844523916, 202.99482404948728, -47.08913926677257], [-80.16487283990566, -79.0695040796, 28.598749272934548, 48.3218487499279, 34.05833578933608, -5.606150816653984, -43.686138885484844, -45.83506010082565]], [[79.53867694022878, -23.517398643270663, -106.73167248517352, -25.77745769554585, 41.07450729555373, 5.71975247827857, -58.829808451542654, -65.6206664880966, 96.30186726888797, 60.032917934321965], [-47.56615857161427, -6.914115883270491, 44.69239849558841, 0.19955635008092, -6.283537762096206, 7.189241351816593, 25.96648446364043, -3.5020238562349446, 101.17781135094133, -45.08942361500459], [-4.069354114298281, 44.35638475029901, -2.200836412326744, -36.52914694121495, -31.51528175166824, -20.29403188379835, 95.04216552211477, -68.6804977319068, 175.40806111687354, 13.139957662198432], [12.437645234572287, 49.74348204955594, 40.785277520012855, 34.31922086668313, 1.7239890172744272, 0.5509960676219328, -1.0381089400668113, 21.23261137826328, 40.38409125119016, 13.869215978552731], [60.544670681281865, -68.4710645994936, -114.83930627693323, 28.540820978997342, 73.91656299378288, 131.48846743530427, 16.256559819688356, 37.84825906355965, 32.049575732371636, -92.87469218680128], [37.08768683217773, -40.83091172758553, -42.39682296886731, 73.22047637254364, 7.697999520729289, 32.58983579360963, 148.08560020488076, 8.478130235764759, -75.20129100307993, -53.3034324223443], [13.483364169352871, -38.0169750550423, 109.298224132213, -41.09989846438041, 113.42680471450554, -11.430276504296657, 56.598777986975286, -20.659940099197833, -11.092741335700673, 25.45482485213546], [-8.579033179355818, -0.08030120628546783, 77.66952474846018, 10.495164550651321, -55.7810516693843, 115.9131440135346, 42.13766102473486, 109.93241246843928, -77.12468021949009, -0.9819878489863781], [109.49759402725587, -74.64018161843339, -34.472210515406324, -31.412859340576418, 86.58380429681678, 65.61281073601606, -74.85925051786707, -54.52894526493531, -30.34199952861034, 9.355213972527293], [169.06106702262045, 93.34261065159376, 27.16228463142126, -19.71767214107984, 188.34076477198371, 136.48155586385982, 10.925327114480803, 99.3392744734583, -37.000640425788625, 40.64118726318911]], [[54.50865486737701, 131.00615354474314, 37.60843411415647, 52.30099153831422, -5.113189221879855, 7.030234299054602, 21.55139726393651, 21.549507840698258, -5.366590580063583, -52.13674019413217], [158.2838455138935, 15.103534626211566, 6.667154996949551, 12.630184321343178, -11.654520908049136, -7.866804588454929, 73.02221236602708, -60.08851339723191, 89.20443926784775, 41.32605723353253]]], "bias": [[[1.135927134319306], [-60.593387895229434], [-34.285961643724534], [1.4490881349466613], [34.37699924986476], [42.822210315642124], [42.1912077930545], [167.81916607245606], [-101.80961218620601], [18.330922998774284]], [[-63.31189515038039], [9.800727656890105], [18.301583467437585], [16.589028053059963], [19.408358703387577], [127.02395599599399], [1.656872786753637], [36.87921144497672], [28.69995560126706], [-13.918430807321705]], [[-120.76978438794131], [-136.50249805833317]]]}, {"weights": [[[-91.5895678686267, -52.243627001635275, 123.61889662563325, 72.0530338333874, -13.360581529284396, -22.96318826214318, -75.18824048176181, 127.20061328465502], [-37.04517810325481, -29.10868744215814, -39.66840802882928, 49.988767328366876, -169.4963747304727, -53.000532295318, 2.411551081377614, 25.61059583358201], [48.481132976380756, 131.05856846619272, -47.344885002393646, -184.25769040102116, -5.063072366222435, -67.43174097173197, -15.221880320291133, -70.63086690191757], 