{"generation": 5000, "best": {"weights": [[[-25.648927781824334, -14.752301796316019, 43.807638305945645, 13.144862144492816, 4.2718894076805, -2.2900993456502654, -15.019297054624015, 25.644425550056766], [-30.626763395084236, 1.1522920725964083, 5.514042566804249, 33.136327031161294, 16.585189341520774, -15.074411523124176, 19.612279787804972, -23.850636225202248], [-2.4127678955541114, 6.777371927625745, 2.6047192762881726, -3.9945701172224033, 6.660276395182926, -15.36766636952195, 11.49798271206989, -1.9704999581128642], [-44.99247586288611, 16.166120556496274, -21.444629232610076, 3.6133701098332094, 9.106754229171731, 12.262578345627881, -4.023361731283006, 6.054124276241216], [-30.836742616722038, 4.805795358024685, 22.20139999236357, -9.294879385520755, 21.805657028869287, 12.751996334037077, -15.317093956354235, 1.3671596349558075], [-1.9190942360320404, 60.75665073003746, 21.309126504130525, -38.62355914331899, -1.6084186023429703, 7.064286231550764, -33.3449031649829, -3.1171586509480127], [-28.12927839240522, -5.196878464994838, -6.837872811149615, 6.309299461735264, -19.850697590271448, -17.595280561609275, -38.88471763204002, 6.830427315688551], [15.02078350284397, 3.5408435088225936, -16.105564750387096, -4.914274764460022, -15.213766014443863, 1.4839720993301033, 50.93874567592822, 32.477743384959076], [-18.286453787566476, 23.559648944293684, 17.431184418579395, -23.94226575021783, -4.821701893157571, 5.8424038974049735, 17.554459902226245, -15.168484683185117], [-8.062445778082488, -19.063979529607902, -39.67940393489525, 11.206002235823313, 3.065416138774034, 8.789905235229943, -29.31049599075496, 0.603964375661221]], [[-13.947686872794263, -31.486981368208557, 19.96661650720385, 10.28314041207161, 31.467906410279625, -0.2186350954620379, -5.9046237554076235, -24.440247851063727, 33.95839824091854, -1.9867940874911532], [-16.982234624757208, 2.0169803509051967, 12.977418831477571, 1.6848599551496721, -15.838006661464542, 27.210188961817064, -13.364624371290013, -11.349555701352076, 11.933023536481313, 7.013174327080361], [16.47412751564902, -7.18008258761918, -8.688553562934185, -2.0597635066161866, -7.358373069748091, -11.574113023936269, 5.057127324076919, 29.482947187165404, 24.46432038023756, -2.147531118820683], [17.208222338358397, 32.5578021640059, -19.26565701245224, -12.085498060070675, 15.90611353806457, 19.40187278897292, -3.767348517925394, 7.644807937878243, -26.03124274256024, 3.9325079291739966], [33.09126707975655, -4.494844751588933, 2.5915512122202187, -5.75796104658204, 21.98631821439563, 25.55489184367624, -7.272041947980051, 8.514709680685895, 7.780767218730001, -23.45246630519815], [11.735761982296033, 4.21101553697037, 6.04487723295901, 6.127069287972461, -12.76673407942105, -21.434860812899153, 20.834266410278385, -21.765316424264054, -9.421249763126175, -15.236680587626934], [32.99526989929234, -11.211651924944471, -5.172924905803054, 2.2517364239600233, 13.656194686536569, 3.416271048138676, -11.177497554274963, 14.493482424770118, -12.011297029522618, 5.333126494785407], [15.829070297781875, -21.975241578397416, -14.756086918404637, 17.454980004912052, -17.97132450482514, 18.776697434710567, 8.285721385934297, 20.50990730670871, -18.276124002378186, -10.130607178640345], [30.527909733936596, 2.3541086360214467, -7.151700292608878, 10.565768910322017, 1.474911126936706, 6.688770782977429, -18.236426125135086, -46.79862988236988, -7.449495012780668, 4.2862475771844535], [6.143963342987958, 9.579480254353616, 6.419424420573116, -18.900380078491363, 17.972814760072428, 25.77748988988124, 18.035648702682305, -22.331401348119382, 15.907620191867204, -10.48629480683797]], [[25.227766376263776, 26.244582656801587, -6.009076158146601, 29.266282536731254, -10.850698107508288, -5.479436798850645, -4.341646022638305, 0.33252454101717366, 10.07901774023697, -1.0322267636453433], [10.892054828409911, -10.78694974351572, -7.763786830028197, -34.06552425537227, -42.28611559379622, 5.073109699186305, 15.289124409066682, -23.375303935790118, 28.511067573399362, 4.902274277744007]]], "bias": [[[7.927999134793327], [17.28225744399078], [1.2279667665784046], [-23.25801477347483], [-26.50608504259165], [-10.37392909533528], [-13.638786966709626], [10.191612950494573], [-4.92512216378587], [45.01619489997465]], [[-20.47446147175002], [3.0951418621618885], [14.909777113836254], [46.015260080460756], [36.86890558076373], [16.221901106176468], [10.520834483624407], [33.09464308344618], [15.971374499736802], [26.881561802680448]], [[-23.036030060849825], [74.97788221589722]]]}, "all": [{"weights": [[[-25.648927781824334, -14.752301796316019, 43.807638305945645, 13.144862144492816, 4.2718894076805, -2.2900993456502654, -15.019297054624015, 25.644425550056766], [-30.626763395084236, 1.1522920725964083, 5.514042566804249, 33.136327031161294, 16.585189341520774, -15.074411523124176, 19.612279787804972, -23.850636225202248], [-2.4127678955541114, 6.777371927625745, 2.6047192762881726, -3.9945701172224033, 6.660276395182926, -15.36766636952195, 11.49798271206989, -1.9704999581128642], [-44.99247586288611, 16.166120556496274, -21.444629232610076, 3.6133701098332094, 9.106754229171731, 12.262578345627881, -4.023361731283006, 6.054124276241216], [-30.836742616722038, 4.805795358024685, 22.20139999236357, -9.294879385520755, 21.805657028869287, 12.751996334037077, -15.317093956354235, 1.3671596349558075], [-1.9190942360320404, 60.75665073003746, 21.309126504130525, -38.62355914331899, -1.6084186023429703, 7.064286231550764, -33.3449031649829, -3.1171586509480127], [-28.12927839240522, -5.196878464994838, -6.837872811149615, 6.309299461735264, -19.850697590271448, -17.595280561609275, -38.88471763204002, 6.830427315688551], [15.02078350284397, 3.5408435088225936, -16.105564750387096, -4.914274764460022, -15.213766014443863, 1.4839720993301033, 50.93874567592822, 32.477743384959076], [-18.286453787566476, 23.559648944293684, 17.431184418579395, -23.94226575021783, -4.821701893157571, 5.8424038974049735, 17.554459902226245, -15.168484683185117], [-8.062445778082488, -19.063979529607902, -39.67940393489525, 11.206002235823313, 3.065416138774034, 8.789905235229943, -29.31049599075496, 0.603964375661221]], [[-13.947686872794263, -31.486981368208557, 19.96661650720385, 10.28314041207161, 31.467906410279625, -0.2186350954620379, -5.9046237554076235, -24.440247851063727, 33.95839824091854, -1.9867940874911532], [-16.982234624757208, 2.0169803509051967, 12.977418831477571, 1.6848599551496721, -15.838006661464542, 27.210188961817064, -13.364624371290013, -11.349555701352076, 11.933023536481313, 7.013174327080361], [16.47412751564902, -7.18008258761918, -8.688553562934185, -2.0597635066161866, -7.358373069748091, -11.574113023936269, 5.057127324076919, 29.482947187165404, 24.46432038023756, -2.147531118820683], [17.208222338358397, 32.5578021640059, -19.26565701245224, -12.085498060070675, 15.90611353806457, 19.40187278897292, -3.767348517925394, 7.644807937878243, -26.03124274256024, 3.9325079291739966], [33.09126707975655, -4.494844751588933, 2.5915512122202187, -5.75796104658204, 21.98631821439563, 25.55489184367624, -7.272041947980051, 8.514709680685895, 7.780767218730001, -23.45246630519815], [11.735761982296033, 4.21101553697037, 6.04487723295901, 6.127069287972461, -12.76673407942105, -21.434860812899153, 20.834266410278385, -21.765316424264054, -9.421249763126175, -15.236680587626934], [32.99526989929234, -11.211651924944471, -5.172924905803054, 2.2517364239600233, 13.656194686536569, 3.416271048138676, -11.177497554274963, 14.493482424770118, -12.011297029522618, 5.333126494785407], [15.829070297781875, -21.975241578397416, -14.756086918404637, 17.454980004912052, -17.97132450482514, 18.776697434710567, 8.285721385934297, 20.50990730670871, -18.276124002378186, -10.130607178640345], [30.527909733936596, 2.3541086360214467, -7.151700292608878, 10.565768910322017, 1.474911126936706, 6.688770782977429, -18.236426125135086, -46.79862988236988, -7.449495012780668, 4.2862475771844535], [6.143963342987958, 9.579480254353616, 6.419424420573116, -18.900380078491363, 17.972814760072428, 25.77748988988124, 18.035648702682305, -22.331401348119382, 15.907620191867204, -10.48629480683797]], [[25.227766376263776, 26.244582656801587, -6.009076158146601, 29.266282536731254, -10.850698107508288, -5.479436798850645, -4.341646022638305, 0.33252454101717366, 10.07901774023697, -1.0322267636453433], [10.892054828409911, -10.78694974351572, -7.763786830028197, -34.06552425537227, -42.28611559379622, 5.073109699186305, 15.289124409066682, -23.375303935790118, 28.511067573399362, 4.902274277744007]]], "bias": [[[7.927999134793327], [17.28225744399078], [1.2279667665784046], [-23.25801477347483], [-26.50608504259165], [-10.37392909533528], [-13.638786966709626], [10.191612950494573], [-4.92512216378587], [45.01619489997465]], [[-20.47446147175002], [3.0951418621618885], [14.909777113836254], [46.015260080460756], [36.86890558076373], [16.221901106176468], [10.520834483624407], [33.09464308344618], [15.971374499736802], [26.881561802680448]], [[-23.036030060849825], [74.97788221589722]]]}, {"weights": [[[-29.866630941569188, -14.649135040607892, 42.56231453507671, 11.8966665921728, 3.35462416649144, -3.13617156571565, -17.572125992249145, 28.998262536220324], [-32.28022840128079, 0.6139513163254607, 5.39534917803605, 33.43302845957759, 22.06729268142124, -12.717371258610214, 21.01300531116301, -24.26094702064017], [-3.9332247198635826, 6.478053324406479, 4.236578521859215, -5.868642302464273, 5.319325859451893, -16.80367114957792, 11.009500127292448, -2.412142127607182], [-45.566730538700156, 17.068605000403043, -29.342985791876966, 6.054038739173216, 7.678040471957238, 9.52840804456026, -7.88578857743442, 7.353705510352557], [-27.42668643011985, 6.658922192530235, 24.354029480268196, -5.789325944310431, 16.314508233922414, 12.242428109268271, -19.598098529610343, 4.081887193686399], [4.324713684373818, 57.97233910561063, 19.083180621297632, -35.642515177652236, -0.14874953039850503, 8.19984206734043, -34.33768136910379, -1.158760239228375], [-22.306193944286843, -6.954053795043724, -7.201282373385326, 2.21753517257518, -20.817829219154383, -20.394132974713877, -37.31076330906006, 9.736679572935953], [10.624268093409379, 2.3369131066761466, -14.327143668223515, -3.520215901975683, -15.31440469396258, 2.68473290456353, 50.30943279557215, 31.272865511647073], [-17.065712119756515, 21.91902743811838, 15.808069481476002, -22.062869347246803, 1.576479476000967, 6.557753175945626, 22.080637293065347, -12.943877477474814], [-9.472555762753624, -21.71742426427931, -39.70232357964095, 11.065511226561732, 1.1897321142346158, 11.878403275235982, -26.60324157379157, -1.6248108588717307]], [[-12.43229958263889, -30.536603807887303, 19.833582850377628, 10.562669926731791, 30.86617829097194, 0.5549160535266178, -6.369871389491966, -24.19372040191118, 33.705854816880745, -1.7697218662024865], [-17.475964579283026, 3.348303541868588, 13.772696080027888, 3.749141344620558, -15.53843855272261, 26.496559517138138, -13.049375783338526, -10.536963326230598, 11.751390412365136, 5.964759719352263], [18.569235246868473, -7.103504808862996, -7.227206403347222, -1.137511946035133, -7.395727073043117, -11.57078496922892, 3.269088560751623, 30.954293177603247, 24.29764115700588, -1.9119200403221812], [14.00792718348095, 35.68901601518862, -19.878815484215416, -11.126579188442012, 14.16255118480156, 20.182726204758502, 0.24988202468879261, 5.979125118244898, -28.26782146202843, 6.800193422359073], [33.66497380198742, -4.040712794657459, 0.7349457136001487, -6.146636472406309, 22.081216189640383, 25.793790486379077, -7.7334613798818985, 7.567588762308578, 5.487971445435369, -27.4075752700579], [14.386105913120605, 5.175543318143328, 7.3576723332139125, 10.245204371085281, -15.567566502207436, -22.927189539820585, 19.9630612362257, -21.765704283222295, -8.989694423337825, -13.974299732626639], [33.43472556694399, -9.088284584255414, -4.078350618977609, 1.620898331086589, 16.821018629113343, 3.4276377597508354, -12.531774302148978, 15.453480204800096, -6.750259040427165, 6.548597523021297], [15.6014191159779, -24.76840094892558, -16.61225882921052, 14.590524626054004, -17.56976753396105, 18.83876199262395, 4.654264742375272, 19.304390752020833, -16.94084253643459, -11.578434802885633], [30.62746097830337, 2.9336725037626703, -7.738548741953935, 14.342000096656216, -0.1675936124728968, 7.46629164268375, -17.38917500028091, -43.88082475840413, -5.091663710808437, 2.8768191249147708], [5.393972917609249, 8.309579484773812, 5.0866964820032585, -16.01721827201536, 18.665147369755875, 22.649768809938518, 17.62016914569633, -22.813390353982694, 12.966475628271704, -8.304061339618363]], [[23.366890481720873, 27.55443813210023, -3.4455988886054487, 27.19578828942323, -9.988620910180039, -3.964719999754779, -1.4662235498399903, -3.960267971044135, 3.9526657852260394, -1.540731140588846], [11.038008723567735, -9.276671503781085, -4.798929634395081, -29.861029841837354, -44.973328482988755, 5.1028099954668455, 11.123040039465362, -26.50234950117687, 31.29090705521221, 3.447910251397306]]], "bias": [[[9.241405865690766], [20.743608837430735], [1.5890417374366166], [-21.162133623593448], [-25.68063797406015], [-13.81960372807118], [-15.801448825018383], [8.963036376891125], [-1.7436465275912778], [45.305553661015885]], [[-16.804782237301986], [0.9322033685274835], [23.833491598152126], [45.81887893535786], [38.81464403401495], [19.259194921603775], [10.384275356215717], [33.30272188916136], [18.205065231978136], [30.919635791037905]], [[-23.2086939627692], [73.52259001716965]]]}, {"weights": [[[-28.033005084287346, -13.305038466269007, 37.525740410846076, 12.263927761808846, 1.0311684083121135, -4.053679133024125, -20.278319964437856, 23.21249646472161], [-30.69016927744214, 1.4930304444710294, 3.7268170447537936, 33.59382278186879, 19.071369730147236, -10.612392689151042, 22.158535687922743, -23.345440000327184], [0.05805524107203386, 5.866490861514425, 0.7084214695735747, -4.3646303579214045, 6.703833538052253, -15.604213917376146, 13.844213443099163, -4.997378529748031], [-50.0810004317005, 15.690342184717606, -26.15788242758001, 6.015645711010987, 10.368725495315305, 6.591352657998615, -4.174141814435749, 5.07763193315842], [-28.74647896324867, 5.956927865092963, 23.38098763163957, -7.414709561412677, 16.0725920351285, 12.046591572877666, -19.370861663152333, 5.026487323182091], [4.03780236375391, 59.07416406017424, 19.96016002981113, -36.82226685739498, -1.3644767774552036, 7.572903218353515, -35.45548030185803, -2.248303330734593], [-22.43120479904178, -11.790398947916504, -4.731464529083871, 12.601241709685292, -26.304547875711464, -16.852283851073267, -37.87216339347323, 1.0116324041625928], [12.223725046666534, 0.07794842911327005, -16.73147298697609, -3.55443072437211, -13.446052470143645, 2.127886545159397, 50.71968170102335, 30.46683180598128], [-15.242187485932385, 25.48290554176169, 24.476459030133547, -24.491353433852716, 0.5545879744632433, 5.418067430317578, 22.773878567614755, -12.834664838096472], [-25.406517041304554, -16.397538873031188, 9.888935679818855, -12.954367222952364, 1.94462794346687, 2.916067994572, -15.577249565317029, 14.861176300475584]], [[-11.609470583093223, -34.38501647996249, 19.899948129530134, 11.338203863147388, 32.19335158813738, -6.312341478489416, -9.699104656817475, -23.72393956163105, 31.757846008073034, -6.352441310750229], [-17.790334941056976, 1.3302892779949844, 13.321196708214458, 7.5749152489307505, -20.316954380901112, 33.71974987179111, -12.392090102247375, -9.304440397212575, 11.731292841580265, 3.033045720046668], [17.786582977606724, -7.18008258761918, -8.277783432602797, -1.8012676593244916, -7.390745065792434, -10.668134259176274, 4.831737885453948, 29.35887980759182, 24.155522743362173, -1.6853555173371837], [16.906900011579417, 33.48845163603979, -19.19610351204292, -12.18962744566859, 14.084395467786914, 18.48157689680175, -3.3385606725551074, 7.984021564146886, -27.357588446303804, 4.061163994540753], [29.610943447069737, -3.1953110871871515, -1.6783989457860053, -7.832438973644528, 21.308437141131773, 25.184695668836778, -6.9628665761383886, 8.61226768533348, 7.341953619143204, -22.110933842454553], [13.503503140124488, 5.752841387776314, 8.201972067407137, 10.282323242391575, -14.409791135479676, -20.762305036164705, 21.24607350409039, -22.677208418469395, -7.445350152911533, -12.589007775774773], [32.916904545530016, -10.390132197355836, -5.084908139363457, 3.155102962741938, 13.057773056478393, 2.3489061477256463, -13.033946446640142, 15.21951300063772, -12.569662107203452, 5.087345063499046], [12.897318641961206, -22.860897244117748, -13.646440310666204, 13.871628571925596, -16.391988514109944, 18.740991841841026, 6.025984737687816, 22.70594850412312, -18.23613992549682, -11.203380457438456], [29.48567988865354, 3.697051394138441, -5.985037621197356, 14.407427870892123, 3.760205649002832, 5.052905904019014, -17.57114811516942, -44.35538551783984, -4.628487517549743, 3.0152686287168735], [13.22140901314545, 8.834324680200867, 40.93148947773952, 4.366095866733265, 40.477013677954865, -0.6505191173903178, -21.939499690152388, 21.481776348904138, -21.647923728619702, 24.838794700167963]], [[22.789630990157658, 27.132256463994956, -2.644704940502417, 27.446837142367222, -10.193858275330308, -4.795649256959403, 0.441595606541756, -2.851105544479366, 4.6148279584680525, -3.3906377015452627], [26.191708871124604, -18.233159375213386, -5.164854958212005, 12.587601495175083, 3.6809687611861936, 8.862486990263154, 38.51592994543123, -0.39446907104186923, 36.53176191772604, 32.8573715318195]]], "bias": [[[4.515230610899093], [15.669585422418868], [2.715487722363921], [-22.559795819076076], [-26.642592093392796], [-13.405762031243025], [-15.01792443694512], [7.609776971430113], [-4.65678627850356], [-24.14874775591117]], [[-15.135366526860178], [-1.144719017534391], [16.62151880026185], [44.54010972917093], [41.48377681468552], [14.869957773397502], [10.555943374194545], [32.62767252728445], [11.622792198700553], [27.303708981941824]], [[-24.547936244547547], [-93.12584711484524]]]}, {"weights": [[[-32.7071523501, -14.258560937743269, 41.818212595727346, 12.629531122654491, 4.904402055356279, -3.003403678124594, -20.755465665803772, 26.9262509358064], [-30.626763395084236, 1.1522920725964083, 5.0195716238366375, 32.79107281082143, 17.874085411766536, -14.93834986126388, 19.67791339843817, -23.18390435020018], [-0.6239296335673145, 13.947316003786803, 1.9903327059383369, -8.112835345839098, 7.430784222799629, -13.30800030595574, 8.367689264688844, -9.150700614360234], [-43.9867816401083, 15.23264401833, -29.386984042898877, 4.94247233589268, 8.600244122887668, 10.18279521573452, -8.583601926913916, 7.120440192515032], [-30.548403993931853, 5.378257023078613, 21.719378962464926, -9.824671591997122, 20.212384949583893, 11.945349952611787, -15.35773586840828, 1.8092146507022213], [-1.3915556474664639, 61.47751565629461, 22.023929900058654, -39.48914483413692, -0.990105521057213, 6.932776106211385, -33.59633527787394, -2.6007313760443247], [-22.306193944286843, -8.089107912704122, -9.072981145145722, 0.7921117953187177, -20.982917668297166, -20.394132974713877, -37.420930105467704, 9.490766878473057], [13.67737753464424, 2.353234553411161, -14.62518335414016, -2.8908418110166743, -15.559390230114856, 2.8268853118031774, 50.30943279557215, 31.5754262775402], [-21.167745914332592, 22.353420764846632, 17.41509076397675, -22.712508280199607, -2.4987333823687727, 5.953448329902407, 21.045567611598806, -13.007595583829126], [-25.132274816200216, -17.63136609872911, 10.734196481259236, -12.408805740298016, 2.8466805256053456, 2.9700367358442983, -17.442142227763533, 13.561875438654088]], [[-13.100707547434908, -31.726938911574553, 17.808913126837645, 11.73028241947061, 29.87384860734565, -1.441261924488664, -9.459395895846761, -22.583453581637063, 30.924336606757784, -3.854115634081224], [-17.63216518332695, 2.6615435085009578, 12.600309397367491, 2.7379901644657605, -18.687573572871315, 26.761117002647573, -9.008025722298232, -10.585284800218533, 12.99865097151874, 6.883530593587494], [7.0343047578588624, -7.377256603172372, -5.65032230319093, -6.0076240738749425, -6.6347322082496385, -14.303588907833902, 8.013005942509372, 30.67766806766198, 24.22784654929789, -3.2593350279448634], [11.69517743509543, 38.849078894563064, -25.946196396548565, -7.7919324357796365, 14.897575536582092, 19.73583187768876, -2.65560896311892, 3.4119610106618095, -30.52277036970025, 5.4362229740253625], [31.318566559528318, -2.1363836948163213, 5.191856294491468, -0.9706932978317524, 28.972612620076145, 25.697429219736133, -7.709280634502425, 11.556814550276892, 4.171545772418855, -27.121705110861537], [14.138713565265391, 5.810376411097911, 7.319770535381562, 11.014016400121871, -15.175237924877022, -21.621319738855416, 16.81611767393412, -21.640420496139267, -8.114560197606437, -11.32543972437299], [33.91519019821056, -10.548362462297977, -6.806832956691978, 2.062958391395594, 16.266032922975384, 5.494277474420128, -12.829739478184369, 15.707355009821002, -7.514419922099589, 4.34560264776705], [14.210967024614325, -22.971225725696886, -12.475110642612021, 15.770540088223907, -17.097939343499547, 15.671738604510502, 5.228703534687382, 22.543681862439044, -17.720693433765142, -9.661193077806802], [30.248967229674445, 1.4886700234514008, -6.20504253150105, 10.924945810724001, 2.347943451366627, 4.0557495908366565, -16.812489781982784, -46.20673623618195, -6.958720570984251, 5.252773880056458], [13.362759008237456, 7.707782955833956, 39.609794794488515, 6.544470968190428, 38.72139153140122, 0.3549665352213948, -21.253750405891186, 22.098370999597996, -21.412507278124632, 25.516818587712212]], [[23.18770063773725, 23.829205313522696, -5.0271639105503585, 32.55444168306717, -8.771220987083849, -5.189819238445361, -2.7839359469809595, -2.421428519314969, 4.5700481304673755, 0.9579560778868129], [27.179011747301935, -20.22597764048719, -6.121017086470164, 12.541160100787993, 3.6584405150613053, 10.062184804652514, 35.466808479241124, 0.18737694030341442, 38.966776106723714, 35.33278166858606]]], "bias": [[[3.5591085347489693], [16.351388731356042], [2.8517335048696735], [-21.887053052538896], [-26.05607448586501], [-13.100615013158956], [-15.801448825018383], [7.628373726256651], [-4.45903469990168], [-21.664930692931883]], [[-15.275997478565339], [-1.5565672448821573], [15.672321333462431], [42.960256601760584], [41.43515765286521], [21.11460987346631], [4.632586443099804], [33.35308682168399], [14.277357864546394], [29.211021895638442]], [[-18.607730739282903], [-93.00231210942673]]]}, {"weights": [[[-29.001671279307867, -15.142542169038121, 41.40765700217598, 11.871565925831826, 5.535563221764101, -3.1167572709705182, -16.863191762346432, 27.127428766342724], [-31.453241389627678, 1.6709471396367583, 4.749073916962162, 33.28399063082387, 17.765186672942452, -13.894897786058, 20.26523500403928, -24.745599528970676], [-1.6353754868506556, 6.67217596113405, 2.961104263426301, -5.910711194064086, 5.989003185767143, -15.487099315757039, 11.066309549890498, -2.3631761835894673], [-45.282587146880864, 16.17837804494013, -20.028778105984593, 3.382842205194338, 8.976494203598518, 12.0871176289022, -5.200212996335695, 6.105078930676592], [-29.527461257858796, 5.370655357522196, 23.822983284645144, -7.440693372693897, 16.20055282431648, 11.794558963455344, -21.12878151866502, 5.190942962976698], [4.081313941440286, 59.739568845638736, 20.248766454691726, -36.90610510129607, -1.6462747390903836, 4.835927739693029, -36.117029956666784, -1.1707827946559919], [-27.750592318903035, -5.038548237911992, -6.19398958997606, 6.309299461735264, -19.101026520312487, -18.65569893311629, -39.13830732091193, 6.830427315688551], [14.318872899951751, 3.5408435088225936, -16.084958263284147, -4.45842813872404, -15.213766014443863, 1.9141669137599253, 52.63741620246401, 32.477743384959076], [-17.979471002285624, 23.559648944293684, 17.431184418579395, -24.76095288619012, -5.344396587555318, 5.667363158959778, 17.554459902226245, -15.168484683185117], [-8.062445778082488, -18.76186841963346, -39.95641662434926, 11.49387373355097, 2.514037696291817, 8.789905235229943, -29.31049599075496, 0.603964375661221]], [[-14.274191289965598, -32.71794070146166, 21.15929000408108, 11.265291867813293, 29.77254209610434, 0.9893808838942628, -5.286162245629593, -22.75819294393227, 32.480203289085786, -1.9406868501325114], [-18.07791597467651, 1.4224660009051608, 12.885109459995563, 8.790692962366439, -21.77143742760621, 32.278831912309485, -13.46224018449292, -9.782037185193433, 11.711251922502406, 3.3299072808309966], [16.614983642626477, -6.731002758384905, -7.8334614914185945, -2.1799188668988436, -7.390745065792434, -12.046566326618208, 5.8243533431912375, 29.482947187165404, 23.174131381237018, -1.6647960026032447], [16.906900011579417, 34.91426188563102, -19.841646701995984, -12.760787691613894, 14.68962098605339, 18.91086385205866, -3.790187420031851, 7.35368854590998, -27.143326609757313, 3.976467123213039], [31.156845655074882, -3.4180325521737287, 0.5589397790554211, -6.6417375379097985, 22.927769540384347, 25.365350665863037, -7.024369866842463, 6.4028460253030515, 9.509556154937904, -22.387959960747512], [16.758654227274718, 7.477996585267553, 8.051034319477875, 12.29443555930925, -12.398553346187034, -20.671632527970004, 21.334522211099962, -16.59444678197948, -5.255869443463567, -17.007875042063365], [32.94387100350284, -12.171787637861902, -6.138701105132811, 0.6023977353188894, 15.410648274158147, 2.1493921220201035, -10.900357819051939, 12.762677537198734, -7.690646611073804, 7.394136663186456], [15.829070297781875, -22.234254870473702, -15.863943082588857, 17.454980004912052, -17.3836988587336, 17.90093255776054, 8.285721385934297, 20.50990730670871, -18.513842903618624, -10.60560556042557], [31.277823713335067, 2.393985962748637, -6.7384499834237355, 10.565768910322017, 2.0340696753946395, 6.688770782977429, -17.68459508870725, -46.79862988236988, -7.269690411059277, 4.85550008345318], [6.143963342987958, 9.579480254353616, 6.903090890518352, -18.900380078491363, 17.972814760072428, 26.11291715809769, 17.501945569420975, -22.331401348119382, 16.242836872441462, -10.585733994109628]], [[23.10777594710761, 27.334662818903183, -2.710490321011178, 26.992566538947887, -7.863045173358967, -5.657622514233902, -0.8001615833936779, -3.7639084414015427, 3.7068582400411825, -1.3291005772766158], [10.892054828409911, -11.640879224592492, -7.763786830028197, -33.556019353756064, -42.07013979941503, 4.991818173148506, 15.359123862321873, -24.88934903331549, 28.511067573399362, 5.16311540990524]]], "bias": [[[9.241405865690766], [17.173404364729645], [2.3689077654507837], [-21.758466937862366], [-25.561462841887575], [-13.319312366876611], [-16.075673345342633], [10.571046726305283], [-2.124450876460636], [44.77267666864865]], [[-15.441049696637839], [-1.0619038634594933], [15.778539507195884], [43.77792825465275], [40.666463488338735], [18.93451734265044], [10.300384586627748], [32.59626395192094], [15.971374499736802], [26.881561802680448]], [[-26.05418221125993], [74.97788221589722]]]}, {"weights": [[[-25.430735266739184, -12.69076615032374, 42.82348385435404, 13.802958983808976, 2.2255204801401884, -4.105756750685239, -17.840858040367948, 25.620661329700074], [-31.742536545402604, 1.4930304444710294, 4.747965647365498, 32.70255889390267, 18.20392882358079, -9.828831857909407, 21.3430362232319, -23.345440000327184], [0.3984290677995497, 7.312210350695309, 2.086379638919891, -6.122457440782866, 6.5913307532418735, -15.176800935003229, 14.122607365770195, -4.581026677863981], [-48.91329629565976, 14.645854237967333, -26.260101935498525, 5.748309843906627, 10.368725495315305, 6.715130479544147, -3.529662369316031, 3.733765961664523], [-27.478011883148213, 4.5586651725211675, 26.49306492900559, -6.564244197963364, 16.357855718692328, 12.055377223265944, -19.726705497549517, 4.507159474152838], [3.651897794310469, 52.12552990763779, 21.15858799881603, -36.5299733577538, 0.4556548491262883, 5.384407011027109, -38.64218781610348, -0.058403784052370344], [-26.31216251025381, -12.162053844528623, -0.8726262874310908, 12.455194127837736, -23.357486987244663, -16.603031236296125, -38.27531150044088, 3.3470518634387036], [11.673710505537231, 1.331630288692548, -14.715477325409665, -5.334473030128709, -13.355938239836481, 2.7666819932832727, 50.72018016930963, 33.120145099774], [-17.759105914789124, 22.854274242556148, 16.053039506008687, -22.11120766402686, -1.5391021047858149, 5.998583577346047, 22.380394110019303, -13.438874081646864], [-25.059813475144765, -19.347836982605322, 8.030366715319992, -13.234945221976107, 1.7121762393112583, 1.4454529082759284, -14.584587902684905, 14.9002886446495]], [[-13.642937535488828, -32.97359971016338, 18.868141160692925, 12.282437185039887, 28.28081266302172, 0.7127719562932415, -10.115463242611446, -21.291554143147852, 32.68090904159573, -2.6392992310456678], [-19.799622689577873, 4.7799193373581295, 14.348921369423724, 2.5878416874031074, -18.90645969537263, 24.74089259111234, -11.322547281251012, -9.142009849373519, 13.586194939645809, 5.033575206506187], [17.519666994229613, -8.402243466995275, -8.491279835220519, -2.314315086946584, -7.336970452019893, -10.038609791989904, 4.082408982316333, 30.58607046859347, 22.959916036461344, -2.191164665367508], [12.47227048648346, 39.21449918834046, -24.938488643611095, -7.244830847342103, 18.25312330036268, 20.23643170770843, -5.277557443063244, 4.878157671703322, -26.40101717347584, 5.53384450295692], [33.516777264426096, -3.065416860520127, 0.7349457136001487, -6.950770388439552, 21.590792789274346, 26.006811469749334, -8.946921578190773, 7.482668236462037, 5.298160794727023, -27.4075752700579], [14.479225300430622, 5.429404724280205, 9.587556239357994, 12.119346872983535, -12.930236946133778, -22.108289460986235, 17.195246163756547, -20.910577979128043, -7.4810973146005955, -13.751538555537396], [30.853505128415637, -2.021723694200723, 5.072734856546981, 1.5061956936632488, 14.513914720755515, 4.897044145754219, -10.24493424281591, 10.000776310955613, -14.950314418277951, 2.569986015452176], [15.831833680580141, -21.79567720378111, -15.447787117936738, 17.093482191127357, -18.047751631943203, 18.482180500726386, 7.016873806349231, 21.73363463403582, -18.239651282026458, -10.045733301508564], [30.55325566972963, 2.538779614048867, -7.30397868122745, 11.509702484484947, 0.6880851308705993, 5.822354607242489, -17.28847730343046, -44.14753532407276, -6.8628435524995135, 4.674324896377353], [12.747788905763977, 6.997853243375925, 39.6144055298216, 4.7852761113122915, 39.977493893616746, -0.3749765470623956, -21.37050486687572, 21.678963312975853, -23.589807618293122, 25.098348394539308]], [[23.15314499887031, 24.79073744398417, -4.505401919387716, 30.971147492836042, -10.130120846002539, -4.452974901748403, -1.5683601158987437, -2.0865693800054927, 1.021915936691753, 1.2151264394288246], [24.89716886558799, -17.800652270785953, -6.753570719989429, 14.55657797190952, 2.4693102816115085, 8.978214629626567, 38.059214985587296, 1.749695992830745, 38.18298649244611, 33.30420611927411]]], "bias": [[[4.165287718960066], [20.401815668452624], [-2.5148921203452557], [-19.167751940705486], [-24.739260269691634], [-13.970181779649405], [-13.740733647237327], [8.56956549136526], [-5.768074335359627], [-24.17438529163937]], [[-17.520240243237875], [1.8195556585025527], [27.31952334662462], [45.9140396300011], [38.938236843481945], [17.851352316847947], [9.007386653767261], [35.647735922456825], [11.825493769306224], [29.568908930943685]], [[-23.43942392672322], [-94.64820143923588]]]}, {"weights": [[[-26.288969796960917, -14.752301796316019, 43.807638305945645, 13.641359960142992, 4.92189442912209, -2.2900993456502654, -16.078771342161932, 25.37474919964779], [-30.56289593540382, -0.35944656200144104, 4.856381153552004, 34.081850318079695, 23.319481494103858, -13.029011022900107, 21.74459930446755, -23.623889094669234], [-1.1023875902926115, 10.831641252502358, 1.413113358500353, -5.573271002056541, 8.22685101102849, -12.720132936770542, 7.189013388514448, -8.125723805771823], [-44.96013202711435, 15.718717567698523, -30.100221969849276, 7.6091274482384925, 8.025548934647743, 9.586351133584332, -8.338061497408196, 6.5323206031392935], [-28.689717637193183, 6.398787503781612, 22.376354253580836, -6.121029248064282, 17.356681073307612, 11.20957478326775, -20.09466604403335, 5.877931768116344], [-2.1561460772588172, 60.720052221283105, 22.28174772194467, -38.13686232696303, -1.8135376772976932, 5.921510252947886, -32.49260769708191, -1.123155236166648], [-27.343697878131525, -5.352845846956972, -7.607894505608719, 5.812700185701729, -18.982186206967494, -19.125065802037863, -39.762412547711605, 7.786299048759603], [14.834205816519805, 2.4626416152466897, -15.004572102951728, -4.439374305255529, -14.556917990347443, 0.8741163963025995, 51.09815197171252, 32.477743384959076], [-19.368687642215473, 23.79817388759213, 15.504355671418582, -21.56312991952008, -4.242145275871572, 4.401215106386994, 23.54016252218039, -12.712880763640955], [-9.231073336997268, -21.089870914973556, -40.047583908224574, 12.028548160573711, 1.824752963580511, 11.266091957270822, -28.312198266110364, -0.5439915248572982]], [[-13.947686872794263, -31.486981368208557, 19.96661650720385, 9.129052464092544, 31.273349149821446, 0.24841146023533656, -5.820851041934631, -24.99500550870028, 33.95839824091854, -1.9867940874911532], [-18.185237329631352, 1.3255395500994676, 12.132964972975943, 5.917503916237853, -21.157916997868682, 30.278630999848904, -12.184993614196985, -10.918860860782628, 15.156485095254727, 2.4627671156000615], [16.002968451291366, -7.030410858317545, -6.49492359976453, -2.498277166698509, -6.1096617188787095, -13.475655029148713, 4.134868106113131, 30.354745000322733, 22.21971981868446, -0.357253016706232], [12.721381915259624, 38.76717691153503, -24.056345461113104, -7.103317406305899, 17.245226086875572, 21.268822129197133, -5.066766502936602, 5.18650669114368, -28.414198617615078, 5.53384450295692], [31.104308946672777, -2.9278394721960828, 4.88838989120617, -1.772680781951849, 28.55150211256345, 25.023372979098323, -7.199068806107277, 12.556722117214019, 3.357539244110065, -27.710145079703718], [13.595215915093975, 6.237069504749404, 4.335333682404643, 6.716424766551002, -14.887472110918626, -17.882763811384354, 22.44611833464412, -20.468525197804166, -10.387410894377405, -14.264331170369676], [29.77517553040014, -2.0912518044262773, 4.782525136117956, 2.3410880941516865, 14.457241357873679, 4.931872529622382, -10.43877755398281, 10.524070870123929, -13.92999264929993, 3.6238403379503543], [15.150702881273435, -24.209771744430984, -18.114218963456445, 14.246775389311523, -18.466163165947375, 19.574322743475285, 5.8718919276203145, 19.784529150226238, -18.037141692741002, -11.593019828937434], [29.9838369756764, 3.3161438546039985, -7.242981982939109, 12.436209869664953, 0.5385055770925448, 8.573729470539623, -16.6533444151002, -43.79416769370721, -3.6428931464848158, 2.2623241012939217], [4.990477765055616, 7.540532004238663, 5.862243317075172, -17.131982729377093, 17.95892848565945, 22.408477303869848, 16.063473050458228, -23.205656891391378, 13.60349122590544, -8.762137151271409]], [[26.307400326622552, 28.407206231036987, -4.227600273978284, 28.898956173220416, -11.623750032318126, -5.709546679956645, -2.9786468028479733, -1.7136694091865767, 9.226846384500192, -2.242647585161861], [8.534307843086205, -8.30369998763075, -4.301934508334809, -29.35711127472879, -42.22902486018943, 2.975777712466042, 12.354472470280134, -27.01295924874102, 31.336695148201386, 1.1857029122411502]]], "bias": [[[7.624240725533188], [17.344633765907073], [1.2279667665784046], [-23.016544924155045], [-26.50608504259165], [-10.317273359889532], [-13.82502237633654], [8.674782541106026], [-6.180352983716648], [44.60648156594882]], [[-22.05224646618619], [2.9197937608636186], [14.274850279289494], [45.63552945960282], [40.51729111196574], [18.950297740567475], [10.785309220432236], [32.71171374505078], [11.834258067392208], [30.712187447342597]], [[-25.300395793213404], [74.32915834055]]]}, {"weights": [[[-27.344960402473962, -14.145644631674111, 42.272362045973225, 12.439640274163228, 4.904719416327119, -3.3848546786794858, -17.2435462699839, 24.802356730388652], [-30.3847531741528, -0.33674487103850115, 4.7516917296624115, 32.66738774161181, 22.38582210260941, -12.323175571724635, 19.633901363856626, -24.9496184181954], [-3.618102868377485, 7.331806798050358, 3.205525620681652, -6.653261769329305, 5.879593991906348, -15.86453775757121, 11.762025526021676, -1.2493995363432533], [-45.566730538700156, 16.504127008035493, -32.37150736349726, 6.291466370228119, 8.65336701792655, 8.839014005738795, -8.31616972278639, 8.397282688554705], [-27.80034599913495, 5.898922853229578, 23.378148324351862, -5.185496608747977, 16.192051109176543, 12.957019673489947, -20.96961000774764, 3.406464088184678], [4.291547591619236, 57.55144488454368, 22.023015421421906, -37.28587933362836, 0.6529194408812518, 6.175750369509588, -34.19214452571701, -3.0043383304043476], [-23.159572050341513, -12.985925522825212, -1.5988090796577363, 12.176893523344585, -25.398741088471823, -18.481445624132416, -37.85958802496842, 2.236055782553389], [11.178240871605627, 3.7539878962155795, -13.77039606470298, -5.314177111801036, -13.528646353146891, 2.0860604243269054, 49.77113394246689, 28.316182369386507], [-20.48789852981882, 25.046142454599206, 17.599309978979527, -22.973437433577114, -2.317653542797915, 6.654423226509766, 20.52901183040718, -11.251798813464132], [-26.622435747661367, -17.29606516717245, 12.623421155839583, -12.464515918598508, 2.5657020145778633, 1.3091927355286719, -14.288158129799882, 16.870940774319738]], [[-13.215089968072027, -33.14005095734309, 21.15930564781385, 11.800685771116534, 30.24341521324149, 0.9625329812774004, -5.036364529222109, -24.762819121011095, 32.184582944590694, -1.7368763965719842], [-18.683330850858482, 1.892406136090933, 13.34949003275331, 6.208100994630982, -20.099439388449987, 29.464677024373394, -12.717363172934146, -11.386837955852702, 14.820675276546773, 3.888106588043336], [17.014765090375626, -7.030410858317545, -6.080318822810384, -1.841358406277756, -7.345119814684795, -14.170882186015204, 5.539551717223698, 30.160881271538525, 22.018227677316947, -1.895951902112569], [11.63299074726042, 38.935742839060175, -23.892728740815524, -8.516449998704053, 16.9526932591763, 20.43478374172333, -5.009434181602103, 4.948019091398566, -29.994873030997127, 5.913931360409737], [31.318566559528318, -2.4293521851600826, 5.198977819946649, -1.4434632996389352, 28.70514643121114, 25.2162284663038, -8.722186968536407, 12.562669760270524, 4.5216412346391195, -26.067114777703075], [14.738519407534122, 8.668401947817806, 7.193841403217383, 10.628732734160312, -12.921160520410112, -20.65761934930077, 20.31646286141901, -15.507863639976158, -5.316230074356749, -16.69086110559087], [32.04263092025142, -9.974511864880673, -6.2231818358995294, 3.211565820314941, 16.962634863604976, 5.316858363079912, -10.655002860632, 15.401118501998992, -7.492872992995512, 6.987763677558256], [12.675825646444572, -21.064407050215777, -15.602101917147138, 19.98921789137639, -14.267285257959504, 18.07682772095336, 11.568496679071652, 24.453730767811066, -18.41088495324083, -8.246741621744848], [24.598811514101296, 5.380953151167701, -11.74275926069935, 14.242980829850906, 2.064060906716704, 12.125854637227471, -20.17492130127734, -47.938220848036835, -3.301427833633303, 5.830552143163973], [12.837736750766751, 6.317048237571065, 39.99766713642975, 4.223088903083708, 39.808166416982274, -0.17285021687590452, -21.804123147991678, 22.52706899597965, -23.20608644403184, 24.216352194230705]], [[26.049250005093242, 26.76344594671169, -4.684351816889012, 30.468771170606825, -11.612786722492618, -6.271942344927723, -2.7416519301081115, -1.4469557575719, 10.063936804068364, -1.0658119900644487], [26.108443704225444, -20.388851880648932, -8.094416533156883, 14.181652222441066, 0.46658116782621284, 9.731557610300516, 36.64255878093015, -1.0596092564849735, 38.30198957774412, 35.030230763132295]]], "bias": [[[4.555379013342888], [18.833282435474068], [1.2279667665784046], [-20.801001947862378], [-27.84061306901379], [-14.488732849618268], [-14.873860727876636], [7.19471987485192], [-4.15267784672441], [-24.46036329103681]], [[-20.925690056815558], [3.0148167196483677], [15.616691793151645], [46.075483997974224], [39.23717539945746], [20.70122285839461], [5.838470043916678], [33.25094632803633], [13.082295501948016], [29.074442591906525]], [[-23.568091590093104], [-93.1050112104738]]]}, {"weights": [[[-26.288969796960917, -14.752301796316019, 43.807638305945645, 13.641359960142992, 4.602435030365387, -1.5957481290407456, -15.720917821523466, 25.37474919964779], [-30.56289593540382, -0.35944656200144104, 4.856381153552004, 33.03422019158423, 23.319481494103858, -13.029011022900107, 21.957846880191347, -23.623889094669234], [-1.1023875902926115, 10.831641252502358, 1.413113358500353, -5.154160668601155, 7.016896869281535, -12.720132936770542, 7.189013388514448, -8.125723805771823], [-44.96013202711435, 15.718717567698523, -30.100221969849276, 8.687398727533491, 7.652151450954703, 9.586351133584332, -8.338061497408196, 6.5323206031392935], [-28.689717637193183, 6.398787503781612, 22.376354253580836, -6.121029248064282, 17.356681073307612, 11.20957478326775, -19.793477687438443, 6.0817429604920346], [-2.1561460772588172, 60.720052221283105, 22.28174772194467, -38.13686232696303, -1.8135376772976932, 5.921510252947886, -32.49260769708191, -1.123155236166648], [-27.157645829495053, -5.352845846956972, -7.417824584528172, 5.812700185701729, -19.19380309273435, -19.922733165981235, -39.762412547711605, 8.465971984828904], [13.826799041076773, 2.1156157885507674, -15.004572102951728, -4.380624648886648, -13.900289418899455, 0.6232149393807489, 51.09815197171252, 32.477743384959076], [-21.092723345990855, 22.16063038676529, 17.32468312325599, -23.668854008954018, -2.4987333823687727, 6.067017578459544, 21.045567611598806, -14.951203502497728], [-24.548024651836727, -17.63136609872911, 10.53860531284548, -11.961173401063723, 2.8466805256053456, 2.9700367358442983, -17.803395722203003, 13.561875438654088]], [[-13.947686872794263, -31.486981368208557, 19.96661650720385, 9.129052464092544, 31.273349149821446, 0.24841146023533656, -5.820851041934631, -25.551185663759412, 33.95839824091854, -1.9867940874911532], [-18.743926799023065, 1.3255395500994676, 12.132964972975943, 5.917503916237853, -21.157916997868682, 30.278630999848904, -12.184993614196985, -10.918860860782628, 14.604992765841576, 2.4627671156000615], [16.002968451291366, -6.694859706937049, -6.49492359976453, -2.498277166698509, -6.5126078886133465, -13.475655029148713, 4.134868106113131, 30.703746603120994, 22.21971981868446, -0.357253016706232], [12.721381915259624, 38.76717691153503, -24.056345461113104, -6.4136027007886405, 17.235328613113733, 21.268822129197133, -5.066766502936602, 5.18650669114368, -28.414198617615078, 5.53384450295692], [31.104308946672777, -2.9278394721960828, 4.88838989120617, -2.468697664935342, 28.55150211256345, 25.023372979098323, -7.199068806107277, 12.556722117214019, 3.306074063411719, -27.710145079703718], [14.093134105631224, 5.1208171510371905, 7.661316172275296, 12.746425720167712, -15.26764778957727, -22.485291059723707, 16.81611767393412, -21.640420496139267, -6.901803862546834, -11.663632302712633], [33.91519019821056, -10.548362462297977, -6.342346382841964, 1.9380114598243254, 15.668635094510238, 4.447294009172354, -12.959648865353707, 15.745137978929437, -6.890913732257094, 4.3996965460296265], [14.210967024614325, -23.617572071873255, -12.383369085289313, 15.770540088223907, -17.26667462079, 16.14503032194643, 5.228703534687382, 21.029849052743817, -17.322746868057095, -9.661193077806802], [30.426045133082418, 2.2993514604579834, -5.589427263958813, 10.924945810724001, 2.347943451366627, 4.0557495908366565, -16.812489781982784, -47.1615526936954, -7.1373401418424915, 5.252773880056458], [13.362759008237456, 7.707782955833956, 39.78451383527129, 6.544470968190428, 39.00277572085372, 0.5630799961787611, -21.68518469098554, 22.0496446865811, -21.54559165624257, 25.656466441008778]], [[24.059674529656576, 27.546656961910497, -2.618994723245243, 27.341384615810295, -8.639864285432624, -6.494963709012298, 0.11160098283883807, -4.524802877104559, 3.6721766772619953, -1.2927936594178424], [27.179011747301935, -20.22597764048719, -5.227148804192646, 13.932921413425781, 2.4489442604686187, 10.062184804652514, 35.51871281628543, 0.02117186496324855, 39.708642453632905, 35.313166604497226]]], "bias": [[[7.624240725533188], [16.82415696419112], [2.2788549853269817], [-21.568504912681203], [-22.391497027423892], [-11.936087349374839], [-14.228349517152463], [7.2532975793941965], [-4.45903469990168], [-21.664930692931883]], [[-21.164613612858], [2.9197937608636186], [24.132857038076505], [44.3938525463096], [37.41964488326216], [16.112227063872403], [5.1855380026003175], [33.39438133085848], [17.93150792527157], [29.211021895638442]], [[-18.915425536196675], [-92.26458639450854]]]}, {"weights": [[[-28.030098530762153, -15.791280030099637, 41.863426034792575, 12.88423610773628, 4.417714588731552, -2.41674834724704, -17.130723526519407, 27.950785937984453], [-33.78518627354228, 0.48277200747284077, 2.802079936129238, 30.38401730883484, 22.5783523093326, -12.82728302095218, 19.718263256946127, -23.18705452565589], [-1.496348939789091, 6.451993699359282, 2.860661475569843, -5.194064535602395, 7.12020697772353, -16.376392702859565, 11.43096688446309, -1.0431601030310556], [-46.444638148808465, 17.217920674503183, -21.54189702132399, 4.706276937847601, 8.857703231491639, 12.59368868632342, -4.001101332716359, 3.6536424817645905], [-30.753683758070977, 4.657561631017611, 22.269363068996626, -10.424033206943204, 19.37824783389304, 11.405778072469035, -15.223838911967402, 2.6844671373924873], [-1.929698298826903, 61.50672870777492, 21.309126504130525, -38.43846946648526, -0.5295316099596072, 7.618630300243178, -32.88174552731437, -2.562967828817282], [-26.14176655059835, -5.038548237911992, -6.683634038020072, 5.877603270664793, -19.190468831088694, -19.20482614523336, -39.23592643520667, 5.731635301085373], [12.674313827865973, 1.1612326996973816, -14.316828378266717, -5.104492569639915, -15.192089515520406, 3.5819461829084913, 50.26284100447619, 32.04103342895397], [-16.25630656575356, 24.099734486384143, 16.262197940152785, -23.88438123567071, -4.340262896713959, 4.624877728387239, 17.864189392747402, -13.571113207014012], [-8.668064868219371, -21.788370809801616, -40.45107992681926, 10.72559120390947, 2.040432186153702, 11.755012839415981, -27.6239888370499, -1.4128471975309131]], [[-12.782720738459052, -32.228172400785866, 20.695911269726206, 12.359495508905649, 30.499159713727547, -3.21057068377698, -12.074384704509173, -22.933262184338634, 31.759778673309608, -3.271094763220801], [-16.982234624757208, 2.0169803509051967, 13.278079534175866, 2.0793408225498853, -15.834000322192098, 26.804527121233075, -13.364624371290013, -11.010036865940336, 12.25446723265303, 6.790071939892917], [17.096702304896016, -7.820527844026931, -8.688553562934185, -2.0597635066161866, -7.358373069748091, -11.574113023936269, 4.837560360581895, 29.482947187165404, 24.155522743362173, -2.147531118820683], [17.261119412428194, 32.5578021640059, -19.26565701245224, -12.085498060070675, 14.269391595795065, 19.40187278897292, -4.0665602513659636, 7.464595666921273, -26.03124274256024, 3.82567318331739], [32.76802733242158, -4.0996814373709345, 1.713561851168934, -5.240844719020977, 22.241852486311704, 25.55489184367624, -6.137735648850695, 7.43407725047503, 7.780767218730001, -22.74749193881462], [11.735761982296033, 3.865424067177791, 7.211254910714182, 6.127069287972461, -12.76673407942105, -20.778169994838127, 20.022699726418637, -21.987070915787676, -9.421249763126175, -15.236680587626934], [32.99526989929234, -11.597409111059186, -5.503221543403359, 3.303919034172152, 14.128846174700094, 3.416271048138676, -11.177497554274963, 14.716687315006505, -12.25021477874155, 5.333126494785407], [15.46430597048298, -24.05603217606183, -13.317413850994575, 13.989868723066262, -16.040259738310073, 18.70883980073062, 6.127367052520959, 21.677875074125854, -15.291087054249562, -10.718668468456357], [24.46159212534825, 5.547491071123461, -8.539237101070523, 13.69709999437245, 8.794848120088075, 13.20317769552665, -17.65104394037004, -51.62569971067684, -6.129185597080306, 4.707476771977775], [6.104379755160638, 9.53121414129336, 5.325767265660463, -17.342515746479826, 19.191937037552627, 22.84679789097542, 16.83155005470365, -25.42529262314194, 13.952171224758825, -8.500271305650063]], [[23.60152594142171, 26.565425976107043, -3.216145146205234, 25.978590448545155, -8.893554182436826, -5.657622514233902, -0.8001615833936779, -3.810429765624068, 3.831844351127086, -1.7661937976562774], [10.443358852372192, -9.276671503781085, -3.3062809759881073, -29.35655519746475, -42.47694471115466, 4.927752027419213, 11.520715131696727, -26.50234950117687, 30.08522683027667, 1.9257968909986427]]], "bias": [[[5.82537291304763], [16.706307728486777], [1.2279667665784046], [-23.016544924155045], [-26.50608504259165], [-10.4983728346648], [-12.418403929554799], [12.928348742125282], [-6.525801670653647], [44.41599585539105]], [[-13.852963218393223], [2.2024640455680973], [15.123066404091125], [45.177293311289944], [40.84348133149924], [19.335306886817047], [6.303830083244924], [31.566662914594744], [12.731566829964637], [30.16477752038382]], [[-23.034427195822026], [75.05209526722327]]]}, {"weights": [[[-32.08555615288461, -11.960376033247558, 40.42507972931684, 11.326570975670114, 2.9349190970696633, -4.111816661183162, -18.1416595712365, 28.262175573033073], [-31.424024294481743, 1.3815840098067425, 5.421277584583628, 31.55944702153238, 22.934106274034985, -13.280262792675016, 20.882880115026765, -22.54310167572806], [-1.1068097935224979, 7.301284514840444, 0.6100073164684501, -6.295717784316894, 7.683475698111691, -16.09820408359957, 14.616281211422677, -3.7559477162263533], [-44.70908138536082, 16.38835586896565, -29.835791312017342, 5.531197988522459, 9.007892653805737, 9.111695346267014, -9.672236260742876, 6.27201894778437], [-32.34205491172598, 4.778130817971379, 23.051025499469254, -8.207147801813598, 22.875373817295007, 12.28457113349184, -18.07004529780969, 4.850015819052993], [-5.178202923940726, 61.425052237380406, 21.018069267630636, -40.62597025180133, -2.7411151972112724, 6.2090786919707845, -33.13550213395126, -3.937720452950724], [-24.391873389867534, -12.077395447676688, -3.260167675804969, 10.66505267193702, -25.14633883278503, -14.054955156096725, -37.29620798159811, 1.5347207908517786], [11.402953053097674, 1.1734220926677879, -14.239633630839274, -4.906065146000448, -15.131358879374694, 2.2311573961764264, 49.95823841894521, 33.63131642215353], [-15.872184533817036, 24.50210872401125, 22.136625216317434, -24.648276288829532, -0.7880700863634081, 6.1628777427099966, 20.56353338153329, -13.26846874781442], [-5.349646383799152, -19.955841482901466, -39.508858036692615, 10.007964699858007, 3.602778915390481, 11.034663249737957, -29.14898090386534, 2.2585925352300382]], [[-11.609470583093223, -34.38501647996249, 19.899948129530134, 11.338203863147388, 32.19335158813738, -6.909385630180715, -10.006132923643914, -23.60333244203463, 32.03751415441498, -6.680054375078638], [-17.16954073407849, 1.3302892779949844, 13.011062082786845, 7.141557842453468, -20.316954380901112, 33.79458333362538, -14.501399988370427, -9.630507360151977, 11.711251922502406, 2.743386530791522], [17.014765090375626, -7.030410858317545, -6.080318822810384, -1.841358406277756, -6.346461523257449, -14.611156704075729, 6.077053327440499, 30.17490943246735, 22.999231378070473, -1.6890820527433958], [12.34780431322752, 34.57199620810139, -26.78009608389865, -10.491538785247636, 7.350296915436697, 24.482311393895056, -1.1830479762193677, 4.626846570971259, -28.48160337262595, 5.9148498423464435], [30.999193298499737, -2.7465892164548276, -0.44461057282598987, -7.017570039513811, 22.061308568309176, 25.263096579747536, -6.410274349153121, 8.18548940148526, 7.097107686647817, -22.751704328141315], [12.908107948157474, 6.128800414543637, 7.039623071649718, 11.098121989204737, -11.169591180797818, -17.96196778677595, 23.44315624432347, -18.766039452664533, -10.182592452729414, -15.068451964174878], [32.562339035115826, -6.2992347715916095, 4.2848685341081225, 4.808357914918538, 14.669237374356594, 4.625635615691014, -12.365125559295178, 7.3590322987633625, -10.885765153093793, 2.1838228120387817], [16.365630946887137, -25.434246575733987, -16.462476536336947, 13.869488542056821, -18.43969142463807, 18.730667969248742, 3.9007661309890103, 20.9861922618166, -17.209319605423158, -11.656078983209392], [25.156208214292363, 5.186664179041415, -9.657384614490823, 15.234768269707335, 7.425193457554911, 13.20317769552665, -18.810343070759743, -52.76870535223848, -5.635878247806979, 4.28487853479334], [6.232128516876228, 8.068797416860454, 3.026533998515592, -20.82689559650318, 16.457256310221, 24.662377749498816, 16.564482265133172, -22.704306061254904, 15.612353143130825, -8.682859707049316]], [[24.395550979302996, 27.55443813210023, -2.9215753529328716, 28.367493688324323, -9.763981484704003, -4.316602528762813, -0.35240474748394673, -4.451031803978935, 4.68635728768284, -1.022961695475309], [12.857889996451313, -10.755572479891093, -5.92037533705023, -33.491648916965765, -44.51761626585606, 4.785033667888246, 14.861336192422208, -26.683340984035322, 29.54959336424881, 7.0207472470865815]]], "bias": [[[3.5591085347489693], [15.06900100368424], [-1.4362081479980697], [-20.669100782977388], [-27.681797688867466], [-12.733682150425661], [-13.988254359150565], [7.716613167897072], [-5.40925942781771], [44.63153344787151]], [[-16.296120441877413], [-1.144719017534391], [16.344440045162823], [44.54010972917093], [37.638620406951595], [16.512468921548773], [10.50930174708119], [33.08485507004101], [17.94019443273402], [27.455801644631798]], [[-23.64603830180841], [76.25817768274601]]]}, {"weights": [[[-26.07300659818235, -15.100074115748502, 41.535692906218706, 12.45391052775441, 2.2753463972279233, -4.795716341172659, -16.45967597134057, 24.925997541963472], [-32.87591430230567, 1.1624896523247814, 8.019008769737061, 31.388631298106553, 22.459844709937077, -14.34725846225366, 19.607187043309747, -24.131524903371115], [-1.431081937464188, 14.275862993085475, 1.893706002666612, -5.0102862547922, 7.4789838069741394, -12.477647034794579, 7.606530750559851, -8.584676512520703], [-44.70908138536082, 16.38835586896565, -30.08742920449035, 6.121100070163471, 8.979727490170836, 10.3024592291475, -9.672236260742876, 7.180243637417689], [-32.16275190770035, 4.939015130177075, 22.95478943762353, -8.338140641173041, 23.66955882828513, 12.157973623838384, -16.88898353575879, 4.850015819052993], [-4.914848444516358, 61.13712599928075, 21.252049359918455, -42.09125945858175, -1.7210737195747243, 6.538616339762941, -32.53924475285014, -3.5222249159237986], [-24.192496773630637, -12.717979172067396, -3.17000365504144, 11.985831627762748, -26.280579525188593, -14.579591516880615, -36.96952684095798, 1.135155408805501], [12.847354176837673, 0.48369268701255536, -13.17723644308992, -6.058375240495544, -15.243434734125984, 3.2857660770144346, 50.35963138769577, 31.550309730547255], [-17.14076792865627, 24.462830935426698, 15.619380548462383, -23.88438123567071, -4.340262896713959, 4.971253681756925, 16.362441940581437, -13.431103740875526], [-9.041880042368742, -21.11626484488936, -39.58476936449436, 10.959359578183543, 1.8590463477393664, 11.868193022071939, -27.66771850529638, -1.4128471975309131]], [[-13.818968053157777, -33.14005095734309, 21.15929000408108, 12.035864096571379, 29.283747926061285, 0.9893808838942628, -5.114776843807065, -23.091082956590604, 32.184582944590694, -1.6648901552835746], [-17.91751458357584, 2.516646144104252, 14.742240649654226, 5.880058792734972, -21.706718590113294, 31.55567304557503, -12.062296000223226, -10.516128670703596, 14.693246876663864, 2.96906695291199], [8.144909988575765, -7.306150198210439, -6.745266297926566, -5.63219974689901, -6.258543254175209, -13.486013320092482, 9.183435320410945, 30.520068137619074, 24.76126266334919, -2.2012894469457174], [12.912900398633646, 35.433719409460025, -21.250060774498937, -10.965405307736654, 10.204659168794107, 22.066689728620574, 1.2330601931631566, 3.677261719990079, -25.84050399352204, 6.233432651544438], [31.00304058225618, -1.7793119900547967, 4.124999507632849, -0.7056082027570861, 28.93950628233545, 26.318745300807194, -7.591340002056799, 9.327609385232373, 5.583795575739451, -26.857982061512253], [12.546160288032913, 5.097520209989607, 5.428877668646902, 9.067011244866332, -9.896826403812941, -19.79961738388957, 20.241903569660945, -21.95432966639386, -10.02935536885799, -14.80876920736021], [33.85463557027127, -6.165863479979313, 4.367208309612233, 5.360152358203294, 14.804269120000097, 4.625635615691014, -13.731839594726999, 7.446543181177424, -10.621905985535596, 3.211560599474292], [16.80639393736419, -26.204136678687984, -15.190885665049647, 17.996997696283923, -19.394785876468056, 18.80015703227601, 5.8158283330816145, 20.421508375313003, -14.072679345129425, -8.707548819761746], [24.15740404212758, 5.547491071123461, -7.626566445485982, 13.399238582904664, 8.794848120088075, 12.02084967158119, -17.959324282782077, -51.036625989329075, -6.746563675984655, 4.707476771977775], [5.692141813748441, 8.705630560374097, 5.325767265660463, -17.128147490829804, 19.191937037552627, 23.26926769410778, 16.157416362399697, -25.09150993563503, 13.752445737721352, -8.323098971042961]], [[24.34338348930199, 28.015576581920833, -4.1563568678523986, 30.229341038024728, -10.274655664842061, -9.720023856151094, -0.4941921052510412, 0.3647584058724363, 6.243918290775408, -3.7674870031246734], [10.443358852372192, -8.34724925453049, -3.3062809759881073, -29.164863624565807, -43.005953873992304, 5.092435584664029, 11.995802493784002, -26.107988824375905, 31.95285499058842, 1.3439023568874142]]], "bias": [[[10.762346898535332], [16.787454164009215], [-2.653322151057541], [-19.967502384019596], [-27.23022682912922], [-15.731575865870807], [-19.14978506600568], [12.99499664276529], [-5.007537848701247], [43.980639227726996]], [[-16.49696375339954], [0.829161529915013], [23.61169786218777], [42.94481611983904], [40.399660642785676], [17.980235890924856], [5.194146922250429], [33.05444026134997], [15.288198372109507], [30.19926005105083]], [[-20.11523029429935], [74.4615161214995]]]}, {"weights": [[[-25.70190816701734, -14.7000655371557, 41.535692906218706, 12.430878723911388, 1.8077722863052443, -4.9313706018576795, -16.197328754732712, 24.993826790004906], [-33.458050220148564, -0.8074050252233872, 5.416763135390432, 31.384756082408067, 22.341806821661972, -13.589582831548654, 20.21882414490351, -22.18073698453787], [-1.249320495707876, 7.2336032789134395, 1.885729525047204, -6.517796775087716, 6.493141460697824, -16.000737784932596, 13.740449011105214, -4.712902877042482], [-44.49290613219262, 17.130361988674167, -31.478210293615163, 2.8723061498556266, 9.335512406565103, 9.082259053810093, -9.556602764930059, 7.233981246103156], [-28.40957377871121, 4.867745162040657, 22.767347689562644, -6.83805712982013, 16.11888526715772, 12.426051071785357, -20.011051393147493, 5.696813019609146], [0.8644794764303692, 63.135235206141886, 21.415138301903674, -38.371069405578474, -1.4996569503404025, 6.90356093777818, -33.29296015264957, -2.5846213889906244], [-23.904076949425896, -7.907499372674408, -7.852795166624907, 4.1800870980367995, -21.93353996664487, -20.241102321090857, -36.508291225699764, 7.823567395318139], [11.351289417487987, -0.13602834339232334, -15.866802238580565, -4.388110713151292, -13.446052470143645, 1.8669818774149793, 51.19188104587183, 30.49069311492722], [-15.517065453889831, 24.30506226570678, 22.013784547261007, -22.930833939275388, 0.14398796236214007, 5.775388827936984, 21.74246483319925, -13.425912622846418], [-5.318044680477946, -20.808251429738863, -38.77534428614973, 10.230336043548407, 4.450130247868519, 9.556907233505125, -30.117740132819083, 3.2334593272936276]], [[-15.246150012315695, -33.155564048025795, 18.473341380669126, 12.62664567071291, 28.89457850537521, -0.9530027549990585, -10.0299270788794, -21.291554143147852, 32.72462912563963, -2.8665547472297406], [-16.815519347023034, 1.7952279428265328, 16.475458008812538, 0.7532133224767968, -16.218264321188425, 24.897957659367595, -9.740140992724276, -11.908558023177234, 13.25936527842778, 1.3942420353259872], [17.422300509957342, -7.766261950183794, -5.617635409805326, -1.415664862903924, -7.155636024081091, -13.137661574514986, 5.064092038124478, 30.3926322484701, 21.62624764234555, -1.6558971067258033], [13.7051060609817, 37.76571763840527, -24.238653008190003, -7.181597097431128, 17.30917352043264, 19.668741321316578, -5.679613094472438, 4.352921874142407, -28.49327839506399, 5.53384450295692], [33.780442233163015, -4.040712794657459, 1.2841226145276423, -7.330927472206091, 21.53435136007229, 26.802113355932413, -6.9647279293058055, 7.567588762308578, 5.551483283922581, -27.262784441174315], [15.0515330342724, 5.697725322585181, 9.432375717248059, 11.73216788698018, -14.072764685144552, -21.242147658919233, 19.73018045485783, -21.81858999468905, -6.984995990769269, -12.553970603260927], [32.97794244003041, -10.388470473338957, -5.04994288701354, 1.2391783189047152, 15.585657476971837, 1.9926176900856312, -11.04950390635271, 15.972070087028285, -8.283664493121421, 5.770667365446349], [15.355609811871098, -24.20335206373229, -15.392146622814781, 15.05658661970903, -18.250303268689603, 19.185403900956654, 4.267683734736695, 20.17096192937213, -17.094237380814405, -11.203458925626709], [24.267635856308, 4.183207337632959, -8.838215508607707, 15.234768269707335, 8.324428139149854, 13.20317769552665, -18.976362731362748, -51.68872388955549, -5.107207680877649, 3.553535202999593], [3.9932271226756817, 7.618207404552658, 2.918370871988062, -20.990764514424086, 15.774501389627122, 25.77502614033102, 16.296959779470804, -23.11234629446754, 16.289936603261225, -9.466165386591456]], [[24.395550979302996, 27.55443813210023, -2.9215753529328716, 27.886870703888217, -9.763981484704003, -4.317605538648735, -0.743492695979755, -3.41254722884214, 4.68635728768284, -1.33941523458783], [12.546758544384847, -11.31388215828334, -5.628260096983456, -33.6990932124331, -43.45083307006225, 4.709110005061353, 15.473817532957579, -27.052924639817483, 29.55197890532738, 7.0207472470865815]]], "bias": [[[6.386459174255172], [17.400759986752394], [3.0361125815263206], [-21.568107555992274], [-25.80198137031471], [-13.405762031243025], [-14.368699216227483], [5.989872396351573], [-5.253179691952411], [44.93747682450304]], [[-21.32329887885885], [-0.06418518917932531], [24.859470481219766], [43.79951229898655], [38.400550735226474], [18.282648434042695], [10.195801563319918], [33.433048860120856], [14.380920135427946], [27.995982361998394]], [[-23.926381739240927], [76.25817768274601]]]}, {"weights": [[[-28.625937689102326, -15.949411688328237, 42.51811606258081, 12.27397431229813, 4.654917602284159, -4.402348794608102, -17.36102550773186, 27.36272406753996], [-33.78518627354228, -0.3083332565837793, 3.482740884357772, 31.368514260309063, 22.5783523093326, -13.452804284684184, 18.911624435922313, -24.198877014080885], [-2.1896104664613194, 11.04751732259923, 1.413113358500353, -6.148186564064493, 8.22685101102849, -12.720132936770542, 7.592140098296884, -8.125723805771823], [-44.96013202711435, 15.718717567698523, -30.100221969849276, 7.6091274482384925, 8.025548934647743, 8.83516198759711, -8.338061497408196, 6.5323206031392935], [-28.689717637193183, 6.398787503781612, 21.827110041155496, -6.121029248064282, 17.2777825172644, 11.724052409260326, -20.23203278392324, 5.877931768116344], [-2.7307082011575856, 60.720052221283105, 22.28174772194467, -38.13686232696303, -1.8135376772976932, 5.921510252947886, -31.599942145041304, -1.123155236166648], [-27.343697878131525, -5.261420497560447, -7.607894505608719, 5.812700185701729, -18.982186206967494, -19.125065802037863, -39.762412547711605, 8.034604402464712], [14.834205816519805, 2.4626416152466897, -15.004572102951728, -4.439374305255529, -14.775811585501666, 0.8741163963025995, 51.09815197171252, 32.477743384959076], [-19.176483295338656, 23.79817388759213, 15.516724871870654, -21.945213777399637, -4.242145275871572, 3.8184843389335286, 23.136512212610132, -13.17709417196442], [-9.231073336997268, -21.089870914973556, -40.69706191060758, 12.028548160573711, 1.4972432435050735, 11.266091957270822, -28.312198266110364, -0.5439915248572982]], [[-12.750213928874615, -32.94008418653374, 21.51574924658168, 10.433198258114768, 30.67236992217265, -3.21057068377698, -12.315000411954923, -23.23534453264309, 32.278307720393975, -2.2877217334821656], [-16.745099700295032, 1.6278571584826986, 16.292841952575195, 0.9480087146095437, -16.72277844082892, 24.897957659367595, -9.578099216913634, -11.908558023177234, 13.25936527842778, 2.7688562239315164], [7.255541860814087, -6.202077112855441, -6.625893848428241, -6.4232366388003985, -5.066771857601506, -14.74506566754335, 7.212556823027518, 31.102728331444066, 23.7337353767172, -3.2593350279448634], [13.75451778935917, 38.76717691153503, -24.13910800494289, -7.183151831939451, 17.245226086875572, 21.268822129197133, -5.066766502936602, 5.18650669114368, -27.931904161437174, 5.53384450295692], [31.104308946672777, -2.9278394721960828, 4.88838989120617, -2.437668365102544, 28.55150211256345, 25.023372979098323, -7.199068806107277, 12.556722117214019, 3.357539244110065, -27.65182750781577], [13.595215915093975, 6.237069504749404, 4.795868962602761, 6.716424766551002, -14.887472110918626, -18.395695131669726, 22.44611833464412, -20.468525197804166, -10.387410894377405, -14.264331170369676], [29.77517553040014, -2.0912518044262773, 4.782525136117956, 2.3410880941516865, 14.457241357873679, 4.419574928665968, -10.43877755398281, 10.524070870123929, -13.92999264929993, 3.6238403379503543], [14.6203809738741, -24.209771744430984, -18.114218963456445, 14.246775389311523, -18.466163165947375, 19.574322743475285, 6.149199457545298, 19.784529150226238, -18.037141692741002, -11.593019828937434], [29.9838369756764, 3.3161438546039985, -7.242981982939109, 12.436209869664953, 0.5385055770925448, 8.573729470539623, -16.747414387303042, -43.79416769370721, -3.6428931464848158, 2.2623241012939217], [4.572339307311814, 7.351398645617082, 5.862243317075172, -17.131982729377093, 17.95892848565945, 22.408477303869848, 16.658786456259378, -23.205656891391378, 13.60349122590544, -8.762137151271409]], [[24.059674529656576, 27.099403341701716, -2.582985278552624, 27.341384615810295, -8.639864285432624, -6.875098647160757, -0.1410253196087526, -4.524802877104559, 3.6721766772619953, -1.3253880064471721], [8.534307843086205, -8.30369998763075, -4.301934508334809, -29.35711127472879, -42.836982544047245, 2.975777712466042, 12.354472470280134, -27.01295924874102, 31.336695148201386, 1.1857029122411502]]], "bias": [[[6.386459174255172], [16.961496004369526], [1.4966021392604625], [-21.568504912681203], [-22.391497027423892], [-11.936087349374839], [-14.228349517152463], [7.716613167897072], [-6.189665980425685], [44.60648156594882]], [[-13.89126987533075], [1.5172670827146215], [24.132857038076505], [45.63552945960282], [40.51729111196574], [18.950297740567475], [10.785309220432236], [32.71171374505078], [11.834258067392208], [30.712187447342597]], [[-25.43591803526546], [74.32915834055]]]}, {"weights": [[[-29.001671279307867, -14.805380602471182, 41.58495213112146, 11.871565925831826, 5.535563221764101, -3.1167572709705182, -16.68898706513033, 27.09933783450276], [-31.211965907150525, 0.08125643022723816, 4.7516917296624115, 33.34307781602404, 22.38582210260941, -12.323175571724635, 19.633901363856626, -25.08978547067612], [-3.618102868377485, 7.331806798050358, 3.4700464304767427, -6.787543062406574, 5.699403392739233, -16.198356538489886, 11.444723141001884, -1.7191754886934705], [-45.566730538700156, 16.504127008035493, -32.37150736349726, 5.80501246895176, 8.260801992241406, 8.839014005738795, -9.082973611999039, 8.615847214952769], [-27.80034599913495, 6.250215366805907, 23.378148324351862, -4.853360455903632, 16.192051109176543, 11.54674583641322, -20.96961000774764, 3.406464088184678], [4.291547591619236, 57.55144488454368, 21.77486948616899, -37.77666862635591, 0.8803637838122917, 5.855156323811158, -34.19214452571701, -2.973899758458658], [-22.21634758802091, -8.960866056003802, -6.4825793923888755, 2.2598911709457408, -22.161745375504253, -21.02436883465848, -37.949452104604305, 9.155917811977055], [11.871278615339195, 2.5936212495344115, -15.576775299391374, -4.468232646608817, -11.83880818303662, 2.1651538490416, 50.407686004574465, 31.058635526606963], [-16.84212209478129, 22.73966089688992, 18.128830486121508, -22.740892390391238, -1.5942842074000734, 5.967586086108693, 25.687927487258083, -13.888060784344672], [-25.76796416232184, -16.820327596493446, 9.433289946600404, -13.964213552213238, 0.7146462984369829, 2.689264736439978, -14.08021394415044, 16.096670402810293]], [[-14.051168021662361, -32.71794070146166, 21.11853577937595, 11.008543817492878, 29.77254209610434, 0.9893808838942628, -4.597047017662511, -23.30558668805203, 32.51739134431633, -1.9406868501325114], [-18.174150382138308, 1.7262449474802486, 13.847310784158198, 6.208100994630982, -21.157916997868682, 28.99730895597861, -12.373579584878666, -10.496876720479484, 14.978618918255778, 2.87900099839085], [16.459452380706747, -6.678157188010327, -6.23982416931662, -1.0803870254209849, -6.576466100948851, -13.970037440805767, 4.81208974938441, 30.05699976969197, 22.44600171420712, -0.8712008169324666], [10.793031885766174, 38.64821855989128, -24.800129829393853, -6.435900301240903, 17.245226086875572, 19.884533693895605, -5.513990986754472, 3.790322335971051, -28.28319073698314, 5.53384450295692], [30.754850635189463, -3.4478206641920166, 4.425918037163746, -1.5852282707509513, 29.06568396588782, 25.79585862314806, -7.162017704828763, 10.071396047900809, 6.361008121352006, -26.617961494533013], [12.177684042691288, 4.862116090554285, 6.336666358195043, 8.738411383578777, -9.765124153640883, -19.884053650241793, 20.426180063565567, -22.045200927696076, -10.957413921987955, -14.054415884577908], [32.07393346850944, -4.458051260536877, 3.049184409921463, 4.231183602539387, 14.414986820802017, 1.965918067566451, -13.842516448177017, 8.377432986913897, -13.054130061344695, 2.890849358372567], [13.919435304150467, -23.636217787175955, -13.517723348709087, 16.43872030299224, -17.365837180231043, 18.77818787966431, 4.203752856991901, 21.151353036745633, -19.60919064441803, -10.396691620363251], [29.88117725742576, 3.108332974509892, -7.734019586902122, 13.206204393769102, 0.47274782348184835, 8.523193395564233, -17.147482580654767, -44.868265340851444, -5.443767202001128, 3.0887029724227917], [14.298357934211456, 6.814505905788911, 39.12413319874968, 4.800652222117512, 40.904529203944556, 0.8303675323246819, -23.326560250241847, 21.16341537076793, -24.173180884170836, 24.84538866118368]], [[27.259415283595228, 27.156985421377904, -4.143376425284553, 28.246864398757722, -12.477985514256789, -5.6845540338162115, -2.4735463562973674, -2.152857954581356, 10.788716825975563, -1.2529513862966204], [26.05780008839419, -19.526990819819925, -6.239995361740095, 15.539753790301178, 0.7385521084858239, 10.570294675519458, 36.75656775888933, -2.17888336073753, 37.7863423417069, 32.41099562586214]]], "bias": [[[9.817945746755095], [16.619379427451577], [3.887234463585837], [-20.8747731849809], [-27.84061306901379], [-12.37317642607406], [-16.803362997875688], [8.56109755254308], [-5.420235397641703], [-23.998573441684613]], [[-21.284314556974312], [3.6350227833822957], [15.21001888378188], [46.68609519323388], [38.312898784451754], [16.67358777383715], [8.68108986462908], [32.81544264377082], [10.86291136013137], [29.559026163746054]], [[-24.51129331581764], [-92.78197601432453]]]}, {"weights": [[[-32.257455668434595, -14.258560937743269, 43.12025801375978, 13.36310658632286, 5.1801932700551205, -2.349530025591119, -21.124067502716873, 27.38782496299696], [-30.626763395084236, 1.1522920725964083, 5.120310607459765, 32.625992762549906, 17.769847053190947, -14.93834986126388, 19.786955216213997, -23.18390435020018], [-3.2246427925241576, 11.560568982274475, 2.5309685086940283, -5.222869389621818, 7.62830777252498, -12.275157919535658, 8.141111103504228, -6.8721318506726945], [-44.04597171879708, 17.629094356031494, -31.033031968611873, 3.994467434147927, 7.976725239282823, 9.082259053810093, -9.704329064018255, 8.327731458691247], [-29.021232050298888, 4.811656687028655, 24.719017970619817, -9.219374667340334, 18.2918215392289, 7.513135062706777, -18.482221350976708, 3.71213125326979], [5.012723031735001, 57.30416873697384, 20.12731605680065, -35.7110669095141, -0.8611707804060251, 8.031302218405592, -36.98715039518285, 0.7085693874644424], [-20.594170267113427, -3.9726691665399296, -9.04949275257375, 10.298078958317502, -15.599430926397364, -17.175326293753336, -36.19448598346315, 8.348971516373542], [11.871278615339195, 2.5936212495344115, -14.73157503122796, -4.468232646608817, -11.611206961480507, 2.7540465970324526, 50.407686004574465, 31.058635526606963], [-16.84212209478129, 22.767792991620517, 18.61017861329609, -22.740892390391238, -1.5133879631268594, 6.4804458215753495, 25.699484087257893, -13.630035067128876], [-25.76796416232184, -17.44450476500143, 9.433289946600404, -14.242406118399332, 0.7146462984369829, 2.689264736439978, -14.08021394415044, 16.096670402810293]], [[-12.721654036450598, -32.69139555797365, 21.15930564781385, 11.800685771116534, 28.85094431759985, 1.0314999199615071, -5.193528391824233, -23.53141144358585, 32.184582944590694, -1.955802075570909], [-19.36196246329513, 2.1106427998060084, 14.826629902106118, 7.684991895284631, -21.29586000408383, 28.51602125436473, -12.717363172934146, -12.252297194170124, 14.97037276543036, 2.152864060899778], [18.107075337063325, -7.50298206170788, -6.359265183410004, -2.6078055407113547, -6.8164993647767, -13.155226746305082, 6.160261157292337, 31.95824363168621, 23.378461223988975, -1.6783230149236066], [14.949522718972856, 33.32302669015946, -21.156690743772725, -10.532988510694015, 7.511561372926209, 20.833000535877446, -0.5261085160321209, 2.25283749603557, -27.311548523442358, 5.338753251429207], [32.49390842969476, -3.101832071755987, 3.748969105379695, -6.3456712914560764, 22.621710164805897, 28.649739600863025, -12.244348185483716, 8.354246118810085, 7.618190055180387, -25.484629278085205], [12.036305105901585, 6.752039882061599, 4.34542990997579, 8.677500879437599, -14.136018417389078, -19.143058756988047, 22.13904818380059, -20.545949599595065, -10.275463560479988, -14.327309266840436], [32.06443401974825, -4.458051260536877, 3.049184409921463, 4.231183602539387, 14.697451512784847, 2.233416428019433, -13.162292860395178, 8.377432986913897, -13.190213029793354, 3.0721671443350007], [13.919435304150467, -23.636217787175955, -13.442949544102515, 17.37195536786017, -17.365837180231043, 18.77818787966431, 4.203752856991901, 20.95705510987616, -19.694631008705212, -10.642687751716654], [29.02167754139966, 3.108332974509892, -8.378910651598769, 14.332017177399718, 0.47274782348184835, 8.523193395564233, -16.947227883148283, -44.85172859364423, -5.443767202001128, 3.0887029724227917], [13.654602577384537, 6.814505905788911, 38.894846471050485, 4.800652222117512, 41.13293302639021, 0.8303675323246819, -23.326560250241847, 20.29473057414792, -23.344855978100966, 24.62997751238014]], [[24.27433114423798, 27.69925912675581, -2.313254581122545, 27.535980920244132, -10.289454730732286, -5.113094773119816, -0.13708699821289283, -5.235632274135734, 5.144797300726248, -0.9881227784673682], [26.05780008839419, -19.526990819819925, -6.062948930173875, 15.361472884393097, 0.7385521084858239, 9.999236983080726, 36.92757840914972, -1.952688780682522, 37.7863423417069, 32.41099562586214]]], "bias": [[[3.5591085347489693], [16.39694949448046], [2.5476354855997534], [-21.947612100723447], [-26.05607448586501], [-12.401324379234946], [-16.803362997875688], [8.56109755254308], [-5.420235397641703], [-23.998573441684613]], [[-15.320503375506346], [-1.144719017534391], [16.220785828727468], [43.43069634758389], [41.43515765286521], [21.32442358883379], [11.04749422589637], [32.81544264377082], [11.625685521505057], [29.559026163746054]], [[-21.328917498958614], [-92.78197601432453]]]}, {"weights": [[[-34.13412835954074, -13.627212715671151, 40.6258884781625, 13.141648538318732, 4.455392821182308, -3.2484413340363183, -18.89492696137912, 26.358320090241712], [-30.790051614364913, 0.14581290111470252, 3.6017893268046484, 31.485435873972385, 19.838604526475052, -14.562661149604656, 17.485334574815713, -21.475367875735234], [-2.110261472053291, 14.56405905490048, 1.9903327059383369, -6.231542741732743, 7.365703893973831, -13.555362853196284, 8.806082882166587, -9.150700614360234], [-44.165641582682824, 15.790196800188976, -29.942793013313377, 5.184996937421993, 8.292598919566498, 10.020057016044843, -9.003033359412008, 8.055018489154577], [-31.696963622922887, 7.887210249737187, 20.623507979957722, -9.077186642898841, 20.467098534706093, 12.457283375225963, -17.195098048231944, 2.604513316894178], [-4.360726938812339, 60.54516354544764, 21.018069267630636, -40.33363767868254, -1.369999151621528, 6.2090786919707845, -33.420898946898596, -4.656661093973974], [-21.02269594572405, -11.032223400857989, -5.177948130574403, 12.242401655335048, -25.706336943997837, -17.124112067609342, -36.74248928427653, 1.3456414615621266], [14.834205816519805, 2.958862303319872, -15.514986082599338, -4.439374305255529, -15.58980052785361, 0.8259173739705121, 51.09815197171252, 32.30789752662808], [-19.368687642215473, 24.056126556460992, 15.504355671418582, -20.91932058241601, -4.999200436537015, 4.401215106386994, 23.54016252218039, -14.135945362534473], [-9.231073336997268, -21.089870914973556, -40.047583908224574, 12.028548160573711, 2.01258217429271, 12.631500236440752, -28.312198266110364, -0.5439915248572982]], [[-14.389973648355584, -31.640292553796293, 20.247951345456652, 9.959599486106452, 30.76895123955035, 0.12991515384190194, -6.164397356197552, -24.739082975354382, 33.14746346967898, -1.91716302422884], [-14.87911105624819, 2.0169803509051967, 14.142116885532845, 2.408982358914476, -16.02427281151474, 26.170988474767345, -11.974337417423396, -10.870790521166183, 11.323665917045899, 6.418941194253689], [16.90358652584154, -6.420940069890138, -7.687484850147152, -1.9109723954609283, -11.325357790974788, -13.290709864363578, 1.600689036836948, 31.28259018278473, 21.447412342182204, -1.4480684263592294], [12.875019324837595, 35.12252399747277, -19.172287505005098, -11.560315172813938, 14.893899580083035, 19.427051499330915, -2.600665530338344, 7.036302854966695, -25.673004980494536, 6.101300819889181], [30.98769894224707, -2.7038010041340983, 5.11099975197174, -2.0527225590597906, 27.204897192005323, 25.023372979098323, -7.199068806107277, 12.57678995065741, 3.357539244110065, -27.997380755805747], [13.393492764465822, 6.237069504749404, 3.268993294842083, 7.243052215563616, -14.887472110918626, -16.82108485526987, 22.4230393907148, -20.468525197804166, -10.587575711222561, -14.618404583274884], [31.35805619262595, -1.4595790870004335, 4.782525136117956, 2.3410880941516865, 14.457241357873679, 4.931872529622382, -10.43877755398281, 11.010425605843972, -14.146359798920718, 3.0886854986109826], [15.595439382947866, -24.209771744430984, -18.114218963456445, 14.246775389311523, -18.466163165947375, 19.574322743475285, 4.616987067115519, 21.39957720276329, -17.796524042963515, -11.707006490265432], [30.449711691352825, 2.5671447689237366, -7.242981982939109, 13.3668138520035, 1.2869152664476777, 8.3746272070764, -16.6533444151002, -44.03816540793499, -3.1299091628973588, 2.4111515022043073], [4.2538399978591785, 7.540532004238663, 5.862243317075172, -17.131982729377093, 17.789417035046036, 21.965004399288123, 16.498786575793197, -23.417313504772856, 14.299587532422365, -8.121512444713655]], [[24.179372661480397, 28.125788962924194, -3.1061045777227463, 27.535980920244132, -10.904420552708485, -4.083882022122902, -0.6413304176546621, -4.030152495819731, 4.432918847798274, -1.5080115388244915], [8.534307843086205, -8.30369998763075, -4.561171430043951, -28.94746041234327, -42.240053776048796, 4.364715426046424, 12.354472470280134, -26.671059568883727, 31.336695148201386, 1.484521774656622]]], "bias": [[[5.245269588321272], [20.173410721668976], [2.8157829685265217], [-18.997677302391466], [-24.471742177050217], [-12.466566106229537], [-14.169022994098217], [8.674782541106026], [-6.180352983716648], [43.92916248370901]], [[-12.725546823880759], [1.4188844590532599], [21.594193386617253], [46.08206621179772], [38.98002428858959], [18.81979126440644], [7.579003989737569], [33.07653938819223], [11.834258067392208], [30.712187447342597]], [[-24.884180781379765], [75.15810102736705]]]}, {"weights": [[[-25.16321744415747, -15.115137212609385, 41.535692906218706, 12.444910491919837, 1.548635032903877, -4.9313706018576795, -16.13806468973747, 25.165026266149336], [-33.458050220148564, -1.6364276431410922, 4.751809919284409, 31.384756082408067, 22.341806821661972, -13.589582831548654, 20.82765900998922, -22.664389960949475], [-1.3176144399945309, 6.0237997355636494, 2.860661475569843, -5.397384865738541, 5.793948594378302, -16.860391223055608, 11.513289926864159, -1.9332364587404853], [-46.102522336422375, 14.71836589864587, -21.892724478362705, 2.840186362371549, 8.064676917076275, 13.627502198814547, -5.248822574521812, 6.758440560589552], [-30.622329876304725, 5.206225073248237, 23.945429971961904, -8.272933608854602, 18.01612852681648, 9.063401775297596, -16.505837568947314, 2.4305750927666883], [-4.665333644845787, 60.665500938756594, 21.31901996524862, -40.64120010132576, -1.9148314946410514, 6.2090786919707845, -32.40051995732054, -2.1182040758271246], [-24.192496773630637, -12.16544739028006, -2.017250927174404, 11.828770924776164, -25.374719020523383, -14.993502075349522, -36.14520320926747, 1.653547888737752], [11.773899684840837, 2.288793664085652, -15.344237634082143, -3.4851901597848083, -14.447655532260512, 2.8348977663149677, 50.02013668001978, 30.007012453252734], [-16.89175033471412, 24.634158762677902, 15.86738855632966, -22.78038366629244, -4.963855238727779, 4.323828791595885, 18.588186564935988, -13.7236649810663], [-7.762563698770416, -22.114016362091203, -40.013478304424446, 9.745290642753567, 2.0319501953488954, 12.345813527343216, -28.280434535484734, -1.5377443883043496]], [[-15.843598700240987, -32.75876289444231, 18.473341380669126, 13.017328349417037, 28.89457850537521, -1.956800595397635, -11.257303849429231, -22.330185651372783, 31.44046196709439, -2.0977668387327713], [-16.815519347023034, 1.7952279428265328, 15.844938281101292, 1.5788104968149321, -16.72277844082892, 24.897957659367595, -10.276310930156116, -11.908558023177234, 13.25936527842778, 1.3942420353259872], [16.438439341348253, -7.4265552763338665, -7.66805885719865, -1.2949090102703755, -6.903793233235181, -9.097064063104256, 2.1754305988472984, 31.626617093095597, 22.41227104664134, -3.0060199697801107], [14.07046012856612, 36.43615811091307, -21.030673388819693, -13.047033252188859, 14.597060722103022, 19.34010832257172, 0.12402481305623259, 6.013884871748866, -28.527779507841892, 6.9647288575316235], [32.038673754786274, -2.1459694337160413, 5.2825732696776795, -1.4460672657943876, 29.322904339335395, 25.300220357346724, -9.14376763353764, 13.476145264118973, 3.993721514679301, -26.712024177816183], [14.138713565265391, 6.167389677684532, 7.774054034449401, 11.821815298156448, -15.175237924877022, -22.232027505347567, 17.840143606718286, -21.640420496139267, -8.225248766736124, -11.530583226636237], [33.91519019821056, -10.548362462297977, -6.696758439754243, 2.062958391395594, 16.68439373731538, 3.2799811327589947, -13.818951921650475, 15.707355009821002, -8.22194017681608, 4.34560264776705], [14.494864572613118, -25.543282850604427, -16.986441112498433, 16.32167364178772, -18.50165173578659, 19.224701207224175, 5.296738917784572, 19.27370163933714, -17.67983820279232, -11.656078983209392], [28.241246535327516, 3.108332974509892, -7.731128082306575, 13.876965248020475, -3.4577293944218237, 7.2593506772158625, -16.430661316210724, -44.82257537502512, -5.4116827583910485, 3.3837293507758517], [5.661095517075212, 8.190038998116556, 5.648340506716961, -16.89132016371711, 19.191937037552627, 23.07709371230007, 15.99213777300672, -24.084298701412703, 13.478546961453262, -6.914853260673068]], [[24.467725792648483, 26.60522827718809, -2.597033167193043, 27.341384615810295, -8.715572107888761, -7.238069194595969, 0.357696600507096, -5.010013182905896, 3.0174957846995696, -1.3253880064471721], [10.541308116276618, -11.141977686315439, -4.75988376991449, -30.10109228943584, -43.95031095601864, 4.7508796208927, 11.077935755713964, -26.973884443894782, 31.264823048511595, 1.1317299352397137]]], "bias": [[[6.386459174255172], [17.400759986752394], [3.0361125815263206], [-21.568504912681203], [-21.92770678031323], [-11.306694856612117], [-12.679083932793292], [5.2254803867919435], [-2.8040618254080556], [45.304288807107326]], [[-21.32329887885885], [-0.06418518917932531], [21.594193386617253], [45.22592295207335], [40.25247864359135], [17.402534631935794], [8.79858056765481], [33.42549975351033], [12.408230073887804], [29.73345884639697]], [[-22.43223850372446], [73.94041475961474]]]}, {"weights": [[[-29.866630941569188, -14.677502428037648, 42.56231453507671, 12.219176787476057, 3.35462416649144, -3.13617156571565, -17.7929528733618, 28.998262536220324], [-31.676123856931003, 0.40147132232883875, 5.4899823609322755, 33.43302845957759, 22.19912848322697, -12.946060010527454, 21.01300531116301, -24.0826836739776], [-2.278703542923384, 11.280540765190732, 1.2489823524437311, -5.745368225761966, 7.417819235778697, -11.962153719238827, 7.672069845529911, -10.442053474525624], [-46.81034811873752, 16.749576269506452, -32.201186661136624, 6.752260409714061, 5.275003683447889, 8.816365652480139, -6.892639564038077, 6.70524694853823], [-29.986382664708223, 6.734476603234383, 23.463606960269356, -10.36672064724471, 19.467021121570912, 13.0473597010871, -15.67711899995048, 3.2042940875520762], [-5.1947183068552425, 60.98182586933556, 21.24155302297539, -40.4432369910576, -1.9148314946410514, 6.2090786919707845, -32.0551048568306, -4.069711640650832], [-24.340733099519078, -10.931225670995751, -2.1648758846941774, 11.621750113917592, -25.14633883278503, -14.481095839441782, -36.27754647869929, 1.8928207015124188], [11.56311522814867, 1.0413641408213246, -14.29086950207944, -3.4932803689304404, -13.936396373025262, 2.3544330458239875, 49.749525813533005, 33.13017827827829], [-20.735058625672774, 24.445723605972532, 17.5513282029139, -22.48956352260045, -5.331212341093236, 4.279220039782211, 21.467129049626934, -12.350256196878393], [-8.499599160111602, -19.326775469192967, -40.737545273491854, 12.444796896627757, 3.9910310369835806, 11.010839186222976, -28.886221741195147, 3.8249151520012137]], [[-12.43229958263889, -30.536603807887303, 19.53729222491273, 10.562669926731791, 30.86617829097194, 0.5549160535266178, -6.369871389491966, -24.550597891818366, 33.35148369577741, -1.9398099896415304], [-16.805263424785508, 3.348303541868588, 13.772696080027888, 3.749141344620558, -15.53843855272261, 26.100748313415462, -13.049375783338526, -10.536963326230598, 11.751390412365136, 5.964759719352263], [16.84191839811323, -7.444504784121183, -6.359265183410004, -1.5262841750781988, -8.087366265242933, -14.246977466819757, 6.160261157292337, 30.85021864022466, 22.351313169418145, -1.6783230149236066], [16.66911792632751, 33.2969212039849, -19.923145972656343, -11.702458598400675, 13.6859296306109, 16.246149174094537, 0.3411566512613446, 7.329868449438111, -25.78971802125807, 6.101158891439343], [32.289041773341225, -3.0685400360118003, 5.466203415174132, -1.4460672657943876, 28.661457392402475, 25.300220357346724, -9.104219484709224, 12.453619020692253, 4.273622992295893, -26.712024177816183], [13.19920310323917, 6.406658134622396, 4.3205407895997645, 8.570101098310092, -14.907619411648755, -17.58065057445239, 21.992633098098814, -20.299543306500546, -10.781171203194505, -14.618404583274884], [30.756693550184156, -1.0920414332214494, 5.692598405511691, 1.1165687360958916, 13.067548713337267, 5.020971048472449, -10.764885712634584, 10.158118721242555, -14.177279855965011, 1.832517067174316], [13.611171971981204, -20.908777314038627, -15.632646200058792, 17.093482191127357, -18.23413216118561, 19.683776973034778, 7.481521681198386, 20.700748319727307, -17.725174645117566, -10.173254577091889], [29.917809655162184, 1.6450872688962064, -7.263673944221941, 10.12486795911929, 3.6727623275767813, 6.636712108874547, -16.62447459997609, -47.296270027818544, -4.741566436413022, 3.5457131965964797], [6.178088913436435, 6.958805179323555, 2.701058652397762, -17.790855553435616, 17.17085959281804, 25.203596136635635, 17.934038076531596, -23.333550577651877, 16.655108704696158, -10.678211557750853]], [[24.615070771023248, 27.546656961910497, -3.112633053555556, 27.341384615810295, -8.639864285432624, -6.494963709012298, -0.1410253196087526, -5.18040182109098, 2.7906574238352433, -1.3253880064471721], [11.102306790231983, -11.257237300000208, -5.669829449526066, -31.550934782980736, -43.24212393536248, 4.384588652922081, 16.421158745692722, -23.92137380908801, 30.168903851799634, 2.875954461400985]]], "bias": [[[9.241405865690766], [20.743608837430735], [1.5890417374366166], [-21.162133623593448], [-25.791383860717943], [-12.990121346864559], [-15.698199596461146], [7.925166286369418], [-6.937647358548365], [44.9691185907759]], [[-16.804782237301986], [0.9322033685274835], [23.833491598152126], [45.593897410253675], [38.81464403401495], [19.259194921603775], [10.384275356215717], [33.39438133085848], [17.93150792527157], [26.51638768497371]], [[-23.245671447338115], [77.55460480555435]]]}, {"weights": [[[-31.108230014269466, -14.327881177728026, 42.20894185502699, 12.629531122654491, 4.536714057729624, -2.7771511793099504, -19.272125081731815, 26.9262509358064], [-30.56289593540382, -0.8716007554768171, 4.856381153552004, 34.52120298618755, 23.009939936250404, -13.133632378448052, 21.74459930446755, -23.649103957551482], [-2.4127678955541114, 6.221953953952186, 3.578711706009193, -5.531901110424221, 6.70992504364919, -16.409852822195294, 11.737002411173117, -1.6843510439345175], [-47.5726170459791, 18.38546866602344, -32.31329297481102, 5.693192975084445, 5.6929578436494115, 9.481065301006227, -7.3803739889474596, 6.392351608427841], [-31.373750682564477, 5.444078853625323, 23.463551135894882, -8.74345664506438, 19.11639532306777, 11.573221898499272, -15.025110290819, 2.3742218647440203], [1.783931065075998, 62.30370978665252, 22.62141716782385, -37.14020666296812, -1.3869422485906642, 7.463160144198746, -33.8984129672295, -1.3185764291537798], [-23.537575693305087, -11.635714971736999, -3.5876197066396203, 12.59818082748242, -25.05089707718113, -14.788177111951885, -38.661032856433366, 1.387512576264668], [11.205946425270957, 3.8238927892549, -15.056808248183861, -4.101655118918026, -15.678101355278379, 0.9730070323156537, 51.18695411309596, 31.687460585662006], [-16.620055203600078, 23.954165607714515, 21.968560069779297, -24.090026383626327, -2.141675063590336, 6.477180289031099, 21.31894585064331, -13.205806581945339], [-4.919240611913897, -19.92210776259475, -39.23569123496451, 10.007964699858007, 4.247521012791687, 10.13739989171568, -30.71582351586134, 2.4037045722550694]], [[-11.762832514357829, -33.95395478321529, 19.521414629796613, 11.884284375805802, 31.930876574732327, -6.271280005386166, -8.296959018976333, -23.419021918378203, 31.428989984235198, -6.089440615267067], [-17.70498096873691, 2.0603840931428694, 13.321196708214458, 8.790692962366439, -21.07201249923277, 33.16815088702171, -14.694514365834404, -8.924384842153401, 10.89683980087953, 3.1798007849749848], [17.901289948566212, -7.4090338731491245, -8.509271175158936, -2.374283101817701, -7.515406931856062, -10.77380190981782, 5.031250527830004, 29.689409798109793, 22.951255695799023, -2.147531118820683], [17.42991006736704, 31.602866168187816, -17.626536793144044, -12.169590665912787, 14.841200997929695, 18.801223536715483, -2.83723799027537, 7.35368854590998, -25.606622695716496, 3.3787971652896327], [29.581553191980188, -4.475193739963373, -1.9657084192687382, -7.832438973644528, 21.419228491590097, 24.518845480693557, -6.733196724799042, 9.304468676565694, 7.163914859330124, -22.114368213447417], [13.89813985435654, 5.522652176359838, 7.898461681381878, 10.562436253118067, -14.409791135479676, -21.923390635782898, 20.84838802485503, -23.67845857895174, -7.972831304606468, -12.323281049031957], [32.916904545530016, -10.390132197355836, -5.084908139363457, 2.943381055891768, 13.057773056478393, 1.6323648194014095, -12.734426062661882, 15.21951300063772, -12.569662107203452, 5.374669358293044], [12.897318641961206, -23.2035891684235, -13.646440310666204, 15.07532908500405, -16.391988514109944, 18.749089797541416, 6.59776170466103, 21.99870663702921, -17.680394759277032, -12.535179362610439], [29.848583679508938, 4.129365753191549, -7.657680107968896, 14.07730837408302, -0.12078843281056825, 7.412093931274223, -17.194359492711833, -44.41852241975952, -5.4116827583910485, 2.993574583852681], [4.534927469475226, 7.719138522541449, 2.9374411042515645, -20.61365779131691, 16.555027100140748, 24.805908954798088, 15.701386367943462, -22.704306061254904, 17.12363881103863, -9.760112220894198]], [[24.395550979302996, 27.55443813210023, -2.9215753529328716, 28.19044118896502, -9.763981484704003, -4.316602528762813, -0.7500969912340923, -3.3842856123193488, 4.68635728768284, -1.022961695475309], [14.049983591988742, -11.016744053122268, -5.031255327696089, -33.9155136653307, -42.37327822590967, 4.702747751702667, 16.261787385103094, -26.22113956369913, 29.304210375215913, 8.328215053187524]]], "bias": [[[3.1863884281892716], [17.32104360641363], [0.3383520572294296], [-22.89203004269816], [-25.93661841602799], [-11.170236864556003], [-14.368699216227483], [7.609776971430113], [-4.65678627850356], [43.832098386628964]], [[-20.746259198368207], [2.8065622296889794], [15.580182038155781], [46.07634490650074], [37.58533946717598], [15.499773954075048], [9.725682685259137], [33.643524383097024], [15.588802846328925], [27.981394053962415]], [[-24.547936244547547], [76.10249296542712]]]}, {"weights": [[[-26.288969796960917, -14.752301796316019, 43.807638305945645, 13.641359960142992, 4.4896663344958645, -2.2900993456502654, -16.370666509189604, 25.322467405347968], [-30.56289593540382, 0.1030120602247796, 4.938394974518456, 33.92160479455634, 23.58376056317284, -13.133632378448052, 21.74459930446755, -23.392414919025097], [-1.16102417396781, 10.633604319792672, 0.8814640497921038, -6.220033457855926, 7.791969277872547, -12.720132936770542, 6.947776932548575, -8.125723805771823], [-47.59687443112522, 16.463889536320206, -31.440837286806953, 6.117672229544013, 8.17156908253963, 9.36557893951661, -7.45395241802944, 6.1907614740907375], [-30.151776721753485, 5.281203940346931, 22.225598485284536, -7.0880049698309, 17.56368685641664, 12.155375751015542, -19.705670110353985, 5.369721720329839], [4.296843637402632, 59.739568845638736, 20.248766454691726, -37.416514753516964, -0.8835975283706737, 5.644985057481906, -36.20754460228593, -1.4069863077829048], [-22.632181093247507, -12.079475045150657, -2.1137038147091056, 9.866407749165917, -26.129936188095616, -17.088916927123474, -36.73137625033285, 3.0018322266487623], [9.950685677496015, 2.4218411327095657, -14.146520116611862, -5.695105014878748, -14.574543882236206, 1.7658370042170426, 49.473646781964895, 29.309326099578193], [-17.107377897904364, 21.112405449674547, 18.479308291035004, -24.177391082278252, -1.6056616710218958, 3.8712563187657465, 18.50032343135158, -15.020653995611987], [-24.65524778959651, -17.064003664082204, 10.771400131204874, -14.423470911706994, 1.559813519282037, 3.6023250377212337, -14.567925640253907, 14.273001227747642]], [[-14.294781728805857, -32.16378579428191, 21.15929000408108, 11.843902850535535, 29.561004692210048, 0.9467192218994117, -5.550867909345004, -23.24186638409681, 32.48041033476743, -1.9406868501325114], [-18.355507080845644, 1.7262449474802486, 13.855507022130807, 5.964290551347007, -21.19181153029393, 29.228213162287943, -12.534858671943104, -10.496876720479484, 14.069245327448774, 3.3364373634300777], [16.200643424154254, -7.030410858317545, -7.214723809281614, -1.5056975018351477, -5.743891626435792, -13.970037440805767, 5.151350306146931, 30.05699976969197, 22.208568410884272, -0.8712008169324666], [10.824565986491745, 38.76494391271284, -24.57689020324951, -6.600625654980361, 17.245226086875572, 20.225107672904347, -5.71822564483291, 3.8754418903460723, -28.124418202908956, 5.53384450295692], [31.06061396591699, -3.4095324005048018, -0.8455837330134748, -7.474693809646828, 22.159697596691224, 26.879917452847327, -6.945550938237222, 8.450600521281492, 6.150875451484678, -22.791943296087695], [12.387292269084515, 6.493841529903006, 8.077111077544227, 10.823458421165565, -11.093227890002172, -17.8277818145485, 23.56572487584852, -20.551663529709646, -9.27203605476343, -16.883230154613464], [32.553777184755404, -6.739064050971996, 4.111374778694858, 4.626191171592557, 14.93387979176153, 4.400839156585213, -12.763403337662314, 8.011143458836038, -10.472085091219933, 3.3981467008206714], [15.342394014717206, -20.297294681141608, -14.160502178142497, 15.091744938188992, -19.33070715143918, 18.145135699520356, 8.338491633673671, 20.293842322308674, -16.04256482454974, -10.083948042769254], [25.527970735411863, 6.153418404290729, -13.325934683499172, 15.214565715228975, 0.29093227794746007, 15.017159949060488, -20.574745774653085, -48.68698399406933, -3.6665254985985243, 3.9078755585337133], [13.087571855955, 8.395442856294387, 41.28705357385513, 5.673159824002219, 39.09400625041, 1.5707399484417484, -21.100868754529554, 21.26421683676051, -21.411155705380807, 25.80334873728563]], [[23.10777594710761, 27.334662818903183, -2.951183969455674, 26.955216102382632, -8.091378141744235, -5.657622514233902, -0.796101253756473, -4.169262481125074, 4.638389585537338, -0.8141716507721247], [26.810308101267672, -18.234173403557826, -5.411562050235294, 14.793278724812344, 2.3575857816567325, 9.96631931998339, 36.40030910354819, -1.664150163139753, 39.1390675388257, 33.76524562249138]]], "bias": [[[8.627796693835776], [18.974592828653794], [0.12641871455060483], [-20.273928110036156], [-26.230839309382723], [-9.058023274482526], [-13.613693248684388], [7.716613167897072], [-5.043397621631683], [-23.00426486539598]], [[-21.284314556974312], [3.170388398492297], [14.1770084436552], [45.63552945960282], [40.847446254313056], [17.858519141924553], [10.955974200647754], 