{"generation": 5000, "best": {"weights": [[[-45.274884171217586, -62.73540945003524, 84.63225546164686, 65.07846477636834, -5.523679907892964, -21.490443451314864, -38.22476842890242, 50.230158017231304], [-22.625395786800105, 18.694864626190594, 22.416660043748546, 13.968478568560702, -101.8957317993047, -90.71257632647873, 30.53545910225286, -28.289430483846846], [8.601308261587246, 80.21959863491814, -16.005964038489427, -80.58479929177655, -4.4319083509169355, -36.776609868362975, -3.1115024500415625, -53.039349440450025], [-31.47435944448702, 53.670679120767176, -119.48364316057175, 33.776116775590886, 43.94817172703007, 12.688706191436738, -25.734030779678665, 45.364170050278645], [-126.61282231148247, 62.18879082255737, 61.00491015903225, -21.72037540425427, 8.310525802941449, 0.028050208860788878, -26.884589728667333, -14.178171588421081], [-13.35742827310956, 53.70014829141713, 22.392951451329505, -42.34509542612616, 27.561369189290634, 4.107404530235003, -75.73091731784098, 20.689782024048064], [2.311092300274966, -14.10498160148844, -26.734869223388777, 0.6187079927830021, -84.04475377991425, -32.41276896233202, 11.277198433370677, 27.43739310754705], [6.6761221832181095, -19.765270383308387, -6.6904524353934, 19.066697736710818, -2.616466509751391, 5.092812634639874, 106.86834764484618, 10.964154991021688], [-22.76570492504585, 78.4623332393004, 22.189832298422377, -85.83478076631606, -4.05456503088887, 4.4078684247853905, 82.64771954542667, -48.86106244799435], [-50.32157420070522, -64.99456851313873, 21.985279674382898, 13.98501984556803, -2.1318279768766932, 0.030962907692133945, -41.52159194802987, -7.490811708534954]], [[37.82237844730959, -54.790298447161895, -71.52283873706432, -5.714791814827485, 57.92554554805445, 16.91188249635909, 14.884292590409006, -59.17494349022416, 63.7823108827093, 7.5544908991294575], [-39.57284456577317, 19.27243303068245, 56.8831622119741, 14.467540713523071, -9.5722399630565, 21.49416932077828, -20.51182418741716, 3.9839485679733686, 40.91168816888264, -59.82559250995555], [-50.921500843510834, -12.324841174883032, 32.92789530505344, 0.513934746326623, -2.2528575861497244, 5.573791954294654, 41.089025171174654, -3.524234490418784, 101.81251741231337, -21.52503456249358], [9.761684124360354, 50.861228128073684, 19.385157938304722, 1.741505302125392, 61.25396568552936, -0.3205446947590379, -21.3114324529895, -3.0946653270154902, -19.658284030686463, -13.861882586111596], [11.82298372660763, -42.899894347184826, -23.644941535845756, 2.1496772702076394, 85.8085858273784, 39.03903741557248, 36.6500369930815, 94.25890239716651, -37.923747545257534, -74.17042062791755], [10.809476187943343, -24.157500374561813, 16.55083143853819, 50.50298309432955, -5.376013313524767, 4.129052519013159, 122.20138628309041, -14.385466833459839, -47.57791668514822, -25.85107002394393], [92.57214404896344, -38.5227022557047, 25.603829363254476, 22.113704298025056, 46.18518791685238, 19.308402171834402, 13.981786093865148, -41.19035040464617, 20.929640470875064, -23.79196555189957], [20.702048421006406, -28.504634146510156, 129.21434213174706, 56.523363192035454, 10.316827357956239, 83.17110442245038, -1.934630076272869, 54.41317299152136, -59.64904094108402, 10.73607615916695], [97.01719896594638, -27.353796573855217, -27.19803180076865, 2.4644462048488935, 36.78338707329788, 46.18079195529106, -38.78054091038061, -67.13663242752676, 5.465710014441752, 11.681858926888376], [41.428384182936455, 30.931125141126824, -71.85897626356449, 39.23382051578268, 105.31400976412951, 32.612984768218304, -10.183436207365267, 75.21109723487784, 31.878943636543188, 32.924880594903016]], [[31.085473760654946, 113.6115293393734, 44.933326659638304, 67.98093663247994, 0.4823329800997962, -2.463574148981176, 16.455430639490622, -22.642590036194232, -20.51859066201764, -31.213969748746436], [69.41633146843031, -18.61881224544226, -6.011547181222677, 12.559199123856533, -21.92702648023978, -12.540838961109262, 73.31278039578456, -17.315776823448925, 85.12450077879903, 8.570879615936326]]], "bias": [[[5.215577861609278], [-18.72964993643795], [-39.176114379802435], [-4.77569725950172], [10.711091348020027], [35.79299678825007], [-16.922821222402334], [105.15715286309872], [-26.384147580840335], [4.626288935985881]], [[-39.51040680042964], [-15.565885972841734], [-17.070954072450284], [15.387263101629108], [-23.051404211638857], [-25.67174589132614], [-7.862431637577416], [22.701280930365794], [-7.5910967530666085], [18.984980540890753]], [[-34.90879815070402], [-89.93303935540126]]]}, "all": [{"weights": [[[-45.274884171217586, -62.73540945003524, 84.63225546164686, 65.07846477636834, -5.523679907892964, -21.490443451314864, -38.22476842890242, 50.230158017231304], [-22.625395786800105, 18.694864626190594, 22.416660043748546, 13.968478568560702, -101.8957317993047, -90.71257632647873, 30.53545910225286, -28.289430483846846], [8.601308261587246, 80.21959863491814, -16.005964038489427, -80.58479929177655, -4.4319083509169355, -36.776609868362975, -3.1115024500415625, -53.039349440450025], [-31.47435944448702, 53.670679120767176, -119.48364316057175, 33.776116775590886, 43.94817172703007, 12.688706191436738, -25.734030779678665, 45.364170050278645], [-126.61282231148247, 62.18879082255737, 61.00491015903225, -21.72037540425427, 8.310525802941449, 0.028050208860788878, -26.884589728667333, -14.178171588421081], [-13.35742827310956, 53.70014829141713, 22.392951451329505, -42.34509542612616, 27.561369189290634, 4.107404530235003, -75.73091731784098, 20.689782024048064], [2.311092300274966, -14.10498160148844, -26.734869223388777, 0.6187079927830021, -84.04475377991425, -32.41276896233202, 11.277198433370677, 27.43739310754705], [6.6761221832181095, -19.765270383308387, -6.6904524353934, 19.066697736710818, -2.616466509751391, 5.092812634639874, 106.86834764484618, 10.964154991021688], [-22.76570492504585, 78.4623332393004, 22.189832298422377, -85.83478076631606, -4.05456503088887, 4.4078684247853905, 82.64771954542667, -48.86106244799435], [-50.32157420070522, -64.99456851313873, 21.985279674382898, 13.98501984556803, -2.1318279768766932, 0.030962907692133945, -41.52159194802987, -7.490811708534954]], [[37.82237844730959, -54.790298447161895, -71.52283873706432, -5.714791814827485, 57.92554554805445, 16.91188249635909, 14.884292590409006, -59.17494349022416, 63.7823108827093, 7.5544908991294575], [-39.57284456577317, 19.27243303068245, 56.8831622119741, 14.467540713523071, -9.5722399630565, 21.49416932077828, -20.51182418741716, 3.9839485679733686, 40.91168816888264, -59.82559250995555], [-50.921500843510834, -12.324841174883032, 32.92789530505344, 0.513934746326623, -2.2528575861497244, 5.573791954294654, 41.089025171174654, -3.524234490418784, 101.81251741231337, -21.52503456249358], [9.761684124360354, 50.861228128073684, 19.385157938304722, 1.741505302125392, 61.25396568552936, -0.3205446947590379, -21.3114324529895, -3.0946653270154902, -19.658284030686463, -13.861882586111596], [11.82298372660763, -42.899894347184826, -23.644941535845756, 2.1496772702076394, 85.8085858273784, 39.03903741557248, 36.6500369930815, 94.25890239716651, -37.923747545257534, -74.17042062791755], [10.809476187943343, -24.157500374561813, 16.55083143853819, 50.50298309432955, -5.376013313524767, 4.129052519013159, 122.20138628309041, -14.385466833459839, -47.57791668514822, -25.85107002394393], [92.57214404896344, -38.5227022557047, 25.603829363254476, 22.113704298025056, 46.18518791685238, 19.308402171834402, 13.981786093865148, -41.19035040464617, 20.929640470875064, -23.79196555189957], [20.702048421006406, -28.504634146510156, 129.21434213174706, 56.523363192035454, 10.316827357956239, 83.17110442245038, -1.934630076272869, 54.41317299152136, -59.64904094108402, 10.73607615916695], [97.01719896594638, -27.353796573855217, -27.19803180076865, 2.4644462048488935, 36.78338707329788, 46.18079195529106, -38.78054091038061, -67.13663242752676, 5.465710014441752, 11.681858926888376], [41.428384182936455, 30.931125141126824, -71.85897626356449, 39.23382051578268, 105.31400976412951, 32.612984768218304, -10.183436207365267, 75.21109723487784, 31.878943636543188, 32.924880594903016]], [[31.085473760654946, 113.6115293393734, 44.933326659638304, 67.98093663247994, 0.4823329800997962, -2.463574148981176, 16.455430639490622, -22.642590036194232, -20.51859066201764, -31.213969748746436], [69.41633146843031, -18.61881224544226, -6.011547181222677, 12.559199123856533, -21.92702648023978, -12.540838961109262, 73.31278039578456, -17.315776823448925, 85.12450077879903, 8.570879615936326]]], "bias": [[[5.215577861609278], [-18.72964993643795], [-39.176114379802435], [-4.77569725950172], [10.711091348020027], [35.79299678825007], [-16.922821222402334], [105.15715286309872], [-26.384147580840335], [4.626288935985881]], [[-39.51040680042964], [-15.565885972841734], [-17.070954072450284], [15.387263101629108], [-23.051404211638857], [-25.67174589132614], [-7.862431637577416], [22.701280930365794], [-7.5910967530666085], [18.984980540890753]], [[-34.90879815070402], [-89.93303935540126]]]}, {"weights": [[[-50.068141593203244, -67.68826507991693, 81.39978707779512, 73.00260535139086, -4.316273395657054, -16.353930929596192, -50.82620954794968, 40.87099889748058], [-22.263005062469134, 16.682142002602674, 22.83987577784313, 5.536451703081201, -102.70195582166959, -89.90181625588329, 25.1815005108972, -32.983810723704686], [10.411875015010601, 86.08299041447366, -18.67173535742684, -85.55613220192507, -4.731578259050435, -26.43930305904677, -0.30364416377423953, -54.08962217914104], [-30.01719421588604, 52.165792929592676, -114.87599498674733, 22.146847096750815, 40.334047415993446, 13.916096397661862, -18.955716826454136, 47.82762622728294], [-120.9503628251478, 53.89792208256082, 66.3497693522618, -18.076808894592652, 6.26434841345333, -1.5947203234480463, -29.18031185876963, -23.530408596596633], [-10.090909249075434, 49.01421269921592, 20.9731654315613, -41.040058704630404, 26.210158989786958, 2.646699716351917, -79.92333454183118, 21.995066315392243], [1.5242397679202808, -15.25523307831684, -24.443558550123317, -2.334292220739849, -80.73163398583938, -34.97432308643695, 8.037736444187468, 26.945793094690938], [7.570508524232841, -16.470915394950435, -8.5476524611808, 20.81770466048185, -3.042008610939077, 5.444300417354776, 109.64246956668521, 10.66836401768258], [-20.161960765498055, 81.39362861989922, 24.182006452333226, -76.31835633996153, -3.898702133492191, 5.838667893710586, 78.02587976877915, -50.792826062247165], [-55.363120166012266, -72.36129314350553, 21.479087884251765, 21.93160476837153, 1.0298380782058931, -0.2372590392629344, -30.730059668876443, -7.344457257975112]], [[39.965561112389466, -56.07388984232098, -73.81635491886446, 1.0056057619716912, 50.429821765697305, 15.104175603281242, 19.40214105940926, -61.49045065676687, 58.023718744324846, 3.1258602636218513], [-40.78375162469224, 16.346986627274365, 64.73826255871458, 12.733177832957896, -10.565744742004346, 22.705628831381166, -17.095477445608914, 3.0089507592296165, 38.581620343133196, -56.91227518147607], [-49.04634557963746, -12.357344366410365, 28.123505616842742, 2.3564379971374363, -5.210234320343818, 6.23671440472775, 38.110509328809925, -3.485682595801129, 103.87242170648713, -24.420884383841614], [19.343849382495684, 55.05011907594676, 27.509160336539452, 2.3748011497535804, 58.02201187280647, 1.3963333652133547, -27.32451056175392, -0.6004072943277423, -16.79774709099823, -8.686123553748152], [17.23432570404417, -44.13292987478166, -25.76516068401041, -2.064699278921663, 87.2599108869714, 35.36652783607746, 31.038100716771357, 93.53378761086393, -48.94288274037625, -65.41428265413528], [5.446060795184369, -31.454934767093746, 20.58323787996374, 53.7262482294614, -1.3657305126791572, -1.293641301176447, 120.82644118308745, -13.768419359342307, -45.82579189004773, -25.67751733057619], [97.2927060755575, -37.06357460776421, 33.435321493400416, 21.645241970417022, 46.831470236225876, 19.65854136526648, 16.827721213388607, -42.20737585568045, 18.720370398179586, -23.187771435985418], [23.463532421277495, -34.844109282102025, 121.59134260192026, 49.51212936404398, -0.17647184063248655, 86.20374781218071, -2.912588931477579, 39.82298753443125, -65.44272230501004, 18.044394996023367], [93.79027346018493, -25.15490133569721, -27.1107987957237, 0.19929030908842105, 36.8055392450293, 46.89766445691143, -36.267640065544256, -61.57039900454412, 7.339651415893203, 10.004513620353533], [35.69021506934723, 35.51615386735014, -58.92372732687504, 40.53732125949589, 113.7486783575172, 31.066355281716493, -9.94549189942785, 68.03298053849969, 29.760915246353157, 33.46180928687966]], [[15.595593651143423, 104.95294589701204, 39.45854859244073, 57.759967116058974, -6.778567763587559, 2.180824036023527, 10.091785508709641, -22.880719778388368, -26.424381940475783, -12.664511464718991], [75.47503288218898, -11.799492274254781, -12.650323995181058, 18.918811837875428, -20.067324282899232, -14.469996945617975, 70.0900661597016, -15.077776622842922, 83.44893096338508, 8.710883811113472]]], "bias": [[[16.8088454922839], [-24.51973943106816], [-42.00399900686238], [-3.8500452777245124], [11.582600702703012], [28.451399373775274], [-15.832539087597887], [103.2992670703721], [-26.38960395085465], [4.7636998506149055]], [[-34.15431668367959], [-7.4242644425476], [-17.32961493219708], [9.009137175679626], [-26.35078457863307], [40.47200831799136], [-8.958605368996992], [28.626586014744277], [-9.319744802234137], [14.158229447505455]], [[-34.907511785946056], [-88.22587374955663]]]}, {"weights": [[[-45.90487498026501, -62.73540945003524, 84.63225546164686, 65.84877554967875, -5.523679907892964, -21.490443451314864, -37.0881737438836, 50.230158017231304], [-23.178800752669403, 18.694864626190594, 20.71914379498301, 13.968478568560702, -101.8957317993047, -90.71257632647873, 30.53545910225286, -29.323734390374092], [7.2377738860603955, 80.21959863491814, -16.005964038489427, -80.29497000804116, -3.227180642833499, -37.2587882695382, -3.0361317308933904, -53.039349440450025], [-29.71626369119389, 53.670679120767176, -119.48364316057175, 34.90902396156488, 44.57518363526066, 12.688706191436738, -25.734030779678665, 44.48193010835038], [-126.61282231148247, 62.18879082255737, 62.359567363414676, -22.605590296660377, 6.313210128101479, 0.028050208860788878, -27.183396379663076, -16.05205185056703], [-13.35742827310956, 53.53067116442825, 22.392951451329505, -43.964572803813766, 27.561369189290634, 4.290341857927761, -78.42888234036933, 20.689782024048064], [2.990011566075744, -14.10498160148844, -26.734869223388777, 0.6187079927830021, -83.63489765129032, -32.41276896233202, 11.378590287822314, 27.353546942883415], [6.6761221832181095, -19.765270383308387, -7.352763885916004, 18.747308978860445, -2.8305487073672237, 5.092812634639874, 106.86834764484618, 12.616161872551634], [-22.76570492504585, 78.4623332393004, 20.296534964979404, -86.2858565711413, -3.9327798780903485, 4.4078684247853905, 82.64771954542667, -48.86106244799435], [-51.75928994019413, -65.89886864005616, 21.985279674382898, 13.98501984556803, -2.1318279768766932, 0.030962907692133945, -41.880075781122734, -8.133703669000852]], [[37.82237844730959, -55.482187210568654, -71.52283873706432, -6.962437565406429, 56.790787408639964, 16.91188249635909, 14.884292590409006, -59.66690867082781, 63.7823108827093, 6.8631269760681475], [-39.57284456577317, 19.27243303068245, 56.52395326972852, 14.467540713523071, -9.5722399630565, 21.459256193613523, -20.51182418741716, 3.9839485679733686, 41.931032041814724, -58.6456238893756], [-51.26946715485783, -11.770457039067159, 31.786591916454128, 0.38049527900091873, -2.2528575861497244, 5.573791954294654, 41.089025171174654, -2.6913970433959578, 101.68079423609822, -21.52503456249358], [9.612277224224538, 50.861228128073684, 19.385157938304722, 1.741505302125392, 61.25396568552936, -1.0419185108520197, -20.250959291747346, -3.0946653270154902, -19.658284030686463, -13.112087589867448], [11.82298372660763, -42.899894347184826, -23.644941535845756, 2.1496772702076394, 86.36698553880765, 37.733149786656455, 36.6500369930815, 94.25890239716651, -38.48633380452926, -74.59369272481744], [9.759311080144892, -24.157500374561813, 16.55083143853819, 50.50298309432955, -6.808884448066497, 2.4157513871775507, 122.20138628309041, -14.385466833459839, -47.57791668514822, -25.85107002394393], [92.57214404896344, -38.5227022557047, 25.603829363254476, 22.113704298025056, 46.18518791685238, 19.308402171834402, 13.981786093865148, -41.19035040464617, 20.754964987730432, -23.284657254557338], [21.470285491949177, -28.504634146510156, 130.29051806424118, 56.523363192035454, 10.316827357956239, 84.84667537110293, -2.1699486478717493, 54.68497446623105, -58.62862318364463, 10.73607615916695], [97.01719896594638, -27.353796573855217, -28.18812004127759, 2.4644462048488935, 36.78338707329788, 46.47502737708609, -38.234137706863145, -67.13663242752676, 4.610168365450493, 11.681858926888376], [42.48705440434969, 30.931125141126824, -71.74198308010102, 39.23382051578268, 105.31400976412951, 32.612984768218304, -10.183436207365267, 75.21109723487784, 31.878943636543188, 32.924880594903016]], [[31.085473760654946, 113.6115293393734, 46.7141313870262, 66.73269962787491, 1.6339036712532244, -2.463574148981176, 16.455430639490622, -23.030481552048325, -20.654371756507867, -32.39576457693861], [70.35614528850256, -18.47209881588452, -5.466149392719027, 12.559199123856533, -21.55919765188736, -12.540838961109262, 72.12507576713429, -17.315776823448925, 86.51054639097417, 10.178163814829546]]], "bias": [[[6.03128954862098], [-18.72964993643795], [-41.262405307114484], [-5.659852635163756], [11.220961214669591], [35.79299678825007], [-16.62073412165857], [105.15715286309872], [-26.384147580840335], [3.91552565295419]], [[-39.51040680042964], [-15.565885972841734], [-18.108120971901418], [15.66029605838647], [-23.051404211638857], [-27.108694047585686], [-6.740412064017755], [22.701280930365794], [-7.5910967530666085], [17.485939315762135]], [[-34.99626219286277], [-90.57299505851098]]]}, {"weights": [[[-49.93530025340275, -64.18563228939061, 81.82697105281328, 72.9545494132861, 1.9045832010383552, -25.418257004055047, -47.66596074155816, 56.19487045874352], [-18.89779980003306, 15.877880470615178, 20.08794873513359, 14.00845324548199, -102.6897147534399, -92.89281755159914, 30.545031168112295, -27.631309126252855], [13.10780743864969, 74.61199340057226, -19.931813359485556, -88.28329780953129, -4.142743584346445, -25.721767739864173, -0.29342938417318515, -53.25950907921511], [-31.2349057683654, 51.65541671234952, -120.16640658616733, 28.660578007041686, 39.65066135206625, 13.93606648275082, -21.719975983487576, 47.90792249378826], [-124.54976620041131, 53.3058088864216, 66.70866800286535, -19.4674634529447, 6.378590921899344, -0.3260033682179567, -30.276628501819236, -22.152794946040675], [-12.271959202387157, 53.252137225558336, 23.287647829122044, -45.44048829064583, 24.96477081404227, 4.156565496583465, -81.59783973909965, 20.751746879079253], [0.0665355351672185, -16.531733159343936, -21.818161735180663, 6.868955266855819, -81.04723902958496, -42.12618175153355, 15.479268596520171, 33.454640949606635], [4.878769821447908, -15.736633385536662, -5.952604754266881, 21.070047094979877, -4.411396760268771, 6.333776845423556, 110.79287415464559, 10.27741960242625], [-17.740954784448682, 82.99388614093758, 23.923991855417626, -75.85235172370905, -3.366600090158264, 4.7851252965869016, 78.53741086980054, -51.64928431677213], [-53.588718355485554, -73.80340458698187, 22.275201448550142, 19.91897625005962, 2.502675401921509, -0.19561738353129599, -32.385537563738794, -6.1476285024402655]], [[39.52722237405263, -56.4275544490416, -73.25334300774668, -7.423657039494821, 50.36817129977869, 7.36931021997709, 19.74212166404525, -73.75567781048561, 58.90471485386783, 4.174383423161081], [-42.58149042564134, 13.740988287171081, 58.7089908263027, 13.649442289689205, -11.584649575978016, 22.09690554880446, -18.17554994050582, 3.631498726336267, 38.1484194351968, -53.72097079910769], [-50.96537142407325, -12.41104790428495, 27.986609652230996, -1.0982741534633802, -5.6584490135133345, 2.070919488852979, 32.98863536312229, -8.192893760089477, 101.74315789136185, -22.724398401104917], [9.995861312681178, 53.00953295150773, 18.089210475858973, 4.08293592918818, 59.99257881052689, 5.434827812449318, -21.640702970633424, -3.5360589927809873, -19.75810651648868, -12.379959912564084], [17.611497499941166, -37.667993392381284, -22.574964629976346, -0.44389515322824047, 92.5883143732226, 41.12494933254509, 37.66370288139037, 89.5284685713455, -44.99325149250683, -72.67315110741963], [11.530991791334207, -21.992773540408546, 19.060126131579175, 51.99889432341124, -5.879785052666002, -0.0751617899114127, 123.7773370531265, -16.178422365716457, -47.074309777657085, -17.649091861170195], [97.24053926875287, -42.23927596116806, 32.10220706964179, 20.370157256772174, 46.02097568427639, 19.199996448145694, 18.825292512317418, -44.438831743581794, 16.77604563822146, -22.811007990491774], [26.262127514682, -32.2156873444695, 127.90040481339703, 57.37340286524089, 8.981795657308336, 82.70366156676043, -7.311138423451933, 45.36752898487763, -59.99551166513649, 16.276816371341088], [97.53593853899626, -35.47159479834791, -23.27911056497306, 9.962839656518229, 31.10702187427007, 51.86575834183269, -42.80794530690545, -60.9589896986328, 1.6628544453548124, 22.308474133889796], [36.2399343714132, 34.51150224060497, -62.90839568124544, 40.65825477053747, 112.11492792187492, 30.980952601065425, -5.862495005621398, 63.36810761789197, 26.85000830193105, 34.35628061429794]], [[22.956667122829764, 101.60391185596158, 48.68682781352752, 67.272375092951, -3.1816844237324444, -6.2271106449823375, 12.183807439761377, -12.30068182102693, -20.082848302925893, -32.21172054423778], [76.5412169256628, -13.68183005688369, -11.854507877342291, 12.595749398380857, -21.634128521094194, -13.541165800776445, 69.71456010832004, -19.153656207669485, 87.42875473932736, 9.6944607924661]]], "bias": [[[9.062372736903674], [-22.970236487908938], [-36.811317606875264], [-5.812678392618978], [13.647437997172657], [28.846068935086993], [-13.273608155453669], [104.01713664835385], [-25.051374199573758], [4.609471969229922]], [[-36.56018044701567], [-9.29619620969716], [-19.99255610580979], [9.250951679482641], [-24.657952761569295], [-32.68797927667564], [-6.3683186560526845], [26.232087826381736], [-11.824358196612302], [13.511471089009197]], [[-35.60214796474176], [-86.23759236966531]]]}, {"weights": [[[-47.22122909481964, -67.29377956335985, 86.02857789776641, 71.87861870510045, -0.5228077624378484, -26.761463396124892, -43.463094876312915, 53.81898832213314], [-20.67500813070066, 17.17059959431357, 19.330570424302554, 15.676221271886558, -100.9029193972862, -91.29617490188689, 28.654454616101773, -32.48269025208217], [11.84569078690063, 74.6766729778924, -20.480843803929293, -89.61342278010211, -5.592147563760652, -29.654201138510743, 0.6423494359139333, -51.58685036130958], [-32.12894471130889, 51.01383067204796, -115.31720520146219, 24.07453731286984, 40.969288899834936, 12.505986333648192, -20.146126936747955, 49.49017498318556], [-125.79134891397459, 52.6709960518058, 66.70866800286535, -19.99571696023774, 5.871441612753267, -0.8718744793278536, -27.162172383127274, -21.498064335306772], [-13.433345351808343, 52.53752084436597, 23.287647829122044, -45.44048829064583, 25.10521852923614, 4.156565496583465, -80.27557325509297, 20.751746879079253], [-0.6842263377554199, -16.453686550644097, -21.989673156597632, 6.868955266855819, -81.04723902958496, -41.35603023612408, 15.589504035538418, 31.61044231944532], [6.644120887481883, -15.736633385536662, -6.73617688799494, 19.577357958242146, -4.207835606627264, 7.219534802544999, 109.47802724705532, 10.27741960242625], [-17.740954784448682, 82.90971762005421, 23.923991855417626, -75.69576995566337, -3.366600090158264, 7.414979857409201, 78.61093653049495, -51.01228459401981], [-53.588718355485554, -72.87062739035181, 21.006412745524997, 20.0524292641514, 2.0494777140241434, -0.19561738353129599, -33.02966322562827, -6.1476285024402655]], [[35.49218869852248, -53.96659887197198, -75.44293922219993, -2.6569812845253913, 57.59622297433062, 16.762145933004344, 17.413020765559693, -62.10427900943043, 59.06723262315133, 5.102126740842259], [-35.97705398268474, -1.2633868338608956, 59.10753602151543, 10.303884142220758, -14.481070351815841, 19.719470278450576, -20.36168375774844, 4.839930518120868, 43.82209807733263, -53.79238962949839], [-53.74499743110046, -10.016843783576753, 29.000254630331728, -1.3461100016840257, -5.314820879309166, 2.634577146572433, 40.78320088064962, 0.7372339448443889, 102.77929267876314, -19.725095812166202], [3.6688929571213555, 54.724244370857136, 19.372662013953306, -1.9945741164870507, 57.74582243293381, -0.7435304611565603, -23.915268211069634, -6.799837876504848, -20.060923317908745, -12.901727075187196], [23.164370298099474, -46.381038561421875, -22.74319858460252, -0.8178848992343408, 71.752479292886, 45.23635457030333, 30.016103838538413, 102.80448234584973, -40.343095683136845, -75.6939793095982], [14.495207278482297, -24.01067635403173, 21.87237557850648, 51.99889432341124, -7.5011694303153655, -0.9298664766126006, 124.45821752554069, -14.883589062239993, -47.541002467076716, -20.347860007572315], [97.31193739688423, -43.09058907451131, 30.987859534703997, 21.37686594770796, 45.13059716297669, 18.585012449796388, 18.47740011882442, -44.438831743581794, 18.28203364673741, -21.991524823074716], [26.262127514682, -34.853821371402695, 128.12764651491838, 57.6586401501938, 8.981795657308336, 82.76697033469203, -7.311138423451933, 48.64285843883989, -59.99551166513649, 15.594034626634423], [96.77038050214026, -33.16399210502207, -24.44478852800973, 8.484381348020072, 31.10702187427007, 52.51746334767945, -44.98527994390942, -60.9589896986328, 0.7711118325618331, 20.712525297378345], [37.44134559265996, 33.84099166261348, -62.44491200378247, 40.12593898124554, 113.18806533327754, 30.980952601065425, -5.317463275341202, 63.36810761789197, 26.80450849718995, 33.14919127080593]], [[22.405402606918603, 101.25824219550756, 48.765093513739856, 65.8587486421063, -3.591383614767921, -5.841914896490225, 11.579293377276969, -12.75747914040929, -20.082848302925893, -32.21172054423778], [75.47216376909313, -13.68183005688369, -13.974427754521795, 14.01462386625487, -21.634128521094194, -13.458583520871283, 69.90789368693102, -19.153656207669485, 87.42875473932736, 7.596817668512697]]], "bias": [[[7.359012917758987], [-20.817951579779386], [-43.01941989123723], [-3.372669008319305], [10.871385679176623], [28.063554129625693], [-13.369144194065704], [104.02133000701686], [-25.051374199573758], [3.6604699395959672]], [[-38.30704333608197], [-11.072568656720556], [-22.2724243765783], [8.056605592239798], [-25.800749059864234], [-27.8901164606125], [-8.789608418430953], [31.66336121966791], [-10.85031907762518], [13.118391845042549]], [[-33.813977795553136], [-86.23759236966531]]]}, {"weights": [[[-48.757910912854825, -62.76134015154975, 89.5300347555487, 69.28377570509342, -2.8198032601297123, -21.71213417762195, -43.396467465371046, 48.79745179299969], [-20.64896765128458, 18.590381977904215, 16.12888814202899, 15.294420732060019, -100.9029193972862, -89.7367677880115, 29.48293312422904, -31.228356913029526], [6.128526732012346, 77.81543218063831, -18.587604815432787, -87.02296292560466, -7.217990079581046, -28.06431578024262, 2.2611726336905837, -51.00202822072049], [-30.40690756979978, 51.31862842422209, -117.24178316066534, 36.36894690553601, 38.70679724611358, 15.952261940422103, -25.15068005577667, 50.023009780388215], [-124.8182860203592, 61.24463590079344, 61.939728285232356, -25.014106319858605, 4.697693253769472, 0.3805149603524867, -26.969519332655597, -16.022517834370944], [-12.191282422947147, 51.463321584454526, 23.740280592183513, -45.985321111465005, 25.10521852923614, 2.7566385842674883, -80.76011047041166, 21.11290848115049], [4.140321126424136, -15.18317781016051, -26.100347815082905, 0.6905190024383143, -81.67302758885539, -33.672252735648456, 12.891660134600542, 25.624379741165466], [5.627381221926816, -19.48631740783455, -6.39387350589681, 19.377629659338265, -3.3994981750215545, 6.254690408403028, 105.61749598567053, 12.616161872551634], [-23.372972720699565, 82.03017472049324, 21.887971304324545, -85.35522629683985, -3.362633580041993, 4.4078684247853905, 82.93562166184816, -47.67094081550023], [-53.81544864974971, -66.74432171884402, 20.987996055512475, 15.542417689742763, -1.8633282665085784, 0.5203811419341142, -40.36203781572798, -7.051812059038622]], [[37.16455270598059, -55.526383456235, -71.05757700241298, -5.176443215230776, 57.500489471191464, 12.657764082609809, 13.386012176981517, -58.033563314052785, 63.86453763379448, 4.436650434467017], [-43.28834712174081, 13.621258037573286, 59.61589900311726, 16.068454348072674, -10.88799116064699, 23.3681875142257, -20.758821739377055, 3.893278602329272, 45.068066598951035, -58.94223751220727], [-49.22128712849266, -9.065710092529411, 30.152906672483994, 1.419450559230693, -7.355770150876051, 4.791150971829927, 37.52769752218594, -3.820811306215406, 102.87824470449789, -24.00161302323638], [16.31405197126777, 55.19265338095104, 27.916864926528334, 3.7065411618541453, 58.44277677245651, 1.4646731711863015, -28.02139925717305, 4.498157740121266, -15.878478239682718, -7.351381319029777], [18.770567437363482, -41.65789143319129, -24.438253957113734, -1.657520893143511, 84.41368211354589, 36.612861382945766, 33.80430209848738, 95.63514851668846, -39.907357505565365, -77.02019004012729], [14.081574039938687, -21.04615528968129, 22.990167116328827, 47.80764175958926, -8.140873821465423, -1.1382603600008812, 122.08769446673861, -16.983942433852295, -46.56151033546668, -18.79307340022215], [92.84572406905149, -37.67133468067675, 30.340271660962415, 22.89005954111384, 44.93365690256754, 15.8300865046756, 17.68986975592278, -40.042310210326036, 17.610924608116388, -26.327669469138787], [24.871153810263863, -30.128827211395866, 128.42530909117218, 55.01318063917736, 12.98907421001111, 84.20315850322109, -0.6988268309626287, 52.121140871655335, -56.84786298234005, 11.242207716050782], [96.81261353274586, -26.75272543524754, -26.194760045255244, 0.6257601807111174, 35.505513419203346, 49.71428087883481, -39.08518558966117, -66.636651451042, 6.585844468426322, 9.669562667260044], [39.64872269006636, 31.371813079526582, -71.89809393308902, 37.80757521721835, 105.71536885245398, 30.068828249034254, -10.183436207365267, 75.5446878122383, 34.54249715138467, 32.35922596932167]], [[23.285822100024106, 108.95533759642642, 50.895566673283014, 68.6985514619323, -5.933793107562569, -8.400443491185007, 12.105797197902774, -15.905594908184767, -27.30708346173633, -27.048147803490902], [68.82606005963126, -19.25695079310877, -9.337941708483742, 10.751378028633066, -17.48331819661815, -13.19394558068268, 73.90320259705642, -18.4050958338964, 87.06112372205712, 10.040450091286951]]], "bias": [[[13.196698663060141], [-16.69906109616899], [-36.64014042008142], [-9.217598547264426], [12.375362032302977], [29.117453514999344], [-14.044671519494928], [105.7853827442161], [-23.463188372824693], [3.91552565295419]], [[-41.453272044849605], [-13.212101191563985], [-17.43192674718999], [16.360168624439495], [-21.729619668469013], [-24.12139301943166], [-6.953207726714451], [19.804834141028536], [-9.44214515038084], [16.71665535975685]], [[-36.10073682220883], [-91.03548491939033]]]}, {"weights": [[[-48.655768539189104, -61.69841080509211, 83.8269847880876, 69.34162484881442, -5.127097381035126, -19.222305201248076, -45.902802976720395, 50.64774557991413], [-17.38017765127478, 19.071717791106884, 26.68420200752969, 7.888854188705959, -105.74833071121313, -94.03430298132915, 27.399669068790534, -23.52948007070048], [9.9141760650412, 76.33446820445337, -17.707683073678538, -84.59046491272161, -5.030316321031665, -37.36102166236271, -1.6986277298040462, -50.322378934609894], [-30.594142508675514, 50.74435692342074, -117.32998140912304, 33.88829704162698, 38.70679724611358, 15.374618767705503, -24.33044972521778, 50.023009780388215], [-127.3474588954642, 62.60145729241432, 62.10327877686231, -25.6340642253067, 4.697693253769472, 0.014620046798833108, -27.669709770566136, -15.2226317617749], [-12.942200598434676, 50.67444829522032, 23.740280592183513, -45.94918837693769, 25.10521852923614, 1.5576445336797904, -80.76011047041166, 19.913076762592997], [2.990011566075744, -14.736151746155743, -26.100347815082905, 0.02755496672394786, -81.67302758885539, -36.76983362992292, 11.61054530866813, 26.64947822457789], [6.651362945794487, -18.394079503660596, -7.487438475077992, 19.15504039165259, -3.3994981750215545, 8.040482270254422, 105.73489931874268, 12.616161872551634], [-23.372972720699565, 79.76521400511834, 21.509367303972905, -86.02207963520678, -3.362633580041993, 4.4078684247853905, 83.11471420306081, -46.926547622497345], [-53.81544864974971, -63.489776464846955, 21.723111928177627, 13.243171193618062, -1.8633282665085784, 0.5203811419341142, -39.81832951171265, -7.051812059038622]], [[37.20728672882366, -59.41961646917658, -71.05757700241298, -6.844083979164873, 57.25601077199951, 14.51629446860742, 14.099674852954411, -57.849937753862584, 61.004274357113545, 4.822258509430126], [-43.44623425374321, 13.83163300911016, 60.733824397902964, 14.99037481351144, -9.423092846687268, 23.608532641026958, -20.379584402981134, 4.684883306844114, 45.18758904726255, -57.74384457614513], [-48.85606210196348, -9.065710092529411, 30.77405169639075, -0.15453880195052605, -8.062524897448437, 4.7627357665180865, 36.284287230672525, -5.135048541460831, 101.07340174846874, -22.837543122392532], [4.558876832620014, 66.01449280416652, 15.153731174996782, 3.237345751856073, 52.40821746481508, 5.021257298084959, -29.1092472448085, 1.7510496807680842, -13.894074984492875, -12.675321537334424], [17.820951318971662, -37.5956905018583, -24.58435268165183, -0.592497970211838, 86.88117107428202, 34.239780403553645, 30.55968693941529, 94.18319459386683, -48.8673155152975, -64.64303476510239], [9.412335577326738, -23.736884526566687, 16.351038946149743, 51.30771207624978, -7.225902218571573, 3.535478965219907, 124.34601248191652, -16.316830246375282, -48.406720422379294, -27.12416490951348], [92.48997644393269, -36.94712333689078, 23.79589453010879, 22.307104748214574, 45.84584335157332, 19.367707771973937, 15.518862579504297, -41.19035040464617, 21.22462517290194, -27.631923127594362], [22.20566171455836, -27.26627270243747, 129.3232209247044, 56.417184106469556, 10.187138696987027, 85.65697740851306, -3.0887632547861466, 56.11569403200228, -56.650545722960416, 10.030551399992998], [97.47673898259026, -25.52406677256654, -27.25333745435581, 0.6257601807111174, 36.50711678089035, 49.95728116782075, -38.58297253873881, -66.636651451042, 5.782017406987657, 10.84883002342478], [40.817296133563495, 31.371813079526582, -71.35244818057228, 38.6624692856563, 104.95304921844476, 31.822006224230602, -11.097602409056268, 74.60944192109926, 33.76163566213779, 32.35922596932167]], [[26.739910812221144, 103.78225974086206, 52.682743575352276, 68.75150549434287, -6.965469766435592, -6.466753535282127, 13.205291317083296, -12.497125318643388, -23.904248449284438, -33.28429323306932], [70.1500673527024, -19.717883290630997, -8.201625667289552, 8.946905672310315, -18.4065398583437, -13.073608821760928, 73.90320259705642, -17.8895785888053, 86.88165847115866, 10.040450091286951]]], "bias": [[[13.016261923679279], [-16.738136718462332], [-35.19520285831367], [-9.566462540234863], [12.954813713807305], [30.749440937176626], [-15.543248005031984], [104.8700928418842], [-22.820056777212546], [3.91552565295419]], [[-41.975018082660775], [-12.625544091792063], [-15.545535886768848], [14.663708566322054], [-35.03452360449682], [33.68719052944814], [-11.80238312316503], [23.538536164998405], [-12.66224734876266], [17.74932306217636]], [[-38.329627658765126], [-89.7755533313042]]]}, {"weights": [[[-49.368451223941506, -64.55228999638378, 83.64859104996066, 76.05428630803824, 0.8478550136689533, -25.688575031000962, -46.89706869043683, 54.118447757599064], [-22.490865110523416, 13.956719526289456, 21.645806310184756, 13.456747187663957, -102.48393914319226, -92.08489844384378, 29.588577650773825, -28.984588091378566], [11.924699115478122, 74.72430635598678, -20.563297750684182, -87.7129795009817, -4.142743584346445, -26.67826141776231, 0.011573381360783896, -53.027006410171815], [-30.934789438841946, 53.10062432987891, -121.15310859525464, 25.28956075864643, 39.18261060577283, 14.842162948017178, -21.577759339156465, 47.2630255486527], [-124.60874121985742, 54.05242947943269, 64.87757587552062, -20.825402651177377, 4.17364704614221, -0.8718744793278536, -26.856944656399687, -23.044860427261668], [-11.343084165160727, 52.32676809760945, 20.89740803430057, -43.964572803813766, 27.561369189290634, 2.5157552387768023, -79.73971219214195, 21.93926929174122], [3.1158524930947396, -16.623079903867588, -26.857607401535635, -1.2571951524093163, -79.9777883350504, -32.2690667715834, 11.879104710983512, 30.454231607016442], [6.1526377788085345, -16.474631283198, -6.775735341532937, 17.246968456704018, -2.897792103238831, 5.5954579934956765, 107.69661066796567, 11.996140114934812], [-26.15209631539462, 80.55152481227142, 17.238322735102358, -84.50278611555706, -0.06737042299248741, 4.298584873170058, 81.56881516892767, -55.190793306099955], [-55.074160265787064, -73.93722585968428, 23.6174716554988, 20.456130921752933, 0.6424355241594238, 0.6048807040040718, -29.866354181118314, -5.3006184598592245]], [[39.51336571555379, -54.57655453773618, -74.73763960377246, -7.637685209759352, 51.285327446550106, 7.419804119451202, 19.128335964255104, -72.75493289101703, 55.408438003956974, 0.421821794550002], [-38.63893073887836, 19.606083054484888, 56.92606685635584, 13.37556159240095, -11.440866540513625, 21.42448427824128, -22.317046628130313, 3.202598969466553, 41.61360755242541, -58.6456238893756], [-53.780965550058504, -3.8110968926657662, 28.05176823342202, -3.5001671436949846, -16.945994485737874, 2.945206511665411, 39.88055257772297, -9.980046592472185, 97.5887770389888, -11.6389753920196], [18.59979668811042, 55.61715483458351, 27.361737363552088, 3.0016796046751266, 58.975337861736655, 1.0833088660220243, -27.440247019266184, 2.3270750998221854, -15.891674582012126, -6.618616556070988], [20.22801793371417, -42.37540145513687, -26.428695045779246, -1.3531211717981475, 73.44369999595295, 41.54269271379512, 31.644566990232338, 102.26663714091305, -38.38235800898732, -75.60146999740721], [8.725860771813013, -21.64394656134747, 19.00258383366753, 49.1167330562899, -7.11242375969916, -2.039774163113645, 124.63481760179828, -12.70566417691266, -45.67555956383065, -28.459724359492196], [94.36616742808764, -40.39642805470242, 27.524193720200827, 24.28341262846035, 42.328744546007655, 17.764092400623667, 17.515625527070295, -39.54666441240544, 18.20800869697156, -25.24706577270538], [23.05506086631961, -28.918581221766026, 129.57762031170293, 56.35211710630504, 11.450835006415236, 84.15388826116464, -3.5523438368864153, 53.57671388952773, -53.07700204333021, 13.766326708808995], [96.45772937261397, -34.96656825728143, -25.144330155111927, 10.221267230565303, 30.201715397951208, 55.635111447830894, -46.330928688265146, -58.57727466052487, 1.7257855185625242, 21.687581548556444], [35.435368099353845, 31.386897543402785, -57.87198376827134, 42.17129492668742, 113.77475810233294, 30.61268745108631, -8.575006570585629, 67.02009388521164, 29.275750706966722, 35.5336764387862]], [[17.046538151243272, 116.10281322065957, 51.930904253844545, 69.9533928170155, -1.834855086038269, -1.306563195650923, 16.44337992153364, -20.45503472568768, -23.193630178371418, -33.29719347027876], [77.1109820167001, -10.427204123777917, -15.300704201896224, 19.349119247226373, -20.696687245919197, -15.186291669990274, 70.0900661597016, -15.278888701435488, 83.4347136586282, 10.618395134501297]]], "bias": [[[9.832705031713381], [-20.79403625465805], [-36.650531378506365], [-9.252049831268135], [14.32762690200989], [34.92905114765284], [-13.402716592261243], [104.05570618131031], [-26.812047187861197], [6.139363813820696]], [[-36.45690803143169], [-10.897172533329941], [-21.527310455497712], [9.96586067428765], [-25.61863167524034], [35.430213358240145], [-7.085146201146081], [25.238777348388766], [-8.067049065267957], [16.036170509556733]], [[-35.11371241418714], [-85.14045316658263]]]}, {"weights": [[[-45.90487498026501, -63.60045686589103, 84.01953030851995, 65.84877554967875, -5.562052415889008, -20.732687142710912, -37.517741456980964, 50.230158017231304], [-23.178800752669403, 18.694864626190594, 21.862534063613232, 13.968478568560702, -102.64534811328306, -90.71257632647873, 30.04375759728885, -27.69989725021361], [7.2377738860603955, 80.21959863491814, -14.737262069691804, -80.29497000804116, -3.227180642833499, -38.4071524403013, -3.0361317308933904, -53.638127696065034], [-28.583063309087045, 53.11975500989308, -121.11655029148773, 34.90902396156488, 44.587240299602136, 12.688706191436738, -26.10784743524198, 44.48193010835038], [-123.20354897300533, 53.45381719967868, 66.13441063360703, -17.52827033587763, 7.572894528608311, -3.5895326480934764, -29.167629281084956, -23.283213818855145], [-8.436965857002116, 49.48734460347122, 23.350817871576833, -39.562024131960214, 25.53740953656936, 2.225082246815525, -79.58092556105933, 22.153738796682493], [3.903616359942641, -15.510309688213496, -25.380878935950637, -1.183308272566436, -80.45605792235511, -32.578133600633315, 14.720234012083202, 28.589311089159448], [5.6845143757207035, -14.856568745479157, -5.725216531627224, 13.851367470545192, -4.776989011645194, 4.661528833874694, 111.97459669311121, 10.577359364732333], [-17.351312963718247, 81.42107088687442, 24.42596693610304, -76.58188912791945, -1.3997818083415035, 3.0460214086245765, 75.31032354793888, -49.67057487772457], [-55.466970403261456, -71.28941150169167, 21.197895448666632, 19.36054155305057, -0.7686687114319573, -0.5709317699474081, -28.373344524653337, -6.006407903145461]], [[37.82237844730959, -54.32164090986615, -71.52283873706432, -6.962437565406429, 56.790787408639964, 16.012882098101485, 14.109469286561833, -59.66690867082781, 61.90073673188787, 6.8631269760681475], [-39.57284456577317, 19.284458538382495, 56.52395326972852, 16.27779348681057, -9.150375580971618, 23.156752442029294, -20.51182418741716, 3.4272131347015686, 40.29794307077109, -57.69578367610682], [-53.74499743110046, -11.782320186139154, 26.708402348618577, -1.3461100016840257, -4.980777139915353, 2.9723606418690487, 42.09912858910335, 0.815692196850558, 102.22985617186907, -19.093356578711465], [6.116960067955338, 54.724244370857136, 18.554835069582943, -1.4406060544547838, 58.5451215707523, 0.603306583178016, -25.561675862772933, -6.798173787055168, -19.967661867325894, -13.290930295349778], [23.56348560973204, -47.05626781468598, -22.14886593444018, -0.42199859487145697, 72.53324931603483, 44.93193910222555, 27.979376143232564, 100.00827542023589, -39.69987969823638, -73.9202835933927], [10.993465332331997, -25.624075696748747, 19.200608585578202, 49.830518254834274, -12.390852508506423, -3.9335045994043925, 124.18004037348656, -11.97942716899451, -56.368940137717104, -29.175433296862497], [96.06865320148974, -37.625809647248616, 28.59440174547079, 22.75072245666929, 45.242086824449196, 20.399073283775543, 16.486285324142003, -39.22050688818565, 18.615610939729848, -25.982872459237335], [24.553672965194696, -30.71088898991366, 130.5268654536801, 55.56921689786373, 9.406660056687894, 84.23573032039226, 0.4904416433057073, 50.13814634173069, -55.72817054769948, 13.669796011966756], [96.31970083657814, -36.158483425395865, -23.658542616256018, 9.632740375109336, 32.93538002697655, 53.170907996825704, -47.32336069366593, -60.598900113537994, 0.34450378708114204, 22.309978283486142], [34.279110696535334, 31.836833668543445, -61.09098324044833, 41.699551278026725, 114.73721163230057, 33.072746607369815, -5.901864349233642, 66.93246297327622, 30.747744958641558, 36.18962193721393]], [[14.724970853630259, 104.83757285886678, 40.4672107958458, 57.38130822471705, -5.684548978130192, 3.871257315720381, 8.110658660478887, -23.808149469100165, -23.694811504870643, -15.17686594469075], [78.37652996560634, -11.927793074719354, -16.916872139220736, 18.918811837875428, -19.75047849371931, -17.90186446776883, 68.99693823961704, -13.100589575576059, 87.28670351095441, 6.483868085844553]]], "bias": [[[5.6443466060139835], [-19.148469093508638], [-41.262405307114484], [-5.659852635163756], [11.214993067125375], [28.937935055972435], [-15.941880335480842], [105.75016405126566], [-27.0171202198855], [2.75302849355118]], [[-39.51040680042964], [-15.392280874727843], [-22.292410259068227], [11.027906006559345], [-27.49366235436471], [-30.82805125563839], [-8.789608418430953], [30.03644803060358], [-11.463045818431398], [15.06680121338797]], [[-32.799291496830435], [-86.6564571853351]]]}, {"weights": [[[-46.41835463758646, -67.29377956335985, 86.02857789776641, 71.87861870510045, -0.5228077624378484, -27.07501649819906, -43.08442699065928, 53.67159732187149], [-20.67500813070066, 17.17059959431357, 19.330570424302554, 16.488379362470745, -100.9029193972862, -91.29617490188689, 28.17372364655044, -33.59147048211335], [11.84569078690063, 75.05843640403617, -20.480843803929293, -88.63496801316086, -5.020704235446412, -29.654201138510743, 0.6423494359139333, -52.805056628698075], [-30.72049270886897, 49.92307254262429, -121.60682405565541, 29.851673246452098, 40.015397418352414, 13.732265558412514, -21.911675156202207, 48.636797078055125], [-125.97496941830723, 51.34878927424837, 66.70866800286535, -18.292564797658414, 5.104345896696335, -0.5226856074573399, -25.476677590680236, -22.235483208399167], [-11.522442482432146, 52.53752084436597, 23.473957605481843, -45.44048829064583, 21.99611207738095, 4.156565496583465, -80.98296924611358, 22.934463358606017], [-0.9727958710300207, -16.453686550644097, -22.118908871940658, 8.032993515406059, -81.58742241522681, -41.896021311914694, 15.479268596520171, 31.61044231944532], [6.137848707586933, -15.736633385536662, -5.976456110363364, 19.577357958242146, -4.29837274065778, 7.219534802544999, 109.18780336817727, 10.588767364158011], [-17.779596599560982, 82.99388614093758, 22.10573033577096, -76.46636329206895, -3.8630390261874465, 6.476617856103648, 81.38583765969148, -51.86274915179472], [-53.588718355485554, -73.80340458698187, 20.19748995333496, 19.91897625005962, 2.352439760319208, -0.9470587678119078, -33.40937205921013, -6.1476285024402655]], [[35.49218869852248, -53.96659887197198, -74.80048297039401, -2.6569812845253913, 57.59622297433062, 16.762145933004344, 17.413020765559693, -61.850557388313256, 59.06723262315133, 4.586103542659075], [-40.47797242287112, 12.784909254660194, 59.69462881051869, 11.297588157734616, -11.212318367693188, 20.62959234422017, -21.058496570944705, 1.4244043348952145, 39.56890588565444, -50.58104103566015], [-53.39239852202067, -3.9674674985108735, 22.17158237786128, -2.2026770982261565, -17.313342221384694, 3.3943578918221142, 38.119975108804084, -9.170586225818182, 101.96047653168162, -16.303891738131473], [9.751183776115031, 53.77252588618476, 17.647702485613305, 4.08293592918818, 59.886880353699986, 5.672734116200731, -20.96973835530286, -3.980845559805097, -19.73729486358535, -11.331147312954988], [18.261953846950775, -39.27848153108031, -24.162499093844374, 0.18370305677275212, 92.27302391174204, 42.12715554016219, 38.835435696482826, 90.52707472249445, -43.42576844356989, -72.40246010101359], [14.673075983133153, -21.290333883473497, 21.1436184069475, 51.99889432341124, -9.726697206256254, 0.07974720602149277, 123.7773370531265, -16.178422365716457, -47.75825087860658, -20.21986366384716], [98.25122976507423, -41.328171817441785, 31.27963822394209, 19.936335107077454, 48.78567025065284, 19.583884384889807, 18.825292512317418, -42.26675286469942, 16.515098739444504, -23.296791913201655], [25.871661708601174, -31.922930772811668, 127.6888156485427, 57.6586401501938, 9.711492601551942, 81.94076977791653, -7.194411445675889, 51.33604667215602, -59.99551166513649, 16.276816371341088], [95.88631116561166, -31.35746657762961, -24.78620183127965, 10.560199583611475, 30.530343896086418, 51.86575834183269, -43.294808733195815, -61.83168755518755, 2.929647626291483, 20.72771184828119], [39.76331410249549, 34.17370225026132, -60.321669099743914, 40.65825477053747, 111.66796818938913, 33.36264730218448, -5.539050917188152, 63.36810761789197, 27.101552205636004, 33.06850334489119]], [[25.706311168084948, 101.60391185596158, 45.97022300956259, 67.84109683524868, -3.0491928695873165, -5.365524416131671, 13.468007562626848, -11.799026207640093, -21.123208096525058, -32.04685990526537], [76.82289211973891, -13.68183005688369, -11.532304744572151, 12.883123498292932, -21.828275259835426, -11.139836669483383, 70.58427538754263, -20.25319329197973, 86.68329828562032, 11.348149136394298]]], "bias": [[[8.30706001591818], [-20.95618298665521], [-43.01941989123723], [-3.372669008319305], [10.871385679176623], [28.063554129625693], [-13.369144194065704], [108.81408961931858], [-28.775399385637026], [3.056301121838792]], [[-38.30704333608197], [-13.660773386184841], [-18.81585536130819], [13.322340879970952], [-19.83258986440519], [34.17559445954715], [-4.518201559027992], [24.249122977208266], [-10.202426479416099], [13.561573085727492]], [[-33.813977795553136], [-86.23759236966531]]]}, {"weights": [[[-48.225356621135255, -67.55783152234943, 80.41362878678902, 69.93913409085914, -2.4139026360580456, -27.204214762186908, -49.15339457278873, 51.46516814501573], [-17.64495851448659, 15.17265849261601, 14.872700136515444, 16.654408069456146, -106.19519854710899, -89.00292375003826, 29.72832884590826, -32.53728349680058], [12.950570058486424, 87.60728834473915, -15.24096650669067, -80.82449859270328, -5.012069123889082, -23.591695131389663, 0.9212657794520513, -44.1621994305115], [-28.789785565837754, 52.40793491086851, -120.71653375657695, 37.839067489610365, 40.52760864886905, 17.49459806752133, -25.73245038456327, 51.303632576292344], [-128.64009045592877, 50.95507904057448, 64.4117172661724, -18.392407034060593, 9.385692858105807, -0.5267538311118912, -26.86755411859028, -20.264831147997402], [-14.736598666440122, 51.72768353647699, 20.78995147800301, -46.52737532148699, 27.491609026002205, 1.616052730113661, -78.4551017349552, 20.648607358092175], [2.7774883104549937, -11.243526337969804, -26.029564783214187, 4.176397810031971, -82.22159731175576, -45.64415247391042, 9.528163382919415, 28.454844873217503], [5.285212028216953, -16.21221158497346, -4.3324893143155085, 16.106404292335036, -5.085307873429989, 7.1051773869541055, 108.66826859389445, 9.446151902906198], [-17.038578761496982, 82.63557848353273, 22.747292545243234, -77.07942358151345, -3.2973744902061073, 5.367450841608275, 80.06577936005236, -52.07256467776844], [-50.55574370802907, -74.7026809109052, 20.928800565386016, 20.59157119169777, 2.5646589086148515, 2.516420194852034, -35.545316438204985, -5.967443134847928]], [[33.8185637066929, -54.18224523952326, -72.79980340621124, -5.153489849780138, 54.32806247733064, 19.420272550607965, 13.956659919172674, -61.96125986987664, 63.19858150592415, 6.058192186292459], [-37.77023994471213, 20.722309435360994, 63.71291728385799, 5.273420571473754, -16.31201823493329, 21.09803405849683, -19.578081801489315, -3.5470627202645226, 41.8999024660529, -53.45804134608862], [-49.37828734495082, -7.1639589323380495, 30.99488148519758, -0.15453880195052605, -6.388165826227743, 5.227161171922492, 35.386686760786326, -3.896207809673528, 100.71595017191905, -23.36918859709789], [5.40897575671375, 68.83574744193652, 13.183957728278777, 3.2944047218498294, 54.13823469034202, 5.048451143920099, -28.451185345010796, 1.7510496807680842, -13.382220312638616, -11.609636043561165], [15.62087365653532, -37.56110950648311, -25.474014253838817, -0.592497970211838, 85.7522301917111, 33.30562383603543, 27.984899360778538, 93.96972733859398, -50.21735407283961, -67.07011430775746], [8.914685945037938, -32.18746135099396, 20.77688347537533, 56.49028936236775, -4.491078319027188, -1.0442875508328475, 124.25571559015336, -17.455860997702665, -47.72036167747837, -25.514939063325375], [95.57714299409403, -37.747494868952906, 34.451991826538126, 17.82095605890007, 47.17719731819247, 19.01768085293969, 16.27024675111118, -46.34975160730925, 17.673050967044986, -22.31024610545722], [26.65387409109493, -31.72398344887022, 130.1667970710151, 55.20702727819765, 10.606449462717434, 83.47322653157318, -9.059983024627098, 49.77689572795051, -61.22603769416376, 13.976298507526957], [95.71965103466404, -32.4784908147199, -22.345535546374123, 10.59634526098568, 30.560753319924206, 49.18418537923355, -47.884726289459785, -60.90281917630203, 0.7201536688934389, 22.648107661160225], [35.01449760902281, 36.687078226034664, -58.79126561012303, 45.88568182200573, 113.9131449984536, 28.18538456316261, -7.929216742085484, 64.02106744536678, 27.974654904607004, 34.22957264136062]], [[19.776582608194772, 102.86412717575938, 45.30577774138237, 68.25294417093382, -3.2461942521179346, -3.203042236056003, 12.67984885756431, -13.686260958481105, -19.519189065828805, -28.277741402671648], [78.1734535165305, -12.43897813643327, -15.044685365188895, 15.16236082387684, -21.211730436342073, -12.231319594148978, 69.0977897575938, -17.810326301713594, 86.34383803950575, 9.927502325470408]]], "bias": [[[10.763312133408341], [-23.454222964048625], [-38.46441950460189], [-8.793466746600002], [12.886100444770998], [31.132188435212075], [-15.125455684131675], [104.07731552433611], [-30.523444690928542], [5.165362292858157]], [[-29.639091595005574], [-17.428838275515535], [-13.628213058277098], [19.558537638854364], [-26.34754067568697], [-32.73526636729404], [-3.375909708176261], [26.123884110322937], [-12.070110703949254], [13.840203712917289]], [[-36.67838509314108], [-89.02523765040584]]]}, {"weights": [[[-46.37819554646393, -66.17393004734224, 83.79405318659661, 72.61009962643757, -0.7558373929221424, -26.02125841321644, -45.97856857303894, 53.664237525482754], [-17.179515734814913, 15.027477573307147, 21.05345805647125, 13.901200326313193, -101.57715557135397, -87.53900268986393, 24.560725492643684, -31.975921615511876], [6.876730044805408, 84.48398634977998, -19.80727096478277, -80.14769512645478, -2.449060366676287, -25.70778240455418, 5.242532564398422, -48.87138653760187], [-38.24821272769453, 48.81657681171102, -130.39448277257964, 33.964083053100595, 32.315605211100966, 16.77101731667989, -18.436658601729093, 50.44717240410786], [-126.33648440136363, 61.24463590079344, 61.60999999185934, -24.2784355983291, 4.142384987940343, 0.4218319731398966, -28.684660235356024, -15.320050398337733], [-14.356661706557848, 50.001428153373524, 23.474897142706837, -46.44115587581398, 25.412119017360414, 3.272309736305064, -79.54015689302413, 21.508468862356136], [2.9175332338235305, -18.18032681433143, -24.830581396968768, -2.8995480639682825, -78.82614281426149, -35.12813046007267, 8.197403998569873, 28.2757077554335], [9.015800946474416, -17.869224610265817, -5.932746105797737, 20.81770466048185, -4.373142041152894, 5.8303612474191695, 111.54007116810936, 11.930488324270437], [-19.02077234473488, 81.23525578427014, 22.71212837564175, -75.68685832905956, -3.2521758513083907, 5.400161592764482, 77.67310613821907, -50.12443783292757], [-56.44545915162802, -72.51889579016031, 20.928025798666614, 21.88122978315439, -0.13394964417486147, 0.3155085382778083, -30.471535361204253, -7.657863965427803]], [[35.12906131906034, -56.060879619639316, -72.10441452363635, -6.9707387100763585, 54.2599495084283, 19.510655035010252, 12.59226666643601, -61.15414648978148, 61.85759387670773, 6.697377070969854], [-42.05674143431813, 12.661477126733164, 59.61623397819608, 13.574587434089167, -9.744174356763509, 21.003652132048053, -19.65655607799462, 3.8011539741275127, 45.542391289304625, -57.74384457614513], [-51.90786548345409, -8.150510074174672, 30.77405169639075, -3.0937793445059247, -8.062524897448437, 4.498747733611953, 36.230924311578505, -4.532859267255635, 102.93483487120548, -23.46049781402134], [3.9051415585844897, 59.22945371588957, 13.641947037457925, -0.31843064530772636, 63.47155402294022, -0.7313782136320455, -30.567841303196225, -3.775369273264501, -10.662213608060213, -8.02465616668147], [13.371670333117915, -42.899894347184826, -21.14882972978149, 0.013440282679676951, 85.42017302802766, 35.8695653782684, 36.082973813987145, 96.50411045488534, -38.2639829391491, -74.5438061466593], [9.537837769913065, -24.27654105739168, 17.17367314175954, 51.22804764909506, -6.379635252392291, 2.8150526394488717, 124.536288334054, -13.046030092047054, -47.661929610612766, -28.106818496922067], [91.8842921183008, -36.13061001256247, 27.665374484133455, 20.091764128812343, 46.293322453509255, 16.681701026761292, 17.52810804037689, -40.566942457349924, 17.894453505670718, -26.21416515927927], [22.178691356032004, -26.712013429327193, 129.98447524404116, 56.871939383814286, 9.511963590549952, 86.12104957350947, -1.8204151372662762, 52.045500907039084, -56.215563144789535, 11.583302997138054], [95.39776076238793, -36.68893098201948, -23.979789744443142, 10.85641636490429, 31.9951650962407, 55.25473592922179, -49.865294073599635, -57.55665809633245, 2.2039801728207067, 21.72534400313365], [38.12954773162294, 36.821889673171995, -57.44947266036804, 41.44351224714831, 112.8142122624, 31.316104679728834, -5.361543711976315, 68.03298053849969, 29.73708261363569, 32.88034774907167]], [[26.084201443153237, 99.76828089320112, 47.14373117838341, 65.77912116263616, -3.5683623730044585, -6.752985718708114, 9.286329499907884, -12.485631570747804, -17.76187852090645, -33.59278979952759], [75.40897653219999, -11.799492274254781, -14.04796725105208, 17.84183528537722, -20.90315300746881, -15.268020306537409, 71.05496712097454, -17.253002655423124, 84.23332325840236, 8.710883811113472]]], "bias": [[[6.1548271772401595], [-23.551759239296114], [-36.796553241959785], [-10.460375276698572], [12.841042760653623], [31.536110535065248], [-16.104377951892147], [107.17549780207891], [-28.269394545590426], [4.7636998506149055]], [[-32.505453628265506], [-8.858672077038172], [-14.510608128796504], [14.183628956160328], [-35.26937251388374], [36.8191673600548], [-6.58204728026718], [20.73590144390371], [-9.190273250865863], [15.886264590638499]], [[-35.644086785966564], [-87.39660192944388]]]}, {"weights": [[[-46.59786160923937, -62.22674294442183, 84.15005381784385, 73.61373695248763, 2.090271902782152, -25.573501582081484, -47.39401881202123, 52.22739857980022], [-20.99168990891796, 17.54274889436224, 16.230479119877447, 11.004556928220412, -106.26912838006317, -89.34343604215597, 26.464368305876512, -30.8775368406969], [9.247202389911283, 76.33446820445337, -17.707683073678538, -84.16826982291393, -5.030316321031665, -37.36102166236271, -3.551657753668035, -51.11820959751404], [-30.594142508675514, 50.74435692342074, -117.32998140912304, 33.60670536664253, 39.626850920098775, 16.403170280179612, -24.33044972521778, 49.4368341737716], [-126.4153288962485, 62.016151051366634, 62.10327877686231, -26.745032459639383, 3.7888112647053482, 0.014620046798833108, -27.277923479324336, -13.62689865468359], [-14.534836731498771, 50.67444829522032, 23.916397677823866, -45.94918837693769, 25.10521852923614, 1.5576445336797904, -80.76011047041166, 19.913076762592997], [0.8225552093756567, -16.588786958839606, -26.100347815082905, 0.02755496672394786, -83.73949992998303, -36.76983362992292, 11.61054530866813, 27.422964581906832], [6.651362945794487, -15.942322092164657, -7.864923491955069, 19.15504039165259, -2.0882569951903838, 8.271001468939346, 105.73489931874268, 12.616161872551634], [-23.372972720699565, 79.76521400511834, 21.509367303972905, -84.92747215902155, -0.882089993130164, 4.4078684247853905, 83.11471420306081, -48.12996891070018], [-54.04168016081869, -63.974049695921835, 21.723111928177627, 12.080491258151639, -3.428151251712524, 0.5203811419341142, -39.81832951171265, -7.051812059038622]], [[43.95346240852227, -63.65346925256747, -69.5511007048976, -5.18114954017282, 61.90230801712636, 10.327840533734017, 18.361201326954998, -59.69868083557576, 58.04163303021184, 4.960840569533427], [-35.79530187556897, 15.461129584735094, 63.33604543823048, 14.222552969722692, -10.917687397418373, 29.26835704725811, -23.963962428438602, 2.564537647480154, 45.448174034097626, -54.64939763955209], [-54.841107975152866, -10.895932684068345, 23.259688841219912, -1.0884641460554345, -6.7546221003224955, -0.34287647053435, 31.15038923654311, -10.309294071166278, 102.15497063492944, -22.42599402606294], [10.03279033257867, 53.28752913558214, 19.308574570897974, 5.573261979236377, 58.23623375226656, 3.0040386856396744, -18.23755077803869, -4.348073308697844, -22.31458500797178, -13.242869085614652], [18.452303344674085, -40.19208150032805, -23.442289967978205, -2.063879563064454, 92.53416927058292, 41.35881291307958, 38.868271274489956, 94.8374044689938, -42.94052731329948, -75.2039459530258], [0.9192557446976648, -30.258981963136293, 21.20059691546837, 51.55302425556319, -8.261870029252446, -4.16578188436909, 120.4795537073636, -17.17206254983697, -46.591267632063115, -22.579056089350406], [97.63012050584403, -42.428206674193774, 33.73523762492419, 18.064647490503546, 41.33878599779229, 21.48512813454879, 18.49139449505235, -40.45909735748514, 20.335131426381917, -25.767731014952915], [28.35582459649971, -29.59719216813191, 130.70879133991897, 59.12312181999124, 6.7833558917104755, 85.83684023219364, 4.703437766787931, 50.811959740199384, -59.90549110174879, 14.51850672270416], [97.97544660665758, -25.52406677256654, -26.287590436966696, 0.6257601807111174, 37.055702880237284, 49.95728116782075, -38.58297253873881, -66.36681051103952, 5.782017406987657, 9.681608993745181], [41.063072151993254, 30.852404656668632, -71.35244818057228, 38.6624692856563, 104.95304921844476, 31.671297981898164, -11.320045722703481, 74.60944192109926, 34.742066310758865, 31.221416880706855]], [[26.739910812221144, 103.18137137595079, 52.9812814515436, 68.75150549434287, -7.807961538144473, -6.210497999392333, 13.08729719999185, -12.883288483179507, -23.904248449284438, -33.62312005855277], [70.1500673527024, -19.717883290630997, -8.545007500062543, 9.328230462310792, -18.4065398583437, -13.073608821760928, 74.22535599579436, -17.8895785888053, 84.91945072301208, 10.040450091286951]]], "bias": [[[11.623629609612118], [-17.560353103967365], [-36.36317035102723], [-5.871251154152613], [12.841585998347893], [28.466866059932318], [-15.736627445063817], [106.5831214704464], [-25.54403581948104], [3.91552565295419]], [[-39.06673934056213], [-11.70178183712913], [-14.389914754307519], [10.113860213497832], [-20.439116149068827], [46.68795462683929], [-9.684608345593515], [23.538536164998405], [-12.66224734876266], [17.74932306217636]], [[-37.86955231780875], [-89.7755533313042]]]}, {"weights": [[[-48.3465849139873, -64.23992016666801, 84.15005381784385, 73.43981562825775, 2.090271902782152, -24.09202400619836, -47.686046796238024, 52.394616673958524], [-21.274533873105995, 17.035467571775598, 17.25540690156995, 10.72431194979109, -103.59967564771331, -90.92667811881768, 25.28789178864493, -32.13119564064322], [11.082508337348182, 86.44737367557347, -14.434444182936927, -77.732950883428, -3.756092278387623, -24.798071326473025, 0.5998484100957263, -43.79811563249649], [-31.67431538538471, 54.15638523518139, -119.89151972372387, 34.4194811552807, 42.457571808344454, 15.989679609060385, -24.631804352692736, 44.4927473462624], [-127.9601366664127, 57.37628442805556, 64.9315548050274, -22.202554664106326, 6.792380605090639, -0.27048566360235077, -27.216930353965942, -15.668897739380473], [-7.118766359513206, 54.23102319567572, 19.916909691123568, -39.663583869343995, 33.376909958619684, 0.031217836855447434, -74.27299576457881, 13.847175975261397], [4.775220583232556, -12.881934544529038, -24.644635520844506, 0.08405812184103567, -80.56412219644103, -33.162827606923344, 13.788113197223105, 25.88288403643721], [10.791503437209697, -15.6032496403917, -9.77208718656224, 17.227107263009962, -5.300062669257827, 4.620889149316995, 109.3437489576831, 16.41643793989232], [-22.363098569532518, 78.59081511257875, 20.124717401953063, -84.69647561512038, -5.856693057704053, 5.719364575547594, 86.29273907254141, -46.485850573930996], [-51.8294767796528, -66.85340090533307, 20.533031166143044, 15.17153494559444, -1.5193561708691283, -0.7824123514778704, -40.853281161273124, -7.764808982419723]], [[32.791608128414, -56.62755423849915, -71.60178933328109, -3.9944727320234357, 54.18361403708122, 20.4637183786645, 14.012417393660025, -61.76353738725824, 62.40811544063675, 4.0957062603969865], [-35.10794130107133, 1.7413908224925838, 60.58470315501789, 10.496127727362751, -12.124473600330742, 22.754272850847652, -21.097133468725712, 6.160360002087254, 45.246599087061725, -56.92533078103903], [-50.84475259473086, -13.72286719147034, 30.514085616191473, 0.7651345311049818, -2.009307912107142, 5.01094295295144, 42.25636088393625, -2.667747841019867, 101.68079423609822, -19.94173900911318], [8.823908900953123, 50.30294557453035, 21.006818533167134, 0.5392716009820548, 61.30515510173562, -2.1515982981395885, -20.462858805315516, -3.786486209664244, -19.658284030686463, -13.212739212543921], [11.162361329191933, -42.045890093567934, -22.18319500054439, 2.5619564869923863, 87.29133384214812, 38.78454367115594, 36.695707575202775, 92.31753959019638, -38.501434867909026, -75.56125522567869], [10.21462433587621, -26.67832386214005, 18.28532479259331, 50.430289732037124, -2.8856094724780936, 1.3511367285720974, 124.4276887046518, -14.71160898027717, -45.7131457167302, -26.805332161356127], [93.07971262957896, -35.72443719638131, 27.141491387689666, 20.899926446251104, 47.671018128046995, 17.166106813844213, 13.981786093865148, -41.66163630950085, 20.37951044165656, -23.789889960998703], [21.271069134149947, -28.504634146510156, 131.22316942041522, 56.81082608912085, 10.671324446440629, 84.9437432993941, -0.9302292316265139, 55.39426111293218, -59.82368492377552, 11.749949247000076], [97.59574359840059, -27.25381318024805, -27.057041655796557, 2.4644462048488935, 37.053080923893496, 45.7773217763639, -35.9359437900423, -65.56589763467908, 3.8260634013979153, 9.352174721903705], [41.371310300062504, 28.703839055148887, -70.77437164808433, 37.81661418787558, 107.16468263248694, 31.11766533908208, -12.19360028327091, 74.71723119864761, 35.11623104379507, 34.029419050452745]], [[21.04295226520863, 108.34787811383787, 46.99327441085882, 68.31142759807999, -3.1522361202186864, -3.1916575737693, 5.907383155896329, -13.287789583756066, -20.418982315028288, -29.685142518204767], [70.24968162051972, -20.296858357081735, -7.6211257165893755, 12.5095868898511, -21.139335094225533, -9.944180994845318, 73.25155089898618, -17.367936672766177, 88.52838314081167, 10.154580312016186]]], "bias": [[[8.181499413950128], [-21.925203339621355], [-31.131202834486164], [-8.525948816533235], [14.290283514553355], [29.736173240973212], [-13.823842650338854], [106.8912864893987], [-24.98174047902968], [5.891745973258357]], [[-40.60823274416997], [-11.564580594032005], [-13.671285463814256], [11.047027027856826], [-21.97678419712175], [-22.495005298767282], [-15.19774728191708], [28.70872463668086], [-11.233520823559685], [16.143646700677056]], [[-38.888804755258974], [-89.09954627714967]]]}, {"weights": [[[-50.62575021361563, -61.47499364496879, 85.97662819257361, 71.75507833302012, -3.1493122138180527, -23.08922435479561, -44.9048586046264, 50.304061655545695], [-22.561181971470386, 16.611298708050054, 22.17757475159257, 14.231426036602661, -106.0952719033894, -91.27879017521747, 28.67821900322527, -31.614660207653937], [9.9141760650412, 75.92453048481592, -17.410376828411238, -86.26752100830382, -5.5160162219728575, -37.42850740514175, -2.8717693967506692, -50.322378934609894], [-30.771006939214775, 50.74435692342074, -116.02464454556267, 33.92554468400586, 37.71147326628733, 17.028914723148578, -24.33044972521778, 51.53829593341959], [-120.59527648256164, 52.020991554771776, 67.88785835287237, -17.10941685300618, 6.776730539852302, 2.0919081067590133, -27.366001042750515, -22.728407171406403], [-10.029941353562446, 50.90566827786714, 21.805404487221836, -41.58125295517941, 28.39863310921488, 2.0929556718537623, -80.01085170154838, 21.387543893395232], [3.6189386275606337, -14.985936625228492, -23.214718819030296, -3.1596176477841773, -80.73163398583938, -34.78859063103244, 9.321652563987051, 28.00332314976956], [6.532479912083432, -18.01263233204057, -7.480708878856798, 22.722984925065834, -2.0873126940121427, 5.776166316497241, 108.4686159078642, 12.324881802618876], [-24.498227215372093, 82.18100019119402, 15.93954445353902, -83.98322299396317, -4.527372394192113, 4.685891114645693, 83.66461883535824, -52.45146316852997], [-50.128980863727016, -65.9675819703264, 23.537546278026955, 13.321281075532463, -0.7040620700048486, 0.013257991916919676, -37.4050352419944, -7.110060545528966]], [[40.197969438961245, -56.49471609325296, -73.3938809042713, -4.7849330281192906, 48.65458899780545, 6.2600445222227314, 19.74212166404525, -75.41541162844285, 58.997748713777085, 4.36680470419504], [-39.12890922890071, 20.59977507581143, 57.66732376695236, 12.283096498587444, -9.781488198368983, 24.58246838838419, -20.43434603479838, 3.453940600965405, 42.46480144160024, -58.01267118507763], [-50.08797404681349, -11.235987435690252, 35.390334661393936, 0.7204880354088345, -2.1765003942295196, 3.748154421640286, 46.872954750184796, -10.492937727401436, 102.49930989709104, -21.0585001912298], [4.376814906544047, 59.78236157588227, 12.641505225559627, -0.5102569580551224, 67.19186576418933, -3.3736519162276974, -30.85337386589312, -2.181329644833939, -12.575001900021935, -8.613452541411537], [15.064384768122382, -39.26078179847608, -23.087260179856266, -2.760638895459866, 95.6199035180946, 41.47509887839473, 36.38127974349536, 92.8858162088004, -43.76173521694214, -75.14404407731145], [7.108610256069247, -28.433223400477885, 21.185022072857645, 55.02406487740769, -6.407585164888276, -5.16353218852136, 118.0267197898931, -20.201097810251028, -46.15366321900101, -24.15638758442049], [90.32379232162671, -39.406228553361515, 17.398313157046175, 22.651682871708925, 40.89840765146487, 20.43570531741148, 9.874935512567012, -42.594089231520854, 18.63056216836608, -19.691921713246582], [21.967929105877314, -36.96963924870245, 122.35798665925176, 53.880254236621944, -4.438986320540372, 91.39642568265613, -7.654004878350057, 44.015503883604886, -61.4824560236436, 14.40789278282248], [98.55692767149155, -32.65206895796749, -29.77202022438187, 3.4871672981211805, 35.3830818566404, 45.95752748602132, -37.93426402735755, -68.68572392337313, 4.586296575289606, 9.703424487828919], [39.349666125803175, 29.775060762170046, -71.45115172998251, 41.184810464392086, 104.67622753790853, 30.232717647142245, -8.791698350425227, 71.21892511346294, 34.04733303959805, 33.47750607635226]], [[16.06765561657764, 100.8210949983281, 40.379945348951544, 57.00800527674876, -3.308065038782149, 3.2472872035693143, 8.27144644002997, -19.394523635853872, -26.62087387751062, -13.063213126563358], [71.09097020602636, -15.203366452949238, -4.413524400371146, 9.538786197466495, -20.975434567855995, -7.495614433435169, 72.43046092376468, -17.772919798049003, 84.68107293745886, 12.177006504238856]]], "bias": [[[8.72480993386672], [-19.637595200464794], [-33.73482730204527], [-7.849271164244533], [11.565102027990914], [28.99757639069143], [-13.927049962302466], [102.5863512177067], [-16.192555184913697], [0.3235405185540172]], [[-43.70769007451445], [-14.207943362618652], [-13.166166665959938], [10.647648358020414], [-26.041284416506866], [48.01444039788865], [-10.386232728761023], [28.96834187525362], [-13.85237871416946], [13.532081686634058]], [[-38.459636075208294], [-95.14919562906864]]]}, {"weights": [[[-46.640820197605024, -66.18942733493304, 79.79940928754986, 69.84341667881581, 1.123968229311695, -27.689448802379214, -49.15339457278873, 50.627583363715786], [-19.859225661374502, 18.456911606119593, 14.512535669817359, 18.014925825781106, -106.27304625893119, -89.53211957067877, 31.28780238159111, -35.17370094343127], [14.471023752562713, 88.98945332964111, -15.972909129698758, -78.75199406522721, -3.09991674144611, -25.039600352919496, 1.344848200550992, -42.30706136461874], [-27.04696851315564, 51.6644084326414, -119.57287566597161, 35.974097713352414, 39.527124282053386, 17.428661216515646, -26.19508001229921, 51.401972453560916], [-129.60081390474755, 50.113696814221186, 61.775253723411254, -17.295664751011817, 7.426901087459594, -0.9346069063105485, -26.82463322841437, -20.585700185912934], [-13.609024099285762, 52.04977891093525, 22.661474875700872, -46.18603870395943, 28.220814832700153, 1.2880318082232995, -78.89173985259059, 20.099209078449153], [4.036263939541504, -15.305184930927243, -27.076542790450958, 1.5474298028102296, -82.38554941814455, -35.24119871352821, 11.98601807448621, 24.530130103825357], [5.202949008187855, -17.41137376218405, -6.5803727308444255, 18.615280459827645, -4.463383519478979, 8.010510880472848, 102.1108168577071, 13.289283764135932], [-23.814195918253805, 80.80502145943284, 22.163541427549678, -84.4421488173482, -2.1804464313212613, 5.1402193980623565, 79.21735957712062, -50.80231558538858], [-52.27760605106921, -66.92358504485327, 21.723111928177627, 14.007935547552242, -1.8633282665085784, 0.7905359649960111, -39.01465532636303, -8.066216105208595]], [[40.527682635375136, -58.51340967572767, -76.72851465495248, -6.3300653967230245, 50.859481702441514, 11.796768351216114, 18.66443736264318, -69.8159579135907, 56.604758432807664, 5.518604033667383], [-43.46178007388358, 22.630177307921723, 59.46466539573714, 12.707026091616813, -11.049030728811934, 21.669814581528193, -19.786061871644947, 5.050289203834983, 43.738258752493884, -57.33567275635084], [-52.271503662022496, -12.279270559300143, 23.86118833654271, -2.725339839192238, -5.9741182918086, 2.277943408758901, 31.2479391703246, -8.13027051653674, 99.90141029455837, -22.19339732195287], [9.98268589321502, 53.794589059348795, 18.462421683104942, -2.0712106822624756, 60.92933921933284, 2.5323784059088092, -15.13295335247648, -4.823828493800593, -17.79340315616204, -11.346810579605597], [19.94123808164008, -38.707646153377574, -24.58435268165183, -0.6337248857656977, 88.22928008996371, 32.599853042873285, 28.42188065295745, 92.61544876852103, -48.8673155152975, -65.30710148862751], [9.412335577326738, -23.95834669515824, 16.354050072571596, 51.30771207624978, -7.225902218571573, 4.803794300705301, 123.5881873388823, -16.316830246375282, -47.6221218148162, -28.45544192370476], [92.48997644393269, -37.583841784203855, 26.393611643824002, 21.321874723245795, 45.52277338837145, 18.65217359407633, 14.55622819682382, -41.67143123438208, 22.457607799379854, -27.88688970779395], [22.20566171455836, -26.85382725904473, 130.8890281334579, 56.417184106469556, 11.607986557213968, 86.06929402808937, -2.702795178321615, 56.017314650929904, -56.650545722960416, 10.37484942537962], [96.69105820420118, -24.35123130902453, -27.229503197321762, -0.1541393889928626, 37.294628311103075, 49.45384580824274, -37.338192779859135, -65.48896480519214, 5.955353506545799, 12.004004365628004], [39.76227856476548, 31.78256035975077, -71.98159360020517, 38.14021886196181, 105.91513994270328, 31.707776985939702, -8.83159572021036, 75.5446878122383, 32.53317971314618, 30.227034665486983]], [[22.683101288835513, 105.55779865094792, 51.97240524483773, 66.8596766319901, -7.593294566291295, -5.972094056191606, 14.597262345427389, -11.0629663496044, -23.130954849675387, -31.51307262547819], [70.1500673527024, -19.72597691534893, -6.7308197265752705, 10.885248252611747, -19.005010521378587, -13.073608821760928, 73.90320259705642, -18.60031920328438, 85.7172153042426, 10.147253004099703]]], "bias": [[[6.696547525118736], [-22.456326706423898], [-43.38607524455034], [-2.804752237991414], [10.370517004054213], [28.437820624043248], [-15.57120674583682], [104.48687577101397], [-23.64592715722558], [4.7010135760537475]], [[-39.052722086674024], [-11.236214614862977], [-10.165285705359945], [20.35690557904559], [-34.24222674359603], [33.769878300209406], [-11.80238312316503], [21.2907529852054], [-7.798789825870275], [19.160495158477744]], [[-38.03937979645712], [-89.36233761212596]]]}, {"weights": [[[-44.49135427628304, -62.73540945003524, 84.63225546164686, 66.42203293877621, -5.523679907892964, -20.235466854048767, -38.22476842890242, 50.230158017231304], [-22.34921282632081, 20.416826716168863, 20.994141122242333, 14.353187739539067, -101.8957317993047, -90.71257632647873, 30.53545910225286, -29.81995880809099], [8.601308261587246, 80.21959863491814, -16.005964038489427, -80.58479929177655, -4.4319083509169355, -36.776609868362975, -3.6418316128833177, -53.039349440450025], [-31.932530183511687, 53.670679120767176, -119.48364316057175, 33.776116775590886, 45.779192122935555, 12.716119406341768, -25.734030779678665, 44.092602260477555], [-126.61282231148247, 62.18063408314322, 60.91236118859453, -21.72037540425427, 7.294704993691816, 0.028050208860788878, -25.988063884149938, -14.178171588421081], [-13.35742827310956, 54.65130427301471, 22.392951451329505, -42.34509542612616, 27.561369189290634, 4.107404530235003, -75.1547364150139, 21.518468228481915], [2.311092300274966, -14.30140384872254, -28.14090703622063, 2.7599332661628853, -84.04475377991425, -32.41276896233202, 11.277198433370677, 27.43739310754705], [6.6761221832181095, -17.962360062440407, -5.139957902697947, 18.704381428080666, -1.3446774193398445, 5.092812634639874, 107.24275872035675, 10.964154991021688], [-20.721663355016254, 79.2295867891485, 22.189832298422377, -84.71746713576377, -5.6702872547901055, 3.58058764064383, 81.27799553925075, -48.86106244799435], [-51.891486690288914, -64.24491268232647, 21.985279674382898, 13.74908163694342, -2.1318279768766932, -0.42165972600181306, -41.52159194802987, -7.490811708534954]], [[37.760114172315504, -58.32688566528461, -71.25525043225177, -9.562061491271542, 53.62829569745811, 19.270528234634757, 12.349757171447356, -61.60093746426231, 60.32126748486456, 5.857948297131436], [-37.98813975836194, 13.109637730902861, 56.782498943681816, 11.49128077169924, -10.588665055740547, 20.10480297959322, -22.717816142936897, 6.194067723987323, 36.530367577534314, -55.774408305175086], [-51.183504821884505, -9.116199038779955, 31.436563808757743, 2.5886427693701997, -7.243728151417697, 6.436319495523541, 37.95988967844888, -4.4905186154792105, 106.69128054000278, -21.63717419604593], [5.9676559525598645, 50.750893105828865, 25.893267486172082, 2.321452814847659, 54.07099663735311, 1.972633324883757, -31.51168631494409, 7.627691654069807, -18.680618877178464, -13.5666065388338], [17.959375231183856, -44.992658205647146, -22.880463740942066, -3.727093115612088, 80.4730528097069, 44.05574105015446, 42.24025919891634, 106.25674347713274, -45.73437123578692, -78.65450883346068], [14.365934991417971, -30.70707814226996, 21.57050132070948, 50.33960734421916, -9.320313174835952, -2.179643974064356, 123.22623475504852, -10.446507002299084, -57.61382600736838, -20.164487236479758], [88.88633723903403, -41.874972171375575, 17.485522237739108, 23.102237318297718, 41.75849068727199, 18.149801067403832, 7.966030664393426, -41.21303233970158, 20.44570392895937, -20.22204259094925], [20.702048421006406, -29.12973485136688, 129.58300522657672, 56.523363192035454, 8.825635448809217, 82.82630767611917, -1.5205463794089498, 51.5124315580903, -59.24826253118942, 11.622470717125301], [97.01719896594638, -26.91013359967436, -27.19803180076865, 2.9274518344606975, 36.66287523467497, 46.18079195529106, -38.467000516808156, -67.54486899174921, 5.366158647547689, 11.681858926888376], [42.81505197506153, 30.692876836948425, -70.72233147418305, 39.23382051578268, 105.31400976412951, 32.612984768218304, -10.183436207365267, 75.21109723487784, 32.03851008081104, 32.924880594903016]], [[29.491388765210214, 113.6115293393734, 44.933326659638304, 68.68867279963206, 0.4823329800997962, -2.4743606378376746, 17.985484525993982, -19.101879495288305, -20.51859066201764, -31.7468710956811], [69.18861304865311, -18.61881224544226, -6.011547181222677, 13.1134088357056, -21.92702648023978, -12.540838961109262, 74.93515234240287, -17.187913071574254, 85.95588579860545, 7.7894079685910675]]], "bias": [[[6.6277536752070425], [-19.928146125385894], [-39.75844081525085], [-4.77569725950172], [9.861504166533281], [35.79299678825007], [-16.689874250358777], [107.76951353430572], [-25.94262829033286], [3.6461299153989812]], [[-42.10611218668651], [-11.771478628118665], [-18.952418857767228], [12.925454234017934], [-25.996095357153127], [-25.858249370321463], [-9.007043156177827], [23.010571912226407], [-8.521320569905908], [19.242983866945004]], [[-40.03751658532255], [-89.93303935540126]]]}, {"weights": [[[-49.4854816898304, -67.32497796747866, 81.39978707779512, 73.00260535139086, -4.316273395657054, -16.353930929596192, -50.82620954794968, 41.288691245153444], [-22.050962858384114, 17.435563237509328, 22.83987577784313, 6.649377554602089, -103.64060557532422, -89.90181625588329, 24.63268945572649, -32.983810723704686], [9.598145006134535, 84.17504290966592, -19.315776208915146, -84.57612591802751, -4.321946924855961, -26.43930305904677, -0.30364416377423953, -53.64883453075175], [-34.19838303198686, 50.75960431561004, -115.47133948863541, 27.08096356369428, 40.187177003440674, 12.6563683327362, -21.565797587629707, 41.5305140559222], [-123.36900969740338, 51.46654356048259, 67.45587830897246, -18.53082085302274, 4.623945215740235, 0.857789485581283, -28.96517458561119, -20.21004901575118], [-11.63746891748343, 53.3039857844537, 24.389752307581702, -44.62530462241876, 24.947854309940674, 0.8009515169719457, -79.90182200301435, 21.75338677930873], [3.3788610118275724, -17.688058744295173, -25.54561509017962, 0.13495670309223448, -78.82721321722536, -34.34353830425163, 14.15711503075511, 28.85541538301781], [6.8235575341311945, -17.728185106175307, -3.3484984967187064, 20.130807073748795, -2.8305487073672237, 5.390902991681505, 109.98162186245352, 15.905482786800238], [-22.84508355932216, 80.95687995539059, 23.150153553036176, -85.82720033813753, -3.888100335269413, 4.770825540941642, 79.99761920285741, -54.449498734029234], [-52.59217378495901, -66.35268713120706, 24.41800174430101, 11.603383603900422, -2.163296301362849, -0.519290285684589, -38.856704753051794, -6.778892879698784]], [[36.28656250774258, -58.32688566528461, -72.44841164928005, -9.562061491271542, 53.62829569745811, 16.412599618396364, 11.181461046633501, -61.60093746426231, 61.027730697612085, 4.9683866063160895], [-38.15372664025151, 13.302844668717238, 56.7315279117483, 11.49128077169924, -10.588665055740547, 19.82956568240024, -22.717816142936897, 6.194067723987323, 37.76576094482023, -54.15968326136686], [-49.73044156289843, -8.124074333770647, 32.170546406594596, 2.3098849789717666, -7.243728151417697, 5.992759866837436, 40.17069587859495, -4.4905186154792105, 106.69128054000278, -21.019688165737325], [5.9676559525598645, 50.750893105828865, 25.893267486172082, 2.321452814847659, 56.4459571661872, 1.070131959112775, -29.959408589216654, 7.627691654069807, -20.99363688269811, -12.32659644907519], [15.57927511366936, -46.039967161598504, -24.303821989225607, -3.727093115612088, 80.4730528097069, 44.05574105015446, 40.93306576459271, 106.30281406406209, -45.73437123578692, -78.65450883346068], [14.403549883419648, -29.26813095235434, 20.068089448118457, 50.33960734421916, -7.698229554259367, -0.8258048125852311, 123.99878736391614, -11.570248480117357, -58.23685449876383, -20.164487236479758], [90.0313075678779, -41.040052182411415, 18.253770946376708, 23.102237318297718, 43.41000763375574, 20.68806696127223, 6.5879943430693775, -41.21303233970158, 20.44570392895937, -19.59084954306791], [20.022844600247886, -29.42337402217699, 121.78429782488948, 53.79216361348666, -1.1820874494366846, 89.90822029070227, -8.389914134894141, 45.19856262618405, -61.4824560236436, 15.340125299700972], [102.08857512804867, -29.72511576928488, -25.640813339515038, 2.6971255359099513, 37.88646278694233, 45.322625420017665, -36.999118180105775, -69.20514273929066, 4.0786837591496745, 7.497349102448995], [38.17952449262962, 30.11562275607674, -75.08690656926211, 38.2334521663674, 104.50813020364787, 33.56640338045865, -8.958654268912053, 72.33065447096988, 33.0946275515831, 34.21634888007888]], [[29.596437305666534, 112.56509645904741, 43.731958155394615, 69.38841206731423, 1.3127514937584006, -2.3891385643326406, 12.040479149908993, -19.259845023748923, -24.123516639774547, -34.33295005739206], [71.38702843419487, -15.234024023996692, -3.96491479012476, 8.404052310706613, -19.141014211328642, -7.10999905757958, 69.71918300249656, -18.51233816435921, 83.55243754414904, 10.165764062571819]]], "bias": [[[16.8088454922839], [-24.51973943106816], [-42.00399900686238], [-3.8500452777245124], [11.582600702703012], [27.251610488425808], [-15.94024838111224], [102.54204004473227], [-20.295084074981816], [1.099102111935667]], [[-33.17896858237291], [-7.4242644425476], [-19.174306395782367], [12.925454234017934], [-27.431906744192847], [43.58533132313252], [-12.25897596691145], [30.74770674399431], [-13.624313283762756], [14.22527883422631]], [[-34.153423233161604], [-96.42625876567693]]]}, {"weights": [[[-49.86732924457379, -63.001412651968124, 83.8269847880876, 68.67547312321018, -5.161886191723541, -19.808870197283284, -44.66958311543212, 50.93448210060735], [-19.671073097961635, 17.564196635646567, 25.612429169753998, 6.770018141724928, -107.13890405232446, -91.5368199397186, 32.395518786327806, -23.52948007070048], [6.01561729300942, 82.3284557413762, -18.778708927951474, -78.57547024952977, -2.0623120695319805, -24.267867155069105, 4.385190913324234, -47.748604781571764], [-35.998883416073035, 48.81657681171102, -125.19325376393256, 30.94949343978802, 32.83601385866103, 18.23861903535726, -18.436658601729093, 51.70066997201638], [-124.07698168546126, 61.24463590079344, 63.96141532590711, -24.2784355983291, 4.499419966671987, 1.3802958543214006, -26.969519332655597, -16.022517834370944], [-14.063752235311801, 50.67444829522032, 24.188404928697267, -46.24445704216343, 24.434760548060368, 2.862445387887177, -81.52873222691179, 23.031331996244568], [4.1230003258654175, -14.969134747065793, -25.17744870304427, -0.7783849369498046, -81.5495486937555, -36.522816323235155, 15.119335813451704, 27.485057680635453], [5.743955329105538, -17.550560882027344, -5.218770094046524, 19.345156864969393, -2.9932007617806082, 4.808792366185707, 107.9205590656317, 13.605830870534836], [-26.019523084172153, 81.00924947730202, 24.678429896702504, -85.10970589228774, -4.664372435985349, 5.844437369309734, 82.18995476679936, -54.42120162086364], [-49.897850182443, -65.04341848688948, 23.627725576701216, 12.345481060853952, -1.8786788096631557, -0.5949104988929663, -37.43886844419436, -7.55658679536697]], [[35.61028882164587, -54.360583279668816, -72.29088373398847, -6.9306429358193995, 57.25601077199951, 17.273438453426255, 14.954956065518697, -59.383826339130735, 59.010873290473974, 6.743775361304026], [-40.607572457644906, 13.621258037573286, 59.38365869948781, 14.649283009694333, -9.63731154003219, 23.573610304912272, -19.98444408980186, 6.005923119022393, 45.24994687082623, -59.8425469941332], [-49.58955358517961, -8.513238984340951, 30.098752725149982, -0.16254151509464912, -7.783008199561052, 4.948774133242006, 37.965489390781855, -6.171825946687621, 102.18500146917914, -22.846430487470503], [9.241582128648906, 50.42824914459426, 25.829010224659672, 2.321452814847659, 55.04611219073195, 1.070131959112775, -26.2095741531986, 4.490367908666482, -18.315634660763486, -12.607965828609922], [13.566841346248362, -46.056013282914016, -24.733976804206435, -4.741736671594984, 80.13316250874392, 40.572075172831966, 40.17069483894764, 106.47091627827997, -46.8970270603367, -76.05915358634958], [12.832271384411227, -25.605118180169473, 20.34551354494017, 51.056256001216305, -8.86025049560938, -5.621228258657085, 123.79668331442798, -9.591143081729701, -57.38917780822786, -21.634340491080177], [90.51864441118182, -41.040052182411415, 18.51393758763038, 25.344787526150448, 41.67105144584662, 21.97904626882159, 8.041826627531194, -43.65014679301238, 19.054133517254158, -20.608706955459294], [22.175919602788134, -32.08618296926023, 121.5249007534469, 53.316981373833634, -3.0001404447877036, 91.5539526271798, -9.957635716676167, 43.88695700432905, -61.4824560236436, 17.090923649117375], [98.67397690843556, -29.440321103494316, -28.140773605841833, 3.3442537763700897, 37.023168808585595, 45.95752748602132, -37.84276038996504, -70.47194054920466, 4.586296575289606, 10.292681458710751], [39.349666125803175, 30.66669315784808, -73.55442403885863, 41.682584490096076, 103.47241287517502, 32.08979567870101, -10.60948352053002, 71.21892511346294, 32.56782243594919, 34.19598445194967]], [[17.98753036820775, 102.78975130438826, 40.61023430707184, 57.72932892050069, -3.3125730099030277, -0.8945960222589198, 9.681929808882407, -23.872080059826875, -27.624756904443114, -12.275182468312034], [70.6381206834061, -15.655148671434276, -3.6976161497214175, 8.964214132555893, -20.975434567855995, -7.574957144342994, 71.31783562235123, -19.217325101765134, 84.63760805058746, 12.296245075603705]]], "bias": [[[13.484935800810003], [-14.703022033044554], [-35.46464356794287], [-6.832671037481168], [10.713422727995798], [29.591311724243326], [-15.28928283568543], [102.5863512177067], [-16.923482070634584], [-0.029304730378082233]], [[-41.975018082660775], [-11.545060636848529], [-13.200985789657167], [10.043330854372382], [-25.748668535930168], [45.659486444464115], [-10.964742278097217], [32.334959593733444], [-11.644989914702267], [14.969120811011225]], [[-38.558908034034715], [-95.14919562906864]]]}, {"weights": [[[-48.11869992959987, -61.69841080509211, 84.13811971215844, 67.71126654935667, -5.6025136319685895, -21.442093450268512, -49.36774326678035, 50.64774557991413], [-26.319645518408535, 15.831610322144975, 22.075789913290045, 14.906270548532738, -99.5363949188211, -90.98110840300795, 31.901088883104, -28.22121529777881], [9.832514794984105, 75.57179996705575, -22.99992982013168, -87.20454322427726, -7.500801937869181, -26.36066518455516, 1.5197839739626127, -53.456872094312835], [-33.55478267727706, 45.46770027860405, -110.73996171817942, 24.511650844765988, 41.95308310871386, 15.646113464237272, -21.284316029599342, 47.78764153488986], [-120.7871402643261, 53.21805050345621, 67.16053006662736, -17.278829306338853, 4.874667796838187, 1.4603827893219115, -27.880207234664926, -21.451638991633246], [-13.41459425778952, 51.21742329638894, 24.81506119431024, -45.090832513659464, 23.845453266599318, 0.6612990727272094, -79.30551899953662, 21.532575892166676], [3.109312985226354, -14.685803885357863, -26.100347815082905, 0.5366139696317764, -82.36060351323519, -35.24119871352821, 12.392115213054167, 23.244437338348003], [4.298501365649182, -17.41137376218405, -7.5355019284379114, 18.747308978860445, -4.463383519478979, 6.833989856563104, 103.27810399784069, 12.064387236587635], [-19.471153985308703, 82.55378153612052, 24.591575640279025, -78.85953507359089, -2.6819510780430496, 7.546292309325514, 80.05521845100807, -54.27174542968815], [-53.588718355485554, -72.58633905014399, 25.3476033450016, 22.219022854498654, 2.0494777140241434, 0.6263615288577535, -33.29722887883019, -6.1476285024402655]], [[37.04965529617347, -61.23370003249607, -72.84116138072888, -6.844083979164873, 59.8938803968125, 14.51629446860742, 14.099674852954411, -57.0817892056992, 60.17420967079176, 5.325070683562976], [-42.34672252594385, 13.83163300911016, 58.881285506097164, 17.240205753257726, -8.033337348973987, 23.841372093557514, -21.176329780696243, 3.8651765345502183, 45.98162882833139, -57.74384457614513], [-48.26433239927512, -11.497020231888785, 30.77405169639075, -0.3783662928503339, -10.100351262932438, 4.40969292850264, 36.11355422835264, -6.211809927326545, 98.71679597282782, -22.837543122392532], [4.152626116583261, 68.06613232186615, 14.408032234870637, 3.5460857782366446, 51.459044054443446, 5.15162094351134, -27.978234517959, 1.7510496807680842, -13.457478501189431, -13.292854764859086], [18.160983210229887, -43.349865916051094, -25.637494753179986, -3.2418443676725848, 84.0445156338157, 36.57856689333167, 32.65462531178862, 97.14373722055346, -39.80941725402858, -75.23971830337103], [10.469983225228225, -22.408440408244132, 20.98975114076462, 51.787849259684755, -8.973450541366077, 0.07974720602149277, 123.7773370531265, -17.21265942383236, -47.4947772963197, -18.663762295546945], [97.24053926875287, -41.328171817441785, 30.790183765149916, 19.93479440676348, 46.096502933896176, 19.468004647994466, 19.906871541623072, -45.097402336918606, 17.824999319246988, -22.20090203908869], [24.807655525394736, -31.336207745396848, 128.12764651491838, 57.17366997557753, 8.72955165536366, 82.64783968812229, -7.311138423451933, 48.73302100683401, -59.73054364765796, 16.2453886469511], [96.25425963037009, -33.764876796062445, -22.81869830728919, 10.527675659655394, 31.10702187427007, 51.91406895189311, -44.741773526614345, -60.574904789928425, 1.1178773584419575, 22.170309824459203], [35.88012641839642, 34.17370225026132, -64.34314361021248, 40.65825477053747, 112.57293922691392, 30.451105258991635, -4.736362395935002, 63.88997756085502, 27.863891242672516, 33.90415828525433]], [[26.940066286405813, 103.07119324038001, 54.320821464989265, 68.75150549434287, -6.401938526871291, -7.237019842710898, 13.98152927318733, -12.790653946943566, -23.904248449284438, -33.40584677439469], [75.8472606377881, -12.895601268733746, -11.854507877342291, 12.470884120893167, -22.022927937886433, -13.458583520871283, 69.701457834648, -19.58387813819146, 87.10725637805598, 10.481854676019251]]], "bias": [[[14.188717566422993], [-16.950902277082143], [-35.19520285831367], [-3.5522506083516654], [13.2635691460819], [30.30972662617929], [-13.399936650563008], [104.49317059789767], [-25.071530593452035], [6.110401708161456]], [[-41.7613367298251], [-14.651710928664953], [-16.649271665386753], [14.33131862711408], [-25.49229950990848], [46.33860528873451], [-6.874458409102344], [26.232087826381736], [-10.757784577787051], [14.704441704301063]], [[-40.83661208513467], [-87.21672698199589]]]}, {"weights": [[[-46.86820626859243, -64.52118441306654, 81.24093929274646, 68.47439807755366, -2.0542971269164263, -23.43798199572424, -44.25453460577558, 54.79002755052246], [-18.814949900783546, 17.11723979260785, 20.813112466027146, 14.00845324548199, -102.26779217309841, -90.00950999942937, 29.65868688541825, -28.66786824027245], [14.622022408225478, 74.61199340057226, -19.040673609528838, -88.15918103462873, -3.7101124043611007, -26.596786251135633, 0.4566934821747191, -52.537338575443655], [-31.2349057683654, 51.38563874770191, -120.42365390489076, 29.851673246452098, 37.627341369394024, 12.08194418892785, -19.861447274539604, 48.03336272468823], [-125.79134891397459, 53.76904023721518, 67.00767400052885, -20.14459298233658, 4.724837925149138, -2.4368029831292177, -27.065082474431385, -21.92821525586579], [-14.007981214301727, 54.85772002597715, 24.745320424706193, -48.00762276521369, 24.95311305283599, 2.1221912134906638, -80.98296924611358, 23.19162537601079], [-1.2441228032256102, -16.039497884859014, -20.318580408157782, 7.326465526973511, -81.49849717550316, -43.47118427987206, 14.946852991611426, 33.21268191458432], [5.75447489322663, -15.736633385536662, -9.044333394961459, 19.577357958242146, -4.136766225747825, 7.395170242361765, 108.89733815556997, 10.526702264137722], [-16.36110576039305, 83.36359617391405, 22.33906608875896, -78.67964450772745, -3.3200765502734417, 6.679789225444604, 78.33217023684392, -51.39696761411638], [-55.12900148475401, -72.50293143320835, 21.007540349245996, 19.496847508579183, 3.345501529832437, 0.29005123561749957, -35.75187595424242, -6.50231418691777]], [[37.78867697028344, -56.99732175284502, -72.7026396607091, -10.485694248991358, 54.89070525778409, 17.7100606804921, 14.607149425115384, -62.6547098130917, 59.76235045165417, 7.973217627202436], [-39.75192531020675, 11.882141217177981, 59.80574999754886, 12.10043405392786, -12.216214173177248, 20.31690566398555, -21.058496570944705, 0.7679470195068688, 40.50978232541727, -50.58104103566015], [-51.99777397788988, -3.841049085899466, 22.316764851106534, -3.135371653937714, -17.313342221384694, 3.3943578918221142, 41.3764763546249, -8.76759261931842, 101.96047653168162, -16.303891738131473], [9.751183776115031, 54.07305011672365, 17.471915198980028, 4.08293592918818, 59.886880353699986, 5.672734116200731, -20.96973835530286, -2.288391931929605, -19.75810651648868, -12.379959912564084], [16.27931205334996, -41.31452213806493, -24.22659665018176, -5.081371310134851, 84.11565264822796, 38.00103865811649, 34.06981360833466, 96.15472387716648, -38.89170245743771, -74.78854086866559], [16.189501544392645, -21.357636919462845, 22.527277938616137, 44.71528331322465, -9.56088725242823, 0.7158863092178672, 125.42629095779219, -15.109622446257788, -47.2050717242906, -20.81332640712999], [92.58629132983764, -38.51012397788862, 29.086905025424524, 22.368934409077852, 43.43167615841646, 14.931407213913479, 15.746570604204535, -41.78567479030443, 16.093032244380257, -27.975407837536537], [20.746962946444725, -31.641477383097072, 131.0713040164822, 55.07730097948536, 12.1285743862905, 83.66865547464084, 0.7892452578642114, 51.22527337138242, -56.525096147626215, 14.068892737812495], [97.77995242591136, -35.45561779097867, -21.317822863234003, 10.661017977945539, 29.071605713573575, 54.95346297940007, -44.89613654746, -59.56745562210473, 1.7594257004123275, 24.001653491702186], [33.724194117851816, 34.649591768431556, -62.977389150176016, 40.506797498324985, 110.26087975559685, 30.876417866598743, -5.17615313551108, 65.4193388462076, 28.296937416499045, 32.770380721593135]], [[23.357480923757475, 100.77787514064804, 45.94529960482273, 67.42270342750172, -4.191563843863188, -6.126411412196722, 11.61532081147803, -13.333010096384537, -15.648951556381094, -31.089822570600752], [77.95017212643603, -15.094411162089497, -11.15641676291542, 13.522601520387573, -21.658214623325737, -15.644508879857689, 68.38058507973678, -18.546766842219657, 86.93943526612807, 9.640276636799031]]], "bias": [[[8.450495252031036], [-17.40943304279443], [-37.32336858808898], [-8.928892050051191], [15.073159998579612], [37.10625692351043], [-10.863396376388684], [104.48090401624604], [-25.550098060930512], [3.9775857237983936]], [[-39.45125708686851], [-13.010792457153476], [-18.358451922492108], [13.835495169404158], [-23.59124023757476], [-34.27324323170633], [-8.177965611101401], [26.106733054730512], [-10.544301817680324], [15.079280201938424]], [[-36.03458512699893], [-85.07152035843632]]]}, {"weights": [[[-46.85547167321654, -66.92026394290174, 81.25821988646308, 71.7623550018695, 0.2648349348713571, -23.752516335949387, -48.38044165924499, 51.93783597941159], 