{"generation": 2451, "best": {"weights": [[[-20.688731537162738, -31.633084590960777, 6.901835677891256, -49.59307967092631, 29.22118133749849, 8.761951747761437, 18.257784070678674, 25.24851328492285], [15.545623312506514, -14.049292662192517, 10.270935748842751, 47.73134660448639, 13.051839997183333, -25.079905620247978, -9.699949649157752, 2.9708965752591], [18.7428341957967, -5.960491025612967, -35.6690560810822, 19.059066378612137, -29.319530439843398, 13.233703350223902, -1.0519387782877956, -4.763991472280037], [13.5058134897098, 11.526898471466687, 2.2800224648080687, 10.230593688098633, -4.807452905304013, -12.41359636939959, -9.653328190884887, 19.565542297420457], [19.5267582607368, 30.513591544830696, -17.56526196308985, -28.490489973369204, -6.1759336342690405, -9.903783765825922, -13.989157018795918, 3.7962795256013218], [7.8863843164753495, 12.690698246941947, 18.968454506096297, 11.312953455555903, 28.37961283102461, -8.888214018113871, 39.60282334816523, 5.683587779117413], [-7.740228905045825, -1.6484954912186705, 11.890080164707673, -4.001500149533747, 18.670163379260607, 7.350280554862664, -10.010926500949434, -4.336554224837947], [49.094835076213975, -25.771192996965684, -29.706613586110635, 18.66690954483204, -4.157743064002047, 0.43196430439447026, 7.540044172948145, -6.135858063761893], [-0.9044038177385216, -31.02210698397123, 1.4286582513364623, 27.029700404761517, 2.2360335928027144, 0.6132488491171361, 11.336362533310522, 31.351869118878533], [-2.112003186617058, -3.10797278630461, 8.986043012630223, -1.5199914618241301, 1.4219861470492914, 8.842231158513043, 29.10290295780683, -17.63117185540053]], [[-16.22925103450088, -15.506855315920303, -1.822200100687292, -12.545350984750101, 9.54631511135485, 4.106951263207872, 1.3473735617364337, -2.1377309984161563, 79.85192450728198, -20.394505190397414], [-2.3696754073769513, -0.2175092645850321, 15.611717783652157, -7.934516216625564, 40.25764410046175, -23.278005886348343, -8.601015118629919, 9.296459766587025, 13.24175054874538, 12.178178884459806], [-1.5787916261813741, -11.849584772397636, 17.14995336754449, -5.722076812007908, -13.408045060575382, -6.549086937181344, 27.83057154907304, 2.515488733290282, -7.448522735532854, -7.1593853836989245], [18.709718733216647, -29.5590157392185, 4.406641216227242, -14.852849617179233, 10.971273291021854, 1.3858480074883712, 9.146249841052297, -7.827085179887988, 0.42738028440889325, -31.355423831289077], [-13.848202575791284, -3.061068887350829, -14.38885808097994, 22.062987635531297, -21.572362200121628, 2.0581728840974156, -22.221986316293762, -12.878765517393298, 15.368262555897498, 26.234699190561663], [-4.6721488739502455, -20.826237418724336, 3.985319103026677, 14.466131067710318, 3.767518356126411, 15.015856406235944, 7.517773569012584, 2.1694888235878547, -42.67178869745052, -10.719798246213745], [0.3159221932743481, -4.894886573188327, 0.4798251845126162, 6.955583640763687, 18.801190721478086, -13.412897556919045, -7.431513338804591, -35.408619415640445, -5.886861632320734, 7.021855717900381], [12.31123695598076, 20.350645545194055, -15.848938379009962, -0.6199780274064024, 4.851875616358101, 15.299077388209609, 46.89352222931976, -17.63114206263985, -1.3435373838342424, 14.752546827160653], [15.399149813283358, -32.08467139793226, -0.9124981511684236, 21.579131382104727, 20.927394491342035, 2.1722978285802492, -10.734046279981852, 16.225363764754256, -1.7344275140053496, -18.876423212811062], [16.23937031935552, -10.919221842918741, -8.98034928456595, -11.720611307371659, -38.48030170760623, 4.441577056269689, -7.39570277843957, 27.068194949327495, 2.7926831701544517, 2.167145627023486]], [[-36.9958431082306, -4.272349299765536, -24.219428918354737, -20.902223766932092, -40.78387831374416, 51.34446001998237, 5.099388569851337, 7.869302285944253, 18.137486344020665, 1.5631363842296833], [-8.103259790015029, -19.927342334858015, -15.857544285972203, 4.851087472945627, 21.471241042268467, -8.372008855822841, 2.0943092086166564, 29.30780163104221, -14.870560255335961, -27.02911760851839]]], "bias": [[[11.058734956781162], [-13.558719456264729], [-20.199649160995794], [5.900676546341217], [-14.487614147313016], [18.00402089209332], [-8.417835629158745], [4.637129656400014], [-29.83273220643245], [-10.68011198959593]], [[-10.614412106639021], [-27.08036124786509], [-37.56221118231025], [-22.102760286600827], [4.412640400591853], [15.157223561416126], [21.58384504658631], [-27.13573190825398], [7.39940347849422], [-18.31697000432329]], [[0.7602161696550236], [1.0680641134685682]]]}, "all": [{"weights": [[[-20.688731537162738, -31.633084590960777, 6.901835677891256, -49.59307967092631, 29.22118133749849, 8.761951747761437, 18.257784070678674, 25.24851328492285], [15.545623312506514, -14.049292662192517, 10.270935748842751, 47.73134660448639, 13.051839997183333, -25.079905620247978, -9.699949649157752, 2.9708965752591], [18.7428341957967, -5.960491025612967, -35.6690560810822, 19.059066378612137, -29.319530439843398, 13.233703350223902, -1.0519387782877956, -4.763991472280037], [13.5058134897098, 11.526898471466687, 2.2800224648080687, 10.230593688098633, -4.807452905304013, -12.41359636939959, -9.653328190884887, 19.565542297420457], [19.5267582607368, 30.513591544830696, -17.56526196308985, -28.490489973369204, -6.1759336342690405, -9.903783765825922, -13.989157018795918, 3.7962795256013218], [7.8863843164753495, 12.690698246941947, 18.968454506096297, 11.312953455555903, 28.37961283102461, -8.888214018113871, 39.60282334816523, 5.683587779117413], [-7.740228905045825, -1.6484954912186705, 11.890080164707673, -4.001500149533747, 18.670163379260607, 7.350280554862664, -10.010926500949434, -4.336554224837947], [49.094835076213975, -25.771192996965684, -29.706613586110635, 18.66690954483204, -4.157743064002047, 0.43196430439447026, 7.540044172948145, -6.135858063761893], [-0.9044038177385216, -31.02210698397123, 1.4286582513364623, 27.029700404761517, 2.2360335928027144, 0.6132488491171361, 11.336362533310522, 31.351869118878533], [-2.112003186617058, -3.10797278630461, 8.986043012630223, -1.5199914618241301, 1.4219861470492914, 8.842231158513043, 29.10290295780683, -17.63117185540053]], [[-16.22925103450088, -15.506855315920303, -1.822200100687292, -12.545350984750101, 9.54631511135485, 4.106951263207872, 1.3473735617364337, -2.1377309984161563, 79.85192450728198, -20.394505190397414], [-2.3696754073769513, -0.2175092645850321, 15.611717783652157, -7.934516216625564, 40.25764410046175, -23.278005886348343, -8.601015118629919, 9.296459766587025, 13.24175054874538, 12.178178884459806], [-1.5787916261813741, -11.849584772397636, 17.14995336754449, -5.722076812007908, -13.408045060575382, -6.549086937181344, 27.83057154907304, 2.515488733290282, -7.448522735532854, -7.1593853836989245], [18.709718733216647, -29.5590157392185, 4.406641216227242, -14.852849617179233, 10.971273291021854, 1.3858480074883712, 9.146249841052297, -7.827085179887988, 0.42738028440889325, -31.355423831289077], [-13.848202575791284, -3.061068887350829, -14.38885808097994, 22.062987635531297, -21.572362200121628, 2.0581728840974156, -22.221986316293762, -12.878765517393298, 15.368262555897498, 26.234699190561663], [-4.6721488739502455, -20.826237418724336, 3.985319103026677, 14.466131067710318, 3.767518356126411, 15.015856406235944, 7.517773569012584, 2.1694888235878547, -42.67178869745052, -10.719798246213745], [0.3159221932743481, -4.894886573188327, 0.4798251845126162, 6.955583640763687, 18.801190721478086, -13.412897556919045, -7.431513338804591, -35.408619415640445, -5.886861632320734, 7.021855717900381], [12.31123695598076, 20.350645545194055, -15.848938379009962, -0.6199780274064024, 4.851875616358101, 15.299077388209609, 46.89352222931976, -17.63114206263985, -1.3435373838342424, 14.752546827160653], [15.399149813283358, -32.08467139793226, -0.9124981511684236, 21.579131382104727, 20.927394491342035, 2.1722978285802492, -10.734046279981852, 16.225363764754256, -1.7344275140053496, -18.876423212811062], [16.23937031935552, -10.919221842918741, -8.98034928456595, -11.720611307371659, -38.48030170760623, 4.441577056269689, -7.39570277843957, 27.068194949327495, 2.7926831701544517, 2.167145627023486]], [[-36.9958431082306, -4.272349299765536, -24.219428918354737, -20.902223766932092, -40.78387831374416, 51.34446001998237, 5.099388569851337, 7.869302285944253, 18.137486344020665, 1.5631363842296833], [-8.103259790015029, -19.927342334858015, -15.857544285972203, 4.851087472945627, 21.471241042268467, -8.372008855822841, 2.0943092086166564, 29.30780163104221, -14.870560255335961, -27.02911760851839]]], "bias": [[[11.058734956781162], [-13.558719456264729], [-20.199649160995794], [5.900676546341217], [-14.487614147313016], [18.00402089209332], [-8.417835629158745], [4.637129656400014], [-29.83273220643245], [-10.68011198959593]], [[-10.614412106639021], [-27.08036124786509], [-37.56221118231025], [-22.102760286600827], [4.412640400591853], [15.157223561416126], [21.58384504658631], [-27.13573190825398], [7.39940347849422], [-18.31697000432329]], [[0.7602161696550236], [1.0680641134685682]]]}, {"weights": [[[-16.576089755723213, -28.15349758787936, 11.958599990477987, -51.32515332164424, 31.310979470044025, 13.11792529169325, 16.011571042078383, 24.97960230696454], [20.237860793026808, -9.404163528658747, 12.669566062744321, 45.88331148161515, 17.682451737402005, -28.057116731400992, -5.656304474725898, 9.886377850403008], [13.22008278650071, -0.6259761156467589, -34.8922681245752, 20.439066937484267, -32.54201924850263, 13.268417409880765, -0.1982575163068133, -1.1372754420747182], [8.928281797521931, 6.23782054665456, 3.405790817099654, 7.219151939981807, 5.347873041087838, -8.823206770781814, -16.2842428325435, 15.230417046811512], [19.559907760218405, 29.785529881406354, -14.851174891102945, -28.443635806020104, -3.856927228189699, -12.657524179657331, -7.591537858190648, 4.687252054344767], [6.94962253810735, 13.194051180286506, 19.565079717914774, 11.483364947743583, 28.37961283102461, -7.088233830366121, 39.95739970495882, 6.83653105549506], [-7.443843685299199, 2.6809894866146298, 10.03854456620304, -4.001500149533747, 20.801479247858204, 8.218302774293502, -10.249500085849702, -4.892931564157885], [49.301332807274854, -27.391958852945354, -29.821616492344223, 19.010130961792598, -4.3514355040237795, 0.43196430439447026, 7.923630479800919, -5.930725995376585], [0.7045361255954181, -31.26792444135174, 0.036333412220928674, 26.414826397942605, 2.2360335928027144, 0.5490290177605194, 11.853418016660125, 31.351869118878533], [0.2889622159695231, -8.674066025900993, 9.058714219172224, -1.591820730567543, -1.254919527904741, 8.10834073203031, 23.795467533071992, -17.961253359149847]], [[-16.03357930272183, -17.727506537956668, -1.532401692726367, -9.591769682133247, 3.2084743271993927, 13.752954730779356, -0.34800451907278995, -7.615092044911777, 80.49195550495163, -13.188921852233191], [-1.7511547901812372, -0.6441215026814452, 12.493579103494726, -9.017351687079364, 34.87239854698421, -17.768703233486697, -7.514370154664603, 6.910857200944799, 18.14084105380667, 18.276848952655993], [-5.900657569190866, -8.583616142965347, 14.798700209060527, -7.948159067625843, -16.089367315201354, -4.785164738792687, 25.223193133752755, 5.606699343453733, -7.44528623911183, -8.688237431267677], [13.324402351629686, -31.752914786994687, -1.0477909826969767, -17.572540613954697, 11.28076575343638, -2.796976894453684, 9.959461203936684, 4.158172781267389, 6.61375211078608, -30.612273144023906], [-17.175689094435207, 0.19388747588136956, -12.483337210461501, 18.10024969430959, -21.204451357465146, -4.2916619784439405, -27.481322082147468, -8.816889523407294, 18.117052053974394, 29.591792024439332], [-5.0249700099967, -22.704031844400763, 1.6445953864096818, 16.56050208544518, 0.1415188854286834, 6.4955433717241, 8.738126233480923, -1.2632900866226193, -46.151920756472094, -6.073023601617744], [-0.1506718472500856, -6.128713528637259, 0.0874231122541671, -3.128492759202335, 21.585782187217003, -4.19815988771426, -7.426469221515578, -46.80411079020985, -12.216612169293239, 10.020800010666647], [17.588340473260708, 19.86274177688049, -16.932739329940315, 7.138595263824409, -1.200486624624601, 12.749012514157421, 48.263327121831956, -21.831529890078293, 0.32168798688622946, 6.642003604240896], [12.8361311090967, -31.94710527851576, -4.847042272013329, 22.044923962973066, 21.51994925991719, -1.4879175975361925, -12.182088922992664, 14.16955032448277, -0.9116352893057291, -16.424659849762016], [15.63811964505003, -5.97708565088276, -1.8810580504899335, -17.623820369906067, -41.243346481304506, 4.843416750683705, -8.184415610099975, 25.85382845407601, 1.8449852144588723, 1.145561417388826]], [[-36.95392753874699, -5.308627391801249, -23.08333442492267, -20.364463139246155, -40.78387831374416, 52.96480040999051, 5.359534327516716, 6.798167899725333, 16.542355689210037, 1.5631363842296833], [-4.3524191802541425, -16.7699851378549, -16.65397267051025, 6.078160828458475, 20.74641850178672, -0.18553457123146555, 0.7160044949878092, 30.29592674279974, -11.571907960297619, -28.71916935466119]]], "bias": [[[12.063536080548895], [-12.670732805659343], [-21.566623532368315], [2.671972629600158], [-4.933748880454795], [24.066973647495008], [3.0758916373275462], [6.554143389850915], [-27.614712558740273], [-10.71424530961768]], [[-21.210217506205158], [-30.35699255286154], [-42.231240660028455], [-15.334955049481781], [10.155600260721156], [16.774422535103323], [26.223352869366387], [-25.875400994806935], [6.835180998246058], [-14.723075129587833]], [[0.8925240255653734], [-2.9764999098648066]]]}, {"weights": [[[-22.74865182880441, -32.971577229743204, 6.854827359254658, -52.888075242589636, 28.643058036765606, 15.178863076106925, 18.81134159515783, 23.805977853380746], [12.535140461335395, -15.037769656114326, 11.766375585919192, 45.34709570326923, 13.61848751325272, -26.603677145772647, -4.791135183198421, -0.0056470324712587505], [21.726593202321986, -8.02117575993683, -34.49944016770189, 17.109432445447155, -27.782992778025182, 14.285136508750526, -5.145308737718552, -4.709228712966347], [12.060480662154237, 2.590419460542827, 11.677468669784197, -1.915883109249282, 0.7140014764066911, -3.819978213774351, -11.847127394008984, 14.446409934063125], [17.27507709643193, 27.48509515980021, -19.471440497669, -29.476390902592428, -8.53691919461705, -4.9594510954043844, -10.057528843872193, 4.049510419256108], [3.130174580169304, 4.9417281459566995, 17.831522408681465, 4.557843266669609, 24.38577107110177, -12.151314503847015, 38.99860335612663, 7.038614173695434], [-8.829222602133179, 0.06102701014392742, 11.828815588828888, -7.776050679759195, 20.798013632682206, 9.767286857346285, -14.232249536320557, -6.08635379238745], [47.73374476788626, -18.88273375752771, -30.860270218181615, 17.26932351979796, -5.83158501966247, -0.08955356398704406, 9.865930880752254, -7.874539337538268], [1.06343187387898, -29.835918821663274, -3.3188113672035, 25.771778250855707, 0.5725057574043753, -0.025574801874117814, 9.70303072863662, 29.550678235737433], [1.0902993794884424, -8.110146129759231, 9.851332684829261, -1.249626756816542, -0.7557925190497778, 3.7075228732121976, 28.40274404865178, -18.912922731602674]], [[-14.94915954597249, -15.224824277978842, -0.604833167521158, -11.7625612158629, 7.81656134925445, 3.694988762020418, 2.164649281037215, -4.789832409440154, 81.11883456973943, -21.39426423254204], [-0.2643678616857712, 4.005140726607851, 9.509199081011898, -8.623172690672446, 38.195907664079975, -22.56299668420593, -9.70887634761394, 8.924402997838332, 16.192001040130407, 15.067978466881186], [-10.532594663389844, -14.49522888693797, 16.110115783865297, -3.2296144950963748, -13.449705037456855, -9.61867395005112, 22.97206866314294, 1.7010823928690577, -1.8098585574965655, -10.65320709227811], [27.611935567671186, -31.23485477862017, -4.427776157356377, -20.44078127361504, 13.054625690092763, -3.1114995279560045, 5.124764092276884, -0.7484020256746767, 7.188332681552441, -31.63109243349531], [-18.53273880693604, 0.09955552037554022, -13.888767711408663, 16.354289666925673, -15.935845690590478, 3.4330071378421088, -26.601448961178402, -7.2185516146244995, 23.189817019116663, 35.82215242330946], [-8.146523069942518, -20.126353629521137, -2.00769836085245, 16.689723765283127, 3.0142881953370138, 15.700970421217596, 5.282088766364895, 3.7233759028827835, -34.77806321457706, 0.07588279020866784], [-4.99201412059435, -4.086722097271851, -4.381045067898687, -9.476373985337363, 22.254311886167955, -9.359007421052826, -8.96103313954195, -43.4200616973609, -10.480321266252286, 14.357529677817654], [7.574544522367558, 18.560078713791963, -9.182461657468385, 0.4148903692573106, 4.535559376219064, 10.724543064356832, 44.35196230147209, -19.301554129496733, -0.7912657574786055, 7.282786773984733], [14.274744384215532, -37.76835068797782, -3.747371532475659, 22.456881092356973, 19.5474083204546, 2.2228245031782823, -18.166129373586887, 16.73962272487849, -0.03163010178434553, -14.341618910993335], [18.279648644132475, -7.428799340678069, 0.24643903818925827, -16.559670449015233, -38.18821377724059, 4.847994430459292, -9.704430564026296, 26.818072715574434, 0.8730018567602781, 4.074556876595591]], [[-37.45509769383102, -1.1200635581385774, -28.26927046042948, -18.637422305957642, -39.09700671783167, 49.41188699531292, 11.972557234424965, 3.8508018103578814, 20.2456013938377, 5.521298598758809], [-3.1344696265462915, -20.85038167845, -15.757630438773596, 7.201716343280175, 24.250221017707112, -4.627812117734369, 3.5151432854812636, 30.611623990914367, -17.07081327105368, -29.238797289700816]]], "bias": [[[4.377754142202642], [-16.260579299182993], [-24.70994414230277], [5.306380922322088], [-15.977205295058022], [18.11873440024983], [-10.684178212633299], [6.163997880253361], [-28.22282722967468], [-9.01882107736135]], [[-11.465520579159179], [-26.358578596010357], [-30.84271848106215], [-14.922795423314533], [2.1816425682991145], [16.443246276712713], [27.51584689970583], [-29.93234959845869], [10.349180324884962], [-20.86717977767736]], [[-3.800360599511616], [-3.577903443218914]]]}, {"weights": [[[-17.19042117055725, -30.507686383113374, 2.9368028367312213, -50.22380013200993, 21.846909507466943, 17.574508830267042, 16.041638991042998, 20.94515950124729], [13.59017327502993, -9.386364668089035, 10.032982252495527, 57.38622263904293, 12.163713685175415, -23.8813281323459, -1.7791733497012658, 5.293376102569788], [15.553262795677702, -3.0302391904836803, -28.306665683096607, 18.42863940379538, -30.366483229065565, 7.4811772351416295, -3.0691204843075415, -0.5705718601637968], [5.357647572156739, 9.654740000330431, 7.862214518774785, 9.374524908127881, 0.21378508417402364, -15.941655717366743, -14.863959400163095, 11.788135993543749], [17.27507709643193, 26.07489015105358, -20.289993301168995, -29.476390902592428, -8.53691919461705, -4.054604170441454, -10.056235703676718, 4.049510419256108], [3.865073950353233, 5.162012879587993, 17.831522408681465, 4.557843266669609, 24.38577107110177, -12.151314503847015, 37.992017792707706, 7.038614173695434], [-7.372733084593543, 0.13407130804740547, 11.452894602816265, -7.776050679759195, 21.624353369953795, 8.500590308890992, -14.232249536320557, -4.865883759554622], [47.73374476788626, -19.261984211575097, -30.860270218181615, 17.169002113039245, -5.83158501966247, -0.03545140254544979, 9.633024069740022, -7.874539337538268], [1.06343187387898, -29.835918821663274, -3.640586323007584, 25.771778250855707, 1.4883571880425863, -0.21458180970846757, 11.683097793039174, 31.408669819317172], [1.0902993794884424, -8.110146129759231, 9.851332684829261, 1.0276407130070768, -0.7557925190497778, 3.7075228732121976, 27.35813251824724, -18.912922731602674]], [[-16.051304591333594, -14.848064734785735, 1.9307587352764344, -12.786720970411503, 7.81656134925445, 4.796506041862978, 2.1817673676231246, -4.705555988765528, 81.11883456973943, -21.39426423254204], [-0.2643678616857712, 3.9566376215135333, 10.217674408094094, -8.623172690672446, 38.195907664079975, -21.559395619436422, -10.746736504173832, 8.924402997838332, 16.192001040130407, 15.067978466881186], [-8.534687111719087, -14.49522888693797, 16.110115783865297, -2.670990756671116, -11.544962232512201, -10.813361243992587, 22.97206866314294, 1.7010823928690577, -1.8178602407957083, -10.482692167934252], [27.759355403647326, -31.23485477862017, -4.427776157356377, -19.930952440100608, 13.054625690092763, -2.9524180041725425, 5.292202426081302, -0.7484020256746767, 7.188332681552441, -31.63109243349531], [-18.53273880693604, 1.250425338337944, -13.744557067220839, 16.354289666925673, -16.097380874525825, 3.4330071378421088, -26.601448961178402, -6.069591605582736, 23.189817019116663, 35.82215242330946], [-7.634867648253711, -19.86135296907701, -1.5467932841640601, 16.689723765283127, 3.63054961266344, 15.700970421217596, 2.595113874212297, 3.4167073449603227, -34.368724758495624, 0.07588279020866784], [-4.99201412059435, -5.482340152775538, -4.381045067898687, -7.550701215388388, 22.254311886167955, -8.38201305050149, -10.23129387662148, -44.82229628721302, -10.480321266252286, 15.872146931931225], [7.574544522367558, 17.43189455966405, -9.096764943820771, 0.4148903692573106, 4.535559376219064, 9.81215035836663, 45.4428693457904, -19.21397012273734, -1.0143839264346606, 7.73246290044876], [14.274744384215532, -37.76835068797782, -3.747371532475659, 22.158845729064726, 19.19023784517846, 3.498017399888098, -17.151336924128675, 16.048037136260135, -1.3477296527565032, -14.341618910993335], [18.279648644132475, -7.428799340678069, 0.46838298769029874, -16.559670449015233, -38.303486024374536, 6.5242584572580125, -9.704430564026296, 26.818072715574434, 0.8730018567602781, 4.074556876595591]], [[-38.0817804583102, -1.3501211664699633, -28.102482159029723, -16.482868114417155, -39.622526821246765, 49.104636271133906, 15.318618757636928, 4.7340649904017695, 19.50590502935463, 7.973332643836901], [-3.649484606733773, -20.85038167845, -15.757630438773596, 8.855284536562259, 24.250221017707112, -4.627812117734369, 3.7306485528269815, 30.218390452681312, -17.07081327105368, -29.238797289700816]]], "bias": [[[12.285794262512862], [-14.483970492396587], [-25.18836210599735], [5.306380922322088], [-15.977205295058022], [18.11873440024983], [-10.684178212633299], [8.059280737760043], [-28.22282722967468], [-9.01882107736135]], [[-20.739685703612267], [-24.864990102670347], [-35.067579330075894], [-24.822461587532086], [2.1816425682991145], [16.603091680966557], [27.51584689970583], [-28.186034171049798], [10.532312462724935], [-20.994425402391993]], [[-3.800360599511616], [-3.577903443218914]]]}, {"weights": [[[-17.668834285258338, -25.52495503485389, 13.992555704087984, -48.82766712839395, 33.080600446880524, 12.260739471457558, 15.76635521466373, 22.495941194125948], [17.20949627875746, -6.074145609110033, 12.128778052468858, 56.37064620420063, 12.613974375573388, -25.60403105437711, -3.765647887473301, 5.2396758312405325], [16.781200026588827, -1.9012473846517148, -28.68050382399556, 15.392497245927995, -32.375807528015024, 10.207527609308242, -2.570973105198909, -3.9581854520886637], [9.453897137356503, 9.505011857889556, 3.350701370804482, 7.663936175646815, 2.7200485002474517, -6.069069582301031, -19.468816790558364, 17.330058906656664], [17.981452233819542, 24.90896870556452, -13.685889492176521, -28.312564389700004, -8.439890455217762, -13.26239866410147, -8.914063493726086, 4.665400811357512], [6.94962253810735, 12.23384411088315, 19.565079717914774, 10.082588343830352, 28.37961283102461, -8.40034549401641, 39.60282334816523, 6.83653105549506], [-7.702938828707541, 0.5939525683935856, 10.03854456620304, -4.001500149533747, 20.022711142665965, 8.157128774529625, -10.249500085849702, -4.336554224837947], [49.301332807274854, -25.38138989418611, -29.821616492344223, 19.010130961792598, -4.3514355040237795, 0.43196430439447026, 7.540044172948145, -6.313398258789411], [-1.2060015621103297, -31.02210698397123, 0.036333412220928674, 26.414826397942605, 2.2360335928027144, 0.5490290177605194, 11.853418016660125, 31.351869118878533], [0.3189239183308262, -8.674066025900993, 10.44723104690102, -0.7580853696490776, -1.254919527904741, 7.0396402237145095, 25.19883689386141, -17.961253359149847]], [[-11.541403080191742, -16.2811792644471, 2.5117289503959883, -13.56825558625864, -1.3281296033864167, 8.481227687894975, 0.6539807653331875, -10.502173717724585, 79.09018846510334, -15.226091601926244], [-11.002756598009313, 0.27470383953835814, 8.283586908632168, -7.021802464732838, 44.82759978998872, -22.65662106821906, 0.8019208027800255, -3.246885672792615, 16.97362460667226, 9.877475684855751], [-0.6634184283200996, -10.26802663236953, 18.750133118235862, -5.255903086497016, -13.055908420198286, -6.549086937181344, 27.83057154907304, 3.1938714129370713, -6.255147072095951, -7.1593853836989245], [19.1028174984498, -31.16953785959488, 4.346489859047226, -15.847946070404669, 10.971273291021854, 2.911048085149874, 10.986763949563779, -7.482617631853271, -0.7685367576502311, -32.98347530936754], [-14.777105034491989, -3.061068887350829, -14.168083842699959, 22.062987635531297, -21.572362200121628, 0.05905180704173185, -22.221986316293762, -12.720955104252127, 14.007363633653231, 26.234699190561663], [-6.1914574189079215, -20.19476496106923, 3.985319103026677, 14.238324708377426, 5.684545316041826, 14.246612214012238, 8.634842097252799, 1.988857901064419, -41.94366037397933, -9.846050729087672], [0.49468271839687006, -2.4467944763184706, 0.38201817201603944, 8.859431036353143, 18.986063981899044, -13.412897556919045, -6.6248214612535055, -35.408619415640445, -6.1352361029278475, 5.687653968902376], [17.588340473260708, 19.86274177688049, -16.410787540633418, 8.668505897789293, -0.7466983692892004, 12.749012514157421, 48.263327121831956, -21.996999156494102, 0.32168798688622946, 6.642003604240896], [12.773417621560187, -31.94710527851576, -4.847042272013329, 20.64400580804955, 21.336857152783065, -1.4879175975361925, -11.498410343117937, 16.075540713594698, -0.09246624973959505, -16.098524922521957], [15.63811964505003, -6.807286318802627, -1.8810580504899335, -17.623820369906067, -41.243346481304506, 4.843416750683705, -7.895898949463419, 24.80643684864595, 1.8449852144588723, 1.2731937866608032]], [[-36.95392753874699, -4.272349299765536, -23.968134892638453, -20.902223766932092, -40.78387831374416, 51.34446001998237, 5.359534327516716, 6.798167899725333, 16.542355689210037, 1.5631363842296833], [-4.3524191802541425, -17.50586288899632, -16.65397267051025, 6.42490405484669, 21.73663604760762, -1.9493380475377524, 0.11238976015772617, 30.854313934223825, -12.958367939656595, -27.93423519104133]]], "bias": [[[12.573536039334732], [-11.89073673790348], [-21.636010523739657], [5.883866712450406], [-20.281179991425983], [14.772374389916946], [4.036321692321721], [6.905287201303144], [-27.914055281087666], [-10.71424530961768]], [[-11.016605075474851], [-22.239264457156814], [-39.478031555857754], [-23.27222433698168], [3.019350404361033], [13.017733977511213], [22.678710475897205], [-26.894399216145437], [5.140067896089398], [-13.157862025231216]], [[-3.7579530783570054], [-2.9764999098648066]]]}, {"weights": [[[-17.32951871384004, -26.35146407799808, 14.023949792589292, -49.25755383641167, 31.024762314504844, 13.014388505456433, 15.879712768904307, 27.808585923305444], [19.450105013983467, -12.81566837265023, 13.38835623199026, 44.0036555745685, 17.858987401073048, -26.974417551986164, -5.526831319148362, 5.234318174931394], [14.176500153644792, -6.320028732536489, -35.649064141639016, 17.86657981839571, -26.863579655703024, 13.056912891720343, 0.38557170736224133, -3.1866780053822557], [8.764762072051228, 2.4875081370171754, 8.838869919606214, 8.099890352147334, -2.1291461890829257, -14.751127170631877, -16.49023652697829, 12.012762442811459], [16.923267331441593, 25.98330050465663, -18.956360193693783, -29.006634417336077, -8.53691919461705, -4.9594510954043844, -12.18357101363031, 4.049510419256108], [3.8987171385525294, 5.433900130939519, 16.46282780873807, 4.557843266669609, 25.732556026661264, -13.177074626868805, 38.0822386349997, 7.0195464575736235], [-9.163204843766591, 1.8687514468081399, 11.42104092090065, -7.035330605507238, 20.798013632682206, 9.76034505874798, -14.599987975568151, -6.08635379238745], [47.73374476788626, -17.444916850664377, -30.892250351339637, 17.26932351979796, -5.83158501966247, -1.7964269292688235, 9.946486506269888, -7.235934631395591], [0.2643011148520854, -29.835918821663274, -3.880211419844259, 25.771778250855707, 0.15270044284864243, -0.24316095663290604, 7.456805247236984, 29.560680800033047], [0.9766970977740357, -9.416410321236919, 8.397782119209207, -2.7061989194494527, -0.7893930745652585, 3.016134388164531, 27.888900920184163, -17.59323442130408]], [[-15.881325091877242, -16.83056794732042, -0.8798293437442194, -11.7625612158629, 8.656262236944693, 4.326078437301368, 2.164649281037215, -4.789832409440154, 82.31380017463177, -21.814049052098095], [-0.06157804840733391, 5.091816712097737, 9.922255913082543, -8.405479527571321, 36.164752976410625, -24.711092049681177, -7.7078828753961925, 6.881809520623494, 16.308821747577806, 13.746832976718508], [-10.02446234157492, -12.92192401590814, 16.165234904326947, -3.2296144950963748, -13.545647049240007, -10.417235288076768, 22.97206866314294, 2.5350701391726105, -1.6188827002106798, -10.65320709227811], [27.611935567671186, -31.23485477862017, -4.427776157356377, -20.44078127361504, 12.068447196974653, -2.7276776612558455, 6.485545072353712, -0.7484020256746767, 7.188332681552441, -31.63109243349531], [-19.08398859088382, -0.008920450272592972, -14.814844642489797, 16.354289666925673, -15.935845690590478, 4.46855132973585, -27.578568374746265, -5.941028403788126, 24.480989570579073, 37.285606019944105], [-8.146523069942518, -22.5761526298861, -0.6541307601399456, 16.689723765283127, 3.1028055528542815, 16.20866185423721, 6.736594574638974, 3.7233759028827835, -35.42797134043569, 0.07588279020866784], [-4.99201412059435, -4.626243708115882, -6.388541305749802, -10.504044614777387, 20.761905053612168, -9.359007421052826, -8.96103313954195, -42.24878731854217, -8.863155161205855, 14.357529677817654], [6.951416721916765, 19.37866882451031, -6.966117120159938, -0.26397091545193796, 6.306072640420735, 10.888002877037202, 43.49668477701587, -17.547919938739913, -0.5497408356906952, 7.549815786062182], [13.668501446748618, -40.19407484950635, -3.2016237427476866, 22.72332453207365, 18.089531329756447, 1.9240197357451398, -18.166129373586887, 16.73962272487849, -1.9970308225907274, -13.488069330855843], [18.8399781545641, -7.428799340678069, 1.5126274458288902, -16.39677674733424, -38.83769631384916, 4.847994430459292, -11.283451881628686, 26.818072715574434, 0.8730018567602781, 3.1033883268418663]], [[-39.72823621333576, -1.1200635581385774, -28.978370372890843, -17.726285483465887, -39.09700671783167, 50.207714101513425, 12.754416793896207, 3.8508018103578814, 20.64421243848339, 6.310921738452607], [-2.685078432135812, -22.13013703886312, -16.530608490257617, 6.683789436396992, 24.250221017707112, -3.8978476420908814, 4.151306741457973, 30.611623990914367, -17.234445997862917, -27.376551755557838]]], "bias": [[[12.486771253299361], [-12.181446152242627], [-22.63722641544778], [1.0307447553450306], [-15.977205295058022], [17.629867269479615], [-10.684178212633299], [5.554627466273959], [-29.157068876921283], [-9.308549493613183]], [[-11.496733233101917], [-22.239264457156814], [-39.478031555857754], [-23.236959247163277], [1.4679560741105995], [16.71844443912609], [25.636227444226684], [-30.472578853614053], [10.738096712522873], [-20.642199245840477]], [[-3.800360599511616], [-3.5999923824036064]]]}, {"weights": [[[-18.527198084327893, -28.359311363228876, 15.939067462313998, -50.156000401533866, 31.747906500744328, 12.3760632441314, 15.76635521466373, 22.439151256893755], [15.309764491362138, -6.889143544390942, 11.228937425347127, 57.044890773366134, 12.639849092778991, -24.481125799220877, -2.449939453495128, 6.010052914797535], [17.431414328829, -1.9012473846517148, -27.872261400589892, 15.758699148276609, -32.01654758222984, 10.207527609308242, -4.310753314670477, -4.129495907115069], [8.254583970878558, 9.877568680074132, 3.350701370804482, 9.880729427103608, 1.0635130287029977, -7.722073110686278, -21.411726362515594, 19.087844166787], [17.981452233819542, 23.714856619616263, -13.912110704336115, -27.963210234085697, -8.439890455217762, -12.13624254120864, -9.91649293379086, 5.664760892075448], [8.436118084181603, 11.811578780968029, 18.968454506096297, 8.047163880936179, 29.133404035138078, -10.335833761527505, 39.72917971806468, 3.029545551102789], [-6.890291448746485, -3.06912457706868, 11.720184379440443, -4.001500149533747, 19.362362679233158, 7.350280554862664, -11.495390697798529, -4.976142485679978], [49.094835076213975, -25.771192996965684, -28.609868264662477, 18.808352617938198, -4.173579862598158, 0.43196430439447026, 7.337114882072242, -5.879950767257337], [-1.9785028882804245, -31.918853517899123, -0.9007208133960837, 25.998380011093992, 2.8239237910002206, -0.07160730945569282, 12.638703605627102, 30.847397412564348], [-0.5243260226372761, -1.3669850682033182, 8.986043012630223, -1.7534865159461055, 1.4219861470492914, 9.649517661564122, 28.993520852808413, -17.63117185540053]], [[-11.541403080191742, -15.241124222964693, 3.728937493174037, -15.952493809748235, -3.831135171107709, 8.597161749441915, -2.325743000362878, -11.413497368740785, 79.44874644527683, -17.660939684540804], [-11.002756598009313, 0.4509673623417091, 8.219644057857936, -6.420534564758152, 44.3955394639764, -22.663250674545658, -2.5793898727269298, -2.257135071670723, 15.225577661199502, 8.46605287735303], [-0.6634184283200996, -11.849584772397636, 17.478508478211065, -5.722076812007908, -13.408045060575382, -7.897252998935171, 28.53378388596815, 5.9405806087079025, -8.241659796204237, -7.1593853836989245], [13.647250870146411, -31.51743358118578, -0.834765810332759, -17.862093640132503, 11.335924646243212, 0.3594221358012647, 11.28921170782238, 2.792787870821302, 4.571435059731024, -30.288669310841094], [-17.942841240177493, -0.840660405642923, -15.343959526002106, 19.55736002670231, -19.483397789592615, -5.139535096628806, -28.453188083550174, -8.816889523407294, 18.117052053974394, 29.591792024439332], [-3.142336461310498, -21.304728449962557, 1.8553126248014944, 18.9878890946833, 4.751726339058431, 14.490111750825355, 9.463439933927484, -2.013027584288646, -45.28872552733414, -6.90151363615012], [-3.0269937410530448, -11.625882623420887, 4.888982181716269, -4.071308012750512, 20.11295192207111, -5.161173826512812, -3.2281903304323034, -43.308521285702405, -7.120464458754472, 12.522702327916965], [14.483744232295983, 18.31421897242245, -16.676811547670443, 7.397554016588912, 2.502632593068362, 12.334404658229385, 47.74291149324133, -21.493461162738416, 2.319428648525056, 7.575713761013406], [15.399149813283358, -31.994267365543134, 0.2260507747626166, 21.84150946054981, 20.33750576814168, 0.580989259826534, -11.270027370880385, 16.520428117313546, -3.598965058337427, -18.90646497743324], [16.492962144713474, -11.741307060198697, -9.267037757328076, -12.78954398689366, -39.22381103987293, 4.190268587265756, -9.397649057393743, 27.65472207812065, 2.2115953465578015, 1.6914853007309478]], [[-36.42912499896326, -4.272349299765536, -22.24750936380699, -20.902223766932092, -40.78387831374416, 51.401038303612864, 6.740099571562358, 7.869302285944253, 15.872996607445462, 1.4401292762865752], [-8.458529744735225, -18.841265466947377, -15.857544285972203, 5.994085629808551, 20.64815459852658, -8.820589193986098, 0.6335809187689132, 29.723430855176037, -16.66582227383488, -27.02911760851839]]], "bias": [[[11.878582711387876], [-12.755507041720994], [-23.670723089373357], [3.2215820758540743], [-4.933748880454795], [22.128894924947176], [3.1018917994461104], [6.9903746521745385], [-29.83273220643245], [-7.4052910090516155]], [[-13.12495853719046], [-21.442210893356105], [-37.825142129214086], [-23.03498460096783], [5.398482123147038], [17.334512489728457], [28.207558896334863], [-27.13573190825398], [8.14333697570484], [-18.31697000432329]], [[0.7602161696550236], [1.4611978823939262]]]}, {"weights": [[[-22.74865182880441, -32.15040346853056, 7.44947016735974, -52.888075242589636, 28.643058036765606, 14.084836063542713, 18.81134159515783, 23.805977853380746], [13.380338545539011, -15.037769656114326, 11.766375585919192, 45.35675512907916, 13.73760331204756, -26.603677145772647, -4.2116374959311695, -1.6934125335898929], [21.726593202321986, -8.02117575993683, -34.34004914525969, 17.109432445447155, -27.694179825749693, 13.084205890804768, -6.038754043326214, -4.596059533955584], [13.391624145393285, 2.590419460542827, 11.677468669784197, -2.722101201538911, 0.7140014764066911, -3.819978213774351, -11.847127394008984, 12.250833518442985], [17.33481742458452, 27.48509515980021, -19.471440497669, -29.476390902592428, -9.741065297704436, -4.140381341409525, -10.057528843872193, 4.049510419256108], [2.0747551766547137, 6.727155673612195, 18.03161745735893, 4.557843266669609, 24.409836045888603, -14.174946551546096, 41.164523579857025, 7.038614173695434], [-7.722352121645404, 0.06102701014392742, 11.828815588828888, -9.611045260509554, 20.141296422877474, 10.252857858990561, -14.335895834950154, -6.08635379238745], [45.85052857024413, -18.88273375752771, -30.534771958397815, 16.68311949467791, -5.982507985543534, 0.3619088882392463, 8.979341556246832, -5.743792414580228], [0.03447572136410881, -31.02210698397123, -0.11874357763020527, 25.998380011093992, 2.8239237910002206, -0.07160730945569282, 12.680623528657852, 32.268889215183314], [-2.112003186617058, -1.7528321779773408, 8.964518389779155, -1.2488570535544128, -1.3292983531395492, 9.649517661564122, 29.10290295780683, -17.63117185540053]], [[-17.540077689607468, -16.239075067238307, -0.604833167521158, -11.010435359656094, 7.630651802615332, 3.2875290484037603, 2.164649281037215, -4.789832409440154, 81.11883456973943, -21.39426423254204], [-0.2643678616857712, 3.262503158649624, 8.504302766412446, -8.623172690672446, 37.65461159591576, -23.83751914538975, -9.13117666383381, 9.19497494885602, 16.192001040130407, 15.067978466881186], [-11.610892946141435, -14.49522888693797, 16.110115783865297, -3.2296144950963748, -12.740612250705924, -7.716194397703161, 23.044285760434164, 1.7010823928690577, -2.4506821346583183, -10.625993526899878], [27.611935567671186, -31.23485477862017, -4.088755764961776, -20.44078127361504, 13.732146620699233, -3.3447853458194428, 5.124764092276884, -0.7484020256746767, 7.188332681552441, -31.35371525701369], [-18.53273880693604, 0.09955552037554022, -13.888767711408663, 16.573653317375832, -15.935845690590478, 3.4330071378421088, -26.38834776482287, -7.2185516146244995, 22.848906033712236, 34.85120728823565], [-8.146523069942518, -20.126353629521137, -2.00769836085245, 17.869212748107678, 3.0142881953370138, 15.700970421217596, 5.228846373140523, 2.8414088919301816, -34.77806321457706, 0.07588279020866784], [-4.99201412059435, -1.8547150851493721, -3.788889810448281, -9.867515187058459, 22.254311886167955, -8.800873030536167, -9.345534525864212, -44.62819884011576, -9.72514294357326, 13.611325823198284], [7.574544522367558, 18.560078713791963, -10.235810899828595, 0.4148903692573106, 4.535559376219064, 10.724543064356832, 44.35196230147209, -19.301554129496733, -0.7912657574786055, 7.282786773984733], [14.815678695079086, -38.264672111655386, -3.3601392866336015, 22.894224946740223, 18.884438499711077, 3.5067900661128837, -16.96406315377275, 17.09230926859441, -0.7996191041076633, -15.183509086852936], [15.750288611902116, -11.741307060198697, -7.154184703906636, -14.103197463337171, -39.33774404412621, 4.154922566693627, -9.397649057393743, 28.15496278520403, 2.7926831701544517, 2.167145627023486]], [[-37.45509769383102, -1.198593967651615, -28.26927046042948, -17.31718643656688, -39.09700671783167, 49.106494105307526, 12.009171121676726, 5.450478056797071, 20.661649969703355, 5.7125345687639735], [-7.205124953486318, -19.799939414972307, -16.948768960165477, 6.587602182045213, 21.52370963373084, -8.478240777413061, 2.0943092086166564, 29.723430855176037, -14.169433442142683, -27.02911760851839]]], "bias": [[[4.377754142202642], [-17.61908530105192], [-24.70994414230277], [6.415758716084335], [-15.787080831731748], [18.11873440024983], [-11.683986019531371], [6.163997880253361], [-29.83273220643245], [-9.062003684370172]], [[-11.465520579159179], [-26.358578596010357], [-30.84271848106215], [-22.34841977226062], [5.384404525808619], [15.342416011019452], [21.58384504658631], [-27.552603005893175], [6.969472178724669], [-19.183790842590177]], [[0.7039832906481818], [1.0680641134685682]]]}, {"weights": [[[-15.394124901603073, -23.123237286907077, 3.1298930612148292, -52.343981307086445, 22.764214376372088, 8.309801058378302, 17.87225702650192, 22.342981903829454], [15.639068769238415, -15.102206170106745, 9.816856176334975, 44.68596273077918, 11.578979116141465, -31.33395533491085, -3.651770664222717, -2.5614397015651713], [18.202002088876174, -3.7328165431741676, -26.42298807623554, 19.13899733600175, -27.68134055549318, 6.372435567454657, -2.7335575117805435, 1.6896328889518293], [13.5058134897098, 11.526898471466687, 0.19126929248845848, 9.527271844187092, -4.807452905304013, -12.204246210636608, -9.653328190884887, 18.504341272221733], [18.863821824235224, 30.513591544830696, -16.782871166062794, -28.490489973369204, -6.1759336342690405, -10.436237064657746, -13.989157018795918, 3.96638128204508], [8.436118084181603, 12.177368558039502, 18.968454506096297, 10.09173502484659, 29.133404035138078, -9.26193560419673, 39.72917971806468, 3.029545551102789], [-8.042454089983003, -1.907804205114807, 11.720184379440443, -4.001500149533747, 18.670163379260607, 7.350280554862664, -10.010926500949434, -4.976142485679978], [49.094835076213975, -25.771192996965684, -29.88449185987745, 19.120289164010465, -4.619099353283132, 0.43196430439447026, 7.337114882072242, -6.135858063761893], [-0.9086886559776189, -31.02210698397123, -0.11874357763020527, 25.998380011093992, 2.8239237910002206, -0.07160730945569282, 12.680623528657852, 31.62587556144977], [-2.112003186617058, -1.3669850682033182, 8.986043012630223, -1.5199914618241301, 1.4219861470492914, 9.649517661564122, 29.10290295780683, -17.63117185540053]], [[-12.421634810637972, -18.561661612564244, 0.7668240046479661, -8.007273074342123, 3.2084743271993927, 12.82760419428462, -0.5263249370351389, -10.489506704859267, 79.12157028882727, -12.655066767320356], [-2.8528966243006786, -0.19076763184987122, 12.564819131373275, -11.255283597480483, 34.87239854698421, -17.768703233486697, -8.53723186571341, 6.688393638019722, 18.446945127818626, 15.607897537673846], [-6.504813268926089, -8.583616142965347, 14.798700209060527, -8.334091411303145, -16.089367315201354, -4.630050686875588, 28.673938194306874, 4.288286059877098, -5.623172426874309, -8.095476617884389], [13.647250870146411, -31.62112500834164, -0.8725069252819846, -17.862093640132503, 11.335924646243212, -0.400996188063407, 9.959461203936684, 2.792787870821302, 6.221323200909246, -30.288669310841094], [-17.942841240177493, -0.840660405642923, -15.343959526002106, 19.55736002670231, -21.204451357465146, -5.139535096628806, -29.52965547348015, -8.816889523407294, 18.117052053974394, 29.591792024439332], [-3.142336461310498, -21.304728449962557, 1.8553126248014944, 18.9878890946833, 4.588076531770946, 14.490111750825355, 11.394922514906973, -1.110687992763101, -45.28872552733414, -6.18312229381603], [-3.8401935455769713, -11.625882623420887, 4.888982181716269, -4.606424536695022, 20.09323605009672, -6.505861841935753, -3.2281903304323034, -43.227478379387776, -8.75668578340538, 12.437729870359131], [16.562465308460112, 18.31421897242245, -15.561711337701269, 7.397554016588912, 2.502632593068362, 12.334404658229385, 47.237156648678656, -19.669765914521673, 1.1848304648058434, 7.575713761013406], [15.399149813283358, -32.08467139793226, -0.9124981511684236, 21.737034989680968, 20.09626313593491, 0.580989259826534, -11.270027370880385, 16.225363764754256, -3.598965058337427, -18.90646497743324], [16.23937031935552, -11.741307060198697, -8.98034928456595, -12.78954398689366, -39.33774404412621, 5.160555171678159, -9.397649057393743, 27.65472207812065, 2.7926831701544517, 2.167145627023486]], [[-36.9958431082306, -4.272349299765536, -24.219428918354737, -20.902223766932092, -40.78387831374416, 51.34446001998237, 6.353633625166393, 7.869302285944253, 18.022609905645595, 1.4401292762865752], [-8.103259790015029, -18.173945845698327, -15.857544285972203, 5.994085629808551, 20.81711564456572, -8.820589193986098, 2.0943092086166564, 29.723430855176037, -15.087846371589892, -27.02911760851839]]], "bias": [[[9.342164835875028], [-14.146992930741868], [-22.093785543373695], [3.2215820758540743], [-4.933748880454795], [22.128894924947176], [3.1018917994461104], [6.9903746521745385], [-29.83273220643245], [-9.027064326820144]], [[-23.591505833141415], [-32.32327674330305], [-35.701699364982375], [-22.34841977226062], [4.412640400591853], [15.342416011019452], [21.58384504658631], [-27.13573190825398], [8.14333697570484], [-18.31697000432329]], [[0.49089034656198316], [1.0680641134685682]]]}, {"weights": [[[-22.281836743841048, -30.738342670403796, 6.243067785175758, -52.7198034785447, 29.313050053509244, 14.72587471726798, 18.81134159515783, 23.805977853380746], [12.701328020054202, -15.037769656114326, 12.192399224673153, 45.35675512907916, 14.186112890598713, -26.603677145772647, -4.2116374959311695, 0.8222413156607391], [21.2977618233223, -8.02117575993683, -35.91028425714793, 17.109432445447155, -26.75579501430044, 14.876781785287942, -6.038754043326214, -4.596059533955584], [13.391624145393285, 2.590419460542827, 11.37102446321903, -0.8483743764344647, 0.12401701667759801, -3.819978213774351, -11.847127394008984, 11.200620722184986], [17.33481742458452, 27.66709451386486, -19.471440497669, -28.70593817914518, -8.508622771714665, -4.140381341409525, -9.921371923150154, 4.453398872656813], [5.050786696132384, 4.948120209359285, 16.46282780873807, 4.557843266669609, 25.24887679823322, -10.35454584549278, 38.4936910746458, 8.329638939935409], [-10.722621389732893, 0.6715782614305195, 11.828815588828888, -7.662793918872444, 20.798013632682206, 9.767286857346285, -13.587441134663568, -6.08635379238745], [47.483930979122405, -17.388579924302523, -30.892250351339637, 20.141878411819842, -6.271195389685481, -0.08955356398704406, 10.15922522214048, -5.24157742263333], [3.1247629383344444, -29.156918776690393, -5.221324480087592, 25.771778250855707, 0.19315090614950886, -0.3848261141909333, 8.291191626349507, 28.051530757911515], [1.3445123096878162, -9.416410321236919, 11.839329521399804, -2.810718688025139, 0.14434861666222787, 3.016134388164531, 27.888900920184163, -16.926964248264564]], [[-17.540077689607468, -16.75809303816775, -0.604833167521158, -11.234952772913246, 7.630651802615332, 3.2875290484037603, 2.164649281037215, -4.789832409440154, 81.11883456973943, -20.956097013606485], [-2.66966245478735, -0.0002105366344363202, 13.37089875117417, -10.098546644581573, 33.910902436562345, -22.676523716903837, -6.897492253205159, 10.655480591480083, 20.88973966863382, 14.690920535960068], [-11.386458210788895, -11.019992551439362, 19.40328124279954, 1.986227872898621, -10.5950716397816, -13.222786171272048, 22.20414183829335, 3.74054610602399, -2.1273609912649327, -9.00866111848172], [17.695790326483266, -30.431359389038953, 0.8312751217947025, -14.171360310996382, 10.107782977792905, 2.3938115107065325, 9.827288275258073, -7.114540010633308, -0.7959851903802857, -34.966050413032406], [-14.4771514293308, -2.8836355894549808, -13.767013143716198, 22.087457613332766, -19.91624175724001, 2.1865404878035335, -21.05431915518945, -8.790716309133487, 15.368262555897498, 26.546747129285812], [-6.445323241234329, -19.748714777505448, 6.91651756704337, 14.786829059914307, 1.7640699041821923, 11.533147621616735, 6.59168787839008, 3.401084310725861, -40.49089663615234, -10.07120420626106], [-5.03355940941562, -4.586108771644601, -5.155611203147977, -9.579506054969205, 20.761905053612168, -8.880101584998364, -9.246511043592243, -41.90476178428925, -9.626740677766568, 16.01011180243709], [7.574544522367558, 17.521329776140636, -6.966117120159938, -0.5300879020033227, 4.619827122804507, 11.69397769041256, 41.7706912220738, -16.52841374121289, -0.14630379796851278, 9.067003174361693], [12.635807693688147, -37.4448079432257, -3.252266321396782, 22.79546944540733, 20.06454188896434, 3.8669787434723064, -18.166129373586887, 17.269208703204853, -1.4924519103180922, -12.829951624963444], [17.489922457394094, -6.739954034757738, 0.670257553552734, -16.39677674733424, -36.73201428067751, 5.2321914553103674, -7.037582885873313, 26.120619470739342, 0.4611809360723746, 4.074556876595591]], [[-37.45509769383102, -3.13436222926473, -30.442042417383792, -19.121433133120497, -38.46725155200413, 49.165048159733935, 11.579530991415957, 3.826699370894142, 19.548630547397856, 7.8241791862662], [-2.601961678486238, -22.13013703886312, -16.074373252651828, 7.224069259100174, 24.637854364729524, -5.532217666334052, 4.424856801859681, 33.37307066409647, -18.644889363985293, -28.989766663017488]]], "bias": [[[4.377754142202642], [-17.61908530105192], [-24.310079551673972], [6.415758716084335], [-15.787080831731748], [18.11873440024983], [-12.91044908392933], [5.554627466273959], [-29.81651285724319], [-8.66887048679352]], [[-11.815686276756487], [-26.358578596010357], [-30.84271848106215], [-22.868551809417863], [5.327670833471563], [15.364071828404555], [21.58384504658631], [-27.552603005893175], [10.738096712522873], [-20.642199245840477]], [[2.425153585952896], [-3.025662084576772]]]}, {"weights": [[[-16.78780913204025, -28.15349758787936, 9.546935021092107, -52.917660956102594, 31.668939004523118, 13.602939435003242, 16.011571042078383, 27.171342107427648], [19.472357154334205, -11.316912621061093, 13.954067503699303, 45.764645597013775, 17.682451737402005, -27.777718060011132, -5.656304474725898, 9.055881735298213], [16.384203509801193, -1.5285490488566105, -25.121418556625752, 18.2200640330481, -25.390756764028072, 6.756120992705785, -1.7574838635110244, 1.1935565424903534], [9.772324413196902, 12.804060456469383, 3.137758673289217, 10.374980496138829, -4.4185813539785155, -12.51801779763538, -11.438020046615167, 18.53889067235133], [19.416444878015007, 28.685215627108732, -18.722857997010834, -26.10959560309825, -5.596990153165211, -12.150045384628925, -13.106056330559921, 7.603505474347718], [9.180387318100415, 1.410690383534403, 18.728850104888966, 8.509205974503482, 23.12170348809314, -14.727358895446766, 39.467131241711755, 5.411511275130021], [-5.99991521142194, -1.7204484888461504, 16.392163798434577, -7.95278831912875, 22.493232630215292, 9.960312998361214, -12.80028246985271, -3.753628255268189], [43.63599773769863, -20.1497076281402, -29.382116078774537, 23.300431075727293, -4.145296171573662, -0.025159691789926386, 12.344182696131138, -9.756073450727726], [0.3715528001132744, -30.519017620178666, 1.4286582513364623, 27.029700404761517, 3.507144879337051, 0.6132488491171361, 11.830970329277136, 30.79730212199385], [-2.112003186617058, -3.10797278630461, 8.732182073545589, -1.905627723268418, 1.4219861470492914, 7.965461931744962, 30.063046419159615, -17.63117185540053]], [[-15.937901168287786, -20.355801194314758, -2.488535014971258, -9.76040325876446, 2.8829165911174766, 16.697571183364634, -0.3813209208022752, -9.394815436772072, 77.85863421585456, -13.4241799932693], [-1.7511547901812372, -0.3559107441196463, 13.108752866170834, -9.641474493772897, 33.702519871046704, -17.768703233486697, -7.996777343280985, 5.7007438046319345, 17.708885379871028, 17.304798083027325], [-5.900657569190866, -8.583616142965347, 15.22452698305563, -7.492832217397609, -14.195422406241683, -4.665871113364314, 25.079354820194734, 1.8079437112812478, -7.297008421713923, -8.743997143927604], [14.685051364239584, -30.353457417541637, 0.2364232747783186, -19.3221298303603, 10.960384924366409, -1.6222885849987716, 11.801854747386884, 2.792787870821302, 6.822110744370965, -29.965143867456355], [-16.026860350464712, 0.309147994025856, -13.759623531255723, 17.43762083951402, -20.97261099925965, -6.464953528185369, -28.283493297637044, -8.816889523407294, 18.117052053974394, 30.38415251453207], [-4.978861597102163, -22.761512691461846, 3.5885484262855316, 16.15487303589426, -0.4472817736605217, 6.5450599618615835, 8.021418284554427, -0.1873441566010571, -44.69290300683306, -4.957456770408067], [-0.17185732809545923, -4.894886573188327, 0.9851016260265064, 8.217680900354516, 19.66240566822278, -13.557262236800272, -7.909431426374486, -36.391151061539745, -4.351732393530329, 7.021855717900381], [11.874321757466145, 20.350645545194055, -15.848938379009962, -0.6199780274064024, 4.851875616358101, 15.521580379285599, 46.89352222931976, -17.63114206263985, -1.4408582788916038, 15.217426593204138], [16.32369826657547, -32.08467139793226, -0.6639829475652402, 21.579131382104727, 20.927394491342035, 3.1575290418960256, -9.57656661650058, 16.86345858413605, -1.7344275140053496, -18.72760482513481], [16.23937031935552, -12.006734346456664, -9.534411348728762, -11.720611307371659, -38.48030170760623, 2.1751663291479195, -7.39570277843957, 28.435547906308404, 1.6072369526005266, 1.30266890352035]], [[-38.830502635124525, -4.386217104739686, -31.160218415115388, -15.790263524096511, -38.471323919813905, 52.398950014099746, 10.252515606599392, 8.879662265025859, 22.485114664530812, 3.7156295545051723], [-8.103259790015029, -19.24789882451446, -16.481602273235197, 4.851087472945627, 22.556546713214534, -8.372008855822841, 2.0943092086166564, 29.30780163104221, -14.870560255335961, -27.02911760851839]]], "bias": [[[10.62257592845575], [-11.082476630891987], [-20.09998304738514], [0.43592401126199465], [-19.481808311174298], [23.43314261367277], [-6.955457177198886], [4.637129656400014], [-29.83273220643245], [-10.68011198959593]], [[-11.645823222269623], [-27.274408551023143], [-37.56221118231025], [-22.102760286600827], [4.37844553478789], [16.06846199923859], [21.58384504658631], [-26.288157385359682], [7.39940347849422], [-20.175284689406638]], [[0.8471178809653643], [1.0680641134685682]]]}, {"weights": [[[-16.423472142019392, -23.123237286907077, 3.1298930612148292, -52.343981307086445, 22.764214376372088, 8.309801058378302, 16.552438701057504, 21.402618111856953], [14.713018018564076, -15.16818282647495, 9.816856176334975, 45.358122550888176, 11.601164168582725, -31.496085435083096, -7.768323667023848, -2.1492917034274925], [18.202002088876174, -4.179473618278965, -26.2625982412417, 19.13899733600175, -27.68134055549318, 7.556747046140352, -3.417199782737833, 1.5052294841307532], [13.5058134897098, 12.360265170353689, 0.2008627919038859, 9.769193191212095, -3.8106715723558464, -12.4063006139056, -10.636077184158287, 17.304386607423066], [17.533244788945662, 31.06694905053121, -17.840798747259946, -28.840422858199663, -3.5196045735862382, -10.416083900519357, -12.710671132120458, 5.25092220602656], [7.237099615921058, 11.679072268424354, 18.968454506096297, 8.805361543502219, 29.67698491939606, -9.281369192915555, 39.72917971806468, 2.3767908480642994], [-8.042454089983003, -1.2612868395070684, 11.332358859498413, -4.358291360763475, 18.66292570105805, 5.752469627500267, -9.903942841365238, -4.66001509492411], [48.386749864704136, -25.771192996965684, -29.88449185987745, 19.120289164010465, -5.0055444001181195, 0.43196430439447026, 5.412217818329937, -5.5003845666556845], [-0.9086886559776189, -31.02210698397123, -0.3998088152606566, 25.998380011093992, 1.2177576972483926, 0.10965196644435277, 9.940871424746792, 30.514423281564564], [1.0961282806707364, -8.189626727469081, 9.92607661608007, 0.38877994368902125, -1.6322837923608993, 5.872410394683078, 29.809176170583584, -18.912922731602674]], [[-10.828148020946909, -18.561661612564244, 0.7668240046479661, -6.597380413999604, 3.2084743271993927, 14.143648212534778, 1.71983854609356, -11.993466393033794, 77.69227459409913, -12.368205276202772], [-2.282404017730508, -0.7596892825172936, 11.922568954497002, -12.641223825347424, 33.558336325480525, -16.62379383599222, -9.06233021066302, 7.406314203221117, 19.02847026100121, 13.610044305968664], [-6.71039355278287, -7.552518883979627, 13.864127566554874, -8.334091411303145, -15.935289586252454, -4.458757335111157, 28.18076902741639, 4.911027537279077, -5.658277297881406, -9.88218168361575], [14.634653161228915, -31.62418736630421, 0.7855007877355289, -17.889902281423083, 9.896659354060594, 1.2221657081769297, 10.10099364847633, 3.4202842840068195, 6.249595458272915, -30.288669310841094], [-18.458017902013285, -0.07501346039162708, -13.888767711408663, 13.095577256143265, -19.290790997603228, 2.927232141786876, -27.01513265952502, -7.831609965321732, 23.528502608389637, 35.02675026625171], [-10.162354667134501, -22.264543579968294, -3.286722022457468, 16.810960540256684, 3.0142881953370138, 16.70340244722398, 4.785524087520236, 2.233689858433952, -35.82239696168505, 2.0952223243534784], [-4.96445393869368, -5.783281563705628, -0.9181417811810727, -10.688055815368044, 22.254311886167955, -9.100617755432296, -8.31857879128208, -42.5049824774236, -15.039703825719197, 13.422046473478872], [7.6436325469299895, 20.068503108032672, -7.360000263704442, 0.6948915919133132, 5.297819288409546, 7.858121601415743, 43.981886494432956, -17.78754998409856, -0.45091979095728757, 7.000031811340383], [15.7929934534418, -38.09279904266513, -2.4232851229861625, 22.270601002121925, 19.650707776975015, 4.628797624281217, -16.2360188796492, 16.73962272487849, -0.03163010178434553, -14.603857989407155], [14.93108987406442, -7.990964424095001, 1.4491844685538837, -14.331319845244163, -36.99863859313053, 4.893571404970858, -9.503421700820196, 26.244703447836642, 0.07255482780452824, 5.0282034733089045]], [[-36.9958431082306, -3.6769637000447317, -24.363765526338597, -20.213805586516603, -40.78387831374416, 52.121304134647865, 6.353633625166393, 8.501143832469758, 18.45167941223524, 0.9472193712526348], [-2.4911568279412775, -20.521656862068397, -15.492948631951776, 9.669075036007543, 24.05141960581436, -4.627812117734369, 4.038789977217386, 29.463184465537473, -18.061800937555457, -32.37389661094769]]], "bias": [[[9.055414969246176], [-14.146992930741868], [-22.81153184302328], [2.9202585676245265], [-4.933748880454795], [22.128894924947176], [2.331702287881666], [5.346016748966717], [-28.924445831918636], [-7.221845561276164]], [[-23.590282614320895], [-31.61676941060593], [-34.32384345338284], [-22.34841977226062], [4.412640400591853], [17.222311961557946], [29.233960252664705], [-29.86571546689489], [10.800820114390906], [-20.892455878682867]], [[0.49089034656198316], [-4.848892035021577]]]}, {"weights": [[[-22.919357602383, -32.66574748208336, 8.353016233780771, -52.68490157004651, 28.20700370144606, 14.572904131085537, 19.38706837015901, 23.552400317387608], [11.100127890725949, -13.97280696502214, 11.841101305026244, 44.62666454411838, 13.577872781588852, -27.970733529316664, -4.090510925814036, 2.4984646391796836], [21.626742320049765, -6.912575325768678, -34.46595183534994, 16.123772128080276, -27.28772063518091, 16.02830828132673, -4.0792941000652885, -5.213760515233404], [11.97553380275297, 3.4501836709533222, 10.530809802809161, -4.072539509452361, 1.853748510767261, -3.1396586616496576, -11.847127394008984, 13.92553723139622], [16.650476411784773, 29.853770668517924, -19.449395351739774, -31.516769544978125, -9.548893491631953, -6.447262448486785, -11.407677757733568, 4.049510419256108], [5.050786696132384, 4.080149589044575, 16.70428901086659, 4.557843266669609, 25.15772490753426, -12.493565495177043, 38.818813547293935, 7.52379263444279], [-9.163204843766591, 0.8459340028148143, 13.51381047146569, -7.035330605507238, 21.298787210827925, 9.767286857346285, -14.599987975568151, -6.08635379238745], [48.31393986260523, -18.17317714127694, -30.892250351339637, 19.95090967257181, -4.954146299670442, -0.08955356398704406, 10.15922522214048, -5.411382763063742], [4.052246470109665, -29.402817761828743, -5.7779151918154, 24.99920905349734, 0.15270044284864243, -0.09918491308595478, 7.8446251717047994, 28.16124985951111], [1.332416791422112, -11.316636206725285, 11.460874574976506, -4.00523927670398, 0.14434861666222787, 2.0099814733094163, 27.888900920184163, -17.06623563556142]], [[-16.04799585907058, -13.994343254980553, 5.239286905153049, -7.846223783706105, 0.41348231503810084, 9.650118593996849, 4.830552702626827, -4.744670132278502, 80.39105934801832, -25.74103697133183], [-3.2200639417530335, 0.43635215205793676, 13.37089875117417, -11.237220872225327, 33.111715102081604, -22.567270268272125, -8.849263775774807, 9.605279503766265, 20.20585480804555, 16.046281526983304], [-11.386458210788895, -10.743145643826276, 18.43496640632173, 2.940647079189755, -11.97289568066195, -13.677748615794988, 21.911684162965805, 6.789167284257646, -2.779613970108447, -9.56485883104583], [31.50286936261978, -32.00930627222166, -4.77716064162529, -20.539281843024806, 11.603142730310413, -2.9029579006507604, 7.683550786816982, -0.2536235362733974, 7.742729952798236, -29.0422148558669], [-15.575244928289727, -2.665842328589177, -13.256474943561598, 18.744951447694685, -22.84611427844356, -2.00425456235273, -27.032411502002713, -6.231011278318206, 21.207789438596006, 31.04876546962342], [-3.8135969529375693, -20.826237418724336, 6.062529324206301, 12.715604925577477, 3.767518356126411, 13.413821749154767, 5.327251908531136, -0.7629013750307132, -43.60344744842036, -8.346062889916121], [2.0501530434968824, -5.287726712646899, 0.6896863762180712, 6.052936024644431, 20.423731454291822, -16.89778574137914, -8.418338663027248, -35.26275700670793, -6.407219214160546, 5.880457203019316], [7.679121672607143, 18.040418182667235, -7.667887965631792, -0.6733112231385245, 5.3365865079341095, 11.69397769041256, 42.35030499303112, -16.52841374121289, 1.176632939452911, 8.321241076762707], [13.06448481388778, -35.85337584058737, -2.208815361691262, 22.838598244781416, 20.06229280986893, 3.662470413786247, -18.53635256101089, 16.399656450615467, -3.7179609583368567, -13.21884916547946], [17.489922457394094, -6.986704478038564, 1.0222891805293703, -17.355921786127357, -37.685930126446074, 5.482445936274944, -5.229091916374388, 23.82183062748932, 0.2705631694337759, 6.08306074451835]], [[-37.45509769383102, -3.00152570566803, -30.442042417383792, -20.483713018326586, -38.102393115156154, 49.01115321991129, 11.579530991415957, 3.042455189647548, 19.548630547397856, 7.8241791862662], [-2.274985440444619, -22.13013703886312, -14.98298478587043, 8.55505010829067, 25.47995145033505, -6.128721227570122, 5.849771510940486, 31.389848300962225, -18.644889363985293, -29.054039726997118]]], "bias": [[[19.525969288772377], [-10.046700579821167], [-20.592945342425345], [2.303387329636592], [-3.7566177116050996], [24.161000757776428], [-11.780036102171131], [6.654387526279061], [-29.81651285724319], [-8.215357849900405]], [[-24.30237028657386], [-21.60002936593173], [-37.68958924288952], [-25.796125385753395], [3.626419660785924], [15.080607124418412], [21.58384504658631], [-27.552603005893175], [10.504621168292417], [-21.35974001523822]], [[4.42736311277708], [-2.393267072278196]]]}, {"weights": [[[-22.545154082002906, -32.971577229743204, 6.854827359254658, -50.0571218993141, 27.587907495565574, 15.178863076106925, 18.81134159515783, 22.871476630597147], [11.833883509795745, -15.037769656114326, 11.936890328427705, 45.34709570326923, 12.824697808841112, -27.110648069328857, -6.292346476325726, -0.0056470324712587505], [21.45561992882814, -8.883516483770721, -34.49944016770189, 17.109432445447155, -27.782992778025182, 12.69231538833803, -7.099220301685894, -4.709228712966347], [11.010072274592854, 2.590419460542827, 11.677468669784197, -2.4290978944536907, 0.16789250757580687, -1.6424603110753981, -11.847127394008984, 14.446409934063125], [17.27507709643193, 27.48509515980021, -19.471440497669, -28.834649539048954, -8.333367700946816, -3.212559805928014, -10.057528843872193, 4.049510419256108], [3.130174580169304, 4.9417281459566995, 17.831522408681465, 5.698627235806648, 24.38577107110177, -12.151314503847015, 39.58999172101588, 9.15958155152455], [-8.829222602133179, -1.1566296472846813, 11.828815588828888, -7.776050679759195, 20.798013632682206, 10.635043185640075, -14.232249536320557, -6.08635379238745], [47.08144734954111, -20.419861298809217, -30.860270218181615, 16.009521729225863, -6.46210415042454, -1.3736996615824415, 9.035203041135105, -7.874539337538268], [1.06343187387898, -29.835918821663274, -3.5408770024550895, 25.771778250855707, 0.009844549712515027, -0.025574801874117814, 9.579594117471771, 29.550678235737433], [1.4958496112905246, -8.110146129759231, 9.851332684829261, -1.249626756816542, -1.051410902443888, 2.7911545174881147, 27.185268579390556, -18.912922731602674]], [[-11.820624211269497, -18.561661612564244, 0.6464080268572543, -5.826704308595097, 0.9603035522212027, 11.867019479262742, -0.3714685988837049, -9.610648292267754, 79.12157028882727, -12.655066767320356], [-0.2643678616857712, 4.005140726607851, 9.509199081011898, -8.623172690672446, 38.195907664079975, -22.56299668420593, -10.571347986949148, 8.510505328622758, 16.192001040130407, 14.60343022713827], [-9.652424954476588, -15.5055138919984, 16.801832124810513, -3.740093653112839, -13.449705037456855, -9.61867395005112, 22.97206866314294, 1.7010823928690577, -1.8098585574965655, -10.65320709227811], [27.611935567671186, -31.23485477862017, -4.427776157356377, -20.269189015109728, 13.155408355027737, -3.1114995279560045, 5.124764092276884, -2.0668479235972064, 8.135408139037706, -31.63109243349531], [-19.260406041492708, 0.09955552037554022, -13.888767711408663, 16.354289666925673, -14.718373260861267, 2.359764183276315, -27.45735096641561, -8.988766350911865, 23.189817019116663, 35.82215242330946], [-7.907793643878867, -19.636348906389802, -2.359599974688545, 16.689723765283127, 3.0142881953370138, 15.274713315019554, 6.005143235872074, 3.4657560135564287, -34.77806321457706, 0.07588279020866784], [-4.680033143916093, -4.086722097271851, -3.750545421604893, -9.476373985337363, 22.254311886167955, -9.359007421052826, -8.96103313954195, -43.4200616973609, -10.096147652259308, 12.905951387493745], [7.574544522367558, 18.560078713791963, -9.182461657468385, 0.4148903692573106, 4.535559376219064, 10.724543064356832, 44.35196230147209, -19.301554129496733, 0.9328921502989074, 7.111045331624361], [14.274744384215532, -37.0557675040165, -3.8064465381960093, 22.047966561314656, 19.070290123941668, 2.2228245031782823, -18.166129373586887, 16.73962272487849, -0.03163010178434553, -13.258698611779653], [18.43743777415126, -7.428799340678069, 0.24643903818925827, -16.559670449015233, -39.084927843290224, 4.847994430459292, -9.704430564026296, 26.818072715574434, 1.4551026919316343, 3.060852992478809]], [[-37.59612823373355, 2.454216242245578, -28.26927046042948, -18.637422305957642, -40.54002654502081, 49.41188699531292, 11.972557234424965, 3.8508018103578814, 20.2456013938377, 5.521298598758809], [-4.063488516971121, -20.894845619403476, -15.462698967287979, 7.201716343280175, 25.060932795073377, -4.627812117734369, 3.9585228210726533, 30.611623990914367, -16.032510342913653, -28.87924522204352]]], "bias": [[[9.366229695172255], [-12.158880410146118], [-23.482901392059144], [2.641939853566167], [-14.366920377322296], [18.11873440024983], [-13.356786841177449], [6.306848918300944], [-28.22282722967468], [-9.01882107736135]], [[-24.641821339435026], [-25.56804213806336], [-30.299441747408483], [-14.922795423314533], [2.1816425682991145], [16.62277975622237], [26.88698330978015], [-31.68332828876058], [10.349180324884962], [-21.318064301106176]], [[-3.800360599511616], [-3.577903443218914]]]}, {"weights": [[[-16.576089755723213, -28.15349758787936, 11.778008331311423, -51.32515332164424, 31.668939004523118, 13.11792529169325, 16.011571042078383, 26.11338370640391], [19.96452027286515, -10.158403895755153, 12.979538854094518, 45.88331148161515, 17.682451737402005, -28.057116731400992, -5.656304474725898, 9.886377850403008], [13.981565898094074, -0.6259761156467589, -34.8922681245752, 21.652416748050463, -32.54201924850263, 13.268417409880765, -0.1982575163068133, -2.9932191289564876], [8.928281797521931, 6.23782054665456, 2.1959469282185604, 5.674936970890916, 4.721368593103407, -8.405248378525643, -16.2842428325435, 16.051295256747743], [19.559907760218405, 29.142440527965967, -14.851174891102945, -28.443635806020104, -4.136241058942625, -10.974639561110985, -7.591537858190648, 5.084747424584162], [3.1380969965845953, 3.106802302258381, 19.78811310213971, 5.629512959972699, 27.41335881625355, -10.92764222812482, 40.783942631390374, 1.2704197469148952], [-7.426393867435641, -0.932305960771784, 13.207857863975267, -7.279628008396677, 22.016147976339383, 8.60927103867222, -12.323449111938295, -6.639697506851997], [46.470849954098945, -23.864347753936425, -30.459136552640345, 18.955054340511722, -6.891117931535499, 0.4527781022293712, 8.400864931127204, -7.162826162262664], [-2.269884665147603, -28.377868660229893, 2.607586890002602, 26.315861524600773, 1.198504647489981, 0.49269254468222096, 11.712067757410045, 29.70372219250814], [-1.720047846053345, -6.646490970431554, 10.191355670916682, -4.501781075591905, -3.2884059589021613, 6.272532504261333, 25.420016718700836, -17.33733360767289]], [[-16.03357930272183, -18.561661612564244, -1.532401692726367, -9.591769682133247, 3.2084743271993927, 13.752954730779356, -0.34800451907278995, -9.394815436772072, 79.51216084892067, -12.655066767320356], [-1.7511547901812372, -0.3559107441196463, 12.493579103494726, -9.699595894741838, 34.87239854698421, -17.768703233486697, -8.362428030684804, 6.688393638019722, 18.446945127818626, 16.97381791360688], [-5.900657569190866, -8.583616142965347, 14.798700209060527, -7.948159067625843, -16.089367315201354, -4.785164738792687, 25.223193133752755, 3.36988770995044, -6.325741398889226, -8.688237431267677], [13.85242521906932, -31.79760260998474, 0.21896456945556092, -18.038985732242416, 11.507241120912143, -1.1715781666689817, 9.959461203936684, 2.792787870821302, 6.6389639036628445, -29.965143867456355], [-17.175689094435207, 0.19388747588136956, -13.759623531255723, 18.10024969430959, -21.204451357465146, -4.2916619784439405, -28.283493297637044, -8.816889523407294, 18.117052053974394, 29.591792024439332], [-5.0249700099967, -22.761512691461846, 3.0292124652199597, 16.56050208544518, 1.0048534131479527, 6.4955433717241, 8.738126233480923, -1.2632900866226193, -44.69290300683306, -6.073023601617744], [-0.023301490765926428, -6.128713528637259, 1.4207331061869573, -3.128492759202335, 21.585782187217003, -4.957519489246084, -7.426469221515578, -47.233230571518256, -12.216612169293239, 10.020800010666647], [10.39361710631472, 21.508827328734476, -9.740934421247788, 1.7325653182513223, 1.2793384298645982, 10.013593531513877, 45.64141114590474, -18.980126376591194, 0.9901500711840232, 8.613934455402012], [15.579062367997347, -35.19300936144384, -2.781013559069997, 24.012445426398724, 20.714968065633915, 0.24000448174556688, -11.095647416809099, 15.492462291804728, -1.2229805126422342, -18.387049103147056], [13.255017064007546, -2.4261847745971625, -3.098949152594706, -18.663780518515544, -40.08703054364807, 4.696368538586029, -6.907358206334068, 22.503506591308177, -0.18413703927002922, 3.2908227402370787]], [[-39.31206529128923, -4.411541145692574, -30.90795182186354, -17.483681131825033, -39.225994814240536, 50.82137207261052, 11.466991196558553, 8.879662265025859, 19.802839218697027, 4.077154237251596], [-4.724646779997097, -18.920925153828094, -17.904658452923965, 6.492909677546485, 22.57764823836933, -3.83369491440596, 1.3930644796023064, 32.63559496911882, -12.662448255332377, -26.708809849977566]]], "bias": [[[11.092278012413201], [-12.981701432762922], [-21.566623532368315], [2.671972629600158], [-4.933748880454795], [22.128894924947176], [1.768690344085423], [6.93463848630633], [-28.70656840930195], [-11.531813869771273]], [[-20.859345812399447], [-30.35699255286154], [-42.231240660028455], [-15.334955049481781], [10.155600260721156], [16.774422535103323], [25.516916488653912], [-25.875400994806935], [6.835180998246058], [-16.766770108159264]], [[0.8925240255653734], [0.08923056552175973]]]}, {"weights": [[[-15.827558473259721, -23.56420356774599, 0.8436852440519655, -56.66068290660104, 24.01610634247497, 7.451945811391316, 17.87225702650192, 24.8095581073268], [15.680199957394382, -15.297591336193573, 7.709303402957131, 45.809362192710594, 11.835982746786113, -32.3765919387012, -1.4046498670283851, -0.4880567612096039], [15.679153313676071, -4.733438571356264, -34.55795116519268, 20.406503576771485, -28.00826338726706, 14.601607500639208, -1.1193352671377457, -2.556431610702177], [7.188128631781654, 6.86246614770207, 6.7529142720247295, 10.687419923484665, -1.0348243936189967, -8.512786574425046, -15.538733944729657, 15.622283520552097], [21.74913296961795, 29.5142299768694, -16.013809964228646, -29.779937058618163, -4.465608886282692, -9.664341207024702, -13.588788831224921, 4.909437510134314], [8.36784095846149, 10.611700030424636, 21.63764594187299, 12.454341936046657, 28.37961283102461, -7.388446302524327, 39.86413098101401, 4.835856885255816], [-8.073333126541026, -2.416833815246575, 10.54422217183418, -3.619490292867958, 18.896861122960384, 7.803268515641823, -8.627964163006189, -4.336554224837947], [47.46050524993311, -25.771192996965684, -29.732699832746686, 21.709355662511193, -3.16819957488936, 0.6682281018990924, 8.619543308053359, -5.716007813749883], [-0.9044038177385216, -30.2321489702739, -0.3715147420713478, 25.734960895978325, 2.018187635907441, -0.03203729857960358, 12.567337746816728, 31.351869118878533], [-3.7004533160437676, -3.6896626514976782, 8.986043012630223, -1.5199914618241301, 1.6960644623335694, 8.842231158513043, 29.10290295780683, -16.74159643584373]], [[-14.129845931967274, -17.17553265696789, 2.955702212403322, -9.26095221796028, 2.087227872582905, 11.631968729917983, -2.743666403312223, -6.7390257775094815, 80.34557253819418, -13.487005124170581], [-9.612311356181474, -1.2783876728911605, 9.655916197847013, -4.799815771236222, 40.85959012688436, -18.863557978164337, -2.9214618938985004, 0.3466857958540779, 17.395088092108892, 6.940186777114329], [-1.364909535796762, -6.051788926003827, 19.907379361284026, -4.509835995545528, -15.194895091234125, -8.202591224693947, 16.979292451402088, 1.7224429088953928, -2.6631832096345645, -5.883603262951093], [31.50286936261978, -32.00930627222166, -2.503028317994123, -21.41212409819927, 12.180954312821557, -2.9029579006507604, 7.683550786816982, -0.2536235362733974, 6.2373932679575494, -29.977630334071907], [-15.748882994057121, -4.046476475428539, -13.334462832013555, 15.148252472328853, -21.76670065167282, -1.3084491302289538, -26.49300112197457, -6.432571016127808, 18.90029665491203, 30.58338076526099], [-4.504380722907186, -20.826237418724336, 5.702691461189335, 13.61581105049827, 3.767518356126411, 15.30294414692092, 5.37297380223458, -0.7629013750307132, -43.60527483115801, -10.719798246213745], [-0.2108777853363194, -5.287726712646899, 0.6896863762180712, 6.836079466057046, 18.972305449131586, -14.670554309891925, -7.673460949099365, -35.408619415640445, -4.768895807170167, 5.983736069659621], [15.220407648433227, 19.11607245574654, -17.075531618596862, 0.09289938449516255, 4.423871715077377, 15.299077388209609, 45.25364901943175, -18.83085119109525, -0.531957517111811, 14.961813338661635], [15.399149813283358, -30.521121341230767, -2.07021682681766, 22.682759158938254, 20.927394491342035, 4.137631264657813, -9.202139939440563, 19.096463279788445, -0.8934095260735935, -17.50341789405514], [16.733205536163112, -10.919221842918741, -9.721749321830382, -11.720611307371659, -38.841272149373914, 3.3038201791249184, -7.39570277843957, 27.068194949327495, 3.2451051516329863, 3.061833091657304]], [[-38.16236528286427, -4.793306491276581, -29.1997587491153, -18.57232541909707, -38.54775713580436, 50.085382281053256, 11.466991196558553, 9.864303851673315, 20.89727911519972, 4.84035184745264], [-7.7839891228465286, -19.207792433708537, -15.857544285972203, 4.536248771299863, 20.6901975408518, -12.41025390204915, 2.0943092086166564, 29.30780163104221, -14.870560255335961, -26.564420157624877]]], "bias": [[[10.990202511562584], [-15.564688797532964], [-23.48101036939496], [-0.5806828444694995], [-8.680184286127446], [27.412171228245924], [-8.417835629158745], [4.637129656400014], [-30.5275013787026], [-10.68011198959593]], [[-12.21149552731286], [-23.58024750180754], [-37.491024282010756], [-25.39845382962954], [3.626419660785924], [14.397531685643814], [21.58384504658631], [-27.13573190825398], [7.39940347849422], [-17.98974879675044]], [[0.8568812342844332], [0.5998554840921235]]]}, {"weights": [[[-16.78780913204025, -28.15349758787936, 9.775204059251251, -51.80816805564656, 31.668939004523118, 13.602939435003242, 16.011571042078383, 27.171342107427648], [18.523530612692774, -11.316912621061093, 13.954067503699303, 45.36703314905421, 17.682451737402005, -27.777718060011132, -5.656304474725898, 9.055881735298213], [16.384203509801193, -0.2945315751865769, -24.147491521250124, 18.504635267921714, -25.390756764028072, 6.756120992705785, -1.7574838635110244, 1.1935565424903534], [9.772324413196902, 12.804060456469383, 3.709988018939825, 10.374980496138829, -4.736681228957768, -12.777878594675407, -11.229311187738066, 18.59139723705173], [20.03597181398164, 28.685215627108732, -18.722857997010834, -25.87030753688688, -5.596990153165211, -12.150045384628925, -13.106056330559921, 7.439612653374418], [7.953054765010675, -0.5523801509839179, 17.987182049628633, 8.509205974503482, 23.12170348809314, -14.966172140745238, 39.467131241711755, 5.411511275130021], [-5.99991521142194, -1.7204484888461504, 16.392163798434577, -7.903814956864967, 22.493232630215292, 9.960312998361214, -12.80028246985271, -3.753628255268189], [43.63599773769863, -19.982610566475575, -29.382116078774537, 23.161979925958985, -3.336472800327692, -0.025159691789926386, 12.344182696131138, -11.82527634371625], [0.3715528001132744, -30.519017620178666, 1.4286582513364623, 27.029700404761517, 4.481602927038744, 2.021388808145897, 11.830970329277136, 30.79730212199385], [-2.6079961459833143, -3.10797278630461, 9.339113447589536, -2.1345252632631597, -1.055877490669575, 7.965461931744962, 30.20458618683378, -18.110847195243647]], [[-17.540077689607468, -15.001803914005853, 1.2275327227010877, -11.010435359656094, 7.630651802615332, 3.2875290484037603, 2.164649281037215, -4.789832409440154, 81.40941054011874, -22.797625699212702], [-0.2643678616857712, 3.262503158649624, 8.504302766412446, -6.842009409747043, 37.975118805194626, -23.83751914538975, -10.172984787147518, 9.19497494885602, 17.682707185364677, 15.067978466881186], [-10.79400701417137, -13.813332335462784, 15.479026769129677, -3.2296144950963748, -11.708801025996944, -7.47269845729423, 21.10142773495825, 1.7010823928690577, -2.4506821346583183, -10.625993526899878], [14.685051364239584, -30.353457417541637, 0.49873073435069404, -19.3221298303603, 11.724935633618705, -1.6222885849987716, 12.057718030956497, 1.9585276842515444, 6.822110744370965, -30.051732103512876], [-16.026860350464712, 0.20410568404062934, -13.721375185780012, 17.902712313825763, -20.97261099925965, -6.464953528185369, -27.714564951206285, -8.816889523407294, 18.117052053974394, 30.38415251453207], [-4.978861597102163, -22.761512691461846, 1.9790097603649202, 16.15487303589426, -1.3275484009637724, 6.5450599618615835, 9.325742438510455, -0.1873441566010571, -44.69290300683306, -6.397974021255136], [-0.17185732809545923, -3.6853326633603167, 0.2500614414140325, 8.217680900354516, 19.742585116224078, -13.557262236800272, -7.909431426374486, -36.391151061539745, -4.351732393530329, 7.021855717900381], [11.299284447469754, 20.350645545194055, -16.368058930529035, -0.6199780274064024, 4.851875616358101, 15.379192495763782, 46.89352222931976, -17.476015090045166, -1.4408582788916038, 17.10798865690938], [16.819614959419383, -32.08467139793226, 0.14578851441283525, 22.03035680253892, 20.927394491342035, 3.1575290418960256, -9.57656661650058, 16.86345858413605, -2.218163731526453, -18.72760482513481], [16.23937031935552, -11.499941372143862, -9.029309088380923, -11.13953513999493, -36.562873640794606, 2.1751663291479195, -7.39570277843957, 28.435547906308404, 1.6072369526005266, 1.30266890352035]], [[-38.830502635124525, -4.508162886903274, -30.20553215607633, -15.790263524096511, -38.471323919813905, 52.08159564181532, 10.252515606599392, 11.05055337090906, 22.485114664530812, 3.7156295545051723], [-8.103259790015029, -19.24789882451446, -16.444073391808747, 4.137242715779353, 22.556546713214534, -8.08411462270344, 1.9945097248553783, 29.30780163104221, -14.870560255335961, -27.669889482105955]]], "bias": [[[5.668895226324421], [-17.867147228881556], [-24.70994414230277], [7.035061608241039], [-15.223202140308299], [18.11873440024983], [-10.680998619335032], [4.637129656400014], [-29.323710525655585], [-10.68011198959593]], [[-11.354620720344341], [-26.358578596010357], [-30.84271848106215], [-22.34841977226062], [4.37844553478789], [16.000001176286286], [21.58384504658631], [-26.288157385359682], [8.139328725957558], [-20.31795103818952]], [[-1.1677585520519247], [1.0680641134685682]]]}, {"weights": [[[-21.67764910353281, -32.971577229743204, 6.854827359254658, -50.0571218993141, 27.587907495565574, 15.178863076106925, 19.407925645715654, 23.589681364272337], [11.872362073639334, -16.065585801323127, 11.509264839546935, 46.37167823470246, 12.44416785528683, -28.767386794791204, -8.236234688509274, -0.0056470324712587505], [21.45561992882814, -8.883516483770721, -34.18920842372798, 16.683493099437275, -27.782992778025182, 12.69231538833803, -8.320084399992043, -4.709228712966347], [10.56710392109132, 2.590419460542827, 10.66989439985057, -2.4912330083630385, 0.16789250757580687, -1.6424603110753981, -12.970031160234546, 14.446409934063125], [16.852878158377216, 28.259340671956476, -20.77571374476385, -28.834649539048954, -10.26756183256049, -3.212559805928014, -10.057528843872193, 4.049510419256108], [3.130174580169304, 4.9417281459566995, 19.495421896263466, 6.988598056004646, 24.38577107110177, -11.91642513944947, 39.58999172101588, 9.356142995663138], [-8.829222602133179, -0.018231675145434112, 11.828815588828888, -7.446129125790745, 20.798013632682206, 9.328871439688035, -14.232249536320557, -4.677951240965794], [47.08144734954111, -20.419861298809217, -33.02592452881341, 16.186026229430425, -6.29817595970049, -1.3736996615824415, 10.750934388391453, -7.874539337538268], [1.06343187387898, -29.06578327680315, -4.154330634216606, 23.773692785413328, 0.009844549712515027, -0.14391490836759457, 9.579594117471771, 30.65395459714731], [2.6475656571368353, -8.110146129759231, 9.851332684829261, -1.249626756816542, -1.051410902443888, 2.9331284533285453, 27.185268579390556, -18.912922731602674]], [[-14.407698436443116, -16.56549359994818, 3.192056004141917, -7.715372030222519, 3.9278452346643267, 14.930154110148798, 0.06156643544878575, -11.105954237046753, 81.58616273517437, -10.490717073044264], [-2.283366291107502, -0.5740184548789022, 14.90611196706011, -11.865722812494162, 34.12492329255591, -17.22794759902048, -7.243722717013012, 5.557807819073717, 16.366430967247684, 15.304246560222069], [-6.504813268926089, -8.745139910757915, 17.306239355593924, -8.334091411303145, -15.534083180315038, -5.509046166969299, 29.2108335386705, 3.3953952601651523, -6.833682108145453, -6.415506461426256], [13.647250870146411, -31.205170235349847, -1.975297094030362, -17.534623944298975, 10.463580573785226, 1.032854117926981, 9.959461203936684, 3.4074934455538277, 7.955268086091252, -29.45412404119632], [-14.908963290362628, -3.86829585425505, -16.508260252021817, 20.05845435364368, -21.19429588435297, 3.0772944838134086, -23.033064561615536, -11.680824313773822, 15.868785790770664, 28.41718214851213], [-0.7526906949580938, -19.217242991530913, 1.1234468195669018, 17.145266264349537, 7.390589352852687, 12.17196269125178, 12.31008782581562, -1.221471602853271, -43.65450193297649, -4.467989506425615], [-2.976075501542929, -15.333482454325283, 2.4323478776286356, -6.012932039644224, 20.686297848768533, -6.383855592923997, -3.071171257761686, -41.87146387854679, -12.940066914759957, 10.980622710675654], [15.753403535063777, 18.604231159112068, -8.470287494169694, 4.280723219643136, 1.8480388758544388, 9.913740292681167, 44.36886200949246, -19.83748630298253, 2.5336819940878232, 4.35193714179799], [14.274744384215532, -37.0557675040165, -3.8064465381960093, 22.047966561314656, 16.316900636628404, 2.4998271236159275, -18.166129373586887, 16.73962272487849, -0.03163010178434553, -13.258698611779653], [17.389260570727185, -7.024799340547752, -0.5308502518568567, -15.419826048944376, -39.084927843290224, 5.340482693775272, -9.674712168586776, 27.45465930451489, 1.4551026919316343, 3.060852992478809]], [[-34.86526276482553, -6.30875784987769, -24.219428918354737, -19.64539479966655, -40.76714002801596, 51.34446001998237, 7.729207947365009, 8.122816109291461, 17.824818622713483, 1.3126824089104971], [-5.17580709284718, -20.617012001702864, -15.6275474781231, 6.96070102438512, 25.060932795073377, -4.627812117734369, 3.9585228210726533, 30.611623990914367, -17.5651991670445, -29.395024859957623]]], "bias": [[[9.789657460418665], [-13.599472198845723], [-22.06889048824824], [1.9384195378469808], [-4.768501186874351], [22.589854397204146], [-13.059081017532876], [5.533948989619105], [-27.58619378581249], [-9.01882107736135]], [[-23.532245959715567], [-31.161216606314387], [-35.701699364982375], [-21.997979483653758], [5.142681404576049], [15.284395514864263], [30.80524701383402], [-31.68332828876058], [8.606351793082473], [-21.318064301106176]], [[0.49089034656198316], [-2.829390562996137]]]}, {"weights": [[[-21.879607402785016, -32.49237702734658, 6.590443857648082, -51.943113776962, 29.875357917255634, 13.4525292588263, 18.86775117178364, 22.4648134570691], [11.100127890725949, -15.037769656114326, 11.841101305026244, 43.30011285587691, 10.735488840607653, -26.045116503157235, -4.791135183198421, 0.407579439221214], [22.556587042059615, -8.02117575993683, -32.872728913971564, 18.76958495919994, -26.992659431206572, 14.285136508750526, -5.145308737718552, -5.040834691903852], [12.795774902373264, 1.8340786437374907, 10.468716743920547, -3.2565291168678336, 0.7140014764066911, -0.11823312559199461, -12.315823238180046, 12.823931880504196], [16.216681462350895, 27.536018819662313, -15.086039524471785, -27.438234788613276, -5.869614752724877, -10.334810548884851, -8.106494190823321, 5.216211367149061], [5.966506066225711, 6.786803856311881, 21.409733723533037, 4.445013027438439, 24.729452943238883, -12.186892484102087, 41.7037597765609, 3.9813106803527636], [-7.702938828707541, -0.14814329414176852, 8.877613302646905, -4.001500149533747, 20.022711142665965, 8.379680286149748, -9.99902585474676, -3.0134374982608367], [49.420130534822775, -24.902343473772415, -29.26030481423749, 16.65698519659939, -5.699096406838506, 0.43196430439447026, 7.540044172948145, -6.781781211318228], [-0.44258269584996524, -30.97887910075191, 0.036333412220928674, 27.045951012971216, 2.450314709711398, 0.8354849256598023, 11.853418016660125, 29.966562847059798], [0.3189239183308262, -9.770596216298614, 8.426062082520776, 0.073868857300181, 1.6515269803791686, 7.0396402237145095, 24.633088053986437, -16.91680783594718]], [[-12.893546247755966, -14.018013237633138, 2.7107952084924136, -7.864453361191435, 0.9776113818348978, 9.510053904782342, 5.080040332740757, -5.1517939207863, 80.41195771917366, -24.680486490524657], [-2.1214966578847223, -0.18318693374879488, 13.37089875117417, -11.97810519786352, 35.04623675896164, -25.37414828112982, -8.705250861628826, 9.981367602818663, 18.765513020217583, 16.442451662876277], [-12.137455643790663, -9.549017210381777, 19.6525183055757, 2.5944964641089094, -10.454194355922665, -11.622187266789922, 20.97133601389384, 3.5717987698042455, -1.558024073438839, -10.093402027222751], [17.755474050775273, -32.7958154715537, 4.0118874690246535, -15.508178485335684, 7.666105187996935, 3.5237081742906806, 9.24849700010303, -7.31261873796425, -1.011334052429448, -34.81647941826408], [-12.574677677548175, -0.7919524588354083, -13.767013143716198, 22.364448793238548, -20.741384861590273, 1.7631129880760252, -21.05431915518945, -8.899506744077334, 15.36688640793589, 26.104573271135934], [-6.368558273258, -20.39897306630183, 3.194852578234736, 16.65770730359794, 6.054675646571716, 14.246612214012238, 8.634842097252799, 0.9401137634959207, -41.94366037397933, -9.846050729087672], [0.49468271839687006, -2.4467944763184706, 1.7983730149878934, 9.582785955118348, 20.22892722492391, -14.152231353031514, -6.735029833986948, -35.99331906702545, -6.1352361029278475, 3.7362656616477725], [17.16503028232395, 17.509812989419007, -15.963552840677972, 8.668505897789293, -0.7466983692892004, 12.749012514157421, 48.18301899716902, -21.996999156494102, 0.45086745666345474, 7.831123722788186], [12.773417621560187, -31.94710527851576, -5.760120125732999, 20.64400580804955, 20.327446548739427, -1.419540393460239, -11.304904560207625, 16.922634528184226, -0.8963648629239871, -16.507869762526916], [15.856580250480047, -8.522948943830343, -1.0358450019473455, -14.358648106240219, -41.11485998782122, 4.843416750683705, -6.807563590107489, 26.5752140622028, 1.8449852144588723, 1.2731937866608032]], [[-36.480367166774926, 2.643838139948289, -19.27869230127707, -16.520647143293374, -25.395355675110725, 50.43097920704889, 9.736245124881163, 6.993497861215881, 25.299729817745575, 3.3336331621144835], [-3.6532375339696492, -18.895761295030272, -16.65397267051025, 6.2587113952920195, 21.526032022354897, -3.13398825458873, 0.7040831782110812, 30.854313934223825, -13.762779577439687, -27.93423519104133]]], "bias": [[[6.150585861155198], [-8.92124360036241], [-17.065573402917725], [4.720634938303026], [-1.6750327403474419], [21.95692523594263], [6.074869118774847], [5.289893768709865], [-27.18188376975547], [-11.228031166349643]], [[-25.515489577087937], [-29.492091264791963], [-35.86164048608117], [-27.445239206240032], [3.9357776021794537], [17.222311961557946], [22.678710475897205], [-27.10097475754051], [5.552404277636038], [-12.483479305032876]], [[2.032788241387904], [-3.0799961886060383]]]}, {"weights": [[[-24.347728685886043, -32.477252195849466, 7.00812865056785, -50.43602121021521, 28.428191100311057, 13.694272263189106, 19.2185611724494, 23.579055369336004], [11.221879953911479, -15.037769656114326, 12.372569012537136, 45.34709570326923, 11.819574374340666, -26.603677145772647, -4.791135183198421, -0.0056470324712587505], [21.941953966176367, -8.02117575993683, -34.49944016770189, 17.109432445447155, -27.41755842375904, 15.669405106154596, -5.179735676145977, -4.294104811272323], [12.032433068444435, 2.747219878680298, 12.381748636320744, -1.915883109249282, 0.7140014764066911, -3.6072860894766827, -13.297799298590984, 14.446409934063125], [17.27507709643193, 26.289259294674462, -19.471440497669, -29.476390902592428, -8.53691919461705, -4.9594510954043844, -9.523357057952143, 3.242872999253742], [5.570989584316291, 4.536329576077371, 17.86611670517694, 4.557843266669609, 24.38577107110177, -12.151314503847015, 38.99860335612663, 5.873080112753424], [-8.829222602133179, 0.6047708143232141, 11.479135814995331, -8.064818171157492, 21.271511594778925, 7.388989367802667, -14.232249536320557, -4.407610522389468], [48.90249920911756, -18.88273375752771, -30.0952198700895, 16.777983915500403, -5.83158501966247, 0.6991716537332019, 9.372823475751739, -7.874539337538268], [1.06343187387898, -29.835918821663274, -3.3188113672035, 26.67611473378663, 0.5725057574043753, -0.48659463949526294, 9.70303072863662, 30.750592124426298], [1.0902993794884424, -8.110146129759231, 8.371330046700264, -1.3532610214571026, -0.7557925190497778, 3.7075228732121976, 28.40274404865178, -18.912922731602674]], [[-14.299504633916538, -17.96785489021828, -1.199371697706988, -13.002344651450267, 7.372389105357202, 4.326078437301368, -0.3116679266226816, -4.789832409440154, 81.32924519652857, -20.959414012531834], [-0.9231033587929341, 2.3931478989593993, 9.579705889870937, -7.301482128288557, 36.164752976410625, -23.443476172859075, -7.7078828753961925, 8.48510260672498, 16.2327790430427, 12.676157915402486], [-10.69278908474402, -14.196089533992247, 15.96083493816107, -2.5055883678515705, -12.011309224764133, -10.417235288076768, 23.445030170146563, 1.6756624188431057, -1.46975939566087, -10.65320709227811], [27.611935567671186, -32.32785735116436, -4.427776157356377, -23.034270629008915, 12.068447196974653, -3.2507509301836466, 6.485545072353712, -0.7484020256746767, 5.618915395646028, -32.5073347373913], [-19.08398859088382, -1.4892795141815307, -13.465024597996468, 17.583524269723284, -15.935845690590478, 3.832103629383419, -26.314754277253755, -5.941028403788126, 23.563113871285108, 36.79564900670055], [-8.146523069942518, -23.596659801257747, -1.190147545450571, 14.881682175502402, 3.5513571632646763, 16.20866185423721, 6.736594574638974, 6.502768940658537, -35.16855496608147, 1.602275536022376], [-5.402477747722689, -4.626243708115882, -7.00378075940004, -10.715234717539898, 22.391696755846816, -9.359007421052826, -10.937638011984772, -42.24878731854217, -7.813864342535251, 13.968782018873142], [6.951416721916765, 19.12282815703562, -6.625514240918903, -0.07521024565075246, 7.38290312094301, 11.829254770407907, 44.522843551931025, -15.965373892341368, -0.6693376143253864, 6.90636336265368], [14.268848278376213, -39.144199568901776, -3.2016237427476866, 19.361523577545118, 16.986362068084347, 1.97348857078321, -18.166129373586887, 16.73962272487849, -1.0266005821816122, -13.783042802344637], [19.546829237807014, -7.428799340678069, 2.464751154720222, -16.49535536846568, -37.26680550567312, 3.9727283387537, -8.617964435864877, 28.06788181190482, 0.8730018567602781, 2.0924914562975707]], [[-36.64482011329768, 0.32417276901608805, -28.168404914921283, -18.975553827225827, -38.7036903050344, 49.61096207078157, 11.972557234424965, 3.8359353526251003, 19.341444610589374, 4.848574493013888], [-3.1344696265462915, -19.61144770586714, -14.715281038073348, 7.201716343280175, 25.05174658541051, -4.627812117734369, 2.903184457010065, 30.198095318547203, -17.75606806637172, -29.238797289700816]]], "bias": [[[12.970609272267176], [-10.623870651470092], [-22.63722641544778], [1.0307447553450306], [-16.12012952540643], [17.629867269479615], [-9.831926546437014], [4.086569401275712], [-28.22282722967468], [-8.141643599134124]], [[-24.30237028657386], [-29.971203586375385], [-37.43475147925086], [-28.92559305616748], [2.43272794467911], [15.318453046749747], [27.51584689970583], [-29.93234959845869], [12.077118494977698], [-21.95526755685794]], [[-3.279459954928496], [-4.864648413542917]]]}, {"weights": [[[-16.78780913204025, -28.15349758787936, 8.518632718923337, -50.103756009796406, 31.668939004523118, 13.602939435003242, 16.496901496202863, 24.524039773057147], [13.736208699832618, -7.540927814563926, 11.94919301745205, 57.047228238170774, 12.151989355460362, -25.070045188270516, -1.0490745736597447, 7.7628585143870055], [17.238880678338834, -3.6889777436008995, -27.11308679993644, 19.731619182251553, -29.448025842197, 9.276762025327205, -3.612756151615516, 1.5052294841307532], [13.5058134897098, 12.644308351155022, 0.18393177704851726, 8.834324894776644, -4.807452905304013, -12.32502855218355, -9.44055530092438, 16.369261884433428], [18.651941719922274, 30.941588676229838, -15.062778056973452, -27.273369038246624, -5.13101109002501, -7.438403791183516, -12.886263422842058, 6.587059838038851], [7.103354172110639, 14.749603592489184, 20.221517724645523, 9.0906017438902, 29.133404035138078, -10.18068707513291, 37.83990825207681, 2.412182870524652], [-7.392960100518777, -1.907804205114807, 10.771273197079834, -1.634329788548826, 19.09355965916531, 8.954170225399114, -10.654152532371489, -5.717729956621266], [49.60792207076542, -25.634447512323757, -31.988146912573157, 17.85844357553163, -4.619099353283132, -0.5644881146342298, 5.82951119725506, -5.5003845666556845], [0.7530352500536898, -31.361921120177367, -0.017432321590397398, 25.511707827978334, 1.505970391285128, -0.13050490373690943, 12.656978707156245, 32.6340606279784], [1.677972798580705, -7.790479549618524, 11.413789096036654, -0.3906574818854329, -1.5302026430769526, 4.63339406987024, 30.86106678371274, -18.420263450994444]], [[-13.646972283265807, -19.726464647549452, -2.488535014971258, -9.705396874120959, 2.8829165911174766, 14.801671760129526, -0.3674920591499289, -9.394815436772072, 77.30370683674667, -11.567817571679065], [-9.57340635072914, 0.5519916836611132, 8.549826229848996, -8.287913098199386, 44.3955394639764, -24.42023883800063, -1.6910134375706738, -0.6312589114388649, 15.225577661199502, 8.46605287735303], [-0.2740930077802024, -11.849584772397636, 17.825768972816142, -6.768869130675042, -13.22087804235835, -7.714761891562005, 28.77995163689105, 6.018759902345713, -8.241659796204237, -8.013890269064488], [14.918267323511136, -31.92355427129771, -0.834765810332759, -16.861885663539063, 12.043354065501925, 0.6034969953824605, 13.040711667236781, 2.792787870821302, 4.571435059731024, -30.288669310841094], [-19.368825034641265, -0.840660405642923, -15.343959526002106, 19.55736002670231, -19.483397789592615, -3.066094720440976, -25.720775969448557, -7.22879247133128, 18.117052053974394, 29.591792024439332], [-8.679112981371883, -22.556682994726845, -4.4958919681818745, 13.56072565587787, 4.219255760803502, 16.660664493532252, 3.957705244316711, 2.8834193779753585, -35.49252746439161, 3.286704637445883], [-4.875764273170752, -5.6943364157034315, -0.0169162202510644, -10.828633873054827, 24.218629473388116, -11.082742565920423, -8.31857879128208, -42.60982535609581, -13.795453475651447, 14.357529677817654], [8.311182321815862, 22.653207099958017, -6.397140705373318, 0.6948915919133132, 3.289543931221173, 7.925313233860792, 43.94555246153261, -17.51146493530051, 1.3512183916779288, 8.11121874732314], [11.977385857110662, -38.09279904266513, -3.759812549733512, 23.83913965180993, 19.433421223402355, 5.048052897434773, -16.475057846041697, 16.528473546542344, -1.5790559847042422, -14.142987631663312], [17.34240025125627, -7.428799340678069, -2.8127203647878, -15.101506020345637, -38.38103464267007, 3.7621233963473397, -9.704430564026296, 24.055043636042853, -0.49719230992153307, 4.62697933240753]], [[-35.4145962656225, 5.469486958859283, -20.782107670231866, -19.36255466039023, -28.44359593467967, 47.81582236850655, 8.391955800076698, 7.904793580559636, 21.83210380046985, 3.2468745150590412], [-0.6840991759002983, -22.784502561055994, -15.765862396261483, 11.175986527265982, 23.734655175775107, -3.946536234056874, 2.6186529431681116, 30.873400332529627, -18.927601850822718, -30.27844971040512]]], "bias": [[[9.097878438708474], [-11.3403122924554], [-18.66958354664395], [0.43592401126199465], [-18.123322040646023], [19.496365237685907], 