{"generation": 5000, "best": {"weights": [[[-26.667917736372175, -11.328105949714477, 39.89292811217808, 17.255937353154817, 111.55827712708928, 26.17009955676382, 71.50220767893927, 31.96838281704666], [37.36785728833941, -26.229182594171014, 4.08935920536312, 56.108201110572715, 37.20677370723367, -33.45628831872963, 13.839981202315489, -2.096263680569839], [-8.290395896727608, -11.652385151399631, -21.51677623982532, -1.8069684901962944, -5.2136998860049, -0.8326364018943856, 7.4091162703409825, -20.851360252961157], [-15.646618745033729, 19.565826745923424, 48.24092224564038, -24.374355771968254, -7.7869817119332225, -10.749242258805118, -28.36849242102273, -33.05372311340392], [-1.4446897016951086, 37.40648015766859, -3.3217382280847736, -59.522593736315486, 2.1394296834005875, -31.794393258225956, -33.62984437728223, -7.503592434792142], [0.6602234368091685, 16.22925450689373, 20.387946935581056, 32.41672269563978, 48.361415905180024, -27.20367219810432, 64.31360769503874, -21.861101547776414], [-8.788950848181065, -2.8925561903113266, 9.840483096278792, -22.24702066002311, 25.75231340042099, 6.300077869776278, -24.53117924936931, -7.793249532692009], [81.7390554931203, 14.016834774196626, -36.66586605203169, -18.609302269453366, -0.9957263447122857, -1.2725621966554537, 33.98041361641948, -26.99049369206954], [-2.9189814490609947, -53.13400618694059, 2.813305331011021, 42.39106843019137, 2.6559422099167733, -0.6316408531354045, 31.562818818247624, 38.95343529563156], [-10.691566175412602, 0.15701790582629005, -1.661026899617243, -2.050364731041392, -48.341161904671, 12.523459964205761, 51.767761734807, -54.88590528826521]], [[2.095450926798146, -17.081921338109435, 3.0557541901623093, -48.940773083559556, -43.822590033990735, 17.603493749807697, -31.3769830993055, -3.188607250888026, 76.05751096692369, 2.046822572030229], [-24.33848243829571, -8.510434252286192, -5.119496405977919, -35.31037165148768, 58.72192726118238, -21.54029554014506, -34.16184340733191, 35.90243945472005, 3.8054378336602843, 31.93038501014043], [-5.762337457243745, -43.558041082511174, 33.52384420677883, -18.037924768966253, -21.92946385610832, -46.693110684659764, 34.584175767807494, 38.940687881395036, -6.794813333450277, -27.392656182643684], [3.2239483179451556, -9.568510990479059, -10.157227585603453, 12.238606587060435, 3.816471699890144, 49.24784616417933, 5.917528328677953, -2.4218195026500116, 5.433517882032754, -47.937439736862366], [-3.847381931277375, 30.905425290061938, -46.00594128745177, -0.5432905566539016, 8.227464126676844, 28.34659204501451, -31.159540060692287, -36.89522508998847, 53.83407320240859, 13.877777394624795], [-8.773643420716096, -25.123334714717288, 9.352428003748482, 0.6950002916519491, 46.382330135488345, 23.124407468659587, 25.108951214155834, -12.815379295901744, -102.382041179707, 30.947161073650843], [-42.12345402238362, -53.375151040079466, 2.614130968271752, -25.934541948431423, -16.84794784800674, -20.734452362839278, -30.982419588276933, -17.473476209105964, -42.25221977161696, 10.06104526010836], [22.27143270932671, 65.6965299676873, -13.682727038589363, 48.240648330001726, -27.033520743483248, -16.910229998015367, 18.30406351095683, -45.825953422831745, 20.3008667102788, 16.896686733497162], [51.44321416088681, 12.94244611574833, 8.638480452751997, 52.67818826717719, 8.243778873525999, -23.102983213521856, -1.7872019839811721, 35.31004347309214, -21.438914103446464, -45.50966135733722], [1.060463067375821, 16.685684292106465, 8.161244348277258, -45.38689231385023, -57.67184862748869, -11.960926301438482, -33.194488089773195, 72.42955685357782, -11.077564989013226, 21.94042491576699]], [[-47.48931584646941, 17.20423428467316, 1.673205214669961, -15.583914687870111, -20.501296035469146, 78.8392486816913, 34.63069819127033, 34.327557008760714, -5.823097436226771, 0.5662592935594901], [7.166069311707419, -32.991821418835464, -6.067847432731613, 8.653595902243302, 6.11246065526792, 2.2037849510296663, -27.67799720055587, 1.3235833115528133, 4.7052629776632555, -32.96004780675171]]], "bias": [[[50.45125272055899], [12.578178214781428], [-13.706418317133503], [16.431971093586572], [-10.952147841051985], [7.855490474452242], [-9.731075371286442], [12.698322963613988], [-37.310742453293976], [-6.737562438198427]], [[9.809728842725573], [-18.38948374414212], [-53.29384575273115], [-3.606736046199994], [-30.68967998457951], [16.795468601429096], [-11.047352787838644], [-54.94358435669101], [17.849975407790183], [-28.925606191427025]], [[-1.1143564024578239], [-4.111792695106225]]]}, "all": [{"weights": [[[-26.667917736372175, -11.328105949714477, 39.89292811217808, 17.255937353154817, 111.55827712708928, 26.17009955676382, 71.50220767893927, 31.96838281704666], [37.36785728833941, -26.229182594171014, 4.08935920536312, 56.108201110572715, 37.20677370723367, -33.45628831872963, 13.839981202315489, -2.096263680569839], [-8.290395896727608, -11.652385151399631, -21.51677623982532, -1.8069684901962944, -5.2136998860049, -0.8326364018943856, 7.4091162703409825, -20.851360252961157], [-15.646618745033729, 19.565826745923424, 48.24092224564038, -24.374355771968254, -7.7869817119332225, -10.749242258805118, -28.36849242102273, -33.05372311340392], [-1.4446897016951086, 37.40648015766859, -3.3217382280847736, -59.522593736315486, 2.1394296834005875, -31.794393258225956, -33.62984437728223, -7.503592434792142], [0.6602234368091685, 16.22925450689373, 20.387946935581056, 32.41672269563978, 48.361415905180024, -27.20367219810432, 64.31360769503874, -21.861101547776414], [-8.788950848181065, -2.8925561903113266, 9.840483096278792, -22.24702066002311, 25.75231340042099, 6.300077869776278, -24.53117924936931, -7.793249532692009], [81.7390554931203, 14.016834774196626, -36.66586605203169, -18.609302269453366, -0.9957263447122857, -1.2725621966554537, 33.98041361641948, -26.99049369206954], [-2.9189814490609947, -53.13400618694059, 2.813305331011021, 42.39106843019137, 2.6559422099167733, -0.6316408531354045, 31.562818818247624, 38.95343529563156], [-10.691566175412602, 0.15701790582629005, -1.661026899617243, -2.050364731041392, -48.341161904671, 12.523459964205761, 51.767761734807, -54.88590528826521]], [[2.095450926798146, -17.081921338109435, 3.0557541901623093, -48.940773083559556, -43.822590033990735, 17.603493749807697, -31.3769830993055, -3.188607250888026, 76.05751096692369, 2.046822572030229], [-24.33848243829571, -8.510434252286192, -5.119496405977919, -35.31037165148768, 58.72192726118238, -21.54029554014506, -34.16184340733191, 35.90243945472005, 3.8054378336602843, 31.93038501014043], [-5.762337457243745, -43.558041082511174, 33.52384420677883, -18.037924768966253, -21.92946385610832, -46.693110684659764, 34.584175767807494, 38.940687881395036, -6.794813333450277, -27.392656182643684], [3.2239483179451556, -9.568510990479059, -10.157227585603453, 12.238606587060435, 3.816471699890144, 49.24784616417933, 5.917528328677953, -2.4218195026500116, 5.433517882032754, -47.937439736862366], [-3.847381931277375, 30.905425290061938, -46.00594128745177, -0.5432905566539016, 8.227464126676844, 28.34659204501451, -31.159540060692287, -36.89522508998847, 53.83407320240859, 13.877777394624795], [-8.773643420716096, -25.123334714717288, 9.352428003748482, 0.6950002916519491, 46.382330135488345, 23.124407468659587, 25.108951214155834, -12.815379295901744, -102.382041179707, 30.947161073650843], [-42.12345402238362, -53.375151040079466, 2.614130968271752, -25.934541948431423, -16.84794784800674, -20.734452362839278, -30.982419588276933, -17.473476209105964, -42.25221977161696, 10.06104526010836], [22.27143270932671, 65.6965299676873, -13.682727038589363, 48.240648330001726, -27.033520743483248, -16.910229998015367, 18.30406351095683, -45.825953422831745, 20.3008667102788, 16.896686733497162], [51.44321416088681, 12.94244611574833, 8.638480452751997, 52.67818826717719, 8.243778873525999, -23.102983213521856, -1.7872019839811721, 35.31004347309214, -21.438914103446464, -45.50966135733722], [1.060463067375821, 16.685684292106465, 8.161244348277258, -45.38689231385023, -57.67184862748869, -11.960926301438482, -33.194488089773195, 72.42955685357782, -11.077564989013226, 21.94042491576699]], [[-47.48931584646941, 17.20423428467316, 1.673205214669961, -15.583914687870111, -20.501296035469146, 78.8392486816913, 34.63069819127033, 34.327557008760714, -5.823097436226771, 0.5662592935594901], [7.166069311707419, -32.991821418835464, -6.067847432731613, 8.653595902243302, 6.11246065526792, 2.2037849510296663, -27.67799720055587, 1.3235833115528133, 4.7052629776632555, -32.96004780675171]]], "bias": [[[50.45125272055899], [12.578178214781428], [-13.706418317133503], [16.431971093586572], [-10.952147841051985], [7.855490474452242], [-9.731075371286442], [12.698322963613988], [-37.310742453293976], [-6.737562438198427]], [[9.809728842725573], [-18.38948374414212], [-53.29384575273115], [-3.606736046199994], [-30.68967998457951], [16.795468601429096], [-11.047352787838644], [-54.94358435669101], [17.849975407790183], [-28.925606191427025]], [[-1.1143564024578239], [-4.111792695106225]]]}, {"weights": [[[-26.2512469896833, -13.046575145405082, 47.929483278116535, 8.79112354733427, 109.02310519488465, 25.72606547021597, 78.04709486950391, 30.16476828307279], [35.823866443988955, -29.395359684004468, 7.692563534307881, 60.93617236398873, 38.58250889050828, -35.52892456641106, 12.933415676908822, 0.2524422448993966], [-9.120974746976875, -11.673382404578955, -21.914594590591896, -1.0441247331146557, -3.0153365244995753, 1.0340996502064295, 4.53859675271116, -21.979667924767217], [-13.64025863135933, 17.15333672474978, 46.65537440671652, -28.720267613125426, -9.34199183394611, -10.316622081958227, -30.25216970508222, -32.43625430556566], [11.27486652165883, 30.275888514674655, 3.2457638289391775, -65.4048687567368, 1.5332548229419092, -43.90140781058851, -34.19873812354642, -5.254245473459864], [0.2824213045560098, 20.558284235180977, 19.031258977783256, 25.196955544919366, 54.27866603846096, -18.07889615096667, 64.7386719115093, -12.661320964493953], [-11.357758101819243, -7.5588081179528475, 15.060024415912476, -22.222043544844222, 34.30215837048694, 1.953407834267245, -28.347299949045734, -6.688260589241755], [81.25337213470686, 13.062069947291523, -36.54675468157581, -10.452725551527148, -4.0397889374682805, -0.2957612387118771, 38.980281238566654, -13.192107100942804], [-4.502523434907977, -50.69981885665796, 1.4065414234147042, 42.04011548465969, 2.63301124998402, -1.0839907308975085, 31.692846564746855, 35.24590028232244], [-9.860507796668626, 2.5358775235729274, -7.113663438522596, -4.712070382481511, -46.34682085257813, 14.377571608892088, 48.56969377061163, -55.55391205210935]], [[-5.515475987971013, -16.318203720691496, -0.40615059069396664, -44.969373164901235, -46.57485692095427, 28.15713056929777, -29.741307250750467, -3.5086437241743615, 80.14475810567717, 2.89631224423879], [-29.493938896650885, -11.2012282473449, -2.1984857968666827, -29.48175820967117, 62.40849279922209, -21.27855678622963, -37.93446460861407, 40.20100928725874, 1.824732007470843, 19.91133636467779], [-26.645015959305162, -30.99277188208516, 35.538777417321754, 4.074614202091898, -16.738978186936027, -53.81561864714971, 31.241691642427, 42.418752996984445, 2.80605629294174, -40.5634261688579], [2.5817385617955226, -8.639414323346738, -10.57718776131147, 19.28824491575312, -2.1114043606322723, 44.02981219734871, 2.2906422396266377, 0.48990590822586566, 5.653197434754095, -52.08735821425427], [-0.7529866873524957, 30.815070188155506, -43.799882992826774, 4.472136506281374, 11.001092774471433, 21.628240177353653, -31.418228464500423, -43.17847653860039, 55.104771450224, 6.426647015968852], [-13.745466863941738, -19.798535496416843, 14.931894234814154, -3.8061975788325277, 48.83665613701645, 24.631712649356466, 23.907900538821593, -10.370526101723042, -104.00237493943878, 26.75542945019669], [-40.722778885037464, -58.83201095425163, -4.688701256324995, -26.88893303424783, -14.617570445134277, -29.61908879586702, -33.652843308183655, -17.490897807827512, -51.02826983669026, 16.382703336491304], [15.65517286213096, 59.65008759734759, -10.029096612061265, 37.920401618580335, -25.059773221237997, -20.74786527830467, 11.804165080704433, -42.882136696074, 19.64066363239623, 10.161729786792343], [42.49119026260796, 13.690588367425837, 17.269702517270943, 59.35228612302563, 7.444523638880622, -15.342457080639132, -8.23158867112131, 41.74221166790718, -24.99533508442545, -29.8557719461136], [3.9212430713197963, 18.30376621652945, 4.397965823859433, -46.96499326566513, -60.918759714463945, -8.934881785740835, -32.56325845981815, 71.62081278330022, -10.944210405438984, 23.239757888503995]], [[-53.008300996673775, 15.72331523305382, -4.035414216339476, -22.46590112216164, -15.27534145311154, 80.38509722800917, 37.95300494979388, 24.885416937831984, 0.5728043772594524, 5.063907127190515], [5.187657076947775, -37.9794891479287, -7.219333836413143, 4.813296028833481, 9.756308843237507, -0.2192788576667098, -25.750098140781844, 4.036951280215372, 2.2230281958717457, -27.403623611712977]]], "bias": [[[49.2619879149291], [14.783890368163807], [-14.30888768152203], [1.9592277633489752], [-12.178769238815383], [7.043853426245851], [-10.73084145451932], [7.721617448349708], [-37.40560068940904], [-7.451554510687024]], [[17.439105233041108], [-9.022830658872513], [-49.844083163921105], [-29.716192631693705], [-31.67756338772041], [21.466596275466014], [-5.639069183677889], [-50.5462474275211], [12.22784587291076], [-33.59047964942988]], [[8.673207162051666], [0.3607604862162188]]]}, {"weights": [[[-31.269444656391027, -12.519326853917242, 52.156790485069855, 10.722269255252986, 89.57297774351345, 21.637043557780142, 73.12475257919425, 41.10003148451581], [35.841038662353235, -30.026471692685167, 8.562943486356215, 56.716700908025416, 41.93723079680115, -33.180914589973014, 17.986533392122233, -4.107314523986789], [-20.34907633539766, 7.184636697124534, -36.98734852641736, 0.3619571976990726, -3.2004095834911794, -11.409974357764726, 16.323924911915977, 4.9452800403131985], [-8.894298033743643, 16.910060120187925, 51.156385268341616, -25.78331624050865, -9.109496768278815, -15.263035864513329, -24.597180550383833, -35.96584801921894], [2.1324164115190243, 38.31938207103036, -3.408494563682032, -59.27435137395407, 4.087875731989369, -33.36497879954699, -34.04864191702931, -11.781863649983372], [1.357984905022419, 17.951589386074406, 17.284002653723395, 30.15607518191928, 50.82537481057412, -19.44321257472462, 60.11106434543443, -17.353782539586486], [-11.79647571828991, -0.7619036510890668, 8.091913231307071, -19.25130258267974, 25.038274771034047, 2.4195993983428252, -29.152191961597257, -7.940276334281094], [84.6481177859199, 7.680524702456364, -47.62847122848562, -25.406123751957093, -3.2482359334978805, -0.23293002240578908, 38.088263291308564, -12.955991680477082], [-9.480595827202723, -52.526070444944466, -1.1574814389496786, 43.87343386741192, 1.072139982582436, -0.23729023752254513, 22.99305585607035, 34.61705840968635], [-8.237347730950441, 3.2657136964803746, -2.1788312340662856, -3.4929335358347675, -47.332997679218956, 14.242052780665368, 52.071965116792036, -53.19413928655402]], [[-3.059911546991121, -15.774939182400415, 0.5300225444313665, -42.76292918224809, -42.83123753159192, 25.09829287150247, -31.64546771112765, -6.759234094808713, 75.13423988918545, 0.37679853538466035], [-27.44671568117407, -12.67278039582528, -2.3954579434586663, -38.80156184658279, 54.1165602122292, -18.431385259501052, -40.976225505152826, 38.395746478025806, -0.4597256100872795, 30.90350148292646], [-25.885471699671175, -35.36228889601471, 35.644454185430206, -3.2503278482653126, -7.8164631496558785, -49.1108133477691, 27.681681769061797, 36.403248096092895, 5.293828442034576, -41.72658048779114], [-1.7209687400842815, -20.06503074186167, -6.139253394223655, 5.810421156322793, -3.4407535037909454, 53.5733467833951, 7.476307278967638, -4.3284229763088495, 6.549338902935653, -47.09316988354642], [-4.899829476578771, 27.20029426701241, -41.44147242602127, 0.045545732531011074, 14.871446393592798, 23.3698712397513, -32.19421001238359, -35.478534413124855, 49.673504963221475, 10.25059414530942], [-8.773643420716096, -23.04863666552804, 9.759791350367502, 0.1958986271657222, 46.68854757229063, 22.62768048295126, 26.450162014137764, -9.306381258379393, -102.75391012995361, 30.690568972531953], [-44.216019564489045, -52.928525874720926, 0.8745376771100861, -24.726368988702287, -17.56163927560774, -20.010552749461805, -32.99341553742745, -9.035244806074477, -45.21233045249267, 14.644341241987362], [19.364983437905153, 64.55603535684452, -14.506268278637075, 45.2782603144956, -28.303517651653618, -16.370524000881755, 17.657087053257122, -45.79307411079771, 18.951197370499617, 16.381720194949523], [49.41428617278567, 15.476053769469072, 6.9708864616934605, 51.173784177720414, 9.296801905867376, -22.262768344421136, 0.24788473883265005, 39.20119037535009, -17.357668621792683, -46.92657217089206], [3.016225132194137, 15.593484005485072, 4.069920364382993, -45.93750767388069, -54.42260110981529, -10.944745865742833, -32.03329778540003, 73.77723509042504, -7.604602757187074, 24.506393625926773]], [[-41.538383874153986, 11.61138854303062, 8.581637199276233, -17.58518666586404, -27.310110575333958, 73.69791200373163, 40.10487199618347, 32.78859497687234, -2.0827125110282556, 12.177342115498874], [8.200873233470883, -33.69239531661649, -3.914722139875656, 6.9156524288602, 6.415556430375664, -1.2469920779837105, -27.1225822185531, 1.910503071359441, 5.755719093096119, -32.90941023069002]]], "bias": [[[46.69312561264877], [29.009153627669637], [-18.25848977530386], [6.724831329067018], [-10.270900462360931], [5.616356585463957], [-13.158620967846542], [10.827655420080633], [-37.075908047532174], [-6.613965518315466]], [[24.52631704074163], [-15.458999943312172], [-47.8082992558182], [-20.80330305950817], [-32.749561561680885], [14.096235865244678], [-6.116006852559269], [-51.226160591531645], [17.849975407790183], [-29.133197971482613]], [[5.48013720573396], [-3.956136699056712]]]}, {"weights": [[[-25.90258738169831, -6.721892568285736, 48.054841566280935, 11.55991201668217, 108.20390604846786, 23.566447890454924, 85.04018257284989, 30.46452054472511], [35.64227294678239, -30.832612677305583, 11.172139212669132, 53.96132835496313, 38.885461058259224, -30.7587426825646, 18.348699992652556, -11.367182575192306], [-17.269221041368887, 6.2625002232989635, -31.96760855367483, 1.8210592846788916, -2.711074925987938, -16.066007054121997, 17.600174246736778, 3.1475744131025696], [-23.61381067093437, 14.847617120499251, 55.836610292804394, -18.061602355136785, -14.961831806357367, -15.90002733517996, -26.89990251315096, -39.46999474808352], [3.7269810441953886, 37.0969033411122, -3.3968272480505006, -58.04521640759942, 4.542340719213253, -34.7719319494393, -39.08272134027345, -11.06430422381254], [-12.902675756117421, 5.759344755638139, 25.851024464157756, 24.287358793853038, 54.15581132355932, -13.910769022646976, 69.84594129923016, -29.13665359952227], [-12.602368419709862, -2.879441598948758, 11.65036212088497, -22.064545853421958, 14.601991618477653, 6.369329915781074, -34.12317895854655, -3.1726680672872316], [81.7253372568083, 13.707832978270634, -38.802718625295164, -11.616413449380644, -5.4063491945157995, 1.87873648362667, 38.01684159250193, -14.551070722696076], [-2.523090853189981, -49.95187673801444, 1.9357063572074473, 40.403479696226796, 2.1694028763892854, -3.2173125346327325, 32.0090611887821, 36.188866114309285], [-7.763419259785968, 4.146471670787994, -4.741137437664671, -6.226874706115282, -48.212620821205455, 16.17054994714155, 52.369921539698126, -54.61307473819185]], [[12.958784756540975, -1.6794490543888496, 15.77337545449876, -40.94245948977871, -39.03295407384056, 19.55168219641726, -35.83429871023608, -19.18622165723664, 75.9015274276255, 5.195412876622913], [-29.616503903578288, -13.247110980175677, -5.652421464798907, -20.226352194707363, 55.62292937210139, -23.952345326547096, -41.70548736366882, 36.31132786804623, 5.647271622588026, 26.07698808350455], [-4.4915504251631235, -43.37525078843428, 34.71639426265846, -17.467592738065584, -24.82425799181624, -45.42310910631648, 37.10575371650177, 36.665419559014424, -5.029006063244607, -25.01898012515407], [4.772875858490981, -7.7458023902858155, -12.691937001250146, 12.008004838415435, 2.2438895377932333, 52.66285893617656, 6.909910466570706, -3.829060317902973, 3.188648029698167, -45.761659422090105], [-2.5889875154500523, 26.994412640675456, -49.72565273190342, -1.9768685021066181, 14.703606688140194, 22.144157991572772, -27.37340563828262, -46.177711068588245, 54.385601773532315, -4.684731415026816], [-4.284433793480418, -35.08267959316076, 21.10843511062466, -1.8900886943941109, 53.615367513887065, 25.674815197022955, 29.16589982327814, 2.1357894713363397, -120.8468249117196, 26.075565605673457], [-25.472749030962177, -55.20519074048086, 2.8154102553829663, -33.794216988333865, -20.6403629097964, 6.223105812002489, -36.341712425995716, -18.90635059005827, -30.896080707923726, 21.002688509059283], [26.073000609516413, 59.34918982217329, -17.350344669445636, 54.31240844813201, -26.71917928800645, -19.225427651016318, 13.448395223192371, -54.85024456298265, 18.705894930195747, 16.39807772422909], [44.01263251264315, 21.48427931753895, 18.436919504745408, 61.16083515979368, 11.222564001018618, -16.32799126262521, -4.949650672269232, 39.59288489175856, -26.049790243101267, -30.625446728778105], [4.582448156632527, 15.612354870935567, 9.899629961547767, -44.69152942868193, -63.540339697116906, -11.536478596299316, -30.153609502427763, 75.63364237219936, -10.874795871106175, 23.435393922986634]], [[-42.05260253924192, 11.177292544007905, 6.9802598143050645, -15.745897611799078, -27.32320517763917, 73.5160534832713, 38.002013332173604, 30.641541639780826, -4.039441178359193, 9.79567834462593], [5.661700761527365, -36.2536035232159, -9.69938520848096, 2.050996866121866, 8.023966034257791, -2.835011188405967, -29.742317807169844, 2.2487038151812215, 3.1535131737926667, -26.251669792834306]]], "bias": [[[47.620249690870565], [33.22608816944323], [-12.887456953570572], [10.169460413500051], [-19.123122840466834], [3.945336580347515], [-13.734417884026255], [10.247641847731712], [-41.86086997972368], [-2.776792282306148]], [[14.027448553631345], [-10.417319351708427], [-53.231927891761494], [-17.5676902794874], [-30.232213243394273], [17.459975892780374], [-7.51268340419355], [-50.6508418738607], [6.5955233761873995], [-34.274958982423186]], [[9.604104222524038], [-0.7290101686582933]]]}, {"weights": [[[-31.269444656391027, -12.519326853917242, 52.156790485069855, 10.657563628198284, 90.35510754749221, 21.637043557780142, 73.12475257919425, 41.10003148451581], [35.841038662353235, -31.94913796937045, 7.332691251762341, 55.37605723338101, 42.08758766699794, -31.85393634968676, 15.914343570203304, -4.107314523986789], [-21.53815448305811, 7.184636697124534, -36.33775296106046, -0.12161760534520588, -2.7204165628072245, -11.262130890187866, 16.37003449073448, 4.9452800403131985], [-8.349846377092145, 16.910060120187925, 48.31925569496588, -23.620496633816487, -9.073446023041646, -15.050149762050182, -24.597180550383833, -36.14300883593079], [2.8246344976884874, 38.634614440799695, -3.6589970838853816, -61.053396509041846, 4.087875731989369, -33.43192295387424, -33.825383430505994, -11.781863649983372], [1.357984905022419, 18.062428984576076, 17.284002653723395, 27.741824887066095, 51.32530783876377, -19.44321257472462, 60.11106434543443, -17.353782539586486], [-9.690797957431212, -1.0068388799038404, 8.619998652875903, -19.25130258267974, 25.073126787576292, 5.689530904243783, -29.425724395035203, -9.898215183697753], [84.6481177859199, 7.680524702456364, -46.95916571359423, -27.711597845445365, -3.965762514964963, -0.23293002240578908, 38.088263291308564, -13.181780295232334], [-10.008870336497228, -52.36213368007074, 1.6717793865108328, 44.4551626971965, 1.072139982582436, 0.38400834676353857, 22.99305585607035, 36.092668379087], [-7.087523806516765, 0.46768127547072735, -2.1788312340662856, -3.720969417118786, -47.332997679218956, 15.518875130208105, 52.255299859926865, -55.736500745528524]], [[-3.781535708734676, -16.25201675139679, 0.5300225444313665, -40.547755810525224, -42.83123753159192, 25.9681747134578, -31.75290608690361, -8.473665787031495, 77.8977038508486, 0.37679853538466035], [-26.90730625775833, -11.4252903389939, -2.702304094610939, -38.67770975924388, 53.92802898432865, -18.790501925878825, -40.629809034437756, 36.45785031486781, -1.9934196251854788, 30.90350148292646], [-26.258679627086146, -34.5602630657008, 32.91129000568296, -3.083088580539154, -8.781384738179632, -51.190012428945494, 26.928322889099263, 36.23101153194626, 5.293828442034576, -40.098031711011714], [-1.1480128809705286, -28.752888916621217, -10.134540067183554, 13.500072503116542, -10.28026772562253, 54.065863354228085, 3.904214264633762, -17.431969149726, 6.708383086476651, -47.39401531305074], [5.8241910765523865, 24.00924752000505, -53.40303297969517, 3.575844310442291, 9.343348644968325, 15.455791151593042, -30.493844128306545, -36.98996793880226, 67.96732311443444, -7.63647180052155], [-11.159849612758673, -18.380231484653937, 18.910882493245797, 7.255009661671788, 52.15067371977001, 14.890949860328071, 36.123251240668964, -17.087661739730397, -107.30712193669234, 23.062698750875565], [-43.97951878132737, -50.835903594739264, 3.982071130599825, -30.46021999476337, -18.82891729299474, -22.20178419558774, -31.1092751050976, -20.217911741930408, -48.41988933237053, 14.114289242862636], [21.173256399799897, 63.422071259319225, -16.14255207595069, 44.70916187612017, -28.279613375834927, -19.47664733228106, 20.177842528564867, -46.86631392670397, 21.52213881000898, 14.180925113059317], [48.11040332945121, 14.875461863169074, 5.2675734083159105, 53.886127142907135, 6.552309095530203, -20.567373629219595, -7.3832207872138795, 36.63099373894853, -19.791732048505555, -41.622281930013294], [3.2118866411956866, 18.50044477474909, 7.461157899526521, -44.623116883283096, -58.51928347930177, -13.876532267923864, -33.75697905128791, 72.58338521461806, -9.875736697720578, 23.975800100497327]], [[-42.44940169535626, 11.56119331844183, 9.53080793870725, -16.860684572552994, -27.323169166403314, 72.87142193800042, 40.10487199618347, 31.986567534688792, -2.321054420479322, 11.888369689873755], [7.785649175313756, -34.895378293456815, -4.376884858235987, 7.425925015734268, 5.825603980666842, 0.5513555696387202, -30.845560640678666, -0.6027300705008698, 2.7244076616927755, -33.514269798389144]]], "bias": [[[42.7634457687191], [28.78534166139863], [-18.414133311002832], [6.564566643744101], [-18.84113184619668], [7.809224914237387], [-10.62678360417681], [5.129278991497425], [-42.00302660395572], [-5.645791849449181]], [[25.379795425703158], [-15.44366854590631], [-47.8082992558182], [-22.055584163168806], [-30.63245609683442], [14.642220078803716], [-7.546839951054175], [-49.49901946060942], [16.65669330942309], [-29.095092564050983]], [[6.248807780598049], [-1.208472617359198]]]}, {"weights": [[[-27.487428945410137, -9.352747715993214, 46.36791948867264, 6.927296485892736, 107.16924839269947, 24.357964343811044, 85.5850558353694, 29.360997153122312], [32.40026063096763, -32.20947739031099, 11.82767534277595, 53.111019293107475, 37.498536731276, -28.26557213563908, 17.3508967513563, -10.97090244650007], [-18.276306953739116, 6.209688566229278, -34.202667312979784, 3.6464965011938473, -1.8141106203539616, -15.334984600340613, 18.039816051357768, 3.7848503298771075], [-12.770907762269264, 15.897606909276531, 48.06750864304365, -20.14240038473261, -16.379428618928273, -2.5762010335889047, -25.922259896152866, -39.01937899828296], [11.261621791303995, 29.27994969655435, 2.8933463611667087, -61.611106329343585, 1.9022120455998621, -41.771129606560116, -30.07398146697661, -6.551063186917379], [-0.652597197605439, 22.522120268149592, 18.310279201713698, 26.332982028845606, 54.18747251897147, -16.57923067629868, 64.25689800749538, -13.20700703402902], [-10.72888080462909, -10.173766635764768, 17.47646271900302, -20.188309555202913, 34.286592266699664, 2.3180070830423936, -29.18278861208883, -8.288665560382155], [80.86198915915325, 15.121937966988213, -39.04963865882753, -13.281449768672886, -7.624218375853356, 1.6269494502196309, 37.37541031769443, -14.837895075789561], [-0.7248921376268764, -48.573219937836875, 1.1317380231070022, 42.725164699437634, 2.2170606798888746, -1.307022568332312, 32.111942439457806, 36.01803102294989], [-14.380281146900469, -10.339956490040729, 3.664319720979926, -14.085619759511495, -54.80051486351702, 10.880219988421956, 52.222641045347046, -48.42068435373078]], [[5.462832229159459, -3.7136592255869627, 6.205408905634266, -54.292927724422405, -36.77268016926914, 24.959936132473246, -32.55809569616377, -9.423564699163185, 77.02912210528035, 7.012344373748935], [-32.00190433126762, -8.830553524202731, -2.728972185581849, -24.136650635272243, 57.041735320132574, -25.422469483317848, -42.8340545319568, 31.49498621381744, 2.5373204380832752, 25.65759009107118], [-7.314544725958867, -35.37546758039323, 35.32119247111731, -17.16491582571578, -18.985045905823146, -52.487372837405665, 35.01200256043184, 33.09499134258205, -0.770482136928285, -25.59409090036739], [-5.50948010183602, -16.304537966197245, -7.161924999533557, 1.8605093308128238, -7.938341142242883, 43.86213318203347, 7.3784110957460864, -2.306329505444011, 6.672887919369753, -44.89347090168449], [6.248989564067815, 23.16199658639506, -59.700101219135, 8.816327922815818, 9.475321068263055, 12.796860249845395, -30.944785321064394, -46.94356604697817, 70.59677171707682, -2.8384622267827053], [-7.977516131998712, -34.295741294277086, 22.566179313132725, -1.7957776440401925, 52.3316874728476, 24.264029473235553, 28.450785648059668, 2.682900494510869, -120.8468249117196, 26.92681030021375], [-43.729310863440844, -45.66235539535661, -0.4708178049016357, -28.681311632391928, -23.150752306114825, -16.21743873075388, -35.349327713512956, -15.178604472956449, -38.09100626049239, 12.33176106100272], [18.002522944006568, 60.38740257727677, -10.59039444625745, 37.344606927214215, -24.15658399862874, -20.281445786550222, 14.335780419729291, -42.284462310902384, 18.47840554149387, 9.096598641056032], [46.40177404098357, 11.625877675919124, 9.024687777459746, 70.9540207945193, 3.459730891840187, -4.035078856328533, -7.4802818109175675, 40.397365737576436, -20.414128284477503, -31.850359804908155], [2.834150749549373, 9.945565262015265, 5.453197776101497, -31.862802215014405, -75.73450018738546, -10.279536258529337, -24.15733140486599, 72.29742033322658, 4.24116614591241, 14.322240288248153]], [[-40.24354640998805, 19.181866019477102, 5.055005781984938, -18.508363844062565, -35.450455546195165, 70.30436551682944, 40.608256407124586, 26.057505425608976, -0.06247780744408016, 9.18851021072413], [20.966618678672166, -31.071910176143998, -9.426264108912717, 2.8493391877489405, 10.02316333433863, 13.042686809457953, -20.88227628233384, -1.0974719859694386, 15.474879943805217, -47.31136850013241]]], "bias": [[[51.76682235318432], [33.79441569354296], [-18.412485790721327], [0.15289569642409173], [-20.551663345743595], [-1.7014116644806667], [-16.245971760418662], [21.054701416953087], [-31.339763533713963], [-11.982247242657916]], [[11.822920584650547], [-9.976218254327684], [-62.92183610585923], [-6.112389670160828], [-32.82565336459012], [17.792215826175177], [-9.046035213286325], [-54.086819319670674], [9.077483800037552], [-32.17027239768368]], [[-7.043588327800189], [-12.864477097554973]]]}, {"weights": [[[-24.627010768929146, -9.22865634073831, 40.89165541894531, 14.964020211291727, 112.23364691614552, 25.61432414917462, 72.2506230426069, 34.00715985630491], [39.752219248005275, -32.00117331353194, 9.01400522267348, 59.19680723280859, 40.883710540470474, -31.304902694036144, 16.947066082938992, -3.3366903164064228], [-19.07253005422206, 7.780841791368393, -37.011008629437086, -1.6434047912659557, -4.628977286924418, -13.139621799174265, 18.23550617762209, 6.344872376672435], [-15.397330120304439, 15.12172887975203, 51.54584398035639, -20.839037248119638, -15.30298972613362, -5.2490224706824655, -30.26851546731653, -40.97130138292944], [6.146110614096995, 31.873854487445442, 4.564850229677144, -66.41199533304963, 1.856816657740491, -43.339072549404236, -33.943992597222014, -7.993890709581328], [-2.680830851889742, 14.946180763005103, 21.589822921300186, 29.7877596222716, 45.89210209344477, -23.2291819357312, 60.387119236730115, -17.46934003104119], [-17.980228017425972, -10.231471154249956, 17.92101341076578, -22.805280098547573, 24.49047770690396, 9.07870485426048, -34.40394875515738, 1.749256106885428], [80.07800636000195, 14.205025063451009, -40.08479280929029, -17.253921597904714, -4.188751872552197, -5.548085711305091, 29.37053458774441, -28.554743531319602], [-5.456927689743129, -52.08645873048322, 1.0952687940445205, 39.211729963228336, 3.5335913176408944, -0.4185407008251367, 29.266260372814525, 35.9197749597215], [-8.126867074007523, -9.0418380957851, 5.222497480381176, -12.785103655619942, -53.79485459716157, 9.99821051762483, 51.28473116913532, -52.677669862836076]], [[2.830746663991764, -16.86102719026711, 2.488669356182473, -47.834501677765935, -42.11604087777851, 22.362640516697358, -36.016172001466764, -1.4654874517419054, 72.89143393185627, 3.9916276688073395], [-24.612444905818997, -7.8237961234779, -4.65664184012477, -33.24220579317333, 56.870554958075736, -20.5879713597868, -33.329432794078166, 36.35574485759507, 2.5267695761921263, 31.895769969389736], [-13.732651629400095, -27.59166346206568, 36.58009964825832, 4.003722819353298, -17.619242078851606, -54.77184212802684, 30.98274339666778, 40.51980780244521, 5.935456224122978, -41.244448488094115], [-0.9089234298613327, -29.896739311426572, -11.85598819600586, 7.785075846005142, -11.373955741387888, 53.375295179376664, 2.7616389946625137, -18.15002355918169, 9.882164563873085, -46.456077005556494], [5.021683738472664, 22.02976168482213, -57.128138340779266, 6.816903948733293, 7.709808913668286, 14.360961062151707, -30.747560686979305, -39.48361323516427, 67.53989416085372, -6.80608783526984], [-12.051250478673829, -20.88083260772435, 14.552178655970279, -1.5783622133056399, 47.65666671589051, 26.48052709806674, 23.192273112960326, -10.247614970680923, -105.06497326054843, 31.782256173138922], [-38.192868108167374, -55.01864856905301, 2.03219758254207, -32.432311086363626, -10.762367740851534, -14.445442025971316, -33.507026450355134, -16.9877384840637, -45.42182126700424, 15.085834847359253], [34.285311299968235, 64.34838274699932, -20.066925235194528, 42.90207824381117, -23.933595943206218, -21.192274165381306, 15.420911043923251, -42.593677359031176, 9.741799016232376, 13.547450749899696], [45.23537220393697, 7.987080609744121, 8.011926600922646, 66.20668067535625, 14.710300882138718, -18.045707266621626, -5.438849565747586, 43.65292139290346, -26.42312292348896, -43.56006253854636], [4.706055591820407, 8.727571441478805, 1.4908027350648638, -35.66316548495996, -80.90999093091598, -3.1700858197058297, -27.524648366381758, 74.74546030660093, 2.202440126154745, 10.620696056091939]], [[-44.13433989507399, 9.332276602260208, 8.091518252618082, -20.780725901164573, -31.4708384307774, 71.19508111914165, 36.69805602732273, 34.13877546623202, -4.360666397377213, 6.153620325801346], [14.36759580825511, -36.0828530918607, -9.072114892283658, 3.0271049174385087, 7.8886367380941405, 16.33596644703174, -22.202997446374404, 0.21763405529061308, 9.984582271057713, -46.22293000426782]]], "bias": [[[48.9194146844903], [12.185272666047549], [-17.25785299584269], [1.7250699522254425], [-20.21121423986837], [0.3243647508092712], [-16.0600540233155], [11.552641453260136], [-37.18735537032441], [-10.72997395053826]], [[12.1869706683991], [-14.797758635941637], [-54.31325062959162], [-5.593599974328348], [-25.544942497914313], [19.900323218877443], [1.7369058023165058], [-54.5183183567697], [11.549367644718876], [-32.068029073800666]], [[0.15168290074843138], [-11.285145851194333]]]}, {"weights": [[[-32.415055360118174, -11.330953660598846, 52.92790058676478, 13.073013865030939, 91.85914676295467, 24.929425396727385, 74.74059216531663, 42.98614460059104], [41.14032570884128, -33.056086479227474, 13.592831076012226, 62.446135686564844, 39.216571538884246, -39.734398245154296, 17.259986936640527, -5.4550861040461545], [-13.31049970586883, -16.664645689516107, -19.34107419946406, -2.1275217398361264, 3.6693617619657863, -9.243324095495009, 7.441123245676976, -18.61453032876897], [-8.611925672930587, 16.916622454440713, 49.12117074880624, -19.035929004407137, -13.164855387443957, -6.248451119923956, -28.269454724697997, -39.25469131454258], [11.593399837265512, 29.412120083893697, 3.6288086846064154, -63.30616437668079, 1.3939037123397489, -43.60644491415613, -34.04404270399478, -6.309964583967676], [4.184232761831295, 19.86940572559451, 18.227699914238602, 31.016698677852443, 53.0975898061266, -19.126528401474367, 66.649909217737, -13.54435942745943], [-10.226868390327754, -6.8464948946854385, 12.290553097223697, -22.245664356304776, 30.500974810254018, 2.9479444729237554, -31.03798930042257, -8.71651277056888], [79.60211875706999, 14.629464852825237, -37.594806051690334, -13.788915031818018, -7.5697852955889156, 2.156477341148169, 37.19982373075036, -17.47262827385192], [-7.048243504794236, -54.17963761250455, 2.7958463758200374, 42.284886777981036, 2.0941005723633754, 1.5181050775015785, 26.181669945790464, 35.38453309336964], [-11.280716945530589, 5.111053173206868, -6.666547037664826, -6.4006984243198985, -45.328280949648416, 19.410907891788366, 48.04924315091647, -53.85712413696627]], [[0.0681371442850347, -16.65379965618543, 2.0210030646627506, -49.91538218043571, -43.650562576626925, 20.939426579673327, -31.17302654891373, -6.1551270941046905, 80.51838058612046, 4.637324792532462], [-29.34589112156894, -7.994903738998273, -6.802420628432391, -32.01219369337448, 57.05069510243236, -15.727062978716553, -33.43129298324304, 30.91238070958147, 2.6871640835817114, 34.14281476358398], [-12.764754021720536, -29.276648987319636, 36.736691445265365, 2.8790653577840004, -18.553316384615076, -56.22307804999846, 34.344534794760584, 44.945153147981195, 0.9972679453669279, -38.201395203225196], [1.751129982669264, -29.9708176946715, -8.099874524836393, 11.571164477335973, -10.422238934626376, 54.006555912364554, 3.8010948621173837, -18.4750172459507, 9.686392642255583, -47.73916223917096], [-1.229545933967492, 28.121763069531024, -47.89093260889586, 2.1068999537259483, 6.533656248990768, 25.998558640643726, -35.040468935489685, -43.80746452305332, 51.523718468310136, 10.04432077638259], [-13.9234952635451, -26.37032771313633, 13.066836563575135, -2.4758272145386533, 42.518291334299796, 24.294232781651857, 23.84851751311035, -13.428337172888915, -100.25383494720295, 26.57749267831504], [-41.3371825745857, -58.66649900225425, -3.8996765787926675, -26.71934705308568, -15.06946301965385, -30.640762294210447, -34.78084133858759, -18.594881578474897, -49.24057606891042, 17.96102292555973], [17.421935423111528, 60.94920736846438, -12.189147064853314, 38.02788752957125, -24.994212653404535, -20.186487028353607, 11.98122824724328, -42.82969500560883, 18.727597600416644, 9.805196394802747], [47.704634128950694, 13.213899999695757, 11.347183885115623, 70.95673495728617, 7.4599048051220125, -9.049151831394967, -2.3328484756417316, 41.90456986912602, -24.813577003447065, -33.801309089799744], [5.851317723786931, 17.151914276303884, 11.185836664035282, -45.10685176892466, -61.14701972819052, -14.215816184617688, -32.18858683763714, 74.73464524424352, -5.469721142434761, 17.68547722169982]], [[-42.717858861925336, 11.353468913827525, 6.678509776024577, -21.824075078784904, -27.156427044665833, 74.39677840969654, 37.21830146008113, 28.64205489661529, -1.2564418361730652, 6.220743152026346], [5.923044361438727, -34.851383621688825, -11.111978888584844, 9.830183211283982, 6.557217216706838, -1.524182842577271, -22.018486820525265, 1.0663353090953775, 4.054651632734442, -27.386399137025894]]], "bias": [[[43.852759229801265], [36.044939513375674], [-21.802753806893787], [-0.09169005942128239], [-12.08252653799786], [5.662368273906011], [-12.456212516835079], [18.404598962065894], [-39.0053399253439], [-6.408340702008593]], [[17.06196160514315], [-13.198560317051468], [-62.53623275864986], [-5.148557058358007], [-31.442181501761944], [23.043611496060162], [-4.388959345299009], [-48.585532517630966], [8.907700279153728], [-27.986659902958444]], [[4.644077320973406], [1.312502243188982]]]}, {"weights": [[[-16.836953834047016, -12.010616100767692, 48.74297852345008, 3.191381811992843, 106.42752484062055, 14.847741899013178, 78.656462528845, 35.545567715110444], [35.41100007671732, -29.205477729061844, 10.95708707338578, 55.192633966234766, 42.32567452328606, -22.777353611373748, 12.459467516306029, 5.285747742308856], [-17.89960920746116, 10.761221477867906, -31.098528083875703, 2.3343170303163103, -1.4429889368786752, -6.426782648295783, 11.27527657085222, 1.8046477822340603], [-13.514800373669692, 14.845271393354885, 45.78480343886211, -20.14240038473261, -18.38842332847038, -4.816663874521812, -27.434754530054107, -37.76816854036769], [9.866027787371586, 19.88724404123772, -1.9064685248139779, -63.67967910897087, -2.3721930217439726, -30.81693156586349, -31.661919114510987, -11.990393369370178], [-15.987181873622873, 4.4079562547098865, 26.317840534704818, 23.160666192149026, 56.87208420801665, -14.88539780853581, 66.71751541805583, -29.45412388772264], [-8.501426009120573, -2.508356974178796, 14.430151367897055, -20.647434935721382, 19.479284843663258, 6.571025110874003, -33.962702882014106, -0.4969782326943992], [78.11220749700945, 10.544632787093283, -37.495051583735844, -10.42392974575417, -4.275842176691723, 1.0508490806143813, 37.72263075547237, -15.225080520110247], [-4.061620954961037, -48.33182721581112, -2.068187818729064, 39.03035954308401, 3.493967359483321, -2.91358078083592, 34.87835375830275, 35.93966558088242], [-6.845758464247577, -4.827479860055914, -12.429251817555771, -12.760030741395974, -41.61086546373399, 10.974825627496898, 50.294595190369535, -53.824942273255694]], [[-3.703994471713313, -16.35879315383955, -1.7604398120000757, -44.36402907103683, -41.99492143567372, 25.736704852416125, -31.694255113622724, -9.065716088750445, 75.94995421712937, -2.0343305437861625], [-28.51179123793089, -10.955931931336142, 1.8579270419952203, -37.28808717323917, 60.366841085650634, -18.725851917561876, -39.47812856007759, 33.65378491327257, -1.5678888720258672, 31.97537406039887], [-28.85854068371254, -35.56675429404811, 35.15455430593618, -3.3005247145489407, -7.191948209527592, -51.43086662234142, 24.009703366883027, 39.068038714431324, 0.5753328998632972, -38.094798454691805], [1.4642151985830585, -9.162146438165081, -8.795424635810313, 18.48305634549916, 0.45658250290680824, 45.02970050541556, 5.679270820037117, -0.10737346732204894, 7.690273821544301, -52.7415469161516], [-3.09149041573804, 31.093220601991874, -42.89725230316064, -2.269871477934316, 9.36569499013584, 25.119075811363388, -25.390894784386433, -36.27628924652763, 59.323772501918285, 8.620486712503897], [-6.03357790604409, -35.0050713875364, 21.605765874257813, -3.5582149770527156, 51.64653581932388, 24.663956241450656, 28.031949933381856, 6.58006712011269, -123.68733637750199, 23.265206979843057], [-28.08715122675786, -60.87195318228856, 3.571973228250794, -35.60251461591355, -25.62158771262191, 6.8157358086747575, -36.94530064961923, -21.04101176950812, -30.24702537992741, 22.72536419559275], [23.69975178520471, 59.78953867930086, -16.67667101457949, 52.74354666225876, -27.012225746933293, -19.458248980089145, 13.160469844990764, -50.75209451156988, 18.07534853298209, 15.605231915081054], [47.138615821820196, 18.860595552191473, 22.125962564736824, 60.532903544703316, 12.514111933383727, -16.889651341905356, -5.232254390218813, 42.23032314173019, -27.00786671324123, -32.83998784976957], [4.559623162024505, 18.2352594242745, 19.028882639362465, -47.31977370705778, -57.092930347722, -13.265726070502788, -29.997672363108716, 74.03910037725632, -3.2387637570590107, 16.69209052499439]], [[-46.04066953959876, 20.93207351513546, 1.1624528919495618, -18.316797129777374, -30.880374784674295, 69.97635657956121, 36.57327508348122, 27.03402853722428, 1.563533698952852, 3.8273244126154164], [17.131237306825028, -43.06136488022821, -7.5582472954732935, 11.517075173985186, -0.6188449252250651, 4.130153475350988, -24.17625948773702, 4.43662924776087, -5.625166500348287, -33.168209507979476]]], "bias": [[[49.04714784665024], [14.49917375954876], [-22.28204668077628], [16.71516136647989], [-14.098641923035949], [7.061465152873131], [-8.482270318454356], [8.463457744749482], [-40.727447881351154], [-1.161626506041669]], [[11.520676478829014], [-8.182681954999289], [-61.000314371922784], [-7.126431458425339], [-30.599973995380232], [18.85758614894013], [-11.035244183815205], [-48.91895457014679], [16.225170785362344], [-26.404194699575342]], [[11.394211373730835], [1.8975503168070214]]]}, {"weights": [[[-17.825634285731653, -14.768040920158994, 48.74297852345008, 2.3327616738967025, 106.06314274761846, 15.7185305092699, 77.57207587245887, 35.05489245006896], [37.41634500209429, -22.54286865975163, 7.662051775400649, 55.17637766339885, 41.10711985363854, -33.28943787162549, 20.656743480753622, -1.0622189998818594], [-13.202508053609238, 8.792703361748657, -28.408853952854763, 3.589178018936348, 0.20521999496942267, -3.089558260436233, 12.748502616971574, 3.749690002724457], [-9.431685617454164, 15.072094701053063, 51.48794348582932, -17.66952873604539, -14.12101388623656, -5.3449553300652015, -29.78014078250207, -35.69466813956544], [11.27486652165883, 31.774208481284674, 4.631074936903408, -64.69679690269845, 1.7330400084669821, -42.74914486883961, -32.496006301673155, -6.864218378301345], [2.9119307401260617, 24.454743870668608, 19.170627173649585, 29.477945896561195, 51.07250129989426, -19.791623486326827, 58.565734137206654, -13.20700703402902], [-9.130883730525625, -7.921454130811717, 13.151327356221593, -22.543172594305783, 33.00723603834437, 4.651241101793972, -31.686937449138554, -9.610352762945938], [72.20289231187847, 15.225363138446054, -30.139677896708374, -20.184598336195013, -0.7221033341871581, 3.0800287809591107, 23.926357510260164, -20.60612212482635], [-6.556484287512028, -53.459875950524435, 4.922258091811621, 41.441438818888905, 0.5461844809108839, -1.3593450159543172, 30.73932029896467, 40.71957484353318], [-6.824711030708744, 2.826184775596926, -1.625391785665764, -2.8668930220545783, -49.10419076326855, 17.641324869177044, 51.303070667266496, -52.409477281331775]], [[-4.559852156417167, -17.182902551032917, -1.1988961911088576, -41.821468342193405, -43.42643914234528, 24.76921680142604, -33.37138886770396, -8.761789230228239, 76.91821183244316, -0.28283369397818503], [-26.729209787792975, -9.59907236761547, -3.9068282551621305, -33.95328907517664, 53.4466050032657, -21.737278485373018, -38.74461792442239, 31.679494909513913, 3.4902462111227477, 30.932715103648782], [-14.922224383628974, -30.829360403859457, 32.880377900255496, 4.1233255800729935, -21.054632713478817, -56.042635717727336, 32.30537050968591, 41.95350141362607, 4.381432430033797, -40.79639752030041], [1.2672809684235782, -24.81833659074942, -4.204132848017889, -0.12227097845242296, 0.08860382936745737, 56.77484982522449, 8.021270793526119, -1.8677927805034606, 3.802121125058364, -48.27586411356533], [-4.548621824329828, 27.08188668559659, -43.18175948408433, -0.7648241940848571, 12.826129966722249, 22.701983188404846, -33.078715944214146, -37.55783850172178, 53.562375507563, 10.564746052992446], [-15.764182788563046, -18.98678139207808, 24.395156828610062, 11.039407562601365, 47.47250761635259, 22.058445615335017, 34.158517730132175, -7.811032721663424, -108.88242563889293, 17.219170245924914], [-43.01792525039988, -52.651153191172796, 2.3510908650989144, -24.338907741664148, -18.272814177973807, -18.708875553275284, -31.437459833901997, -13.355565210090539, -45.7727614435452, 14.339242596987452], [18.196237630348183, 65.03023550933426, -15.462696350519767, 45.2782603144956, -29.14332278532091, -15.65378099358592, 18.142349647204835, -46.66933613419729, 19.131681823011906, 19.158460131584533], [51.35906049285853, 15.987633951159559, 8.675434607006972, 49.99272664614468, 8.589227947210121, -22.52288829347109, -1.8349369788045449, 40.464087380743905, -16.81331168307273, -47.09555817489638], [0.8191726466217004, 14.995508500675173, 8.238728205756141, -47.11947490781384, -56.6319942959708, -12.763570066212793, -31.945299713031837, 73.78070754631817, -8.58756163648762, 25.253671419619153]], [[-44.558284839011804, 14.18176396780358, -0.6753934947605151, -16.02808381052091, -21.45903401710403, 79.82611996082208, 35.65086560107096, 31.049920379327062, -3.7881576287070255, 0.7056914921904918], [8.64083563797397, -33.92979533807058, -3.448926821486965, 6.5024139073967815, 5.573356112885219, 0.2788905262487211, -27.833862272503065, 0.3175350512292101, 3.9424450559345403, -33.70452667734915]]], "bias": [[[42.97738612428899], [10.904178407823466], [-14.4824361256392], [8.244974271997686], [-21.86804915264827], [4.470387353239635], [-13.520713970255006], [12.006897758037152], [-37.075908047532174], [-6.613965518315466]], [[24.14342862047023], [-18.76991203538611], [-61.59935139517707], [-21.485345030730183], [-32.46623519158435], [18.094539850614314], [-16.37206233035813], [-48.273770946830496], [10.336617004942463], [-28.62801308726426]], [[8.398764113283741], [-2.2582249320421517]]]}, {"weights": [[[-22.133481150811704, -16.10239153822512, 45.91837898936887, 4.635934068055388, 105.65743739731273, 20.80146450321216, 76.54684946536352, 32.01549565333561], [35.903313068525115, -26.867556524407085, 10.395385456575722, 60.05610664455907, 32.96712515462793, -19.144106241224144, 9.771093338455419, 2.4006587333560168], [-11.392955914439607, -8.854258249957738, -19.947724808697636, -2.3417507833610105, -0.05528904785274158, -2.546388424829901, 13.062457189258126, -24.62986080206268], [-9.431685617454164, 15.072094701053063, 50.39703455386156, -17.66952873604539, -14.12101388623656, -5.3449553300652015, -29.78014078250207, -35.69466813956544], [12.043173679051899, 33.10215629642362, 4.631074936903408, -65.38425086726883, 1.7330400084669821, -42.74914486883961, -32.3969682684558, -6.864218378301345], [2.9119307401260617, 24.454743870668608, 21.28144389037433, 29.477945896561195, 51.07250129989426, -18.835588553019107, 59.40949345849736, -13.20700703402902], [-9.130883730525625, -6.588570456718984, 12.095048841823635, -22.297047326818245, 31.69028471521539, 4.651241101793972, -31.849157997028943, -11.397412483239668], [71.34691185784952, 15.225363138446054, -31.23204468139864, -19.770443131991954, -0.280221909967463, 3.0800287809591107, 23.926357510260164, -20.60612212482635], [-6.309584632154774, -53.795234678347946, 4.922258091811621, 42.80476104860566, -0.05213617026808248, -1.7362850945800246, 31.468984240743236, 40.71957484353318], [-6.824711030708744, 2.826184775596926, -1.625391785665764, -2.8668930220545783, -49.10419076326855, 16.54442650108796, 51.303070667266496, -52.409477281331775]], [[-2.706974073274007, -14.68744435125494, -1.2675175673580426, -43.715219010267035, -49.1033122295083, 27.779111524918687, -28.877924730096304, -5.566214672961166, 75.50767638366356, 4.035050240333114], [-28.061563608999485, -15.056344396853683, -1.972281254292195, -27.598813730488274, 55.784842592016574, -16.176530527453107, -33.846618901401484, 41.835925824520345, -2.44272688808077, 19.639596310399654], [-18.51962319632389, -38.17486511145381, 34.642542272861434, -8.292568094040103, -14.724721503168867, -55.90293776706366, 45.07200655967403, 33.89905296220113, -12.004119934530808, -28.79197222032116], [-4.746754275621002, -19.34491998780281, -4.232583732510856, -1.25356339853121, -7.0369280769235125, 51.581556689166284, 13.771161591640443, -7.310840329992511, 9.122544215004151, -48.563064453774096], [-0.1748913284723339, 25.7534931282778, -55.512181409198774, 5.359484564917854, 6.734426174667357, 12.841682102920394, -30.799639369824305, -44.276738388025066, 66.18129904777376, -8.82317809247024], [-14.993459447407178, -27.095760968108976, 12.096270888639133, -3.553782243020161, 47.285131950087, 24.61685591366962, 25.27235096731022, -14.523029290112094, -101.69760956667865, 27.577136262005446], [-36.920802533321506, -55.55878937571035, -3.749173001626042, -25.84477659517016, -17.744315326495894, -31.01633188599207, -34.1707783901104, -16.34229485867008, -49.95055390209385, 13.009863030863372], [25.761614425040786, 53.46926989088045, -17.546436064498078, 45.02245323002122, -28.43477180662216, -18.213997263328707, 13.629861836124155, -50.8941516130437, 17.903872751815754, 19.622327402108542], [51.35906049285853, 15.987633951159559, 10.060552932687836, 49.99272664614468, 8.589227947210121, -22.662916928103996, -0.11409515316362318, 41.70700438207611, -16.81331168307273, -47.72513364776984], [0.8191726466217004, 14.411335838152993, 6.083072002105942, -46.72819938324777, -56.6319942959708, -13.009145329084312, -31.945299713031837, 76.06388627424607, -8.58756163648762, 25.253671419619153]], [[-42.513250157510114, 10.214341448225069, 7.4298806957747265, -17.100926393173623, -27.5910585384834, 71.72763925437019, 39.6872621421962, 30.684667918424218, -2.3980854854842226, 5.649575660607111], [8.64083563797397, -33.92979533807058, -3.448926821486965, 6.5024139073967815, 7.387556650220141, -0.11978232913664577, -28.199637140208218, 1.7368022583980265, 5.805678930641142, -33.70452667734915]]], "bias": [[[55.24406086103221], [15.419772754844118], [-16.043582391945787], [3.236826113448613], [-19.316045815598642], [3.4492820269433633], [-14.71853560643373], [9.127849198527366], [-37.075908047532174], [-6.080918618901368]], [[18.811908715360516], [-15.275207368581826], [-60.80892859556504], [-19.531517759790685], [-32.46623519158435], [18.094539850614314], [-16.37206233035813], [-48.18808907431726], [10.336617004942463], [-28.62801308726426]], [[8.920776365256762], [-0.6649208558257969]]]}, {"weights": [[[-27.427210759955578, -6.956038259757321, 39.52745985838129, 17.58432711602401, 109.88800389151523, 24.77058090387686, 72.53217758089043, 31.721376659094446], [37.420863003146884, -27.262478270740733, 1.96981543667015, 56.799412355501026, 36.47686637355976, -33.894504324466965, 11.653697469014194, 0.6698626910229164], [-9.901441992177181, -9.427125644235021, -21.96512728580108, -1.086971057630972, -3.831559395351754, -0.3014952455734014, 7.223443927233207, -22.01900166682907], [-12.26803763539989, 19.02444494730411, 45.991089115257, -26.404284451866786, -10.471497044993823, -11.109206802008474, -25.714364450923632, -34.76361638024367], [-1.4847875290750148, 38.39948341524939, -6.738869852605719, -61.79624460744731, 3.503259852017977, -33.089615340629614, -32.31820213637067, -9.18702805446485], [0.4764334249825968, 14.852242928596283, 21.095566900773665, 32.41672269563978, 51.712004837282755, -25.843076241424793, 63.06228238079389, -21.63647248799523], [-10.626407601417043, -1.6483387374401337, 9.614991496443585, -22.08104658333047, 27.257773346469897, 4.550512472374299, -24.648814119968833, -7.580047846527455], [73.46320082126704, 16.332889474594353, -29.437346449905643, -21.315880238637735, -1.580475490154416, 6.013599679975128, 22.363982514220954, -19.135984335455642], [-10.198048046487687, -54.135980657362445, 1.8551655799137232, 38.669181667715755, 0.39188261297145655, -0.8373017746255232, 26.76085713999131, 37.181443369131024], [-12.704221979150166, -9.604380737040875, 3.6576296642991677, -14.228390383520587, -54.34867730229257, 12.173724710709557, 53.026028999526986, -49.32352787985201]], [[4.293700679556883, -1.0723549102238412, 7.863088010103184, -55.36530478964608, -35.46136250767019, 24.694793621580047, -33.24536126462468, -16.77136731927018, 73.1109079808496, 11.19729244176105], [-29.323727775584853, -11.758759160144596, -2.1167853751929657, -30.963335543626496, 63.52950692176887, -21.597947115131962, -39.00708445294789, 39.173655323987724, -0.9241868402798059, 19.40851002335135], [-23.64725658719238, -32.24267249898849, 36.72456718558799, 2.8458191572145966, -16.484207487588083, -52.78173090986526, 30.261664807213673, 44.60605657943913, 5.028845724327164, -39.49203572314334], [-5.146127333544788, -27.7185869756311, -14.817999899606113, 14.044700487699279, -8.417321038171226, 55.22688594173715, 3.5348991649883685, -14.915404834334728, 6.125630371445127, -47.102088788048945], [7.128567137865682, 25.662978995409734, -56.09748875805271, 8.669291410947173, 9.704774198107211, 10.119514427659043, -32.46146570023332, -42.71700897486888, 69.98633064385412, -3.926732693675971], [-12.71353860506268, -32.83386306090219, 28.418662806530854, 1.0064642887650255, 49.86231476449901, 20.605013791647696, 33.57510457761695, 0.07572428638063278, -123.95905218209728, 21.620487747593565], [-43.96712499497887, -53.90393801382756, 2.614130968271752, -24.318586853779934, -16.216711346273073, -21.52331534971406, -31.293688363063037, -18.039607867909975, -43.204041938527254, 13.364262545229074], [20.325583460229215, 64.99944811807086, -13.63928782484971, 45.637571375055344, -27.867652651400405, -16.758716638559417, 16.247181386024423, -43.00826626566999, 20.04594291504934, 16.2260393961979], [50.658854980851366, 14.757670981870891, 8.606036901458394, 71.30098091535507, 3.572059348172036, -2.2650122499914556, -7.03758965875949, 41.997852826403914, -21.03983728134378, -32.381018781320414], [2.78589571793036, 9.484722683813901, 5.5271722553595435, -31.701940498627714, -78.25451113630737, -10.714474420420313, -24.75375543874719, 72.78226063680609, 3.6368681179837874, 14.322240288248153]], [[-49.527690641700396, 17.13137225375176, -4.6611871078930065, -22.655434930516503, -13.564790332052212, 79.67836444769647, 38.78466110705714, 24.133012831949955, 0.6966240354690809, 6.667076663845072], [18.826080687015274, -31.935319484181942, -9.549308971318812, 3.3204015156740443, 9.533166263872772, 13.420708368315003, -21.09510562294042, -0.13020733677155039, 11.440889919603027, -46.42178630428389]]], "bias": [[[44.98447301535815], [10.112438069689333], [-5.699229943448363], [8.58892580485782], [-19.531606676323605], [7.707903077597653], [-11.956672619251956], [7.721617448349708], [-42.005701957437566], [-11.147086528236828]], [[20.10470642828101], [-7.669828258889103], [-54.24439707306258], [-23.111643970392656], [-30.583943170878552], [13.912676719144699], [-1.530405831829388], [-51.71066812636726], [8.643192150069869], [-31.184612491559115]], [[-7.807969571038831], [-12.086021501411857]]]}, {"weights": [[[-23.724164913387813, -15.798615164930226, 49.448038254145736, 8.42019857404094, 104.87907844029748, 16.144806290142224, 72.68038634270285, 31.50422155549857], [37.07389022670914, -25.781266123256184, 5.489445857198561, 58.70714616975801, 37.90331399091811, -33.57019939058167, 17.187849450814113, 2.3341206991501666], [-14.433753574246099, 10.129471138422195, -30.957625677748986, 8.554772112452229, -2.970349894191653, -5.751076461946375, 13.993846666939545, 4.944660858433472], [-10.057994569892506, 8.367360023553656, 50.73136897435061, -22.08325155020873, -9.856891905849283, -10.89714467222603, -26.615097255837632, -34.86564810367685], [11.716769583437628, 27.40915964580219, -0.13270755302631587, -63.04578288489611, 1.2393343876505138, -38.37121392155154, -36.623988845040714, -13.417775731844817], [-2.0801956189276485, 18.898040245038302, 20.65162041850839, 28.10230955808616, 48.186529776584266, -22.055255328257136, 61.216766149345595, -18.88158598182298], [-8.266237471390912, -2.1035196153674587, 10.82343879573882, -16.930786280516074, 24.596055724826787, 3.04355675050165, -27.73131957970739, -8.772964622373545], [77.80304313507726, 14.912476891834132, -33.20628855144265, -22.046178121497253, -2.13371701570341, -2.6114191246410297, 22.89732317950229, -15.751940444310534], [-3.499691903074425, -54.886473361335355, 2.377893270306838, 37.85362282520875, 0.899218426219471, -0.3817454533070356, 28.39072318347349, 39.39279744765468], [-1.9065153809622308, 8.169289725965701, -13.632791873827724, -7.432064417235036, -42.6745857837211, 3.713768282953877, 49.870365015310774, -49.70961458377454]], [[2.830746663991764, -17.87540615700186, 2.9642248547567798, -48.404710608212305, -43.84689824535727, 22.784584178171716, -32.47720982141546, -4.769051652172213, 75.20849419707575, 4.740136048999562], [-28.872629911985676, -7.834428856315344, -2.4997949356696356, -34.12965575263642, 57.3236856410579, -17.511980928897856, -33.23176524004004, 33.97771817772756, 3.2814926314350203, 32.63701692879406], [-10.075829039602999, -37.83779568915076, 37.47308454828658, -17.973182811755542, -21.135287342720343, -53.15415256233059, 35.28389565653942, 39.66180292364258, -2.3342622177706183, -27.33922456115702], [-2.279897699581079, -26.28075977882181, -2.7695679057669307, 3.0314957630848514, 0.31176107506514344, 53.90357045679366, 8.057461463016624, -3.5991527434570196, 5.129091176330352, -49.51926340477285], [-0.571252501757622, 30.17923333048738, -45.64942425133887, 1.6088626997224134, 10.835455989175315, 26.804177952433538, -30.36149114976465, -33.632592409217395, 49.67531252082559, 7.15098839068354], [-17.39655043887395, -19.884529956703943, 25.642468396962776, 10.526299246183777, 47.47250761635259, 21.22813412673958, 33.530170360479424, -7.938078587518362, -109.82229173032326, 18.680300508632012], [-26.480537229512613, -55.20568721890843, 7.804272103415125, -34.25070284309775, -22.28590825617846, 5.416972399179387, -39.13872570683799, -17.566095543385313, -27.247541567818374, 21.002688509059283], [23.8501745891701, 60.137469889500885, -16.89041307772204, 54.55051102913291, -27.040749823962724, -19.372360194458192, 15.646055275076694, -53.686661310094856, 16.175345751001288, 16.056687444860902], [44.07783943533924, 21.798412355596252, 19.293903536803377, 61.16083515979368, 11.157226354910804, -17.10642262603233, -7.146406070381272, 40.44011069520346, -28.644012702427588, -30.848457804892586], [3.761587162501955, 12.325187905892607, 18.16487034878622, -43.91780341807713, -56.74718088013868, -17.540273271040295, -28.150719774961257, 74.21125389187921, -9.318302512583886, 25.520037402407834]], [[-49.40380689455917, 17.127642843884253, -6.057329427464409, -21.12361225015604, -19.038643500631455, 78.79492390638927, 35.04837583374234, 17.068893629675582, -4.848164899986649, 10.904604834372872], [16.75849232557924, -43.90442662269658, -11.527954315625832, 9.514505140201624, -2.8431300964326627, 3.5931248860736416, -18.027457697076485, 3.6001119254254252, -6.8651155683049465, -36.497015176101314]]], "bias": [[[51.364922148395], [33.07334207913311], [-18.454356776141346], [0.2630606333606682], [-23.363987083849832], [-0.16376906875270214], [-17.462284492212454], [2.5415562929045192], [-39.08215449893122], [-4.041662198875239]], [[22.744144887068252], [-8.859088175299323], [-46.38393641866327], [-23.18754807401741], [-30.5490004565566], [19.38188196378103], [-5.917630271313999], [-49.875962179499496], [14.233034432838508], [-23.75638707905933]], [[6.924046096929513], [-0.6330484592974241]]]}, {"weights": [[[-26.384046510909968, -7.938344375581735, 37.959929105843635, 15.925012623954478, 109.33798053428217, 26.05117885448802, 74.6622865324019, 32.656011528973096], [34.88831576364967, -31.94913796937045, 8.562943486356215, 56.14451614088135, 40.051244963040055, -33.87938766249588, 16.191992436079108, -3.5148380632644525], [-20.34907633539766, 7.632945810663166, -35.5406413686382, 0.7322227240839461, -2.9036416098968743, -11.651267879652693, 15.847054142222728, 6.86625254786119], [-9.562800806712907, 15.903001445117079, 51.156385268341616, -23.540249189321987, -7.6138529398883215, -14.601857148488339, -22.50046539434464, -34.32711903133222], [2.1324164115190243, 36.56040315646873, -3.6589970838853816, -58.974848013582715, 4.087875731989369, -33.43192295387424, -33.65403037509826, -12.474839275801934], [1.1746875241753558, 16.28092697654614, 17.284002653723395, 30.15607518191928, 50.82537481057412, -20.167074033730305, 60.11106434543443, -18.372481364249946], [-9.91784437772147, 1.235767234383876, 9.329703494751294, -19.38208962259144, 25.038274771034047, 2.9568908638265587, -31.257084430909885, -8.084616858430191], [84.40629604039296, 6.936740314752857, -46.25617199734679, -26.253002525638593, -3.965762514964963, 0.41577721628470865, 37.79550079746423, -14.0813905990378], [-8.733539244342216, -52.526070444944466, -0.20380032829479555, 43.87343386741192, 0.14162162957808777, 1.386528980141058, 22.465995361791567, 33.661223745661225], [-5.185403501606777, -6.6276073418172325, -10.924152148832516, -8.896840975815799, -39.12526920361192, 11.509623392783775, 52.430984909810675, -55.53936208606643]], [[-0.5919834545583633, -15.525134514503685, 0.9488498442014888, -52.41884956002731, -44.02847729790738, 29.968680554536416, -27.797657202756373, -3.914359882075384, 79.2251438081264, -3.5492297235644594], [-27.624248669624656, -9.59907236761547, -3.894805166119204, -34.40467628390286, 55.611194396163405, -21.55576483618251, -40.60971101494839, 32.50452984148468, 3.385533643503376, 29.835581472869112], [-13.517695651237238, -30.563311188637066, 32.61001595180124, 3.0989770032497272, -21.43206947472523, -54.540513653020085, 32.09995527941104, 40.138888221858124, 6.395247698917139, -38.954287939446374], [1.228714672570026, -24.85550289412217, -4.542606448551387, 2.9037509538595203, -0.09378917668977615, 57.49100566123388, 7.211514213800698, -3.2462387944695834, 0.9520088460363159, -45.47845120040887], [-4.548621824329828, 27.20029426701241, -42.33030183035037, 0.5205136688604629, 13.390545794332684, 22.450894787122895, -32.35417947261656, -35.478534413124855, 50.86768119349418, 10.945032682649579], [-15.336077047414825, -19.24102986037952, 23.946442954152058, 9.798187274608797, 46.46577039964057, 21.837782051400872, 38.89300040860319, -8.13856214284845, -108.62358202861388, 17.86782278019763], [-43.11355937856128, -47.18433840163135, -1.3872261623443731, -30.141309434510827, -22.039186148513075, -17.990585161265624, -40.62134635508981, -11.176205507728756, -37.9669600539072, 14.613975355855914], [18.532355820030645, 64.4900326778175, -12.160827699986022, 46.36961998983151, -33.71394691199662, -18.58466329498109, 15.771923115374626, -47.06467585005319, 14.660856316451984, 12.652153793365926], [44.19313054476115, 14.24262282149766, 20.403258270333332, 65.30234716877564, 7.2512288292705875, -17.490498325782514, -7.711738355320363, 49.367877809276926, -20.93446516053016, -31.6155088292229], [2.8598194385640276, 12.535324014456355, 15.33420672300294, -41.3346962170531, -55.35109309721766, -12.492596119932864, -32.741964806796446, 77.80974057431285, -2.152798559389846, 20.21794205549901]], [[-52.06252178309944, 16.976336450221286, -6.569801337071686, -22.51877207893882, -17.714036434117908, 81.22340339357478, 35.917303873479504, 25.887154071881678, -0.6392782543312467, 11.064383398749234], [13.335581664828663, -51.96231669144335, -6.507963385198405, 5.6174341882961665, 3.328008270764316, 3.639896947172094, -18.920113405210152, 6.480705877167356, -7.636624742816814, -39.12898257431355]]], "bias": [[[49.21576658396987], [11.318004372203076], [-21.5381673318552], [-1.1019138013572876], [-12.265987192348609], [7.930797429492646], [-14.177166037414953], [5.129278991497425], [-42.01978668554181], [-3.1448649977192624]], [[26.95280911709197], [-11.139127213038343], [-47.599253736151375], [-18.052215971373474], [-29.889034785022062], [19.994959472861673], [-7.255420672735992], [-49.909415963899605], [12.005596898857787], [-28.355458798445483]], [[-9.123696708581434], [11.018893442770018]]]}, {"weights": [[[-32.415055360118174, -12.404673479760937, 52.92790058676478, 10.492715041914064, 91.67384101030075, 24.929425396727385, 74.2528195480342, 43.48968383428443], [37.210190880560106, -32.80708222635268, 14.015307575615648, 60.79693877724565, 38.805759874673015, -37.81900567840584, 16.50407212819148, -4.704985551232932], [-11.17403136656652, -14.732458576973468, -19.255176225222336, -1.144095758906094, 5.290402502595509, -7.734708447223788, 7.187404901421554, -18.87487637971033], [-8.582293837149061, 15.439747866195248, 48.557184548199224, -19.957965035786994, -15.069341769601525, -7.633773612028209, -28.025266032244993, -37.88388320375675], [8.904052728175179, 29.412120083893697, 3.6288086846064154, -66.23773558071525, 1.70171257083945, -41.02860013107838, -32.86543090914419, -7.2053535724826485], [2.7686068688173116, 21.23679177979219, 20.552510705141003, 30.078033000261033, 53.336473967092644, -18.337384061938177, 63.5834993192607, -10.113094561839645], [-9.628730042893505, -8.014623608174306, 9.944487763423645, -22.987669569892212, 31.558252374232588, 4.529248785868287, -31.882067351876092, -8.57142971256254], [79.1727309506576, 13.41949144535353, -36.74367706899934, -14.352143863680217, -7.0882884211958554, 2.6717452757247857, 37.06387454091537, -17.022382316519412], [-6.52461491489415, -55.85433453051162, 2.3690595132871475, 41.08620937660355, 0.3963393489502973, 0.29943706662861025, 29.874389051288162, 36.8144233286103], [-5.368160869512312, 1.6272223443364164, -1.7167160639078762, -4.025909713118022, -48.291195393910144, 15.518875130208105, 52.0210809137419, -53.94330608810971]], [[9.613814699608726, -15.68343446910687, 4.0832069471434975, -46.93247219221173, -43.110867094814, 23.401218778995194, -28.3104279225587, -9.472486064202684, 76.85715371010882, 4.294565177166133], [-26.292533635778522, -16.324120122343764, -0.668597255892164, -30.534494225722412, 60.773883224225514, -14.928004422844078, -33.16224555415374, 39.62525241046564, -3.156787064610751, 18.65220080238117], [-3.9209516660450867, -32.50108896689082, 34.457227761318876, -1.525902596631043, -16.878925943875622, -53.20256753293119, 29.955114671506287, 47.858409162643376, 5.725809277940359, -30.954827053860086], [-3.1095002597421075, -20.618176840544322, -6.57054788449041, 4.266648598930961, -5.479707556214641, 52.154771057699584, 9.179214981481936, -5.076321687101599, 8.875736024533223, -46.82969882727511], [-0.6516659225008979, 28.121763069531024, -46.67598709589384, 2.4990845328616333, 6.7451382348952755, 24.457439841404742, -33.50325521444703, -43.40239070170598, 50.561854744636726, 8.700902004508853], [-9.812177437316532, -17.963377677051692, 18.732242379125836, 7.3371501065174085, 52.15067371977001, 15.494983703493357, 36.123251240668964, -17.087661739730397, -107.38483582234983, 23.062698750875565], [-43.97951878132737, -51.0397759570684, 2.8560969477292066, -28.829071465910204, -19.828474875163018, -22.1577002978911, -31.1092751050976, -20.217911741930408, -48.41988933237053, 14.114289242862636], [23.323723945910473, 64.93597263931582, -15.844268417899224, 46.07386317895643, -28.422571062484113, -19.47664733228106, 19.050115496466862, -46.82428167025674, 19.520376428645573, 14.180925113059317], [48.96523745100567, 13.703814224221805, 3.2846983802095884, 53.886127142907135, 5.009050567907391, -18.597027894900663, -8.877906166721246, 37.59173359870976, -19.791732048505555, -41.01184523714575], [3.844259249286568, 16.854713866054016, 8.85377427785409, -44.60606875786273, -57.62999650488513, -13.876532267923864, -32.790478783553986, 72.37361150080596, -8.141044380350666, 23.975800100497327]], [[-42.79197142503725, 11.138132640458359, 7.496300849743005, -20.94757092842886, -26.571584320033875, 75.8904155396147, 37.28162952758343, 26.7265607563214, -3.1046038092586494, 6.222724013921759], [7.785649175313756, -34.895378293456815, -7.707541420105223, 7.282487691131547, 5.660402604852885, 1.2990761409687637, -27.55660229353631, -0.6027300705008698, 4.672829416685859, -33.514269798389144]]], "bias": [[[48.63540242324728], [11.96342445375678], [-16.06717136235392], [16.214567538653615], [-18.951241181162725], [-2.4607477280248955], [-10.589077013234151], [11.336199548783057], [-38.46763996356298], [-4.540477955949962]], [[8.003855165498049], [-18.87995953687243], [-62.06735086166103], [-19.592789252392638], [-31.732433001298304], [18.094539850614314], [-14.218564556409255], [-48.81593857926451], [16.65669330942309], [-32.32454983872879]], [[-3.5509711436214775], [-2.325830089643284]]]}, {"weights": [[[-23.361638857647158, -9.96502652166083, 44.56937633605651, 19.656608242770545, 107.58178500680216, 24.326647908193586, 70.0616814871186, 29.653688457701026], [36.43687148573985, -30.121345769405593, 10.363907926454536, 62.96173353197142, 39.997752234073545, -37.09997183503048, 15.315437139270385, -3.8071799450019768], [-22.25708507512464, 11.041030749222259, -34.95712075054801, 1.7704275811640553, -5.029468083243192, -14.335306079141548, 16.479374846386495, 4.7506404400079605], [-9.924948758185806, 16.95496494015994, 51.93640790057109, -23.44531110338824, -7.957535975525148, -12.17952472277232, -23.653034161493046, -37.61440399951928], [7.880098008154345, 20.504467473954058, -2.7100662281456653, -64.70099927501721, -3.480436990469452, -31.07265778024572, -33.989607545901755, -10.537914331991136], [-0.8981408345036739, 21.243339422364063, 19.419171841428117, 25.524721258097202, 54.02300574830891, -18.146384429957873, 66.32071884678881, -15.079084539178437], [-10.32408869600153, -4.605420548563312, 14.466665000505785, -22.73953435999169, 31.733828150982475, 4.67497232199713, -28.166410772207342, -6.374982242846557], [78.4040548499117, 15.444017307660623, -38.88888733393799, -13.094981656290752, -5.146515918608507, 0.10979006734088725, 37.659807156764245, -14.063755150668769], [-4.712275489810742, -50.69981885665796, 1.7402231313126446, 41.54382550763146, 3.468423004873153, -1.249936012605556, 34.02234436559498, 34.46124004135193], [-9.934738507856208, 3.5536775019057343, -5.528133958781257, -4.855285528764114, -45.692845533032255, 14.944601267343254, 48.92305528403616, -55.147630422232545]], [[5.978668581827193, -1.0723549102238412, 6.875436133266126, -55.36530478964608, -37.91963496844498, 22.586993018042936, -32.51809166612278, -16.77136731927018, 73.82790744075126, 12.535958544464181], [-29.97609368287627, -11.758759160144596, -2.1167853751929657, -30.963335543626496, 63.48253266170873, -22.30585208325833, -37.97582612567701, 38.913350420597624, 0.8855885330095687, 21.428067067212993], [-24.507016886400233, -32.24267249898849, 36.72456718558799, 2.9238978563456337, -16.670295799629116, -52.78173090986526, 30.81939154557924, 43.83879066453134, 5.028845724327164, -40.631866932140184], [-2.0398351706038627, -29.2410121689076, -12.843661550793646, 15.410027900417838, -7.917495800872424, 58.08515707851623, 4.037167924314139, -14.996436715148512, 5.325724042848326, -50.15671119798291], [7.431883759534281, 23.4016202675335, -55.799442359425, 1.3560112776992699, 10.511759272404005, 14.586112636885847, -28.72164282240983, -38.15663787432088, 68.10019575943991, -4.852409223908971], [-6.65146985050244, -34.63004397771363, 18.8076080814128, -3.8196347148182275, 50.95383776744801, 22.977756336651343, 32.05888193558131, 3.265919389996012, -121.2109455850532, 25.385653419463846], [-27.28479320936653, -58.31822384523394, 2.6914807934895664, -35.4891165069195, -21.846560118568767, 7.4775259204255775, -36.84647043401732, -22.004573162566718, -30.24702537992741, 21.00533184046718], [23.873071199781496, 60.54474669063949, -14.676745916641503, 56.353142897170706, -27.012225746933293, -21.893004446817038, 14.281960523764614, -51.33553135114789, 14.0234764524195, 13.746435141565922], [44.05325962543727, 19.724615307087102, 21.76720642716862, 60.9161089743726, 9.948031426624706, -16.531123600233098, -6.207917925809003, 41.49791017383527, -27.556552051541466, -28.6626506188339], [3.0030783735651276, 18.530876368347823, 4.458687116160299, -43.53632686901929, -64.49397848961092, -8.300497264439535, -30.863542023160804, 71.20666383312, -13.480704393193788, 24.154518972841775]], [[-49.527690641700396, 17.77834891393502, -5.742663928819957, -23.176590826885693, -12.951881945383825, 78.74847287453328, 37.507286953836264, 23.69001273272922, 0.5728043772594524, 7.447857538578315], [3.898529952535743, -37.88176796247898, -5.40661730322217, 7.423729904616787, 9.329718738630735, -1.6260536215694295, -27.894927545057374, 4.825591727553923, 4.789478245286302, -28.32115997091861]]], "bias": [[[44.98447301535815], [9.439364771697042], [-7.981210540406126], [12.66710709050043], [-21.36032249772472], [4.0297758442889675], [-10.06335031670951], [18.04785883720748], [-40.93813069408786], [-5.926538499561144]], [[20.929445091932372], [-7.507933460421516], [-53.481536572902364], [-23.111643970392656], [-31.842156846798808], [25.916610664982763], [1.4613846968839472], [-60.43947863746581], [12.175113565619178], [-32.75553880580245]], [[-5.234787522486245], [1.19040995395444]]]}, {"weights": [[[-24.845598585979744, -13.046575145405082, 47.929483278116535, 8.969533388647623, 109.02310519488465, 25.72606547021597, 79.20596622602561, 31.495706469514165], [34.87419456128708, -28.802802717368035, 7.692563534307881, 60.93617236398873, 38.747437139265394, -33.94421375187332, 12.933415676908822, -0.17830245003720124], [-9.334845919563593, -11.673382404578955, -20.4841880428414, -1.0441247331146557, -3.0153365244995753, 1.8857894152525108, 3.9527716451528, -21.979667924767217], [-13.64025863135933, 17.15333672474978, 46.65537440671652, -28.720267613125426, -9.34199183394611, -10.552568283113835, -30.25216970508222, -32.679474394951654], [10.503940037266284, 18.956629633478624, -4.527847658546147, -64.63339763012613, -2.5413695825993416, -29.635661968341136, -32.590571437442755, -11.476943942034655], [-15.325748014363786, 3.316772762507952, 28.482088296471154, 26.58255476185807, 55.9029728378329, -18.142037382455563, 69.2255320603248, -31.789877234326923], [-6.766040899492104, -1.1659448505744185, 14.845999466905079, -19.827698408669164, 20.744654086539594, 2.9665424947796213, -33.80410362445756, 1.253758794836668], [79.19117743493025, 11.781438472552278, -36.934366634514944, -10.358352319879755, -8.082666347456176, 2.8420179184489496, 37.066373472866296, -15.036436317183142], [-7.475523577675998, -47.21632094005498, -0.8175941844557283, 38.49309411233866, 3.4353272745754166, -3.523824331081583, 34.87835375830275, 37.33469804943443], [-7.846456038995049, 4.1395632859127645, -3.568008752315456, -0.5645235746152648, -46.799900136679184, 17.029880931576443, 48.76810747443489, -51.22801123009442]], [[-5.783153674208778, -16.489538069540075, -1.853060602039264, -44.93063728333411, -46.03164671470619, 26.524548445546333, -29.186482116433492, -5.524048526689632, 79.50692067665237, 2.51431885213461], [-30.13324263054686, -12.639038238741291, -2.8182357719772226, -30.657415816411092, 63.051689440667204, -23.158166817929075, -38.071766841249186, 40.41522045254398, 0.5712153582172098, 20.839657448228223], [-25.071524446917635, -29.68158398315796, 35.746912286540166, 3.8232937744319884, -16.895774705530687, -54.67341645192983, 30.308756010067597, 43.83879066453134, 1.3906174673969107, -40.89158748785351], [0.5563285001232696, -10.760787895680535, -9.268477034934362, 19.35938874480572, -2.1114043606322723, 41.69294984858909, 4.174571960577974, 0.48990590822586566, 5.653197434754095, -51.00557131978966], [1.8858803809671696, 23.91278464350375, -51.8163076391459, 7.936589042719372, 9.704644702741858, 12.44897399515168, -29.410791054534958, -43.62338687439176, 70.18247484152316, -10.738497864168128], [-17.48747510297419, -23.53833799633216, 11.602092807280936, -4.791711328700247, 45.25663685019514, 24.869077789397714, 25.35433882251426, -16.021950595605087, -101.20881093720239, 29.98254534354103], [-48.7794684755549, -61.40714968869663, 5.37142129573775, -24.64404109924272, -17.94721665488915, -12.765612426924358, -31.61378636391018, -17.648018646884864, -35.71756390592368, 19.611510626872494], [20.614348917426337, 65.11725761261503, -14.790449521905257, 46.03918386737662, -30.990450736538058, -16.72238271390383, 14.357479924623226, -46.96464363028223, 17.966098319904088, 17.511520871398133], [45.436709626067795, 17.33379441061848, 20.769740835103764, 65.3349455912734, 9.373734782398566, -16.846504521132918, -3.031524928527212, 48.619120534485226, -21.527594350423783, -32.913962297968425], [2.705055345039481, 15.34401199810702, 5.371676275525535, -46.54429483851413, -59.27357527705137, -5.12567171743776, -32.46197684887187, 73.17836006902931, -11.84495306918484, 21.87505950397492]], [[-43.78257187579468, 16.827325880114195, 6.103378868412587, -20.0904332817109, -34.39676871846667, 70.51488154307283, 43.10322041671988, 28.88479163156525, -0.06247780744408016, 9.703482061238125], [4.654723873306889, -39.07375939653772, -7.645024205652872, 10.545457311584052, 6.402435643469139, 2.2739838981086393, -27.863051942274097, 4.101288472903811, 6.328473572577886, -31.055959822104402]]], "bias": [[[49.52251251587527], [14.84011742750132], [-14.30888768152203], [1.9592277633489752], [-11.85934593742824], [7.043853426245851], [-10.73084145451932], [19.990766914197646], [-38.83226075537847], [-8.51761393347589]], [[17.439105233041108], [-8.89423388821093], [-48.4404507857061], [-29.716192631693705], [-31.988670619868362], [21.466596275466014], [-5.8337103523827665], [-50.81462915939465], [17.02541956381947], [-32.637684029350595]], [[8.343455342771872], [-0.984322418098861]]]}, {"weights": [[[-26.192653562988344, -7.938344375581735, 37.959929105843635, 15.925012623954478, 110.69595276058276, 25.932414401245552, 72.67176204717556, 31.395747984289773], [34.88831576364967, -30.26972593354816, 8.562943486356215, 56.34372203455129, 40.74426265015858, -34.20088642790556, 15.040821896803422, -3.5148380632644525], [-21.179091864240892, 7.196550697588818, -35.679447938185774, 0.7322227240839461, -2.9036416098968743, -11.651267879652693, 15.189016549059932, 6.86625254786119], [-7.977178918002988, 15.903001445117079, 51.156385268341616, -24.08978229188517, -7.683681209227958, -14.601857148488339, -22.260782052412893, -34.25592033503307], [-4.464512928340662, 37.63791907893882, -5.190746185251755, -64.08273880563247, 1.3366603421329573, -31.843728482911835, -33.62984437728223, -8.710380612618401], [1.6584396723329533, 16.477650575428665, 22.945884770095233, 32.604024755551755, 50.35897038116473, -25.83502523762869, 63.48083458676319, -22.2047092331036], [-7.518747435573434, -1.9927232640502373, 10.551374148773863, -21.604566999963964, 27.7111788193132, 5.276466075285479, -26.12185710169098, -7.887893483208226], [76.14676116839958, 13.2385351445986, -35.292000365789235, -8.628409667367603, -0.4972670840970095, -1.5202086924927865, 40.193321950324105, -23.69589175838458], [-8.433085629342376, -54.90448305325542, 4.160600766051481, 42.3340442514244, 1.7153569872701184, -1.9823083458790112, 28.28771316318461, 47.904843781266855], [-5.544579586558278, -1.9303193531018512, -17.83345193353122, -11.137322397917282, -45.65382279279492, 12.217133517780582, 50.76826654482724, -48.79089193115898]], [[-2.375100722500238, -15.525134514503685, 0.9488498442014888, -52.41884956002731, -44.02847729790738, 29.20584832525054, -28.26972772097409, -3.914359882075384, 79.12219593814545, -3.5492297235644594], [-27.624248669624656, -9.59907236761547, -2.9930924730988977, -34.40467628390286, 55.15818484194749, -21.55576483618251, -40.60971101494839, 31.478346651707405, 3.385533643503376, 30.68646772149048], [-14.199593732274863, -30.616155623852208, 32.61001595180124, 2.9672850475143098, -21.43206947472523, -54.540513653020085, 32.62855990872616, 41.56534611902238, 6.416524920362851, -38.954287939446374], [1.904610301862815, -25.18409114834305, -6.1727153273087865, 2.9037509538595203, 0.6875177373486361, 57.84635134280401, 7.211514213800698, -2.0623216934132556, 0.9435165261611612, -45.47845120040887], [-4.548621824329828, 26.93389011400274, -41.62875586619231, 0.5205136688604629, 13.897972322404184, 22.450894787122895, -31.672544390011325, -35.478534413124855, 50.86768119349418, 9.778045724388228], [-15.336077047414825, -19.24102986037952, 23.946442954152058, 10.10245036906798, 45.556195754883845, 20.433792189431905, 37.82790157117715, -7.517341219312749, -109.2729485236378, 18.233578418995048], [-42.9292530060521, -47.43435152832587, -2.0604514010356088, -28.6669038181396, -22.491886901026067, -19.080957457120363, -39.19869734110342, -11.176205507728756, -40.205855416035085, 14.613975355855914], [20.172210531673915, 64.01197978778109, -12.377054306304013, 46.288493772135695, -28.85266059223498, -15.877641252478519, 19.369011049965145, -48.55194063673657, 20.143848729667354, 15.569655897394108], [51.50530629652177, 12.047505892852183, 8.612294118732828, 51.511756875953516, 8.996192260843962, -21.816224527815177, -1.5198206108015084, 38.694085267598304, -17.957182081364547, -46.561146699400766], [1.6676956106879612, 14.709316135804475, 15.8236614691912, -41.15713972442775, -57.38997767660827, -13.534277047702544, -25.94400698994276, 76.58845124620647, -6.6151627834802085, 22.442332312299175]], [[-52.06252178309944, 16.976336450221286, -6.569801337071686, -22.215848259617825, -17.714036434117908, 82.53209362790761, 35.41404680872462, 25.887154071881678, -1.5325234166792043, 11.064383398749234], [17.060836571109075, -43.82043332633003, -9.965156905207133, 10.505567348236765, 0.6817450416513383, 7.5484796895493735, -18.628061914981483, -0.9883943376097591, -6.1113896953222575, -35.14822488330584]]], "bias": [[[49.21576658396987], [10.029152806846637], [-21.5381673318552], [0.14391234283741916], [-12.265987192348609], [7.930797429492646], [-15.256981507372101], [5.129278991497425], [-39.62672069766842], [-4.080129122212841]], [[26.95280911709197], [-9.99081244515513], [-47.599253736151375], [-16.296260052529956], [-29.889034785022062], [19.744729564654754], [-7.3556698832916485], [-47.71910665515823], [15.15475431673427], [-25.536883235504256]], [[-9.327818179844378], [3.704048044643172]]]}, {"weights": [[[-25.90258738169831, -6.721892568285736, 47.312874128129565, 10.968172312638588, 108.20390604846786, 23.566447890454924, 85.04018257284989, 31.960936427704056], [35.64227294678239, -30.832612677305583, 11.172139212669132, 53.07594947575597, 38.885461058259224, -30.7587426825646, 18.348699992652556, -11.824994268664188], [-17.642137513151678, 6.2625002232989635, -29.920232755140844, 3.7168571523201415, -2.711074925987938, -16.283166472522616, 17.736520649274052, 3.1475744131025696], [-22.150327668327446, 14.847617120499251, 55.5770811525675, -18.061602355136785, -14.961831806357367, -15.90002733517996, -27.76327117390074, -39.25667714247825], [4.478133037135602, 37.0969033411122, -3.3968272480505006, -57.04943846222532, 4.542340719213253, -36.90354969791555, -39.08272134027345, -11.06430422381254], [-13.42697073215939, 5.615416361607072, 25.851024464157756, 24.287358793853038, 53.014779590083755, -13.910769022646976, 69.84594129923016, -29.076365685580356], [-13.452765152376157, -2.879441598948758, 11.073153111054387, -22.064545853421958, 14.840844621925319, 7.017018790285302, -34.12317895854655, -3.1726680672872316], [81.7253372568083, 14.211086906379125, -38.802718625295164, -11.616413449380644, -5.265708260036007, 2.501763056723839, 38.01684159250193, -15.897438428115347], [-10.034042051856968, -52.0491956533418, -0.3488728545322999, 44.4551626971965, 1.072139982582436, -0.7118015522475755, 23.604109405941333, 36.092668379087], [-7.087523806516765, 0.46768127547072735, -1.2902512512761999, -4.4058212170641475, -47.332997679218956, 15.518875130208105, 53.09574436012488, -55.736500745528524]], [[12.958784756540975, -1.6794490543888496, 16.20003263166294, -40.54954816711506, -39.588514210292566, 19.55168219641726, -36.315474344467276, -18.526177638791005, 75.9015274276255, 4.539261077828501], [-28.806728722117853, -12.547211565382034, -5.652421464798907, -20.226352194707363, 55.62292937210139, -23.952345326547096, -41.70548736366882, 38.03549603979133, 4.886689195371929, 25.338572178507263], [-4.4915504251631235, -43.37525078843428, 34.71639426265846, -17.12095781022974, -25.875583573801663, -46.317299034500074, 37.173735176631105, 37.475722964904115, -5.663816354340701, -26.063116873686653], [4.7876423934622165, -7.7458023902858155, -10.06068101766602, 12.008004838415435, 2.193543655437034, 52.66285893617656, 8.064184730275036, -3.829060317902973, 3.188648029698167, -45.761659422090105], [-2.2348832381581585, 26.994412640675456, -49.72565273190342, -1.9768685021066181, 15.475043198171418, 22.784055783243467, -27.57634855727478, -44.97041499782218, 54.385601773532315, -3.2985111406555845], [-4.957054905742347, -35.79972597051053, 21.10843511062466, -1.8900886943941109, 54.28663333242236, 25.674815197022955, 28.620740977271137, 1.999044781581962, -120.8468249117196, 26.075565605673457], [-43.97951878132737, -50.835903594739264, 3.982071130599825, -30.46021999476337, -18.82891729299474, -21.133285961489673, -31.1092751050976, -22.52334729870895, -47.48114392210064, 14.114289242862636], [20.130778529388287, 63.422071259319225, -17.006599823748033, 44.91348267217569, -28.279613375834927, -19.16519069075987, 20.29040235253061, -46.86631392670397, 21.582454167999245, 14.180925113059317], [48.97431223327394, 15.269925226040636, 4.694928351018605, 53.452949514691156, 6.818622429794288, -20.638284285446797, -6.0052022047180476, 36.750571093678616, -21.19448670783868, -40.8644712568481], [2.0709491657848833, 19.011876398142064, 7.461157899526521, -44.623116883283096, -59.27191096208011, -13.876532267923864, -33.18139643080366, 72.58338521461806, -9.875736697720578, 23.975800100497327]], [[-41.687420832257246, 11.177292544007905, 7.4197505447072185, -15.745897611799078, -27.32320517763917, 73.5160534832713, 39.83413619618675, 30.641541639780826, -4.039441178359193, 10.202651263259142], [6.232392762609932, -35.27256420806773, -4.376884858235987, 8.342705564001127, 5.825603980666842, 0.5513555696387202, -30.050962397466833, 1.024317029957729, 2.7244076616927755, -33.16611681493357]]], "bias": [[[47.620249690870565], [33.22608816944323], [-14.99254821000298], [10.169460413500051], [-19.123122840466834], [3.3453164401776974], [-10.62678360417681], [5.129278991497425], [-42.00302660395572], [-5.645791849449181]], [[14.027448553631345], [-9.340166049638354], [-53.231927891761494], [-17.5676902794874], [-30.232213243394273], [14.642220078803716], [-7.546839951054175], [-49.09970729721768], [18.51800913147385], [-29.234060523648242]], [[6.1149182469372985], [-2.0372430422082504]]]}, {"weights": [[[-25.957309445814868, -15.197403469016765, 50.87577943908676, 5.235031451487304, 101.88818745747345, 11.376641222221771, 73.36117939539032, 35.120600758938195], [33.98412143759237, -23.295173440034908, 4.568618236664688, 57.788610783443815, 35.52394882512988, -34.36447030866424, 20.524879137319616, 2.487243301838909], [-13.993462043009806, -7.133986341810922, -15.32322982569447, -2.5359468667105602, 0.7176404254052712, -3.0165886499142913, 10.18693847932955, -20.938859085619658], [-4.435947690912209, 12.936724391385285, 54.28483490143718, -22.926793917864124, -12.078556344088524, -7.647982636293467, -27.761091814901857, -39.164889184936285], [10.677095964785451, 29.82906205680751, 5.3026237774176925, -65.43423498092402, -0.5137204854762127, -40.37124513717446, -33.85732789240071, -11.54294472465165], [-1.3616481475945146, 20.47628836078732, 21.001618749192836, 27.034574565251518, 54.38355632938657, -14.703320683547409, 63.228220303753716, -13.527062079520645], [-14.444657177534811, -8.64714884964792, 15.89854267834253, -23.82069806520783, 31.647223913203838, 3.3221389693934738, -27.745127956280523, -10.3987787734735], [72.62837385648491, 15.200200653140607, -28.657846794768247, -20.185199813372616, -2.5235995392234107, 0.1367577231078294, 24.334081759841347, -21.99013701994743], [-8.084817269392017, -51.177025406790165, 3.6642981141558275, 40.81746094884028, 0.7045724590337462, -1.3178149478678596, 29.812535619143357, 41.381616447579184], [-8.268649593292912, 2.038674020470168, -0.3958380586338015, -2.3267379891352413, -48.2545088865989, 14.494885159634116, 52.47396889502507, -51.87594882390812]], [[-4.559852156417167, -17.182902551032917, -1.1988961911088576, -41.821468342193405, -43.42643914234528, 24.505302061623837, -33.37138886770396, -9.665896806029107, 77.31919000620636, 0.5996824470361183], [-26.729209787792975, -9.59907236761547, -3.665619204083781, -34.07760005086345, 55.296217863161715, -22.2278220811832, -38.59165770370241, 31.679494909513913, 5.7019549281452715, 30.932715103648782], [-15.899253548135052, -30.296824012905173, 31.444912034218063, 3.6546106171061283, -21.054632713478817, -56.042635717727336, 32.94812314366218, 41.05051240288421, 4.362574033453948, -40.79639752030041], [1.578307825159647, -24.92656374951967, -4.204132848017889, 1.3277603284089814, 0.3239392853704266, 56.41954815269604, 7.93394203658842, -1.1877406417349472, 3.802121125058364, -52.255076237397596], [-3.7984212372099853, 26.661507096725238, -43.03676734701136, 0.6745187357768386, 12.710337819949844, 23.7886510877689, -35.7933260024219, -37.55783850172178, 53.38333712497243, 10.111078852371728], [-11.001352529114993, -18.2727995775991, 18.416148203917732, 7.068908720718386, 53.28924375271563, 13.417180239282791, 34.53059135265042, -21.06189522081582, -106.86292491675707, 22.60734376398094], [-43.97951878132737, -51.80939290215093, 3.8345396556142717, -29.817216433891925, -18.82891729299474, -22.590366536693274, -30.495747346248248, -19.165246342056143, -46.939533942417484, 14.431075571065117], [21.37077179888165, 65.63903244580347, -14.66832607821192, 45.637571375055344, -29.313677459189787, -16.87110261168529, 18.443259954154872, -47.64069799243112, 19.78426181401368, 17.197479068105398], [50.6946879254928, 15.20552907308836, 9.365694333637009, 51.63901364050999, 8.894178946160947, -22.732568983506994, 0.10916337899699813, 40.35584114730639, -17.49142232094059, -43.68493229172953], [4.700437953272457, 13.013276928381375, 10.148764629863523, -45.6639140317535, -58.60474498431087, -13.045478979673259, -33.768023895021166, 75.75874529411672, -7.639396646928839, 21.796920237194886]], [[-46.13882946664374, 16.106061914614873, -0.3105732182786124, -16.616719066398808, -24.60831309964256, 83.19315450106632, 35.11645809688985, 32.866681676532046, -4.330722049943526, 3.7692490785658146], [10.312374940389471, -38.07888848097208, -4.295297097468637, 6.054565716396097, 5.3292068288394026, 1.6330788284675037, -27.039676368245892, 3.0825959173875717, 3.065449236525861, -32.22922983830549]]], "bias": [[[45.20790998722948], [11.76617121183879], [-14.918677136344748], [3.9839015904496513], [-10.749401865100538], [4.701877627152262], [-18.58124185452636], [13.52731089508331], [-38.46421545079622], [0.0014312198544681465]], [[18.866891393657085], [-14.918050821396793], [-59.43199320092618], [-20.38374868803435], [-35.482984578159886], [24.14945256454676], [0.21709641979876787], [-46.10511826337003], [18.33902488796949], [-31.04161558479925]], [[-12.755130833216874], [-2.7827993278977043]]]}, {"weights": [[[-32.415055360118174, -12.83447944875233, 52.69143379391367, 10.492715041914064, 92.53534180954846, 25.02590390401188, 74.74059216531663, 42.98614460059104], [39.06627722700973, -32.79656988199812, 13.592831076012226, 61.717547501166585, 38.28551992363409, -39.49106934900125, 16.948869168343904, -5.721897029565827], [-12.77842668893713, -14.732458576973468, -20.482171072596184, -1.0731423734622825, 4.104997505323268, -8.846736804953494, 7.2930921805667435, -18.61453032876897], [-8.775603390097201, 15.439747866195248, 49.02238897030222, -19.52202292732542, -13.918928305960364, -6.79011215232645, -30.631098783118105, -39.55776097118693], [10.187878087645053, 29.57355808781093, 3.6288086846064154, -60.52742440274186, 0.7792928338338181, -44.54554938386816, -33.592519107752516, -6.096164890008157], [-3.442051753941973, 21.62633478708045, 19.00172979995629, 28.60691016638601, 53.39456304120259, -15.652592825962179, 64.98291306438531, -11.202838584784306], [-7.661814379289925, -10.579075021528833, 6.40820693103912, -23.980506133842407, 21.949958967355542, 6.35608434379427, -36.61734953902997, 0.9338660542789888], [71.28236205884862, 17.923201974663986, -35.64077867180972, -15.994109090523734, -4.055985864619567, 1.9233569659678178, 31.295013752012967, -16.596959805516956], [-3.2439662496733543, -52.37555621631715, 1.7840605376138545, 47.17312733282785, 1.299613810306585, -0.4397275210684497, 30.6597890625649, 32.85381206570935], [-10.467959007873791, 3.2077058652796397, -4.556182239685555, -5.371807637693092, -41.58203600382843, 19.137745744550916, 50.91614971993594, -49.62730213138556]], [[0.0681371442850347, -17.544078568428148, 3.124448043550883, -49.68987195787978, -43.34228465591185, 21.217004801986782, -33.96624073855072, -6.388850665981387, 80.25774623658423, 5.9712646139598915], [-24.612444905818997, -10.436571264911422, -3.8618397139962584, -34.59891725542697, 56.20131017135835, -22.00067024063292, -30.936282110823196, 34.91195939065227, 1.9423027502589902, 33.15875042377489], [-12.500433474854253, -26.542472670859453, 37.780059214902685, 4.003722819353298, -17.619242078851606, -56.32622341033333, 29.767585516181114, 41.74603796410007, 5.935456224122978, -41.05977133300608], [-0.03551819979011417, -30.26444756077367, -12.93633739770865, 8.406531263369562, -10.536736593852874, 53.26620169245892, 4.692660297754876, -18.15002355918169, 10.205532205903824, -46.54766138686758], [1.6632475288888597, 22.02976168482213, -55.99706450664427, 6.51046151660268, 7.424962744540266, 14.536990875678741, -30.86807558326689, -40.04325553879468, 68.18258211267744, -4.916634765856423], [-12.131530872244491, -20.6997085142173, 14.648829645845607, -3.342876992622219, 45.37256925642457, 24.228725821783787, 23.655620283664724, -10.247614970680923, -103.2306371997859, 30.125964077236038], [-46.96558195095793, -53.20414712468333, -4.542169171360441, -28.322838783555937, -15.387443960065273, -26.109112957549808, -34.36555388371957, -23.155699881328943, -47.7573507322208, 12.089541930221987], [16.874067011677152, 61.91202132947763, -17.82683705781568, 36.5914847656758, -23.32061334387576, -15.810670067010696, 12.515615074099806, -45.31694291805886, 20.345361601931963, 13.664865685883079], [39.978184617892396, 14.011172857607578, 16.57614670916964, 62.56843414948778, 12.475590627944614, -10.524152401824367, -8.722480914398298, 42.33283427162987, -23.65397838987219, -30.42218577155538], [9.424832849877024, 13.935902464918358, 6.006489373164231, -48.81539949788484, -61.74676289722185, -10.174292550790533, -30.584777988414668, 68.80631562428252, -9.332512057992131, 22.109661933411367]], [[-42.51313581272299, 9.332276602260208, 7.65930934665325, -21.16795245288047, -29.792956804050846, 73.7578829418823, 37.37563598226988, 34.22986433513818, -5.34628008148086, 6.231865016467639], [5.1257893911965695, -37.53780787488376, -8.361658837566324, 12.89516267335774, 7.199453052214172, 0.5928621380844866, -24.19520218091912, 2.4358791421906627, 4.059228686963765, -29.47345300493835]]], "bias": [[[43.866330384688325], [37.266697695287384], [-20.8092315958654], [1.6353746804982041], [-11.808585007692304], [6.661347927445741], [-12.456212516835079], [11.817295857651473], [-42.86497059641966], [-8.202581336515548]], [[10.457567062236178], [-14.54193399637121], [-54.21377421961712], [-3.220413795234885], 