{"generation": 4043, "best": {"weights": [[[-30.614984796830953, 10.634815691888722, 42.994890843099704, -8.68737551012803, 60.865251791542924, -61.14951367678212, -22.27978688292043, -52.40122392728838], [17.803987954164906, 72.75108527888848, -34.64547472057366, -93.00477146544358, 9.758664295506176, 32.868709013189765, 99.57446500981636, 28.984461243679874], [6.852507470529226, -114.31208948862303, -3.4345849841733624, 54.36827994627542, 0.5510864976369898, -1.5339564362310427, 12.79334224373451, 51.5048537951563], [3.29389658314258, 33.01629038940385, -76.02323616886139, -32.99101751835708, -44.86679962175666, -83.403018262855, -33.99823803635914, 8.540030522123839], [2.0272146385415444, -14.929570233572752, -17.043833490996118, -47.87520058739519, -25.163059667692064, -54.968861807213905, 23.765181003725065, -28.100025515280993], [6.029860686636536, -18.6774264115927, -36.044658712618684, -27.65793243623852, -29.477393385698687, 50.78685677790768, 53.442466674469145, -60.284760043861176], [30.576932102921614, 4.758192380292481, 24.74821816876304, -6.3509694086284645, -33.23936620920215, -83.3518423472336, 37.16689804086668, -67.96437054845063], [-104.78995358788528, 13.647286272695194, 57.339568344848345, -19.09471421226317, 6.850676925049016, 0.5885103439384225, -57.87400407662036, -51.66585509006179], [-29.104420320087964, 27.2868767284832, -2.9651710239702287, -51.89045318107936, 41.18343494930274, 12.986084596763632, 6.328761406774174, -17.653054263102025], [-30.40238745900087, -19.448270370479175, 3.155961599774094, -12.45032826763937, -22.44830497563877, -5.085310312636929, 24.241817388545538, -79.8526761210516]], [[-0.11946142376470681, -36.63219569532144, 30.76178658697651, -25.376931064800537, -24.07168039175193, -81.35113541365048, -16.15865088770572, -51.69053916192583, -9.95219763896502, -29.315654189620837], [38.393277507915315, -44.500662517485836, 148.71665189383614, -18.362609108579985, -27.6850199443915, 2.4890802924696827, -80.12697083042796, 17.524236070205784, 8.302865678446501, -7.777046680299431], [-16.936806706048326, -62.85683468945125, -105.64266009432097, -1.5625765105196379, -11.06049204441452, -12.698163054243036, 79.33276476758154, 59.67248734286628, 5.585657422402119, -46.86596763513879], [20.86460210093657, 27.003164912887573, -147.61665883190713, -20.8376956752747, 31.62355432006052, -10.800254687437743, 4.704398756422394, -18.62300675323629, 49.39747875794986, 10.567976119615826], [59.26175165015412, 27.351514323018296, 132.157933798036, 77.19232552182018, 37.96677988979445, -52.027725990632455, -24.837212536181198, -79.37535819959903, 13.421043331651815, 24.446981310323572], [-39.289791764160874, 67.44851615232942, 83.82542399754234, 57.294256765649926, -45.71475284039633, 18.30448733355583, -1.6903855281735625, 53.3599659510001, 84.45460806147044, 9.269014334193866], [4.578464400432198, 124.21579887738703, -3.1333643029005094, -0.9543692902880766, 20.024709969751378, 14.354930811748575, 7.726132657687986, -24.64173487332761, -28.95727208691605, 5.112827311487241], [-21.93148405182409, -34.710565982974806, -43.5641537506095, 8.115150561497721, -0.16153623518159055, -34.29092376421425, -35.99284243327478, -25.970598556448138, -14.806773683233349, 51.28321935479712], [75.99520593615024, 3.0845931934697197, 12.111866354870092, -113.44581292836932, -12.008215142574333, -119.81099972650401, 59.86176169964823, 120.44834871403417, 62.950218918007266, -40.78446792990152], [-5.51871897910366, -4.75227114969741, 13.163005300234659, -0.03077607581964137, 82.20005507970005, 30.91313948318678, 58.02285114197404, 46.54007743657754, 25.194209554220127, 29.11138644806336]], [[-86.31783656694361, -72.7281700515307, 57.39794703504994, 142.0428558663022, 31.675799931495156, 4.706360670762711, -5.671390457578407, -2.4238761618177045, -31.599869046656828, -8.946134730432279], [20.379143661164456, 48.65952049166467, 26.124113287576503, 20.428758862788275, -76.6331561882806, -13.863502445028477, 10.33312785512198, 27.806234888888163, 86.62823805756831, -44.09696494695437]]], "bias": [[[-49.583771826876124], [75.01888834198176], [-51.84313459812225], [43.13762401205426], [20.560615486385874], [85.27773736639554], [14.958054227678952], [50.452411470248116], [-2.7461380487363396], [-29.94098304840262]], [[24.36565606340675], [108.66214579180546], [25.080862759550723], [-5.481031436684182], [60.82152905640771], [31.446834869555456], [81.7364423183953], [-138.9122203946849], [-69.78253280546323], [-20.920882384378153]], [[-20.323205865932803], [-2.9546965922917825]]]}, "all": [{"weights": [[[-20.703509148426797, 9.004486737987698, 43.51366744300701, -13.171758642044093, 69.14387935395217, -65.85496876968624, -21.384733272763164, -50.82173688745679], [14.6892194930074, 71.2908377040589, -34.63506655409004, -90.6260335011887, 10.966124906087966, 32.10352114643758, 97.70065850861481, 29.69969333758523], [7.606254074837972, -115.13501239910812, -3.9488368713515825, 53.18549933693464, 0.030224107740556116, -1.3768834209838836, 11.003507816250945, 52.765390434365834], [0.6425569742145663, 32.52439734726624, -74.96979334844895, -34.39815332379446, -40.39168351698454, -81.10515409892324, -33.472839331392436, 8.405762477391665], [4.974106896759496, -11.642092745151645, -14.059129436412322, -43.78247278595478, -22.200239794087757, -55.4198987697398, 18.692345504094128, -28.84620319870993], [5.010073849912685, -15.698864961758174, -36.32439420473598, -23.94135460787353, -27.297678331084356, 43.94824632203245, 53.62321884355195, -57.20584308632935], [27.51193919057963, 3.20674354440646, 21.315857699454448, -5.090678042911447, -34.95238723614841, -84.3534283811883, 37.86385995131038, -65.14459052026639], [-108.89274664036151, 16.575001514986162, 53.378668232117484, -19.360942115020713, 5.873140201528168, 0.3100705271734243, -56.73301927427121, -52.05921845859935], [-25.20418181560388, 27.51883031250347, -0.70196034713469, -52.638998837984666, 40.41174563745116, 11.285717384246142, 1.3004143780804245, -16.475226730014917], [-39.657607074333676, -14.213142563834621, -16.076154131203605, -36.864129551573335, -34.9872112759642, -5.965918149483043, 39.74345411592533, -86.52219990682721]], [[0.16138170304784127, -35.740436117256955, 34.46817552432797, -22.175098013674308, -21.022630376364276, -82.46523629447017, -16.222544343569623, -51.62840378699391, -8.448389627438345, -26.045347844880094], [39.291562678980554, -48.19210140616096, 146.10190992830746, -17.80157792101751, -23.788910859766677, 0.7743109743809495, -82.22550668738235, 15.60057579504379, 5.197801652681914, -5.891777818213825], [-16.983936375228463, -61.93316523708749, -102.80212847704261, -1.547605557397476, -12.722762424319686, -13.75666000934584, 78.56479677091109, 59.81185377020532, 2.585095960156723, -48.31837079132557], [16.961174983443318, 30.466887332434126, -145.95371283729153, -11.034042998694634, 35.99691537868448, -10.3446110018792, 10.99802706362122, -26.058672730997316, 39.34236793239399, 14.760905866192134], [68.05316825381018, 28.007889438382946, 139.89876731951662, 78.4550243032244, 37.03830924775434, -53.1963606699241, -30.641921494478034, -82.94310026043354, 8.170514753321267, 28.225816711721077], [-36.28649569014304, 58.095948352855785, 70.83440413049087, 56.9378642564218, -44.56573353491583, 22.81002000079351, 7.31421244110335, 56.76501047874058, 78.55860595288974, 16.70064488860455], [6.693120858594089, 129.43256951281904, -3.1516127818074726, -3.2096135450184438, 15.827611914614145, 16.210682935754317, 3.7401027826081665, -16.515798349845017, -31.300719845519705, 5.325581878541323], [-18.630096852808403, -30.571712399986236, -47.83498116251646, 1.759354700108234, 3.962730155132802, -28.2187856062044, -35.910262285613996, -27.768926890852697, -19.81651715156619, 46.60614373879059], [80.75022401980706, 3.689688849776087, 19.47746054765206, -116.47189566726594, -13.154323344114971, -118.68833641708228, 63.7157267395569, 106.62427861089421, 62.22686439154685, -38.503580619515894], [19.46322285918951, -13.875831450722481, -14.660794497454804, 27.971955485422022, 100.27603511541464, 24.27862317921507, 54.65023228817497, 7.368050676072767, 33.37713440859274, 7.156016530541101]], [[-91.67708580725483, -67.16882685621792, 47.23081600133159, 142.51575923448527, 20.635561896283615, 9.337409837417995, -2.3674345302515722, -8.661733090483077, -29.851118777776485, -4.220608112443027], [13.507104091840814, 39.031556499079485, 27.62888514017786, 20.142965226149986, -76.659768375616, 11.716993273567459, 19.03675238606697, 38.90628094255988, 107.51360036823704, -30.733807778537656]]], "bias": [[[-48.65697989796287], [74.56634502715158], [-52.06964346414198], [43.24782100003348], [20.606669303622393], [89.4568641744288], [16.018666756994833], [49.78665151942851], [14.439462580031451], [6.540745036094056]], [[15.96741938439381], [111.90088987381168], [20.859327760371716], [-5.023490858413409], [62.64917163112207], [18.45527577892248], [81.13198139836202], [-136.89377484542192], [-75.4366116157775], [-7.086258586318925]], [[-18.56274189795315], [-19.857228237554185]]]}, {"weights": [[[-20.703509148426797, 9.004486737987698, 44.46271035957907, -13.171758642044093, 68.9668954034808, -64.66022863086454, -21.840865861174183, -50.82173688745679], [14.831030959303645, 70.81469489719636, -33.90042312118225, -90.6260335011887, 10.966124906087966, 32.10352114643758, 97.70065850861481, 29.045307601404712], [7.606254074837972, -115.14626855016216, -3.9488368713515825, 53.98292511478472, 0.030224107740556116, -1.3768834209838836, 11.003507816250945, 52.765390434365834], [2.7500876609610083, 32.52439734726624, -76.0966190538648, -34.39815332379446, -40.39168351698454, -81.0353918829076, -34.35744525090635, 7.301535572037906], [5.026228039536729, -11.642092745151645, -14.059129436412322, -43.78247278595478, -24.027283777380116, -55.4198987697398, 18.692345504094128, -28.84620319870993], [4.88848942247469, -16.702071589269835, -38.03084949257699, -23.94135460787353, -27.297678331084356, 43.76305887154539, 54.62763125446457, -57.20584308632935], [27.51193919057963, 1.5546203576168673, 20.877601882729003, -5.090678042911447, -34.95238723614841, -84.38016728221189, 38.919511614589155, -65.22705936257628], [-108.93979432913467, 16.36550375924888, 53.378668232117484, -19.360942115020713, 6.59680259111771, 0.3100705271734243, -55.63534028929273, -52.05921845859935], [-25.20418181560388, 27.04738290464231, -1.813447311774194, -52.38863581153601, 40.41174563745116, 11.285717384246142, 1.3004143780804245, -16.475226730014917], [-38.725780604047394, -14.213142563834621, -16.076154131203605, -35.95741267860039, -34.92874847477176, -5.965918149483043, 39.74345411592533, -87.91722328085665]], [[0.16138170304784127, -36.305552004733144, 32.31940740178393, -22.644071926057187, -21.022630376364276, -82.46523629447017, -16.222544343569623, -51.62840378699391, -8.448389627438345, -26.045347844880094], [39.291562678980554, -48.19210140616096, 146.81946741444025, -16.75014542457949, -23.943964484680738, -0.6148597678213774, -81.77193543986627, 15.854431179386896, 6.4114988146476914, -5.891777818213825], [-16.983936375228463, -60.57865512588107, -104.07023362168765, -1.547605557397476, -12.85567718166398, -15.568253622707969, 78.79635741207221, 59.81185377020532, 2.585095960156723, -47.7483175570522], [16.961174983443318, 31.175606380141126, -145.4023541823005, -11.034042998694634, 35.99691537868448, -10.3446110018792, 8.570646051791341, -26.293493848114895, 39.72117840050036, 12.95733103728559], [68.05316825381018, 29.531594119766748, 139.89876731951662, 77.45869277547499, 37.86512729017248, -53.1963606699241, -30.641921494478034, -83.32600266677251, 8.756651901763687, 28.225816711721077], [-36.28649569014304, 59.20979720610877, 71.05566125199626, 56.648889163431, -44.56573353491583, 22.81002000079351, 7.31421244110335, 56.76501047874058, 78.55860595288974, 16.855953570802612], [7.92417851263492, 126.2748067498615, -3.1516127818074726, -3.2096135450184438, 16.385433397403556, 16.210682935754317, 4.160085623567017, -13.76283397245931, -31.300719845519705, 5.325581878541323], [-19.464944564072685, -31.09503288662363, -49.602679246119855, 1.759354700108234, 3.962730155132802, -26.583936507034377, -37.626635428370385, -27.768926890852697, -18.65469234774943, 46.469165786027645], [80.75022401980706, 3.689688849776087, 19.47746054765206, -116.23089728188879, -12.362556896462587, -118.68833641708228, 63.821666016202315, 106.88608374617922, 62.22686439154685, -38.503580619515894], [19.46322285918951, -13.875831450722481, -14.660794497454804, 26.146109858688376, 98.86997801566474, 24.27862317921507, 54.41995173722266, 7.5369864776896645, 33.82197794607195, 7.712988295414009]], [[-91.67708580725483, -68.58859118577098, 47.23081600133159, 142.05322574294033, 21.002216984841322, 9.719790111999181, -1.7100924582286399, -8.661733090483077, -29.851118777776485, -4.220608112443027], [14.026589633975414, 39.031556499079485, 27.62888514017786, 20.142965226149986, -76.659768375616, 12.211550590916175, 19.03675238606697, 38.90628094255988, 107.96384552533452, -30.733807778537656]]], "bias": [[[-48.65697989796287], [74.56634502715158], [-50.37362206150946], [43.13762401205426], [20.524927294690695], [89.4568641744288], [15.926421850939334], [49.78665151942851], [15.45333994956912], [6.396453683998642]], [[16.857007647439705], [111.90088987381168], [21.540202225120048], [-4.137726515744066], [63.54770711267279], [18.45527577892248], [81.13198139836202], [-136.94746746353294], [-76.23251095304025], [-7.086258586318925]], [[-18.88389814861518], [-19.857228237554185]]]}, {"weights": [[[-30.614984796830953, 10.634815691888722, 42.994890843099704, -8.68737551012803, 60.865251791542924, -61.14951367678212, -22.27978688292043, -52.40122392728838], [17.803987954164906, 72.26127128418952, -34.64547472057366, -92.46375476328218, 9.758664295506176, 32.868709013189765, 99.57446500981636, 28.984461243679874], [6.852507470529226, -115.32699985014793, -3.4345849841733624, 53.51662129016283, 0.5510864976369898, -1.1881413885389605, 11.206182967695968, 51.30799916335777], [3.29389658314258, 33.01629038940385, -76.02323616886139, -34.170185076568515, -44.10735502700573, -82.57994521709892, -33.99823803635914, 8.540030522123839], [2.420085250144138, -12.819562204516197, -10.532135033432796, -44.34016652945916, -23.622227323669726, -57.44886077324207, 17.65393260555734, -28.84620319870993], [4.531528229305203, -14.647410655326631, -38.44664262342389, -25.313161149727133, -28.321503377065792, 44.81090892915286, 54.62763125446457, -56.61635986097591], [29.275409012301303, 1.0094834025972026, 22.75430118034782, -2.2152515395011907, -34.91027811813067, -82.6797459645261, 37.89850142878147, -65.33703070189283], [-106.78081088873313, 15.846914412753485, 61.58786347737317, -18.951150015123194, 4.265201470253, 0.006195693500824662, -57.153352021477524, -53.11388101325783], [-24.220492220617533, 29.078965921431006, -0.4450230545782782, -56.06287602909447, 38.254764423034, 12.703774151368144, 2.1266879588848218, -20.000417973184863], [-29.614328313107507, -14.982373279630824, 2.5360029486455566, -15.064907367672266, -26.25511393365975, -4.3550626648125, 27.06154708000898, -76.88524648043578]], [[-0.11946142376470681, -37.99520147874372, 30.843527602898263, -25.376931064800537, -22.630247491351945, -81.35113541365048, -16.15865088770572, -51.69053916192583, -10.380252182066647, -27.49041484183859], [39.65639002666723, -45.28856267319379, 148.71665189383614, -18.362609108579985, -27.6850199443915, 2.4890802924696827, -83.05450476847402, 17.524236070205784, 8.302865678446501, -7.777046680299431], [-16.936806706048326, -60.97521315196891, -105.64266009432097, -1.5625765105196379, -11.06049204441452, -12.698163054243036, 78.98275911162033, 59.67248734286628, 5.585657422402119, -46.59905441006515], [20.86460210093657, 28.02363312872519, -147.61665883190713, -20.987452641012787, 31.62355432006052, -10.800254687437743, 5.2163492488047645, -18.096427044024313, 49.39747875794986, 10.567976119615826], [58.53434971544084, 27.351514323018296, 132.157933798036, 77.19232552182018, 37.546820395297, -52.027725990632455, -24.837212536181198, -79.17922732353702, 13.421043331651815, 24.471301037531436], [-38.3609216354361, 68.86216167191809, 82.56524244749133, 57.294256765649926, -46.460672358902464, 18.30448733355583, -1.6903855281735625, 52.315010224155714, 84.45460806147044, 9.269014334193866], [5.318818377227146, 124.21579887738703, -1.6970603480071174, -0.9543692902880766, 20.024709969751378, 16.0841323235882, 7.726132657687986, -24.64173487332761, -28.76298274575345, 5.325972261116946], [-21.93148405182409, -37.23981489379611, -43.5641537506095, 5.65498135007166, -0.735823476314666, -34.63972835255459, -34.93721835873465, -25.302005583461384, -15.80769185585577, 50.71704922465338], [76.59971561356042, 2.206483971280417, 12.111866354870092, -114.70751306634854, -12.008215142574333, -119.81099972650401, 59.86176169964823, 119.53147490147529, 62.67823090050511, -40.61327825925255], [-4.542954773236225, -6.025206565161102, 13.242376354981998, 2.9064927309982647, 88.12724682460362, 30.19134965581385, 62.067142822146074, 45.40613250871764, 24.169028752751426, 29.84268830634116]], [[-86.31783656694361, -72.0349788412491, 57.39794703504994, 140.23425826029649, 32.78401673955827, 4.706360670762711, -5.671390457578407, -1.5641396493349342, -30.40490025928594, -7.8980139925447155], [20.815126942664765, 47.15938804239291, 23.537324361796987, 17.227096967995575, -76.30456727091777, -10.204190404753021, 12.608259227979174, 27.854947636022406, 86.46341883473127, -31.809010553071214]]], "bias": [[[-49.16795070580226], [71.55126899460573], [-52.71812895939232], [42.57310388006728], [19.953822941423155], [87.85610439806325], [18.439658337627876], [50.32655581107201], [4.714521623186741], [-28.83460044001378]], [[24.126580004301072], [110.32295630492128], [24.779447797094996], [-10.463279837156275], [61.42254885948211], [27.70047346461466], [82.35178943376049], [-136.70979801732005], [-73.692138314636], [-16.301224869578128]], [[-20.323205865932803], [0.6992613053717077]]]}, {"weights": [[[-26.00826420767593, 6.882855760232583, 36.56515370283561, -10.924208721350448, 68.28183028496072, -62.29976165308782, -22.35279864491018, -50.69995269179151], [20.96822099863107, 75.36945027135508, -37.17032576213569, -92.5524476776438, 15.96479105092557, 32.8851358366997, 96.31305219155665, 28.79199582611655], [8.441339725600606, -112.29459260932276, -6.357461851394548, 55.3916937661467, 0.5448751131212642, -1.052995522812919, 9.552475987666366, 51.18136082634817], [4.32366380813368, 37.97765107710333, -81.50603343526521, -38.19475968952256, -43.98098173324084, -78.2517169540131, -33.63297259818506, 9.97481829076889], [4.950425578270302, -12.28898495546804, -13.71629879370704, -46.493570169617946, -23.306518172595727, -54.14518310653189, 21.980427454438843, -30.05458914254308], [2.5432010971057464, -17.842070464905483, -36.58469536394678, -24.347825292352294, -28.026975496119174, 44.447613174048044, 53.25789730946834, -59.164245315698466], [31.20894898413084, -2.6471634108322126, 21.163295897888165, -3.5213676662416518, -35.79622933461556, -83.0863797617689, 36.993424197125805, -67.19825317098508], [-105.52584114044167, 17.208086980991432, 53.75918446822662, -18.75008047786397, 5.44905039983808, 0.560851284545811, -55.628622480127866, -52.05921845859935], [-25.2925591172617, 28.524319751717222, -2.9651710239702287, -52.88491826127753, 40.091831316775355, 12.986084596763632, 6.3841875506448185, -17.529627026607333], [-30.229954016938056, -20.044621709853647, 2.665021480137463, -12.724052649908648, -22.44830497563877, -5.081929015086917, 23.607071148778896, -78.25965450412527]], [[-4.03960964832253, -40.01076689721088, 31.44011613171189, -24.137103734627424, -24.452477736166262, -83.67011710205419, -17.50365542311382, -51.462083504078095, -10.990411167624677, -36.361062588453656], [41.8358699108991, -50.21004104512387, 156.50261622757176, -8.636358419557794, -26.3792514034811, -1.4059404600857839, -84.82552596415586, 13.198108962353336, 9.272603434094231, -6.386619378019937], [-19.07652163072966, -57.99731796805662, -97.41595324448242, 5.228608541194721, -11.483581162477051, -11.51181703855966, 76.08077615067617, 63.95788506594891, 1.490779529879875, -52.546277424054885], [19.260056813433444, 32.76786901838936, -150.18690106492215, -21.49235338926059, 31.39535989599397, -12.111008341180053, 8.600596140874837, -18.82124619638541, 49.6347988685796, 11.567933422221323], [64.09856129544255, 25.193806139676116, 137.06504006139247, 75.46288120602465, 33.41662821885388, -57.45035503379392, -26.002875798313763, -80.31667732838537, 7.4808116473292605, 29.296535170277316], [-34.54899951196294, 63.2049051392473, 70.18605079681903, 55.30813771469481, -44.26544962613875, 22.43049710780034, 6.466277840147098, 52.47267691238626, 79.86557530998708, 16.396262307672536], [7.006566837061053, 125.28529873101036, -4.667137483634868, -0.24173779256714156, 18.99079927638868, 15.88795668785988, 8.979627076365942, -15.801253138769807, -29.733933180528048, 4.768959192824432], [-18.137611819883155, -30.728421653248777, -48.78343827127865, 1.517666252223104, 6.227642214768881, -26.834766854235127, -38.53699468737519, -27.889964857921548, -18.770033243843958, 47.16064644161909], [77.3595603834779, 6.669422742882257, 20.847149940602492, -112.44201071396778, -0.3485192374132948, -115.83931660006523, 71.46230133921026, 112.61390443738179, 65.47305965889133, -48.480720738689676], [-3.41749611681197, -5.72108018497122, 12.354036243079218, 1.7197850638464582, 80.88003009825842, 30.69219678463839, 58.823585045242595, 46.56396896319477, 26.453085766375334, 30.589431939490446]], [[-92.78272391840925, -71.00139763831378, 58.00963452625995, 139.34516532355906, 27.446228159573394, 2.4331096221121586, -11.709074866450333, -7.075164556603435, -30.423043525080676, -9.852962857475323], [21.707030044470855, 50.0191284798943, 24.9403841462716, 19.930661949615313, -77.15133985366224, -13.253966661001192, 10.93824602925976, 27.691333406696188, 89.33776564438476, -38.70677455705709]]], "bias": [[[-46.76895958433127], [72.24196269702558], [-51.73033739000798], [41.71566976861032], [18.949727450416752], [86.56070970113022], [19.311355741805787], [53.01552055433026], [-1.7066244880633965], [-29.94098304840262]], [[21.74803709500913], [107.69976243603784], [21.502218210246472], [-7.162629762677848], [63.32939270508263], [30.890415923054945], [80.04430859268342], [-139.69297458460133], [-70.11427983195652], [-22.21268498337119]], [[-13.251171898011227], [-2.8949703498697814]]]}, {"weights": [[[-30.5145693019691, 10.505301148114455, 39.362360028689885, -9.220018470279296, 60.19329227044261, -62.36212147617072, -22.071636467852027, -52.48687581343319], [17.162646167151486, 69.46933943959212, -39.015413226656094, -92.17286289861352, 12.078494937532927, 32.67114499717455, 95.86059769974953, 23.90373924731901], [9.738046136572786, -115.51837666619662, -2.5400846036465374, 54.294319963287506, 2.7221685557719, -2.0990512605621054, 4.566377009498234, 51.01057746151898], [3.8117511087238745, 30.59679151885906, -78.85783118087679, -35.108519906021044, -41.07192813239163, -79.01075706456969, -36.784478414736505, 2.9456473700324617], [3.8542480894081717, -9.893810576138769, -15.951253098275611, -44.549557579811456, -24.26164706085729, -57.8216397507863, 18.346330500733742, -31.139045686583675], [-0.07219428764775754, -15.099746271944124, -36.737004660521045, -29.47776779097608, -24.79828473889118, 44.77658911978933, 52.23684577373811, -55.37378585082732], [34.31562394903846, 1.4880017651828914, 22.62976900857757, -0.23519123427626787, -34.05452732685006, -79.7284546742454, 34.3938282134994, -67.12993450885374], [-105.4254180624318, 16.57611025867879, 56.0624173470686, -19.539360509694333, 4.980922881655445, 1.1166929567578325, -60.960508597348166, -50.936468615109], [-23.72816802428507, 24.86033114936656, -1.3673790721937342, -53.41335392482167, 36.60091407475255, 9.390530421142431, 0.5909987928297797, -18.169819777997112], [-25.697775944848043, -19.782787569881716, 1.580249572802646, -13.10542984895567, -22.443301101892615, -5.879058710669621, 26.695180134921046, -78.02720073668863]], [[4.870781240473252, -38.62286753809903, 28.296224051369112, -22.326119597787084, -27.78746147478187, -81.72234592350306, -8.815474938303069, -53.043483919701345, -11.009005895840808, -37.435412451763234], [40.86676490484106, -50.46952496823787, 150.46191571930902, -11.736677790248235, -27.730916330161353, -6.570016772528645, -82.30630376188573, 10.279713083258518, 8.168023514714541, -6.255139527004859], [-18.2971102401058, -58.11751753118295, -100.91234151446022, -2.2863505680485114, -11.029600755544244, -11.511412996893501, 75.80660124613081, 65.33288317161805, 6.965953545737256, -52.336965917693355], [14.829728558792462, 29.419820040034875, -146.6253053021938, -12.488693634761304, 33.11438452980481, -12.295320011298603, 9.977016441387827, -26.624723580798143, 38.58931623262126, 13.056908055082062], [63.339206082997855, 24.76465953396493, 135.6516968776141, 74.91829204025441, 39.83002325426652, -46.620670066339066, -29.127303316730135, -81.71191088890107, 11.479125313809178, 26.693044433201983], [-39.714064342666966, 68.58909555243322, 80.46566487893861, 60.578344018147575, -47.72045469896821, 21.939151056424265, -3.5138462335737564, 54.19489723786138, 87.5603339877988, 9.622200977977666], [-3.7966000042497066, 122.42894311099019, -1.651380305442253, -1.011780534763217, 22.956065001175954, 18.008981231372104, 9.675187704492245, -18.091699599316748, -32.44947742395709, 10.380475474515801], [-15.543006924196325, -32.891106366111536, -49.72536734823683, 0.6056863852765313, 6.136678297656454, -22.401253644490573, -32.81682292795197, -31.662847922061122, -21.735550532229485, 45.88341880652614], [71.37915828604498, 5.790483453848949, 19.03398840636618, -113.55729412067456, -4.145389621012755, -120.4261396832079, 59.74419085344798, 108.48266739022515, 64.49490994437726, -42.1544265561819], [-2.1138534464301757, -5.85388098320326, 9.657667962290791, 0.5509096835705155, 88.64067578552546, 30.453370930096373, 60.75163551835363, 45.28963468943321, 24.23917946654841, 30.05119502754536]], [[-91.5254443053249, -64.79755378657413, 56.32351645414476, 141.72314955820673, 24.425230219479435, 7.549273962395656, -3.991748077241265, -10.308253870274811, -36.83832649581312, -11.74148207272837], [19.71607418591886, 48.15336902030034, 22.977831369427495, 16.734735476357134, -76.55551634398559, -8.261051776883338, 8.98413150755983, 26.28311642185413, 86.4713263405018, -32.72606962645895]]], "bias": [[[-48.739086935660964], [75.62567606273615], [-51.28518107223491], [46.17195751871348], [18.033128638849735], [89.61706464187243], [13.499382847472884], [50.56466011066358], [5.217649637997641], [-28.83460044001378]], [[19.248585278615725], [112.06187260757054], [26.09479573353714], [-4.426234796712976], [64.7795839437065], [20.25874541010285], [80.15741791331706], [-135.30872750165472], [-69.27853936851672], [-21.10607788813666]], [[-19.732973758504283], [1.514415885564431]]]}, {"weights": [[[-26.00826420767593, 6.987613783427626, 39.10960842647381, -10.924208721350448, 66.90493093147683, -62.29976165308782, -21.769332327490833, -49.95504545637405], [19.902916639440253, 75.36945027135508, -36.39263449561627, -92.5524476776438, 15.96479105092557, 32.8851358366997, 96.33655947012927, 28.989477385700386], [8.4179165874163, -112.29459260932276, -6.961581946972616, 55.3916937661467, 0.5448751131212642, -0.9818538224728036, 8.914945051783677, 52.22414652329132], [3.3800221198903033, 37.33823387409825, -81.50603343526521, -38.19475968952256, -43.98098173324084, -78.2517169540131, -34.35241781628118, 9.97481829076889], [4.950425578270302, -12.28898495546804, -13.71629879370704, -46.493570169617946, -23.306518172595727, -54.14518310653189, 21.980427454438843, -30.05458914254308], [3.2802177252852784, -17.583834465956805, -36.58469536394678, -24.347825292352294, -28.516864143831874, 44.90419263075876, 53.25789730946834, -59.05438815384866], [31.20894898413084, -2.6471634108322126, 22.24312395016248, -3.5213676662416518, -35.79622933461556, -81.90909961796295, 38.43796022885556, -65.49469222687694], [-105.52584114044167, 17.55178326161084, 53.75918446822662, -18.75008047786397, 5.44905039983808, 0.560851284545811, -55.628622480127866, -52.05921845859935], [-19.254927058528718, 27.489298775006315, -0.8722816960756268, -53.200455415415334, 36.89307947534902, 12.496842434393725, 1.7684428646535677, -15.681153737951421], [-36.22514294551209, -15.235633113132042, -14.486604143196466, -27.867883092617426, -38.331177758276546, -10.167464336245624, 40.09448751876876, -82.75196952955329]], [[-4.03960964832253, -40.01076689721088, 32.63751140747626, -23.940183350586818, -24.452477736166262, -84.20540066162827, -17.50365542311382, -51.36824430789305, -10.52750349484289, -35.83431058730634], [42.45886924828387, -48.707073340099285, 156.50261622757176, -8.636358419557794, -26.3792514034811, 0.1782849197162727, -85.05079718229487, 13.198108962353336, 9.3116069312067, -6.386619378019937], [-19.07652163072966, -56.81878855544395, -97.41595324448242, 3.99671492990202, -11.483581162477051, -10.057251745074183, 76.79113336450729, 63.95788506594891, 1.490779529879875, -52.51250293503257], [17.073298426709407, 31.477825009080178, -149.5172200374152, -23.063927337144904, 31.39535989599397, -13.200486802017771, 8.777026518482884, -18.82124619638541, 49.6347988685796, 12.736111640549113], [64.09856129544255, 25.089324495450015, 136.22843361674617, 74.61733421844342, 34.28667091407055, -57.861684540408625, -26.002875798313763, -80.31667732838537, 7.4808116473292605, 30.476935450249304], [-34.54899951196294, 61.256922571363596, 69.36214077228247, 54.262430888575985, -44.26544962613875, 22.35464296557383, 7.31421244110335, 54.33469737183626, 80.18466132021513, 15.809866234650597], [7.3312387457444474, 125.28529873101036, -4.3755925092000005, -0.24173779256714156, 18.99079927638868, 15.88795668785988, 8.979627076365942, -15.801253138769807, -29.130196499210253, 4.768959192824432], [-18.137611819883155, -30.888929686208684, -48.78343827127865, 2.038397310341737, 5.155390102020455, -26.834766854235127, -38.44205121284457, -27.889964857921548, -19.210304210481873, 47.16064644161909], [75.7383311377214, 6.669422742882257, 19.517901456289735, -111.09933974228203, -0.6327799943435677, -115.83931660006523, 71.46230133921026, 113.94043690940248, 64.61598572614332, -48.480720738689676], [17.146366652861524, -16.265955342576824, -10.352947280729976, 27.433675404433842, 93.12240357667747, 25.818959775772257, 55.908583665339, 14.060374230824573, 38.56216617698044, 7.82064995294391]], [[-93.5232436574277, -66.44451493475444, 57.10162701958123, 136.56286826017322, 25.37177656341454, 4.567174100307485, -11.053820503682276, -8.7180914402279, -32.21307637633699, -8.692315759746311], [14.478292418781667, 44.34239550985995, 19.37489873779882, 22.330338030706564, -75.75930414162082, 11.86788007290502, 22.94423003525266, 33.62076444959345, 107.7676242178894, -31.115445304423268]]], "bias": [[[-46.76895958433127], [72.24196269702558], [-51.73033739000798], [42.076084878252246], [18.949727450416752], [86.89606028811127], [12.188354094084682], [52.79990052556617], [6.310697419859773], [5.9827828837026455]], [[21.74803709500913], [108.02169659335934], [22.594027125645702], [-2.061611528278492], [59.296420953185056], [22.53510672468346], [79.8157913035118], [-135.07424365752777], [-70.82331691030474], [-13.710429991884274]], [[-21.095660817503937], [-22.564544694606294]]]}, {"weights": [[[-29.60705949011562, 11.006523866345566, 39.829354977467226, -8.871925943142791, 58.861923981455014, -61.992376292625146, -21.78686409387549, -49.399057159013815], [17.24832321344561, 69.19914509662041, -40.56290972341096, -91.6483305901642, 10.99262145320411, 32.48373558912004, 96.51863021731697, 24.620349723766086], [8.604055674072848, -115.87909042735772, -3.436079458130506, 54.294319963287506, 2.7221685557719, -2.218406907567746, 3.8814603764078335, 49.74760021528934], [4.254902897157317, 30.380044436926376, -79.2382140629271, -34.095900736335004, -41.07192813239163, -80.50885538946217, -38.156330973287645, 2.9456473700324617], [3.6401099444177887, -11.022114252436053, -14.61166849390698, -43.61734434616367, -24.22063752147309, -57.11700059307993, 18.438505875731874, -31.20668283986472], [0.0927470264923036, -15.099746271944124, -38.18410990003591, -29.47776779097608, -25.599611911611618, 44.303716741016245, 51.01408481475277, -56.824544260951086], [33.82603321711668, 1.9021017438651033, 21.542287690226065, -1.046911883774945, -34.11570603089908, -79.436051123063, 32.3146979413195, -67.91362630898138], [-102.94402862597782, 15.889669641682472, 56.47505674992632, -19.879880664733445, 7.412941570874738, 1.4732441798026805, -59.32020304652962, -49.663296621204324], [-26.799002953185706, 22.768065523762452, 1.7491576768782886, -53.6423306058391, 37.2123681423816, 13.649336530209903, -0.18948562510877545, -29.441400412524704], [-30.215426664070687, -17.077521293350053, 2.6467868575748423, -16.01663364678725, -27.47033053931487, -8.220668922709029, 24.905500787149034, -79.9923843796223]], [[2.812276108004859, -34.9646767488983, 33.20681146404586, -25.516164292337578, -24.136115348117045, -83.34648128134583, -16.083420349745897, -50.596546816630024, -7.77337135940196, -28.84889856415445], [41.811083635722376, -52.33359301884013, 154.6505501185501, -9.507024697114538, -24.077348213313513, -3.2117567544291385, -87.67476845599666, 13.757722864469216, 7.860536894441376, -9.47845363757207], [-18.626507644699753, -55.405087116403934, -102.09943721277669, 5.2687686936930085, -14.594924501828682, -9.193715120012447, 80.67871405712383, 67.7019486039431, 3.5328026738390363, -52.61293115972467], [17.541205170406776, 31.141322907391157, -149.9627744417151, -17.578355555847814, 33.55523402772046, -9.229240995961474, 9.412272553605133, -17.806864407817724, 46.892020409788756, 8.967474960962864], [67.60156972017768, 29.912924996734553, 135.20338517252532, 74.5646368888513, 37.647047342455664, -52.95607141648308, -30.790451420491813, -84.36407868771272, 7.086739636415112, 28.04643595228893], [-36.283168381641254, 57.790965559760785, 73.15485597401415, 56.27842760872104, -42.388789249028655, 22.538227932627272, 9.331120923226791, 58.112680243898374, 77.95836622510495, 16.77886945714303], [10.127882381670394, 128.47907392222564, -4.614633992629622, -1.7584400907839295, 17.92690784652653, 14.685591985846184, 3.1739040390893902, -13.297216831886645, -31.300719845519705, 7.745140750022239], [-18.408515413948653, -29.59221642670216, -52.27753867859719, 3.5162324109581746, 7.957531669051015, -26.532207390743075, -35.877905194945996, -26.29548865026743, -20.345880672071655, 43.53287034865344], [71.32270901278048, 6.062151256975731, 19.779159678734466, -111.61796988220097, -5.409398080350918, -123.2610158926645, 58.17210836233867, 109.41632353425082, 64.49490994437726, -42.16984455890194], [-4.291434198063918, -2.6940075002242247, 8.573576122337784, 4.426483452568878, 87.66531842074733, 29.50463279200561, 57.60052496715958, 48.17120508505722, 27.265949839408975, 27.261277793883746]], [[-92.94172573143554, -63.365960274552464, 57.262780657671016, 142.49884434306395, 26.27120296548616, 9.907742161335653, -3.8980706123123294, -12.460584407822108, -32.41660698888622, -11.103172139857785], [22.2456322954317, 45.83192490595846, 25.358218632510518, 17.964807177418404, -76.36688767485984, -10.870507954787211, 12.713813408621984, 26.992213681150147, 88.32904841373266, -33.02220230740344]]], "bias": [[[-48.739086935660964], [76.2360827307253], [-50.91793764409758], [45.035032597985165], [15.646783185388742], [89.8602909912259], [12.87866512551474], [50.59928823487085], [6.251831962374137], [-28.813915833224446]], [[19.09005542942237], [111.38123594846778], [27.000672823761153], [-5.042670519466327], [61.99017597486918], [30.653309272348572], [84.72336619317076], [-135.68179137466188], [-72.48984209385425], [-19.509009529248864]], [[-20.183770183118703], [2.983671704529667]]]}, {"weights": [[[-31.236721262068315, 2.4123939701254535, 48.59876830847018, -8.70118581469396, 56.20805110688304, -50.1478695339443, -16.03565486297349, -39.14382747596341], [20.586860016778942, 76.41909374259279, -42.42244001110207, -92.56900052390027, 17.84302933171675, 34.73627842932933, 90.35899551301843, 29.64233088677418], [9.125275405155287, -115.98889309483889, -2.340748028734645, 54.889273510287424, 4.8416884490167105, 0.6240202255791318, 6.477004678285558, 50.5347014042205], [0.22568665143289662, 32.24891937675419, -79.93340250338905, -41.865215907256434, -33.38996559307215, -84.55377670352043, -42.97183509741181, 4.7151485747601845], [5.365221327037441, -12.23978270847785, -16.708549194517765, -43.39188541829182, -23.118338249934713, -54.857437331440245, 23.604104201435153, -23.31745160818411], [9.548548242186266, -23.812905976806217, -36.95505352532, -29.386858008021957, -30.113944736887454, 46.28307131308703, 52.185560355848935, -63.210263504749356], [34.366272102757335, 2.646124844943959, 23.698355763786825, 1.1018290922114367, -37.92076046134365, -76.58159331054138, 35.89982412469549, -63.95012712057436], [-112.99285247376413, 14.685179100606199, 67.62392994113416, -8.338579217776728, 7.810837920935097, 0.28213882229182874, -58.07793892676517, -55.632890494921384], [-27.058934942583676, 24.482329750038485, -1.1803739579061028, -59.44482226794991, 36.13853223657683, 12.227245507423332, -3.8816929757480336, -15.294838044926355], [-29.411036316909396, -19.487586237109017, 2.199801011986661, -11.90000982827973, -21.508522028298604, -7.270613709167961, 26.631720925164625, -78.06733541079183]], [[-6.176108926827056, -38.048412283957795, 28.097311914938942, -20.567004183579822, -28.517296212156985, -87.10774522681649, -13.323568763234531, -56.79183470507874, -6.814312242820239, -33.876376830689864], [37.67472484039322, -49.201436734045984, 147.8234173878118, -17.676698020260943, -27.023002340906707, 1.2836359297643822, -84.46782222994626, 15.036651477841609, 8.444890063840253, -6.321197806540577], [-17.22126486914044, -62.40177986448456, -104.31836762831908, 3.889198967211586, -9.746631706547596, -11.696200967835775, 77.18564532619835, 59.69477591488733, 5.927390770565343, -45.79487631250424], [21.664845237720527, 29.27372979370329, -147.47105091008976, -23.746015317081827, 32.07899651957251, -11.04112260559589, 5.144099963916849, -19.25593746332011, 49.431410010825324, 9.685698390508463], [65.42620122160523, 23.885474583548383, 138.58961291804877, 74.4670877144649, 36.63119492225088, -58.53280861412594, -23.329276203966426, -78.231975372184, 6.01672743947192, 31.108453580213002], [-35.68801036907225, 59.98259776567339, 68.61306945432803, 54.25270539862662, -44.27921073116993, 16.484864680405018, 6.769096701372771, 55.94420138993579, 82.76484999438574, 18.373499150108945], [7.212687803016082, 125.23223743578941, -1.735245648101364, 5.511594449793337, 19.7941293158817, 18.318943208618396, 8.968501115030117, -16.49570513277978, -28.373425968553324, 5.7051459462209575], [-13.548483675780203, -32.18143425531329, -51.448290272651164, 1.0799097600396057, 5.205456078417915, -22.648687664579185, -36.2268144664243, -31.76652320132615, -19.592314689984793, 46.59870843123438], [71.27335256849541, 6.757151018131946, 18.383221726675774, -109.92920457955908, -4.800897199646988, -120.78773163265237, 61.9356897508865, 107.83848837461846, 65.53209107929352, -40.173877618738786], [-1.023658318248299, -5.201151837814539, 11.872379617233177, 0.6252429877640951, 86.47674227291952, 30.86974463914695, 60.079010704770354, 50.38581000508258, 23.75648104813796, 29.273427269818853]], [[-93.52068662195482, -63.997392838159186, 54.994695260878615, 142.88985557852843, 24.364257985265862, 8.960670311546794, -4.212782461861718, -9.395777755564072, -32.01126308129113, -12.09843882089903], [22.506739228992508, 50.61867014076255, 23.175126898539084, 20.80517266011248, -76.36688767485984, -10.664677273020756, 10.537308956914021, 27.657245969415076, 89.59318562042425, -36.589657192091515]]], "bias": [[[-48.29085966251481], [69.81849940413946], [-52.369700514065926], [44.09197707526154], [19.61099905733226], [86.63992170566263], [17.18116320526085], [51.317399877237406], [4.409474714765013], [-29.355817887808932]], [[27.17168675376631], [109.71459606399445], [21.41366169909361], [-8.30836925602584], [65.08266863793564], [19.08116198172962], [85.75033551983392], [-136.44681690187448], [-69.56475362660099], [-21.715022562035326]], [[-19.52104414698656], [-1.9240063057205292]]]}, {"weights": [[[-26.357288040568484, 11.158319442097232, 43.762969518699435, -14.666142061050785, 70.57122048758458, -56.361192636112406, -19.162252044122827, -50.81371377725941], [17.160522073014416, 72.26127128418952, -34.64547472057366, -89.97421159848246, 9.385488849188878, 32.75073532043041, 100.65654563683013, 29.313700182304018], [4.75710336062971, -116.20115347418142, -4.952907104343027, 54.858639477678125, 0.5510864976369898, -1.1881413885389605, 11.247292085219035, 51.30799916335777], [3.991284067855278, 33.27487964075633, -76.91887309686301, -34.170185076568515, -43.03543731142401, -80.13773403339506, -32.74533464031293, 9.908962526674426], [6.188947110883186, -9.852896182406417, -12.31645185885386, -41.607782139752494, -24.027283777380116, -57.2018733689803, 18.997912307405254, -29.54825203789011], [5.145528281131579, -16.702071589269835, -36.8646488972877, -22.701221781830554, -28.59651507090468, 42.838866994679215, 54.62763125446457, -57.02563150908192], [27.793119326517605, 1.5546203576168673, 21.584038470640255, -6.538364745222692, -33.419887241538255, -84.15977219574415, 37.46623191720964, -68.49958363288727], [-108.99802462630161, 15.084798792935638, 53.19235975298939, -18.99272594999243, 4.274489649760316, 1.282892437162956, -57.25604431631939, -50.96566459187061], [-26.365425497008236, 24.21237802423181, 0.42240355208989555, -59.76782379473539, 36.7327777068315, 10.643707434485297, -4.465091012912737, -15.38113915851377], [-30.8362847371751, -17.072612237950217, 1.7344438722119584, -19.038744566960155, -22.09315990864813, -3.674883790277529, 28.0604839861184, -72.70951642738079]], [[2.6617555586207704, -39.38870992074503, 30.33235340613361, -21.042819046096817, -25.741871154336877, -87.00726507821665, -7.125571811733379, -52.23789926958419, -9.133007390329478, -37.898875694028476], [38.10150500102266, -60.03369621007505, 162.64471028963402, -9.218968707626464, -25.484164521797783, -4.756931147880981, -83.87145384039228, 8.620863902615874, 6.1243131791936145, -9.922142065153835], [-15.796801852117234, -56.88456144902232, -97.02555644889742, 1.6906183841385056, -10.914158113562525, -14.460508764709665, 78.51220605516099, 66.01103902963169, 1.3108954663010706, -49.60431551544762], [15.323340059822533, 31.67151721861802, -146.03693081522874, -10.793003301309188, 37.98485078743043, -10.271634594601796, 8.105898279150813, -27.925956996188162, 40.525572698519184, 11.673879563984528], [67.11347857677806, 30.3003096574348, 139.7589403238717, 77.45869277547499, 36.370553847867015, -52.448029927365624, -30.8917926730739, -83.57740046178164, 6.944278032871727, 27.026616171679557], [-38.162899773129915, 59.20979720610877, 70.17282505829031, 61.10951120740775, -44.62531233091676, 19.489814216811332, 8.770516237491979, 56.76501047874058, 78.55860595288974, 17.43361428982585], [7.972392508873487, 125.14873217654984, -2.6329343846956985, -1.6253172038600363, 15.796195251229582, 15.727554851104829, 5.435057156943494, -14.524084792036996, -31.13107919191846, 4.2793888825429125], [-21.69722678798898, -32.17890976356758, -50.26202911847357, 1.9139547332521256, 4.91732516462353, -28.27077156361196, -36.34747722384319, -28.08822563485102, -21.779906695772233, 47.769328675985804], [75.9169081390856, 6.858409402293118, 18.513539533065725, -109.77132101534566, -3.163884760449828, -114.32022124213937, 69.95074159748731, 116.0257182432477, 62.495549912740344, -48.20272114937502], [-5.930002095506346, -4.666023643244208, 3.115564968822328, 7.220810044285506, 88.37795716976864, 32.53727651580625, 54.61843735005295, 39.793776595899836, 23.28381617734208, 27.540062920189975]], [[-90.51361989892034, -68.52455058311372, 47.23081600133159, 141.77366963298604, 20.407491615074974, 9.042408902058904, -1.8595494219655002, -7.595445919148837, -28.409951213830183, -4.1974523648214985], [19.909240806004938, 42.7537916869929, 24.07853514474395, 11.756884299887641, -76.05407045131825, -5.584480879656157, 8.445897554351856, 25.42816961631491, 94.52960062141763, -37.97110348006148]]], "bias": [[[-47.36124465433126], [69.96739354282437], [-52.12128183955274], [43.145060454273484], [21.49141005686827], [85.59421483113498], [18.525245610552453], [49.202704241104755], [15.472880879164487], [-34.155075948537274]], [[14.874134767996262], [111.7639214985884], [21.540202225120048], [-2.4770611753888234], [62.353699750658144], [17.857823667593802], [81.13198139836202], [-136.28173998793628], [-78.21702464509494], [-14.192544421250098]], [[-19.601060264224675], [7.570512936322842]]]}, {"weights": [[[-25.986660775733366, 7.165850912484735, 38.21394810176587, -10.924208721350448, 66.90493093147683, -62.17349829542797, -21.769332327490833, -49.95504545637405], [20.08398802883827, 76.11597288796051, -36.368557247219584, -90.47849904032122, 16.79307423662209, 33.08557315790584, 96.73787768060559, 28.989477385700386], [7.662380050303452, -112.74515966570145, -6.961581946972616, 55.3916937661467, 1.0320750104539969, 0.45474579656307645, 10.667029916687616, 52.22414652329132], [4.847456659729554, 37.33823387409825, -79.32177557785121, -36.89002748389017, -43.25160317395599, -78.3277707863416, -34.35241781628118, 9.144337042299139], [4.597672192623619, -12.28898495546804, -13.423931934557945, -45.4414676210811, -21.849966379765938, -52.64638321273441, 25.37589349767293, -30.05458914254308], [2.7760039224184108, -17.583834465956805, -37.52454219175177, -23.798099725203663, -28.516864143831874, 43.599404191267666, 52.57893819579331, -59.38670785364561], [31.20894898413084, -2.871189017381569, 22.00885206996533, -5.332568136460046, -35.79622933461556, -82.54767243569067, 38.00610977045776, -65.6431668063934], [-105.52584114044167, 17.787456357416218, 53.3394564801421, -18.75008047786397, 5.44905039983808, -1.7574054647354371, -56.155596407235336, -52.05921845859935], [-19.089280299802983, 27.11300452706456, -1.786916570032099, -55.40749743215207, 36.051129421548836, 12.496842434393725, 1.7684428646535677, -14.191156450467842], [-34.20924040940227, -16.028112436064546, -14.486604143196466, -27.26131988553005, -37.594110111198184, -10.14242092383516, 40.09448751876876, -84.2445116108483]], [[-3.095182634293076, -40.01076689721088, 32.63751140747626, -23.940183350586818, -22.41778687548511, -84.20540066162827, -17.50365542311382, -51.36824430789305, -10.644180615356793, -35.83431058730634], [42.45886924828387, -50.936852888681514, 156.50261622757176, -8.636358419557794, -26.167639066558955, 1.3066344823600828, -85.05079718229487, 13.642504601007996, 9.11324508090995, -6.386619378019937], [-19.07652163072966, -56.50115989997624, -97.97165740956306, 6.013562518582931, -10.187972717212734, -9.779490997375207, 76.05757449937877, 63.50745195437242, 1.8972066720560696, -52.829454576863775], [16.049438944517856, 26.15154248436026, -148.94746327540014, -17.729633473538957, 33.507632228280826, -12.052043587575756, 8.053122415501814, -24.846715597490764, 37.771013848445136, 14.08531499043007], [69.48988784590317, 22.527750467439414, 135.88724607410228, 73.85463652158128, 37.51678459735106, -57.12557894311413, -22.12427997118172, -80.83159876723084, 5.181295769161397, 29.9020990970348], [-32.817581694016255, 57.59778693604718, 68.40566546154034, 47.858976087816366, -46.68456520883775, 20.21916249473955, 5.867442892021101, 50.51610120849051, 80.85077027615117, 19.4399978108072], [5.957454858635578, 124.3603697673752, -4.852806439349732, 0.9652201891422507, 18.48254278697313, 15.04054654327583, 9.535715116191405, -13.615057562145203, -29.348583285248765, 4.994737011081668], [-18.570241740198636, -27.41018634642041, -46.893163614279025, 2.750489249298419, 5.6434542033499095, -25.250438820718486, -37.86076881584979, -23.97783216111269, -18.787001909323454, 45.50011923136515], [72.12471194602092, 7.339723755634955, 19.932846361804778, -109.55467137854585, -0.6867369212229166, -113.7743284060602, 65.4098994053997, 108.90958707866214, 68.35020771228248, -46.127383139283864], [15.592386850430078, -16.076199504196705, -10.352947280729976, 28.933554218447455, 95.64220115345488, 27.66703010968137, 54.95486388860883, 14.060374230824573, 38.40687331551451, 7.82064995294391]], [[-94.77682626774023, -66.44451493475444, 57.10162701958123, 136.56286826017322, 25.37177656341454, 4.567174100307485, -11.053820503682276, -8.768206799645446, -32.21307637633699, -8.692315759746311], [14.303538717147468, 44.34239550985995, 19.37489873779882, 21.82607032805012, -76.149068222515, 11.86788007290502, 22.94423003525266, 31.602497370049527, 107.44214773030849, -29.66860945095585]]], "bias": [[[-46.76895958433127], [72.59087938608604], [-51.73033739000798], [42.076084878252246], [18.926291022779072], [86.31045859112454], [12.188354094084682], [52.79990052556617], [4.985858056981566], [3.8198617308132525]], [[21.74803709500913], [106.48684951652028], [23.134847192555473], [-2.061611528278492], [59.296420953185056], [23.38143409785146], [80.14956925452479], [-135.07424365752777], [-70.82331691030474], [-14.602369763254044]], [[-22.354250997961728], [-22.564544694606294]]]}, {"weights": [[[-24.6890527916304, 6.882855760232583, 36.54838073595205, -10.924208721350448, 68.5155862323608, -62.50789558830698, -20.17008439340631, -50.69995269179151], [20.96822099863107, 75.36945027135508, -38.05929972929371, -92.5524476776438, 15.96479105092557, 32.45961332135442, 96.31305219155665, 27.610891831288455], [8.441339725600606, -112.29459260932276, -6.357461851394548, 55.3916937661467, 0.5448751131212642, -1.052995522812919, 9.552475987666366, 51.18136082634817], [3.3800221198903033, 37.33823387409825, -81.50603343526521, -38.19475968952256, -43.9657341652994, -78.2517169540131, -36.089611923761, 9.97481829076889], [4.950425578270302, -11.885747739459985, -15.363820054936744, -46.493570169617946, -23.40239434216222, -54.14518310653189, 21.980427454438843, -30.98136110790423], [3.7705137264945483, -17.583834465956805, -36.37100423003752, -24.347825292352294, -28.516864143831874, 44.90419263075876, 54.550457482923136, -57.92112863173006], [30.695404345729102, -2.6471634108322126, 22.24312395016248, -3.97826796567419, -35.34677035439881, -81.90909961796295, 38.43796022885556, -64.54784682228237], [-104.3014437597668, 18.909585419203143, 53.75918446822662, -18.858688746957156, 6.461356838655533, 2.0337646445353514, -55.628622480127866, -52.05921845859935], [-19.49901110919062, 28.69756246250373, -1.1504781010894298, -55.743349090862395, 36.89307947534902, 12.496842434393725, 1.7684428646535677, -15.637709208792925], [-36.22514294551209, -15.34685879417408, -14.486604143196466, -27.867883092617426, -38.51302702330464, -10.167464336245624, 41.47998325352941, -82.75196952955329]], [[-5.147304714929161, -40.01076689721088, 33.06521818589671, -23.940183350586818, -23.72005805913338, -84.91788629431888, -17.50365542311382, -50.62089966993466, -10.005559508343573, -37.17689940710259], [42.45886924828387, -48.3048286150343, 156.93720911753542, -8.636358419557794, -25.304576312896742, 0.1782849197162727, -85.05079718229487, 13.235411913873328, 9.3116069312067, -6.386619378019937], [-19.211266829648, -56.81878855544395, -97.41595324448242, 3.99671492990202, -10.738324420752063, -10.057251745074183, 75.11949614791564, 63.95788506594891, 1.490779529879875, -54.655819338431336], [17.073298426709407, 31.477825009080178, -149.5172200374152, -23.063927337144904, 31.558255252957398, -13.709376804533541, 8.777026518482884, -17.685552986996104, 49.6347988685796, 12.736111640549113], [64.42810813781118, 24.073203249989373, 136.75729073803512, 74.61733421844342, 33.61053036336261, -57.861684540408625, -26.002875798313763, -79.11245971302893, 6.20436907369786, 29.28644956668713], [-35.48251188515329, 61.211766684816716, 66.80207469062738, 52.71084348554854, -44.26544962613875, 22.77399523489893, 7.31421244110335, 54.33469737183626, 80.18466132021513, 14.898210748754085], [8.151785280058228, 125.28529873101036, -4.3755925092000005, -0.24173779256714156, 18.99079927638868, 15.88795668785988, 8.979627076365942, -16.3978498692718, -29.130196499210253, 4.768959192824432], [-18.137611819883155, -30.888929686208684, -50.45101436478645, 2.250845082192925, 4.944063139289118, -25.728399976447726, -38.39056171125102, -27.785575987052074, -19.946009010994747, 47.16064644161909], [75.7383311377214, 6.825434419244194, 19.517901456289735, -111.09933974228203, -0.6327799943435677, -114.4024083991709, 71.46230133921026, 112.68437081910315, 64.54022103517872, -48.364438587634694], [16.066855132254148, -16.265955342576824, -10.352947280729976, 26.685040735469876, 93.12240357667747, 25.305362012067476, 55.40027672180471, 13.27910741750978, 36.76393057866148, 8.497470422409227]], [[-93.5232436574277, -66.44451493475444, 57.10162701958123, 136.654944210993, 25.891783336590876, 4.567174100307485, -11.053820503682276, -8.7180914402279, -32.21307637633699, -8.692315759746311], [14.933235848291954, 43.368091036501106, 19.37489873779882, 22.522659318547717, -75.75930414162082, 12.705107237215111, 22.98134589737672, 33.903928697595504, 108.4434110074502, -32.07249471201103]]], "bias": [[[-47.33448135396984], [72.24196269702558], [-51.73033739000798], [42.8405127996466], [18.949727450416752], [86.56070970113022], [12.188354094084682], [52.79990052556617], [5.891848092277735], [7.566874763257765]], [[23.12805667338533], [107.69976243603784], [20.755371478625634], [-5.943076562178786], [58.19026856064624], [22.78373113589099], [80.29001868623806], [-135.07424365752777], [-70.82331691030474], [-13.710429991884274]], [[-16.103157385043094], [-21.66759304806962]]]}, {"weights": [[[-21.254357417466636, 9.004486737987698, 43.51366744300701, -14.333243136321107, 69.14387935395217, -65.57037900058431, -21.33860739048523, -51.62179288961548], [14.6892194930074, 71.1564486330354, -32.56889925859841, -89.54446722442142, 10.966124906087966, 32.31114550417061, 97.77881663096555, 29.69969333758523], [5.621925539203096, -115.13501239910812, -3.9488368713515825, 52.33894281698383, 0.030224107740556116, -1.3768834209838836, 13.156163376290655, 52.765390434365834], [0.39902692031121184, 31.703444918874627, -74.96979334844895, -34.191134028723745, -38.080180945996574, -81.30855100348782, -33.472839331392436, 8.405762477391665], [5.912799217214379, -10.774267320401394, -14.059129436412322, -43.78247278595478, -22.200239794087757, -56.24046947298685, 18.692345504094128, -28.84620319870993], [4.275672491409807, -14.298438339239725, -36.32439420473598, -23.94135460787353, -28.266239121040023, 43.94824632203245, 52.89296346528284, -57.20584308632935], [26.42767828828364, 3.611528518927395, 18.15221039639227, -5.957266473150785, -34.289442364151554, -84.83604117816695, 38.14034970155564, -65.87961618947138], [-113.64612545466211, 17.760318766970087, 64.52964899746486, -8.338579217776728, 8.31907926165885, -0.8125482369252609, -58.63083949012867, -57.37909314768335], [-26.426170122247395, 23.81003582085612, -1.2803237136349335, -58.661007690505876, 36.207530822928256, 12.227245507423332, -2.3061393960927083, -14.535628400760485], [-25.869632754012063, -20.575138535665168, 1.9772719301501378, -12.482075768693813, -21.20536782916792, -6.820687981450313, 25.906995963829587, -77.57039234475049]], [[-7.586065134108093, -39.67380458700038, 30.980591592541565, -25.212917816744955, -24.83915699648476, -79.22813932275595, -17.33872434488018, -46.43113718250176, -12.026069519297788, -38.03477554790093], [44.46014914911888, -52.10932364984503, 149.1761666406569, -9.596017109639229, -29.058164594732652, -6.225694326264607, -85.10482432069172, 13.369529433887601, 9.934252469032604, -6.795302434760644], [-18.745774477515383, -58.42252586473465, -103.00311571372279, -1.0075856153662246, -14.641076262326862, -13.754564650597837, 74.58644128967137, 59.42952095367525, 1.604032009916573, -47.861727432696746], [17.345938558026255, 33.282752250975285, -145.4024202690297, -14.017060560659894, 38.68684727044106, -8.77545613949552, 9.609842797915812, -25.188767073717038, 38.826010967788314, 14.899742732383675], [65.55012475042993, 22.50485738025586, 139.07702182514018, 75.73109592825445, 33.604278491249886, -54.310663349353895, -26.69640651402586, -76.73564737652451, 4.073304622259537, 28.043283111233322], [-31.314978553698143, 63.06798569402638, 71.58577867565239, 50.39839105452688, -47.034436918994004, 25.06762819826618, 6.455084722448939, 55.697576795109704, 80.77236466280834, 14.710036191318235], [9.11470004364002, 126.64099977008733, -1.812313457488075, -5.855065321819017, 21.161070738469764, 18.212640578240755, 8.198151934959581, -20.740721301043084, -35.809793884837454, 0.8730943002750762], [-16.983419944487785, -38.448018161871246, -47.12876663334937, 5.416184836664667, 0.898507429224044, -25.945454178986395, -39.50114116928881, -36.04629469925615, -13.122966524414846, 48.856581463902025], [73.43132778806272, 6.958142239569651, 19.728243914065892, -113.20639755680124, -1.1467044996500442, -113.24991859167919, 64.68754887966733, 109.12998387694873, 63.722215187188645, -46.063169837351346], [-2.1138534464301757, -6.050280415052768, 7.490637428107671, 0.8114019268573899, 88.64067578552546, 30.038763352779718, 63.788229477650916, 45.80552441608361, 23.0543049710961, 28.00928663633729]], [[-93.63402689157702, -68.44186772865208, 54.02782103774069, 138.69584763370483, 26.805040094437324, 8.001334345177428, -11.694399004551194, -8.224291336904166, -32.28852316095821, -9.497215308582964], [21.149287315104974, 46.9076763446697, 21.848094957889575, 18.621016982990582, -78.75641497704659, -7.054887240377088, 9.060414655517128, 27.607184258954685, 87.60759548251492, -32.201734388798386]]], "bias": [[[-48.61978423889108], [72.80966619421514], [-51.41011093211069], [44.926290159882114], [17.79278746990673], [88.29541272596488], [14.20242113779396], [49.37501228864731], [6.538175106844492], [-28.83078254480457]], [[15.96741938439381], [108.94551939540607], [20.687431347956583], [-7.734975275598378], [67.49390342352852], [15.740926137124662], [79.94929634331484], [-136.48956220572367], [-68.34572425562709], [-20.614337259621703]], [[-17.469081665739754], [1.7923341655933003]]]}, {"weights": [[[-29.704499067079873, 7.866153452603321, 39.76238288368361, -13.265368466900972, 64.5482479017131, -59.31707860087209, -19.76244103209379, -46.83718069218728], [16.262831841479507, 73.30331093177482, -36.35414655249398, -92.07554405319802, 10.525133346271895, 35.285425529903314, 98.67839286333394, 29.056966105426827], [5.348354674681117, -114.71142297250394, -3.1414932539628313, 55.012545839663204, 0.4211590685273443, -1.378925161083323, 10.189526406147538, 52.836998637138045], [2.534979581464091, 35.647372217769515, -80.70908667373368, -34.34404557602837, -39.2747130226106, -82.8126292715306, -33.801812785960905, 6.884275739843319], [4.577400346431659, -12.065915888388329, -15.200792583655094, -43.81369024000428, -24.179143290322585, -52.56342254417818, 17.833945376804333, -28.90480167134751], [4.50077083517114, -14.893310135874561, -35.397072093449424, -23.903550468820338, -27.832623151557495, 43.30706716786662, 54.80835459046247, -58.10684840028911], [26.42767828828364, 2.03778494807814, 18.50582081767837, -6.092462268905108, -34.289442364151554, -84.70174833980342, 37.486912830601504, -65.87961618947138], [-113.85713226397544, 17.760318766970087, 67.10396539778556, -8.338579217776728, 8.31907926165885, -0.8125482369252609, -58.76118438451671, -57.37909314768335], [-23.023839935848983, 22.669106562151843, -0.29406607885870706, -57.75745940255932, 37.03213971585429, 12.779082384971057, -5.528426328487623, -11.469770699325464], [-30.32162477619689, -14.797354964875117, 1.9096957821230478, -14.946641216020835, -25.026599995364858, -4.7504059775986995, 25.451393720210405, -79.32515806951905]], [[-7.446243519706337, -39.67380458700038, 29.12105066826959, -27.526397580445767, -23.799201127453046, -80.35013992596878, -18.38151980710726, -46.10500047534864, -12.124664393390255, -37.351467598910894], [42.93014212100633, -52.487476170885415, 149.40413935547852, -8.599253005296477, -29.267349072695346, -5.669495960376606, -85.10482432069172, 13.369529433887601, 9.934252469032604, -6.7434504470455305], [-13.462548323215161, -57.773514239443614, -103.27085946693332, -1.474739708233729, -14.641076262326862, -15.261953791224935, 74.54445265183361, 59.42952095367525, 1.6170304025665951, -47.683330749343476], [17.62997520132702, 33.282752250975285, -145.4024202690297, -14.017060560659894, 37.813476838287436, -8.77545613949552, 9.013327739011668, -25.188767073717038, 38.826010967788314, 15.134208639681491], [64.81251945640844, 22.593265243659616, 139.07702182514018, 76.25233716350296, 33.604278491249886, -54.47395180689988, -25.449992139360308, -77.2398983568523, 4.923705444822717, 28.052458526557405], [-31.869358628250946, 64.75133551301293, 71.93723036533494, 50.39839105452688, -47.034436918994004, 25.939045770539188, 5.991773575980914, 54.70303283656324, 80.52680507549836, 14.710036191318235], [8.861073114306782, 127.47410502619981, -2.5243370297017718, -5.7427107294296444, 21.934448683153395, 18.62648030235678, 10.039834614598043, -20.740721301043084, -35.809793884837454, 2.080910175874485], [-17.10447696909133, -36.5372279462303, -46.5782604400437, 5.416184836664667, 0.32717089218601525, -25.945454178986395, -38.93154105793477, -36.04629469925615, -13.122966524414846, 47.92850095904553], [70.82303184951488, 8.018527114711281, 15.928592249031592, -111.68802521302386, -4.575618539799048, -122.6874149775182, 61.85415549539877, 106.93263290681905, 65.02035134250028, -37.957887313350824], [-4.403038716232589, -5.96211000739234, 7.4593234293202, 2.301905862876839, 88.44949000534473, 28.04084962841971, 61.46617682686201, 45.95062743401438, 24.30020660370752, 29.66282342967257]], [[-94.30435981027033, -66.76909692360717, 52.93425363743705, 138.30559853118706, 26.478686671847846, 5.865368318326223, -10.12905098712574, -8.65471209168431, -32.28852316095821, -9.497215308582964], [17.743804463641695, 49.173344114720386, 25.007585588034384, 17.269387870410313, -76.24833292737402, -8.328537829503905, 14.05696534733527, 28.682731300504916, 86.6597850239602, -31.55370326854519]]], "bias": [[[-46.615726396160554], [76.11850937638926], [-51.34161013134796], [42.28407476254456], [20.524927294690695], [89.0179682726742], [16.316141837113076], [49.61489907837291], [4.778681327541979], [-30.10740638274264]], [[16.417002301010918], [111.95875506059683], [21.64951469287303], [-4.909602651693761], [60.60491591014456], [28.682034982052574], [82.35178943376049], [-138.05622272474938], [-73.48836810053726], [-19.503045857845745]], [[-17.020019424426437], [-0.6937540827441131]]]}, {"weights": [[[-29.60705949011562, 10.64885806311425, 39.829354977467226, -7.823734882661343, 58.861923981455014, -61.992376292625146, -21.78686409387549, -49.399057159013815], [17.517036747235593, 69.19914509662041, -40.56290972341096, -90.70254886814698, 11.539822979186178, 33.21906827828641, 96.51863021731697, 22.942536185255026], [9.417046745121231, -115.87909042735772, -6.467122405007615, 54.294319963287506, 3.8154110762329774, 0.014777031208254687, 6.011860929578091, 49.74760021528934], [5.270213293018534, 29.463543356677462, -79.2382140629271, -34.095900736335004, -41.07192813239163, -81.31499299398348, -38.46087878008983, 3.9654445569182184], [6.030307432789775, -14.972890337010263, -16.617436502762082, -43.15577618046919, -22.992255866352686, -55.10650129586413, 23.994936796999102, -25.89141955259343], [5.733441353096689, -18.19955309454373, -38.81889268403002, -27.31963477698911, -26.725067039004276, 47.7525390968704, 52.180651517251746, -60.09591185531749], [31.765061932638098, 1.274113955853744, 22.565778002827226, -4.101374280854733, -34.58349514899372, -79.63577407412215, 34.30205600503565, -68.76801679032968], [-105.36249684473765, 17.619500614115, 56.68421464864481, -18.842440465017976, 7.596801387616801, 1.1166929567578325, -59.136810028912116, -50.68821909061757], [-22.587294871094077, 26.045233811112833, 0.8369835060705535, -54.09060022130409, 36.60091407475255, 9.390530421142431, -1.6806211714189236, -16.630975473204188], [-25.697775944848043, -22.278040654361366, 3.0638687413137906, -12.57639422785309, -21.950751371408064, -6.978496761557347, 26.695180134921046, -76.49452387805978]], [[2.557894887832024, -34.06808457781118, 34.586458209568015, -26.790642688700906, -24.136115348117045, -83.34648128134583, -17.27386168266214, -49.30346060127198, -8.161526678669704, -29.04776799750527], [41.811083635722376, -52.33359301884013, 154.32747193098788, -9.507024697114538, -24.459720857330865, -3.2117567544291385, -88.04344829430002, 13.929709715919829, 7.860536894441376, -9.47845363757207], [-18.626507644699753, -55.405087116403934, -101.98294752140717, 5.463121718422357, -14.594924501828682, -9.193715120012447, 79.05258351910504, 67.44491507992248, 3.5328026738390363, -52.05111868897294], [17.541205170406776, 31.141322907391157, -149.9627744417151, -18.457549872039262, 33.55523402772046, -10.192979011206104, 11.377349095749286, -18.512200797188598, 47.30121109611854, 10.033379773399247], [67.86399323753928, 30.307386326221977, 133.5171983285005, 74.449247447223, 37.647047342455664, -53.60675099822111, -29.251989212218902, -84.66860188554233, 7.086739636415112, 29.27147703474509], [-39.714064342666966, 69.0781845641208, 81.25823326041319, 58.5264557205872, -48.36930691402104, 21.25182643572145, -2.9167636822896172, 52.9187130415041, 89.97116469655029, 7.052858759631106], [-4.535281144613724, 121.21815825466835, -2.6494059318070278, -1.011780534763217, 22.956065001175954, 16.433850414955494, 11.323751719257185, -17.626889749345636, -32.44947742395709, 10.51838332985711], [-13.117236331784568, -32.891106366111536, -50.33475755120019, 2.170971890447874, 7.2029478054043015, -20.66899234383422, -33.77018657041404, -31.662847922061122, -19.373905189762898, 45.7416558805341], [71.37915828604498, 6.048841064712276, 19.84300326694987, -113.09302834031755, -4.776220457764098, -121.33135409657179, 57.565539668255056, 109.10410860105713, 64.49490994437726, -43.3992260535843], [-2.1138534464301757, -4.360197919584182, 7.490637428107671, -1.3028486921651754, 89.67033374151788, 31.270859871015887, 61.65266123367158, 44.77438136500322, 23.76067679748323, 30.05119502754536]], [[-95.01776200574064, -64.06213218391531, 55.275833444145256, 140.51271550232536, 26.26005985654073, 5.9751550652704655, -4.6932691729836895, -11.723247803754317, -36.41050191248907, -12.700131362523894], [21.47818998895808, 48.1808968285812, 22.977831369427495, 16.93663760540719, -75.25678520289385, -12.6014171365076, 7.516143836625301, 27.937464429699766, 87.47804819499333, -33.691669282921296]]], "bias": [[[-48.739086935660964], [76.2360827307253], [-50.684986297841284], [45.035032597985165], [15.860348320224688], [88.99843356708054], [13.86827527169799], [50.81210467883624], [4.574028250390291], [-28.83460044001378]], [[20.40989270672067], [111.75194528409827], [27.000672823761153], [-5.042670519466327], [61.99017597486918], [31.83279851707041], [83.79739572156672], [-135.68179137466188], [-72.48984209385425], [-22.714824240810895]], [[-20.821807957698702], [1.0407790403224335]]]}, {"weights": [[[-25.53944018837546, 6.116038345852115, 40.20141808305373, -11.118220255313823, 67.36270094918943, -61.056611490616056, -22.818949424577422, -50.780127823247234], [18.315704568468696, 76.11597288796051, -36.226713768186734, -92.5524476776438, 15.96479105092557, 32.776612553850846, 96.33655947012927, 29.71848553121633], [6.989027081910157, -112.74515966570145, -7.9653918908206744, 55.58477835325536, 0.7170137659818863, -1.6022859863880063, 10.667029916687616, 53.706258951766664], [3.6382458629908907, 37.33823387409825, -79.94260270835855, -38.19475968952256, -45.59898671783677, -78.3277707863416, -34.35241781628118, 7.979617644931553], [3.6618223351625385, -12.475315947276773, -13.423931934557945, -46.757797218293604, -21.787845416214722, -53.158217519942404, 23.65563212162813, -30.983436559371597], [3.2802177252852784, -17.583834465956805, -36.58469536394678, -23.798099725203663, -28.516864143831874, 44.83913524942788, 52.57893819579331, -59.944240498628545], [31.20894898413084, -2.9054330306481395, 21.1632273904451, -3.950559640949046, -35.79622933461556, -81.5981913877386, 38.22662090428996, -65.94957356469868], [-106.25039754828369, 16.429083634105492, 54.79723550117056, -17.130631780192385, 5.547292536490936, -0.7133413541995921, -59.11173693732244, -49.9954939452802], [-24.371840529556145, 23.221349309123163, -4.786819107818308, -53.652092613254965, 36.83872507629047, 11.537719194934288, 1.7901941709566065, -18.905573775949655], [-24.929604505479247, -20.12964850361424, 2.622019032462825, -12.515877713452666, -22.26927424950327, -10.328759919404783, 26.481524371670186, -78.15858646702122]], [[4.5482770581806395, -37.789071090919485, 29.23494642634735, -24.45901549469756, -28.87846597446947, -82.59319010950266, -5.977454825252166, -52.49430914449143, -11.435828589633477, -37.680735069633684], [41.255925552190256, -51.817468435803875, 145.98021016879966, -3.1670172323071677, -32.4932368345227, -1.1191938564819073, -85.13452482994373, 5.89284666159885, 8.108129699696432, -7.119414552288459], [-16.206680433056047, -57.8382425983249, -100.91234151446022, -4.042098998247014, -10.579507908271516, -10.83827795706353, 74.95919577477653, 64.18042348517551, 8.060215426539628, -52.622840872367966], [21.444084944657288, 30.335630723874598, -149.17068630449657, -18.938469740874822, 31.70898825485136, -11.97250956766124, 7.815724926123921, -19.53507348733923, 45.54941299350688, 11.119025240364042], [63.59468807274025, 21.793300667194924, 135.60877521432369, 77.83812461252248, 30.570257808542138, -56.39192786886631, -24.032266700696773, -82.39542841637488, 7.538059858656624, 30.05040125492912], [-30.81996234374865, 62.96395598000654, 71.28731364441018, 52.274114652823556, -45.672712730254396, 24.77781836201068, 6.762801796503238, 55.784926071739584, 80.03628065721435, 16.35429377247102], [11.320479492464052, 128.46568972928628, -4.476727315805352, -3.9006318767849097, 21.09004318109271, 18.28542752446022, 7.474981491317254, -19.704175740370708, -31.734173788683005, 4.0033324719886725], [-21.175243528981298, -39.88364054578912, -46.42968452566978, 2.916658837649016, 2.231467421712027, -28.254442084477525, -40.23594686776888, -35.260672124992155, -11.50920274451322, 48.79436801615761], [74.2158926204875, 6.939343019646629, 19.728243914065892, -114.17095672449707, -0.6990011542386843, -113.63162551819677, 64.2719665160635, 109.73406847661819, 67.20526664929524, -48.0872527562215], [-2.4127712032304793, -4.748920490503784, 8.334147436210724, -1.7033155010163714, 88.28723453978007, 30.2275103955334, 61.84082963428556, 44.34765083956507, 24.62957446855445, 30.05119502754536]], [[-91.57271299294008, -65.97605399748272, 57.10162701958123, 136.56286826017322, 24.8352154659376, 4.567174100307485, -10.863140825139112, -9.746810304550031, -31.306854241885716, -8.797870500166695], [21.28162160920162, 48.86203473637001, 22.02519003734498, 18.391378612792327, -74.72373694156256, -11.503331902220232, 7.868339911169048, 27.780701727350046, 86.74115001937955, -32.944882801354]]], "bias": [[[-49.40826118513475], [75.21208734931724], [-46.46029506064799], [47.46137118465308], [18.329697785552014], [89.4335561758427], [13.57590366935698], [50.7623154855308], [3.0638270900985356], [-30.87003793185909]], [[19.30782220023275], [111.06170341512284], [25.24361169934539], [-2.4238155598556546], [60.35536150833615], [22.53510672468346], [79.8157913035118], [-133.99184938812647], [-69.14465588949906], [-18.20086580764854]], [[-20.45102400844323], [0.8465069499573138]]]}, {"weights": [[[-29.493141966278174, 10.428538362915173, 41.742946776116575, -6.298924765603596, 59.95183350176124, -62.09662192287229, -22.00272833633064, -54.06031346175879], [20.854617644101022, 71.09240715554712, -39.39072745205181, -89.9127083598017, 11.995288636759936, 33.8431899737486, 97.62919444330605, 25.643232952679085], [4.980777987036925, -110.89519901840197, -4.579611317229879, 51.91728194226594, -0.13802102932029164, -1.1161878879226406, 8.707779858252495, 54.64157495077143], [4.54779962946264, 32.15971477583647, -76.19243907268621, -34.78901828997946, -41.10074272265986, -81.70992719959733, -34.91208734131129, 4.495211385052119], [4.968420475274897, -10.707506145030477, -14.731212751706177, -43.32476843879697, -23.373956514524952, -57.751152768022294, 18.723866327159616, -31.69641157240159], [3.380121511033944, -17.85055995951901, -38.837513818204826, -23.5429146376299, -29.699703137932456, 47.63251348759877, 55.18237825496642, -58.498312377346494], [30.59804979028887, 0.5198766123097256, 23.610877206309482, -3.7274712792300218, -33.693618583083975, -81.43709238290455, 33.59746518869611, -68.88692900327446], [-104.6461946907981, 16.13302140365801, 56.401407083285825, -19.539360509694333, 6.786641600421079, 1.1166929567578325, -59.23166650399387, -50.308884987121466], [-22.778671970259953, 24.131068609864688, -3.5037065888181775, -53.31701421346313, 37.98225354013195, 9.182376111848034, 1.1885348740479529, -16.57473839211975], [-25.913121537571705, -21.009098126508132, 2.3125756980938905, -13.166591896239595, -22.443301101892615, -6.374266049032143, 23.57861570699705, -75.78826068064362]], [[3.7767761060940503, -33.63468327309146, 31.568220730256012, -24.82939646150096, -23.443138798403357, -81.0425755850454, -16.59388933143625, -51.23158414738694, -11.181482658985178, -28.10836617881973], [42.74013879053599, -53.393194593428944, 146.36810508257616, -10.647860832462666, -28.67281302079674, -6.194659513818976, -82.72199736442893, 13.36266282934583, 10.635349973115318, -5.833377238292061], [-20.905442739183574, -56.00016085361277, -99.03218781811982, 3.8964725668712363, -12.657509198795625, -10.886685390404638, 77.1396956358197, 62.328197587671134, 0.8233917547342122, -53.10733862532233], [18.82396793798207, 30.71519281746281, -147.12788940044257, -22.411542931846054, 34.49786632773362, -10.568204518640657, 8.99548853353891, -18.965659981343777, 48.997540172591414, 13.129119711402664], [64.9977855686176, 23.74582481731654, 137.39260161717135, 75.2892248026306, 33.28913517506404, -57.191428551520936, -22.838073191846927, -79.83228993849973, 5.609178638860837, 30.41692645603501], [-34.95803554344779, 61.645535046736704, 71.10522686465721, 54.925474209533114, -42.079794016237415, 22.439167869329065, 7.752370167945425, 55.20059667274296, 78.96124574954705, 15.365954176219287], [6.475931609052176, 130.18682971665382, -3.7504738298153946, -2.9090314578932928, 19.807647644107778, 19.807780561128677, 7.802187007175775, -15.843507332680556, -30.45091701455269, 5.2199054092841815], [-15.531424689549317, -35.46431325779606, -47.71524101579447, 2.005790352606187, 3.7144643242397906, -22.906165101655453, -35.15877160768635, -32.51244950626708, -21.319597430367022, 42.387341031483636], [70.23947135197977, 8.527108406680986, 19.04267318388277, -114.62887844912896, -3.075205942847096, -121.9047741025666, 58.57368084968791, 109.76226026053854, 65.75199632943888, -41.633749404951836], [-2.1138534464301757, -3.6969074207685844, 7.343587126706388, 2.2707888050300946, 89.639292221933, 31.669647223797536, 62.437936366084685, 44.11497502829088, 25.08473280945848, 30.734120798961847]], [[-94.23548244494557, -63.78451938613335, 58.00340634750119, 142.49884434306395, 24.800721578065065, 9.318491054348067, -3.572380414803317, -12.286587292035914, -32.61511448231892, -11.43354226438547], [18.755792573999013, 49.45031685495145, 23.104700911573207, 16.734735476357134, -76.55551634398559, -13.045650535555694, 10.79849270837719, 26.609124574639687, 87.58521362931437, -33.691669282921296]]], "bias": [[[-54.422685064393875], [74.11095408244083], [-51.5861425462889], [43.36109570349098], [17.049518601483843], [88.72775088882524], [15.380862693391405], [48.47612380594725], [4.372678847675762], [-29.745880506833696]], [[20.67565796720841], [109.0379958731127], [24.16781123742187], [-8.741891740094184], [70.52722266143604], [19.059400844830115], [82.99148187713045], [-134.55321858100638], [-70.4858449947718], [-19.62641448332875]], [[-21.61893550804367], [1.0028577645979317]]]}, {"weights": [[[-30.614984796830953, 10.634815691888722, 42.994890843099704, -8.68737551012803, 60.865251791542924, -61.14951367678212, -22.27978688292043, -52.40122392728838], [17.803987954164906, 72.75108527888848, -34.64547472057366, -93.00477146544358, 9.758664295506176, 32.868709013189765, 99.57446500981636, 28.984461243679874], [6.852507470529226, -114.31208948862303, -3.4345849841733624, 54.36827994627542, 0.5510864976369898, -1.5339564362310427, 12.79334224373451, 51.5048537951563], [3.29389658314258, 33.01629038940385, -76.02323616886139, -32.99101751835708, -44.86679962175666, -83.403018262855, -33.99823803635914, 8.540030522123839], [2.0272146385415444, -14.929570233572752, -17.043833490996118, -47.87520058739519, -25.163059667692064, -54.968861807213905, 23.765181003725065, -28.100025515280993], [6.029860686636536, -18.6774264115927, -36.044658712618684, -27.65793243623852, -29.477393385698687, 50.78685677790768, 53.442466674469145, -60.284760043861176], [30.576932102921614, 4.758192380292481, 24.74821816876304, -6.3509694086284645, -33.23936620920215, -83.3518423472336, 37.16689804086668, -67.96437054845063], [-104.78995358788528, 13.647286272695194, 57.339568344848345, -19.09471421226317, 6.850676925049016, 0.5885103439384225, -57.87400407662036, -51.66585509006179], [-29.104420320087964, 27.2868767284832, -2.9651710239702287, -51.89045318107936, 41.18343494930274, 12.986084596763632, 6.328761406774174, -17.653054263102025], [-30.40238745900087, -19.448270370479175, 3.155961599774094, -12.45032826763937, -22.44830497563877, -5.085310312636929, 24.241817388545538, -79.8526761210516]], [[-0.11946142376470681, -36.63219569532144, 30.76178658697651, -25.376931064800537, -24.07168039175193, -81.35113541365048, -16.15865088770572, -51.69053916192583, -9.95219763896502, -29.315654189620837], [38.393277507915315, -44.500662517485836, 148.71665189383614, -18.362609108579985, -27.6850199443915, 2.4890802924696827, -80.12697083042796, 17.524236070205784, 8.302865678446501, -7.777046680299431], [-16.936806706048326, -62.85683468945125, -105.64266009432097, -1.5625765105196379, -11.06049204441452, -12.698163054243036, 79.33276476758154, 59.67248734286628, 5.585657422402119, -46.86596763513879], [20.86460210093657, 27.003164912887573, -147.61665883190713, -20.8376956752747, 31.62355432006052, -10.800254687437743, 4.704398756422394, -18.62300675323629, 49.39747875794986, 10.567976119615826], [59.26175165015412, 27.351514323018296, 132.157933798036, 77.19232552182018, 37.96677988979445, -52.027725990632455, -24.837212536181198, -79.37535819959903, 13.421043331651815, 24.446981310323572], [-39.289791764160874, 67.44851615232942, 83.82542399754234, 57.294256765649926, -45.71475284039633, 18.30448733355583, -1.6903855281735625, 53.3599659510001, 84.45460806147044, 9.269014334193866], [4.578464400432198, 124.21579887738703, -3.1333643029005094, -0.9543692902880766, 20.024709969751378, 14.354930811748575, 7.726132657687986, -24.64173487332761, -28.95727208691605, 5.112827311487241], [-21.93148405182409, -34.710565982974806, -43.5641537506095, 8.115150561497721, -0.16153623518159055, -34.29092376421425, -35.99284243327478, -25.970598556448138, -14.806773683233349, 51.28321935479712], [75.99520593615024, 3.0845931934697197, 12.111866354870092, -113.44581292836932, -12.008215142574333, -119.81099972650401, 59.86176169964823, 120.44834871403417, 62.950218918007266, -40.78446792990152], [-5.51871897910366, -4.75227114969741, 13.163005300234659, -0.03077607581964137, 82.20005507970005, 30.91313948318678, 58.02285114197404, 46.54007743657754, 25.194209554220127, 29.11138644806336]], [[-86.31783656694361, -72.7281700515307, 57.39794703504994, 142.0428558663022, 31.675799931495156, 4.706360670762711, -5.671390457578407, -2.4238761618177045, -31.599869046656828, -8.946134730432279], [20.379143661164456, 48.65952049166467, 26.124113287576503, 20.428758862788275, -76.6331561882806, -13.863502445028477, 10.33312785512198, 27.806234888888163, 86.62823805756831, -44.09696494695437]]], "bias": [[[-49.583771826876124], [75.01888834198176], [-51.84313459812225], [43.13762401205426], [20.560615486385874], [85.27773736639554], [14.958054227678952], [50.452411470248116], [-2.7461380487363396], [-29.94098304840262]], [[24.36565606340675], [108.66214579180546], [25.080862759550723], [-5.481031436684182], [60.82152905640771], [31.446834869555456], [81.7364423183953], [-138.9122203946849], [-69.78253280546323], [-20.920882384378153]], [[-20.323205865932803], [-2.9546965922917825]]]}, {"weights": [[[-29.60705949011562, 11.006523866345566, 40.56065732651904, -8.14179703217285, 59.93205733974485, -62.696203202386265, -22.149568092664293, -52.99692467624008], [16.907249417576992, 69.46933943959212, -39.66568297176886, -92.1460687507562, 12.038121760314057, 31.89428014135579, 97.23347713608293, 25.056388084654692], [8.266360461962424, -116.0379505757698, -1.9781094815862659, 54.78564246565977, 2.702929353781439, -1.229146729178632, 4.566377009498234, 51.77410019175725], [3.9860640208137434, 32.52257296464701, -78.10211935786882, -34.78901828997946, -41.10074272265986, -80.4490060632129, -35.04563836151075, 3.9979588408988165], [4.968420475274897, -12.411571076262554, -14.731212751706177, -43.5866655771235, -23.373956514524952, -56.560342680224835, 18.723866327159616, -30.669446515055718], [3.380121511033944, -17.85055995951901, -39.7870316269031, -23.49256515496431, -28.09229825457785, 47.63251348759877, 54.73513302467199, -59.93758530562679], [32.19728704260385, 0.5198766123097256, 24.19609874091781, -4.725367198450155, -34.25724168577454, -80.89542676093475, 33.59746518869611, -68.88692900327446], [-104.7493871903709, 16.13302140365801, 56.450751726561094, -19.98965942411929, 7.036677749024578, 1.1166929567578325, -58.57753654598721, -50.308884987121466], [-23.72816802428507, 25.254439517503993, 0.6758094361028348, -51.427833204972345, 37.32948868207384, 10.440278870272257, 1.007397433044251, -16.66893883154268], [-27.336293483743674, -20.43260874197986, 0.803643751162883, -12.790348180312778, -22.3978041514963, -5.004780464887696, 25.334655104174185, -77.74800948990314]], [[0.33295048939532945, -36.6681711475924, 33.455924506177034, -23.696094918729152, -21.235410505250194, -85.03707494431504, -14.872905956376755, -52.17849742598753, -9.3351605796944, -30.98999278867028], [38.37003412095717, -46.77377927939466, 147.61464398759165, -17.004895784597615, -26.57167971254184, 0.9738863186223197, -83.86159523863302, 16.108355528094098, 8.599082100323683, -3.115499682631735], [-19.309639436190228, -60.31444786403474, -102.81529718097705, 1.157903274950694, -10.918676715820531, -12.23887534297479, 76.7905255707277, 58.8636379137368, 6.578883097629491, -47.23124048242667], [18.00083171803819, 30.177422712530028, -147.62917485548797, -22.43988007018186, 34.205728685685244, -10.540948944732646, 9.880565384004594, -18.723598012289287, 48.997540172591414, 13.129119711402664], [64.49556507264094, 23.633275151507057, 134.47012302303847, 74.90559544079638, 33.28913517506404, -56.527900335877646, -22.838073191846927, -79.30074062389227, 4.843842277093187, 30.61615397141831], [-34.95803554344779, 60.194612186389215, 70.94946180843525, 54.925474209533114, -43.118279189649094, 22.439167869329065, 6.926659889374721, 56.0731497210758, 78.28306980355656, 16.141699205199046], [6.572852694868398, 130.32652295267002, -5.796932892361128, -1.0732397277635475, 19.59823807261746, 19.652732247624716, 7.372061548605601, -16.209045502339652, -30.344898892922902, 4.700394122970881], [-16.284478954639038, -36.51810850357645, -47.067016182508496, 2.005790352606187, 3.819827568381036, -22.514103508062167, -35.96504387643169, -32.51244950626708, -21.018846513499728, 41.66351050587981], [70.23947135197977, 7.099412686461231, 18.643284215916665, -113.55729412067456, -2.9836742176079647, -120.92175341866538, 58.934424903187015, 109.52192884543737, 65.15887474110957, -42.1544265561819], [-1.0994135623117631, -4.813844832927372, 8.726968123580573, 0.951977883695178, 88.66868548003409, 31.0833699259793, 60.126496682999885, 43.59010246090839, 21.296727356865603, 30.05119502754536]], [[-94.39570972277376, -63.78451938613335, 56.24449521665038, 142.49884434306395, 25.033963141006225, 9.472971325707968, -4.542520736237666, -12.460584407822108, -30.84868354050497, -11.43354226438547], [22.275623428852434, 50.7425452994989, 24.090869005713685, 14.82982707233512, -79.56893996041553, -8.333619495033632, 7.8263130456681225, 24.80506789864669, 86.81606925851574, -33.087096719352374]]], "bias": [[[-51.86784674169512], [73.50424435780893], [-54.042458388054925], [43.75751595983157], [19.84654754846538], [89.27126694113487], [17.417218549779896], [48.96097557738149], [3.5417884892801803], [-30.342785370061648]], [[18.19846047377363], [113.36928884898008], [20.748619649996417], [-5.612775966103278], [61.01673098081623], [18.07971680658935], [81.63645141417764], [-133.7143932811813], [-70.6458311807927], [-19.57349750541936]], [[-21.759398162201244], [2.1409752576145533]]]}, {"weights": [[[-25.53944018837546, 5.838296311524984, 38.86831277127423, -11.118220255313823, 66.90493093147683, -63.09596520394621, -21.769332327490833, -47.82055422549222], [19.942711814371762, 76.75123554709342, -36.226713768186734, -92.5524476776438, 15.96479105092557, 31.332051831133473, 96.33655947012927, 28.989477385700386], [7.430015227204572, -112.33511516067448, -5.735331837472349, 55.3916937661467, 0.5448751131212642, 0.032257567172163326, 11.431604725141279, 52.22414652329132], [1.772962701080516, 35.24210496242759, -77.88542121245416, -41.87945259740848, -42.70764948028198, -81.36396611129281, -39.55303369477772, 8.447674195826052], [2.0272146385415444, -13.999493972883807, -16.186313310020793, -46.715525658555535, -25.481363962196227, -53.74801024280923, 22.92255103450933, -26.13115167482057], [6.842538303190736, -17.0510623293681, -34.040606555140194, -28.34391200239667, -28.277838483223224, 50.6207106932773, 52.57612510981166, -58.357934196029944], [31.60961569157219, 2.5510398105681777, 25.262851345822114, -3.513463157387583, -32.24086927770621, -82.78932494585243, 38.0725673792273, -67.07953987390351], [-104.51513162259582, 14.991998103984283, 57.339568344848345, -19.975135055723815, 7.895038107238979, -0.5482135871164633, -53.86317663636742, -51.384151927993244], [-25.053069947073716, 27.58303553533412, -3.1881129858893837, -52.88491826127753, 40.091831316775355, 13.128159532916312, 6.6581485174233075, -15.514306026625462], [-30.229954016938056, -20.034069237910167, 2.4356141572504035, -11.64069243311108, -22.783613638201587, -4.588113565092192, 25.385179297692407, -79.36363764745906]], [[5.79005616682785, -36.227654557506305, 34.5743822322342, -26.40019067082679, -22.491363721432478, -81.55855990669731, -17.045422252362172, -52.67460712902351, -10.763251269467908, -27.480826474143726], [42.39126160112838, -51.05538811836173, 157.34801520397934, -9.078664673772666, -25.358827752213035, -1.9761673384894585, -87.31837848818411, 13.818952098945717, 8.341140276316512, -7.67552548514079], [-17.551964336171576, -54.10663088198146, -100.39987208873615, 5.186672422110913, -13.145006607737985, -9.954274200040473, 82.25368950746457, 65.34779790880918, 0.5505965457571395, -54.38024768505324], [20.15014237643991, 29.94356674728881, -151.43450949349324, -17.410666252704548, 31.747836077825493, -10.389880956689513, 8.951842165760462, -16.238500526908528, 46.835995281548186, 11.396428976418527], [64.38594697797998, 24.2996155678399, 134.82661357785156, 76.49136854022126, 35.97579594716997, -54.242088389250156, -21.79362748117278, -83.3470192237834, 9.633249404987087, 29.5365672237021], [-34.18594734518616, 59.38740590672843, 69.62666709528882, 54.06682121470577, -44.37098039317581, 17.52314198121392, 9.280304643108003, 58.26304254830098, 82.70915284085513, 15.303421279179151], [7.200045105968748, 126.59401444606725, -1.3953813909515043, 3.7058177633548315, 21.59047608256394, 18.651821128196694, 9.325356555491869, -13.747180372040031, -29.373809537181625, 5.1273602810043535], [-13.884616046065558, -34.24674820756697, -49.463220605160195, -0.7180181245358676, 5.976023671211379, -24.174258034645362, -34.807093224279456, -28.637809895760366, -21.40170855750212, 47.16284335491203], [68.76353615010215, 6.680268323756685, 18.383221726675774, -108.51438970863917, -8.367541943347957, -120.08137745257929, 63.228808893595904, 109.46931834128462, 67.32408346518169, -41.23074366626559], [-3.41749611681197, -5.99608765373612, 12.354036243079218, 0.6561441799046541, 81.10462162343278, 30.705672681476017, 56.51522878457864, 45.60351050854882, 25.194209554220127, 29.273427269818853]], [[-93.19576353375561, -69.73394144506422, 58.071282328815734, 139.34516532355906, 24.279881823677112, 2.5469640675474317, -12.18555906723416, -8.365942214102239, -31.05839784474267, -7.986859253220684], [22.379181980984885, 49.869130447528214, 24.107950304299674, 19.617333247803373, -76.82278749005398, -13.355051365918383, 10.10812884444907, 27.463137657493036, 88.10587973054395, -39.413543102238684]]], "bias": [[[-48.5797632919046], [75.21208734931724], [-46.46029506064799], [43.06646659436822], [16.6634130733185], [86.84071965843988], [17.29673043029003], [52.43230513501017], [-3.784688970232453], [-29.94098304840262]], [[19.30782220023275], [111.06170341512284], [24.386698707416997], [-6.937774092402877], [61.74159772246953], [32.73740472947189], [80.16466099412608], [-137.75176578818494], [-69.78253280546323], [-21.51805789781531]], [[-13.251171898011227], [-3.98989018164757]]]}, {"weights": [[[-20.144569803461607, 9.71660643803146, 44.68958656985575, -14.467117735569515, 66.21026112567638, -64.64167483518756, -21.199849248733152, -50.88366957248529], [14.880443443488888, 68.6025860418094, -34.15211219000734, -88.98582528793536, 11.70998410764155, 34.507236180428116, 95.80851812411422, 29.669090880926856], [7.825973173722884, -115.67385091300923, -3.4730541433525866, 55.258613249342844, -0.5378761401090706, -2.163252363191367, 11.321180933503587, 52.824177054041975], [5.853434781838499, 31.655507680051223, -76.16184002627097, -31.867745061536752, -40.798365652719546, -82.47668112969318, -33.411243608926384, 7.926492491784856], [4.908912010651006, -12.032563953288129, -14.121495128188968, -48.53580334817532, -24.303949842823247, -57.95233772770282, 15.853602834298748, -30.04898923826221], [3.565195848007834, -16.740923375273557, -39.658310819779004, -24.75922557014466, -28.678490884217595, 42.698966782333706, 53.181622126152334, -58.19048986866947], [28.598032755260643, 3.6718921511694607, 21.584038470640255, -4.070720027170947, -33.931264606565016, -86.44485783226516, 36.05497640807545, -64.87242866933092], [-110.01506568290668, 15.909826457645414, 53.038872972164924, -18.960332846249372, 6.327524854643639, 0.4427688046646242, -58.796125689474444, -52.05921845859935], [-26.365425497008236, 24.21237802423181, 0.7066302658839596, -61.22363183002925, 36.69022877466837, 11.909901054943184, -4.249407703781658, -15.473173496952391], [-30.52505098279523, -18.136095063066733, 2.1507981006715515, -18.906803423700214, -24.517721062688285, -3.3071906653709844, 28.00235662469334, -73.88769123678905]], [[-0.1854456168860843, -37.736845709716164, 32.6660447714486, -21.189659992026755, -22.76273351931203, -81.73171120079637, -17.52581859285826, -51.82744969148535, -7.131939882373362, -30.21410228058639], [37.655518253290865, -46.93272524084717, 149.07732984792455, -16.774871251309715, -27.689818853089484, 5.358689044846376, -84.98903822963187, 15.465702098180888, 7.715585105128392, -3.8862525214113317], [-17.170110761395133, -62.382221091227684, -105.3361068654094, -1.541300065021635, -12.659970348638128, -11.045285394451634, 73.72569096969261, 59.67248734286628, 5.6682064538681525, -46.2132034916433], [22.448413825709068, 29.27372979370329, -147.47105091008976, -22.359186609128617, 30.089982963726627, -13.986811982851336, 7.685635567476474, -20.869641017096015, 52.34472567909412, 10.450013751925836], [67.19502747264666, 24.218717446029373, 142.02547900108232, 75.1429662544361, 35.41528639889721, -58.436581438340546, -22.765034444931977, -81.32632515978833, 5.762038251581343, 31.614311487403217], [-36.91327291009883, 61.684206240662974, 68.88760183740088, 53.70321975101242, -45.506429276737066, 23.258589239384587, 5.954672024925417, 51.96858600465317, 80.73859202297719, 15.599667459461413], [9.645034713123062, 124.08203098016955, -3.8297935728938772, -0.35806234969683426, 21.588966126978285, 16.91274229226712, 9.857770582422773, -21.09140958376362, -30.89640022224003, 3.6267735368056675], [-17.456287307322103, -30.67406953459315, -50.71670482098884, 2.672651657883985, 2.2541063622217337, -26.231461046901423, -35.53912522538369, -25.957561910478052, -21.146047574660827, 46.92304386037515], [75.98082943415747, 6.858409402293118, 16.830324395705233, -109.21509889458882, -3.144684962020894, -115.21160866993608, 71.22710096995358, 117.20464935927592, 62.844575669741445, -48.66440578767921], [-4.61527675815195, -5.302581001212765, 2.9940975304858233, 5.320619635784888, 89.51235509599533, 32.35659527908554, 55.25382420470404, 38.90591125472967, 22.549276575017643, 27.17425454876559]], [[-95.27075512058896, -62.82118605966464, 52.529081566563185, 141.0265671096986, 25.00788274050869, 7.149652304056694, -2.4839144988102846, -13.611554020503103, -32.07686539735637, -9.837914652163745], [19.40703658219354, 42.66862126546921, 25.162708272097294, 11.756884299887641, -74.59111354338302, -8.646807867071905, 8.835572882467835, 25.42816961631491, 91.71677387549646, -34.31809239034173]]], "bias": [[[-49.52556884681701], [76.33177018074495], [-52.61769340343093], [45.4741142274386], [20.524927294690695], [90.21101672155959], [16.277386518708692], [51.57836549907612], [14.771064534910243], [-32.271059737056504]], [[14.874134767996262], [111.7639214985884], [22.000634363292907], [-4.694687475844103], [64.38801290137339], [15.686901740083897], [81.13198139836202], [-134.77981079090563], [-77.68422131608378], [-15.12149342152201]], [[-19.854848754819333], [7.570512936322842]]]}, {"weights": [[[-31.62880905587473, 7.239183530987765, 44.2929905970842, -9.69429402995541, 61.3460764168693, -60.40578350769592, -21.706211875094013, -52.40122392728838], [14.566203328347513, 67.20133910503303, -35.578809802808884, -89.75763554812721, 11.343090783022095, 32.75133663130831, 96.78858290433442, 29.669090880926856], [6.151705741549405, -114.57802751806302, -2.2704237803306593, 52.549902885079995, 3.223175393148166, -1.2955021761885295, 11.231536241098734, 53.30001670813704], [0.7073400177625732, 31.324899929745172, -78.28515707633552, -34.41814893098745, -37.02472100991932, -82.01482340713983, -31.111815699662756, 5.1233546945487145], [3.3945853682198512, -12.512224836575314, -14.123360476693481, -46.493570169617946, -23.306518172595727, -54.14518310653189, 21.980427454438843, -30.05458914254308], [3.8489714764029355, -17.842070464905483, -36.58469536394678, -23.895920692548827, -28.45823804832036, 45.31083718677788, 53.25789730946834, -60.474920436683846], [31.20894898413084, -2.6471634108322126, 22.347964581445865, -3.5213676662416518, -36.67233542650319, -82.47332571390878, 36.408679734920426, -67.19825317098508], [-105.52584114044167, 17.544573338773727, 53.75918446822662, -18.497835590491704, 4.367445251065602, 3.478673622059101, -56.753163200265085, -52.35432302274608], [-25.2925591172617, 28.585325731803596, -2.7090406340247326, -51.725810252609755, 40.03202074772646, 12.108658000950353, 6.59159308979454, -17.529627026607333], [-31.76238356624105, -20.044621709853647, 3.3305069971618595, -12.576979135713778, -22.44830497563877, -5.081929015086917, 22.97799636544857, -79.218727367134]], [[0.18291066259043853, -39.91227952824463, 30.742460427228757, -25.31858765967065, -21.35370049834848, -80.91338709939318, -17.33756095132706, -53.022466568296444, -9.667170841926527, -29.060565256716455], [37.9888850853539, -47.98376238883976, 147.44396873701066, -16.774871251309715, -27.959564991356622, 2.0982736826366395, -84.75547600702512, 16.944989591544005, 9.252126627540335, -4.36171353502928], [-18.18295607219124, -59.756028437775214, -105.35587442817597, -2.1326876201532734, -11.679042952086876, -10.40537122815693, 76.49380108413195, 59.282499194579, 6.143957015683282, -46.145544101729804], [21.899454654423586, 30.525043151229827, -147.43570864641254, -23.088837951365537, 32.685019733311925, -13.296848161922473, 4.126113987483335, -18.36927532255671, 49.491004356781055, 11.335544943873764], [64.70969987058072, 25.693514565794906, 142.07132227050965, 75.31270701346823, 35.41528639889721, -58.22169762158838, -22.039026862373586, -78.6404851283844, 7.957648375021314, 30.220945517248403], [-37.96495605927266, 61.93410938080642, 69.31525580994727, 53.79504180285044, -44.631168987295666, 22.77965005673979, 7.277345653284792, 52.86055702052477, 81.52777265204952, 14.118467305942607], [6.55463385722452, 125.79405482718613, -4.667137483634868, -0.24173779256714156, 18.707905138106288, 17.500902077950308, 8.979627076365942, -15.801253138769807, -29.09902488165302, 2.9308393306834284], [-18.137611819883155, -30.728421653248777, -48.78343827127865, 1.517666252223104, 6.227642214768881, -26.834766854235127, -38.94543143306298, -27.889964857921548, -18.235132524100173, 48.451252881595416], [77.3595603834779, 6.669422742882257, 20.847149940602492, -112.44201071396778, -3.2894519855241136, -115.83931660006523, 72.8652722550933, 113.16020562016719, 64.860421677514, -48.480720738689676], [-1.199382468594782, -7.289679729691668, 12.28197496664647, 1.7197850638464582, 80.88003009825842, 31.274302170136018, 59.24402611648111, 46.56396896319477, 26.453085766375334, 30.589431939490446]], [[-92.78272391840925, -71.00139763831378, 58.00963452625995, 139.34516532355906, 27.446228159573394, 2.4331096221121586, -10.626565330836923, -6.265685825078249, -31.09667598473179, -9.852962857475323], [21.443926379395716, 50.3168943322075, 26.455595354714, 19.169816013131037, -77.15133985366224, -13.253966661001192, 11.761880116713254, 27.599886795495227, 89.86033814437758, -38.70677455705709]]], "bias": [[[-53.18398962085874], [75.76494408165794], [-52.457562710180014], [43.36109570349098], [17.049518601483843], [88.37403079860353], [15.927934337541506], [48.47612380594725], [-1.7066244880633965], [-29.94098304840262]], [[17.236363786117526], [111.39693759094884], [25.91931020098058], [-7.848796318519943], [70.52722266143604], [17.38812255863571], [82.92614346762765], [-134.55321858100638], [-70.4858449947718], [-22.21268498337119]], [[-13.251171898011227], [-2.8949703498697814]]]}, {"weights": [[[-20.703509148426797, 9.264956516736143, 44.11141790910902, -15.147036127894241, 67.68134674259831, -64.31301514366669, -22.387971316663446, -49.02686811795917], [16.30224806793053, 68.99321108991857, -33.041242274928194, 