{"generation": 5000, "best": {"weights": [[[0.5218569967374677, 1.1332955334515855, -0.545747199768721, 1.4848021574140695, 2.748537952943221, 0.9964143011609516, 1.569649654152143, 0.6087427084596116], [1.0343717202804061, 2.3081399786637857, 2.410704506334293, -0.8757570971993889, -1.313184813642148, -0.13882189573535997, 0.9673836754219252, -0.1348926289827369], [3.941259035110768, 0.9277675272550361, -0.3308031148710203, 0.8202548415500444, 0.9274166545585498, 1.9464871510081425, -0.38208770391177704, 3.1883556351802107], [0.736279304190924, 1.832759301535789, 0.2979370644519062, 1.622837148245186, 0.33603432308340025, 0.22268146520510382, -3.035856351396372, -0.017795528204273547], [0.0655729097731581, -1.0498023825648852, 1.4661799271599407, 0.7280387311082066, 1.321387256579029, -1.5989932741789428, -0.08404182976332544, 1.2853265519317045], [0.8892361422839512, 2.6402792656408547, -2.3780030466298188, -0.5356358261319099, 1.3142396210523097, -0.07486500560470383, 1.2982593169941725, -0.29573014775355233], [0.04244994550228287, 0.523380002435061, 0.5627442073973464, 0.33163111405480716, -1.5814122800170998, 0.2637604334341452, 0.6103284055406546, 0.7791520821848708], [1.816073116511175, 1.5914504535189602, 0.94029616111371, -1.0759906388066596, -0.7923818016619198, -0.24299754889361147, 1.0114441131885528, 1.7054264183838865], [-5.394895325602017, 0.9709714366370035, 3.6700555509423083, 0.605092104126093, 0.8694022894565223, -0.11182826168379661, -0.6681890285564029, 1.6538905979540137], [0.40332112027912936, 1.5403974457234073, -0.21860036060020643, 0.10723696994713805, 3.7616196485907936, -0.526589417154749, -2.9625985612539005, -2.0638870043994997]], [[-1.7621919432553577, 0.7789756127557224, 2.304509253349385, 2.8624917182536773, 1.8570822413682544, -2.9297606717835136, 0.7919176169513398, 1.2825416014240125, 2.8310029102336554, -0.7961223272678393], [-0.6170958291420906, 0.727628610540475, 2.0922636090576185, 0.0471410907069999, -0.7902213751153189, 1.5621121328055976, -0.04613646999047898, 0.9652577225028776, -1.863577919325072, 0.9971362839659461], [-0.12288948296341334, -0.9174501564408652, -1.3614025746690737, 2.4369675600142506, -0.4745905839984702, 1.3640021186404574, -0.6323165721687336, -0.6513100841359021, -1.0260120511277853, 0.01623583288658298], [2.4743959602395695, 2.372022494982659, -0.37917521570499657, 0.4079172239157558, 2.9086043650847326, 2.2451205823254714, -1.7973883413911649, 1.296488742484172, 2.4282566018223815, 1.1242512232003767], [1.7442600597882532, -0.9802134064393754, -1.277869511305435, -0.4852998249767978, 1.8099237691795003, 1.4106940628138487, 0.934960303117267, 0.9394131787093651, 0.24425265121678752, 0.49488193003087], [1.7877039646216055, 1.1856895815838688, -0.1149875611546423, 2.4558526200383497, -0.41944096628427857, -1.505604386709608, -0.13691700659413236, 0.598121481348557, 0.0004060405352933616, 0.9332852953982784], [3.7875721603763566, -1.5974359487109442, 0.5977493712009903, 1.4327360728866265, 0.058821429655280255, -0.10819749407252689, -0.5329284657285609, 2.15040917737015, 1.9781838974003811, 3.478544033265438], [0.6261982049770103, -0.09543180900864778, -0.04087235887892943, 2.526078632131794, 2.611132919950844, 1.521362789358463, -0.7099656032921012, 0.4989739797395545, -1.5008603106617655, 0.6401725506480521], [1.0405800072652598, 2.7867879908239197, 1.3466096911066456, 0.4836256516411955, -0.9157953191514747, -1.2456591826737866, -4.070966681943403, 1.433495551394212, 3.36788519325916, -0.4538422169809506], [0.21468306400263842, 0.7411135732842623, -0.10282454912764444, 0.7145197126713785, 4.257236221604206, -2.438911007606267, -1.35736916406466, 1.7057106760609668, 4.105389209808827, 2.037610650566286]], [[0.8602945584451759, 0.9524377754955967, 0.019592979743221495, -0.316128751996952, 0.6340308502223981, -0.11608611479485319, 0.15863588808179768, 1.4571342319592633, 1.2045615210355909, 0.7114373652871382], [1.4595277073294675, -2.5224057432516673, 0.664426097878447, 1.1650207779344126, 0.13097183537560333, -0.021366228478171156, -0.15862387214183885, -1.6113841770858368, 10.820832373597966, 2.0606187692994204]]], "bias": [[[0.48420541266675465], [-0.33775946850443944], [-0.17116854427934924], [0.862815120087329], [-0.2952985429039129], [-0.33308059914236154], [-0.07426093460615046], [-1.3090593797152188], [-1.1262897881885927], [-2.3568384594005183]], [[0.5342524270105403], [-1.0048167714509781], [-1.031853330380089], [3.607152733385304], [1.7424651508903835], [0.6181280500474088], [1.8166203120432018], [2.63793988829718], [-1.388433406197914], [2.509656909779333]], [[-4.873026491052441], [-10.078396559787903]]]}, "all": [{"weights": [[[0.5218569967374677, 1.1332955334515855, -0.545747199768721, 1.4848021574140695, 2.748537952943221, 0.9964143011609516, 1.569649654152143, 0.6087427084596116], [1.0343717202804061, 2.3081399786637857, 2.410704506334293, -0.8757570971993889, -1.313184813642148, -0.13882189573535997, 0.9673836754219252, -0.1348926289827369], [3.941259035110768, 0.9277675272550361, -0.3308031148710203, 0.8202548415500444, 0.9274166545585498, 1.9464871510081425, -0.38208770391177704, 3.1883556351802107], [0.736279304190924, 1.832759301535789, 0.2979370644519062, 1.622837148245186, 0.33603432308340025, 0.22268146520510382, -3.035856351396372, -0.017795528204273547], [0.0655729097731581, -1.0498023825648852, 1.4661799271599407, 0.7280387311082066, 1.321387256579029, -1.5989932741789428, -0.08404182976332544, 1.2853265519317045], [0.8892361422839512, 2.6402792656408547, -2.3780030466298188, -0.5356358261319099, 1.3142396210523097, -0.07486500560470383, 1.2982593169941725, -0.29573014775355233], [0.04244994550228287, 0.523380002435061, 0.5627442073973464, 0.33163111405480716, -1.5814122800170998, 0.2637604334341452, 0.6103284055406546, 0.7791520821848708], [1.816073116511175, 1.5914504535189602, 0.94029616111371, -1.0759906388066596, -0.7923818016619198, -0.24299754889361147, 1.0114441131885528, 1.7054264183838865], [-5.394895325602017, 0.9709714366370035, 3.6700555509423083, 0.605092104126093, 0.8694022894565223, -0.11182826168379661, -0.6681890285564029, 1.6538905979540137], [0.40332112027912936, 1.5403974457234073, -0.21860036060020643, 0.10723696994713805, 3.7616196485907936, -0.526589417154749, -2.9625985612539005, -2.0638870043994997]], [[-1.7621919432553577, 0.7789756127557224, 2.304509253349385, 2.8624917182536773, 1.8570822413682544, -2.9297606717835136, 0.7919176169513398, 1.2825416014240125, 2.8310029102336554, -0.7961223272678393], [-0.6170958291420906, 0.727628610540475, 2.0922636090576185, 0.0471410907069999, -0.7902213751153189, 1.5621121328055976, -0.04613646999047898, 0.9652577225028776, -1.863577919325072, 0.9971362839659461], [-0.12288948296341334, -0.9174501564408652, -1.3614025746690737, 2.4369675600142506, -0.4745905839984702, 1.3640021186404574, -0.6323165721687336, -0.6513100841359021, -1.0260120511277853, 0.01623583288658298], [2.4743959602395695, 2.372022494982659, -0.37917521570499657, 0.4079172239157558, 2.9086043650847326, 2.2451205823254714, -1.7973883413911649, 1.296488742484172, 2.4282566018223815, 1.1242512232003767], [1.7442600597882532, -0.9802134064393754, -1.277869511305435, -0.4852998249767978, 1.8099237691795003, 1.4106940628138487, 0.934960303117267, 0.9394131787093651, 0.24425265121678752, 0.49488193003087], [1.7877039646216055, 1.1856895815838688, -0.1149875611546423, 2.4558526200383497, -0.41944096628427857, -1.505604386709608, -0.13691700659413236, 0.598121481348557, 0.0004060405352933616, 0.9332852953982784], [3.7875721603763566, -1.5974359487109442, 0.5977493712009903, 1.4327360728866265, 0.058821429655280255, -0.10819749407252689, -0.5329284657285609, 2.15040917737015, 1.9781838974003811, 3.478544033265438], [0.6261982049770103, -0.09543180900864778, -0.04087235887892943, 2.526078632131794, 2.611132919950844, 1.521362789358463, -0.7099656032921012, 0.4989739797395545, -1.5008603106617655, 0.6401725506480521], [1.0405800072652598, 2.7867879908239197, 1.3466096911066456, 0.4836256516411955, -0.9157953191514747, -1.2456591826737866, -4.070966681943403, 1.433495551394212, 3.36788519325916, -0.4538422169809506], [0.21468306400263842, 0.7411135732842623, -0.10282454912764444, 0.7145197126713785, 4.257236221604206, -2.438911007606267, -1.35736916406466, 1.7057106760609668, 4.105389209808827, 2.037610650566286]], [[0.8602945584451759, 0.9524377754955967, 0.019592979743221495, -0.316128751996952, 0.6340308502223981, -0.11608611479485319, 0.15863588808179768, 1.4571342319592633, 1.2045615210355909, 0.7114373652871382], [1.4595277073294675, -2.5224057432516673, 0.664426097878447, 1.1650207779344126, 0.13097183537560333, -0.021366228478171156, -0.15862387214183885, -1.6113841770858368, 10.820832373597966, 2.0606187692994204]]], "bias": [[[0.48420541266675465], [-0.33775946850443944], [-0.17116854427934924], [0.862815120087329], [-0.2952985429039129], [-0.33308059914236154], [-0.07426093460615046], [-1.3090593797152188], [-1.1262897881885927], [-2.3568384594005183]], [[0.5342524270105403], [-1.0048167714509781], [-1.031853330380089], [3.607152733385304], [1.7424651508903835], [0.6181280500474088], [1.8166203120432018], [2.63793988829718], [-1.388433406197914], [2.509656909779333]], [[-4.873026491052441], [-10.078396559787903]]]}, {"weights": [[[0.8347103697859983, 1.5774050223831768, 0.14143692833285662, 3.1265904314687063, 3.619985052588298, 2.3838964999572885, 1.8019545353302253, 0.7310316243639055], [1.8053221526907592, 2.3561356436072236, 3.2983454425476944, -2.223264573823083, -1.8643209236356524, -0.5515296868587263, 1.2199962193802905, -0.1348926289827369], [2.5805402668890407, 2.0859249676901084, 0.004152959234954012, 1.0251692495264462, 0.9483214514114209, 1.3637055538390714, -0.24047821372211087, 3.084368295041315], [0.736279304190924, 1.5234016096995324, -1.1877010079461008, 2.096682707544912, -0.03601114230911662, 0.511634011417975, -2.6782181495252027, 0.32273910598241917], [-0.14665925134509927, -0.3554864357005406, 1.3975651640278346, 1.1632319596186824, 0.79636500994108, -1.5989932741789428, -0.13669521313529961, 1.2853265519317045], [0.16954698301775717, 2.184288414245211, -1.804334221864556, -0.5245493017120377, 1.2743932264919158, 0.34756976297511216, 0.43213311773143903, -0.42699112543354256], [-0.17308129014873735, 1.5570920334223832, -0.48359307270595453, 0.3523641089350269, -1.5313246493712154, 1.8116988576095636, -0.9452607593954844, 2.4670814166917636], [1.1004113474932737, 2.187925691705799, 1.821045215682485, -0.6604252863101934, 0.11150805269641711, -0.6774291701019133, -0.5115803899666801, 0.1599708166762709], [-5.394895325602017, 0.8987456566071558, 3.407347186690228, 0.605092104126093, 0.7081193471787126, 0.14907333552479612, -0.5602853029625099, 2.5070109396618903], [2.2066469460152986, 1.656153827274671, -0.21860036060020643, 1.7114739856564565, 3.9197866230155514, -0.734816944971128, -2.947247431531501, -2.7877138338951273]], [[-0.8014016886972753, 0.28506596121189354, 2.4513869125991374, 1.0261077480553795, 1.665928936160234, -2.254185048260614, 0.9964951340959751, 0.8702174808479466, 2.7009342304507173, -1.518420160070297], [-1.2958937258087866, 0.813185194155284, 1.8035374354728295, -0.18680411011817943, -0.7902213751153189, 1.5621121328055976, 0.38659901043978623, 1.0968801371751256, -1.9372135733549452, 1.3534810969377067], [0.16222701989501165, 0.12429579086479453, -1.2627303618340016, 2.0987870953861245, 0.22018198548714008, 1.8068827527042228, 0.1968289553499037, -0.47034404150563686, 0.006281738039319584, 0.28910890059506666], [1.7052215262694121, 2.283182431636609, -2.7614817929773254, 1.3315033458960996, 3.1220770551636163, 1.629796126491347, 2.794721577543903, 0.28805373363173853, 0.5850012984293258, 1.693402849377746], [1.7286379138641195, -1.048097603156785, -0.7187535630983389, -0.4852998249767978, 2.412255724677574, 1.4106940628138487, 1.4102023280231335, 1.5291775746886374, -0.5948217920384379, 0.3834181576058993], [3.5462319463730747, 2.1105540475523945, 0.9731477781070964, 2.4558526200383497, -0.7202573569985056, -1.0739070746788126, 0.4347530513606591, 0.8225380316705491, 0.20592937745618925, -0.33264740937649306], [3.1817875839829464, 0.1042643738959379, 0.02432441307526903, 1.2561185934554242, 1.360107622967587, 0.020225121453949724, -2.1513415168428076, 2.7447507070195196, 1.6536198212462825, 2.2305628103984896], [-0.8974486415570798, 0.31214684817916627, 1.6577724888371357, 3.6329710820423715, -0.589190878787134, 3.3041514248528085, 0.1287583355478552, 0.5941479407795747, -1.0701786560345874, -0.6505428877476075], [1.6795468512313847, 2.9143098824244986, 1.7518103785458288, 0.4047280466640939, -0.42755125924949283, -1.2975299460833698, -4.070966681943403, 1.569758030644933, 3.523182560612227, 0.5490516658886606], [0.21468306400263842, 0.5168054690865119, 0.2287798567181588, 0.7594540817765636, 3.6997840522041723, -2.438911007606267, -1.465046881671781, 1.7057106760609668, 3.7404433918997833, 2.098968691769974]], [[1.8920946129005285, 2.6555413855878562, 0.19370630034966546, -0.6165671310600678, 0.4728247859650194, -0.8641173969420721, 0.4591082520380292, 0.3025411160872945, 1.2045615210355909, 0.5700155799899289], [0.7192108158056394, -1.5089947464682223, 1.1869070003389228, 1.1650207779344126, 0.13097183537560333, -0.2956047929194958, -1.5745578372600308, -1.9838893153375645, 11.01262216429186, 2.0606187692994204]]], "bias": [[[0.012939675670999379], [1.2857034048652207], [-0.6664267753977176], [-0.888914091968482], [-0.017267055512356633], [0.4745341360449637], [-0.43113734645221746], [-1.3090593797152188], [-0.8771980568945241], [-2.3568384594005183]], [[-1.0459779194668564], [-1.0048167714509781], [-1.031853330380089], [2.6065617351844734], [1.7810710680835222], [-0.16040572239495293], [2.7553987510858406], [2.9570930510017024], [-1.9696521385391088], [1.1432286981474729]], [[-4.448633184745715], [-9.61889465319047]]]}, {"weights": [[[0.8347103697859983, 1.5774050223831768, 0.14143692833285662, 3.1265904314687063, 3.619985052588298, 2.3838964999572885, 1.8019545353302253, 0.7310316243639055], [1.8053221526907592, 2.3561356436072236, 3.2983454425476944, -2.223264573823083, -1.8643209236356524, -0.5515296868587263, 1.2199962193802905, -0.1348926289827369], [2.5805402668890407, 2.0859249676901084, 0.004152959234954012, 1.0251692495264462, 0.9483214514114209, 1.3637055538390714, -0.24047821372211087, 3.084368295041315], [0.736279304190924, 1.5764867211926474, -0.761499050630758, 2.096682707544912, -0.03601114230911662, 0.511634011417975, -2.6782181495252027, 0.32273910598241917], [-0.14665925134509927, -0.3554864357005406, 1.3975651640278346, 0.5606556797423876, 0.79636500994108, -1.5989932741789428, -0.2767859865052765, 1.2853265519317045], [0.16954698301775717, 2.184288414245211, -1.804334221864556, -0.5245493017120377, 1.2743932264919158, 0.34756976297511216, 0.43213311773143903, -0.42699112543354256], [-0.17308129014873735, 1.5570920334223832, -0.43475101462220916, 0.3523641089350269, -1.5313246493712154, 1.8116988576095636, -0.9025148045259466, 2.4670814166917636], [1.1004113474932737, 2.187925691705799, 1.821045215682485, -0.6604252863101934, -0.1905836701662889, -0.6774291701019133, -0.5115803899666801, 0.1599708166762709], [-5.394895325602017, 1.0025480022232705, 4.30389636196997, 0.605092104126093, 0.7081193471787126, 0.2556739264161386, -0.5602853029625099, 2.5070109396618903], [2.2066469460152986, 1.656153827274671, -0.21860036060020643, 1.7114739856564565, 3.7551623845698363, -0.734816944971128, -2.947247431531501, -2.0638870043994997]], [[-0.8014016886972753, 0.28506596121189354, 2.4513869125991374, 1.0261077480553795, 1.665928936160234, -2.254185048260614, 0.9964951340959751, 1.2825416014240125, 2.7009342304507173, -1.518420160070297], [-1.2958937258087866, 0.813185194155284, 1.8035374354728295, -0.18680411011817943, -0.7902213751153189, 1.5621121328055976, 0.38659901043978623, 1.0968801371751256, -1.9372135733549452, 1.3534810969377067], [0.16222701989501165, 0.12429579086479453, -1.2627303618340016, 2.0987870953861245, 0.22018198548714008, 1.8068827527042228, 0.1968289553499037, -0.47034404150563686, 0.006281738039319584, 0.28910890059506666], [1.7052215262694121, 2.283182431636609, -2.7614817929773254, 1.3315033458960996, 3.1220770551636163, 1.629796126491347, 2.794721577543903, 0.28805373363173853, 1.1512031876469313, 1.693402849377746], [2.6790188639763217, -0.3945266113728192, 0.01677135470436903, -0.4852998249767978, 2.958193716380668, 0.478113837007121, 0.934960303117267, 1.2266807096675234, -0.2951700654735629, -0.27788939608670205], [3.5462319463730747, 2.1105540475523945, 0.9731477781070964, 2.4558526200383497, -0.7202573569985056, -0.3062518495019255, 0.4347530513606591, 0.8954069634486973, 0.20592937745618925, 0.6691879823124529], [3.1817875839829464, 0.3900581108713351, 0.02432441307526903, 1.2561185934554242, 1.360107622967587, 0.020225121453949724, -2.349740921780418, 2.3785516374086737, 1.6536198212462825, 1.8885804768804508], [-0.8974486415570798, 0.31214684817916627, 1.6577724888371357, 3.6329710820423715, -0.18568539550450824, 3.3041514248528085, 0.1287583355478552, 0.5941479407795747, -1.0701786560345874, -0.49372256707816997], [1.6795468512313847, 2.9143098824244986, 1.7518103785458288, 0.04268242042280174, -0.42755125924949283, -1.0584274532372748, -4.070966681943403, 1.569758030644933, 3.523182560612227, 0.5490516658886606], [0.21468306400263842, 0.5168054690865119, 0.2287798567181588, 0.7594540817765636, 3.6997840522041723, -2.438911007606267, -1.35736916406466, 1.7057106760609668, 3.7404433918997833, 2.098968691769974]], [[1.8920946129005285, 2.6555413855878562, 0.19370630034966546, -0.6165671310600678, 0.4728247859650194, -0.8641173969420721, 0.4591082520380292, 0.3025411160872945, 1.2045615210355909, 0.5700155799899289], [0.7192108158056394, -1.5089947464682223, 1.1869070003389228, 1.1650207779344126, 0.13097183537560333, -0.18696696098138132, -1.5745578372600308, -2.055602349984662, 10.820832373597966, 2.0606187692994204]]], "bias": [[[0.0836135551159064], [1.2857034048652207], [-0.6664267753977176], [-0.888914091968482], [-0.017267055512356633], [0.4745341360449637], [-0.43113734645221746], [-1.3090593797152188], [-0.8771980568945241], [-2.3568384594005183]], [[-1.0459779194668564], [-1.0048167714509781], [-1.031853330380089], [3.163758104092379], [1.7810710680835222], [-0.16040572239495293], [2.7553987510858406], [2.63793988829718], [-1.9696521385391088], [1.955046088666014]], [[-4.469677295367697], [-9.61889465319047]]]}, {"weights": [[[0.20308574030068513, 2.306311309846888, 0.5458284083528487, 2.9440035342821242, 3.192566386339787, 2.3838964999572885, 1.8019545353302253, 0.7555063370026145], [0.7535822404323401, 1.6647529173529818, 2.38300070939835, -1.215349082386446, -1.7098400465104109, -0.4840284255472749, 0.8457959539812542, 0.022026482104420042], [3.941259035110768, 2.022325001133775, -0.3308031148710203, 0.8557958238429093, 1.175088439695453, 0.5881750059048282, 1.1186911238705348, 2.952134439764366], [1.8682550484572373, 1.8587497366834833, -0.10575804257241506, 1.3019519218640991, 0.9938732555367569, 0.3588888686215679, -3.0797391056429784, 0.555835508108361], [0.3714753142453163, -0.8752575105771478, 1.3975651640278346, 0.7280387311082066, 0.79636500994108, -1.5989932741789428, -0.2767859865052765, 1.2853265519317045], [0.32417107562671993, 2.5255627640549254, -1.4197046100284165, -0.38194404928905, 1.3142396210523097, 0.6243263877639995, 1.2982593169941725, -0.29573014775355233], [0.38841174303043474, 1.5570920334223832, -0.22268015977894418, 0.3523641089350269, -2.056432467045609, 1.7159152782519864, -0.9025148045259466, 3.483200250657789], [1.1004113474932737, 1.5596900510502207, 2.2555682871039195, -0.6604252863101934, 0.4736003514618843, 0.25568859971856495, 0.1787674376309144, 0.6549109208176278], [-4.868875196503286, 1.0025480022232705, 4.603499182791293, -0.30351589486248265, 0.059800016744526174, -0.03793129384492355, 0.38045237303375007, 2.5070109396618903], [2.2066469460152986, 1.656153827274671, -0.06203334322396304, 0.1815039001623947, 3.7551623845698363, -1.8548519546331814, -3.7324002678366384, -0.8062917482374586]], [[-0.4166700678331199, 0.20339761379043925, 1.4937515996498374, 2.8624917182536773, 1.767664285900251, -1.7835882745458473, 0.18431949712672557, 1.2663612364155221, 2.2887446717160342, -0.9532464722353526], [-1.2008699623598826, 0.813185194155284, 2.050296200776488, 0.34555857275537377, -0.6648309322346997, 1.9115246292270704, 1.2588934042634503, 1.8382742219622972, -1.4468696755213104, -0.23940864693053854], [0.33794670850125774, 0.12429579086479453, -1.4731411135506134, 1.06997897784065, 0.06126240724488935, 1.8068827527042228, 0.1968289553499037, -0.7530978389996797, -0.3440936624179276, 1.3405255059941257], [2.6980467554427565, 2.7350617363342704, -0.4362828779716683, 1.3956683179576421, 3.0764977489766596, 0.4259068179898752, 0.5451650510358046, 0.6224375046219381, 0.7934477714055045, 2.095944996920327], [1.641808077918688, -0.9264269610762395, 1.1629227455992968, -0.4852998249767978, 2.4573553340869796, 0.9657122563541592, 1.1406193951803885, 1.863099734859609, 1.4527525592949269, 0.821948966334636], [2.0503540896210546, 1.3297697185029471, -0.13825080486439073, 2.4558526200383497, -0.41944096628427857, -0.31155200657088966, 0.7034046403240882, 0.10262998371038337, 0.4089295956736285, 0.9332852953982784], [3.2960687939122475, -0.14486988123898387, 0.02432441307526903, 1.2561185934554242, 1.360107622967587, 0.020225121453949724, -3.2153700780573784, 2.3785516374086737, 1.6536198212462825, 1.8885804768804508], [-1.8014833456184398, 0.07762514937921278, 1.6577724888371357, 3.2422036684100006, -0.18568539550450824, 3.3041514248528085, -0.39035154699874075, 0.5941479407795747, -1.3521114272102217, 0.3235211806662711], [0.8617682394037381, 2.876018855458512, 1.2795553111110896, -0.23770129303079018, -0.42755125924949283, -0.623055655984508, -4.070966681943403, 1.465774999706479, 3.523182560612227, 1.335888365289342], [0.21468306400263842, 0.08366072521965884, -0.298066994795005, 2.7444735147756507, 3.6997840522041723, -2.438911007606267, -1.35736916406466, 2.3539477147382075, 4.470573013874551, 2.098968691769974]], [[0.8602945584451759, 1.2203724715959663, 0.019592979743221495, -0.07603200290594442, 0.6340308502223981, -0.11608611479485319, 0.06197744938159484, 0.6856466312167178, 1.2045615210355909, 0.7114373652871382], [0.7192108158056394, -1.7766465762513537, 1.1869070003389228, 1.1650207779344126, 0.13097183537560333, -0.27303705625042185, -1.4409216911146863, -2.055602349984662, 11.068569415470702, 2.0606187692994204]]], "bias": [[[0.376798028162571], [1.042505508302821], [-1.1773477403920198], [0.37853165961893404], [-0.2952985429039129], [-0.3093358230444404], [-0.43113734645221746], [-1.3090593797152188], [-0.9808499589527496], [-2.9379342348669373]], [[-0.11475832847278344], [-0.6566996330943897], [0.7693868390666713], [3.8568873462098052], [1.7810710680835222], [0.27783245538529], [2.210614896959498], [2.63793988829718], [-0.515717062406972], [1.4604462568960763]], [[-4.946966709018152], [-9.61889465319047]]]}, {"weights": [[[0.5218569967374677, 1.1332955334515855, -0.545747199768721, 1.4848021574140695, 3.6286576583743213, 0.5915766174461841, 1.9965704339197983, 0.6087427084596116], [1.0343717202804061, 2.3081399786637857, 2.410704506334293, -0.8757570971993889, -1.313184813642148, -0.5770832330445109, 0.9673836754219252, -0.1348926289827369], [3.941259035110768, 0.9277675272550361, -0.3308031148710203, 0.8202548415500444, 0.9274166545585498, 1.9464871510081425, 0.5171062264419324, 3.1883556351802107], [0.736279304190924, 1.832759301535789, 0.2979370644519062, 1.6799120630459932, 0.33603432308340025, 0.22268146520510382, -3.035856351396372, 0.555835508108361], [1.0555054120054066, -0.45665262582270194, 1.3975651640278346, 0.6239501356478359, 1.1298430370229617, -1.0894573380599373, -0.2767859865052765, 1.2853265519317045], [0.7406253532840361, 1.246515124791634, -0.9403539302181643, 0.7324488476630308, 0.7394970470801812, 0.34756976297511216, 1.1442184256577868, -0.37455985463877156], [0.04244994550228287, 0.523380002435061, -0.22268015977894418, 0.33163111405480716, -1.840210826845961, 0.2637604334341452, 0.6103284055406546, 1.9640932773777047], [1.5164274507165383, 0.8754824579532277, 0.94029616111371, -1.0759906388066596, -0.7944612735124457, -0.24299754889361147, 0.1787674376309144, 1.3027291823967346], [-2.8660825422468856, 0.2991200621942752, 2.204455086329563, 0.6483520972247917, 0.9458724674262194, -0.8645251185856253, 0.4603219665050786, 0.5569022278967388], [1.2048229764876939, 0.6896807638969146, 0.8478400212496016, 1.127993608575387, 1.5937296525988602, -0.48874841255499635, 1.3236546596882792, 0.2481393127321388]], [[-0.08397805156744359, 0.4321530327357195, 2.605099306582984, 2.6292222133436383, 0.7429470864707811, -0.6117469042482195, 0.15806834929705293, 0.4682836833911126, 1.5131615196046015, 0.8997828437815597], [-1.2958937258087866, 0.813185194155284, 2.1578968224030546, 0.11987546118615428, -0.7902213751153189, 1.8244853208899265, 0.45257290306969, 0.921994565057419, -1.5312610459601086, 0.46958813886761086], [0.16222701989501165, 0.12429579086479453, -1.318410349386677, 0.2943264089467158, 0.15954142852028336, 1.8068827527042228, 0.1968289553499037, -1.2334270505603402, -0.3552262986478745, 1.3405255059941257], [2.6980467554427565, 1.6930385578983622, -0.4362828779716683, 1.3956683179576421, 2.4165186415948225, 0.4457063878441209, 1.8008791963927635, 0.3834526131140408, 1.3533275198276944, 1.693402849377746], [1.641808077918688, -1.0190457671111515, 1.1629227455992968, -0.4852998249767978, 2.4573553340869796, 0.9657122563541592, 1.1406193951803885, 1.7980879955658062, 1.1891232329341261, 0.821948966334636], [2.0503540896210546, 1.3297697185029471, -0.13825080486439073, 2.4558526200383497, -0.41944096628427857, -0.31155200657088966, 0.7034046403240882, 0.10262998371038337, -0.3761571342181035, 0.9332852953982784], [3.260583218365327, -0.14486988123898387, 0.3631852549148633, 1.5844698334821008, 1.360107622967587, 0.48795184011614084, -1.4702136550163758, 2.1240288624086294, 1.6536198212462825, 2.364570978551523], [1.7578181310457963, -0.6584406538815579, 0.27845223678070996, 1.5592520601155404, 2.2211967923290414, 1.9215764308038878, -0.335515515233634, 0.4989739797395545, -0.6704082117949682, 0.6401725506480521], [-0.014850699788278549, 2.2261562174649314, 0.8031235228314001, -0.43920307122648683, 0.34888110732872746, 0.619058344694608, -2.1071003034300206, 0.09943295152374741, 2.597331184973031, 0.26421943170324924], [1.7543062866491237, 2.0410889224504216, 0.8406005491784155, 1.0813294048627256, 3.9184197582197684, 3.297097435027715, -0.9257263354367566, -1.3196790773013813, 0.05474206326514787, -0.19165972576823248]], [[0.8602945584451759, 0.787676881273728, 0.019592979743221495, -0.07603200290594442, 0.6340308502223981, -0.11608611479485319, -0.05498587288645057, 0.8920114622638866, 1.2045615210355909, 0.7114373652871382], [-0.38525121013796293, -0.19428011921669874, -0.09271022376706016, 0.5024080844118477, -0.0727434101799545, 1.0681291714602323, -0.261491739169159, -0.48537087971365345, 1.0228405783270784, -1.084104440732981]]], "bias": [[[0.48420541266675465], [0.28287117849405974], [-0.17116854427934924], [0.46489860099981095], [-0.02121130934573434], [-0.09483340801618656], [-0.48760093851983977], [-1.4961676511276136], [0.9793223625160088], [0.7066924645226031]], [[0.5342524270105403], [-1.0048167714509781], [0.5706937810599202], [3.6565407354406063], [1.7014264899358493], [0.27374927716329533], [2.210614896959498], [2.408776556401613], [-0.7596371734296856], [1.88965642723263]], [[-4.469677295367697], [0.009756431220614481]]]}, {"weights": [[[-0.2921688491517379, -0.16510942393817685, 1.2422648556196418, 1.637471894158492, 3.46263157980225, 1.424985425250999, 1.9965704339197983, 1.241003996688776], [0.4096721605589498, 1.3620321864469533, 2.718753251794231, -0.9368158645414864, -1.7098400465104109, -0.9403932435520939, 0.6221302018945658, -1.0031408517730245], [3.941259035110768, 1.5599434599032733, -0.3308031148710203, 0.8557958238429093, 1.175088439695453, 0.5881750059048282, 1.3528589125658093, 2.952134439764366], [1.1711736308588594, 1.8587497366834833, -0.10575804257241506, 1.6799120630459932, 0.8963282094446373, 1.2820952609036178, -2.7279323857656506, 0.555835508108361], [0.3714753142453163, -0.8752575105771478, 1.3975651640278346, 0.7280387311082066, 0.79636500994108, -1.5989932741789428, -0.2767859865052765, 1.2853265519317045], [0.34041851593185657, 2.5745252507547, -2.3780030466298188, -0.5507599926161332, 1.3142396210523097, 0.34756976297511216, 1.2982593169941725, -0.29573014775355233], [0.04244994550228287, 1.5570920334223832, -0.22268015977894418, 0.3523641089350269, -2.056432467045609, 0.7253461278674659, -0.08177654471391649, 1.9640932773777047], [1.1004113474932737, 2.465536017516586, 2.2555682871039195, -0.6604252863101934, 0.13989203712206955, -0.24299754889361147, 0.1787674376309144, 0.6605888724075807], [-4.868875196503286, 0.17074094693444475, 4.603499182791293, -0.058649832277137666, 0.7081193471787126, -0.30137667740554897, 0.38045237303375007, 2.5070109396618903], [2.2066469460152986, 1.656153827274671, -0.16996412135141575, 0.6195390814230874, 3.7551623845698363, -0.4039951131669066, -3.7324002678366384, -0.8636970417298622]], [[-1.7621919432553577, 0.8840615872364473, 2.304509253349385, 2.8624917182536773, 1.665928936160234, -2.254185048260614, 0.9964951340959751, 1.2825416014240125, 2.8310029102336554, -0.4691801110804804], [-1.2958937258087866, 0.813185194155284, 2.1578968224030546, 0.0471410907069999, -0.7902213751153189, 1.5621121328055976, -0.09210236090523648, 1.3600322451119262, -1.863577919325072, 0.9971362839659461], [1.3171550981698172, 0.12429579086479453, -1.4731411135506134, 0.06215966479456825, -0.7832627031634645, 1.8068827527042228, 0.1968289553499037, -0.7530978389996797, 0.28804399238257444, 1.3405255059941257], [3.370791373070976, 2.1373935145219924, -0.37917521570499657, 1.3956683179576421, 3.0764977489766596, 1.2275227299687348, 0.5451650510358046, 0.8750373127787889, 1.4607082965848281, 1.693402849377746], [1.7442600597882532, -1.0190457671111515, -0.7187535630983389, -0.4852998249767978, 2.412255724677574, 1.4106940628138487, 0.934960303117267, 1.5291775746886374, -0.5948217920384379, 0.49488193003087], [1.4200385032003013, 1.2214323563614404, 1.3155329371471502, 3.5241883356971098, -0.9336396208071145, -0.31155200657088966, 1.0036592500599377, 0.8200687041801342, 0.277568219291494, 0.04815944742504752], [3.7875721603763566, -1.3539531135131355, 0.5977493712009903, 1.4327360728866265, 1.360107622967587, -0.10819749407252689, -0.10001496511905911, 2.063250564269775, 1.9781838974003811, 2.901665149812808], [0.6261982049770103, -0.6771999539268466, -0.04087235887892943, 2.526078632131794, 2.611132919950844, 1.8031152789623441, -0.14844312036848392, 0.4989739797395545, -1.5008603106617655, 0.6401725506480521], [1.6795468512313847, 2.9143098824244986, 1.2795553111110896, 0.04268242042280174, -0.42755125924949283, -1.0584274532372748, -4.070966681943403, 1.569758030644933, 3.523182560612227, 0.5490516658886606], [0.21468306400263842, 0.08366072521965884, 0.2287798567181588, 1.0598825154340483, 3.6997840522041723, -2.438911007606267, -1.0469344881466691, 1.7057106760609668, 3.7404433918997833, 2.098968691769974]], [[0.8602945584451759, 0.9524377754955967, 0.019592979743221495, -0.07603200290594442, 0.6340308502223981, -0.11608611479485319, -0.41715337228091237, 1.4571342319592633, 1.2045615210355909, 0.7114373652871382], [0.7192108158056394, -1.5089947464682223, 1.1869070003389228, 1.1650207779344126, 0.13097183537560333, -0.10689311039147845, -1.3629946936432544, -2.055602349984662, 11.068569415470702, 2.0606187692994204]]], "bias": [[[-0.8540787285406786], [1.7715470182428583], [-1.2018992827334467], [0.6313345261772327], [0.1861358328867977], [-0.3093358230444404], [-0.43113734645221746], [-1.3090593797152188], [-0.7017075505408161], [-2.9379342348669373]], [[-1.1286342813902421], [-0.8156946813529595], [-0.7868327333204808], [3.6565407354406063], [0.927701935334624], [0.27783245538529], [2.7553987510858406], [2.63793988829718], [-1.9696521385391088], [1.955046088666014]], [[-4.469677295367697], [-9.33671158289511]]]}, {"weights": [[[0.8347103697859983, 1.5774050223831768, 0.14143692833285662, 3.1265904314687063, 3.619985052588298, 2.3838964999572885, 2.7128924976294457, 0.7310316243639055], [1.8053221526907592, 2.3561356436072236, 2.9929512921604164, -2.223264573823083, -1.8643209236356524, -0.5515296868587263, 1.2199962193802905, -0.1348926289827369], [2.237931269568856, 2.0859249676901084, 0.004152959234954012, 1.0251692495264462, 0.9483214514114209, 1.3637055538390714, -0.24047821372211087, 3.084368295041315], [0.736279304190924, 1.5764867211926474, -0.761499050630758, 2.096682707544912, -0.03601114230911662, 0.511634011417975, -2.6782181495252027, 0.9174436084930576], [-0.14665925134509927, -0.3554864357005406, 1.3975651640278346, 0.5606556797423876, 0.79636500994108, -1.5989932741789428, -0.2767859865052765, 1.2853265519317045], [0.16954698301775717, 2.184288414245211, -1.804334221864556, -0.8434476929762984, 1.2743932264919158, 0.34756976297511216, 0.43213311773143903, -0.42699112543354256], [-0.17308129014873735, 1.5570920334223832, -0.43475101462220916, 0.3523641089350269, -1.5313246493712154, 2.036307141694173, -0.9025148045259466, 2.4670814166917636], [1.1004113474932737, 2.187925691705799, 1.821045215682485, -0.6604252863101934, 0.7711965362416437, -0.7404315202191747, -0.5115803899666801, 0.1599708166762709], [-5.394895325602017, 1.0025480022232705, 4.30389636196997, 0.605092104126093, 0.7081193471787126, 0.2556739264161386, -0.5602853029625099, 1.7072352367796613], [1.0731590810779539, 1.8895937264500378, -0.21860036060020643, 1.7114739856564565, 3.7551623845698363, -0.5780130191085378, -2.947247431531501, -2.0638870043994997]], [[-1.8130597744953514, 0.28506596121189354, 2.5584495762946777, 2.053246230836197, 1.7556957953670453, -2.254185048260614, 0.9964951340959751, 2.1512388010663437, 2.7009342304507173, -0.6010084662701035], [-3.185323746781668, 1.341668636489171, 2.501513416898689, 0.13780183537214535, -0.5954642530479242, 1.6434848139201836, 0.17076974272469353, -1.1884096747420052, -2.3367135044087615, 0.32469795143057356], [-0.12990343262743842, 0.12429579086479453, -1.318410349386677, -0.39174592515243944, 0.6364607331887838, 1.4762235557971775, 0.7622984019735379, -1.2334270505603402, -0.3552262986478745, 1.3405255059941257], [2.549349673898734, 2.46591677803429, -0.8990707855387223, 1.3956683179576421, 2.4165186415948225, 0.47047334965416443, 1.8008791963927635, 0.5248591859703451, 1.3533275198276944, 1.693402849377746], [1.7286379138641195, -1.0190457671111515, -0.7187535630983389, -0.4852998249767978, 2.412255724677574, 1.4106940628138487, 1.1713687221993314, 1.5291775746886374, -0.5948217920384379, 0.49488193003087], [1.4200385032003013, 0.5018338007043055, 1.2424222753162752, 2.962999307006639, -0.9336396208071145, 0.2403375916140689, 1.0036592500599377, 0.8978659920358906, 0.277568219291494, 0.04815944742504752], [3.5989762565519796, -1.3539531135131355, 0.9924632436550929, 1.4327360728866265, 1.5459584748392639, -0.10819749407252689, -0.10001496511905911, 1.7750326207453733, 1.8142566197783612, 2.901665149812808], [-0.8974486415570798, 0.5314930676639873, 1.6577724888371357, 3.5086778063659865, -0.18568539550450824, 3.672412174483084, 0.1287583355478552, 0.5941479407795747, -1.3521114272102217, 0.8507078727120099], [1.6795468512313847, 2.9143098824244986, 1.7518103785458288, 0.4836256516411955, -0.42755125924949283, -1.0584274532372748, -4.070966681943403, 1.569758030644933, 3.36788519325916, 0.5490516658886606], [0.21468306400263842, 0.5168054690865119, 0.2287798567181588, 0.7594540817765636, 3.6997840522041723, -2.438911007606267, -1.35736916406466, 1.7057106760609668, 3.7404433918997833, 2.098968691769974]], [[-0.12482916592716609, 0.6974478331193914, -0.46439565625044715, -0.07603200290594442, 0.8592921469766648, 0.15342851781788316, -0.04270485506098903, 1.5706953803498303, 1.6869415942382926, 0.7114373652871382], [0.7192108158056394, -1.5089947464682223, 1.1869070003389228, 1.1650207779344126, 0.13097183537560333, -0.18696696098138132, -1.5745578372600308, -2.055602349984662, 10.820832373597966, 2.0606187692994204]]], "bias": [[[0.32473252297138583], [1.1809863465051298], [-0.9553393294310711], [0.37853165961893404], [-0.7739013504400376], [0.4745341360449637], [0.8128724604871764], [-1.3090593797152188], [-0.8771980568945241], [-2.3568384594005183]], [[-0.05854478239416125], [-0.18466074022854934], [1.1146897045511748], [1.9122230282194779], [1.7810710680835222], [0.27783245538529], [2.7553987510858406], [2.63793988829718], [-1.388433406197914], [1.955046088666014]], [[-4.469677295367697], [-9.61889465319047]]]}, {"weights": [[[0.31581950120343877, 0.5637057758435124, 0.34129143951530994, 2.0885795039092225, 3.9614718989006286, 1.424985425250999, 2.906109986506887, 0.43868110006409883], [1.500084941624761, 1.6647529173529818, 2.718753251794231, -0.6488871850418902, -1.7098400465104109, -0.4840284255472749, 0.6221302018945658, -1.0031408517730245], [3.941259035110768, 1.5599434599032733, -0.3308031148710203, 0.8557958238429093, 1.175088439695453, 0.5881750059048282, 1.1186911238705348, 2.952134439764366], [1.1711736308588594, 1.8587497366834833, -0.10575804257241506, 1.6799120630459932, 0.9938732555367569, 1.2252481099978634, -2.7279323857656506, 0.555835508108361], [0.3714753142453163, -0.8752575105771478, 1.3975651640278346, 0.7280387311082066, 0.79636500994108, -1.5989932741789428, -0.2767859865052765, 2.057126810082333], [-0.17114149753316688, 2.5745252507547, -1.804334221864556, -0.5245493017120377, 1.3142396210523097, 0.34756976297511216, 1.2982593169941725, -0.29573014775355233], [0.04244994550228287, 1.5570920334223832, -0.22268015977894418, 0.3523641089350269, -2.056432467045609, 0.7253461278674659, -0.08177654471391649, 1.9640932773777047], [1.1004113474932737, 2.740957227188764, 2.2555682871039195, -0.6604252863101934, 0.6780746836683037, -0.24299754889361147, 0.1787674376309144, 0.6605888724075807], [-4.868875196503286, 0.17074094693444475, 4.603499182791293, -0.058649832277137666, 0.7081193471787126, -0.30137667740554897, 0.38045237303375007, 2.5070109396618903], [2.2066469460152986, 1.656153827274671, -0.16996412135141575, 0.6195390814230874, 3.2566965626052453, -0.4039951131669066, -3.7324002678366384, -0.8636970417298622]], [[-1.7621919432553577, 0.8840615872364473, 3.2200832962186645, 2.8624917182536773, 1.665928936160234, -2.254185048260614, 0.9964951340959751, 1.2825416014240125, 2.8310029102336554, -0.4691801110804804], [-1.2958937258087866, 0.813185194155284, 2.1578968224030546, 0.0471410907069999, -0.7902213751153189, 1.4956930393449492, -0.09210236090523648, 1.3600322451119262, -1.863577919325072, 0.9971362839659461], [1.3171550981698172, 0.12429579086479453, -1.4731411135506134, 0.06215966479456825, -0.459213334929256, 1.8068827527042228, 0.1968289553499037, -0.012878187358100757, 0.28804399238257444, 1.3405255059941257], [3.370791373070976, 2.1373935145219924, -0.37917521570499657, 1.3956683179576421, 3.829727088014788, 1.2275227299687348, 0.5451650510358046, 0.8750373127787889, 1.4607082965848281, 1.693402849377746], [1.7442600597882532, -0.9164833954076225, -0.7187535630983389, -0.4852998249767978, 2.412255724677574, 1.4106940628138487, 0.934960303117267, 1.5291775746886374, 0.24425265121678752, 0.49488193003087], [1.4200385032003013, 1.2214323563614404, 1.3791249438999165, 3.5241883356971098, -0.9336396208071145, -0.31155200657088966, 1.0036592500599377, 0.8200687041801342, 0.277568219291494, 0.04815944742504752], [3.7875721603763566, -1.2822722776306832, 0.5977493712009903, 2.055838092056415, 1.360107622967587, -0.10819749407252689, -0.10001496511905911, 2.063250564269775, 1.9781838974003811, 2.901665149812808], [0.6261982049770103, -0.6771999539268466, -0.04087235887892943, 2.5244153395653877, 2.611132919950844, 1.8031152789623441, -0.14844312036848392, 0.4989739797395545, -1.5008603106617655, 0.6401725506480521], [2.182252410743951, 2.9143098824244986, 1.2795553111110896, 0.04268242042280174, -0.42755125924949283, -1.0584274532372748, -4.2132691752325995, 1.569758030644933, 3.523182560612227, 0.5490516658886606], [0.21468306400263842, 0.08366072521965884, 0.2287798567181588, 1.0598825154340483, 3.6997840522041723, -2.438911007606267, -1.0469344881466691, 1.7057106760609668, 3.7404433918997833, 2.098968691769974]], [[0.6815651850101234, 1.2203724715959663, 0.6539281489150401, -0.07603200290594442, 0.6340308502223981, -0.11608611479485319, 0.06197744938159484, 0.8920114622638866, 1.2045615210355909, 0.7114373652871382], [0.6425817206823236, -1.5089947464682223, 1.1869070003389228, 1.4036019140629827, 0.13097183537560333, -0.10689311039147845, -1.3629946936432544, -2.055602349984662, 11.068569415470702, 2.0606187692994204]]], "bias": [[[0.0836135551159064], [1.042505508302821], [-1.2018992827334467], [-0.3231108921129833], [0.1861358328867977], [-0.3093358230444404], [-0.43113734645221746], [-1.3090593797152188], [-0.7017075505408161], [-2.9379342348669373]], [[-0.11475832847278344], [-1.0048167714509781], [-0.7868327333204808], [3.163758104092379], [1.7810710680835222], [0.27783245538529], [2.7553987510858406], [2.63793988829718], [-1.9696521385391088], [1.955046088666014]], [[-4.469677295367697], [-9.33671158289511]]]}, {"weights": [[[0.5218569967374677, 1.1332955334515855, -1.3683850777480016, 1.4848021574140695, 2.748537952943221, 0.9964143011609516, 1.569649654152143, 0.6087427084596116], [1.0343717202804061, 2.3081399786637857, 2.410704506334293, -0.8757570971993889, -1.313184813642148, -0.13882189573535997, 0.9673836754219252, -0.1348926289827369], [3.385849609290988, 0.9277675272550361, -0.3308031148710203, 0.8202548415500444, 0.9274166545585498, 2.2667085194103547, -0.38208770391177704, 3.1883556351802107], [0.736279304190924, 1.6456503497669415, 0.2979370644519062, 1.622837148245186, 0.33603432308340025, 0.22268146520510382, -3.7856745022921703, -0.017795528204273547], [0.0655729097731581, -1.0498023825648852, 1.4661799271599407, 0.7280387311082066, 1.321387256579029, -1.5989932741789428, -0.08404182976332544, 1.2853265519317045], [0.8892361422839512, 2.6402792656408547, -2.3780030466298188, -0.5356358261319099, 1.3142396210523097, 0.34423346651426073, 1.2982593169941725, -0.29573014775355233], [0.04244994550228287, 0.523380002435061, 0.5627442073973464, 0.33163111405480716, -1.5814122800170998, 0.2637604334341452, 0.6103284055406546, 0.6759005621565428], [1.816073116511175, 1.5914504535189602, 0.94029616111371, -0.9073517900329177, -0.7923818016619198, -0.24299754889361147, 1.0114441131885528, 1.7054264183838865], [-5.394895325602017, 0.9709714366370035, 3.6700555509423083, 0.605092104126093, 0.8694022894565223, -0.11182826168379661, -0.6681890285564029, 2.71085604681848], [0.40332112027912936, 2.2568983599664643, -0.21860036060020643, -1.4291770860112036, 3.9487783693798324, -0.526589417154749, -2.707579629482802, -2.0638870043994997]], [[-1.7621919432553577, 1.0482088668491591, 2.304509253349385, 2.8624917182536773, 1.8570822413682544, -2.9297606717835136, 0.7919176169513398, 1.2825416014240125, 2.8310029102336554, -0.7961223272678393], [0.02129001523237084, 0.727628610540475, 2.0922636090576185, 0.0471410907069999, -0.7902213751153189, 1.5621121328055976, -0.04613646999047898, 0.9652577225028776, -1.863577919325072, 0.9971362839659461], [0.16222701989501165, 1.7995510237345314, -1.2627303618340016, 2.0987870953861245, 0.22018198548714008, 1.8068827527042228, 0.479584230671673, -0.14729929536258113, -0.1296895118049273, 0.28910890059506666], [1.7052215262694121, 2.696058336429004, -2.7614817929773254, 1.3315033458960996, 4.170171554148045, 1.629796126491347, 1.2574180042617549, 0.38562426155921403, 1.013023231506144, 1.693402849377746], [2.0488552116632817, -0.7910306410931327, -1.600556554002818, -0.39585477821148896, 2.545628127492844, 2.0981812059615437, 1.8968617434191466, 1.8948263736491593, -1.0060460342735693, -0.660308441634621], [3.178651077112756, 1.2365067409168542, 2.0066124546068433, 3.06037952056143, -0.13834949692641296, -0.9602098775528591, 0.3081982794018319, 1.372897681123313, 0.4169433269835232, -0.45307761501253985], [3.778796179717449, 0.1042643738959379, -0.4697488269491097, 1.7083279827210835, 0.4714211802447599, 1.1895949747943417, -2.046206972330281, 2.4292117166780955, 1.3272860123411845, 1.6993026731629597], [0.2504604435215376, -0.09543180900864778, -0.039622648209907116, 2.526078632131794, 2.321103610217065, 1.521362789358463, -0.7743680760756018, 0.4989739797395545, -1.5008603106617655, 0.6401725506480521], [1.3766238226702932, 2.7867879908239197, 1.3466096911066456, 0.2594643195881793, 0.2589165301047498, -1.7303309870480479, -4.070966681943403, 1.4028515937119455, 3.36788519325916, -0.4538422169809506], [0.13244102078252007, 1.1582396438006692, -0.10282454912764444, 1.0288826916416483, 4.257236221604206, -2.438911007606267, -1.2840281064566923, 1.4068507628146285, 4.105389209808827, 2.079743408698477]], [[1.1671151495224275, 0.787676881273728, 0.019592979743221495, -0.07603200290594442, 0.6340308502223981, -0.11608611479485319, -0.05498587288645057, 1.3924784656982614, 1.2045615210355909, 0.23653301865275794], [1.4595277073294675, -2.58760941183459, 0.5620183351506493, 0.12033075287813644, 0.13097183537560333, 0.9052017354278564, -0.15862387214183885, -1.6113841770858368, 10.820832373597966, 2.0606187692994204]]], "bias": [[[0.48420541266675465], [-0.33775946850443944], [-0.17116854427934924], [0.862815120087329], [-0.2952985429039129], [0.1310543211756574], [-0.07426093460615046], [-1.3090593797152188], [-1.1262897881885927], [-2.614751740096291]], [[0.5342524270105403], [-1.0048167714509781], [-1.031853330380089], [3.607152733385304], [1.7424651508903835], [0.6181280500474088], [1.8166203120432018], [2.63793988829718], [-1.388433406197914], [2.509656909779333]], [[-4.469677295367697], [-10.078396559787903]]]}, {"weights": [[[0.8347103697859983, 2.0997997742137247, -0.22685217212964273, 3.336414218497779, 3.619985052588298, 1.3732540469694514, 2.4962742240202886, 0.7310316243639055], [1.8053221526907592, 2.3561356436072236, 2.7287725077235, -2.223264573823083, -1.2487242514009913, -0.7813951366937455, 1.512303343618677, -0.1348926289827369], [2.155424407038307, 2.0859249676901084, 0.004152959234954012, 1.0251692495264462, 1.7773492008079312, 1.3637055538390714, 0.15749288117371635, 3.084368295041315], [0.8092228047476059, 1.5764867211926474, -0.6818747684161294, 2.096682707544912, -0.018266278643345877, -0.821086394064613, -2.6782181495252027, 0.6980715727834723], [1.0555054120054066, -0.45665262582270194, 1.3975651640278346, 0.6239501356478359, 1.1298430370229617, -1.0894573380599373, -0.2767859865052765, 1.2853265519317045], [0.7406253532840361, 1.246515124791634, -0.9403539302181643, 0.7324488476630308, 0.20958661045602844, 0.7271584597826171, 0.7546708864253104, -0.37455985463877156], [0.04244994550228287, 0.523380002435061, -0.22268015977894418, 0.33163111405480716, -1.840210826845961, -0.007117001510823673, 0.5918014718354562, 1.9640932773777047], [1.5164274507165383, 0.8754824579532277, 0.94029616111371, -1.0759906388066596, -0.7944612735124457, -0.7300168830491485, 0.1787674376309144, 1.3027291823967346], [-2.8660825422468856, 0.2991200621942752, 2.204455086329563, 0.6483520972247917, 1.5040554575248608, -0.8645251185856253, 0.4603219665050786, 0.5569022278967388], [1.2048229764876939, 0.5521312078788743, 1.099345571686156, 1.127993608575387, 2.309570134562386, -0.48874841255499635, 0.48062746125236633, 0.2481393127321388]], [[0.28469002415095057, 1.0279534134524653, 3.73814336586209, 2.6292222133436383, 0.7544742998862031, -0.6117469042482195, 0.15806834929705293, 0.4682836833911126, 1.5131615196046015, 0.40281691958067756], [-1.6116498766635128, 0.813185194155284, 2.1578968224030546, 0.0471410907069999, -0.7902213751153189, 0.5726485070956107, -0.09210236090523648, 1.3600322451119262, -1.690280654609488, 2.0487208362383886], [-0.12288948296341334, -0.11059222604082541, -1.3614025746690737, 1.7382979546060398, -0.7318056812866258, 2.552223448901025, -1.1584208131381688, -0.44736520741119296, -1.5692410146326496, -1.5533101621662955], [3.370791373070976, 2.1373935145219924, -0.39742652903224385, 1.3956683179576421, 3.0764977489766596, 1.2275227299687348, 0.5451650510358046, 1.0809638793053398, 1.4607082965848281, 1.693402849377746], [1.5615147566619745, -1.2001496631683988, -1.233192758688664, -0.4852998249767978, 2.412255724677574, 0.904109176645448, 0.934960303117267, 1.5291775746886374, -0.5948217920384379, -0.03938592806533381], [1.4200385032003013, 1.2550217950169806, 1.3155329371471502, 3.5241883356971098, -0.9336396208071145, -0.31155200657088966, 1.0036592500599377, 0.8200687041801342, 0.277568219291494, 0.04815944742504752], [4.007582923503856, -1.3539531135131355, 0.5977493712009903, 1.267223372287761, 1.360107622967587, -0.10819749407252689, -0.10001496511905911, 2.063250564269775, 1.9781838974003811, 2.901665149812808], [0.6261982049770103, -0.6771999539268466, -0.048712903984644, 2.526078632131794, 2.611132919950844, 1.8031152789623441, -0.271033251044603, 0.4989739797395545, -1.5008603106617655, 0.6401725506480521], [-0.014850699788278549, 2.2261562174649314, 1.233402924263216, -0.9499724617940248, 0.34888110732872746, 0.619058344694608, -2.1071003034300206, 0.03620922604479829, 2.597331184973031, 0.31622420846370713], [1.7543062866491237, 2.0410889224504216, 0.9550114932522953, 1.0813294048627256, 3.9184197582197684, 3.297097435027715, -0.9257263354367566, -1.3196790773013813, 0.05474206326514787, -1.4023976896094017]], [[0.8602945584451759, 0.787676881273728, 0.019592979743221495, -0.07603200290594442, 0.6340308502223981, -0.30944902528888085, -0.6115984043273972, 1.5460421964492088, 1.2045615210355909, 0.7114373652871382], [-0.38525121013796293, -0.19428011921669874, -0.09271022376706016, 0.5024080844118477, -0.0727434101799545, 1.0681291714602323, -0.261491739169159, -0.48537087971365345, 1.0228405783270784, -1.6171587027215029]]], "bias": [[[-0.8540787285406786], [1.4851597965180994], [-0.8136913681283575], [-0.888914091968482], [-0.02121130934573434], [-0.09483340801618656], [-0.48760093851983977], [-1.5098509925348003], [0.3535172545367665], [1.0800716650714164]], [[-0.6894339737252421], [-0.719012064418689], [-0.8664472496284539], [2.8691163240598074], [1.7810710680835222], [-0.16040572239495293], [2.7553987510858406], [2.408776556401613], [-1.5379182511590792], [2.3292299034598707]], [[-4.448633184745715], [0.3876394362721529]]]}, {"weights": [[[0.7753822690886729, 1.5774050223831768, 0.14143692833285662, 3.1265904314687063, 3.619985052588298, 2.3838964999572885, 1.8019545353302253, 0.7310316243639055], [1.8053221526907592, 2.3561356436072236, 4.307859520779379, -2.223264573823083, -1.8643209236356524, -0.5515296868587263, 1.2199962193802905, 0.5108003140242494], [4.2009279000579305, 2.022325001133775, -0.3308031148710203, 0.3293939142648641, 1.175088439695453, 0.5881750059048282, 1.1186911238705348, 2.952134439764366], [1.8682550484572373, 1.8587497366834833, -0.10575804257241506, 1.7695922061116325, 0.9938732555367569, 0.3588888686215679, -3.0797391056429784, 0.6399141527635718], [1.0555054120054066, -0.45665262582270194, 1.3975651640278346, -0.6522795368859311, 1.5755568982216857, -1.0894573380599373, -0.2767859865052765, 1.285476810535526], [0.7406253532840361, 1.246515124791634, -0.8161102407342927, 1.8182978046850837, 0.7394970470801812, 0.34756976297511216, 0.9555747917642907, -0.37455985463877156], [0.04244994550228287, 0.523380002435061, -0.22268015977894418, 0.3432492039300058, -1.840210826845961, 0.028413217889882103, 0.44516569958619845, 1.9640932773777047], [1.5164274507165383, 0.8754824579532277, 1.1750915731400413, -1.0759906388066596, -1.2943621915181385, -0.24299754889361147, 0.3105292211719214, 1.3027291823967346], [-5.568838395432346, 0.47113082490501096, 2.8419734630504037, -0.09481733692059247, 1.370562012339506, -0.11182826168379661, -1.2843578557343065, 1.6538905979540137], [0.2546198766652627, 1.5403974457234073, -0.21860036060020643, 0.10723696994713805, 3.9487783693798324, -0.526589417154749, -2.5845710256091703, -1.550747980267818]], [[-0.08397805156744359, 0.4321530327357195, 3.0990847065812233, 2.6292222133436383, 0.7631783601258412, -0.6117469042482195, 0.15806834929705293, 0.4682836833911126, 1.5131615196046015, 0.8997828437815597], [-1.2958937258087866, 0.6154946923014829, 2.1578968224030546, 0.11987546118615428, -0.7902213751153189, 1.8244853208899265, 0.45257290306969, 0.921994565057419, -1.5312610459601086, 0.46958813886761086], [-0.7972016826255279, 0.12429579086479453, -1.318410349386677, 0.2943264089467158, 0.15954142852028336, 1.8068827527042228, -2.7838813946384766e-05, -1.2334270505603402, -0.3552262986478745, 1.3569705328806199], [2.4743959602395695, 2.3129000575227794, -0.37917521570499657, 0.4079172239157558, 2.9086043650847326, 1.8952317031494652, -1.7973883413911649, 1.296488742484172, 2.71770553411462, 1.1242512232003767], [1.7442600597882532, -0.9802134064393754, -1.6109136399281918, -0.4852998249767978, 1.8099237691795003, 1.4106940628138487, 0.09708320544022911, 0.9394131787093651, 0.24425265121678752, 0.49488193003087], [1.7877039646216055, 1.1856895815838688, 0.15985714593553985, 2.7918295959125388, -1.2661996027487699, -1.3932169486446035, -0.13691700659413236, 0.598121481348557, 0.0004060405352933616, 0.9332852953982784], [3.7875721603763566, -1.5974359487109442, 0.5977493712009903, 1.6275632559000075, -0.19918099630045843, -0.10819749407252689, 0.8529699967005908, 2.0309177391755218, 1.9781838974003811, 3.770352428362813], [0.7541423640564213, -0.09543180900864778, -0.04087235887892943, 3.2001748982700575, 2.6355484430163907, 1.521362789358463, -0.7099656032921012, 0.4989739797395545, -1.5008603106617655, 0.6401725506480521], [0.8236126758965667, 3.062690623510384, 1.3466096911066456, 0.4836256516411955, -1.050212570687602, -1.2456591826737866, -4.070966681943403, 1.433495551394212, 3.36788519325916, -0.4538422169809506], [0.25789401781665877, 0.6632937008269252, -0.10282454912764444, 1.0288826916416483, 3.219795628585965, -2.335746043101512, -1.2840281064566923, 1.7057106760609668, 4.105389209808827, 3.0497309594819795]], [[0.8602945584451759, 1.2203724715959663, -0.375620368033391, 0.37419098954685276, 0.6340308502223981, -0.11608611479485319, 0.06197744938159484, -0.8631492100732467, 1.2045615210355909, 0.7114373652871382], [1.4595277073294675, -2.5224057432516673, 0.664426097878447, 0.8027075016693495, 0.13097183537560333, 0.8695029152304556, -0.15862387214183885, -1.6113841770858368, 10.820832373597966, 2.0606187692994204]]], "bias": [[[0.5117475329853911], [0.834311813274904], [-0.28258186849329203], [0.37853165961893404], [-0.40224255104805295], [0.21719661904320242], [0.6029454741854241], [-1.4961676511276136], [0.4267287622814696], [-2.3568384594005183]], [[-1.0459779194668564], [-1.252372602245345], [0.5706937810599202], [3.6565407354406063], [0.422787125464153], [0.27374927716329533], [2.210614896959498], [2.408776556401613], [-1.8197096237677994], [2.509656909779333]], [[-4.469677295367697], [-10.078396559787903]]]}, {"weights": [[[1.3832045695983826, 1.5774050223831768, 0.14143692833285662, 3.1265904314687063, 4.357871553135853, 2.3838964999572885, 1.8019545353302253, 0.7310316243639055], [1.0548288583201504, 2.3081399786637857, 2.410704506334293, -0.8757570971993889, -2.2307878675382575, -0.9374682234037234, 1.293275352494539, -0.1348926289827369], [3.941259035110768, 0.9277675272550361, -0.45193283007692264, 0.8202548415500444, 1.3573999253503424, 1.9464871510081425, 0.5171062264419324, 3.1883556351802107], [0.8970212892496776, 1.832759301535789, 0.032610604753266825, 1.3867721545259952, 0.6567480492675564, 0.22268146520510382, -3.035856351396372, 0.555835508108361], [0.3714753142453163, -0.8752575105771478, 1.3975651640278346, 0.7280387311082066, 0.79636500994108, -1.5989932741789428, -0.2767859865052765, 2.057126810082333], [-0.17114149753316688, 2.5745252507547, -1.804334221864556, -0.5245493017120377, 1.3142396210523097, 0.004156963304141115, 1.2982593169941725, -0.16003438626952338], [0.04244994550228287, 1.5570920334223832, -0.35524327404038164, 0.3523641089350269, -2.368753254833718, 0.7253461278674659, -0.08177654471391649, 2.8526344158514534], [1.1004113474932737, 2.740957227188764, 2.2555682871039195, -0.6604252863101934, 0.6780746836683037, -0.5439510757685402, 0.1787674376309144, 0.6605888724075807], [-4.868875196503286, 0.17074094693444475, 4.479884787447821, 0.6753211921738966, 0.7081193471787126, -0.30137667740554897, -0.3661537344123475, 2.5070109396618903], [2.2066469460152986, 1.656153827274671, -0.16996412135141575, 0.6195390814230874, 3.1962913879093504, -0.4039951131669066, -3.5055138967010877, -0.8636970417298622]], [[-0.8014016886972753, 0.28506596121189354, 2.4513869125991374, 1.0237305906700014, 1.665928936160234, -2.254185048260614, 0.9964951340959751, 0.8702174808479466, 2.7009342304507173, -1.2927268799616702], [-1.2958937258087866, 0.813185194155284, 1.638653934722066, -0.18680411011817943, -0.7902213751153189, 1.5621121328055976, 0.38659901043978623, 1.0968801371751256, -1.9372135733549452, 1.3534810969377067], [0.16222701989501165, 0.12429579086479453, -1.2627303618340016, 2.0987870953861245, 0.22018198548714008, 1.8068827527042228, 0.1968289553499037, -0.47034404150563686, 0.006281738039319584, 0.28910890059506666], [1.7052215262694121, 2.283182431636609, -2.7614817929773254, 1.6421266402780808, 2.508960832196496, 1.629796126491347, 3.8140947561643, 0.28805373363173853, 0.5850012984293258, 1.693402849377746], [1.7286379138641195, -1.048097603156785, -0.7187535630983389, -0.6698455164916779, 2.412255724677574, 1.4106940628138487, 1.4102023280231335, 1.5291775746886374, -0.5948217920384379, 0.3834181576058993], [2.6577244039946324, 1.2365067409168542, 2.349447532531465, 3.106480738117527, -0.13834949692641296, -0.9602098775528591, 0.3081982794018319, 0.39680125028590396, 0.5841025238270928, -0.45307761501253985], [2.6900716595130394, 0.1042643738959379, -0.4697488269491097, 1.7083279827210835, 0.4714211802447599, 1.9352649665025936, -2.046206972330281, 2.4292117166780955, 1.4420264071001747, 1.457425815764055], [0.6261982049770103, -0.6771999539268466, -0.04087235887892943, 2.5244153395653877, 2.611132919950844, 1.8031152789623441, -0.14844312036848392, 0.7331012818374748, -1.5008603106617655, 0.6401725506480521], [2.182252410743951, 2.826450872191521, 1.2795553111110896, 0.04268242042280174, -0.42755125924949283, -1.3502685317121526, -4.2132691752325995, 1.8238474995744511, 3.523182560612227, 0.5490516658886606], [0.21468306400263842, 0.08366072521965884, 0.2287798567181588, 1.0598825154340483, 3.6840712330051204, -2.438911007606267, -1.0104838963600156, 1.7057106760609668, 3.7404433918997833, 2.0553447264650258]], [[1.9874291723974034, 2.6555413855878562, 0.19370630034966546, -0.6165671310600678, 0.4728247859650194, -0.8641173969420721, 0.6002957744898592, 0.7748492488572767, 0.6058415372080471, 0.975442465810153], [0.6425817206823236, -1.5089947464682223, 1.1869070003389228, 1.4036019140629827, 0.13097183537560333, -0.10689311039147845, -1.3629946936432544, -2.055602349984662, 11.068569415470702, 2.0606187692994204]]], "bias": [[[0.012939675670999379], [1.2857034048652207], [-0.6664267753977176], [-0.888914091968482], [0.1861358328867977], [-0.3093358230444404], [-0.43113734645221746], [-1.3090593797152188], [-0.7017075505408161], [-1.8195389647792437]], [[-1.0459779194668564], [-0.5981052982799062], [-1.4870118327782658], [2.6065617351844734], [1.7014264899358493], [-0.16040572239495293], [2.7553987510858406], [2.783304588540177], [-1.9696521385391088], [1.955046088666014]], [[-4.448633184745715], [-9.33671158289511]]]}, {"weights": [[[0.5218569967374677, 1.1332955334515855, -0.545747199768721, 1.8347040082467119, 3.6286576583743213, 0.5915766174461841, 1.9965704339197983, 0.6087427084596116], [2.268826662167006, 2.23348257634485, 3.2983454425476944, -1.7797062041912886, -2.1385304983506104, -1.2574501357713022, 1.2199962193802905, -0.1348926289827369], [2.911224183048408, 2.0859249676901084, 0.4945814899098254, 1.0251692495264462, 1.2097600821016679, 1.2666473610056648, -0.395898963422638, 2.961666472672601], [0.736279304190924, 1.832759301535789, 0.2979370644519062, 1.297199548950768, 0.33603432308340025, 0.22268146520510382, -3.035856351396372, 0.555835508108361], [1.0555054120054066, -0.45665262582270194, 1.3975651640278346, 1.134985485243112, 2.0341031970062318, -1.0894573380599373, -0.2767859865052765, 1.2853265519317045], [0.7406253532840361, 1.246515124791634, 0.3388376443394485, 0.7324488476630308, 0.7394970470801812, 0.34756976297511216, 1.1442184256577868, -0.37455985463877156], [0.27262794551834096, 0.6331466658676099, -0.5141342720817823, 0.33163111405480716, -1.840210826845961, 0.211626083820264, 0.6103284055406546, 1.9640932773777047], [2.0285767008636957, 0.8754824579532277, 1.5118721783078601, -0.9707556438813144, -0.7944612735124457, 0.19326357824408213, 0.1787674376309144, 0.8465314806026778], [-2.3670403129962896, 0.2991200621942752, 2.743043882301367, 0.6483520972247917, 0.9458724674262194, -0.8645251185856253, 0.4603219665050786, 0.5569022278967388], [1.2048229764876939, 0.6896807638969146, 0.8478400212496016, 1.127993608575387, 1.5937296525988602, -0.48874841255499635, 1.3236546596882792, 0.3607826411784092]], [[-0.08397805156744359, 0.4321530327357195, 2.605099306582984, 2.6292222133436383, 0.7429470864707811, -0.6117469042482195, 0.3437162557462654, 0.4682836833911126, 1.5131615196046015, 0.8997828437815597], [-1.2958937258087866, 0.813185194155284, 2.1578968224030546, 0.11987546118615428, -0.8774701812131583, 1.8216174112523762, 0.17857695704310284, 0.3602571033952955, -0.9361168438768819, 0.46958813886761086], [-0.12288948296341334, 0.007147864899185952, -1.3614025746690737, 2.4369675600142506, -0.1489124494077232, 1.3640021186404574, -0.6323165721687336, -0.6513100841359021, -0.8792683889288904, 0.01623583288658298], [2.4743959602395695, 2.372022494982659, -0.37917521570499657, 0.4079172239157558, 2.539022328160545, 2.2451205823254714, -1.7973883413911649, 1.296488742484172, 2.2619824983168892, 1.1242512232003767], [1.3822407040115143, -0.9802134064393754, -1.6109136399281918, -0.4852998249767978, 1.8099237691795003, 1.4106940628138487, 0.09708320544022911, 0.9394131787093651, 0.24425265121678752, 0.49488193003087], [1.4200385032003013, 1.2214323563614404, 2.3423182009893715, 3.5241883356971098, -1.0560500828705022, -0.31155200657088966, 1.8987539324444493, 1.603818192382124, 0.277568219291494, 0.04815944742504752], [3.260583218365327, 0.2666866566476789, -0.5166299565387152, 1.75246598546532, 1.360107622967587, 0.7510904900723716, -1.4702136550163758, 2.2703172518802, 1.9167828325871006, 2.364570978551523], [1.1065871509006475, -1.1195860078517499, 0.04948912133433242, 2.2528941734644046, 3.068803790375502, 1.521362789358463, -1.1892148017819215, 1.4835688410440588, -1.6603959328266786, 1.074572446016916], [1.0405800072652598, 2.7867879908239197, 1.3466096911066456, 0.24624548597937157, -1.4584258949117839, -1.6619307404390393, -4.288521353544552, 1.4396300345491926, 3.4525421687299955, -0.40636743710126294], [1.7543062866491237, 1.4146854048335173, 0.2498102525221526, 1.0813294048627256, 3.9184197582197684, 3.297097435027715, -0.9257263354367566, -0.9039042044875351, -0.3178479746629328, -0.19165972576823248]], [[0.9873621985749494, 0.787676881273728, 0.019592979743221495, -0.07603200290594442, 0.6340308502223981, -0.11608611479485319, -0.05498587288645057, 0.8920114622638866, 1.2045615210355909, 0.7114373652871382], [-0.38525121013796293, -0.19428011921669874, -0.09271022376706016, 0.5024080844118477, -0.0727434101799545, 1.0681291714602323, -0.261491739169159, -0.48537087971365345, 1.0228405783270784, -0.7097786586972872]]], "bias": [[[1.2903875648688772], [1.2460827435342177], [-1.2018992827334467], [0.9004718182961066], [0.1861358328867977], [-0.09483340801618656], [-0.48760093851983977], [-1.4899552710421988], [0.9793223625160088], [0.7066924645226031]], [[1.1607511220448081], [-1.3086802697569062], [1.1357196031785497], [3.6565407354406063], [1.7014264899358493], [0.27374927716329533], [1.5468945842697814], [2.408776556401613], [-0.7596371734296856], [1.88965642723263]], [[-4.469677295367697], [0.009756431220614481]]]}, {"weights": [[[0.5218569967374677, 1.1332955334515855, -0.545747199768721, 1.924615484843902, 3.6286576583743213, 0.5915766174461841, 1.9965704339197983, 0.6087427084596116], [1.0343717202804061, 2.3081399786637857, 2.410704506334293, -0.8757570971993889, -1.313184813642148, -0.5770832330445109, 0.9673836754219252, -0.1348926289827369], [3.941259035110768, 0.9277675272550361, -0.3308031148710203, 0.8202548415500444, 0.9274166545585498, 1.9464871510081425, 0.5171062264419324, 3.1883556351802107], [0.736279304190924, 1.832759301535789, 0.2979370644519062, 1.6799120630459932, 0.33603432308340025, 0.22268146520510382, -3.035856351396372, 0.555835508108361], [1.0555054120054066, -0.45665262582270194, 1.3975651640278346, 1.134985485243112, 2.0341031970062318, -1.0894573380599373, -0.2767859865052765, 1.2853265519317045], [0.7406253532840361, 1.246515124791634, -0.9403539302181643, 0.7324488476630308, 0.7394970470801812, 0.34756976297511216, 1.1442184256577868, -0.37455985463877156], [-0.34420640071876746, 0.6331466658676099, -0.5141342720817823, 0.33163111405480716, -1.840210826845961, 0.2637604334341452, 0.6103284055406546, 1.9640932773777047], [2.0352478497366686, 0.7633161765141705, 1.185473965087125, -0.9707556438813144, -0.7944612735124457, -0.24299754889361147, -0.4901506356282107, 0.8465314806026778], [-2.972157113725754, 0.2991200621942752, 2.204455086329563, 0.6483520972247917, 0.9458724674262194, -0.8645251185856253, 0.4603219665050786, 0.5569022278967388], [1.2048229764876939, 0.9977285333458021, 1.099345571686156, 1.127993608575387, 1.5937296525988602, -0.4868823563130337, 1.3236546596882792, 0.2481393127321388]], [[-0.08397805156744359, 0.4321530327357195, 2.712990374813129, 2.6292222133436383, 0.7429470864707811, -0.6117469042482195, 0.15806834929705293, 0.6533176793260639, 1.5131615196046015, 1.4015385948296362], [-1.5488920787938425, 0.813185194155284, 1.4089926605994476, -0.10263177506261159, -0.7902213751153189, 1.8244853208899265, 0.45257290306969, 0.921994565057419, -1.407261364903397, 0.1501420818698403], [1.3171550981698172, 0.26694510646156866, -1.4731411135506134, 0.06215966479456825, -0.7832627031634645, 1.516283710191559, 0.1968289553499037, -0.7530978389996797, 0.28804399238257444, 1.3405255059941257], [3.370791373070976, 2.1373935145219924, -0.39742652903224385, 0.9479331987512449, 3.0764977489766596, 1.2275227299687348, 0.5451650510358046, 0.8750373127787889, 1.4607082965848281, 1.693402849377746], [1.4496548144078556, -1.0190457671111515, -0.7187535630983389, -0.4852998249767978, 2.412255724677574, 1.4106940628138487, 0.934960303117267, 1.5967076054233054, -0.5948217920384379, 0.49488193003087], [1.4200385032003013, 1.2550217950169806, 1.3935560049829647, 3.5241883356971098, -0.9336396208071145, -0.30520935618545186, -0.05510007063721556, 0.8200687041801342, 0.277568219291494, 0.04815944742504752], [4.007582923503856, -1.3539531135131355, 0.5977493712009903, 1.267223372287761, 1.360107622967587, -0.10819749407252689, -0.10001496511905911, 2.063250564269775, 1.9781838974003811, 2.901665149812808], [0.6261982049770103, -0.6771999539268466, -0.04087235887892943, 2.526078632131794, 2.611132919950844, 1.8031152789623441, -0.14844312036848392, 0.4989739797395545, -1.6941580297684713, 0.6401725506480521], [-0.014850699788278549, 1.8257714173906052, 0.3595882555424157, -0.43920307122648683, 0.34888110732872746, 0.619058344694608, -2.1071003034300206, 0.09943295152374741, 2.597331184973031, 0.31622420846370713], [1.7543062866491237, 1.8460976576026018, 0.8406005491784155, 1.0813294048627256, 3.9184197582197684, 3.297097435027715, -0.9257263354367566, -1.3196790773013813, 0.05474206326514787, -0.19165972576823248]], [[0.8602945584451759, 0.787676881273728, 0.019592979743221495, -0.07603200290594442, 0.6340308502223981, -0.11608611479485319, -0.05498587288645057, 0.8920114622638866, 1.2045615210355909, 0.7114373652871382], [-0.38525121013796293, -0.1854664118988383, -0.09271022376706016, 0.5024080844118477, -0.0727434101799545, 1.7474836198205672, -0.261491739169159, -0.48537087971365345, -0.08993047916445014, -1.084104440732981]]], "bias": [[[0.48420541266675465], [0.28287117849405974], [-0.17116854427934924], [0.46489860099981095], [0.1861358328867977], [-0.3093358230444404], [-0.40092118411914035], [-1.3090593797152188], [0.3535172545367665], [0.7066924645226031]], [[-0.6121421879965441], [-1.7740662427838303], [0.5706937810599202], [3.6565407354406063], [1.7014264899358493], [0.27374927716329533], [2.210614896959498], [2.408776556401613], [-0.7596371734296856], [1.88965642723263]], [[-4.469677295367697], [0.29452273467260737]]]}, {"weights": [[[0.5325215773328945, 1.1332955334515855, -0.545747199768721, 1.4848021574140695, 2.748537952943221, 0.9964143011609516, 1.569649654152143, 0.6087427084596116], [1.0343717202804061, 2.3081399786637857, 2.410704506334293, -0.8757570971993889, -1.313184813642148, -0.13882189573535997, 0.9673836754219252, -0.1348926289827369], [3.7657757899864586, 0.9277675272550361, -0.3308031148710203, 0.8202548415500444, 0.9274166545585498, 1.9464871510081425, -0.20529165032473695, 3.1883556351802107], [0.8970212892496776, 1.832759301535789, 0.2979370644519062, 1.6799120630459932, 0.5348521107183304, 0.22268146520510382, -3.035856351396372, 0.555835508108361], [0.3714753142453163, -0.8752575105771478, 1.3975651640278346, 0.7280387311082066, 0.79636500994108, -1.5989932741789428, -0.2767859865052765, 2.057126810082333], [-0.17114149753316688, 2.5745252507547, -1.804334221864556, -0.5245493017120377, 1.3142396210523097, 0.004156963304141115, 1.2982593169941725, -0.29573014775355233], [0.04244994550228287, 1.5570920334223832, -0.35524327404038164, 0.3523641089350269, -2.368753254833718, 0.7253461278674659, -0.08177654471391649, 2.8526344158514534], [1.1004113474932737, 2.740957227188764, 2.2555682871039195, -0.6604252863101934, 0.6780746836683037, -0.24299754889361147, 0.1787674376309144, 0.6605888724075807], [-5.378630371194132, 0.17074094693444475, 4.479884787447821, -0.058649832277137666, 0.7081193471787126, -0.12888826840297127, -0.3661537344123475, 2.5070109396618903], [2.44159340929168, 1.656153827274671, -0.16996412135141575, 0.6195390814230874, 3.2566965626052453, -0.4039951131669066, -3.5055138967010877, -0.8636970417298622]], [[-1.7621919432553577, 1.9469557035874108, 2.304509253349385, 2.8624917182536773, 1.8570822413682544, -2.9297606717835136, 0.7919176169513398, 1.2825416014240125, 2.8310029102336554, -0.7961223272678393], [-0.6170958291420906, 0.727628610540475, 2.0922636090576185, 0.0471410907069999, -0.7902213751153189, 1.6306112719716535, -0.04613646999047898, 0.9652577225028776, -1.863577919325072, 0.9971362839659461], [-0.12288948296341334, -0.9174501564408652, -1.3614025746690737, 2.4369675600142506, -0.4745905839984702, 1.3640021186404574, -0.6323165721687336, -0.6513100841359021, -1.0260120511277853, 0.01623583288658298], [2.4743959602395695, 2.372022494982659, -0.37917521570499657, 0.4079172239157558, 2.9086043650847326, 2.2451205823254714, -1.7973883413911649, 1.296488742484172, 2.4282566018223815, 1.1242512232003767], [1.7286379138641195, -1.048097603156785, -0.7187535630983389, -0.4852998249767978, 2.412255724677574, 1.4106940628138487, 1.2692603748519775, 1.5291775746886374, -0.5948217920384379, 0.3834181576058993], [2.6577244039946324, 1.2365067409168542, 2.0066124546068433, 3.106480738117527, -0.13834949692641296, -0.9602098775528591, 0.3081982794018319, 0.39680125028590396, 0.5841025238270928, -0.45307761501253985], [2.6900716595130394, 0.1042643738959379, -0.4697488269491097, 1.7083279827210835, 0.4714211802447599, 1.9352649665025936, -2.046206972330281, 2.4292117166780955, 1.4420264071001747, 1.457425815764055], [0.6261982049770103, -0.6771999539268466, -0.04087235887892943, 2.5244153395653877, 2.611132919950844, 1.8031152789623441, -0.14844312036848392, 0.7331012818374748, -1.5008603106617655, 0.6401725506480521], [2.182252410743951, 2.9143098824244986, 1.2795553111110896, 0.04268242042280174, -0.42755125924949283, -1.3502685317121526, -4.115819250138004, 1.8238474995744511, 3.523182560612227, 0.3269966504610632], [0.21468306400263842, 0.08366072521965884, 0.2287798567181588, 1.0598825154340483, 3.6997840522041723, -2.438911007606267, -1.041749483899409, 1.7057106760609668, 3.7404433918997833, 2.0553447264650258]], [[0.8602945584451759, 0.9524377754955967, -0.13206460768551037, -0.07603200290594442, 0.8920822370727395, -0.11608611479485319, -0.41715337228091237, 0.9406537692254625, 1.2045615210355909, 0.7114373652871382], [0.6425817206823236, -1.5089947464682223, 0.3071895758696761, 1.4036019140629827, 0.13097183537560333, -0.10689311039147845, -1.3629946936432544, -2.055602349984662, 11.15684471588277, 2.0606187692994204]]], "bias": [[[0.48420541266675465], [-0.33775946850443944], [-1.2018992827334467], [0.2581673559933669], [0.1861358328867977], [-0.35731067057448274], [-0.43113734645221746], [-1.3090593797152188], [-0.7017075505408161], [-1.8195389647792437]], [[-1.3552809400635164], [-1.0048167714509781], [-1.4870118327782658], [2.6065617351844734], [1.7014264899358493], [-0.16040572239495293], [2.7553987510858406], [2.783304588540177], [-1.9696521385391088], [1.955046088666014]], [[-4.469677295367697], [-9.33671158289511]]]}, {"weights": [[[0.5218569967374677, 1.1332955334515855, -0.545747199768721, 1.4848021574140695, 3.6286576583743213, 0.5915766174461841, 1.9965704339197983, 0.6087427084596116], [2.268826662167006, 2.23348257634485, 3.2983454425476944, -1.7797062041912886, -2.1385304983506104, -1.2574501357713022, 1.2199962193802905, -0.4497667977416112], [2.51210061150374, 2.0859249676901084, 0.4945814899098254, 1.0251692495264462, 1.2097600821016679, 1.3637055538390714, -0.395898963422638, 2.961666472672601], [0.4099957533939299, 1.5948677172254886, -0.9470707971221619, 2.061050826316233, -0.8246065316126258, 0.511634011417975, -2.6782181495252027, -0.041898913088314726], [0.027555806750306056, -1.0498023825648852, 1.6939413270130863, -0.6731393434844066, 0.8809746453321832, -0.49505779486312207, -1.501732826001102, 1.0935814612018708], [-0.17114149753316688, 2.5745252507547, -1.804334221864556, -0.5245493017120377, 1.3142396210523097, 0.34756976297511216, 1.2982593169941725, -0.29573014775355233], [0.04244994550228287, 1.5570920334223832, -0.22268015977894418, 0.3523641089350269, -2.056432467045609, 0.7253461278674659, -0.08177654471391649, 1.9640932773777047], [1.1004113474932737, 2.740957227188764, 2.817244457063461, -0.6604252863101934, 0.5571236633889861, -0.24299754889361147, 0.1787674376309144, 0.6605888724075807], [-4.868875196503286, -0.24368101585924495, 4.186418997946316, -0.058649832277137666, 0.7081193471787126, -0.30137667740554897, 0.38045237303375007, 2.5070109396618903], [2.2066469460152986, 2.148837887123217, -0.16996412135141575, 0.6195390814230874, 3.7551623845698363, -0.4039951131669066, -3.7324002678366384, -0.8636970417298622]], [[-0.08397805156744359, 0.4321530327357195, 2.605099306582984, 2.6292222133436383, 0.7429470864707811, -0.6117469042482195, 0.3437162557462654, 0.4682836833911126, 1.5131615196046015, 0.8997828437815597], [-1.2958937258087866, 0.813185194155284, 2.1578968224030546, 0.11987546118615428, -0.8774701812131583, 1.8244853208899265, 0.17857695704310284, 0.3602571033952955, -0.9361168438768819, 0.46958813886761086], [-0.12288948296341334, 0.007147864899185952, -1.3614025746690737, 2.082445903268065, -0.1489124494077232, 1.3640021186404574, -0.6323165721687336, -0.6513100841359021, -1.0260120511277853, 0.01623583288658298], [2.4743959602395695, 2.372022494982659, -0.37917521570499657, 0.4079172239157558, 2.539022328160545, 2.2451205823254714, -1.7973883413911649, 1.296488742484172, 1.9261844434712327, 1.1242512232003767], [1.5678375682881553, -0.9802134064393754, -1.6109136399281918, -0.4852998249767978, 1.8099237691795003, 1.4106940628138487, 0.09708320544022911, 0.9394131787093651, 0.24425265121678752, 0.6127725411303843], [1.4200385032003013, 1.2214323563614404, 2.3423182009893715, 3.5241883356971098, -0.34351523785311555, -0.31155200657088966, 1.0036592500599377, 0.6280385974022027, 0.277568219291494, -0.4149173377160386], [3.7875721603763566, -1.2822722776306832, 0.5977493712009903, 2.055838092056415, 1.360107622967587, -0.10819749407252689, -0.10001496511905911, 2.063250564269775, 1.9781838974003811, 2.901665149812808], [0.6261982049770103, -0.6771999539268466, -0.04087235887892943, 2.5244153395653877, 2.611132919950844, 1.8031152789623441, -0.14844312036848392, 0.4989739797395545, -1.5008603106617655, 0.6401725506480521], [1.1221631890954906, 3.0335749614929672, 1.2795553111110896, 0.04268242042280174, -0.13582410257794075, -1.072745499323435, -4.070966681943403, 1.569758030644933, 3.523182560612227, 0.5490516658886606], [-0.0787683692564295, 0.08366072521965884, 0.2287798567181588, -0.15925117061619032, 3.6997840522041723, -2.438911007606267, -1.0469344881466691, 2.0626015397711486, 3.7404433918997833, 1.3215409327598477]], [[0.8602945584451759, 1.1540615655259254, 0.019592979743221495, -0.07603200290594442, 0.6340308502223981, -0.11608611479485319, -0.05498587288645057, 1.3924784656982614, 0.910939325344589, 0.7114373652871382], [0.7192108158056394, -0.8799536805040626, 1.2256035426095606, 1.0700658072890286, 0.13097183537560333, -0.10689311039147845, -1.5781182934654954, -2.055602349984662, 10.788877280013635, 2.0606187692994204]]], "bias": [[[1.0431039128442898], [1.2460827435342177], [-1.2018992827334467], [0.9004718182961066], [0.1861358328867977], [-1.027751505340448], [-0.8005141728080984], [-1.3090593797152188], [-0.7017075505408161], [-2.9379342348669373]], [[1.1607511220448081], [-1.0048167714509781], [0.5706937810599202], [3.6565407354406063], [1.7014264899358493], [0.14713575137267565], [2.7553987510858406], [2.325625293766811], [-1.9696521385391088], [1.955046088666014]], [[-4.873026491052441], [-9.33671158289511]]]}, {"weights": [[[0.5218569967374677, 1.1332955334515855, -0.545747199768721, 1.4848021574140695, 2.748537952943221, 0.9964143011609516, 1.569649654152143, 0.6087427084596116], [1.0343717202804061, 2.3081399786637857, 2.410704506334293, -1.1209460581876634, -1.338930168392306, -0.13882189573535997, 0.9673836754219252, -1.0011067585540872], [4.124101157112704, 0.9277675272550361, -0.3308031148710203, 0.8202548415500444, 0.9274166545585498, 1.9464871510081425, -0.38208770391177704, 3.1883556351802107], [0.736279304190924, 1.832759301535789, 0.2979370644519062, 1.622837148245186, 0.33603432308340025, 0.22268146520510382, -3.035856351396372, -0.017795528204273547], [0.0655729097731581, -1.0498023825648852, 1.383112190125779, 0.9727807701318087, 1.321387256579029, -1.5989932741789428, -0.08404182976332544, 1.2853265519317045], [0.8892361422839512, 2.6402792656408547, -2.3780030466298188, -0.5356358261319099, 1.3142396210523097, -0.07486500560470383, 1.2982593169941725, -0.29573014775355233], [0.04244994550228287, 0.523380002435061, 0.5627442073973464, 0.33163111405480716, -1.5814122800170998, 0.2637604334341452, 0.6103284055406546, 0.7791520821848708], [1.816073116511175, 1.5914504535189602, 0.94029616111371, -1.0759906388066596, -0.7923818016619198, -0.24299754889361147, 1.0114441131885528, 1.7054264183838865], [-5.394895325602017, 0.9709714366370035, 3.6700555509423083, 0.605092104126093, 0.8694022894565223, -0.11182826168379661, -0.6681890285564029, 1.6538905979540137], [0.40332112027912936, 1.5403974457234073, -0.21860036060020643, 0.10723696994713805, 3.6430521365257786, -0.526589417154749, -2.9625985612539005, -2.710077617947442]], [[-0.08397805156744359, 1.0279534134524653, 3.73814336586209, 2.6292222133436383, 0.7544742998862031, -0.6117469042482195, 0.15806834929705293, 0.25600917589718153, 1.5131615196046015, 0.8997828437815597], [-2.2419227408543176, 0.813185194155284, 2.1578968224030546, 0.0471410907069999, -0.7902213751153189, 0.9056082795199618, -0.09210236090523648, 1.3600322451119262, -1.690280654609488, 2.0487208362383886], [-0.12288948296341334, -0.11059222604082541, -1.3614025746690737, 2.4369675600142506, -0.7318056812866258, 1.3640021186404574, -1.1584208131381688, -0.44736520741119296, -1.5692410146326496, -1.5533101621662955], [2.4743959602395695, 2.372022494982659, -0.37917521570499657, 0.4079172239157558, 2.9086043650847326, 2.2451205823254714, -1.7973883413911649, 1.296488742484172, 2.4282566018223815, 1.1242512232003767], [1.7442600597882532, -0.9802134064393754, -1.277869511305435, -0.4852998249767978, 1.5140394407782667, 1.4106940628138487, 0.934960303117267, 0.8224394720298185, 0.24425265121678752, 0.49488193003087], [1.7877039646216055, 1.1856895815838688, -0.1149875611546423, 2.4558526200383497, -0.41944096628427857, -1.505604386709608, -0.13691700659413236, 0.598121481348557, 0.2066156895265137, 0.9332852953982784], [3.7875721603763566, -1.5974359487109442, 0.5977493712009903, 1.4327360728866265, 0.058821429655280255, -0.10819749407252689, -0.5329284657285609, 2.15040917737015, 1.9781838974003811, 3.478544033265438], [0.6261982049770103, -0.09543180900864778, -0.04087235887892943, 2.0942171082976033, 2.611132919950844, 1.521362789358463, -0.7099656032921012, 0.4989739797395545, -1.5008603106617655, 0.6401725506480521], [0.9119187763551704, 2.7867879908239197, 1.3466096911066456, 0.4836256516411955, -0.9157953191514747, -1.2456591826737866, -4.070966681943403, 1.4446568405572426, 3.36788519325916, -0.4538422169809506], [0.21468306400263842, 0.4346133423228935, -0.10282454912764444, 0.7145197126713785, 4.257236221604206, -2.438911007606267, -1.35736916406466, 1.7057106760609668, 4.105389209808827, 2.037610650566286]], [[0.8602945584451759, 1.851756268324452, 0.019592979743221495, -0.5747608784243288, 1.1284560209014518, -0.11608611479485319, 0.15863588808179768, 1.4571342319592633, 1.2045615210355909, 0.7114373652871382], [1.4595277073294675, -2.5224057432516673, 0.5173097630531704, 1.1650207779344126, 0.13097183537560333, -0.021366228478171156, -0.15862387214183885, -1.6113841770858368, 10.820832373597966, 2.0606187692994204]]], "bias": [[[-0.8540787285406786], [1.4851597965180994], [-0.8136913681283575], [-0.888914091968482], [-0.2952985429039129], [-0.33308059914236154], [-0.07426093460615046], [-1.3090593797152188], [-1.1262897881885927], [-2.3568384594005183]], [[-0.6894339737252421], [-0.719012064418689], [-0.8664472496284539], [2.8691163240598074], [1.7424651508903835], [0.6181280500474088], [1.8166203120432018], [3.0004837566965943], [-1.388433406197914], [2.509656909779333]], [[-4.873026491052441], [-10.078396559787903]]]}, {"weights": [[[0.7177783335016784, 1.5774050223831768, 0.14143692833285662, 3.1265904314687063, 3.619985052588298, 2.3838964999572885, 1.4884097598692176, 0.7310316243639055], [0.7535822404323401, 1.6647529173529818, 2.38300070939835, -0.7402486055739805, -1.7098400465104109, -0.6211375424446002, 0.8457959539812542, 0.022026482104420042], [3.941259035110768, 2.022325001133775, -0.3308031148710203, 0.8557958238429093, 1.175088439695453, 0.5881750059048282, 1.1186911238705348, 2.601069311066528], [1.8682550484572373, 1.8996142836174192, -0.10575804257241506, 1.3019519218640991, 0.9938732555367569, -0.5612683178591151, -3.0797391056429784, 0.555835508108361], [0.3714753142453163, -0.8752575105771478, 1.912540716605279, 0.9431067311763175, 0.79636500994108, -1.5989932741789428, -0.2767859865052765, 1.2853265519317045], [0.5378043280470952, 1.596600977375509, -1.94428232549801, -0.5507599926161332, 1.3142396210523097, 0.34756976297511216, 1.2982593169941725, -0.29573014775355233], [-1.148551208962942, 1.5570920334223832, -0.22268015977894418, 0.3523641089350269, -2.056432467045609, 1.5192114334777524, 0.14543334637138028, 1.9640932773777047], [1.1004113474932737, 2.1112439773948433, 2.2555682871039195, -0.6604252863101934, 0.13989203712206955, -0.24299754889361147, 0.1787674376309144, 0.6605888724075807], [-4.868875196503286, 0.17074094693444475, 4.603499182791293, -0.058649832277137666, 0.7081193471787126, -0.30137667740554897, 0.8137071399289975, 2.193495881219584], [2.2066469460152986, 1.656153827274671, -0.16996412135141575, 0.9820753613899432, 3.7551623845698363, -0.4039951131669066, -3.560811316260287, -0.8636970417298622]], [[-0.8014016886972753, 0.48558200826375186, 2.4513869125991374, 1.0755162549399986, 1.665928936160234, -2.254185048260614, 0.9964951340959751, 1.5873983991530143, 2.7009342304507173, -1.518420160070297], [-1.2958937258087866, 0.813185194155284, 1.8035374354728295, -0.18680411011817943, -0.7902213751153189, 1.5621121328055976, 0.38659901043978623, 1.4801772218193205, -1.9372135733549452, 1.1321669009097566], [0.16222701989501165, 0.012081345194176293, -1.2627303618340016, 2.0987870953861245, 0.22018198548714008, 1.8068827527042228, 0.1968289553499037, -0.47034404150563686, 0.006281738039319584, 0.28910890059506666], [1.7052215262694121, 2.283182431636609, -2.7614817929773254, 1.3315033458960996, 3.1220770551636163, 2.0643383861147155, 2.794721577543903, 0.04616212106953546, 1.1512031876469313, 2.3369954842789498], [2.6790188639763217, -0.3945266113728192, 0.01677135470436903, -0.4852998249767978, 2.958193716380668, 0.478113837007121, 0.934960303117267, 1.2266807096675234, -0.2951700654735629, -0.27788939608670205], [1.4200385032003013, 1.2214323563614404, 1.3099887675812216, 3.5241883356971098, -0.9336396208071145, -0.31155200657088966, 1.0036592500599377, 0.8200687041801342, 0.277568219291494, 0.04815944742504752], [3.263237102166843, -1.3539531135131355, 0.5977493712009903, 1.4327360728866265, 1.360107622967587, -0.10819749407252689, -0.10001496511905911, 2.063250564269775, 1.9781838974003811, 2.901665149812808], [0.6261982049770103, -0.6771999539268466, -0.04087235887892943, 2.526078632131794, 2.611132919950844, 1.8031152789623441, -0.14844312036848392, 0.4989739797395545, -1.5008603106617655, 0.6401725506480521], [1.6795468512313847, 2.9143098824244986, 1.2795553111110896, 0.04268242042280174, -0.42755125924949283, -1.0584274532372748, -4.070966681943403, 1.569758030644933, 3.523182560612227, 0.5490516658886606], [0.21468306400263842, 0.3445587538860192, 0.2287798567181588, 1.0598825154340483, 3.6997840522041723, -2.438911007606267, -1.0469344881466691, 1.7057106760609668, 3.7404433918997833, 2.098968691769974]], [[0.8602945584451759, 1.2203724715959663, 0.019592979743221495, 0.12589389115006955, 0.6340308502223981, -0.11608611479485319, 0.06197744938159484, 0.6856466312167178, 1.2045615210355909, 0.7114373652871382], [0.7192108158056394, -1.5089947464682223, 1.1869070003389228, 1.1650207779344126, 0.13097183537560333, -0.10689311039147845, -1.3629946936432544, -2.055602349984662, 11.068569415470702, 2.0606187692994204]]], "bias": [[[0.0836135551159064], [1.7715470182428583], [-1.2018992827334467], [0.6313345261772327], [0.1861358328867977], [-0.3093358230444404], [-0.43113734645221746], [-1.3090593797152188], [-0.7017075505408161], [-2.9379342348669373]], [[-0.11475832847278344], [-0.6566996330943897], [0.7693868390666713], [3.8568873462098052], [0.927701935334624], [0.27783245538529], [2.7553987510858406], [2.63793988829718], [-1.9696521385391088], [1.955046088666014]], [[-4.469677295367697], [-9.33671158289511]]]}, {"weights": [[[-0.2921688491517379, -0.16510942393817685, 1.2422648556196418, 1.637471894158492, 3.493507830605714, 1.424985425250999, 1.9965704339197983, 1.241003996688776], [0.4096721605589498, 1.3620321864469533, 2.718753251794231, -0.9368158645414864, -1.7098400465104109, -0.9403932435520939, 0.6221302018945658, -1.0000564151265379], [3.941259035110768, 1.5599434599032733, -0.3308031148710203, 0.864453874004168, 1.175088439695453, 0.5881750059048282, 1.3528589125658093, 2.952134439764366], [0.736279304190924, 1.0857891147646623, -1.1877010079461008, 2.096682707544912, -0.03601114230911662, 0.511634011417975, -2.6782181495252027, 0.32273910598241917], [0.3714753142453163, -0.8752575105771478, 1.3975651640278346, 0.7280387311082066, 1.118986034439943, -1.5989932741789428, -0.2767859865052765, 1.2853265519317045], [0.34041851593185657, 2.5745252507547, -2.3780030466298188, -0.5507599926161332, 1.0143844697637159, 0.34756976297511216, 1.2982593169941725, 0.19200006846739437], [0.04244994550228287, 1.5570920334223832, -0.22268015977894418, 0.3523641089350269, -1.91034116102893, 0.9455983254836461, -0.08177654471391649, 1.9640932773777047], [1.1004113474932737, 2.465536017516586, 2.2555682871039195, -0.6604252863101934, 0.13989203712206955, -0.24299754889361147, 0.36791474691800363, 0.6605888724075807], [-4.868875196503286, -0.24368101585924495, 4.603499182791293, -0.058649832277137666, 0.7205941494852331, -0.30137667740554897, 0.38045237303375007, 2.5070109396618903], [2.493900376641543, 1.656153827274671, -0.16996412135141575, 1.4390485955981873, 3.7551623845698363, -0.91431324594183, -3.897842404410567, -0.8636970417298622]], [[-1.8130597744953514, 0.22539064720488156, 2.5584495762946777, 2.1127938513984508, 1.7556957953670453, -2.254185048260614, 0.9964951340959751, 2.1512388010663437, 2.7009342304507173, -0.6010084662701035], [-3.185323746781668, 1.341668636489171, 2.501513416898689, 0.13780183537214535, -0.5954642530479242, 1.6434848139201836, 0.17076974272469353, -1.1884096747420052, -2.3367135044087615, 0.32469795143057356], [-0.12990343262743842, 0.12429579086479453, -1.318410349386677, -0.9767811516939983, 0.6364607331887838, 1.4762235557971775, 1.8756356530612326, -1.2334270505603402, 0.3391068230051114, 1.3405255059941257], [2.549349673898734, 1.8866159105709248, -0.8990707855387223, 1.3956683179576421, 2.4165186415948225, 0.47047334965416443, 0.9108826031954333, 0.5248591859703451, 1.3533275198276944, 1.693402849377746], [2.516800602637649, -0.8227682822637425, 0.3031675390831442, -0.4852998249767978, 3.0121374405175287, 1.4106940628138487, 1.1713687221993314, 1.5291775746886374, -0.5948217920384379, 0.49488193003087], [2.031709486115854, 1.0248131196005916, 1.2424222753162752, 2.962999307006639, -0.9336396208071145, 0.2403375916140689, 1.1610685415216895, 0.8978659920358906, -0.8040141924433896, -0.478280728152083], [3.4614963585909693, -0.14486988123898387, -0.04634722210700143, 1.5844698334821008, 1.360107622967587, 1.2291321975790637, -1.4702136550163758, 2.1240288624086294, 1.2628672393945926, 2.364570978551523], [1.3709393161607508, -0.6771999539268466, -0.04087235887892943, 2.526078632131794, 2.611132919950844, 1.8031152789623441, -0.22769403251323503, 0.4989739797395545, -1.5008603106617655, 0.6401725506480521], [1.6795468512313847, 2.9143098824244986, 1.2795553111110896, 0.04268242042280174, -0.42755125924949283, -1.072745499323435, -4.070966681943403, 1.569758030644933, 3.523182560612227, 0.5490516658886606], [0.21468306400263842, 0.08366072521965884, 0.2287798567181588, 1.0598825154340483, 3.6997840522041723, -2.438911007606267, -1.7731352816988197, 1.7057106760609668, 4.346780844056232, 2.098968691769974]], [[2.1837465488193537, 2.6555413855878562, 0.19370630034966546, -0.6165671310600678, 0.4728247859650194, -0.8641173969420721, 0.4591082520380292, 0.3025411160872945, 0.20497884685426648, 0.5700155799899289], [-0.11985959722613582, -1.9513910385621185, 1.2256035426095606, 1.1650207779344126, -0.40857502356279196, 0.4732962692405611, -1.3629946936432544, -2.1722342090139546, 11.068569415470702, 2.0606187692994204]]], "bias": [[[0.32473252297138583], [1.1809863465051298], [-0.4806629287727536], [0.37853165961893404], [-1.2301713265090175], [0.4745341360449637], [0.8128724604871764], [-1.3090593797152188], [-0.7017075505408161], [-2.9379342348669373]], [[-0.9651345178011919], [-1.0048167714509781], [-1.031853330380089], [2.6065617351844734], [1.7810710680835222], [-0.16040572239495293], [2.7553987510858406], [2.102831070035175], [-1.9696521385391088], [1.955046088666014]], [[-4.469677295367697], [-9.33671158289511]]]}, {"weights": [[[0.8347103697859983, 1.5774050223831768, 0.14143692833285662, 3.1265904314687063, 3.619985052588298, 2.3838964999572885, 1.8019545353302253, 0.7310316243639055], [1.8053221526907592, 2.3561356436072236, 3.2983454425476944, -2.223264573823083, -1.8643209236356524, -0.5747664383612019, 1.401540287436642, -0.1348926289827369], [2.204153617019346, 1.808893564228574, 0.004152959234954012, 1.2390242811511913, 2.28338027293204, 1.3637055538390714, -0.24047821372211087, 3.084368295041315], [1.1711736308588594, 1.8587497366834833, -0.10575804257241506, 1.6799120630459932, 0.9938732555367569, 1.2252481099978634, -2.4189108065330953, 0.555835508108361], [0.3714753142453163, -0.8752575105771478, 1.3975651640278346, 0.6658545739955335, 0.79636500994108, -1.5989932741789428, -0.2767859865052765, 1.021589457815133], [0.34041851593185657, 2.5745252507547, -2.3780030466298188, -0.5507599926161332, 1.3142396210523097, 0.34756976297511216, 1.2982593169941725, -0.5507882311961126], [0.04244994550228287, 1.5570920334223832, -0.22268015977894418, 0.3523641089350269, -2.056432467045609, 0.7253461278674659, -0.08177654471391649, 1.9640932773777047], [1.1004113474932737, 3.5509803455096023, 2.2555682871039195, -1.1714952920885477, 0.13989203712206955, -0.24299754889361147, 0.6439611649324202, 0.6605888724075807], [-4.868875196503286, -0.24368101585924495, 4.603499182791293, -0.058649832277137666, 0.7081193471787126, -0.30137667740554897, 0.38045237303375007, 2.5070109396618903], [2.2066469460152986, 1.656153827274671, -0.16996412135141575, 1.1813567403701235, 3.7551623845698363, 0.7440401764034201, -3.7324002678366384, -0.8636970417298622]], [[-0.8466104291227169, 0.28506596121189354, 2.4513869125991374, 1.2597860549554152, 1.665928936160234, -2.254185048260614, 0.9964951340959751, 1.2825416014240125, 2.7009342304507173, -1.518420160070297], [-1.2958937258087866, 0.813185194155284, 1.8035374354728295, -0.18680411011817943, -1.4495208238018016, 1.186986491440183, 0.38659901043978623, 1.0968801371751256, -1.9372135733549452, 1.3534810969377067], [0.16222701989501165, 0.12429579086479453, -0.9295885806878696, 2.711857039144028, 0.22018198548714008, 0.6992017747820483, 0.1968289553499037, -0.5712692302629502, -0.25501807699196843, 0.28910890059506666], [1.8956752613425725, 2.283182431636609, -2.7614817929773254, 1.3315033458960996, 3.1220770551636163, 1.629796126491347, 2.794721577543903, 0.28805373363173853, 1.2585512110143087, 1.693402849377746], [2.807720413151485, -0.3945266113728192, 0.1350179202274807, -0.4852998249767978, 2.958193716380668, 0.16550390561772976, 0.934960303117267, 1.2266807096675234, -0.2951700654735629, -0.27788939608670205], [3.4680055372968135, 2.690365209164897, 0.07430235974356802, 2.4558526200383497, -0.7202573569985056, -0.690919720361916, 0.4347530513606591, 1.5366082335247642, 0.20592937745618925, 0.6691879823124529], [3.7875721603763566, -1.5974359487109442, 1.521616204491336, 1.4327360728866265, 0.8974998180263594, -0.10819749407252689, 0.024105420600899152, 2.5149318290911746, 1.9781838974003811, 3.478544033265438], [0.6261982049770103, -0.7085622901791009, 0.44471856462658615, 2.526078632131794, 2.611132919950844, 1.8031152789623441, -0.00800775656336225, 0.47660284453305884, -1.5008603106617655, 0.6401725506480521], [1.6795468512313847, 2.9143098824244986, 0.8178499638559766, 0.04268242042280174, -0.4025097422360526, -1.072745499323435, -4.070966681943403, 1.569758030644933, 3.523182560612227, 0.7106100299477502], [0.21468306400263842, 0.1836683541361811, 0.38563143443316855, 1.0598825154340483, 3.6997840522041723, -2.438911007606267, -1.0469344881466691, 1.7057106760609668, 3.483596663964132, 2.7275183882388463]], [[0.15709223294628172, 1.2203724715959663, 0.6539281489150401, -0.07603200290594442, 0.6340308502223981, -0.11608611479485319, 0.06197744938159484, 0.8920114622638866, 1.0565919831038766, 0.6374084301834773], [0.7192108158056394, -1.7264149915317872, 0.5107710868561834, 1.1650207779344126, 0.13097183537560333, -0.10689311039147845, -2.225656387893705, -2.055602349984662, 11.068569415470702, 2.0606187692994204]]], "bias": [[[0.0836135551159064], [1.472079596128907], [-1.2018992827334467], [-0.32751194047211535], [-0.2952985429039129], [-0.33308059914236154], [-0.43113734645221746], [-1.3090593797152188], [-0.8180760643565768], [-2.9379342348669373]], [[-1.0459779194668564], [-1.0048167714509781], [-0.7868327333204808], [3.163758104092379], [1.0859710358871533], [0.27783245538529], [3.2091340745473644], [2.63793988829718], [-1.9696521385391088], [1.955046088666014]], [[-4.469677295367697], [-9.33671158289511]]]}, {"weights": [[[0.8347103697859983, 1.2020597839435274, 0.14143692833285662, 3.1265904314687063, 3.619985052588298, 2.3838964999572885, 1.8019545353302253, 0.7310316243639055], [1.8053221526907592, 2.772557431661293, 3.031149235741628, -2.223264573823083, -1.8643209236356524, -0.5515296868587263, 1.2199962193802905, -0.1348926289827369], [3.941259035110768, 1.5599434599032733, -0.3308031148710203, 0.864453874004168, 1.175088439695453, 0.3595475552994848, 1.3528589125658093, 2.952134439764366], [1.1711736308588594, 1.8587497366834833, -0.26935898477229003, 1.6799120630459932, 0.8963282094446373, 1.2820952609036178, -3.4429869011157197, 0.555835508108361], [0.28014787738842284, -0.8752575105771478, 1.3975651640278346, 0.7280387311082066, 0.79636500994108, -1.5989932741789428, 0.012226608705625641, 1.2853265519317045], [-0.2884107041518169, 2.907611542303594, -2.3780030466298188, -0.5507599926161332, 1.3142396210523097, 0.34756976297511216, 1.2982593169941725, -0.29573014775355233], [0.04244994550228287, 1.5570920334223832, -0.22268015977894418, 0.3523641089350269, -2.056432467045609, 0.7253461278674659, -0.08177654471391649, 1.7949925635631556], [1.1004113474932737, 2.465536017516586, 2.2555682871039195, -0.6604252863101934, 0.44244105696946506, -0.24299754889361147, 0.1787674376309144, 0.6605888724075807], [-4.868875196503286, -0.06192831901066284, 4.63232442672097, -0.058649832277137666, 0.7081193471787126, -0.30137667740554897, 0.38045237303375007, 2.5070109396618903], [2.2066469460152986, 1.656153827274671, -0.16996412135141575, 0.6195390814230874, 3.7551623845698363, -0.4039951131669066, -3.7324002678366384, -0.8636970417298622]], [[-0.08397805156744359, 0.4321530327357195, 2.605099306582984, 2.6292222133436383, 0.7429470864707811, -0.6117469042482195, 0.3437162557462654, 0.5955328586366901, 1.5131615196046015, 0.8997828437815597], [-1.2958937258087866, 0.813185194155284, 2.1578968224030546, -0.005587328291868615, -0.8774701812131583, 1.8244853208899265, 0.17857695704310284, 0.921994565057419, -0.9361168438768819, 1.0142440576456595], [-0.12288948296341334, -0.9268687198665816, -1.2792115055508186, 2.4369675600142506, -0.4745905839984702, 1.238761469482927, -0.6323165721687336, -0.6513100841359021, -1.0260120511277853, -0.055438583318555834], [2.4743959602395695, 2.0911069128587787, 0.10545256508118706, 0.015767467175865912, 2.9086043650847326, 2.2451205823254714, -1.7973883413911649, 1.296488742484172, 2.2619824983168892, 1.1242512232003767], [1.7442600597882532, -0.9802134064393754, -1.6109136399281918, -0.4852998249767978, 1.8099237691795003, 1.4106940628138487, 0.09708320544022911, 