{"generation": 3749, "best": {"weights": [[[-9.76375594261294, 17.763811138710963, 17.765991929309546, -8.499001491983552, 29.20010922771119, -1.3050972605654922, -14.74179117257913, -25.75694521275358], [-23.773687568604792, 16.899215387653797, -25.029918191360135, -47.10547020113096, -35.39674660053838, 23.232529673192538, 30.79436687726792, -1.2510346592746189], [-1.484136639391094, -67.2146665982446, -4.021154441819456, 51.54142026804288, -0.7383539462900452, -2.4504076259235528, 10.311824963970842, 58.02113149318466], [8.908856752283592, 17.333199165658925, -51.58066916334537, -34.476490802278036, 2.9838096176562328, -36.31731183817484, -1.6956995368030252, 34.92588825024528], [28.70434325084642, 10.355190601501207, -50.947445717420486, 20.461110697958137, 25.73230640882382, -24.336510890312923, -32.57436367145465, 26.831767711230743], [4.197267796638378, 12.853070398561302, -38.572790078457054, -26.440707738846825, -46.822357814747484, 25.947031186212783, 21.98268804811476, -15.285454090220368], [10.270655497705913, 5.100433680219826, 5.268784144560479, -39.57239697271699, 12.068350798716718, -32.12047248495414, -2.4332631132018685, 13.128813971363291], [-51.74138939767399, 12.411699534823244, 42.630716943116404, -11.207615744489024, 4.880022486774621, 2.04468611761519, -81.32780350203775, -26.380516506896104], [-9.02287585966354, 22.195236527810383, 10.50589894552635, 10.258297015595087, 42.69837162691013, 1.4322070025468219, -43.93015290999295, -26.736563094387776], [-42.57051432169599, -20.104971915762107, 14.474050702187409, 24.761114771542733, -11.13683051626856, 5.810439016589549, 6.777883269419377, -35.08597615686315]], [[5.980970561273482, -41.81808484138417, 16.056717527725166, 5.743300308979226, -31.409124694173613, -5.023649544020925, 5.134488295120095, -47.511836475886774, 19.5260613260901, -23.64736750937903], [-35.25747166749344, -29.037923268440785, 52.869025145720116, 3.094234038160148, 4.536387845381945, 2.1953164689224898, -63.91355502197204, -14.465789450753668, 1.6626941011486358, 24.2693635575869], [1.2596133919854104, -50.38544416337752, -75.91069233211996, -4.9170910145554005, 5.7441677549337555, -31.599849106396775, 15.864900742249395, 64.92211853892103, -19.28035324496418, -65.72990194064049], [2.8995149478367805, 5.52896370769205, -74.47859219358585, 9.595227075383299, 10.0593419479892, 7.723001146943758, 22.556782621909512, -14.043105954620708, 14.876975140930329, -1.0637398427071167], [43.03040652322176, -15.981365491607749, 7.296731562805176, 57.70128274759058, -26.709597387061873, -16.86040361962477, -10.80842660506566, -35.59383351542594, 16.787306247919616, -4.603729371126828], [17.695001104535194, -2.7842368191885156, -37.917533402360306, 41.19602507039481, -20.436249679997882, 31.889777445061675, 14.070490588438394, 12.532688114318983, 37.0172173802981, 29.332136893684698], [-3.0053279280480907, 36.35166888182329, 70.40996767410714, 12.031011954917563, 27.845987990513372, 35.41947724943719, 12.059767253884754, -9.467554399327877, -40.98916309812936, 14.88315722264265], [-5.2735795697979855, -14.200526199999402, -16.709842466709638, -11.610739426819793, 16.54697964816732, -42.28243805187348, 14.854746435894032, -6.828804599282995, 30.264149022598676, -2.174251271997722], [5.867206632719218, 23.62852195395117, 15.528847660334948, -26.57575490199224, -7.137824623042695, -40.381329356999586, 48.58515297251745, 72.39940896966992, 18.13343736682193, -16.723402856930836], [50.74941197705462, 5.431721077816791, 35.968924763197556, 13.53531988175368, 30.1415898314424, 19.20371153511162, 9.848784833543023, -3.8301416725343467, -37.42754618812249, 2.489839322663085]], [[-5.41949203553515, -46.33942769293854, -5.205638918201368, 69.88118551996426, -7.715792832573596, 40.637490742929906, 39.34249076387987, -6.093014522683395, -0.3508850358197547, -12.04147290074154], [1.5631834018988908, -27.18652480155563, -11.921898980037836, 0.9923351899210995, -7.669873613428305, -3.207938212560662, 14.902757528451861, 25.894558571058695, 50.3044556645379, 1.8782397998303832]]], "bias": [[[-24.73692850346325], [18.795584009373798], [-49.59768093473526], [-35.46019880978214], [36.05941645476771], [10.340862046699721], [3.1346612533711875], [31.286649934326505], [2.9052121002948086], [-2.4563600902287894]], [[-8.117664089949464], [16.585102561671356], [-21.433730352338205], [15.062723986096952], [29.02472938713317], [-46.91959503307893], [46.39673655011277], [-28.17265851725596], [-36.42443573021072], [-10.636658222664249]], [[-34.723108828207344], [-23.003070328913044]]]}, "all": [{"weights": [[[-9.76375594261294, 17.763811138710963, 17.765991929309546, -8.499001491983552, 29.20010922771119, -1.3050972605654922, -14.74179117257913, -25.75694521275358], [-23.773687568604792, 16.899215387653797, -25.029918191360135, -47.10547020113096, -35.39674660053838, 23.232529673192538, 30.79436687726792, -1.2510346592746189], [-1.484136639391094, -67.2146665982446, -4.021154441819456, 51.54142026804288, -0.7383539462900452, -2.4504076259235528, 10.311824963970842, 58.02113149318466], [8.908856752283592, 17.333199165658925, -51.58066916334537, -34.476490802278036, 2.9838096176562328, -36.31731183817484, -1.6956995368030252, 34.92588825024528], [28.70434325084642, 10.355190601501207, -50.947445717420486, 20.461110697958137, 25.73230640882382, -24.336510890312923, -32.57436367145465, 26.831767711230743], [4.197267796638378, 12.853070398561302, -38.572790078457054, -26.440707738846825, -46.822357814747484, 25.947031186212783, 21.98268804811476, -15.285454090220368], [10.270655497705913, 5.100433680219826, 5.268784144560479, -39.57239697271699, 12.068350798716718, -32.12047248495414, -2.4332631132018685, 13.128813971363291], [-51.74138939767399, 12.411699534823244, 42.630716943116404, -11.207615744489024, 4.880022486774621, 2.04468611761519, -81.32780350203775, -26.380516506896104], [-9.02287585966354, 22.195236527810383, 10.50589894552635, 10.258297015595087, 42.69837162691013, 1.4322070025468219, -43.93015290999295, -26.736563094387776], [-42.57051432169599, -20.104971915762107, 14.474050702187409, 24.761114771542733, -11.13683051626856, 5.810439016589549, 6.777883269419377, -35.08597615686315]], [[5.980970561273482, -41.81808484138417, 16.056717527725166, 5.743300308979226, -31.409124694173613, -5.023649544020925, 5.134488295120095, -47.511836475886774, 19.5260613260901, -23.64736750937903], [-35.25747166749344, -29.037923268440785, 52.869025145720116, 3.094234038160148, 4.536387845381945, 2.1953164689224898, -63.91355502197204, -14.465789450753668, 1.6626941011486358, 24.2693635575869], [1.2596133919854104, -50.38544416337752, -75.91069233211996, -4.9170910145554005, 5.7441677549337555, -31.599849106396775, 15.864900742249395, 64.92211853892103, -19.28035324496418, -65.72990194064049], [2.8995149478367805, 5.52896370769205, -74.47859219358585, 9.595227075383299, 10.0593419479892, 7.723001146943758, 22.556782621909512, -14.043105954620708, 14.876975140930329, -1.0637398427071167], [43.03040652322176, -15.981365491607749, 7.296731562805176, 57.70128274759058, -26.709597387061873, -16.86040361962477, -10.80842660506566, -35.59383351542594, 16.787306247919616, -4.603729371126828], [17.695001104535194, -2.7842368191885156, -37.917533402360306, 41.19602507039481, -20.436249679997882, 31.889777445061675, 14.070490588438394, 12.532688114318983, 37.0172173802981, 29.332136893684698], [-3.0053279280480907, 36.35166888182329, 70.40996767410714, 12.031011954917563, 27.845987990513372, 35.41947724943719, 12.059767253884754, -9.467554399327877, -40.98916309812936, 14.88315722264265], [-5.2735795697979855, -14.200526199999402, -16.709842466709638, -11.610739426819793, 16.54697964816732, -42.28243805187348, 14.854746435894032, -6.828804599282995, 30.264149022598676, -2.174251271997722], [5.867206632719218, 23.62852195395117, 15.528847660334948, -26.57575490199224, -7.137824623042695, -40.381329356999586, 48.58515297251745, 72.39940896966992, 18.13343736682193, -16.723402856930836], [50.74941197705462, 5.431721077816791, 35.968924763197556, 13.53531988175368, 30.1415898314424, 19.20371153511162, 9.848784833543023, -3.8301416725343467, -37.42754618812249, 2.489839322663085]], [[-5.41949203553515, -46.33942769293854, -5.205638918201368, 69.88118551996426, -7.715792832573596, 40.637490742929906, 39.34249076387987, -6.093014522683395, -0.3508850358197547, -12.04147290074154], [1.5631834018988908, -27.18652480155563, -11.921898980037836, 0.9923351899210995, -7.669873613428305, -3.207938212560662, 14.902757528451861, 25.894558571058695, 50.3044556645379, 1.8782397998303832]]], "bias": [[[-24.73692850346325], [18.795584009373798], [-49.59768093473526], [-35.46019880978214], [36.05941645476771], [10.340862046699721], [3.1346612533711875], [31.286649934326505], [2.9052121002948086], [-2.4563600902287894]], [[-8.117664089949464], [16.585102561671356], [-21.433730352338205], [15.062723986096952], [29.02472938713317], [-46.91959503307893], [46.39673655011277], [-28.17265851725596], [-36.42443573021072], [-10.636658222664249]], [[-34.723108828207344], [-23.003070328913044]]]}, {"weights": [[[-11.708934407226236, 16.256244136610672, 17.567078556490493, -8.54923305419283, 28.25395623647376, -0.2268156870888549, -11.789234058640323, -22.806865720793645], [-16.564002303807527, 17.125660815552347, -20.470987315953007, -42.345821940391566, -31.897079750023554, 21.49550455981789, 25.44439169046207, -0.17219345097550676], [-0.5185875417692762, -84.52039188657079, 0.9689960404479259, 55.39069331183332, -2.1423791924675695, -2.0902598712218214, -3.805437674267756, 58.0835624325247], [10.574436572513015, 32.7450833934505, -42.19798489307301, -31.68988234471272, -0.9712395579169679, -43.1219190132029, -3.92958962812249, 38.24615668903896], [28.827279412687197, 8.58361082797184, -47.67598226628601, 19.167424964486305, 20.977235474114035, -24.788535939919964, -35.53057259911959, 23.781727952079848], [8.43460074264575, 8.874894959223969, -47.33239156434977, -26.44149021587842, -56.370928023919326, 23.067391045117013, 24.014296304592413, -15.754808163681295], [22.395674129891717, -6.162712372680887, 2.1514328788225425, -46.78911114090993, 15.406901240666027, -30.839147988975768, 2.1041480457336452, 10.165203536264277], [-45.970350984478586, 15.524480902777258, 39.86570611968286, -4.958588092438256, 11.203084662840691, -0.09762812626278072, -79.62068918477766, -32.6831816639194], [-8.8115616146916, 18.958625292667588, 17.84599319102371, 9.359987438280077, 47.86686301908444, 3.421634309223469, -45.59197704670722, -27.244354997550357], [-44.55518530055947, -5.3682025394565995, 0.7493745801808933, 14.36755432675229, -3.3126478321356574, -2.7273109593035176, -4.857629621182569, -25.14427364080104]], [[-0.2754262460963082, -52.5042412451481, 29.242085346375564, -0.48054154577245656, -18.253748635198768, -9.24050124098524, -7.3305048782925715, -31.345281700842047, 33.47646622408968, -25.33933821849119], [-30.915191245227334, -33.08165640740805, 49.12270838937302, 9.670857043780346, 6.618568464028316, 1.5980356677343808, -62.86233954230811, -10.171242451588178, 7.643270423843041, 17.851054067321545], [-3.2007750026208495, -48.87134934226496, -72.42680491600314, -5.815346266961878, 10.376862509371799, -32.71442539359763, 14.266003301929818, 61.62040925748825, -18.106091598716596, -67.94399298139885], [0.07115025897211114, 11.275433556197912, -74.66465889010827, 15.851513392332112, 9.782679686577884, 9.028829130478043, 24.733302103240316, -7.060370445912809, 12.390783628404817, -3.9662699794345455], [38.73493330763243, -11.523152969288056, 16.96596295833979, 64.1450094583212, -31.306101024678675, -8.749285348719289, -23.485527091580956, -48.75679418906571, 10.67686675984469, -5.097305762361425], [18.961593611340653, -4.112463858818136, -42.174299105097695, 39.04580110047523, -25.985503535196525, 30.75406834024945, 17.853441554356575, 10.82475643363062, 40.691916938367484, 27.30647460050269], [1.160036457678312, 39.417881063727954, 66.43185011404807, 11.673498701365428, 32.50982133241098, 34.78649071084241, 13.761382383838628, -9.046993550982963, -39.71795322306474, 19.227171808012415], [-8.151958254769815, -14.957331309407014, -22.55128745961429, -13.399372501920402, 12.239877826925419, -46.24637928669285, 12.701012676036704, -5.626983780556763, 30.5492078162815, 0.21366070472348353], [5.15203926552036, 18.796424721230547, 15.33256808423097, -22.189782485063812, -12.188628354227799, -40.62904391372205, 40.406745891564604, 75.857095786407, 25.550437048009076, -15.961111692145533], [37.27563698534215, 4.246853373552888, 41.9782488491466, 20.205586909924154, 35.388517099536166, 22.98654435134888, 19.332583742946703, -9.175415320200036, -24.670005050632042, 1.3185631622654586]], [[-8.854788716928349, -48.445078936142025, -6.2620831085567605, 74.07346621209167, -6.426061234405441, 44.358669732405836, 41.5507331320644, -2.040024918653285, -1.4915359772379186, -13.11349569253192], [5.886120644828852, -29.68207542255546, -3.0616249748495017, 4.608638795278282, -12.823656639846734, 1.8529209619894789, 15.78480771837597, 25.22049573730185, 54.334251439520806, 2.8734635652777594]]], "bias": [[[-21.456411883033315], [8.350041111321307], [-48.19186709705978], [-35.20871560591275], [32.73644972246973], [10.906730439042468], [-0.2625712240782573], [29.061704803191542], [4.026998854597348], [-21.07205036153702]], [[-21.382599226816293], [23.113017208705852], [-25.781535944509116], [6.068168983062948], [35.77870931782385], [-43.98663380154983], [48.413511122719925], [-25.238839493392053], [-39.02223903974141], [-6.620889981250231]], [[-60.090607019232095], [-27.96762078968087]]]}, {"weights": [[[-10.462559125076908, 17.763811138710963, 17.567078556490493, -9.105455666003571, 30.26024766458493, -2.066758879528782, -14.74179117257913, -26.358933240145504], [-25.844599676534646, 18.22173296068861, -25.289630145664283, -47.5061703706442, -35.39674660053838, 23.208871266628375, 30.79436687726792, -1.2510346592746189], [-0.4431291139618267, -67.50105228417367, -4.021154441819456, 51.54142026804288, -0.7383539462900452, -2.4504076259235528, 9.15219994804058, 56.77499693231003], [8.908856752283592, 17.333199165658925, -52.959096112900404, -33.85136898335357, 2.9838096176562328, -36.31731183817484, -1.6956995368030252, 36.049873832161374], [29.412212468894435, -1.2243029190703854, -49.846977529615216, 17.45009256510999, 20.956459350821557, -19.424196479114013, -32.997883280401, 14.161910896242427], [13.065783309888493, 10.408931952814783, -43.568089808321176, -20.85273934327054, -50.878224709342106, 25.350529614566497, 18.633214964966804, -22.325643565711026], [16.47233099943982, 0.9807261612497333, -4.004916244296892, -47.86977391814424, 16.11226802733693, -27.997884729751732, 1.3607152813055694, 12.18575550228261], [-51.928160094629106, 17.96413775746717, 44.18725597969967, 3.4603758586354805, 5.342163645230053, -0.04875614768696139, -76.92565440814401, -26.84621840236594], [-12.363017377180096, 18.85849688070402, 14.037339173036937, 12.265843288733189, 39.68858374354951, 2.9824322041942355, -48.39114667139268, -29.370034106765463], [-42.85636190257176, -5.214729543861717, 10.61886721293786, 11.908308763780562, 0.9139592256113974, -6.342100520170654, -2.8629424308724296, -30.797617531908884]], [[5.980970561273482, -41.81808484138417, 16.73941073002372, 6.3420182941759125, -31.409124694173613, -4.104212958681829, 5.134488295120095, -47.511836475886774, 19.5260613260901, -23.231809751828386], [-27.8898980875897, -37.93326087921585, 54.334453664260764, 16.534716141581843, 9.320285514656131, 7.120927369884035, -62.333569748143745, -14.317863024138404, -2.0566252693520273, 9.877288358432258], [-0.016140080394422274, -48.42419062554095, -77.59970947320261, -4.6308036673577595, 4.992592033660534, -31.414794351089373, 12.40357766744608, 62.53646956242764, -19.796383948341877, -69.17717573816685], [1.6597333767164613, 7.743356009489473, -75.21132794451616, 16.5648540770468, 7.766814937154097, 9.028829130478043, 22.246526831078135, -7.457265400194455, 11.996758881428999, -2.117614451241166], [40.61702620111243, -11.523152969288056, 17.575025456700345, 65.38519293590815, -30.721902688542414, -9.619699592511438, -21.409373528064798, -50.19081712434836, 14.07763765815288, -3.9697318243152635], [17.4069868968415, -3.542843816065651, -42.463544674502444, 37.18288364574823, -23.50724242386104, 29.639397963079784, 17.323501017790207, 13.613621502615855, 41.26985364339404, 29.842143381858982], [3.714178928751672, 39.202668755010414, 65.88638285039161, 11.983038142995794, 32.16364776492252, 34.61316967653576, 18.45510984650108, -10.325541625455935, -40.38295482094868, 17.399611134395176], [-8.946295086109377, -15.209040140108376, -22.5130403554631, -11.795921302786496, 13.219017331159355, -49.2376299175504, 12.578865752123868, -10.868127763335698, 31.451450561581748, 2.1773393715115077], [0.6823453827219375, 15.441948891071172, 20.320913375321183, -24.687878653327257, -19.38665780019537, -41.268533025982514, 46.80226487367571, 74.34440395837167, 17.526145451910075, -10.953394915361386], [46.13675555505482, -1.036289007517238, 37.41019223298232, 17.42432973060005, 34.49740581201815, 27.536936209461658, 10.326673997468303, -7.018174658795102, -29.994807896751, -5.093131046006456]], [[-5.41949203553515, -46.33942769293854, -5.205638918201368, 69.88118551996426, -8.955475898872326, 41.3954357119956, 39.34249076387987, -6.093014522683395, -0.595234929237495, -12.04147290074154], [-3.5022188416231566, -34.82130454773996, -14.688606229745137, 0.2269690718670468, -11.1972956096518, 2.5361114731933325, 18.258332744256297, 24.26844001171447, 60.066899733660904, 4.592938211740753]]], "bias": [[[-25.79548338273855], [19.378776310371784], [-47.7003057609925], [-33.05198855655181], [33.0661567031818], [9.08794121780289], [-0.4867718408892683], [28.178946191931136], [-0.9491813951850089], [-12.31159280041035]], [[-8.448586729905918], [16.585102561671356], [-21.433730352338205], [15.062723986096952], [29.802503981942692], [-46.91959503307893], [51.88913228453049], [-29.546361677955737], [-41.57467784580595], [-12.812982129940622]], [[-34.723108828207344], [-24.748505056841132]]]}, {"weights": [[[-1.607051177544038, 22.083522687599555, 20.233956516963495, -9.223115900696223, 28.765240221537407, -0.009074940535343384, -21.120789751819437, -23.099582463384603], [-21.801279714931066, 14.803496539534002, -21.603324453520656, -47.485766853354555, -35.94940163690284, 29.100760806456645, 27.208346080858647, 2.090183087313676], [-0.9465097302859685, -65.18771780022297, 1.814351619654511, 51.132512333070466, -1.242935089474865, -2.3473529692489694, 13.11730283021209, 59.464968053517616], [7.153783589600597, 32.4336386603976, -46.08894593043422, -30.372080823383342, -4.433805662162683, -40.96314436157274, -6.0276208160983185, 34.31373582992225], [24.88312703939167, 8.519480646333468, -48.83504243249435, 18.972382100384742, 17.71209489329467, -23.010660732945837, -32.33862180870412, 22.760412948159285], [6.3743638036256955, 9.978078165918943, -43.03525448936063, -24.233593623230743, -48.16089198007066, 24.762597112940163, 26.329885695291217, -14.046784357034555], [13.16152539923535, -0.41589422008114785, 9.02300928698911, -43.16464605804618, 16.513908210615277, -35.82322324536612, -3.1124999743255426, 5.774783785567658], [-48.59084993119447, 11.937259195984657, 40.88248560675572, -6.540369512836524, 6.431161039962657, 2.2179928712011163, -79.96828368101706, -27.346566433520394], [-8.714424661542056, 18.997709490093605, 11.11617866437329, 8.63278182694825, 41.652352303518704, -0.8105419573930308, -43.62381177357591, -26.645192120598914], [-44.4734479880131, -20.104971915762107, 14.389980957719153, 24.761114771542733, -11.13683051626856, 3.9737464913147376, 6.777883269419377, -35.08597615686315]], [[1.7758960491206683, -46.55873716779089, 15.601889991713232, 5.294245392426277, -33.519457595899084, -5.660569414471696, 8.607652735876012, -39.43311675862853, 18.7665821835877, -15.353785385563894], [-35.62691235763279, -32.999655896099554, 52.65336358607507, 4.94863749429255, -0.6129528777855149, 3.8077743960348247, -65.34178879534379, -14.253728221733844, 0.25582987074774044, 25.654426603253025], [-0.7254318779910901, -48.54652491507456, -77.39258678892776, -5.157175510600553, 6.886474274578471, -32.5517449802979, 15.297124039168908, 66.3248906868093, -23.03736304287277, -67.11153184374987], [4.460233037168414, 4.4663992512472515, -75.53265183107365, 14.997896113485389, 10.405397956416603, 8.827932119503894, 26.32380416542001, -11.44331286486544, 12.851607826162121, -0.5448603420159461], [43.13885256818253, -17.347528706165726, 6.861034038316239, 57.15562098280749, -20.96306027319825, -16.056812807581526, -8.126871662831265, -36.2681518332078, 19.571660599913034, -5.417622480262351], [15.38438389241383, -2.3850320613086833, -37.71195211143611, 41.171145082743024, -20.436249679997882, 33.240613449268686, 12.790778353261405, 13.341787910811584, 37.102314337952414, 29.957830727529878], [1.1498923248372905, 37.311665989678595, 69.37267696827223, 11.489789817142427, 28.030237647004935, 34.2308224486963, 12.294659377414929, -9.467554399327877, -40.98916309812936, 13.727748321175493], [-4.561175293611438, -11.90095979887043, -16.709842466709638, -12.27033421772718, 16.2975518057363, -42.28243805187348, 13.350324727411966, -4.363276660110013, 30.264149022598676, -1.6051739294907692], [4.155605405188696, 22.8689938746839, 12.263432512902522, -26.57575490199224, -5.848015627263685, -39.19585917995943, 47.05956615157694, 72.39940896966992, 16.64622611331751, -16.723402856930836], [49.73125455530682, 5.827981094518661, 36.056064285507965, 15.37448642049843, 29.76432811439294, 19.20371153511162, 8.361155673593062, -5.307061306089068, -37.7493399634884, 2.079171448494408]], [[-3.2699486151479347, -42.40832341668789, -13.987369260991759, 69.70898457253399, -13.198307339606316, 37.36391951080725, 45.91426234260886, -6.118705268529347, 4.544526873773021, -7.221475746927019], [1.5631834018988908, -27.18652480155563, -12.072239260805368, 2.1965007196602655, -7.387845691168159, -3.207938212560662, 14.657486031343018, 25.578721565978032, 50.3044556645379, 0.7319059231868112]]], "bias": [[[-30.80006472261256], [10.260974399106239], [-51.89377596648045], [-21.805392817137303], [28.336472179351148], [-1.360012370847792], [7.698056266027949], [31.780755000437022], [-0.9933091400859574], [-1.7708746387798466]], [[-14.488789259628927], [18.363930553003655], [-32.81068162016799], [6.971598760644387], [30.765058712314712], [-39.796743141358995], [50.85247985009852], [-31.289235516158943], [-37.12567654524425], [-11.534039041799392]], [[-30.24845542074827], [-23.003070328913044]]]}, {"weights": [[[-12.738240590396225, 18.338682239621413, 18.934866514322795, -8.54923305419283, 28.633767305076965, 0.5285385812473062, -11.505859227573055, -22.806865720793645], [-18.784929029351105, 15.80536312256644, -18.994735772627678, -43.207631609269924, -31.15942260286448, 20.424382223887854, 26.36855733137851, -0.17219345097550676], [2.5753516080379972, -67.05367438884663, -2.7159302050671457, 50.85140424214275, -1.592776473681122, -1.8991894403929037, 3.94781236663202, 37.288317367205316], [13.287144218229402, 29.31022066582912, -48.277400599157005, -35.22334408594344, -3.7455523104074704, -48.17845730031703, -1.8757710319578342, 32.22959192924737], [33.49005957001797, 7.601078399949152, -52.93543562091667, 12.662517740345322, 14.888004869525975, -19.999469340751332, -28.7601088036113, 17.09806409378064], [9.757364613877801, 6.293187416465521, -45.0191917708693, -28.605290953481852, -53.2367375528388, 22.226014013435908, 22.173559189238286, -17.286703184807326], [14.604871253175897, -3.7033172368992306, 1.1422762131300601, -46.218088373409806, 15.61847138181783, -27.70466569160255, 0.5818256182084833, 11.533208022876543], [-53.23093447292119, 21.860727576283644, 43.95216913652742, 4.050747319436622, 6.979052952912658, 0.6680580659550761, -76.94935552606611, -27.786405389342878], [-8.476377632938519, 20.45384604809326, 14.74295518201204, 14.102134363307696, 39.26350108017262, 0.8689238797662857, -46.64033381437768, -27.326409067487003], [-38.974084509038136, -10.05012633240733, 1.9883668856083576, 15.485676093009317, -10.92025350183907, -3.0554588506638307, -8.681974915872685, -23.016226507790734]], [[0.3159078047415753, -52.5042412451481, 30.582661272784602, 0.5217517778417136, -19.480225081859036, -8.149932781848667, -8.170940247744042, -30.844454903243737, 32.65644859983146, -22.933353483826902], [-30.58125971533699, -34.19684919138087, 49.12270838937302, 11.551086015957498, 7.464174450205876, 2.8894026917865125, -62.15627268446257, -9.116559885123475, 4.500174781520347, 15.299018251952408], [-3.2007750026208495, -49.676918848785505, -73.26532199463637, -5.336926845267957, 7.379326905785456, -33.04901137757669, 14.703567160644758, 62.371638327218164, -17.71211956525635, -67.90854073140395], [-0.7203491306521843, 10.0178545841877, -76.17149647307438, 17.73801092301892, 9.782679686577884, 6.284960343122441, 26.596777472816406, -7.929503356738103, 11.430865686039878, -1.589718608309461], [36.559127634843314, -12.300894787799244, 20.085937203323954, 65.23652234144247, -32.15191136141082, -9.473479183069536, -23.485527091580956, -48.76230557136744, 11.075328528988742, -5.097305762361425], [19.246678342493706, -4.9025721300641445, -42.633900937153584, 38.06426901868783, -23.76692766601387, 30.75406834024945, 17.504397711217457, 11.099404620408167, 40.29966353031866, 25.21804219748335], [-8.509109319103917, 33.16185505662319, 70.19990891215147, 10.118827806462571, 29.281577026396004, 28.978801360335083, 21.843407285763387, -8.275549321250661, -42.01747125841213, 20.683859202994217], [-7.300750379442763, -34.538869791109924, -13.614034110745088, -12.867033855145973, 5.672415238282717, -41.18200651109086, 23.314736867470256, -20.43699196067858, 37.048650138477655, 4.924203050965554], [8.124700023830645, 25.678545911665584, 27.775345148653937, -25.706097542267667, -27.943551244320986, -32.60628737377463, 48.196897047375295, 75.2347887455683, 25.20924818469509, -15.24987649175337], [36.957472648597765, 6.6606480638550725, 43.87178817618581, 21.004468559483257, 34.721369180699185, 14.106274059107674, 20.44416075734148, -11.488579435037485, -24.885147492740025, 1.610365159458152]], [[-8.096367950559435, -46.33833076287963, -5.469805756672994, 75.22449251246704, -3.088032309591073, 46.27575566706178, 41.477471213576145, -1.7970682671511462, -2.3362113708896786, -12.94052704257226], [-2.350228633666143, -25.780115394910204, 0.3494905080637882, 7.495655457311713, -4.92237974833064, 0.39469329947329573, 17.524592174465035, 21.35021869175638, 57.053823186058274, -1.259859919120837]]], "bias": [[[-22.54047452658259], [7.604280501869566], [-48.40178612168455], [-35.8633992402567], [33.68637681760623], [11.095197436751157], [-0.7836635576388008], [29.061704803191542], [1.4450832124586408], [-14.9016206621925]], [[-22.555519753080528], [18.82424089998102], [-23.416240240666696], [26.18898232842974], [34.11402093837333], [-42.79005443002338], [48.8214997885781], [-25.469771002166645], [-38.8627061887526], [-8.777927262474329]], [[-65.42423698497015], [-25.366266392257486]]]}, {"weights": [[[-10.462559125076908, 16.298397703297066, 17.567078556490493, -9.37470104854999, 29.21534637188173, -1.2884853535386225, -16.304467265635445, -25.18852808074241], [-26.023232709363334, 18.22173296068861, -24.52750925113286, -47.5061703706442, -36.106274698161144, 22.183453617771974, 30.504978818597987, -1.2264922706527337], [-0.5151787138793293, -75.25906260557538, -1.058923759326907, 56.20897926266836, -1.575742376163383, -5.107827494412054, -1.833229060754819, 55.78287494907506], [8.352075148468744, 31.560619638884337, -48.224299573401275, -33.61892917403981, -2.0484399502145636, -41.83770666084105, -4.45044691881472, 40.07653144978832], [29.374602676942605, 6.861109303236226, -51.09821765496542, 15.318850373951793, 18.0322584723014, -24.362242759854475, -35.423964006079856, 25.64623983334909], [11.478515780334385, 4.990438521425627, -45.69139876478199, -28.19017964972639, -56.01838258691971, 21.64541717864083, 22.706953015939558, -18.465376267277072], [19.046454959582885, -6.710570787346785, 0.6529725677362543, -42.581957934688276, 17.05108920933341, -29.82449076220942, 2.521650659396092, 11.225287035089536], [-46.85753763747839, 14.876433447447543, 41.45958634698454, -7.446810500702538, 7.924351945894248, 0.15677592437857713, -79.5271827569445, -30.85752961173786], [-5.456505863230198, 26.201787953201134, 14.948738777880333, 2.1746942645722998, 48.62142681254448, 8.941297682913023, -53.65265594133498, -27.80816230177316], [-45.845444750716695, -3.3742302261276444, 1.4430572659249377, 14.599909265689162, -7.425454928277977, -1.7373256601485485, -2.031466426669216, -25.87324692529787]], [[-1.2174635993709262, -53.36750119267802, 29.43505749921758, 0.4308972220578623, -18.253748635198768, -9.078610572824171, -8.080870556237988, -30.065807446381708, 33.6161623644415, -25.380390738769414], [-31.80614369579244, -33.00962179077139, 46.91667756907479, 9.670857043780346, 5.5613634359085165, 2.8894026917865125, -62.60811011218345, -11.456086762521622, 8.032889904136685, 18.22762274247128], [-3.2007750026208495, -49.23324710371951, -71.4347255517926, -6.762137486585696, 8.671806520087141, -31.324608104867064, 12.635479892521651, 61.75895915104793, -19.16706753857422, -65.40996613423944], [-0.37760678671996595, 9.552669317499396, -75.00760234872067, 18.888613689148414, 11.122435177815264, 9.028829130478043, 24.887383691787534, -6.666869980170553, 10.82753093370977, -3.333969074093165], [41.5316746241662, -10.703322288555581, 17.205402631940927, 64.13719549395644, -30.71864319768571, -8.749285348719289, -25.367992494600948, -49.604009664070254, 10.740601062052404, -5.721301821786785], [19.058000170140758, -1.7057185459539834, -42.661007435193575, 39.52879991569622, -23.528685530960015, 30.482934095801642, 18.054777913615904, 9.275126907860729, 39.458278456362024, 27.91683773895571], [0.048514464167221716, 41.732394342706364, 68.0974792013886, 10.9886184100554, 29.912349559642827, 34.995586304464815, 18.70106445438228, -12.094829357715241, -39.64560114935585, 16.994481049628277], [-6.28333293886412, -14.835336577478214, -20.782842781486544, -11.314019656142852, 8.07327275632829, -46.84602649363689, 11.424142102133649, -6.877680760433599, 31.589926179443506, 0.9174884605443301], [2.0530918624988588, 24.728673004224476, 13.884688961671493, -25.479457823251014, -7.322757617288685, -39.19585917995943, 46.30127089655499, 75.85442916102973, 17.104862868172784, -16.10502019130913], [37.49459606133268, 1.4532312095070719, 43.304228747366245, 19.060101846329292, 31.40548556477952, 22.909925125220887, 17.810240022094305, -7.600812548776943, -24.6955693099359, -0.2813549569283336]], [[-4.5947714509716455, -46.33942769293854, -5.205638918201368, 68.87472809504501, -8.932964531306453, 41.3954357119956, 39.34249076387987, -6.093014522683395, -0.595234929237495, -10.281546175261179], [5.35496039256788, -29.523473042309554, 1.2474005735270526, 9.071115101424658, -8.956374541051904, 5.196011476023909, 14.493588936416943, 26.988842162440083, 53.37948422338254, 0.8401469570113262]]], "bias": [[[-25.401622056735484], [19.107624865843803], [-47.20187572317498], [-33.05198855655181], [33.08594476533619], [-4.829768647646773], [-2.364849286099777], [25.43311511379522], [3.3433649160403536], [-19.928218842893738]], [[-8.448586729905918], [17.082974251469714], [-22.46106445047472], [6.068168983062948], [36.80704091671016], [-44.13655302512802], [49.57502420152317], [-32.34151837972527], [-39.2747624474017], [-6.847753975482623]], [[-35.0157929329521], [-30.51421449758208]]]}, {"weights": [[[-4.81148991682408, 15.816804419120404, 20.376485875761855, -10.656115725780214, 28.024796768868057, -2.831556684700173, -12.534133472297452, -19.835754572902612], [-25.40564945230909, 17.817282299362876, -8.908383140030132, -50.109427358414585, -19.422457055150915, 21.703704144738275, 27.802380960022493, -1.9209326172009882], [-0.5336905151655778, -78.08363410886126, -0.5466212651241269, 58.72041149205415, -3.370662269997933, -1.7250988268115435, 0.16755053746001292, 59.7343687815948], [14.315528052197086, 25.983885960428697, -51.15353264269735, -35.26967408875644, -0.5845809346520702, -48.65087547638391, -4.351252933810042, 38.011664087776715], [27.661547503930336, 5.0926174181436155, -44.626886280189936, 11.010140741916059, 17.893907245080854, -23.51502915825897, -24.470396477946384, 17.425391154022435], [6.124574853232315, 12.488777824212352, -45.65402754730292, -21.550151308347605, -51.58020593022769, 26.611241868571916, 20.457418968715228, -21.32953375535301], [13.919205079737889, -3.3031279222186747, 10.826990116874628, -46.65452030661871, 14.658706608047638, -31.420274014248392, 0.9910382994944481, 0.75056702236038], [-47.23131202972017, 11.750796790607634, 39.11313470274774, -4.871305246482299, 7.433999041603811, 1.1588417072387656, -75.75903547159571, -33.48561798755166], [-8.592343718401326, 25.802385553536613, 17.336893650117087, 5.748720466031914, 50.48859874181373, 6.808330266152449, -50.103127421863256, -28.872244795911477], [-42.366588377243666, -3.9893029024388795, 0.9536384510536782, 15.388205615926715, -5.3472186589735795, -1.507191358819168, -2.7027399933279463, -24.004233320236764]], [[-4.211596158817374, -57.64091921990041, 22.74118511008615, -0.9757296968910474, -26.868183987947866, -8.869630819593201, -11.119487731725215, -42.096637630961276, 33.35978514387019, -21.8832212122317], [-28.52464616673905, -36.205657534293756, 47.948542732473115, 12.243224780106479, -8.137471593533524, 1.3836383646790853, -60.13695679125523, -17.241868454674922, 2.20150934502354, 28.581551675908937], [-1.3806242000084932, -49.587169921358246, -79.81316578138285, -5.079920514209334, 2.3725563152412064, -33.29672528459321, 12.40357766744608, 63.097449955938195, -21.01150794849517, -71.71040074257937], [-1.133588800117067, 5.970027241436, -75.1549908967312, 10.8413472501318, 11.012510734420255, 8.448612488628559, 20.157264686881998, -8.186402654744509, 9.794963958514916, -3.0260318546212215], [39.9871436148458, -15.046163660815857, 7.703937664396737, 54.33656548479643, -25.034404559996897, -10.656405935710797, -9.954705272402292, -32.70187964276704, 16.865034724437553, -4.815759398596256], [15.99038259421731, -3.5511767354553787, -37.72117448051114, 43.6162628212774, -20.544013131062567, 32.52006995492726, 18.93142357852792, 16.49210172439222, 33.897768520041176, 27.066675437184955], [5.288982916293387, 37.54688977092534, 64.02102609562702, 10.005081142940458, 28.740988179199235, 36.58626833306143, 13.687576488342483, -4.55255640346593, -38.90818145515735, 13.169778577415904], [-3.4760613174796, -11.592855602021027, -20.303484649660916, -11.237953445367664, 13.078165919250427, -40.058948075015465, 13.667946248679561, -5.86138116581909, 30.676815683261072, 0.5065057166807581], [9.673830164025253, 23.941484967300404, 23.830202151815183, -25.66959919101881, -28.267784267857397, -35.41015114366796, 49.220762020484024, 73.36270995539523, 26.138345480568603, -14.774725136313883], [35.559831263249805, 1.8438758164692641, 41.52701891618233, 17.90013211369081, 36.02630711140351, 18.4380718507258, 16.49035012464455, -11.890306096645258, -22.77006071787546, 1.8922513748960277]], [[-4.530203616354266, -43.511929909777635, -5.025331326679453, 75.72028618627239, -10.512251562012858, 39.848675206319975, 39.729111285929335, -10.132969847268951, -2.1273848673760942, -12.528347820731556], [2.7980699761306145, -26.642503216053512, 1.7754486545913966, 7.188045905675887, -5.4089906609681675, -2.079218050702826, 11.516073309960099, 31.606049964593325, 53.36672885172783, 3.6643918519982903]]], "bias": [[[-24.21352171996143], [5.065147013816912], [-45.66800363883953], [-33.77624209281445], [33.472202930373264], [1.310585059215264], [-0.16568377113793212], [31.678440082783855], [5.213327330186174], [-17.889719694682775]], [[-6.084071490174034], [20.53673839149611], [-34.41385544356373], [25.630764655694637], [35.21597609025198], [-43.45897284281238], [44.624456835790795], [-28.169378932349478], [-38.776701563863334], [-4.435296002960907]], [[-61.16571548597189], [-29.62199692715685]]]}, {"weights": [[[-0.5853375766881777, 22.24982413469204, 20.89583657925152, -9.602515416466524, 28.893300243856952, -0.7558206698635006, -20.668873297809803, -23.164546801654154], [-20.249381882276992, 18.35782164408728, -22.908135127759373, -48.120663766160675, -36.636200239420745, 25.59317594192302, 25.90463985249156, -1.457044857144179], [2.233218494449952, -83.0427324341415, -0.5479026341705855, 60.38116980859841, -3.0532745597100375, -1.4108012908109226, 1.2802875846781692, 58.36453822626035], [14.58710906861544, 21.952140181566612, -49.44054532678125, -29.382618282495656, 4.849140313263761, -41.36696256035542, -3.2673719974777704, 30.62901342905811], [30.756346715354482, 6.186765447674824, -51.816187541902266, 13.837987599947496, 15.167850638801339, -30.23542838378471, -24.505977315100527, 13.836020455343201], [12.247035613731818, 5.9576579111895915, -45.451361086509706, -28.870844514595404, -54.81249638137149, 22.643758368010154, 23.408477662331208, -17.978507266164947], [17.189096354448186, -3.614773215905759, 2.317850827138592, -46.67862024560695, 16.506706724647106, -33.31148128609393, 1.777278042947254, 9.984770203447965], [-51.81210253828286, 18.007762452881916, 42.287466038053545, 3.1505685336959397, 4.649433284702568, 2.200983669494562, -75.33601817632724, -26.971078757442832], [-14.034506093158507, 15.428007017699759, 20.762318059627447, 6.969818406231519, 47.90751486622905, 3.1359093001919165, -46.56854714854942, -22.744335690570633], [-37.21784809039652, -8.637261955620637, 2.879979808213306, 11.961771010308091, -2.2133227004911675, -0.6567389105173757, -9.395073235304784, -28.78383157702668]], [[0.19001447652508402, -56.43849559639647, 26.881503374699623, -0.6003306541291635, -20.985629983292732, -5.097676337904087, -12.19471442114951, -29.295064063885157, 35.413611777147274, -25.232690147295283], [-34.172255486935995, -30.487380818870246, 54.915448392940526, 3.4267486823636353, 5.199952309536599, 4.796010119719677, -64.88040155552913, -15.08816984411834, 2.833560851914258, 25.211118832496478], [-0.5252402158604446, -49.82407277912243, -75.89722313535208, -4.49273878587688, 4.188012670297235, -32.653893630978274, 18.34828062336783, 65.8488087249487, -20.384601879229468, -65.68119044162124], [0.8472712523948264, 7.673221270408144, -74.11211424066131, 10.452042030120923, 9.827035845327103, 9.461113671669812, 26.32380416542001, -11.621389045819818, 12.90885027450767, 0.08612618102635994], [30.46871356889355, -8.50248449563582, 8.836265385956883, 66.00941212757117, -34.922017951700056, -6.597152060726345, -20.736864398734365, -50.62705144208761, 22.138291952878124, -8.826490422954356], [15.461520891908382, -4.980016767426349, -36.02257073868451, 43.09830703482197, -18.26720802555661, 27.27623377666991, 15.417715537621968, 16.523104240508268, 41.30710269892651, 30.43513042416505], [-0.47008647768526224, 40.11028127240856, 67.44985068828767, 8.019620183785193, 29.574265245134267, 34.18289297235964, 11.272158269203812, -16.551590254997606, -38.875968804239186, 18.864719701880546], [-5.947826886354854, -13.362771278446688, -16.334361209652112, -12.807883334852447, 17.85333226971754, -36.54509738886603, 10.533338468568276, -4.391933200961714, 31.62560244885352, 0.12830908524083445], [10.93625535865781, 11.880168237355665, 16.760608959670506, -25.545082622982026, -10.375104746173005, -39.84746950271281, 50.29113594976366, 81.46306238551982, 15.670174713818206, -9.452741357767765], [38.36844848427897, 1.8672037202171365, 47.248114605420405, 18.18496073193145, 38.698684601863654, 21.9036668174849, 12.605541142647322, -7.802154549898002, -26.220803704622867, -6.769708622682074]], [[-7.564260103468602, -41.408058949418724, 1.4761956109596748, 79.5743878614251, -16.886568254210353, 37.74690998460386, 39.59464620122031, -5.498489985567699, -1.493214248961154, -15.17719531028048], [-0.8253021436141738, -27.865587291874125, -9.809104886883382, 4.061650782006538, -4.6881079428081565, 1.0592373581695134, 12.8339706895159, 26.22216386464358, 53.31188572345337, 0.9090273467287111]]], "bias": [[[-27.719640684636698], [2.4706421725163965], [-45.07368757911211], [-27.36654327037065], [39.91696155115034], [-1.840391133031686], [2.5952364322858172], [26.679438355845505], [1.904054454206252], [-13.094813554920465]], [[-11.824560889027081], [16.868490766373284], [-28.80848537513202], [15.145074030522474], [39.1189518628518], [-44.903953717049376], [48.60500925455519], [-31.06255232622433], [-39.08619653572717], [-9.448642380026266]], [[-60.13579059365479], [-31.15614982796789]]]}, {"weights": [[[-0.5853375766881777, 22.563450683850956, 20.89583657925152, -8.851525359316714, 31.660870019309193, -0.7558206698635006, -19.130574774488213, -23.164546801654154], [-20.249381882276992, 16.69413391443988, -22.02953848519235, -47.04860085075812, -36.25063695840546, 25.59317594192302, 25.90463985249156, -1.457044857144179], [-0.7296228668479661, -67.8698290172571, -4.021154441819456, 51.54142026804288, -0.7383539462900452, -2.4504076259235528, 9.15219994804058, 56.77499693231003], [9.55662247205807, 17.333199165658925, -52.324100204177405, -33.62916294332648, 2.1579028986549815, -36.31731183817484, -3.0512157974217917, 36.049873832161374], [28.084748557943524, -1.6938431334842263, -49.846977529615216, 17.45009256510999, 20.956459350821557, -17.618535502030163, -32.997883280401, 14.161910896242427], [13.269001466299594, 10.408931952814783, -43.71001000220978, -21.503182534253572, -50.878224709342106, 24.84312836317416, 18.633214964966804, -23.23918487057238], [15.469883856904229, 0.9807261612497333, -3.515504894246302, -47.86977391814424, 16.81141665649079, -27.997884729751732, 1.3607152813055694, 12.443609125254607], [-51.928160094629106, 17.96413775746717, 45.80960083483288, 3.4957103752974503, 5.342163645230053, -0.04875614768696139, -76.92565440814401, -26.84621840236594], [-10.719639636439906, 18.85849688070402, 14.037339173036937, 12.265843288733189, 40.152942692191836, 2.9824322041942355, -48.39114667139268, -29.310689644407006], [-42.85636190257176, -6.251891919148189, 10.61886721293786, 11.908308763780562, 0.9139592256113974, -6.342100520170654, -2.8629424308724296, -30.797617531908884]], [[0.3984213448280247, -57.426989940960816, 25.891276751451056, -0.6003306541291635, -21.619060226635227, -7.06840165613043, -13.823324563363347, -29.295064063885157, 35.01638950255601, -27.079589980402634], [-32.866546947842714, -31.11932937723555, 52.691997778901154, 4.262178290270296, 3.391477556545713, 1.64609218386176, -64.52444866085997, -15.05678988347645, 1.6626941011486358, 25.60479308675719], [-0.5252402158604446, -49.31147232466677, -75.89722313535208, -4.293003814055126, 3.515310593447286, -32.129597308563255, 20.878757939839996, 64.6570031442814, -22.551001543685807, -66.26905881704475], [1.0241129064126056, 6.7578906499954075, -75.238973431348, 10.452042030120923, 12.05823797835741, 9.461113671669812, 26.32380416542001, -13.163157507662588, 12.90885027450767, -2.289652365792165], [42.20591719385025, -11.523152969288056, 15.778614370377124, 65.77030426266788, -30.721902688542414, -9.619699592511438, -22.86638758494029, -50.19081712434836, 13.793860567746664, -5.640584513119636], [17.4069868968415, -3.542843816065651, -43.38478508161368, 37.18288364574823, -22.97357240432716, 30.284507331370968, 17.323501017790207, 13.613621502615855, 41.26985364339404, 29.842143381858982], [5.074209961018916, 39.202668755010414, 65.88638285039161, 11.983038142995794, 32.22200961510136, 34.886800238985515, 18.45510984650108, -9.534842912245274, -40.65395674141422, 17.28228789981181], [-8.77578390853278, -13.921946722370791, -22.5130403554631, -11.795921302786496, 13.736291010562494, -49.2376299175504, 12.578865752123868, -10.868127763335698, 31.451450561581748, 1.8711694474859437], [0.07896664763871009, 15.441948891071172, 21.93640644911902, -24.687878653327257, -19.07700953186835, -41.268533025982514, 46.87568112482355, 74.34440395837167, 17.208258391363152, -10.953394915361386], [45.80525649426166, -1.036289007517238, 37.41019223298232, 17.42432973060005, 33.6992961776707, 28.19639475612606, 9.762617732399063, -6.816982104167426, -29.994807896751, -5.093131046006456]], [[-5.341021412043828, -45.89156460080723, -6.526818241014077, 78.19270480164177, -14.745408746634808, 29.45787165816916, 40.72765372574718, -5.3954638340879155, 9.317186468292936, -14.537609416475142], [-3.5022188416231566, -34.82130454773996, -14.688606229745137, 0.31413701334755095, -11.1972956096518, 3.00321808664183, 18.258332744256297, 24.26844001171447, 60.066899733660904, 4.592938211740753]]], "bias": [[[-25.602336883081243], [3.901743590100707], [-46.423566692356445], [-28.566452743843534], [40.733207420417116], [0.04075077469073096], [2.6917571524617103], [26.704989246557695], [-0.9491813951850089], [-12.31159280041035]], [[-13.565519770639886], [23.247133518451783], [-21.433730352338205], [15.23482488931621], [29.802503981942692], [-47.07805156577896], [51.88913228453049], [-29.38437109535555], [-41.13470190602922], [-12.812982129940622]], [[-35.736378813707695], [-24.748505056841132]]]}, {"weights": [[[-11.936411103785037, 15.730434144037712, 16.285555744322824, -8.808001430308682, 29.55939191069059, 4.073476442813435, -8.714876108815703, -19.610141901565985], [-23.82201426401936, 22.259077986997706, -10.242557219870164, -45.58009321663627, -18.455540060232295, 19.969690386645173, 27.41361109946902, -1.8308001664427527], [3.755225924538137, -70.59430895897982, -5.158178345277508, 47.15272439032962, 0.6580928525423926, -2.07049249705533, 5.62869330948165, 47.18394428060476], [6.9531724713810155, 24.7536388430019, -40.69882765763919, -36.280369026239725, -7.77252448060288, -43.07763539601601, -2.1551102812370213, 42.2272611908714], [28.91147388103616, 6.905625429114451, -45.577764711684324, 24.612156909898808, 26.145328053917986, -27.54919560903155, -33.96224642878209, 29.605330756280214], [7.962580384011276, 13.86006422117953, -42.21198283254712, -30.60388174024755, -49.47037730236922, 26.279705531172507, 15.231579554613411, -13.899000750925605], [15.89970695807938, -3.986577738582468, 10.934678324521899, -43.054988278714404, 12.35122958679623, -37.364389208232836, -2.037172109426326, 4.114175240471733], [-48.502161525574834, 14.31665375763865, 38.407990345749816, -8.804334504256476, 7.0871222109222245, 0.2254226274184421, -77.42549734935882, -28.86767824673859], [-7.737780638565454, 20.066638319512343, 16.51626772396661, 4.581853005056538, 49.77116602374981, 4.36085774282383, -44.59130059353479, -24.928857780273436], [-41.62358175259347, -16.99777163192053, 14.390647051999473, 26.81735124012381, -8.900500994701753, 5.820917821625579, -0.6300381194266473, -29.97537846507184]], [[-3.404588034533286, -59.74827592405883, 23.38554674276952, -0.06794199471597273, -22.66810540561771, -7.414701499496115, -13.668598704444037, -39.46854829480728, 29.53126599043503, -21.764969247971603], [-30.739851233174903, -39.39622413013779, 48.466978929166224, 10.43185883524388, -8.19538979287175, 3.7399831796874525, -60.42865740428754, -15.133350354524495, 5.5335359975346705, 25.74717248715307], [-2.188299017679638, -47.94352673622121, -74.58204686327925, -3.8797913885490223, 1.735154369030096, -32.83166227046882, 14.058384969535489, 58.173416519994646, -21.4238332734467, -71.38268331144316], [7.273795186580826, 10.57319157215675, -78.77771563545002, 10.833050498075362, 6.335389551338883, 7.590967536633711, 23.5858091890949, -9.122763551975394, 14.166909051115343, -0.8311368347608363], [45.317571536798944, -14.765747797543177, -1.6387135829395794, 60.20409109763193, -36.120790994154845, -3.0589867174469743, -21.17135994295541, -46.67418899687304, 15.470177196517774, 2.132773980678338], [21.74137004749332, -4.33816577235617, -26.627550080537265, 41.438872110067095, -23.227091220804887, 29.726922545815658, 10.604555253193473, 25.61856878770161, 31.249696298535618, 32.509071692974864], [-4.4101427230693515, 30.869647133253928, 67.77951060372231, 11.321301046262802, 27.560012788824256, 30.18300512164753, 22.424616871869954, -9.31711641113793, -44.946326956822844, 20.06771478028356], [-5.612399382543028, -14.191763242572582, -20.787014665979616, -11.18168904075961, 16.49871728257124, -40.998461830624784, 7.9492563759515855, -5.965490588728128, 28.18173274849245, 2.114492830365156], [6.789008440973562, 19.84209156068187, 13.825331992509971, -25.413870628275856, -12.110363713961297, -38.68671910500719, 43.4700784732995, 78.75578957340629, 17.014285346422554, -11.101261483629099], [50.91367769132604, 5.344586591246962, 36.820122717025356, 13.637099006152745, 30.577193959836222, 18.86938094153332, 8.381384091595306, -10.378488223313758, -35.665603054204624, 0.31735398265680526]], [[-3.9565617987331585, -39.232539025765945, -4.899506178377661, 75.49838220690525, -22.047511245958965, 47.52273402623056, 41.5832542941022, -10.623186475397347, 0.15430771486405503, -11.589172794237706], [1.5831681970142029, -26.663052272900764, -7.840366412184284, -0.35594556300040403, -3.2917301369850116, -7.027419694209784, 13.028255525001262, 26.561659703000874, 51.70178304882361, 2.8364449398331404]]], "bias": [[[-25.181548269003898], [2.1578773462313157], [-44.18694937112691], [-34.11920833091553], [33.309172694819665], [-3.5114931332007133], [-2.5978281979307436], [28.327334084261], [5.331312875156979], [-2.7895884695009503]], [[-12.330245120143625], [24.83852460143384], [-20.006701029307898], [14.249886671062999], [34.53241128760344], [-41.255086203059996], [51.616913242915594], [-26.564373616718857], [-40.33141841878618], [-11.689887168305944]], [[-32.34644118927335], [-22.066815694742115]]]}, {"weights": [[[-12.537964908038907, 19.57082737656162, 17.42012792023557, -9.347174727391918, 27.09448857013515, 3.1810225555892826, -11.505859227573055, -23.38181998251221], [-18.738963202905662, 16.02435793106303, -20.705779878704263, -43.269235448598934, -31.15942260286448, 19.495119521200404, 25.848484366237706, -1.7627079686742273], [-0.5173307055220923, -83.14954299359914, 1.4303910823870454, 56.9067183563711, -0.8583291834092901, -3.3424650777651834, -4.707608700239157, 56.67015302261832], [7.292043615683487, 30.496014827397108, -46.886032528970844, -41.129464943254824, -4.414171800662063, -40.84834105390934, 3.2464181237214156, 42.72460051566451], [29.645584556465693, 10.012132785754599, -44.50145438099373, 18.407719296945924, 19.483755247326666, -26.139607243418265, -35.67652687281317, 24.571851308847695], [11.84402011279627, 8.808663034942386, -45.3510604267752, -25.987523698909115, -53.02211611102917, 23.319429921863826, 21.9868103933631, -16.322641276566785], [20.168381922351404, -5.487141095204246, 1.19888255608124, -47.7775253930785, 18.368061064906588, -31.08547357361348, 1.0656419351339859, 9.705400302325598], [-51.55096947503838, 19.784954441380847, 42.35994264642526, 3.8227374241478786, 5.8144617366774165, -0.9027245518308463, -76.4276587014748, -29.47139277724979], [-8.640091576488922, 18.997709490093605, 10.554841694743658, 8.63278182694825, 41.652352303518704, -0.8105419573930308, -43.49549634935753, -28.174668032369425], [-44.4734479880131, -20.104971915762107, 14.389980957719153, 23.34081513197763, -11.13683051626856, 3.9737464913147376, 6.777883269419377, -35.08597615686315]], [[0.595285085124047, -54.01000660259534, 30.411811087173376, -0.08389501004407368, -18.745511463884025, -9.251375464107841, -7.037021652480299, -30.844454903243737, 33.545968091222406, -23.959749727378984], [-31.065687782160595, -33.40555310976557, 48.59833708474947, 11.394494988365897, 8.562849800988939, 2.8894026917865125, -62.157414620674935, -10.171242451588178, 6.6348128167395295, 16.508113444392677], [-1.0887139140315851, -48.54652491507456, -77.39258678892776, -5.157175510600553, 6.886474274578471, -32.5517449802979, 15.297124039168908, 66.3248906868093, -23.03736304287277, -67.11153184374987], [4.151153069372849, 4.4663992512472515, -75.53265183107365, 14.263186591664741, 10.405397956416603, 8.827932119503894, 26.32380416542001, -11.848625998470354, 12.851607826162121, -1.5056747251082396], [43.81977465738359, -17.347528706165726, 7.001387205893185, 56.43920221740352, -20.96306027319825, -16.180018579740935, -8.126871662831265, -36.2681518332078, 20.081658831873803, -5.417622480262351], [15.591212940169724, -3.8024213097603203, -35.303691152447094, 41.171145082743024, -20.436249679997882, 31.00047087010286, 12.790778353261405, 13.341787910811584, 37.102314337952414, 29.957830727529878], [1.1498923248372905, 37.311665989678595, 69.37267696827223, 11.489789817142427, 27.1222384824446, 34.2308224486963, 12.294659377414929, -9.467554399327877, -40.98916309812936, 13.727748321175493], [-4.353623373120764, -12.280338773690149, -16.709842466709638, -12.27033421772718, 15.417734711154932, -41.67965483592775, 12.809956006486235, -4.979878066286669, 31.142068465355322, -1.6051739294907692], [3.1294572173756903, 22.851042686684288, 10.647127459412452, -28.340889316003686, -5.848015627263685, -40.74894773620199, 47.05956615157694, 72.39940896966992, 16.91776669416188, -16.723402856930836], [49.73125455530682, 5.827981094518661, 38.16137188972554, 15.445169702123817, 29.75794872647165, 19.20371153511162, 8.361155673593062, -5.31584797179066, -37.7493399634884, 1.0711110803948367]], [[-4.0259712449098, -41.935682204581, -13.987369260991759, 69.70898457253399, -13.198307339606316, 37.36391951080725, 45.91426234260886, -7.044694012184414, 4.544526873773021, -7.221475746927019], [2.555968026194148, -27.18652480155563, -12.072239260805368, 2.6549747368131085, -7.387845691168159, -3.207938212560662, 14.657486031343018, 25.182099593091788, 50.3044556645379, 2.7309553059761593]]], "bias": [[[-23.27427922846619], [8.027167594308317], [-48.229169278273275], [-21.35368449129426], [28.336472179351148], [-1.360012370847792], [8.55318614703214], [31.780755000437022], [-2.5209681479062573], [-1.7708746387798466]], [[-22.555519753080528], [18.923466946559884], [-33.27218591424226], [7.8405371327462765], [30.765058712314712], [-39.796743141358995], [51.03590628957378], [-31.289235516158943], [-37.12567654524425], [-13.378114156506339]], [[-31.143392509127217], [-23.086148469397887]]]}, {"weights": [[[-11.270231311857696, 17.763811138710963, 17.765991929309546, -7.838196971002521, 29.20010922771119, -1.3050972605654922, -14.74179117257913, -25.75694521275358], [-15.642061720141472, 19.875804404668802, -20.13023081501935, -43.96227236082908, -31.540073495733886, 21.200326472463345, 25.477090446091566, 0.4415461640592496], [-1.0416899044513632, -83.7793930484826, -0.2644846840542985, 55.50628935940195, -1.14021848458477, -4.301507834517703, -4.707608700239157, 56.563178580612885], [11.204114342639498, 30.153364721965737, -42.19798489307301, -31.68988234471272, -1.9333796171933453, -43.537555647208094, -4.437566293588501, 40.760843249222674], [28.672938024709847, 9.501535059543553, -48.92967347321217, 20.4886870052901, 20.078865390895768, -24.207667268444027, -33.400787627897685, 23.302898894370273], [10.418363507822237, 5.999539692775418, -46.040211977847086, -25.957180987610304, -54.65210168016179, 23.349616229577396, 23.708103407926796, -16.921072934559632], [22.24639118904173, -6.2163412275624275, 1.4649587272704057, -47.794080793808, 15.761278973122943, -31.231199840514275, 1.8648909765514865, 10.682243342406402], [-51.38848088771474, 19.276815150800505, 41.88417192704971, 3.46697900299095, 4.531473513237758, -0.58312941068153, -77.29421078402456, -30.234282419101277], [-13.947743447585246, 19.208907901040984, 21.192744859323334, 5.623858531043324, 49.14292091760898, 4.395821618193402, -49.39104369279119, -23.64341811916283], [-42.58348896924242, -4.674598488499937, 1.4110886412123442, 18.6636668165647, -2.2521503024506684, -3.7879528386056673, -6.859335658726003, -26.722872115239113]], [[4.938268135570983, -41.81808484138417, 16.628540060608213, 5.379977914098349, -31.409124694173613, -5.023649544020925, 3.7548736464006334, -46.69395215854666, 19.5260613260901, -24.52188547107729], [-35.25747166749344, -29.037923268440785, 51.976470518466726, 3.094234038160148, 3.1678613232663073, 0.6839412636807245, -63.91355502197204, -15.61301979461287, 1.6626941011486358, 24.2693635575869], [0.49742722236624237, -50.833167337642635, -77.91720250628765, -5.733080244961034, 5.7441677549337555, -31.599849106396775, 15.864900742249395, 65.14476169410486, -19.28035324496418, -65.72990194064049], [2.865123975545825, 5.52896370769205, -73.14538826988829, 9.595227075383299, 10.0593419479892, 5.378802952422745, 22.65404648731636, -14.043105954620708, 14.798564202083462, -0.950173812436268], [43.03040652322176, -15.981365491607749, 7.296731562805176, 59.41570617945383, -27.288043163525803, -16.86040361962477, -10.80842660506566, -35.59383351542594, 16.787306247919616, -4.622921235014701], [16.917163322664518, -2.7842368191885156, -37.917533402360306, 41.19602507039481, -19.189270374412967, 31.24309832367311, 14.070490588438394, 13.54197989042985, 38.310112911875244, 29.332136893684698], [-3.4273158796105947, 36.29984547768937, 70.40996767410714, 11.391092264384802, 27.930043134659538, 35.41947724943719, 12.059767253884754, -9.467554399327877, -40.99158740773019, 14.88315722264265], [-5.926570885397446, -12.504362084642906, -16.552119552034267, -12.413833804354033, 16.54697964816732, -42.28243805187348, 13.27228616685096, -6.828804599282995, 29.43422306460708, -2.174251271997722], [2.232200658298656, 19.50801496176952, 17.07697519107531, -21.76538792284684, -11.627010177782804, -42.16531047867449, 40.74450613080071, 75.82926922896102, 23.161125236451003, -15.662605379179812], [40.53055964483045, 3.067030167415425, 42.46956591672386, 18.784709052105455, 33.37763985904541, 33.07016548858621, 20.809548989634795, -9.658675433614365, -27.443916024678206, 0.639844634425464]], [[-5.41949203553515, -46.33942769293854, -5.205638918201368, 70.64915364892957, -7.715792832573596, 40.637490742929906, 39.34249076387987, -6.093014522683395, -1.1410334217799785, -12.04147290074154], [1.3163922523939005, -27.584500808605053, -0.16923435124124486, 6.6664884556681026, -13.225319535508685, 0.49274874127432894, 15.86874144012839, 24.069131328865442, 55.73979896253289, 1.1708744432324498]]], "bias": [[[-24.73692850346325], [18.795584009373798], [-49.97937233032973], [-34.78873991902929], [36.05941645476771], [-6.246331750039567], [-1.2435833545769848], [24.63614612588914], [4.50499511803674], [-21.82638491579229]], [[-8.117664089949464], [16.440114047023435], [-21.433730352338205], [15.062723986096952], [29.02472938713317], [-46.91959503307893], [47.24673379293686], [-28.17265851725596], [-36.42443573021072], [-7.235141318321688]], [[-33.085999894516505], [-26.92448730102094]]]}, {"weights": [[[-12.797866591557783, 15.80544856971159, 16.75840416990677, -9.180986783001464, 30.18330956763908, 0.29692592362191705, -11.319784471685482, -21.059107703712126], [-15.222606362447756, 16.771491236405225, -20.13023081501935, -41.44302204133878, -31.670975438243037, 19.325013323234757, 24.673838902642338, 0.8934402100395815], [-0.5185875417692762, -81.19298864172535, -0.2644846840542985, 57.05037030787969, -0.954990473640939, -2.2260552063915826, -4.878098438347269, 57.138090674630405], [11.204114342639498, 32.25688310277165, -42.85566146824333, -31.68988234471272, -2.4373398835343263, -42.6651358715966, -4.217672168123282, 42.093484258085304], [25.532923105737737, 8.519480646333468, -48.42035139733288, 18.972382100384742, 17.71209489329467, -23.010660732945837, -32.33862180870412, 22.760412948159285], [6.3743638036256955, 9.451871120824329, -43.03525448936063, -24.578246379135695, -46.925828062703374, 24.762597112940163, 26.329885695291217, -13.108876586302294], [13.16152539923535, -0.6062260719171186, 9.02300928698911, -43.16464605804618, 16.513908210615277, -35.82322324536612, -3.1124999743255426, 5.774783785567658], [-47.814633457753, 11.937259195984657, 42.192218622862235, -4.930106099994706, 6.011912825385948, 1.750659574082609, -79.96828368101706, -27.42461010986206], [-8.714424661542056, 20.37116779534823, 12.565636607196799, 8.63278182694825, 41.652352303518704, -0.7687566959596617, -43.62381177357591, -26.48715996260088], [-44.10094720262368, -20.47665227977275, 15.473775076709146, 25.396878079863153, -11.13683051626856, 2.6169585264240958, 7.223301324328421, -35.59553463495437]], [[-0.5640427280025683, -52.59564924547708, 28.400719061159187, -0.016639283593251397, -16.840131172886565, -8.335554312470986, -6.74873503454756, -32.7479092452502, 33.116906156985834, -22.443928586873028], [-30.98014845033489, -33.746289223160396, 49.12270838937302, 11.456674755470138, 4.540528496842842, 3.4590977690864557, -63.10096480804513, -10.171242451588178, 9.426286258161927, 17.29241963672742], [-1.7399134407306605, -49.32541250609611, -77.39258678892776, -5.157175510600553, 6.886474274578471, -32.5517449802979, 16.46442194814561, 66.3248906868093, -23.03736304287277, -68.27328981148185], [4.930956983077911, 4.4663992512472515, -75.00921305917223, 14.997896113485389, 9.877871345461175, 8.827932119503894, 26.32380416542001, -11.44331286486544, 13.32370790297458, -1.8570557909425611], [43.670570055489854, -17.347528706165726, 6.861034038316239, 57.15562098280749, -20.96306027319825, -16.056812807581526, -9.638185085035818, -37.635461914486456, 19.72865374706365, -5.417622480262351], [15.38438389241383, -1.9442685271152031, -37.71195211143611, 40.715608141653675, -20.436249679997882, 33.240613449268686, 12.790778353261405, 13.341787910811584, 35.10363579258125, 30.923425676096514], [1.6966744698380514, 37.311665989678595, 69.37267696827223, 11.489789817142427, 28.030237647004935, 34.31483452440191, 11.792524646778201, -9.467554399327877, -40.98916309812936, 15.69761901082739], [-4.87463624960345, -11.90095979887043, -16.709842466709638, -12.27033421772718, 16.2975518057363, -42.28243805187348, 12.602992556849946, -4.787226963638656, 30.264149022598676, -1.6051739294907692], [4.155605405188696, 22.88173022852508, 12.263432512902522, -26.57575490199224, -5.848015627263685, -39.076905330664566, 45.38797045518273, 73.30478549463385, 16.64622611331751, -16.723402856930836], [50.20031494201971, 5.827981094518661, 36.056064285507965, 14.725686135122553, 28.515733141254163, 19.20371153511162, 8.361155673593062, -7.061286517565613, -37.66265334446282, 2.079171448494408]], [[-3.2699486151479347, -41.73543730993547, -13.987369260991759, 69.70898457253399, -13.198307339606316, 36.50140316038305, 45.91426234260886, -6.118705268529347, 3.25678727563842, -7.221475746927019], [1.5631834018988908, -24.978584798114323, -12.056677593688923, 2.1965007196602655, -7.387845691168159, -3.207938212560662, 14.960032367543947, 25.578721565978032, 51.35945542712271, 0.7319059231868112]]], "bias": [[[-20.225110497347206], [7.257376036819428], [-50.20072655178207], [-34.846450301367554], [28.336472179351148], [-0.5059119519496051], [7.698056266027949], [32.624628216430274], [-1.9900159045366217], [-2.46809463176925]], [[-15.68488191317947], [20.100799195326317], [-22.079539843082195], [18.874419076945564], [24.161635431269644], [-46.3274615905989], [50.85247985009852], [-30.531919615877538], [-37.12567654524425], [-12.093045624067143]], [[-33.085999894516505], [-23.502922933853405]]]}, {"weights": [[[-12.537964908038907, 17.702028647417436, 17.567078556490493, -7.880473168317487, 27.081084855940475, 1.7125776284037375, -11.595037503100405, -22.806865720793645], [-17.033117095277287, 15.80536312256644, -21.19118641418001, -43.269235448598934, -31.825570238683415, 20.822482464867512, 25.848484366237706, -0.38674906287889876], [-0.5185875417692762, -82.61945909913292, 0.8721139042749064, 56.9067183563711, -2.1423791924675695, -4.332556300671976, -4.707608700239157, 56.67015302261832], [7.292043615683487, 31.191968498780145, -45.45531492788151, -42.24069105542416, -5.338730636542417, -40.19300695745699, 2.8559798590400876, 42.31582598165984], [30.16781511268905, 9.810600836527037, -44.86330798545676, 18.644396171149992, 20.40375630862143, -25.427432072381766, -35.67652687281317, 24.5130231050098], [11.292771853932873, 8.668198935161886, -45.3510604267752, -26.991532962057384, -50.67088784927341, 23.157333621963144, 23.806988944286804, -16.322641276566785], [20.168381922351404, -3.386634038896715, 1.19888255608124, -47.7775253930785, 18.368061064906588, -31.13698282079586, 1.0656419351339859, 9.705400302325598], [-51.24511768431306, 21.613394534326627, 41.824452895343896, 4.023230665264476, 6.55479464180046, -0.9027245518308463, -76.4276587014748, -29.47139277724979], [-6.575274202172649, 19.24553432599306, 7.975087249297493, 9.744908991152682, 42.90101699283113, 3.2744071535850985, -45.950068241997805, -25.29345420709518], [-46.37592567353217, -18.617073048292507, 14.585254352626468, 25.471413572922977, -12.406205747465542, 4.814101472164576, 4.596803228317255, -32.1610434114132]], [[-1.4632837533117309, -50.850686287736416, 28.722962099407788, 3.511752529458265, -23.263936521581766, -9.523844641039883, -13.922861535433212, -34.62121435571428, 37.03832461192176, -24.108466593630382], [-31.065687782160595, -33.40555310976557, 48.68366926020977, 11.816041197277851, 6.697046218324751, 2.369547297634947, -62.813097316375625, -10.171242451588178, 6.6348128167395295, 15.776939150041482], [-3.2007750026208495, -47.287358729594, -71.71149862383604, -5.336926845267957, 7.379326905785456, -34.19848422873346, 14.782027123633702, 61.487704363583866, -18.808251094822314, -67.90854073140395], [-0.3827209258431663, 9.873944789192336, -75.65894187140108, 16.85892543923863, 9.782679686577884, 8.288733676328508, 26.596777472816406, -7.929503356738103, 11.233188416394965, 0.6250112715599525], [40.77089812934269, -11.523152969288056, 16.57053525920235, 62.90762195241943, -31.306101024678675, -9.473479183069536, -23.485527091580956, -48.838032214235874, 11.585804874260493, -5.097305762361425], [19.246678342493706, -5.955252639485914, -42.633900937153584, 38.88666955267194, -23.76692766601387, 30.75406834024945, 17.533687049280953, 10.156905770936259, 39.68051817731755, 27.877297771995217], [-0.32496426603887174, 39.12551930768826, 68.0974792013886, 10.998840879697111, 30.983982415403435, 33.37085158675663, 17.830030154960827, -13.981499175397765, -39.54959399883705, 18.86768257341428], [-9.225373532404467, -15.24403336400233, -22.59421682603819, -12.527401622139443, 12.57978505924402, -47.354127199190316, 11.719037441049018, -6.745760528505211, 32.22476152429312, 0.1753128381245162], [4.118426622073124, 23.40443887396812, 14.391888416532598, -24.959273137813597, -7.460992225935668, -40.8388075907111, 47.6952777108347, 75.33354842221532, 16.006231462195338, -14.184925727037886], [53.407938639188075, 4.685569010904427, 37.63566018633897, 13.135180972101395, 29.409366927292698, 18.767623449143652, 13.09408556576488, -6.097012899565261, -37.38906230332756, 2.847805368108088]], [[-5.041496330406088, -46.33942769293854, -5.205638918201368, 69.88118551996426, -9.888753060055658, 43.506147775170454, 38.31302653621906, -6.131099282376008, 0.35248818844104, -10.251283915369843], [1.9033455944034898, -25.674720696649203, -11.152654030836935, 3.2968073032879928, -5.946087379956751, -3.9131957880396726, 13.031029007313979, 26.35385559286768, 48.12431523533851, 1.811196338945701]]], "bias": [[[-23.797111705635743], [19.55229490764547], [-48.50941415679197], [-34.24585656526502], [30.727671411581063], [-4.722904425831718], [-4.109093980259907], [29.061704803191542], [1.4450832124586408], [-1.7257258555774633]], [[-8.448586729905918], [16.549308162651524], [-20.61937589261528], [15.339042687019191], [31.071166776503865], [-44.849218699698014], [50.17819583844138], [-25.469771002166645], [-37.687467825379905], [-11.547199008586261]], [[-31.143392509127217], [-23.003070328913044]]]}, {"weights": [[[-1.6035537321395492, 22.083522687599555, 18.387527800421623, -10.006331721885497, 29.165640534242826, 1.0246858026363572, -21.278999901413833, -23.099582463384603], [-21.801279714931066, 14.803496539534002, -22.09539051648618, -47.44327566202276, -35.94940163690284, 29.100760806456645, 27.208346080858647, 2.090183087313676], [-1.0334826391153054, -65.18771780022297, 0.7001129317926786, 51.132512333070466, -1.242935089474865, -2.4105893814298196, 12.753878329413254, 59.464968053517616], [6.459762954092673, 32.4336386603976, -46.08894593043422, -29.33429733613202, -4.056123730589088, -40.96314436157274, -6.0276208160983185, 37.05139165701604], [24.88312703939167, 8.519480646333468, -48.83504243249435, 19.193485616020958, 17.71209489329467, -23.129267813517465, -32.33862180870412, 22.46738454961122], [6.318795345871794, 10.150760519918853, -42.18957588009925, -24.233593623230743, -47.2636544008887, 24.762597112940163, 27.591339577615408, -13.1285354907239], [13.16152539923535, -0.4554912768344037, 9.02300928698911, -43.16464605804618, 16.982822664721127, -36.214487325234096, -3.2638392298121235, 5.505836211130007], [-50.05180519547587, 11.937259195984657, 41.18054981287189, -6.212042565449556, 7.259279950180004, 3.520736191534185, -80.6618556826818, -26.596229742222487], [-7.520324915615943, 18.997709490093605, 11.11617866437329, 9.130359752365482, 43.10534926434887, -0.8105419573930308, -43.62381177357591, -25.606564770373886], [-44.4734479880131, -19.38100676093677, 14.389980957719153, 25.96533081808206, -11.13683051626856, 3.9737464913147376, 6.489191209922584, -33.90767882678107]], [[5.334612871761012, -41.93332724153303, 13.574918264649051, 7.636453990872248, -36.09346500183858, -8.990348757903726, 4.634779612019855, -41.29418244575821, 23.70503625404802, -15.42030836310889], [-26.955689431884426, -37.13247138132691, 44.73602918256562, 11.948595465048253, -2.016523990143691, 5.236970552257916, -55.29037872161896, -14.906414450897627, 6.492288970775861, 23.987981896307755], [1.5581262001179907, -47.06515826103785, -71.83796568783666, 1.6325337490431613, 5.075480689017759, -30.50010961467172, 13.690835183459095, 68.38990354472118, -16.052101366094487, -66.8479224370539], [-0.23901821365734446, 12.352091329780599, -81.72637369430083, 12.339204850926269, 8.650002788745898, 6.0694050299492135, 22.45042033378842, -4.470783730392099, 15.733773508342825, -1.5291369714536762], [26.940593471237058, -5.766372979089274, 10.980187422034716, 69.18150224214551, -30.286829766590923, -8.018668262991092, -23.224394521923866, -48.37669476420782, 20.2924749650803, -9.955595350492196], [15.325352727825978, -2.0819417108974214, -38.85916312018543, 40.1346069866708, -21.282202624166537, 34.9303244459242, 12.077234106201875, 12.902181262758512, 37.102314337952414, 29.575583261796936], [0.628120955246548, 38.68138131906262, 69.37267696827223, 11.489789817142427, 29.070679071786735, 34.2308224486963, 13.673868020337904, -10.709926714679542, -40.98916309812936, 13.727748321175493], [-3.188025875290185, -11.90095979887043, -15.770557830515756, -12.27033421772718, 16.2975518057363, -43.305837879919245, 13.350324727411966, -4.446683690877826, 30.264149022598676, -1.6475034807583695], [4.155605405188696, 22.8689938746839, 12.263432512902522, -26.57575490199224, -5.848015627263685, -37.511911749538925, 47.05956615157694, 72.39940896966992, 16.274506965860986, -16.723402856930836], [49.73125455530682, 5.456298488518166, 36.056064285507965, 15.37448642049843, 29.76432811439294, 21.231061842513498, 8.361155673593062, -5.307061306089068, -38.33739235169605, 0.2546866332907969]], [[-7.499745301657879, -46.36319170723224, -4.410931694995395, 74.65472151513553, -13.42351086697391, 32.713503035214984, 38.68016666206672, -6.559248896548037, 8.494070827502856, -18.089119599146713], [2.0548326185694, -27.18652480155563, -10.221480134214673, 2.232530522503289, -7.387845691168159, -2.5967343362821773, 14.657486031343018, 26.135869222829104, 50.12913046819325, -1.1484090426805749]]], "bias": [[[-24.268698317315263], [19.172548754532823], [-48.256107568345406], [-33.64641237709923], [28.336472179351148], [0.21784371016607085], [7.698056266027949], [33.0613137266561], [-1.1636836912857391], [-2.6763655340429064]], [[-14.488789259628927], [17.544440031967476], [-32.81068162016799], [6.464832021930691], [30.765058712314712], [-41.67064971918987], [50.382481876515136], [-28.5792367413999], [-37.12567654524425], [-11.534039041799392]], [[-30.24845542074827], [-22.896213937587472]]]}, {"weights": [[[-7.925570100692386, 22.204686890331846, 21.313127938955336, -11.588838517191853, 33.96079634261371, 3.1132375875009344, -14.796121631524404, -24.128016926700468], [-25.791195379735562, 21.92170248804574, -9.297294567197568, -45.36217091392192, -20.618537223756846, 18.171803344483457, 23.878119533851578, -2.2801952062077966], [2.8182265079852225, -69.33953941708786, -5.336468212905839, 47.43845146490044, -2.414519312990925, -2.050859765424298, 5.153438942934631, 35.576760390966214], [14.783639649124654, 20.193203894006203, -49.44484655028745, -31.049826407747073, 3.242725183151787, -41.00055882113128, -5.364981275141183, 31.77269752567872], [29.2666211122463, 6.246251628725112, -48.95177013910154, 15.084410760420088, 18.0322584723014, -23.04080447651785, -34.26502476705743, 24.547247737413322], [11.478515780334385, 5.313683931592594, -47.48737003494611, -28.19017964972639, -56.01838258691971, 21.72670578347089, 22.706953015939558, -18.291828429588463], [19.046454959582885, -6.225913820725037, 0.6529725677362543, -41.89993375923558, 17.278339305570025, -29.849658788608124, 2.521650659396092, 11.620823154405954], [-46.4419712301977, 13.05471347225106, 39.1546395282422, -8.420020491173865, 6.144521002628993, 2.46395654670172, -76.08705641899886, -32.20112985213163], [-15.534828017204402, 18.766042908316756, 25.076526676277012, 5.22023769289241, 46.82277953102559, 4.023238297957716, -48.772379464579565, -23.64341811916283], [-42.21174592169482, -5.385583386908561, 0.6215551149745772, 17.19615379840576, -1.4809204298274588, -3.833290778535383, -5.358493177664154, -24.554911299116476]], [[4.373476810829288, -41.748894069988886, 17.568367952995963, 7.993141737548752, -31.827582843054653, -6.458299005754841, 2.608216189045151, -46.64458896586469, 18.332381537556152, -21.882820537252847], [-27.91425550030749, -40.87156542411432, 56.39704419682285, 15.182014242957832, 11.024610110750524, 10.276655013237187, -59.96763766663846, -14.42595327514016, -2.0566252693520273, 12.112953483530552], [-1.5517884304580631, -47.9227526049972, -79.02433053515949, -3.6508166993478497, 1.7587782861357162, -33.37804851474554, 11.812422453949996, 63.799264332537774, -20.912914616232044, -69.26547059869137], [2.0184045798762664, 9.042277265576107, -77.20253924668994, 21.166162672942466, 11.56636408652961, 10.08383233407082, 21.207701183253096, -7.457265400194455, 11.673811005037477, -3.2789944668130593], [41.29088861983217, -14.452485849616231, 18.620744908451407, 65.88418463714942, -30.485445816338565, -5.304825375300708, -22.99205350289151, -50.11801068060648, 13.422619306478772, -7.1397437399324035], [18.209069691867594, -1.8135626572914862, -44.21074066713719, 39.41171559810801, -21.67928074285498, 29.63236248110602, 13.052686871235101, 12.960140703007482, 36.058888261968946, 29.925635442029552], [3.01384476767444, 36.709352994084405, 67.98825532721426, 11.948838712846376, 28.05652049340048, 34.008554828106504, 12.978150062964183, -9.123556857694002, -42.82750597458519, 15.55941073109948], [-6.628845105481612, -14.567959552734601, -20.54849327390651, -13.917895817259168, 14.802717705697063, -40.21768131616755, 12.776189206100515, -7.115951648562408, 29.396057903538537, 0.9116047589806568], [4.233466951714612, 21.33777971978499, 13.29891059152474, -25.36883003923623, -7.861605449012117, -35.248321180487345, 48.1521663611462, 77.18948011006749, 17.070524613925087, -14.362198451513251], [40.859499690815014, 4.726573770261696, 39.58741493354407, 18.784709052105455, 31.476838768593264, 28.98596078421377, 21.0370405024455, -8.446899000191998, -24.974618260162504, 0.9259613446286252]], [[-3.703463878353605, -45.969100176928244, -4.4655995443141965, 73.50292093759538, -9.467475145138648, 40.219282086455124, 41.42066012860197, -5.630551708875272, -3.4629581561436873, -12.885807361601072], [2.6219045846401787, -26.3436669728451, -0.13285597430243096, 5.400214400488487, -12.92634012967476, 1.1974422098596322, 14.936561361666394, 24.510015741842228, 56.840398066811595, 5.325949637406204]]], "bias": [[[-23.797111705635743], [19.27891975949182], [-47.7003057609925], [-33.648655153067715], [33.08594476533619], [-4.409044197022775], [-2.76820031855378], [25.55561485534438], [4.117236692698368], [-21.822013860916268]], [[-27.025519390249258], [16.549308162651524], [-21.433730352338205], [15.339042687019191], [28.790947174753178], [-43.89530809233084], [49.987781005980466], [-31.9850969781355], [-38.82625686613109], [-8.08398807173531]], [[-35.0157929329521], [-27.98145114775505]]]}, {"weights": [[[-15.975210278190294, 17.926675357171924, 12.007255193087978, -8.263707998877605, 31.863413988333484, 2.3193019716259027, -11.076675274060024, -16.030740115335913], [-23.454486513464676, 22.627825243075662, -7.326030253421612, -46.4479675191483, -21.891025089376488, 18.95107517745974, 26.635136655266837, -0.10941957303333938], [-0.8950535908290423, -77.65671919796222, -1.7413678342161965, 57.05288093950136, -1.6686105960389062, -2.6461136402178576, -4.177908289850413, 56.32201300064912], [11.478352177679469, 33.06457713287935, -41.595075597292066, -31.278343227504955, -2.2784540392796666, -39.17596167235162, -5.77481403788055, 38.24875084487097], [28.377726734342215, 7.883433620401544, -47.5444679954135, 15.435169082364341, 20.201445015569583, -25.783524969759867, -34.53401929457033, 23.921608662763976], [9.084163956832029, 11.11003317043782, -46.50057104906322, -28.847218668388994, -53.450799102409235, 27.022805665671576, 15.316044523256533, -17.746623144982262], [15.49091124865819, -2.696953102798585, 9.338375945713157, -44.93109725608464, 17.734776689355193, -30.268075198726493, -3.228810243932032, 1.7907460212900483], [-43.54955980833355, 15.904022602929036, 38.90952531521708, -6.207779309549648, 8.72693087802906, 0.5860834887190645, -80.10842445684092, -32.47582555105661], [-5.638039709217119, 24.238610572883783, 13.651371727189057, 5.260832365410778, 49.06988310386091, 7.796530197362806, -54.525578834897644, -27.191875923829993], [-44.85758835736164, -4.772466459434081, 1.1318204933432179, 14.641234574290594, -5.670570205644262, -0.6854763592619375, -2.5200057670938376, -28.62497162632407]], [[2.456467591759224, -45.04558977713671, 11.183259078780214, 7.449130333947682, -33.52239856883925, -8.810018564777273, 4.369534341012594, -40.144033687301636, 22.447105866775296, -13.793480759185114], [-25.903940060797698, -36.16983031949432, 45.310888066879265, 11.875747430778677, -1.580263393216483, 5.692119261914373, -55.29037872161896, -16.578939375881003, 6.355905054750305, 23.562750259329903], [-5.165555190063212, -55.53096099224244, -73.94212729090485, -4.69930539244324, 4.023046300384372, -30.61564238816779, 15.58510031459636, 61.25583613387399, -20.19268860510314, -70.69644069789082], [6.722067249060592, 16.789155066839946, -69.89104905469152, 10.328563291723489, -1.5821593106719587, 2.1977077744844755, 29.436949444889418, -9.897803457659846, 4.009206316568653, -4.64446290064591], [37.53990318651613, -11.523152969288056, 21.14678329697436, 65.06709830021454, -33.13027337410829, -9.930621557813739, -23.202070553440773, -51.846808561934665, 14.412130454603131, -6.556415269230071], [16.393631325309922, -2.6497820323682624, -36.36249907864073, 42.787325322539914, -15.06437307928291, 30.35434833068005, 17.69587031028777, 13.935809163994668, 38.01138991797457, 29.354111443013473], [1.4191217368891524, 38.90865225439239, 68.00745276955487, 6.684016010350352, 32.80483342916734, 37.29408449137324, 9.83906901838599, -8.812651580166548, -39.16863796745461, 16.02335177217606], [-14.716932249193977, -30.838121457239954, -12.133876639618231, -10.497501568082402, 12.847152444124493, -51.81019807736563, 11.721159286761017, -12.404616462967523, 30.206934224313823, 3.1335447428557215], [13.41402803093138, 23.863098681171653, 25.59008018871827, -28.581802062532976, -25.300416030502266, -32.55744510300107, 45.544329000651985, 71.43449407202965, 26.61077079661687, -14.83832821113674], [36.37256467724218, 1.7993690890203151, 43.668824546615504, 18.459395932606014, 34.49072149179032, 20.360906010046946, 17.392604549819985, -7.986943926603925, -25.736197269476687, 1.6459514514151588]], [[-6.689982060135168, -44.523485889908734, -7.0819947046456235, 76.60771892289125, -12.45817137565369, 28.459672136154893, 40.97313824678157, -7.610003080371294, 7.683137448415184, -14.746938694846717], [3.6980397951656316, -28.733046962037317, -0.2014266128535982, 6.864315049275755, -8.665965693190874, 4.937373806889353, 15.529061526741277, 28.432407099279345, 52.812028406821085, -2.530825027965015]]], "bias": [[[-29.718405296194685], [18.50959047191686], [-48.41522267171712], [-25.231340814416317], [35.555848954493406], [15.316684491380407], [-0.6888135983154822], [29.04739772093591], [-0.599885566412754], [-18.452749579912606]], [[-8.800224124021891], [13.807715317707444], [-21.354979248579376], [8.94773214396972], [34.76974114098456], [-39.201906954677725], [41.94033856864636], [-26.42860749815087], [-37.42726812803432], [-5.877090879505063]], [[-62.374889132481336], [-26.94302248063679]]]}, {"weights": [[[-12.669759499801215, 16.64248680904467, 17.567078556490493, -9.784342573005455, 27.910434181538637, 0.5285385812473062, -10.883536323074956, -21.369774722656842], [-17.166934986242822, 15.80536312256644, -21.19118641418001, -43.269235448598934, -31.15942260286448, 20.424382223887854, 25.848484366237706, -0.4730159097002479], [1.1132039646518925, -80.96313901328033, 0.8721139042749064, 56.9067183563711, -2.569571127668637, -3.894402980679045, -4.707608700239157, 56.67015302261832], [8.233752618169706, 30.40545313054078, -45.659388253291404, -41.56397800948168, -5.338730636542417, -39.231659284828716, 3.2464181237214156, 44.425303183161446], [29.567330700936633, 10.248164728135453, -44.87471503946679, 19.701508384292087, 21.093530724481333, -26.139607243418265, -35.18704518631621, 24.74881207685688], [9.697442726943917, 8.6385922371453, -45.3510604267752, -25.987523698909115, -52.615972566804736, 23.157333621963144, 21.902306139223857, -16.253033262597945], [20.168381922351404, -4.892804067401892, 1.19888255608124, -46.534870565078386, 18.903899049682387, -31.13698282079586, 2.4948512794470874, 9.705400302325598], [-49.52100155281877, 12.742543051789509, 42.630716943116404, -12.119096643696631, 5.611544849880632, 3.4914924179623936, -79.07199372802266, -26.523654265921213], [-8.704255436690863, 21.98594095007893, 9.227288366993092, 8.896655436648329, 42.505414612923545, 0.537761553640185, -44.47278983669568, -28.49213189615317], [-36.4800000854047, -9.088289509936255, 1.172742083672371, 10.505846246917566, -3.961401703164239, 0.5731805850375015, -8.519099103814655, -31.860974917607344]], [[0.3159078047415753, -52.5042412451481, 29.780339510105847, -0.6884860057054445, -18.253748635198768, -9.153331873502479, -8.244418644168755, -30.844454903243737, 32.64590861373448, -23.109926784102566], [-31.065687782160595, -33.17834430478743, 49.12270838937302, 11.551086015957498, 6.657740286379619, 2.8894026917865125, -62.06255627422842, -10.005637640690624, 6.6348128167395295, 17.811908202522115], [-3.2007750026208495, -47.77227985831386, -72.42680491600314, -5.336926845267957, 7.379326905785456, -31.90989338596375, 14.782027123633702, 62.371638327218164, -17.71211956525635, -68.35290004989987], [-0.3827209258431663, 10.54110632643866, -76.65141861971341, 15.961885094981985, 9.782679686577884, 9.354072616728104, 26.596777472816406, -8.893087171302954, 10.351934504840663, -3.004773092680225], [37.067569066002186, -12.525218294150957, 17.064177058764983, 64.13719549395644, -31.306101024678675, -8.894212726985137, -23.485527091580956, -48.76230557136744, 9.69093244138156, -5.097305762361425], [19.246678342493706, -4.9025721300641445, -42.633900937153584, 38.88666955267194, -23.76692766601387, 30.75406834024945, 18.53328921423678, 9.494166394608959, 39.64453264394963, 31.21161046245193], [-0.47008647768526224, 38.255277221952554, 69.32791065485914, 9.242740064081438, 28.812779922113897, 36.72710334507317, 10.487901365472563, -16.894330420818033, -37.3704345937731, 17.34498161209094], [-4.981727525349433, -13.387632614719486, -17.769508247216947, -12.507525875264786, 18.636595494687224, -36.413675904477095, 10.313124352260132, -3.4962220958531285, 30.382163482571453, 0.22958298440791647], [5.776868819335037, 14.681721393605887, 13.730724694237924, -21.404533502058655, -12.823875128344508, -39.79143933311358, 45.224523642360666, 79.71162811768701, 20.46176395130197, -9.08779690781995], [38.80144471637439, 2.3531288815340226, 43.47300541016282, 13.172928283443449, 40.35462909030924, 19.44318189694005, 12.170730196290155, -8.412370662626854, -24.947701501158452, -6.697667929940181]], [[-8.040504202967986, -47.11939390910387, -6.549535030091867, 75.58432269618075, -2.5698520246690393, 47.4710257546961, 41.832321665513504, -2.040024918653285, -0.2659719625797561, -13.11349569253192], [4.564985622986807, -21.096452437199957, -8.698195045459796, 2.1533845736794706, -5.9568069689910805, 1.8653137770199373, 14.276787583454034, 26.90440575941527, 51.46010464181889, 2.782221071848877]]], "bias": [[[-23.75072592642094], [3.986064679614794], [-46.76638624737063], [-27.23366969342192], [43.05831904323678], [1.6056216270924581], [0.1730240220840944], [26.65330630067902], [-3.254325101661427], [-12.51875562907147]], [[-23.455676940326352], [24.188327666896498], [-34.09828438818986], [2.291055630442095], [33.53244826061572], [-41.19147478913583], [54.50866149133058], [-27.387568108826745], [-37.196889237504514], [-4.585847443428171]], [[-60.01875188683345], [-29.585547718464614]]]}, {"weights": [[[-17.301059178828332, 17.926675357171924, 11.332776525698774, -7.973864028750955, 34.59458717874727, 1.6826213647278871, -12.939913823953457, -18.827750346888045], [-18.748277158716494, 18.742889127408162, -19.859467384964685, -46.74943560132149, -34.531475317113745, 24.688452528473622, 27.49300541224074, -5.541544066273221], [-2.5561506097224704, -81.52193487469243, -2.6947780657033813, 58.45460670192399, -2.854051903995955, -4.933684805527565, -3.377033354230279, 58.29998427805641], [14.284897386064538, 20.58652512614891, -49.7290578076368, -30.06578586565467, 4.8097299952312955, -36.64911988837764, -2.8072764473945604, 31.000839595863887], [29.205734669337694, 10.643360210814361, -52.04054904071883, 22.71247642803878, 22.270991537570268, -25.058276573337487, -34.508546814258864, 26.925410292521907], [14.220381165995503, 7.285062415200634, -46.621447586889545, -24.17956297394241, -52.6444527231641, 28.057164542495677, 21.327538324478645, -8.424804369655567], [12.627322001936657, -2.246861226244423, 10.826990116874628, -46.65452030661871, 14.685532749975534, -30.589799440380506, 0.003337004582875558, 1.3773544661105912], [-45.45781805854483, 13.24569746875249, 39.11313470274774, -4.871305246482299, 7.433999041603811, 0.6279716193638017, -77.23511292480582, -35.66003603424669], [-8.592343718401326, 25.802385553536613, 17.9714569793926, 5.748720466031914, 49.03235013369798, 7.234631237634926, -51.72430329482883, -30.811225107037338], [-42.65656035601145, -4.505204269818776, 1.462725836517985, 17.162503871278076, -5.3472186589735795, -1.507191358819168, -2.7027399933279463, -24.004233320236764]], [[2.93035154025909, -46.820804864035566, 13.919722365917801, 7.51401988001912, -32.32705546097219, -10.150149917975668, 5.026173614486159, -39.913452398503054, 21.583679463930466, -13.924072938349859], [-26.391630881966297, -38.54617225752084, 44.996283289496674, 12.747124061616342, -2.5325120991758463, 5.038822026487842, -55.461788114339925, -15.480979106028698, 5.22040257953428, 22.569004466975827], [-3.7094792142980206, -54.180826521539075, -73.94212729090485, -5.185804395111166, 3.4258585313348737, -29.6629084450306, 16.222116718828147, 61.372400394506684, -17.89386754632102, -69.36515306959402], [3.5298268642798556, 18.708485994941185, -68.09459638632434, 11.806829799631581, -1.7285747008784704, -0.16053880123433473, 28.235059710927978, -12.183703842506429, 0.6885477835728069, -7.281118141759045], [41.51016810985219, -16.09714132857412, 5.815879571047412, 54.36969706886637, -25.428089139672814, -20.82440932703274, -10.179695917914696, -33.62794262495, 16.47475816238145, -1.296451758069816], [15.99038259421731, -2.8700600089364805, -37.12408694257218, 44.26557501656103, -20.544013131062567, 31.865746446989117, 16.891404486015563, 15.35804357049919, 33.131897647354094, 28.605333016513804], [2.848061801621859, 37.54688977092534, 63.896750388699296, 10.754924280222008, 29.276759872777678, 35.609413576936426, 13.687576488342483, -4.754588404669507, -38.54249566323045, 13.169778577415904], [-3.4760613174796, -11.592855602021027, -20.174906420236592, -11.559750893095476, 14.340073721752246, -40.058948075015465, 11.636848272038167, -5.86138116581909, 30.676815683261072, 0.29752458517624913], [9.673830164025253, 23.5746646110771, 24.845552616367826, -25.66959919101881, -28.3653200762042, -35.29576860209342, 48.900087016198434, 73.36270995539523, 27.10874812830575, -13.990722720079733], [35.559831263249805, 2.9102006636856594, 41.52701891618233, 17.90013211369081, 35.44891870730263, 20.079951107166718, 16.679693607208886, -11.890306096645258, -22.83624017261106, 1.8922513748960277]], [[-4.616153520387151, -42.56864206917597, 3.2635666173369335, 71.84844799046752, -12.603112569086992, 42.86397902983036, 38.21207424285435, -5.828470766515467, -1.816410362011872, -7.490352406761243], [2.7980699761306145, -26.837249982768768, 2.9318919790480233, 8.39581167846482, -6.3509217360846355, -2.1222827753904046, 13.072860082174895, 32.29265699746511, 53.36672885172783, 2.9599753413078247]]], "bias": [[[-24.416056341491434], [18.333342534398096], [-51.16674521017927], [-21.957845245741858], [30.938800811642437], [1.1602674324209645], [-0.16568377113793212], [30.25617563406997], [5.213327330186174], [-18.645771773775515]], [[-9.080386509477044], [12.408079905465618], [-35.422621234703044], [24.074993113462096], [36.24577990122548], [-43.45897284281238], [42.26867020470101], [-27.351079427938224], [-38.776701563863334], [-3.6168409064000637]], [[-58.72704383298053], [-28.366732639116215]]]}, {"weights": [[[-10.226441984465394, 14.15959673344153, 20.18497332114694, -9.72551992892689, 32.27392469792163, 1.6397754722839006, -15.99655374373872, -21.52500278718919], [-24.67439737939, 22.259077986997706, -9.143831526146386, -45.48604665895282, -20.999514117827324, 18.301963384459455, 27.41361109946902, -1.7204520284993519], [3.755225924538137, -70.59490701022024, -4.679733281574758, 46.35259178311528, 1.6043368310698272, -3.1351078331199536, 7.211624815901499, 47.09425844351754], [6.380247905483211, 25.94884878029256, -40.69882765763919, -37.90599895924336, -8.056284817046244, -40.288883723984966, -2.073802618048681, 41.87490054668262], [29.37686772656631, 7.108394913687151, -45.577764711684324, 25.278716661994423, 26.145328053917986, -29.691741389119418, -34.92762937802692, 29.49841081286163], [9.571185153359336, 13.010540781787528, -43.39446802393247, -30.60388174024755, -48.445642654911225, 25.517631175903198, 16.11156767477517, -13.327207150862312], [16.960724062095082, -3.81776269287701, 10.934678324521899, -43.6487079797837, 12.300607327827453, -34.96859517761364, -0.7336526798828917, 4.140536772974138], [-52.23337537009527, 17.01759692396492, 41.954571129080975, 0.6350628902884904, 7.67651888421497, 0.1569524779166701, -75.62682274483603, -26.959334709653056], [-8.075512525003802, 21.420845845714574, 12.601863387178424, 12.831019661556448, 37.391508089118126, 3.678623963627913, -45.91362646186436, -27.558395653644954], [-42.836819533592184, -21.645898164257563, 14.163767280377252, 23.16520960297466, -8.513976483870819, 4.561254865388468, 5.844900480370318, -33.460597020993255]], [[-2.18761728476161, -56.92290444476001, 22.315140454234218, -0.06794199471597273, -22.893584848970384, -10.384636058721139, -12.010646271429515, -39.46854829480728, 29.53126599043503, -20.97694243931319], [-28.478682259878052, -38.75712856016507, 57.883550989977714, 15.428362348619336, 7.7279963855407985, 11.703949954803974, -59.46938368355314, -14.804227213453396, -2.0566252693520273, 13.292152686402325], [-1.1801862522579982, -47.9227526049972, -79.02433053515949, -3.6508166993478497, 1.7587782861357162, -33.37804851474554, 11.555613563792067, 63.895559650247215, -19.739312534838938, -69.84359443523036], [2.0184045798762664, 5.187970908592259, -77.20253924668994, 22.80693108851621, 10.32435412519146, 10.08383233407082, 21.042522798737615, -7.457265400194455, 12.443961758565816, -1.960452432634585], [42.590649409294144, -14.452485849616231, 18.529523626010526, 66.93161768656218, -30.485445816338565, -5.337534782767915, -23.866555548395265, -50.11801068060648, 13.422619306478772, -6.832186775703727], [18.209069691867594, -2.6163129374401812, -43.686360765036795, 38.5009787272202, -21.67928074285498, 29.63236248110602, 12.658393318633333, 13.335175797213456, 38.5248106382628, 29.14990819744653], [0.44445568329414736, 35.96392815822395, 68.1177681763976, 11.948838712846376, 28.60085257751931, 34.008554828106504, 14.043122316364107, -9.188715858457476, -43.204078276240175, 14.60351714792057], [-5.661538528040792, -14.567959552734601, -20.54849327390651, -12.657669904295565, 14.802717705697063, -39.13661346872988, 12.200700527537895, -8.008778746876153, 29.396057903538537, 1.0606265897816398], [4.233466951714612, 22.272586749354307, 12.743115636783406, -25.313651137302415, -7.861605449012117, -35.226832079156125, 50.68029854995831, 78.08603523054435, 18.170884656466008, -14.100256533453795], [51.78196184519901, 6.478213069514653, 38.289414049720065, 12.373461156029157, 26.557967907635415, 16.75197237862087, 7.148500226631551, -7.126643216585563, -36.40584305845191, 2.138634256229011]], [[-4.108247597084234, -46.615569865076054, -4.4655995443141965, 70.20732675404805, -8.626531913342923, 40.219282086455124, 41.756749002930626, -5.630551708875272, -0.037635726442023065, -12.885807361601072], [5.152667560988856, -26.733407664236324, -11.888986502111221, 5.805234669791194, -8.776709671843015, -1.4246091565228052, 15.302776288423248, 27.37373613887451, 48.125731564835576, 2.3217513613825673]]], "bias": [[[-24.85037503810619], [3.9941309291629588], [-44.4213052997564], [-34.42217690561158], [33.41315493586689], [-4.559699316998196], [-0.7230366017029406], [26.2619482980588], [0.5565038471074701], [-3.181851500086284]], [[-17.20492398994625], [15.997373111964794], [-22.995155425655373], [13.22781040765606], [33.88609480994608], [-49.97152017348815], [50.657520303063556], [-28.97206580008567], [-41.4264922796924], [-9.798547341165932]], [[-58.972475963048254], [-21.142845111338104]]]}, {"weights": [[[-8.992103163055564, 14.993420586275342, 18.482388594982673, -10.992700211706225, 32.00038069428576, 4.546367688247241, -12.879466038984061, -21.095930014431943], [-20.56747911250601, 24.440308323917403, -8.857896468112587, -43.7547061433031, -23.26571524090925, 18.95107517745974, 27.343157182105685, 0.24160617001878948], [0.29392417834429774, -79.07043169785788, -4.378342004553911, 56.4928793619322, -1.9814765280758737, -1.7263787725904152, -2.384773022168773, 56.772048362752884], [13.137826349718456, 32.92871763440645, -41.595075597292066, -28.669083374559975, -2.5045096435204375, -38.58963493960038, -3.571265135005493, 37.67223803640535], [29.777423270988372, 6.46566903507708, -47.60766251443183, 16.14791520597941, 21.063990944143388, -26.248538385169816, -34.4670951004065, 23.921608662763976], [13.083985189723258, 10.05521092944903, -42.3930857707664, -20.839331212438577, -51.21702415330057, 24.472109620380817, 18.88837313379446, -22.325643565711026], [16.911899687553362, -1.6518578707589922, -4.287868012183982, -48.408292319516, 16.47204155928887, -27.997884729751732, 2.501930258787503, 11.741110677818789], [-53.56755842414819, 20.03545205181773, 44.02421053505008, 3.4899889443060084, 5.065092562783374, -0.4750029333153844, -76.6473243775112, -26.84621840236594], [-10.556194454779746, 18.9279853635492, 13.91517243317175, 11.02125218311512, 39.68858374354951, 3.2006236176125245, -47.71218307887579, -31.345194725715636], [-44.253922190741, -6.175568028756682, 10.61886721293786, 11.60540304824857, 4.032998801507842, -5.504332040394487, -2.085135663169769, -29.972619602023716]], [[5.231263918177466, -56.79329740583872, 5.507064186304949, 9.009618690166711, -39.29001896256412, -9.614168576223442, 1.1220893870361555, -36.48571404368759, 34.312371050317644, -20.89438566397934], [-23.61016030592031, -37.41361829240398, 45.12487610480418, 9.999756052149765, 0.229752976969532, 5.217628116742566, -58.27317101722274, -15.330912124410066, 3.221646749597409, 22.022444545564124], [-0.016140080394422274, -47.83682054528597, -79.0330111588288, -4.6308036673577595, 2.3779751925893438, -32.68046184540403, 12.103616859330772, 63.30716024020285, -19.796383948341877, -69.17717573816685], [2.444294005675393, 7.231617770558797, -75.21132794451616, 15.574821688316995, 7.035603124267178, 7.350084387210322, 20.995379467899465, -8.138022952206784, 9.668845686835544, -3.0142378442047604], [42.54958671882223, -11.523152969288056, 17.235230447948958, 65.93713168812724, -30.721902688542414, -10.405854051012371, -21.08791264397749, -51.59130053339591, 14.07763765815288, -7.207132949994109], [16.223019697942192, -4.57182139379539, -41.59114454420639, 38.18705316212349, -23.279489934618287, 29.117991168916735, 16.811112092709788, 13.613621502615855, 43.41457716157627, 29.842143381858982], [3.4228959613845116, 39.202668755010414, 65.72789777562218, 12.170393484978305, 31.369187545777223, 34.61316967653576, 18.48548903767769, -10.504061756279803, -41.23853628773069, 17.324251052386327], [-8.739817653293537, -13.634576717631639, -20.31416521385731, -11.118667208830647, 13.986015919510919, -49.2376299175504, 12.578865752123868, -10.933429504196834, 30.936973936178266, 2.5148221396242363], [3.1916795536374503, 17.828343998065726, 20.85279468089102, -24.687878653327257, -19.38665780019537, -41.268533025982514, 46.39824185870931, 73.38205408029548, 18.683248458258504, -11.39200833146281], [46.68047861847821, 0.8344062002311081, 37.41019223298232, 16.903932301113663, 34.49740581201815, 26.635918859625068, 9.998490793577245, -7.018174658795102, -32.04913515336986, -5.093131046006456]], [[-5.557456450806436, -45.40391145526236, -4.8736556694937105, 68.70258804800869, -9.287075908475234, 40.35129373631326, 39.08786619602444, -6.093014522683395, -0.595234929237495, -12.789487359330622], [-6.033801573870866, -36.534369166290944, -16.102672197001006, 0.40083773793498534, -12.488683391542494, 2.3837600902867693, 18.258332744256297, 24.26844001171447, 61.20468503442316, 3.9323111195726437]]], "bias": [[[-24.549226600320985], [5.133050774638715], [-45.57070872641415], [-26.726458761209244], [40.74880220428406], [13.317054941340716], [9.390234292271941], [24.816279717831755], [-2.9671759160914832], [-12.31159280041035]], [[-14.013255622089723], [21.325507257212067], [-23.747442120482713], [14.603820006239596], [28.93651204112077], [-49.47894474394734], [51.06998154132072], [-31.346364357290142], [-40.24612896783198], 