{"generation": 5000, "best": {"weights": [[[-18.266455219637106, 6.12532268332969, 40.94403952356419, -2.531937971491293, 215.44184300120398, -50.5202735301552, 12.069417934036366, -41.97484558964544], [-3.5072929861044932, 70.18295298816564, -7.8812446295271, -135.6717325353681, 36.366627442819706, -47.69228690372373, 60.642355950595785, -28.31661831846323], [0.08390892375518955, -147.3404830255647, 5.355011048199182, 53.4519302769468, 3.0491123687060346, -0.7077204973263933, 4.170104948576794, 99.53575404190207], [32.774466047859086, 34.97628101461545, -107.96013479037629, -45.436040197478704, -67.04938474729923, -118.03397492760836, 6.623640368080688, -16.25791133235005], [-4.338467817516598, 12.071643228285842, -29.591334117738622, -116.26166191622328, -36.85939958515277, -0.37289315939492085, 41.48071179282238, 45.19111145554059], [-2.0744896314888948, -2.513974179478356, -21.578898369897434, -50.024660685096705, -53.87869162814832, 146.7539657972132, 8.98286728990763, -10.665750626458735], [-27.29098614652897, 51.55813850509245, 81.85916340839795, -111.66003296300188, 33.6231938364897, -83.89146537208522, 61.03043309413521, -86.50246606275151], [-167.55402081466292, 39.40776810915635, 112.53916295041451, -16.974364964238575, 13.289587104037718, -0.4432576963587498, -87.58892586549548, -86.84252838741202], [0.495301294500174, 46.55677837844548, -3.5702742982428908, -122.50532738566712, 81.67562406374856, 36.97767563105081, -7.552476227948054, -41.3150000189961], [-7.478006837589643, -66.60995940764873, -40.34217224070549, -3.0531150309532853, -7.269691920947706, 13.292633731506173, 53.16154839332038, -204.3655077973428]], [[-30.641576997876843, -97.41439534843643, 26.115250442809, -5.914509645526218, -60.65655397631161, -119.06899370014204, -39.143212193256765, -64.94684212318569, 18.430723820785357, -33.586353758534365], [59.32399495469306, -26.188318415963387, 125.51979746343271, 15.98687382710157, -51.21427501627251, -20.550623433153657, -85.61799410784243, 67.7400070271514, 44.749096140874876, 39.12034792763899], [-32.735791175079854, -45.83588144741652, -133.69542606689984, -31.7361058660656, 17.147612404812136, 32.054476741772184, 7.8807601916534695, 99.89022995471056, -44.44429644728562, -43.92019213174688], [-53.923675486711566, 109.42117427711116, -141.7367578950505, -25.63746902701196, 68.3246261295512, 0.023616297749587067, 64.76139782355682, -6.700644380305248, 57.938723164255364, 20.804067124736275], [143.79648618133896, 67.45836339237731, -1.4757666777078677, 182.2427155364135, 46.04545635345928, -90.2245815403088, -70.36707002976088, -76.66550232104287, 30.702720929765178, -23.37833740513837], [-15.176993281379758, 30.766582507262118, 84.93932413403236, 18.216712353529076, -30.913197599747374, 6.004952942181449, 71.3039218545748, 57.37569690061371, 112.62030448353629, 26.810153898227135], [28.95824824478965, 163.16643495388485, -8.6760637590824, 71.25559161277229, 89.93800155876845, 11.927169857583642, -49.68964773296211, -16.25150725123033, -2.86167510379494, 56.479835549370385], [-55.27426548161285, -66.26471651553344, -61.10230489074437, -27.281523252887553, -29.001882125749994, -85.91244408644266, -11.038145879319762, -3.072747238106222, 59.487330436709684, 7.209306574962191], [65.52768294574139, -22.890731067643475, -5.795503702279355, -154.9992581936572, 10.472518729714082, -119.75193028894635, 98.67046886750852, 136.4880214922383, 122.70972713718851, -8.05500441252053], [33.436729716552776, -19.664991649000573, 59.15811226085813, 35.30284703270937, 70.5216126801592, 49.56024752155591, 90.71528861827085, 10.346473817712265, 70.4089020875342, -26.329762980998378]], [[-155.61171866659078, -89.81414246652065, -22.696153095656474, 215.56903608713586, 34.07952327865613, -16.601717925733787, -18.138970607738727, 8.988512251760422, -21.271189197974945, 33.36744549547553], [-36.57967904997601, -29.48189977179901, -7.934701614715522, 12.943565910030847, -91.01772948179804, 38.52104371496128, 71.06732455908377, 95.42387697896505, 175.41238848315933, -39.10239911428461]]], "bias": [[[-38.46362962441331], [89.13041782370496], [-94.84611538994356], [19.731757679745325], [53.30152997973254], [97.56848126276259], [16.734766628979987], [57.708204108878846], [54.85874418637805], [122.14923972443843]], [[40.43930568177563], [80.31157179893003], [50.91476153841151], [-31.979442772342495], [83.03324608358417], [51.03316250625746], [103.65782352407395], [-82.74215155214014], [-88.40041632696857], [-5.000268439378695]], [[27.81420698921469], [-19.89585159728738]]]}, "all": [{"weights": [[[-18.266455219637106, 6.12532268332969, 40.94403952356419, -2.531937971491293, 215.44184300120398, -50.5202735301552, 12.069417934036366, -41.97484558964544], [-3.5072929861044932, 70.18295298816564, -7.8812446295271, -135.6717325353681, 36.366627442819706, -47.69228690372373, 60.642355950595785, -28.31661831846323], [0.08390892375518955, -147.3404830255647, 5.355011048199182, 53.4519302769468, 3.0491123687060346, -0.7077204973263933, 4.170104948576794, 99.53575404190207], [32.774466047859086, 34.97628101461545, -107.96013479037629, -45.436040197478704, -67.04938474729923, -118.03397492760836, 6.623640368080688, -16.25791133235005], [-4.338467817516598, 12.071643228285842, -29.591334117738622, -116.26166191622328, -36.85939958515277, -0.37289315939492085, 41.48071179282238, 45.19111145554059], [-2.0744896314888948, -2.513974179478356, -21.578898369897434, -50.024660685096705, -53.87869162814832, 146.7539657972132, 8.98286728990763, -10.665750626458735], [-27.29098614652897, 51.55813850509245, 81.85916340839795, -111.66003296300188, 33.6231938364897, -83.89146537208522, 61.03043309413521, -86.50246606275151], [-167.55402081466292, 39.40776810915635, 112.53916295041451, -16.974364964238575, 13.289587104037718, -0.4432576963587498, -87.58892586549548, -86.84252838741202], [0.495301294500174, 46.55677837844548, -3.5702742982428908, -122.50532738566712, 81.67562406374856, 36.97767563105081, -7.552476227948054, -41.3150000189961], [-7.478006837589643, -66.60995940764873, -40.34217224070549, -3.0531150309532853, -7.269691920947706, 13.292633731506173, 53.16154839332038, -204.3655077973428]], [[-30.641576997876843, -97.41439534843643, 26.115250442809, -5.914509645526218, -60.65655397631161, -119.06899370014204, -39.143212193256765, -64.94684212318569, 18.430723820785357, -33.586353758534365], [59.32399495469306, -26.188318415963387, 125.51979746343271, 15.98687382710157, -51.21427501627251, -20.550623433153657, -85.61799410784243, 67.7400070271514, 44.749096140874876, 39.12034792763899], [-32.735791175079854, -45.83588144741652, -133.69542606689984, -31.7361058660656, 17.147612404812136, 32.054476741772184, 7.8807601916534695, 99.89022995471056, -44.44429644728562, -43.92019213174688], [-53.923675486711566, 109.42117427711116, -141.7367578950505, -25.63746902701196, 68.3246261295512, 0.023616297749587067, 64.76139782355682, -6.700644380305248, 57.938723164255364, 20.804067124736275], [143.79648618133896, 67.45836339237731, -1.4757666777078677, 182.2427155364135, 46.04545635345928, -90.2245815403088, -70.36707002976088, -76.66550232104287, 30.702720929765178, -23.37833740513837], [-15.176993281379758, 30.766582507262118, 84.93932413403236, 18.216712353529076, -30.913197599747374, 6.004952942181449, 71.3039218545748, 57.37569690061371, 112.62030448353629, 26.810153898227135], [28.95824824478965, 163.16643495388485, -8.6760637590824, 71.25559161277229, 89.93800155876845, 11.927169857583642, -49.68964773296211, -16.25150725123033, -2.86167510379494, 56.479835549370385], [-55.27426548161285, -66.26471651553344, -61.10230489074437, -27.281523252887553, -29.001882125749994, -85.91244408644266, -11.038145879319762, -3.072747238106222, 59.487330436709684, 7.209306574962191], [65.52768294574139, -22.890731067643475, -5.795503702279355, -154.9992581936572, 10.472518729714082, -119.75193028894635, 98.67046886750852, 136.4880214922383, 122.70972713718851, -8.05500441252053], [33.436729716552776, -19.664991649000573, 59.15811226085813, 35.30284703270937, 70.5216126801592, 49.56024752155591, 90.71528861827085, 10.346473817712265, 70.4089020875342, -26.329762980998378]], [[-155.61171866659078, -89.81414246652065, -22.696153095656474, 215.56903608713586, 34.07952327865613, -16.601717925733787, -18.138970607738727, 8.988512251760422, -21.271189197974945, 33.36744549547553], [-36.57967904997601, -29.48189977179901, -7.934701614715522, 12.943565910030847, -91.01772948179804, 38.52104371496128, 71.06732455908377, 95.42387697896505, 175.41238848315933, -39.10239911428461]]], "bias": [[[-38.46362962441331], [89.13041782370496], [-94.84611538994356], [19.731757679745325], [53.30152997973254], [97.56848126276259], [16.734766628979987], [57.708204108878846], [54.85874418637805], [122.14923972443843]], [[40.43930568177563], [80.31157179893003], [50.91476153841151], [-31.979442772342495], [83.03324608358417], [51.03316250625746], [103.65782352407395], [-82.74215155214014], [-88.40041632696857], [-5.000268439378695]], [[27.81420698921469], [-19.89585159728738]]]}, {"weights": [[[-17.291147411935746, 6.950546453491289, 45.110546403355784, 0.18747883875537077, 211.66173385539548, -54.09458673291022, 7.62846870166, -44.8632117291747], [-3.608558880805294, 72.38764024901042, 0.8068053178682149, -133.02092063194152, 34.372347924211596, -46.97862101692627, 61.54286015019891, -28.27858118319513], [-2.2763623241546855, -155.6696778811055, 0.32148237681713754, 50.15314136647935, 1.4719629545495554, 1.7710479240526567, 15.583585283700842, 105.66312195459393], [24.39639855989929, 36.6976043487578, -97.0098823925662, -38.5674340468308, -56.1010777934027, -117.69164158163466, -4.917182728584297, -8.320683113016429], [-7.670709989313791, 18.21018577343283, -28.93935265344031, -110.60514049718819, -36.12467263117715, -3.34767612636068, 36.99129404331523, 41.42510424203033], [-3.6620152616704864, 1.694818891647249, -20.068498870671636, -47.38742358758585, -54.201985239316016, 146.84182538503163, 9.279511483746983, -16.165332036255087], [-21.438275468061054, 40.62152377655141, 77.83408176633834, -98.19251385618585, 28.76513871551316, -76.8564640776926, 69.08179439805889, -76.5165934819106], [-180.6903954908269, 48.74917401476527, 111.4668059573297, -18.142870086257062, 11.709351840756499, -3.285944109976982, -75.25589347277615, -92.46710249631957], [1.9981618716630725, 48.31502352556388, -3.8537079358688793, -122.41401420492963, 81.36177322708146, 39.882173579101625, -7.377714759097058, -41.64305831633125], [-4.921461253340047, -65.68273997709328, -39.532702257391925, -4.1625807293853025, -9.823044744410446, 14.943777091415537, 52.00503065017552, -204.5932323655728]], [[-31.666133697471654, -99.4778447816216, 30.499846260160318, -5.75810486201247, -52.14262543958793, -115.84045624516672, -38.76201314674933, -56.62464245003206, 24.85075661051834, -35.49065750306873], [62.8654323002262, -18.646816548099775, 137.0612152259545, 6.387336138106343, -49.628984486920274, -31.004773365037167, -90.78380031498368, 80.10513744456155, 41.06812218179757, 45.59568486220263], [-35.95263931327641, -56.90329393090504, -142.95431959048233, -23.833280089216366, -2.1040121870261403, 39.869979755309394, 21.572253355323245, 94.57952137237696, -45.65820353800987, -53.849194402702096], [-54.37946315880008, 109.92631660873006, -144.09681182454926, -7.942219751035813, 59.387567496346016, 5.712631544663684, 51.52555620834738, -2.89581794474764, 56.88839587291813, 17.723887518069905], [146.91848620270773, 65.4410279500975, 8.018299283114517, 167.53318267703838, 45.75363636948613, -67.59171080646743, -63.68776038017221, -91.23303752159026, 30.871275869781773, -14.256365164101874], [-22.441552705431558, 25.604024316919507, 77.21793629542987, 28.85836871968205, -40.50235455176604, 16.352908156573275, 74.11677170856981, 59.03995624182736, 110.64801113468008, 34.54288533831101], [6.887010857496396, 144.47028620631232, 1.4077914920785144, 48.33919417754554, 98.79598269955189, 24.78920074248971, -50.29220411229695, -36.30586252286351, 6.175247589422968, 89.3879275660353], [-57.035055724200866, -68.834694931899, -62.59062631913678, -28.679611584195854, -31.48102648205483, -81.97890479816427, -12.632002091283306, -6.604049888965248, 60.66610165456631, 6.23443618097027], [55.19094987428431, -23.574905917074975, -1.6781481535739786, -160.6112058952342, 12.737228559221382, -134.0970214487148, 110.67962721576959, 132.28113432388164, 118.73682492320779, -10.832902874555176], [31.397795831770175, -16.891572268747783, 59.31193754152175, 37.169524226155296, 68.00534451682249, 50.92860960642384, 92.59158112466805, 8.941767539698738, 69.74826508497435, -25.841657832158987]], [[-168.5530120012296, -88.27376122348527, -16.092756506947865, 222.95826291344568, 38.43757837678712, -37.33281015422896, -11.56548251911558, -3.4006539768553226, -15.222673192133252, 17.87649320146669], [-35.55352553887567, -25.959449127717576, -6.416946718684225, 15.591404045101877, -94.94726547926224, 42.239095295328724, 74.86367223504253, 92.58653211879069, 173.1558600836382, -37.48327402460953]]], "bias": [[[-49.53026529929415], [104.84955778085342], [-93.9511816357995], [28.134893315377013], [86.27843906606873], [102.7643863572181], [13.213772088456611], [62.45553706409065], [55.746132755975886], [121.88906936101729]], [[40.24876343639693], [81.30174463559118], [56.496391296700175], [-31.470650242158033], [94.86074468466327], [31.28028933394048], [104.88656981757555], [-89.04506994451233], [-88.76666520801305], [-5.136401074434676]], [[-20.535135537983134], [-18.28083820717541]]]}, {"weights": [[[-16.554891729444, 10.866085075410616, 42.26196315747606, -4.461868648877271, 211.16333744038744, -47.57077229221337, 9.371957867951727, -44.804903518932164], [-2.5737337674053067, 71.94612207866733, -5.309738451435786, -125.94752580677603, 29.375882329813834, -52.66570234956566, 63.356611184339016, -25.744220247269382], [-7.242006224977594, -151.3878441789505, -5.561616712155717, 64.13982394027627, 2.495357538918274, 0.15722307236761113, 0.7129831448015767, 91.51970568299757], [31.447694051093308, 36.413430387345294, -100.91185560032203, -38.427142239610504, -57.94287497176921, -118.89998803881844, -15.565185741302647, -9.323021750751648], [-6.012590006989888, 22.6016036113822, -37.13462478688238, -113.07715716196938, -37.66872715696677, -2.3744162134773674, 42.70119893718143, 43.18102013786937], [-0.03798785259843296, -1.9887347773346087, -24.036506041776725, -47.166455366889004, -50.28392817635847, 154.0308842750277, 6.974323081845924, -17.06314669121641], [-22.02973845097204, 46.199046050971724, 81.74922630416486, -98.5722014900109, 22.468808932386157, -77.62144534149427, 69.96708248942521, -75.40869340737886], [-167.7825564584204, 40.01083196328855, 111.14460365949105, -22.846792656288, 13.482559928305873, -3.495840692131238, -88.95030465820993, -87.0209343048988], [8.201004055300164, 47.63779252358385, -8.211113208402741, -117.45915223512934, 89.58035020603812, 45.21907606941489, -6.201777573873127, -43.13789637244386], [-4.364259848588432, -43.848805050940754, -42.87306415008268, -53.555999472771774, -24.01293064364405, 39.99095989846624, 16.893424850642187, -134.22027428849483]], [[-36.09146518162735, -98.50481076245013, 33.87284694744648, -4.408691785142121, -58.06203811386743, -119.34422778112292, -33.107496232234254, -68.21217046250597, 26.630986702378213, -26.078799258066283], [70.46433168006887, -28.68761782499963, 118.76931295583785, 17.926953888189555, -55.25625374204005, -28.66498901589094, -87.94813061178843, 65.84099546808947, 43.35195586307897, 44.53066569706557], [-39.38811260283249, -56.41439421514098, -141.51925120509586, -21.06799322712946, 0.3284323654130796, 40.90640783959814, 23.141786092505463, 96.0377379847567, -43.883322726183344, -51.70286634887042], [-52.078259977066985, 109.13936488427716, -141.56788384023633, -7.316318505840658, 59.42370105816338, 2.456243768240578, 49.74631672535961, -3.5976135114414207, 55.75114345008752, 17.28910709207745], [146.16417088408716, 67.10547478583314, 10.819758973845353, 163.032138133539, 50.07784402430247, -68.95055113170221, -61.47713516357665, -90.69729565880941, 31.482518352682742, -19.231577216086105], [-20.119164908019187, 18.958917449833827, 75.4174793004095, 33.90487377909798, -37.26968695143116, 7.601715841065282, 72.7773411533116, 58.63353882849438, 115.50015014173975, 41.080263958382425], [16.23858333908195, 169.27116286216136, -2.4806750967785938, 67.1073142252278, 88.28376038953176, 10.731068784804435, -69.44750739178932, -15.768327289246566, 6.645584877471697, 80.49483644268498], [-62.168273587560456, -64.9825953361382, -65.02936295037229, -24.923336181700396, -29.438791246076686, -91.44432217792566, -7.726877978511636, -2.6381008579834933, 59.839395908888534, 3.1036811730859695], [63.604078045750704, -16.169703874080028, 1.6917920721998811, -155.2597332060715, 6.291989228771533, -126.76014627760254, 107.76060843008733, 124.88730049875771, 112.7146735139346, -10.067828181139488], [-35.174785388471285, -25.340352531314476, 46.851456343029746, 54.170947037368386, 62.76300381302797, 6.476754655476124, 118.78021672566281, 43.26381436555597, 57.39867131196173, -8.836743878216781]], [[-165.440792491468, -87.95431023984764, -13.090461837042874, 218.8709283569734, 34.49716950113454, -35.79787663848316, -6.404256017890682, -0.7671062448284031, -12.415062591871564, 13.833781357856932], [16.88725296493885, 70.05420700161281, -30.991734304455306, 2.349129319412542, -111.1597230491323, 26.16916185865233, 96.47993142061925, 48.39329427651923, 132.62103099048113, -113.72733559947687]]], "bias": [[[-41.65594713949481], [84.41066505902708], [-90.58630744540481], [28.71028158791911], [78.9088549486539], [102.22348153982874], [20.86672856078151], [73.01241531636771], [48.66444542789167], [-7.3594709761223545]], [[36.28661016112604], [82.70988068535794], [60.952358221514544], [-31.22264463117518], [81.07329961319118], [29.827870007056973], [95.53226079703742], [-87.56260249714327], [-79.73469735640522], [16.370918181921308]], [[-28.93131823425465], [-10.705148129487885]]]}, {"weights": [[[-18.832081223837974, 4.978742657830161, 42.37823813799214, -2.295978283659565, 213.90685123538177, -49.91307224382791, 12.100070148762237, -42.08434487340062], [-1.4082696298084132, 70.22955765081407, -6.840300731909403, -132.14716876423708, 35.97410554567913, -52.95384612955358, 63.39009934229898, -23.500395517199873], [-4.942895128766988, -151.3868788061452, -0.14031602699206536, 61.99578077601764, -4.4724013308505945, -0.8126078585252123, 5.740711496284788, 93.49569124495396], [31.832083339200963, 31.824999985182956, -103.94514264555933, -36.304882693674436, -50.965714387026026, -117.78619514948913, -12.558820948159216, -10.808953328010473], [-5.089360672127055, 21.006081524833387, -36.34535192760511, -108.43343913722278, -38.77984685949704, -0.22179054578071528, 36.40287681395332, 45.85665791425354], [-5.376285129952826, -2.7756885083794596, -21.607718384478087, -49.064418884022764, -50.13829821279467, 146.23915331341342, 0.35333100247178617, -18.866762392895854], [-27.775888664913694, 53.32597846641598, 82.49578251446589, -110.36508614440407, 27.74634154880561, -77.5408213232059, 62.00910785763624, -86.04492345024997], [-169.95210640555663, 41.803938294755035, 108.63088400971034, -16.177979132313155, 12.777447341796735, -1.9178494051865682, -94.7319997943169, -84.49305323989456], [3.918900282073351, 49.72171019096166, -6.286619415396343, -122.9031182753071, 86.61111129988876, 36.69227667086148, -8.797400027170745, -45.47096906495661], [-0.7102602254694785, -42.52246551522667, -41.45937536638783, -54.135401590666035, -29.210587456188545, 36.761946527909465, 18.241556307298342, -135.6659042492423]], [[-30.914149965143526, -97.8788861470978, 27.555086668414255, -4.229840668250646, -61.37708742132239, -121.87349613171413, -35.979426856323265, -64.68107559039466, 19.79532759329895, -33.78442651530766], [69.04283174245889, -22.724652368015978, 142.41607674964598, 22.55467092496615, -52.10449764022285, -28.441196808650904, -90.21767392662723, 70.57214584017807, 53.3980350087445, 49.55122863538692], [-43.83136238742762, -58.79400268627611, -139.94395622115124, -20.162939228430158, 3.552772447761932, 38.14275719356437, 19.447968938311075, 87.42152562444221, -46.342695672051484, -50.343085803040864], [-54.84093187090527, 109.71446769794206, -144.78012644793893, -14.81024186633448, 57.85571457547206, 7.088525907129426, 53.389949191985444, 6.093141961835008, 59.089277093001414, 20.351090827079062], [147.983326855361, 62.23009031863714, 14.434032268135988, 167.85225991647394, 47.79925037622102, -66.56848534283765, -58.62370010344667, -87.16205682297296, 25.993431191903827, -15.903579589967853], [-22.613972343573305, 28.280067740223355, 82.19005634215998, 28.34018825034796, -41.52764137808609, 13.890550397808935, 78.81921614516772, 61.170077999496094, 111.16174056105908, 37.70460460647853], [29.29389900494964, 163.6218410817934, -8.726229163353995, 68.72124117474934, 91.9061882281815, 13.301199390269574, -48.4881075309384, -10.696572770462009, -5.697363931013287, 56.87627397371867], [-62.079308772603774, -66.10394004196635, -71.68250400285318, -27.27701171818076, -24.395164707111647, -87.15613321438634, -7.877333853450471, -4.850206769572692, 61.2872131904485, 6.285350998608012], [64.25240955177048, -16.23604887935144, -8.813235754612398, -138.50501556453594, -3.0766409073892755, -109.89678730502038, 96.4224120934714, 132.83804206141102, 107.06000231199913, -8.048344344974524], [-33.337553132115, -22.90023468363925, 49.76279275157351, 54.25058700032169, 62.999772932373745, 4.621237562354196, 125.3696830841177, 46.53167506661464, 51.80558627930939, -4.381548088520029]], [[-166.86611725689863, -100.73952241654794, -22.389198319710964, 215.30179101030845, 27.984072289633076, -34.356429583446406, 7.222367453657123, 6.535074658795459, -11.755612991160683, 28.48108261947655], [21.787273629100472, 70.69765212314455, -35.55349140815497, 1.5824248405961714, -109.63546821684601, 30.32680360381937, 103.76391316458327, 52.495940255897104, 139.1726090446307, -106.55506112031387]]], "bias": [[[-38.215572240088875], [88.77919240321759], [-92.0175047251543], [21.558626758348424], [61.3382462198492], [120.39227775269288], [15.217295687352088], [60.4393795052991], [55.38337269780212], [-6.916333015567407]], [[39.68435217702687], [78.45951963612549], [54.36278106795995], [-30.843299359527823], [79.73068282773458], [31.251438705275255], [96.58691167973403], [-93.39609226258024], [-81.54889813840882], [15.174514453041686]], [[23.77097300210167], [-9.89882396719161]]]}, {"weights": [[[-17.037623945051173, 10.751979626251321, 38.16101028092447, -3.6154705402987073, 209.58996966506518, -47.86583110836899, 13.323165766993482, -41.10026825863794], [0.7839835138041967, 72.41455846037454, 0.02913816994813373, -128.95620683446398, 32.02652468951521, -56.47928339352403, 67.72226128038875, -23.63183839210387], [-2.0157648726969017, -153.53207742335618, 3.2935897540870767, 52.87820873440125, -1.6648665982920958, 0.7032728793243779, 17.98557590264372, 104.16069015610887], [24.265027278636797, 32.67145161982345, -100.85571335559636, -39.41516191999401, -55.89315048736923, -120.40912049137857, -13.541730453925767, -9.75057220487512], [-5.1669971679879, 22.837452206112268, -36.81247566623837, -112.09719123020513, -38.089113071677666, -2.9492788652243, 43.28601802418727, 43.15823755677602], [-0.125247476328521, -3.4218556725224407, -24.334728726198673, -46.75527660308976, -49.046819949087556, 153.7581564748715, 7.789347878371533, -17.06314669121641], [-22.751959925669766, 46.199046050971724, 81.74922630416486, -95.87924713574868, 22.468808932386157, -78.23199993258966, 69.96708248942521, -75.99196765431338], [-169.14639173796792, 40.215749122326436, 111.66912583803648, -22.846792656288, 13.482559928305873, -3.178317175111439, -87.66574835052349, -86.5222665527837], [9.331830978628796, 47.63779252358385, -8.477446483000174, -117.6858191077313, 89.31298770831607, 44.630624016319615, -5.074802259940929, -41.42272996576133], [-4.097281259981324, -42.89160907884523, -40.57823760849253, -54.60357890661514, -24.337515863247784, 39.99095989846624, 16.352375664553403, -133.34791137109886]], [[-39.54702500235964, -87.71066838274974, 30.146110203151906, -16.302990971366803, -56.475506993138055, -116.3632957365032, -44.711167701022276, -63.9759816263049, 26.29407457967243, -21.4022160480647], [57.429604200157605, -28.118159172611648, 123.33029741814289, 18.111060555241583, -52.83673034492042, -20.865708367668528, -84.4048333614327, 64.91827046850972, 46.40963459191592, 35.49823707704773], [-49.29122683555997, -52.28069156191045, -141.83872854521948, -29.453750698293558, 10.388810717538846, 35.97817146747681, 6.3579600070641, 103.91354322634405, -39.880352873548674, -60.80590156873349], [-47.25132232442577, 112.13121733911782, -141.22653185690967, -10.626377460558224, 58.746194204208976, 5.092682425216756, 51.62285449554855, -9.134119211774973, 55.33712114645898, 19.57989730599361], [151.05384659611897, 68.634056696455, 10.21421244698357, 163.8532796660286, 45.33643267118022, -66.53829680903331, -58.726732649588754, -90.06738920889181, 29.84411218370645, -9.285491278972055], [-16.76602489952238, 21.521630648413943, 82.96062693839066, 34.9988989207956, -42.32434230933918, 17.82539930204032, 71.23783276876092, 51.6052998463642, 112.63031921051441, 35.9265270193396], [15.460848645279434, 161.27714929477477, -3.4048584421228907, 64.7945832669516, 92.77835675102813, 18.903302913727792, -64.62301494364006, -14.02042153578998, 10.90713881254258, 72.45996807658555], [-54.143278135201726, -66.1646227250111, -59.8700005727025, -20.6317298483182, -27.89204028109067, -78.45220386020856, -6.2632326989759886, -0.4982129801006182, 59.89122284367599, 11.996487446976364], [67.84466057181321, -14.070319673290292, -11.513951616087379, -139.7237619228344, -2.7627794095492586, -109.53346249710397, 98.2450558375461, 133.17798742512718, 106.45760876741122, -7.031627414116363], [-35.174785388471285, -24.905059828594737, 46.851456343029746, 54.172948467910714, 62.76300381302797, 6.113596094321704, 118.78021672566281, 43.23711770327516, 57.39867131196173, -6.769948054660851]], [[-165.26060000705135, -87.95431023984764, -12.850308290490696, 218.8709283569734, 35.8218871711736, -33.81315091242139, -6.404256017890682, 3.1066788913969137, -11.001225654643811, 14.608632601713019], [15.665810917604322, 70.05420700161281, -30.745373579132483, 1.8640084582793568, -112.81111480705185, 26.220666081286282, 95.63451606472044, 47.481459556094464, 133.87941054696066, -112.05280982783003]]], "bias": [[[-46.83777603677311], [84.14844048182152], [-91.6018395643214], [19.347595688356225], [81.15897914864335], [97.67022971834908], [25.11367295907032], [62.40498311101945], [45.19325930406457], [-7.841678309062572]], [[38.07336806309569], [75.52971688630618], [55.37530364057001], [-31.65439919393737], [81.07329961319118], [31.366423493900488], [97.44386833838459], [-86.3972675760173], [-79.73469735640522], [16.370918181921308]], [[25.53632082623743], [-9.622579263303317]]]}, {"weights": [[[-19.33840432190657, 5.9252979627546685, 42.37823813799214, -2.295978283659565, 213.90685123538177, -50.19986855196838, 11.929321895002687, -42.28682159400955], [-1.0528012058371783, 71.04853908167195, -7.587085195219106, -132.14716876423708, 35.66782588551813, -52.90835466032345, 62.249621674053905, -24.00457315933909], [1.200899504876045, -149.62588289846573, 6.642453075764043, 57.67322028565664, 5.679878275505413, -1.8596237123072425, 6.1169681052447045, 94.87070607512203], [32.1134159111004, 35.003492091993195, -107.83567676479032, -51.8658073453991, -66.19636534382984, -120.34747523157439, 7.759619901312655, -13.799666471551003], [1.0152666987103025, 15.374843763319767, -30.077187384435163, -111.47560210088248, -36.415648278456224, 5.582477610994774, 44.56687918462694, 45.59747433592484], [-4.994562267125327, -1.313083745679994, -23.825394278590093, -50.070621498154416, -51.98818685167771, 145.09850394237105, 3.4257132265234644, -13.665946245271291], [-22.577974912302906, 48.42772783960144, 78.52705102193431, -102.68349483780244, 19.117481790199953, -83.15443751224608, 67.27336114724123, -76.9103316671009], [-172.42866110962643, 43.60630573934219, 111.28622873893246, -26.038788313356918, 17.213367742797825, 1.1404391171927966, -84.54344198209768, -63.30225002490631], [7.093932037759823, 49.41514652467564, -8.546299992106942, -124.13618493753071, 82.76023502480741, 35.70548279818496, -8.83645511578588, -47.72274602666899], [-1.978650353134188, -37.301341188295694, -40.6220614737469, -53.405425287793946, -25.533104543527337, 38.719744467501634, 16.94608057032432, -131.02711071352397]], [[-31.76855004852547, -96.54497710602573, 28.152247314401908, -6.095146626011054, -61.37708742132239, -121.80508152700834, -36.15807501740943, -64.34028862074248, 19.79532759329895, -33.436280896114695], [69.25590252740882, -21.947840106071673, 140.2384957193231, 22.55467092496615, -52.10449764022285, -29.198624387857347, -90.22298314815112, 72.02328671331631, 53.3980350087445, 49.90805085259715], [-43.83136238742762, -57.83377349485106, -139.31353053732775, -20.162939228430158, 3.862462969072792, 38.14275719356437, 19.447968938311075, 87.52706817548821, -44.90377556747898, -50.128125353725885], [-55.00583029251731, 110.90293877013451, -143.39481805342712, -14.81024186633448, 57.85571457547206, 6.120842089019963, 53.389949191985444, 7.878082318639021, 58.37433003615014, 18.595651803192858], [143.79648618133896, 64.75447725433759, -1.7243192974100303, 181.88673455552777, 47.410398813616396, -87.5385549674019, -69.05770395572502, -77.3869885175066, 31.600996197484434, -22.27626961344611], [-17.578903502520053, 28.23766752825154, 82.88235679004312, 21.025710173534737, -29.98552225043564, 10.600555044276188, 73.34051310863428, 57.0272389968609, 111.12805384957575, 26.054921308200647], [33.40747117835407, 150.05091254787783, -12.745449717479215, 67.67619169864359, 91.8435579893923, 29.83512968668939, -46.033033282152005, -10.543941976719358, 5.883686993797392, 62.262287423635854], [-62.25973205782352, -63.53856731207853, -68.20202464858039, -26.71250464853366, -24.08238469571513, -87.31025088617086, -10.228054293637658, 4.848335214847553, 66.22182849734979, 12.736182962538699], [67.70160082723332, -16.653430276695182, -8.960802933151825, -140.36377014826812, -1.1944158903745823, -111.53902512276666, 98.13434301909639, 130.5644538875953, 107.41690319415446, -6.021842029976698], [-35.91735258310819, -25.75752163626861, 43.55139979823908, 53.873071443853284, 63.093494030028275, 7.769548118849361, 122.84167899776878, 42.10835703889185, 58.7092315182674, -7.6308844937054285]], [[-167.69791660698377, -101.61099805866371, -22.389198319710964, 215.8566036394809, 27.431228069655273, -35.7295928280557, 8.02602673655241, 6.535074658795459, -12.244697746506207, 28.63600834056911], [18.562271569942467, 72.81730921845529, -32.891597151057525, 2.3562782248736176, -117.00066574180549, 28.621961655531464, 94.9807205217665, 50.698940489080215, 131.8938342065127, -112.61257122131724]]], "bias": [[[-39.00816908145558], [90.76342976949788], [-92.60379971555827], [21.374448231879562], [61.078675591784425], [121.64833030314225], [15.916383018653573], [63.46860528089249], [54.01876206928452], [-2.0669998543218076]], [[37.75277000130441], [81.42760363979751], [55.172513991460264], [-31.7395809003923], [80.96071230045025], [31.531650516353864], [95.69527102705355], [-86.67372731263522], [-85.94423524680417], [12.186756232531216]], [[22.476802740363436], [-7.591235108583695]]]}, {"weights": [[[-19.92049540112973, 12.151299763258233, 43.14450261544996, -4.638107214368715, 210.63539864539737, -45.14014850692446, 8.32094159899032, -41.5807583389857], [-2.488072707739671, 67.72001428062947, -4.3272799813992835, -130.26518933563113, 27.219832629344573, -47.074526536908685, 60.97955901972586, -35.96112804912759], [-2.2178711103087365, -159.7800843368496, 7.277043907720111, 50.82055061923595, -0.9340647456629227, -1.0740857806980904, 13.94318489551974, 108.91887521068952], [27.293406032131035, 43.180192238290346, -96.0132352381969, -41.328861990984734, -58.156831358633106, -118.10924089237783, -8.601505078160598, -12.253431602454626], [-5.19636426809307, 13.715154544190398, -29.23919366183673, -116.03952122452935, -35.860085521251726, 0.021250889423209962, 40.64573749560422, 43.65743482852851], [-0.911119662408663, -0.13878750620936087, -19.718136160949797, -52.49344548793122, -57.22762073178913, 148.50457205661314, 11.122128746778708, -6.622952145201628], [-25.93150627927976, 52.27421356023772, 89.5513400319257, -113.23150909362958, 29.23212779496616, -81.42661718092104, 58.09960859152725, -85.98668001557024], [-174.44225141803787, 34.84253781837963, 113.04537297668728, -25.446935452921487, 17.51262370798071, 0.3613082297999125, -82.06857604763636, -63.172992655778955], [3.0489263851102866, 48.66166627607227, -12.743223546117239, -122.07733935436578, 87.08652288795355, 30.56740440502246, -8.88679318611071, -43.84021349099553], [-8.546329607308662, -64.10630922185257, -36.72398437315142, 7.748736639260548, -12.62003158165599, 20.309430986457066, 53.466965861349074, -213.29698466267175]], [[-29.377329486528804, -103.14006142126671, 27.79229725808301, -4.737233568531148, -59.70613935120193, -121.87278589831192, -39.21100730163038, -65.85504262875493, 20.366696549116778, -28.09857748522987], [62.6941721495243, -24.388174734291706, 117.51123585758582, 23.35609797525189, -59.86799104193722, -27.672469700956498, -85.83324057044878, 66.02493274300767, 48.627373954178836, 42.095163956742816], [-26.997489310086735, -48.0715102417275, -126.60375711200493, -11.36353887622605, 10.711021361507521, 47.25479142891368, 25.959416408974352, 96.41752899696, -45.018668215544054, -30.340963175097215], [-54.896429811152906, 99.74189970611903, -141.92736590473032, -19.70395908341805, 59.84827631652955, 19.895284309551737, 51.427545444972985, 2.9275078675846267, 57.40401584358465, 17.958095377906655], [151.47795129005615, 65.68277575346043, -3.328388477746123, 179.57299471939857, 54.36031794540171, -90.30000345495814, -71.92536477580387, -78.55237504201891, 24.353737712346195, -18.806159424243297], [-21.908861311508467, 18.17795981760754, 96.79984240395524, 31.544613211887583, -34.180401622681316, 12.987379283835068, 77.7170860844965, 42.25288623213203, 107.11744362699244, 51.75083477694837], [29.641883216225846, 156.96291747958824, -7.3140785520540925, 66.83231937098526, 94.30344218324802, 17.8179089689787, -48.08816839346097, -15.642519057325671, -1.5009130202885197, 54.50079055607371], [-62.287430339904, -64.84944954902053, -67.02186492512975, -25.372718615840782, -32.40928275916108, -87.30163760835553, -4.818751309578699, -6.464599848264177, 57.934184728452365, 5.715643971303529], [65.89590657801061, -21.44476595022363, -2.2630795178286904, -143.3610983146616, -4.509899523938159, -107.85322054145341, 99.23392105537945, 128.2357237527604, 104.38897719816809, -12.226380504839403], [33.70708839245636, -23.956723231465798, 71.29012658266785, 38.53181704185307, 61.14846360190673, 53.1981396278018, 95.57491214499456, 7.174501502452869, 74.83889540229364, -27.46835384523625]], [[-171.59486118772452, -97.27027148166988, -14.800554481113778, 210.93465739997416, 24.52633551616344, -23.832029379244833, -16.12102451401199, 12.88294659570305, -12.236351238056072, 34.17224474647815], [-37.963688586964274, -29.72842875157501, -15.444563895868058, 17.092557381740423, -101.3007706892227, 42.31348930401103, 67.26131433232018, 85.99573006143463, 174.72929827915033, -37.97748254457216]]], "bias": [[[-36.41562739761598], [99.39788132464314], [-93.85682020294999], [23.69902457383697], [61.04802893154222], [99.57787652321004], [13.316079491783333], [60.43521981260764], [56.18758405696683], [124.17945844358229]], [[40.681081852680514], [86.49299166251456], [60.49650261198841], [-33.348261385114256], [83.5212249926512], [51.98474243255383], [100.97404641575844], [-87.1156232286117], [-83.80329171724303], [-15.256105051374]], [[-31.390002317574538], [-24.63794168579556]]]}, {"weights": [[[-25.05276668005258, 6.549593216298657, 39.20842403589389, -4.6819067321588665, 211.79714340038163, -52.80458091533349, 8.822021463546026, -41.71744263083013], [-3.019222810003728, 72.59302528061684, -4.406231631945538, -131.70198576201102, 34.09022721615345, -50.67612943595359, 57.53932834537003, -24.134927663143337], [-2.6007319672059497, -154.23115434410764, 3.2688639430590647, 59.72877920572064, 3.5821583993942214, -0.04494522057429484, 6.332953553795082, 101.12958419639914], [26.546128258931105, 35.038889822919444, -99.21615918757148, -37.19553364097467, -56.18750362193723, -117.76653992276847, -6.07618017826639, -10.351373855934852], [0.2911769010131926, 18.655176928768167, -29.900506984620495, -115.75740076147937, -37.69077680651253, 3.6597161570484174, 38.86876872588122, 46.24837302818813], [-1.4408041962721863, -1.5520120725891098, -23.944966290943388, -49.05437961111541, -50.34322080648063, 144.60061174929083, 1.767472379067823, -16.207357443633658], [-24.343577293960077, 46.82395643642003, 77.40051729766759, -103.65085434831713, 22.76477984045653, -87.5272509188198, 66.91672592130128, -79.27775264370588], [-170.8390891464756, 45.50216508480572, 113.25909824311918, -27.572397696377696, 15.989837022190276, 2.5401339115917123, -84.37835199718104, -64.66399014262775], [15.068133701502337, 55.262697060714665, -10.196536812989216, -124.7542621143028, 79.66455032299883, 33.53096252398728, -6.952473317095161, -37.61114863445212], [-3.3673129892846103, -46.0586663898999, -37.937255309467204, -50.242908980130174, -24.832265631579123, 36.96383086611707, 19.117311296936627, -134.68569197626397]], [[-28.55718223124463, -96.76928916164435, 41.93192716383121, 0.05780427718153058, -59.34185370930997, -134.4704887947966, -41.10602682316805, -60.520272480504836, 25.948402027762018, -36.518351658942144], [69.5081460006028, -27.025320270629674, 118.97718745042314, 16.076093527321884, -52.65789019308785, -25.443535793646035, -86.62926542416844, 73.66359548235108, 40.00707613527005, 43.02355398258702], [-50.53734919458191, -49.3700966425631, -137.6616537904156, -32.07291936687064, 8.71627250869314, 35.880045839182834, 8.627422823747331, 103.50792792701004, -42.493660284845234, -54.9835222138846], [-74.6637151844192, 108.44536309389335, -141.10659564900374, -22.808433108243587, 64.03474924358572, -2.0712887942709672, 53.574148622933116, 2.774247251434021, 62.96352534305497, 28.592914398562527], [143.1987490650656, 58.98049265169272, 7.781779277203928, 166.93191952020857, 42.31027560416395, -61.41968260488325, -66.37119476575866, -78.48145694970881, 32.725087608000166, -6.608244683020797], [-15.576224296690548, 32.84585366263686, 86.71179443369236, 16.085193321766283, -40.54966128609773, 6.945756719628944, 74.89262072698895, 60.151259551483186, 111.87232191801965, 28.335565549888642], [20.435958120271255, 162.76614900761095, -7.581222538707008, 59.57594080196481, 86.49515937110426, 13.647738951465042, -58.90302461176427, -20.37642379214389, 10.136456145369479, 79.36694129160459], [-55.223336698742365, -67.81304421957459, -61.184669892500516, -23.550586732803307, -29.651268662988794, -78.54099479203039, -5.516837700644032, 0.3621052365641765, 66.53614883648372, 10.15995024221266], [62.09374479507186, -18.614457068702656, -1.9712563852126745, -138.46565785678408, -6.415441487911556, -107.38100609734796, 96.53401152727126, 131.29608037478474, 103.51176618939304, -9.603686597282513], [-34.957418799087215, -27.586669261233922, 45.77430875433308, 51.56451755256272, 62.63429749175181, 5.175918616838773, 122.03380045696736, 44.19263323916549, 52.350867290494044, -9.641317022164214]], [[-162.84761544514961, -92.298824278811, -23.446205879199592, 219.5878025221301, 33.318041049426675, -38.84146653362142, -8.624947531762578, -0.7598045937042026, -12.19455401633288, 17.09986690099271], [22.05485247923432, 65.80372208604882, -33.83840655258322, 2.3413315157296544, -111.87155617813829, 32.745944591264355, 93.99868319472152, 47.86959220496825, 132.2887700130437, -111.03100440798957]]], "bias": [[[-49.86486240558597], [103.89294083262659], [-92.61010258448734], [25.768658999069388], [60.274373481523405], [105.37929458214192], [12.380085279777761], [66.36892225560595], [53.20775551213496], [1.1113318099547045]], [[40.250181539551726], [83.18974722210709], [62.73881053561688], [-22.838977506888575], [82.96610484509172], [35.939978741485085], [100.78025490150355], [-81.39000551117189], [-83.068019342201], [12.304371452734587]], [[-19.03628787064355], [-9.503590242764753]]]}, {"weights": [[[-12.209263590219514, 18.81539148547623, 24.189867887636733, -0.7198948990213592, 195.73811768631037, -62.774155257375796, 12.42398535984249, -43.61850634299927], [2.7549303307523068, 81.26509718257563, -9.210909113687764, -139.29651552380147, 20.337986138518378, -40.602242805941835, 64.03547789383894, -18.7172846393253], [-1.4610647130445278, -159.7131585912892, -3.50726302965903, 59.58213350744927, 1.075735614866943, 1.1777843735353968, 0.07417664489265308, 92.40301368415291], [31.59227363471764, 33.32108806328968, -104.4138346050389, -37.64173464828593, -56.796284060180575, -113.45589214436771, -11.309753436513233, -9.488934254367344], [-3.972225123501304, 13.122357099943159, -29.550947309999593, -115.99711245795568, -38.46702535359266, -2.34857038870901, 41.70072351584151, 41.44826002172136], [1.784426226385314, -4.00731454031983, -25.638217999196414, -46.49094162081172, -52.75400348154002, 150.79201897577462, 9.391949555138794, -11.096371354420054], [-21.43574113595308, 51.43532197136228, 79.94904969076305, -103.62467438919475, 32.53060694529292, -80.18062586563029, 64.8388569560897, -89.31861508048912], [-174.8623276562038, 41.32674811985303, 114.54745571367012, -25.678494231264747, 14.13859660635217, 1.0693915953263116, -85.6700564631984, -67.77058800245426], [11.621700894955847, 62.92681022899329, -14.015551696776088, -122.15395363911753, 86.55896257406796, 28.388982151285603, -7.934773468156891, -39.132090790599825], [-3.7349758250940805, -47.82431679845204, -39.167991557786074, -37.15035085600216, -35.27865146245175, 13.441513194084743, 11.767111323853204, -138.37980600478633]], [[-27.996643602913107, -92.87279836402628, 34.297400003549185, -8.787496400299153, -57.90264747668357, -112.8600743098321, -46.16546947391898, -64.87634960016624, 25.452202229854077, -30.68781690970209], [68.80552315412002, -23.70268568670103, 115.47019353159156, 19.558106156817104, -56.61797265311859, -27.726816540922137, -89.08639798295948, 67.3709911465593, 50.94120459910458, 40.20096259000309], [-36.764185964100776, -53.210661737250874, -133.46529629328046, -31.230577546631547, 10.193427655776151, 29.144862626995902, 14.35511367391281, 107.9306519186234, -45.28312329047763, -46.43409848529056], [-52.10812971982459, 105.14925284787996, -136.87898172373593, -22.900377296401373, 65.62665276709609, 1.57177893313849, 55.00748341448272, -9.107453761023999, 54.184371661843024, 28.59911311949388], [148.73375670265693, 62.1385263372028, 16.513738542002354, 163.95895912303752, 49.91101288668023, -62.82675392451265, -59.40610129807578, -87.70207184391427, 28.28319273682407, -16.99506913794169], [-17.318097684202463, 20.590369913563336, 75.86716653382648, 34.468097876037255, -34.87057791016294, 6.141998177999842, 75.5205918697095, 60.34443300162722, 110.14578396629553, 41.456322302983345], [17.568594067707465, 168.56499306247719, -0.7349011383164777, 71.11592841867618, 85.09784833983649, 11.381806800236784, -68.75700144930028, -17.36874752703361, 4.535760348272124, 75.06798345038064], [-61.01507088900661, -70.67734255825403, -65.43832884223967, -25.2136758326408, -30.664895861342618, -90.46177166597381, -8.06493429940101, -0.5823930930270078, 59.00781994816781, 2.11915792845406], [67.83195990392846, -16.655418832109017, 0.5993472120382192, -152.96348897209066, 5.734021675692366, -131.1977501849602, 109.00657220936797, 133.0693315696551, 116.85126772819326, -12.364271796384632], [-22.09582280486716, -8.56946360760243, 48.73776328923019, 65.21065821360261, 63.97470336235002, -0.5874503983681587, 103.79092494186656, 45.2470139796416, 60.4301999217517, -25.325397067258827]], [[-165.13253217950006, -93.57640253962609, -22.88925361014888, 220.92341123808256, 27.29822692635187, -31.01299112091422, 10.81908424310232, 16.71054739465028, -8.1720502450744, 25.304266115056706], [7.988798117562333, 60.37082906367796, -50.05676496521199, 8.698530845101894, -109.84354248596946, 33.780638304832166, 83.95321448553302, 33.53861571477304, 136.0171190931825, -126.05650674782736]]], "bias": [[[-51.804812607432886], [90.31233452670418], [-92.81817690255255], [29.012203454487604], [86.79194192032939], [114.92728988436583], [23.845325318209508], [63.353305152574876], [49.80220138004719], [6.503090842737965]], [[49.88768249979843], [81.55592946301047], [50.28846659742571], [-30.709250293709], [79.798310568086], [50.18615928659437], [97.31486588259385], [-84.47543540066343], [-86.99235025414247], [11.634342987065258]], [[-37.44409331516102], [19.039568044362]]]}, {"weights": [[[-23.12689412035568, 17.294550517605973, 27.297969415658642, -0.523745238010641, 198.54426245745967, -47.60749565171367, 8.975386654723644, -49.68339659556444], [-2.1873305180849147, 67.20024681442538, -2.539246611132872, -122.33824605587301, 28.832280991076257, -47.255128794069954, 59.677985927751386, -33.933480073774675], [-3.804461537089238, -155.31150196310534, 0.7369506259566376, 59.46693300048881, 2.092634545418649, 0.21970302960978694, 7.46046346253981, 102.82821693036706], [25.9496869818352, 33.86206656750854, -101.47281138242467, -36.35541903740905, -57.73504053032907, -120.41628505260726, -6.072741567232861, -9.313322704962953], [1.7657995144211205, 17.59976237120934, -30.526195361891325, -113.74366476595253, -37.93919266487791, 5.637094428940509, 38.86876872588122, 46.24837302818813], [-4.771710413028746, -1.8330762163323382, -23.701136812239156, -49.79097367848316, -53.81270786964408, 145.53957211037132, 2.9060288032206683, -15.714439472483722], [-24.028356418912548, 47.487017548078605, 78.9521362967374, -103.55417549113888, 19.207238719139458, -84.65707042821191, 64.57501216945839, -80.13310329969522], [-174.9052044952325, 38.45027918557309, 111.38840762470026, -29.49945066603524, 13.922132339797198, 0.9543429206802914, -85.45928612869953, -62.14965093735846], [5.222290986713577, 46.507586006897434, -4.961723452528119, -118.76442153610753, 86.15190799845601, 36.09584907241317, -10.955424520971636, -45.80765710466494], [-9.427729108960037, -62.72354554093012, -40.94013771907149, 1.7032693592168562, -16.34678736788522, 22.200330061338505, 50.13860778738874, -216.04289657714483]], [[-36.02132358711342, -87.20303109025129, 31.79099939410573, -14.242753454287499, -55.213427108432064, -117.52820572303422, -45.89847692661378, -65.97844542866119, 27.73376099647514, -14.578684388806915], [67.55399823213318, -24.95317353297315, 116.57336485821769, 19.817474406921743, -56.353550808930635, -27.726816540922137, -88.3051691882642, 68.04455764392759, 50.53047950945696, 41.931192197058316], [-36.564538933720335, -55.111242737994495, -134.06633757124783, -32.023602942116256, 9.374418575162725, 29.4280695711306, 15.179172279494535, 109.32174697512093, -41.22234780842234, -45.22717022629031], [-51.44503926257366, 109.39841283290627, -136.82996893782874, -20.802760598073412, 67.78056529760684, 0.30507249256493263, 57.81764975517227, -7.118182376658606, 53.318282976958535, 28.59911311949388], [147.9272292975715, 69.24263903889614, 12.114502622798073, 160.28867562141045, 48.196188177201, -71.67436599796362, -58.11330322293986, -90.28619343164499, 28.54688168671262, -12.287017973879589], [-12.40550896538848, 32.8533110674734, 90.38365443758151, 19.73414564593249, -44.264560971323164, 7.543384308852641, 75.41079753238166, 55.61012704777342, 114.40453630311941, 30.257215187968907], [11.82363291376913, 164.1614109131282, -9.387400197860709, 59.454742599140246, 91.09560829555582, 16.207242144467426, -64.79140064978722, -13.418910910967302, 10.83903579798083, 74.34276427494756], [-54.4639274262334, -65.8446841839825, -60.92892412623181, -19.114377028270436, -25.745887987863924, -79.96399325374976, -4.046494738267576, -2.873480908358786, 59.85732175094863, 12.236404681799105], [58.84733903900276, -25.38464246599773, 0.19415872599040696, -154.70457904488464, 12.522103949640307, -123.73105116181603, 93.17847543467923, 138.3916239091684, 125.64506815570815, -8.51579628494354], [32.56701430103577, -20.153641978522614, 57.85868421155712, 38.68855793511995, 65.47813260904209, 52.588520757837905, 98.6673949786886, 8.72489476399497, 70.23987973512466, -23.32440086919727]], [[-162.66634800582162, -94.73486342272348, -28.715021832658493, 221.09132944932426, 22.359821234072125, -32.34609223040983, 2.4544003673314623, 16.494076313595645, -13.016281407328512, 25.19804680224844], [-32.92766538602408, -28.2364034037738, -22.759332804704997, 10.654830854564464, -97.87437831015677, 39.01589442043257, 65.82557772358348, 95.20351038837484, 181.50178847490986, -36.700591855969435]]], "bias": [[[-38.48690446364426], [86.9601524077409], [-95.51261753571585], [32.90788889717764], [55.98687753788834], [105.35569041797609], [27.481248788295403], [63.449273434488255], [58.039519216556116], [112.01452406635546]], [[37.97178610521482], [76.20586845141138], [56.07373902987295], [-29.687754969345324], [90.96521920877422], [30.268041219258908], [99.83460732020808], [-84.27826825865029], [-85.9610065269099], [-6.64307415151922]], [[-33.03665551830999], [-18.17079585154442]]]}, {"weights": [[[-19.31977625667603, 2.639689781240956, 41.10715356823308, -3.0660980521217933, 215.36337230489667, -53.44681213917413, 11.591497559813993, -42.43617541778575], [-4.167771265998674, 70.92073865242098, -3.6538060786537145, -134.64205007489088, 38.55368443995263, -45.43794547812951, 63.16468421560461, -28.255415482697266], [-2.435199557546856, -150.18206340044227, 6.043201319791732, 56.65797829838295, 3.5119366379055497, 0.946561642643176, 4.512316393892124, 97.02992366861875], [33.218957996254915, 38.06448886766724, -106.84427963518982, -45.06413277568742, -67.78050467579017, -119.90116445040428, 6.871343757969633, -15.931600738176007], [-4.091687837549853, 13.715154544190398, -29.944947899109376, -116.11121376175286, -37.67916123579241, -0.7083570374663635, 43.548204500392806, 43.41739698232684], [-0.911119662408663, 0.9958947921394143, -20.968589685358054, -49.5282018399822, -54.23406157385957, 147.6440059316602, 9.608575193894472, -7.407499589893592], [-24.86235466241872, 40.32536798918096, 79.52961172384911, -101.80098560979634, 27.22664492983346, -80.35278756663142, 65.01838226572086, -81.93762531821118], [-169.86589492505206, 39.44715445233942, 114.13230438099998, -27.47510354676563, 16.53976469236299, 2.8778646018810017, -83.55825414688819, -67.35371971658914], [1.9311971606608234, 55.1012949794314, -4.1270000064074175, -117.27437817023561, 81.13845328341462, 35.95385452422355, -14.174240479149574, -48.02308867421643], [-3.680881376223402, -42.16752906015899, -39.63286082768376, -54.813420541172654, -29.71137807076382, 35.934990614961045, 19.186120858725502, -139.3181333916635]], [[-27.576697373202055, -94.56182256170956, 27.231990225769227, -6.01338755427812, -61.93028176360822, -120.27855152132933, -38.288071236503164, -67.1012199334928, 17.363863492958313, -32.682612797721426], [71.21459914647667, -18.20701778369305, 143.52771893391377, 25.396694449617637, -53.174594178580634, -29.375600090129602, -90.14302369050252, 70.15255750608823, 52.6908830163671, 50.43790779993392], [-42.768010410872336, -58.79400268627611, -140.17897301049132, -20.695431377448728, 3.5681360853219406, 39.33758259454575, 20.405138305912768, 87.57717853726123, -45.925118451822875, -53.12822047302054], [-54.42381656407647, 107.20091149193176, -141.83395080011906, -12.831019006925972, 58.35971038840068, 2.820469896535032, 51.59088957126274, 3.4705295364062403, 57.87505712569405, 19.65659623203525], [140.73385205374643, 68.84435524940795, 6.317314352669093, 176.75097330782444, 56.218431872591694, -86.7108363513022, -63.841637027951634, -81.91500360688143, 27.127049791299765, -14.164092230441872], [-15.93735897767978, 29.394773010309997, 89.32771278460746, 17.947420286222744, -42.13366500058531, 7.918286676867027, 77.00950409451312, 59.97402928702952, 115.65285851488649, 27.500935571091656], [19.181741749844182, 169.41564194571126, 0.671617353918966, 59.64500851101449, 85.9665625126223, 15.653234459278549, -60.979425687714034, -20.478762142495086, 10.041585910302093, 71.9525256191642], [-57.495696046052544, -72.68314027441882, -59.03993929993509, -15.235322492619334, -16.049613997176568, -84.25697512665242, -12.429875288086627, -3.9076361908648836, 59.34194425637468, 15.647325024072792], [65.46138425441019, -15.23086694557321, -12.459460331702685, -140.28906052217414, -2.6642997870525402, -110.71964472913118, 100.34266186071167, 133.5935050256382, 103.8286008412432, -7.024682632274277], [-33.681834700557204, -24.840950025692816, 46.173365996913134, 53.89790796264898, 62.98284834193039, 6.827510065026328, 124.77679970047069, 44.6657420201161, 54.74219441246581, -4.908902200139467]], [[-151.01176336483923, -86.85043257497523, -17.985948879469188, 213.99999463652023, 39.91958021491744, -15.561381273510753, -17.31113667464232, 9.651421021946648, -18.126659318751788, 36.91713596458815], [21.453226634504215, 70.27407879171476, -33.768461595955856, 2.7642037793481053, -111.36287605474202, 31.572954299314823, 101.00977538245148, 55.8985337983858, 145.32656914554076, -111.38237609267802]]], "bias": [[[-37.75651963586811], [105.2101002318097], [-98.72037004349636], [33.514340437482005], [54.615937192667545], [102.57397780568961], [20.514711404761535], [72.95712335836303], [47.54190006994965], [-4.726847673198345]], [[36.15519432585202], [80.83783992224306], [61.39131965676353], [-33.0633207190215], [83.78225627209747], [46.702829143481026], [93.97042837565269], [-82.73408013357412], [-83.09110356241821], [15.750160534996485]], [[21.945788651685834], [-7.626089518376354]]]}, {"weights": [[[-21.155440258555366, 13.482422046363443, 39.20710000672781, -4.5879702268443605, 212.77232513845266, -45.53097804954078, 6.174904004347336, -44.526806406753806], [-5.143639387253322, 68.26732091114697, -3.4554020442918127, -130.26518933563113, 25.796871448960427, -47.48873215042002, 61.803262010351524, -34.99767614107857], [-3.5698632556968533, -150.8270824526312, -6.003024748737269, 60.618771585425485, -8.134962090121412, 1.6338013064678787, 4.783737909839004, 90.1129883175602], [26.153028058122608, 31.807569935991836, -103.48015891213959, -39.384736017560584, -57.67684625008384, -117.62051761118833, -11.869294584958217, -9.505837055679692], [1.3865174101446787, 20.65998666278372, -34.18459051112501, -113.86920239025811, -37.928948833449645, 5.371097307055683, 44.15951177980608, 43.384128416361854], [5.2725050208681825, -1.8739323180086145, -21.110961587070943, -51.239897487242914, -51.77956462676744, 144.37374859765774, 9.820169570922793, -7.843164697209651], [-25.818896340547525, 56.51381683524345, 82.59775083725627, -113.56664456464527, 29.247388316327452, -83.0969505572523, 64.66301593036293, -88.01174850191997], [-174.99962536579113, 33.24451632818962, 112.96353968326551, -22.08900897476545, 17.190843434456035, 0.5833212514249606, -83.34231787488666, -62.095435205759145], [2.1918733563486423, 48.340746356684065, -10.411704300807173, -122.16751958216643, 86.34845829311705, 32.432987543602145, -6.352997513502869, -45.68323583165969], [-6.8749264043349685, -64.95802007379459, -34.7231507196378, 8.464867507773633, -15.69623245994009, 21.58877870251827, 50.8656073463758, -212.7240145794003]], [[-26.987363523190762, -103.51600366984324, 34.778221137951455, -4.568215290781005, -58.336101218146496, -128.11210650668596, -38.83558597770296, -66.99300214099321, 27.52976624823123, -33.85724852773356], [68.5490589999237, -14.890067186532466, 139.19316066945268, 24.508234988023933, -52.4249085308529, -30.53494589855533, -90.54411393901417, 72.50239420248384, 52.88926419295883, 49.3508008856514], [-48.343545128983905, -48.79292232014145, -133.31967531348803, -34.23181102764971, 10.876065969899077, 37.261522101032966, 10.144133834750646, 104.82722309842248, -40.061955444828314, -58.54013478505725], [-46.342351745463304, 102.42215784533848, -150.011483663204, -13.090603708893532, 63.75038770596825, -7.061145187976576, 47.497155252998965, -9.076004829936345, 49.53686275922695, 32.663377293447454], [151.95768135328268, 64.21005031444277, 17.802570310581494, 165.60307149419603, 53.99532440410302, -63.91404944987576, -58.03310741837268, -89.38287770825161, 28.910038424611262, -15.354000844558731], [-18.17046848327195, 21.07142900271752, 76.48029113582547, 36.63471092560091, -44.45846458635958, 19.73707143800797, 72.69772247128566, 50.03765296525333, 110.8091918584065, 40.27871841016652], [8.333898554172393, 143.0582067229628, 1.2942995279898952, 44.69384023084451, 97.30156751279604, 25.36756800862023, -46.36139846523933, -37.90903246277425, -0.5316948856294159, 88.70394556914384], [-62.80033079547683, -68.12439576925755, -66.95833517807246, -27.95399943619498, -32.230302905119174, -84.0596195751145, -6.184728565493375, -2.2741589065596672, 61.040945041203784, 6.6132202937313345], [67.20575386912606, -11.700404383686518, 1.534667793948077, -153.35417479320225, 11.495089557626782, -129.43757598317194, 108.51399311023616, 131.04812793387575, 115.18362336331332, -15.784017341008402], [34.06723332721315, -20.058003863416083, 72.03075755091545, 39.61583810149259, 60.32121885905269, 53.692041246421915, 97.17772865367215, 6.711728193616322, 74.92755249691456, -25.699473377198057]], [[-164.14664893572845, -84.8687236782222, -13.635745233602428, 220.17877554936257, 24.557223632449364, -33.55651077688912, 7.202767067069917, 6.67864595540048, -10.978060357311659, 17.651998132309505], [-37.32764825245546, -27.660459051509413, -14.932759524243517, 21.906293985855132, -99.37815566437791, 40.837956174746, 68.26830335487838, 84.86601432027719, 178.3279342186436, -36.102011544567965]]], "bias": [[[-36.04436466334987], [87.7850101632452], [-93.61044003755049], [20.38635245186557], [60.11421307798871], [102.3764563020961], [11.696748679763783], [65.79563955410642], [54.71354676895891], [124.65352127297545]], [[40.89565314133122], [85.64702420194715], [55.62518127692847], [-26.159757388365886], [78.1881195677142], [51.45894657403544], [94.51583388068163], [-92.35995045719196], [-77.96109588455283], [-13.140388106220483]], [[-35.02038579874557], [-24.406904534189962]]]}, {"weights": [[[-19.141168613865382, 3.931891014969172, 41.37950407794306, -3.1174375490858406, 215.1118806386023, -51.470745905738305, 11.591497559813993, -41.685450260381714], [-4.130598655166548, 72.42142836088689, -4.289167661168037, -137.508884835055, 34.32539301887987, -48.177512021239856, 60.99392077706072, -27.78242280480326], [-3.189284943034873, -154.97523701350212, -1.158949522341298, 51.09914843214333, 1.4185788708611458, 2.473776019942323, 17.03918545915818, 105.34579934479467], [30.709322387623143, 35.84296590186369, -91.90816431555737, -39.93084238793019, -56.92690337772513, -113.23666323350128, -11.575168598678772, -6.243882761663937], [0.7538303008243832, 15.974998074718474, -31.285596230902694, -114.75143462044106, -36.528530147167714, 8.600705589429085, 39.724126967072465, 46.14331200034969], [-1.903493164223791, -2.480701772919671, -23.944966290943388, -48.23243230199342, -51.34137574130689, 148.78462723700792, 2.9060288032206683, -16.963772185741703], [-23.527875197523176, 45.71716629573914, 79.15827167856558, -103.54840160529852, 20.509134307954895, -86.13382696113597, 63.71163736316855, -78.63580522196582], [-174.5250819810487, 40.24815257571635, 109.6948511954023, -27.12260795099349, 15.512334465847182, -0.7995604503178207, -85.70595301581818, -60.564019633662134], [5.163535339352984, 46.28907455925522, -3.751879234794186, -118.91314403464969, 84.99001550789019, 38.92846225630976, -10.02641586181882, -45.19020956877541], [-8.940676108987162, -62.45197920294108, -42.043874414777115, 2.6059175922632525, -15.426169669766992, 23.043891045876407, 50.0667167568359, -215.24527184388037]], [[-28.58725859143154, -94.54302171696864, 27.910471311443356, -6.491408629600464, -64.63754025392515, -120.27855152132933, -37.85806253395186, -66.0010948960575, 16.215821235943064, -32.39276645527334], [70.03114898292259, -15.455393726970433, 140.01178050303082, 25.412943885849632, -53.174594178580634, -30.53494589855533, -88.82870702226202, 70.52595722612693, 52.186213383410845, 51.93704511710298], [-40.295381186898396, -59.89889921060896, -138.4805213091329, -24.37674484223412, 6.305130826870216, 35.966576452257236, 24.090897018930608, 89.52268502514899, -46.007346840587736, -50.45370431780006], [-58.01623805004204, 108.86011954169841, -146.30240913683883, -10.44839383706833, 57.842667680861965, 0.13186937403748175, 52.42446924025716, 2.8935178396218935, 58.572061417709996, 15.608421498428475], [146.7309112912441, 67.6043452008714, 7.111116165442212, 161.6075100151726, 48.70847182159222, -67.77762578570378, -61.397864464588764, -92.89350943310734, 30.21380827566669, -13.654032431324126], [-14.811831724868329, 17.662367785583847, 96.57515113277243, 20.75741348939309, -22.478343086349692, 6.571216486790145, 68.74072227394329, 56.72111393568389, 117.79246205299174, 48.103575810739656], [32.18519385463381, 155.6209039360598, -11.645885969771811, 61.94125404677538, 89.21854690270402, 27.835769170250273, -48.32521891074476, -14.110614914908108, 6.509417747071713, 63.18311406198269], [-57.69374665393675, -64.47453589594227, -70.34260259120802, -18.8489025798306, -22.56635131327105, -92.02897136323074, -9.266250486988957, 2.5401818571446158, 71.93447765098315, 16.693336119455758], [58.984511554594484, -25.963741998387885, 0.5388522699626773, -155.02189386185472, 14.7511396831084, -121.60547197319782, 94.55578457991709, 138.33830650151964, 122.25992829664995, -9.611113013207556], [31.40175485498188, -18.936099767810408, 58.23368339399828, 39.35823203585627, 63.127207559610234, 55.17892642737321, 99.52510113240092, 9.942952040519705, 69.00935294386949, -23.984122173516177]], [[-163.72572610677807, -91.8154433091076, -23.083242967352696, 221.437948909826, 31.21806588459062, -35.91890709119441, -8.819839584332039, -2.237767421497037, -11.002917842045045, 19.34024556364907], [-33.67192451673827, -25.0385292923816, -20.352290807524266, 10.715777235160495, -98.33653805141793, 40.31787598681227, 66.34053038200858, 93.39187652410347, 179.8948988372665, -35.839254181665936]]], "bias": [[[-37.65510677645824], [91.29498011377144], [-92.5542087124534], [19.95921417454689], [61.15776398952271], [106.16209302984964], [13.249678722498732], [63.17718054524034], [53.36837259230998], [113.64669373868578]], [[36.741329854283414], [77.50169974264301], [61.14010933278088], [-32.83760731841983], [88.3479844309182], [48.33882196520025], [95.32673995294302], [-83.68996581221619], [-79.87615273855504], [-6.377337992547594]], [[-35.4754612245781], [-17.96359558608015]]]}, {"weights": [[[-12.55494999345027, 21.208900483429048, 23.81506827649134, 0.0663008813607666, 195.03713521732834, -60.1645322946711, 10.145303719646565, -43.44305658054238], [0.33772839460341364, 66.38150543184247, -7.728990653827818, -131.84576162029234, 29.000297090899195, -47.614628289827415, 62.582318516494226, -30.76817864599499], [-1.7036957292273287, -151.5138578034854, 2.2358115713653905, 58.68712625789719, 3.0491123687060346, -0.23446507719952958, 4.645371915163356, 96.38486830576124], [31.14034506014157, 36.102797059074966, -106.97452588932425, -44.914380920890736, -66.13075372326152, -118.73251593356211, 8.799851112678727, -16.47965033039733], [2.4988328687281194, 18.62771721217174, -36.943917888700035, -110.10562548210478, -35.95147126727599, 2.569400155876325, 39.90737448299644, 45.97477050379953], [-4.734515643403658, -1.1045516135369866, -22.379785937721554, -51.330927381120986, -51.63042108678712, 147.58546044567817, 5.400282847348476, -15.835265343357584], [-23.220601673941758, 51.6269606090904, 79.6243187666436, -103.64219330258167, 35.405479752490216, -80.74049090989247, 64.08169329322145, -88.18759204367328], [-171.71412867843551, 40.640135589110464, 113.52152826344928, -24.3450541255225, 14.564268377615942, 0.4256462772805088, -82.6341129864036, -66.93567299967108], [9.719399526301965, 57.987601977422955, -15.309429789305833, -121.98450664042346, 84.76175717876292, 32.12389162909259, -6.778317100609066, -36.09855950845022], [-5.973915584097621, -44.57133436705265, -39.53913182328124, -37.514529007456495, -34.85667803331001, 12.144558892799894, 14.53441144173553, -139.91310591476287]], [[-26.800232857795223, -94.48045343296333, 32.695437844024234, -8.308269945307135, -57.044421946782, -114.35522408350414, -46.18362930423698, -66.88785628778051, 24.771696591540806, -30.58806240054139], [62.81913334194315, -22.590309267621222, 137.62579296053232, 7.772165050941474, -52.010152678799464, -31.47374744342116, -91.75503660536579, 81.42841205622727, 46.3805410445169, 47.498397409587916], [-39.21359547166767, -55.82700946560609, -140.2036853645438, -20.12263154268097, -1.2997555654249622, 43.39425029732373, 22.79069000868847, 98.65646489689473, -44.072585938136946, -56.18779474051653], [-53.22685668316153, 108.91198871541775, -144.38872537255423, -7.311762762030919, 57.75592423159599, 0.5900646212562459, 46.414924627724496, -0.3451320315157654, 55.91770946168335, 18.71760144885673], [148.12786036863963, 67.50455533550657, 9.611734251437243, 161.77386146973922, 47.33751266045243, -68.1211277732614, -58.6016262147473, -92.2851446089772, 31.05817054170308, -16.00985833155712], [-18.619017254332082, 20.71509969364111, 76.95704752863973, 33.515529651699616, -36.43080220012717, 9.891357410772706, 74.35250538865748, 60.64124378083498, 114.59240962878982, 40.73190001385221], [16.51756998494047, 169.49675599328907, -1.226237801194828, 65.57470791882162, 90.24904477423222, 11.07441303235509, -68.4565674485322, -15.939179808301006, 4.0173744941012695, 78.22307730690912], [-62.98988311681187, -68.9967726839288, -66.95833517807246, -24.903947531219583, -31.756854699874925, -82.72458231814555, -6.033791931203272, -1.6885213383715325, 61.040945041203784, 5.799355237135475], [67.50679805052616, -13.630076535478102, 1.1329868421374103, -153.35417479320225, 8.659309222537072, -129.29666975253858, 109.54416780169551, 130.75199941080018, 115.18362336331332, -14.7853744646352], [-19.858540764544877, -6.597416133313037, 50.047702364815166, 66.22838454717662, 62.598961676008585, 1.4279634397923657, 104.26700814121529, 46.12492107359307, 62.02735616647454, -27.25670019689904]], [[-165.17238127627925, -84.8687236782222, -12.158873940083998, 219.36848694758723, 26.755181376608405, -33.55651077688912, 7.076834948371553, 8.697114859650014, -9.339904291366894, 18.10895651334137], [7.408003982766978, 60.40884023453042, -48.338662890017794, 10.581159727275617, -110.61337806704577, 34.42128066833883, 83.01425104578612, 30.90464495893144, 137.72090959151296, -127.09912373167495]]], "bias": [[[-39.89582974529004], [87.7850101632452], [-94.49813722154013], [20.316963343133445], [59.818603074264274], [104.1138532249597], [27.06522843351045], [64.34941383742346], [45.18057322818355], [6.503090842737965]], [[47.376862576165784], [78.72824607177714], [47.89633494860082], [-31.445481055738284], [80.55606398591226], [49.80073173231687], [93.69670894922537], [-84.50723520149319], [-87.04848825925703], [11.3619196101202]], [[26.363572224356393], [19.039568044362]]]}, {"weights": [[[-15.563428009126211, 17.636541131388462, 28.31584145562111, -4.7052765989715475, 195.02338264219682, -61.306174350079026, 7.224811759208925, -51.57964729415411], [-1.1789979410782978, 62.62654288466434, -6.871124779046, -131.6677363707649, 31.8933426836253, -49.9023481335507, 63.43703030903259, -32.50105461628528], [-0.8454635880011262, -147.02563051293, 2.6573699446131904, 58.450856693840855, 2.915024700465454, 2.1815262837832057, 5.010852479854366, 97.55676264170998], [26.203197263231665, 45.143500471967684, -101.08781697473299, -39.387735595052284, -52.023545854417826, -117.66641413585123, -10.46426885538671, -8.335304655173957], [-1.5551428742151272, 16.366695790410486, -36.216524498304715, -110.80969051422689, -36.550200721609514, 0.3763332681104188, 39.53731635260703, 42.792627132758994], [-5.894486374636347, -1.0089152193214594, -25.891727314299857, -46.770119138108996, -49.139285231528625, 142.89812330568844, 2.7652933888367754, -14.782677572106548], [-21.966821398131636, 46.100582857440315, 81.31592453501797, -102.92507403922329, 22.87018527223488, -86.65945258674451, 62.774885104533276, -82.23787587306121], [-174.68180692569217, 46.80620501142234, 112.14898724219107, -20.59990246017768, 12.75634670710354, -3.8436935175120137, -77.93754233734487, -95.1566408481933], [11.282274085966868, 55.73709607441991, -12.873225889108038, -121.99972298431098, 86.61650356890215, 35.41878136696418, -9.19543235370004, -29.87548370637151], [-1.9895857402867154, -38.08883027264878, -40.6220614737469, -53.09880046990765, -24.78254307420276, 36.59955524126297, 18.043762473105687, -131.02711071352397]], [[-30.63133778993442, -98.9243863146301, 28.95512076510089, -4.835837376728309, -61.49527485883065, -122.1114995565944, -39.21100730163038, -65.06885268133539, 19.81789999682278, -29.119697122362943], [64.53958863932033, -27.049960884173974, 118.73788581151734, 18.64128569656243, -58.376380445513874, -30.825551506565983, -85.89350300417259, 65.75540106782495, 45.8039810254119, 40.018869990301745], [-26.03426861131193, -48.50149471214609, -124.59303530601302, -10.59747890212836, 10.673512637912715, 45.28276293077717, 26.52306858897457, 97.2780184702541, -42.39725559386432, -30.296207421731026], [-54.86272413104328, 101.31524138305507, -139.45762871958595, -17.619558831978107, 59.01956229272058, 21.67175437340592, 54.87730424005575, 4.018554905112154, 55.89626223228, 18.297598139132667], [152.332867625747, 64.89680878465397, -3.3571753288519015, 179.14692472135368, 55.80569161199928, -89.96498926293954, -72.05759393270347, -76.94993433041965, 24.03108159158296, -13.999569434007654], [-22.7116480209052, 21.432275499081534, 97.39814935969841, 31.015972247905662, -34.65633054422915, 14.567791230821994, 75.60366328806113, 45.60914645738736, 107.68718102816698, 50.7635841484074], [28.931255470828507, 155.57651727494016, -7.869543937441531, 65.91556930696169, 86.22874757221605, 21.22028318670268, -57.08446368701412, -9.17825544204483, 7.880803741337573, 65.13390790684957], [-63.606231028417604, -64.12547198681753, -68.1373354305878, -27.853990615022756, -26.154899825334574, -87.60651271883386, -6.876413811673834, 4.848335214847553, 67.40081600383985, 12.736182962538699], [67.78528423936595, -14.937053991923896, -9.413822667138627, -142.21083717260893, -1.1944158903745823, -110.83786910185448, 97.96885648183742, 128.6695026683093, 106.44810260880573, -4.869272752597885], [-35.09446479384301, -27.447971370493498, 46.351156064540476, 53.873071443853284, 64.3308092209769, 6.556025366136449, 121.88570659022923, 42.10835703889185, 58.97470193046119, -8.859168349422374]], [[-164.3624467763375, -99.16269425169497, -22.40891582187862, 211.3657528718549, 27.71696509438643, -33.55729435195586, 8.452836417680665, 9.912108144674756, -12.28367832872222, 29.220595984975713], [18.562271569942467, 72.423737487577, -34.03926950401564, 2.3562782248736176, -115.78106426498182, 28.561778826387165, 94.42886564688786, 52.08273658521004, 132.52449674541302, -110.7489549689562]]], "bias": [[[-38.119540885386776], [89.03686163736843], [-96.54975935369592], [32.63657053366286], [51.35260008402837], [104.9362669655275], [14.810329359587291], [68.65833613822495], [52.08016249862075], [-2.8736181629867557]], [[38.6544828736603], [74.92205441982237], [51.89354783229577], [-30.544016548657314], [83.61264707589018], [49.975329288812894], [103.55844175763164], [-84.16159752413772], [-88.14994139723603], [12.166013204348507]], [[-32.01384689552814], [-6.322733962211538]]]}, {"weights": [[[-17.62496797282691, 20.150337329475057, 29.528320243000678, -5.4215020209281315, 195.19497468963596, -55.482552255492244, 4.632531809655632, -50.30597956891011], [3.4322704965138917, 63.74840857965984, -7.375839941975618, -130.6923044429383, 34.28435875794999, -43.92223392885503, 68.70528612049405, -30.089026541164507], [1.319840789612392, -147.81851022398624, 7.846552592631429, 56.59938207740306, 4.9546626707158, -0.7365569539757334, 3.693352973051997, 95.34272442245678], [30.609956902605067, 33.944888083918485, -107.59080046115183, -50.89619797355366, -66.65152586949462, -119.08102259447674, 4.919979639372574, -11.780586361229776], [0.8221027784353774, 15.367529256040482, -31.590014884842706, -109.65045151112578, -37.71434531835405, 3.227047191374001, 43.47750908632143, 45.30665795250111], [-4.734515643403658, -2.122987683067459, -24.17057353186042, -51.967892028944206, -50.031537347456265, 146.1309073424933, 6.0169723441761676, -13.665946245271291], [-24.28537700095593, 50.74763603245634, 79.94904969076305, -103.95500705345628, 36.3888342964663, -80.07699458627171, 66.33873291731494, -88.0525362055627], [-172.7059270320871, 41.386869164380144, 113.52152826344928, -25.790258258993354, 15.007943228704478, 0.4256462772805088, -82.26209173653714, -66.74489180397454], [10.683092324351708, 57.987601977422955, -14.015551696776088, -121.98450664042346, 84.43886074929986, 31.907523238651237, -7.108078066845867, -35.398313987218046], [-7.425899543327122, -46.430554924174764, -38.10340035228951, -38.12761880012923, -34.85667803331001, 12.144558892799894, 14.53441144173553, -139.91310591476287]], [[-39.07237153999213, -99.68385165268948, 32.227519152763186, -8.143757472455219, -57.17210103449248, -118.58572084270229, -49.40304350133489, -53.46238910363122, 25.361873726393327, -35.915836624501694], [66.83545371000785, -21.480482989329104, 125.61312502897573, 24.608416811259243, -58.13575335477973, -28.068855618448577, -88.11310449317624, 73.60295312677856, 52.39705395681522, 34.67198557254923], [-38.68494608807567, -56.30650137758648, -145.30031070568435, -20.472430021013544, -3.4824972479582312, 40.50773861859093, 20.546224317111275, 93.76406943692668, -44.64643055388629, -54.827328632692144], [-52.69693161992322, 108.69665495815642, -144.17377659010936, -6.939070424508647, 62.65302699202914, 3.8623196215729325, 48.90589101972134, -1.812615949643546, 56.62889340824285, 16.649538171655117], [144.39011491506872, 60.11249177364484, -0.4620220798379506, 172.157687841502, 44.338033699972485, -63.47980875256112, -62.00711280272374, -76.34381410437615, 32.26446099139562, -9.599710364265077], [-19.137873984091588, 19.761003704477847, 75.93973119641338, 34.59013389938636, -33.83690444855786, 10.276613714834356, 74.53979279432286, 59.00947773768192, 112.71382861819956, 40.739616581852026], [16.891538756673945, 169.27116286216136, 0.18153232052399648, 66.61680572933253, 82.640675865092, 12.298751308511642, -68.62140443139636, -17.51964599218086, 3.93225036572102, 72.94953021484926], [-60.565866574911404, -67.62280131818427, -65.82913565734012, -25.934052926895493, -31.774270853976873, -89.15922095082402, -8.395018761575487, -1.7594323983318092, 61.259861598386955, 2.2504023087948806], [67.02124586768537, -16.700098611355138, 0.13823644642590527, -153.04039568951885, 7.9940479775366455, -130.6871485648467, 109.2573366889968, 130.89038814054, 115.75378230125801, -12.323712620234781], [-22.113206666406928, -6.597416133313037, 51.88564888915224, 66.22838454717662, 62.706337163714714, 1.6717772802834316, 104.26700814121529, 43.73677442008103, 61.79647543960767, -25.769049510672705]], [[-165.17394482003564, -83.15021373231193, -12.899311539562195, 220.63557715490705, 24.416340660266137, -33.55651077688912, 10.402000833646714, 8.268719074181089, -8.87877831405235, 18.624238597768343], [8.291546162994498, 60.40884023453042, -50.13681512248527, 10.581159727275617, -110.12417934496658, 33.53073019246559, 82.96046343660254, 32.482404265315154, 135.70831445664462, -129.25666699219462]]], "bias": [[[-43.03920395835177], [88.43853854510095], [-98.25773372267692], [25.886332755492457], [75.8172076110866], [95.34401426381174], [27.085905931059308], [64.43234772412245], [44.66944276645843], [6.503090842737965]], [[35.019325953548], [86.92529898702276], [55.62518127692847], [-32.858886884853696], [76.21241819783755], [45.25310998096425], [97.94431629950812], [-83.62196326997558], [-86.84100742670054], [8.741743360247739]], [[22.334239437015732], [19.138718767701164]]]}, {"weights": [[[-17.668014086524707, 16.27910259692859, 25.87640742300871, -4.835876159151126, 197.30658847955996, -56.7714893124809, 3.7281049351765163, -49.07105025474684], [-1.495581005933585, 61.809158957348636, -7.607425784984268, -129.926755172999, 31.83225164568543, -50.454814467102565, 63.68265022926462, -32.52570764850624], [0.14209000158806417, -147.99977129194934, 2.9453569520799787, 57.77549201883067, 4.277249248772932, 1.8307764716544872, 2.6204026076201288, 96.72382212255246], [25.922716353695527, 39.56677258567784, -101.28034492883329, -39.38993425085342, -52.59439633962879, -118.13547133466841, -11.176325444601476, -8.984459614133549], [-3.226654437783068, 19.0356779535033, -38.23140109826003, -110.81986198655112, -35.96978874055496, 0.6294782568420267, 38.83176011494386, 42.81686490652371], [0.9312153534686732, -2.851411621173903, -22.7085240713461, -49.708307556151354, -51.4803807428132, 148.08876575715558, 9.089611134543043, -10.113791236162987], [-25.93150627927976, 51.048346202184206, 87.89348069988091, -116.48410693498326, 28.82392464000813, -81.77562481052027, 58.09960859152725, -86.25155684904699], [-173.12466572668322, 34.84253781837963, 114.23469940101894, -25.10820013465055, 17.51262370798071, 0.31466517728605836, -82.76121665958789, -62.20300451358566], [4.478931057272903, 47.46073748024462, -11.576809714945727, -122.08268727928237, 87.072792781685, 30.31400038416355, -8.88679318611071, -43.404235051241365], [-8.195639296142565, -68.36474527826569, -35.61365922234984, 7.4301524447364224, -16.55949478535316, 20.19564040596625, 51.254091746979995, -214.20525870177164]], [[-29.70591098601293, -100.8065825801869, 27.233250128396783, -4.737233568531148, -61.06517772354467, -121.87278589831192, -39.21100730163038, -65.85504262875493, 20.366696549116778, -28.09857748522987], [65.02929882496278, -24.506149831659666, 117.73648772060282, 24.377482119087315, -57.98825865168719, -27.672469700956498, -85.82511469406896, 64.68031866740864, 46.749630225446175, 41.35503577779468], [-25.760767788090828, -48.0715102417275, -125.75703946865389, -11.36353887622605, 10.673512637912715, 47.25479142891368, 25.959416408974352, 96.41752899696, -45.018668215544054, -31.455812277737508], [-56.04385288157571, 103.33158564150914, -139.89142193406502, -19.90095073061249, 62.30835706425139, 11.266079469030798, 52.4982427036346, 3.0727613193986922, 59.486213227983164, 19.957088998780275], [142.67664281005287, 67.68093652209089, 7.411994699966417, 174.69721636064708, 59.57500958171791, -82.12481833078895, -63.99821701922215, -82.17837289046376, 30.238166958435986, -13.047180262108178], [-19.602326552462806, 21.07965616128917, 76.78937109100715, 34.473414225250224, -40.22393057792777, 16.416454317110244, 80.3238025155813, 54.288173618953046, 116.07068122929074, 41.57884265557529], [33.65626161023643, 148.28846131470405, -11.545054698952786, 68.90655712305563, 94.33569052668724, 29.03196216929426, -44.65723817782458, -12.423419538583861, 3.1522972090145456, 63.93994089613382], [-60.233080347986935, -70.76452192527516, -66.05307854004063, -25.629468193038704, -28.68554897043985, -86.44124900852641, -8.725027147414401, -5.506775877260189, 60.96085017914997, 4.952575676438617], [64.15447151373299, -20.701034551484828, -2.605127555852173, -142.36976044406254, -5.153717685992999, -106.43257883933326, 99.80976384442819, 128.49320939247215, 107.10416748814029, -14.430339132129752], [33.638769833099744, -20.142578524211412, 71.15087274338072, 39.55478040581988, 60.941966243059994, 55.13340623727864, 97.30063495613398, 9.215362606672345, 77.32846974129727, -28.391585840225723]], [[-167.38216307280837, -84.97166444384524, -12.561108959686988, 220.9211976856691, 32.798081158721565, -38.65405597472391, -9.530171762512964, -2.150204750651261, -9.581047559065468, 14.64090560548576], [-38.373192789572926, -30.477757598806743, -14.732554416696164, 19.877291800348143, -101.61040575929147, 41.78539831979843, 69.16778076199434, 84.86601432027719, 177.75964117673703, -35.28817706179529]]], "bias": [[[-38.49188256415262], [87.57391249428984], [-92.86677625139431], [27.037864780717925], [76.26135978388967], [99.68523197016796], [21.516913653676298], [60.4393795052991], [56.772684429463126], [123.15320409769907]], [[38.66255353132678], [76.60700510854087], [53.37282497732662], [-32.55506285728398], [83.28259629408119], [50.403915772984945], [101.35886658709593], [-86.9024081853779], [-83.80329171724303], [-12.34895105400746]], [[28.0656810312275], [-24.147033561921695]]]}, {"weights": [[[-19.43728327967656, 4.546455045116631, 43.329065427757165, -3.481273877311017, 214.86915344011715, -50.17503250513443, 11.591497559813993, -43.50250262784722], [-2.6804644582095887, 71.48863367558216, -5.179701611229889, -134.64205007489088, 39.769328371256734, -46.843985295744844, 61.77974107002528, -29.439639337392258], [-0.41809187209990706, -149.5437541775022, 6.013600958129697, 57.24392441808827, 3.0491123687060346, -1.3906497610358661, 6.853274176324902, 97.02992366861875], [33.218957996254915, 37.35712108837518, -106.86803261567118, -45.436040197478704, -66.26591562575695, -118.55853981776146, 7.112479520374972, -15.877421857142254], [-4.080134790113093, 13.180493215432481, -30.866276910682835, -116.23245840003601, -38.117987166672755, 0.3916914019644948, 41.63479023396074, 44.6229889246801], [-1.0782742497201465, 0.9958947921394143, -23.059685235888654, -49.5282018399822, -54.23406157385957, 147.6440059316602, 8.706100155342565, -8.58538788216799], [-23.123557329789733, 46.777479341584666, 81.31592453501797, -102.59798220651413, 21.63342812211788, -86.65945258674451, 65.08100758579587, -79.96259807457974], [-175.22527186220165, 46.4312359919081, 111.20727252604415, -18.983566126990993, 12.75634670710354, -3.056274872579932, -77.93754233734487, -95.6695441123657], [12.834907527754698, 55.73709607441991, -11.264029017847042, -122.17553310001139, 85.52112372091176, 33.603872129816786, -7.667746449563511, -30.33128633536971], [-2.745309651704353, -39.240228299986214, -40.6220614737469, -53.21812746847941, -25.5673240315181, 39.775075423633226, 18.333660948767218, -131.02711071352397]], [[-27.60607269458905, -94.56182256170956, 27.046444278509185, -6.9980686233882885, -61.93028176360822, -119.91835287971801, -38.288071236503164, -64.94684212318569, 19.539115036738174, -32.53647693083123], [68.5490589999237, -16.655727894586835, 137.49690267603518, 25.37636204955511, -53.174594178580634, -31.221102645094078, -89.24764415572368, 70.35799936918878, 52.976691523882316, 50.46266244424162], [-40.86134474100914, -59.134088275589406, -136.37768255424882, -26.249534969809776, 5.488129405081715, 35.9291265936265, 25.48389463080896, 88.59481844994535, -46.007346840587736, -49.22255996294564], [-56.00214267581686, 107.64783115524821, -144.1695355074534, -10.809987349908988, 57.842667680861965, -1.1526800538977302, 52.35027256606914, 1.9678853199272641, 57.75875465341846, 16.136809737015096], [148.03476471367617, 67.34655322679454, 9.505832080191887, 161.74002398542916, 49.0622049434062, -68.47530450684285, -59.30378054298537, -94.48198762138989, 30.21380827566669, -13.654032431324126], [-21.494470917639184, 17.543939397599512, 98.69800429668148, 30.45115835951524, -31.094819355355302, 13.296354293012795, 75.03951440012428, 42.49289215131915, 106.36456648041245, 51.5020919694317], [15.772345923900202, 163.72429263020476, -1.159219500899932, 65.82697589930319, 92.48197476059107, 17.372269290031564, -63.73015547632883, -15.356334342589998, 10.358248184426044, 73.69536384822773], [-53.17144635077945, -66.6168594081534, -61.38879089354115, -19.56440695118182, -26.910307082556475, -78.13472094658904, -6.721810639204682, -1.041216466691228, 63.24641545685196, 11.086862365600522], [68.03621271953766, -16.960412911076183, -12.271926659919483, -143.39944762123096, -2.8307731200965183, -112.07578765911038, 99.18686855615083, 130.89568226503272, 106.12133440413075, -7.537415604525282], [-34.849625006794795, -25.75752163626861, 45.243776295441215, 56.81129576553519, 64.15968155803539, 6.123141712157467, 121.8380193064188, 43.480108018854175, 58.19716219940361, -9.25480153913493]], [[-167.32092523283458, -89.75721953173615, -11.348853714785136, 217.7341922635538, 34.68529983518764, -36.808401638748094, -10.350799305360237, -2.6854074485802073, -10.858148037443595, 11.993308453092638], [18.562271569942467, 72.4771414124306, -33.52111543301778, 2.787551668621104, -115.04627111795034, 28.89119336808762, 95.98537868119126, 50.698940489080215, 132.24692864144407, -112.55169432742817]]], "bias": [[[-36.91865571508178], [102.48429516640684], [-94.41299542851162], [31.76333674251057], [53.78398201367253], [105.09898938293118], [13.387554415510179], [63.456877061893344], [54.13291005842227], [-4.237218685497849]], [[37.18770305438081], [79.22247422153973], [61.39131965676353], [-30.852609113038444], [82.40398395223357], [45.86709818144516], [96.18912375782946], [-85.27921532371758], [-86.61024012383218], [12.81035732116616]], [[26.66567695479352], [-8.572594137211276]]]}, {"weights": [[[-22.030021853407195, 19.435200619960643, 30.27878645060736, -2.2304598585447866, 201.92361937473243, -56.68193614485481, -2.6866252472986027, -45.68675323648435], [1.1926544169667368, 68.06956622809695, -7.050349230726526, -129.10958049529822, 28.08386612968487, -44.74764353545904, 67.9547451451939, -29.15466482858724], [2.486852663599117, -152.1016544641059, 3.490496959899013, 61.134095230766626, 1.0730352903066467, 0.017027332054513955, 4.765829807634784, 94.88025004530041], [34.838921873302716, 35.92805075071297, -110.69628851719654, -50.28838629926673, -65.00761553418992, -121.27705565958765, 7.889314477468624, -15.057450840368283], [2.4871777410457234, 15.658093496878118, -34.66287888935106, -112.33428973743047, -38.47929267845832, 7.339312522007991, 41.744286147590344, 46.54154023784498], [-3.19099280218745, -3.365453948938161, -24.789925634142133, -50.958244763444995, -51.246277032323825, 143.79593248218941, 3.849634418386627, -15.43227438176625], [-21.319201379143433, 44.77504075869297, 82.77843027670039, -106.52553327471539, 23.75914641817199, -81.65642577619775, 62.60023440187477, -78.66084227451898], [-171.86923281224395, 45.07297521959298, 115.58627991742756, -23.397292142237784, 12.838563626282799, 1.333760340752648, -81.04312367270046, -64.56170688516437], [9.358059161272136, 50.87944386551464, -7.542187250166868, -119.66280139749749, 88.16294084214091, 42.36539965147902, -6.406561586121801, -43.22957807430764], [-11.57996376580589, -44.38957291256485, -35.60479503419322, -49.21815085699131, -37.393648736298424, 2.698561011332928, 3.1657877236047876, -154.4235589738053]], [[-35.50966932556428, -87.20654745075944, 33.055647932692004, -16.299199626618005, -54.08778622784423, -119.1497841826133, -45.39955790604777, -65.33741633021715, 27.154416774444176, -15.114928382623502], [71.53954164317648, -21.67469283846971, 114.92808225472595, 21.157196068687053, -55.04141145162235, -25.67753391346583, -88.15262372429751, 68.0809378995917, 48.602365804800236, 39.2188828698989], [-37.89746382528339, -53.806313876086456, -135.43218528904612, -31.008215268098773, 10.794728190124083, 28.262284927864282, 14.89032145929089, 109.69704110761383, -45.75302380230147, -46.94949888380577], [-53.944095406050536, 105.46430067066417, -138.45033018845862, -21.016361271664707, 70.16992419213143, -0.36691244821869823, 59.82547609855267, -9.328500086897133, 55.54251458306422, 29.361559909893014], [147.70130133980396, 63.80268231710338, 16.785415778323735, 165.55709564362658, 52.305116690239416, -61.29137538020508, -64.30841128233497, -89.28781836144088, 29.85838602017741, -15.337629640953], [-18.776421133633644, 20.249355777856024, 76.61187140876197, 34.0791457113553, -39.21096910382543, 5.219427718780871, 70.0207478630648, 59.235517491924405, 113.06570651480695, 40.89571897988809], [31.761094564747665, 149.88637754857356, -10.951273344125557, 67.31940110399842, 93.66255625141729, 29.989396685268776, -46.80488222593553, -9.20312396105966, 4.20887538241167, 62.906098032289975], [-61.896447637036864, -63.21778926356608, -68.10271854544284, -22.435523906064184, -22.622685957008372, -91.4731507960159, -8.755531432532761, 4.975376039617149, 65.96641808039955, 13.475562934842246], [63.23493813394848, -16.23604887935144, -8.694570080139986, -139.9732821779682, -4.160326748074368, -109.89678730502038, 96.2722948847753, 132.96818935246694, 108.27167001817102, -6.192646333388163], [-31.762710528852196, -14.688928105110335, 47.38654579485087, 65.22557023946212, 78.49248553628816, 8.33979398413368, 99.27829548318503, 46.75216864522983, 57.15241512536105, -10.500709802132118]], [[-169.1707786129565, -100.88156548108876, -13.102019015138708, 207.48398658461096, 25.802125327654053, -26.27607584722379, -18.672056784727268, 7.8951239081262115, -15.339254511321993, 40.94714352675235], [7.070049040886902, 56.20652083624537, -36.47303040834072, -3.0566924803838327, -116.43925471401084, 35.121797099786434, 93.0959476129787, 37.10981409168897, 141.16674246217596, -122.33217798824435]]], "bias": [[[-50.07469760338144], [105.91204825959176], [-94.27963758339422], [25.483793375066874], [86.2890124086949], [118.189521401098], [19.54460747656809], [59.79009880393352], [53.17192322628849], [1.025939360145029]], [[36.68578451244634], [78.43376893596273], [55.35916885686488], [-20.523075144092353], [80.78029704137884], [34.46425032451114], [96.58691167973403], [-93.28497018249094], [-78.39409555485716], [10.585775003381036]], [[23.318718722770896], [19.0815956641745]]]}, {"weights": [[[-16.501546052691843, 9.541326116937727, 39.949059838902585, -0.6187789276246436, 206.54657831507575, -53.17302833887797, 10.281686774962512, -42.08655649530302], [5.428973546658823, 63.89344898550355, -9.061246751276197, -131.62423037194412, 29.410565884345175, -44.36655603743477, 67.47136224350562, -25.94439210744503], [-3.3271947711695353, -149.7291620584329, -3.7580405135854003, 62.914735594983796, 2.2752417936567753, 0.4656375562076267, 3.0014600155127047, 91.418589873138], [29.28752734492287, 33.52410644249773, -101.81551818204633, -37.409574036724294, -54.838126473963946, -119.9927030349443, -14.507845274919656, -11.01840388588233], [-1.9598093436307655, 18.586657502833425, -29.13873406879889, -114.59540944668684, -36.60001186633774, -0.6794111290914593, 39.158609714586106, 41.004916957353295], [-8.044843097438283, 0.6011294245431404, -22.94262765775714, -41.904601735243155, -48.74294382192995, 148.53931437192915, 9.503689906365024, -9.671399987074718], [-21.0027052781861, 47.81519062026619, 77.3688989046257, -98.93272570649778, 24.022890100854045, -84.44184710770676, 67.90563674612703, -77.60690637516271], [-173.3292108258245, 41.684909714656214, 111.60663974672981, -27.409567783142865, 14.278094495684268, -1.1592630102985362, -82.25234996557846, -66.22757957967634], [3.001905183206313, 44.32597021483269, -8.105262092690296, -120.63149322428401, 84.68596576852434, 35.6829961279702, -11.898735652054146, -44.41854973331924], [-9.783689928950597, -64.5879677697737, -37.13319058716467, 3.031245581503837, -18.107244719695128, 21.44284939346549, 47.06341222820072, -210.1407609213127]], [[-28.61259571835753, -98.45557265440213, 38.41336610569025, 1.9934417695398112, -57.540541898313215, -131.08566398193176, -43.44713885189761, -62.67124877302504, 28.182006288653255, -34.00244476315384], [57.06743977019074, -31.06249247228861, 124.6869522324984, 16.677537577350783, -46.42782342257341, -18.401253730920534, -82.05278519819082, 67.6242412142941, 36.26902976440934, 39.77292048309775], [-32.55639683436446, -47.94915971381056, -135.15689885945807, -32.67995703399582, 14.060016122131707, 31.684231219433084, 8.650322500171965, 100.64033802125633, -41.618260273847326, -43.503049257324314], [-49.96844600153327, 107.9042950982187, -145.4168151027911, -21.87505100978657, 69.03234250529206, -0.8772246708933583, 62.02732653682926, -6.720017862170025, 56.39820637001789, 21.039850142240116], [145.2508632720548, 62.989918496325984, 1.6118640423124675, 167.0285916013195, 47.74632669360643, -70.26434465149869, -65.8462818916474, -73.64272813989625, 37.94830163094531, -20.79209279171424], [-18.080604767748977, 23.55810254219634, 86.30475309738546, 41.07309233844012, -43.65532881453356, 26.187298688757345, 72.1376587756707, 57.14225885849898, 109.96225462929533, 47.74857027514736], [15.33941756026495, 164.52295778551238, -5.441737903048914, 64.5273633877274, 91.1164583167469, 13.396392143390978, -64.6115637221476, -15.885777375506743, 11.910954087917043, 69.20877382728118], [-55.64319327629572, -67.38427727172748, -59.73115426335736, -23.279069694036224, -27.494790226755356, -79.07600748384039, -5.272775667693711, 4.0429495299224785, 63.622652980077966, 14.538286667247649], [64.67453778306569, -20.7253562821266, -1.6891093421210126, -142.1275106419824, -6.594765243420923, -103.84661158798876, 100.05093770257571, 128.60494037353916, 105.15708422908446, -13.233289259004982], [31.46561681703588, -21.678041811594642, 57.81688218032271, 40.66978583627884, 58.8350386354192, 53.913195872931944, 98.62924702419032, 8.525241362577702, 72.12560850630518, -23.80212354243484]], [[-165.4401308072053, -102.04384973397988, -20.90144266474287, 214.9767062419445, 26.783429036941023, -38.181971244354294, 7.918002737195555, 6.9096968587756376, -14.513942297058717, 30.245804925787752], [-32.27373787817168, -30.938991436553785, -20.822109565296213, 6.786705139580988, -95.36242212946948, 42.4005210595034, 64.44374055142266, 89.92307972652966, 183.5477731629523, -38.411199695479226]]], "bias": [[[-36.8887108524813], [103.92360015241147], [-94.61514481636944], [26.129393651430675], [55.34849694498961], [100.9130989441997], [20.635991396826995], [65.0661031244264], [55.18818014324815], [116.1001815843153]], [[38.4556440511092], [79.89116686280309], [55.97646724334869], [-29.055645056788713], [81.32209935675289], [50.03822848464057], [94.73966813472465], [-90.59252827663644], [-81.1444100452277], [-6.063632653539268]], [[-27.23416883872008], [-17.47017042954789]]]}, {"weights": [[[-15.551261687333302, 13.609996028107043, 29.435786491750882, -2.2440609731061083, 192.4641118812807, -61.14370776466422, 6.2647602491514816, -50.89373634208537], [3.481999494596243, 63.26707153827702, -9.298736448784965, -129.54817756121375, 29.279140543766616, -47.93911238955043, 65.88486292200996, -31.80199249646563], [-2.2835395731319164, -149.09262800864775, -0.41335552322109903, 58.6907984311126, -0.08838527369992089, -1.6132960328976007, 3.1692949949694094, 92.27622168913119], [31.953320505322548, 29.58591428693054, -104.25883366579009, -41.98064585888658, -53.08031212700162, -117.74448613373077, -13.226818669199556, -13.642697739191885], [-5.089360672127055, 21.006081524833387, -36.34535192760511, -106.85740703184229, -38.77984685949704, -0.22179054578071528, 38.579700723152925, 46.74388956042589], [-5.112074371029819, -1.8317892990907854, -21.321804122660954, -48.493687711365176, -50.13829821279467, 146.53634749608634, 1.0915503950796823, -18.86607309115802], [-26.126721718538057, 51.47238920242843, 83.9645881273406, -110.86583300512552, 27.49813120874655, -77.5408213232059, 61.901403443816754, -87.09652492680435], [-169.3981421862677, 43.1997821279189, 109.18635012053026, -16.64772214199436, 11.795437064409754, -1.8420444611498101, -93.46706326419174, -84.49305323989456], [4.7330420854024435, 49.11147548588103, -6.296064487133812, -122.66449526454655, 85.14424115256034, 36.08753384392116, -10.588188660022332, -45.47096906495661], [-0.7102602254694785, -42.52246551522667, -41.952437886895694, -53.57841390290656, -28.073203313389367, 36.293635397839715, 17.47268762009917, -133.4701088667631]], [[-27.206214371725906, -98.76570266900752, 40.89103630569333, 1.1931035260080793, -58.12144615753473, -131.94633774368396, -43.670461047874575, -63.639206315125264, 23.60440075635991, -33.50215003076648], [71.0915066231804, -21.67469283846971, 113.7631948952713, 22.949731889002326, -55.707359339578694, -25.413358837013423, -88.19790195483623, 69.63426762844193, 49.44337051437878, 40.33634612384996], [-36.711420939285134, -54.49063461734802, -135.615408552604, -31.008215268098773, 10.794728190124083, 28.262284927864282, 14.047035050841414, 110.16784764164758, -45.21032573684118, -46.832729131321976], [-55.85958408944166, 107.43395681574489, -137.96403166038826, -21.355528373781762, 70.73622176775599, 0.08799401907096682, 59.82547609855267, -9.641737567293285, 55.54251458306422, 30.54946239980855], [146.82321810561447, 63.319092873256544, 16.75296790511492, 164.4040157100748, 52.5516209502269, -60.109891941983435, -64.1366433968891, -89.28781836144088, 29.677623302773586, -16.701891038510183], [-18.564798800294792, 20.031966588081666, 75.06216656003046, 34.56857367911789, -37.7170844185208, 5.219427718780871, 72.22656593206972, 59.235517491924405, 113.57621808813195, 38.66107834665929], [31.606255909095008, 151.40641561831316, -10.951273344125557, 67.62733741436575, 93.66255625141729, 30.427872748217048, -46.80488222593553, -9.20312396105966, 4.24719574639969, 65.16070303381193], [-61.896447637036864, -63.21778926356608, -68.36817610720198, -22.435523906064184, -21.15098773545652, -91.46407265504915, -7.691636247973767, 5.196755694481212, 65.85623484040244, 13.475562934842246], [64.85566835717816, -16.23604887935144, -8.813235754612398, -139.66383146639464, -2.907969558014136, -109.89678730502038, 96.2722948847753, 132.96818935246694, 107.39253849350428, -9.11008061041999], [-33.434866955542624, -22.90023468363925, 49.60766968390018, 52.71118700727796, 62.83555488284431, 4.168952051950066, 126.00047355729228, 47.07125958670706, 52.11211401986973, -3.5968229242065597]], [[-167.11645417490908, -94.05651349961629, -11.811641017876273, 219.2027237780063, 35.63608019823598, -38.730572404948624, -9.566393751904325, -1.9823952581686346, -14.636057394841288, 14.109746878501987], [21.787273629100472, 70.69765212314455, -35.55349140815497, 3.6102298918075806, -109.91138272937786, 31.267001964738885, 103.76391316458327, 52.840739269510216, 139.8597989286595, -108.49863365462832]]], "bias": [[[-52.33015706250114], [105.91204825959176], [-94.22200603229123], [27.008765437258738], [84.2356251185639], [116.31295942864797], [19.149070881285727], [60.4393795052991], [55.38337269780212], [-6.916333015567407]], [[36.41558442484674], [80.9278081329574], [53.99165083177542], [-19.815045301354274], [80.37676000046322], [34.93259160682407], [96.58691167973403], [-93.28497018249094], [-82.0110226440896], [16.275122435843205]], [[-27.93096352225005], [-8.572923679438384]]]}, {"weights": [[[-25.05276668005258, 5.395762345823692, 39.20842403589389, -4.6819067321588665, 211.94209278781798, -52.80458091533349, 9.437706793059364, -42.977848959923975], [-1.631764148992995, 72.38487315283498, -4.406231631945538, -131.70198576201102, 34.913094373456104, -50.67612943595359, 57.53932834537003, -24.134927663143337], 