{"generation": 591, "best": {"weights": [[[-77.20838479120839, -79.24580454572508, 94.5273235884766, 100.54807852345549, -17.350157602901938, -33.0020342307872, -91.20081573305073, 143.61335735044918], [-26.31166303238004, -44.87199017012268, -25.17300717885445, 66.5517007693739, -148.95496011283385, -67.24963221398008, 0.0023804781915732764, -7.7200852752694535], [31.816431093555458, 97.66703783121406, -47.287160494649115, -157.00169591972772, -21.345881416236306, -74.77644284920663, -12.91768148526915, -67.49471445990065], [-74.55905957922863, 63.634718553062356, -88.27299528770985, 46.87479620136991, 25.20341727677321, -14.232867808095614, -60.66529536272016, 74.35635133097881], [-140.2707691231536, 87.1786863093602, 71.60314986157817, -30.785307618511606, 2.811752663400794, -0.15675751533455107, -109.76292493845054, -38.20966613443749], [11.885125086096235, 35.88808355568401, 53.29920015859904, -90.77911527089285, 117.5462684061602, -34.512430938191685, -59.97195479946598, 74.70777985930008], [-82.1377089726014, -43.410597035924184, -34.18388659722398, 11.77766056311265, -156.68024963357948, -65.74010866094149, 12.976465305592653, 61.552766046739464], [18.150167127093155, -8.2716308953503, -29.24224835304727, 10.928790262189683, -39.34712973256201, 22.832488117129817, 98.37281940328785, 47.21728750258211], [-43.550059553451405, 51.035812260909005, 40.51032809914541, -50.186092758146295, 7.0446084311931605, -5.836416639415587, 191.65319041879062, -85.62852571378605], [-59.477893315771716, -76.9453259163153, 24.685177340449236, 25.698294106003512, 1.5325405195921877, 0.1580743946296067, -13.071621001790568, -28.751741502933278]], [[86.88564493829487, -49.006316478520496, -114.33960545926486, -65.23863222737279, 51.81930730655643, -1.9036061859040863, -53.33009825382914, -57.97847984152919, 92.33581932796366, 46.724061245021794], [-46.27452813679449, -28.88593300983499, 62.03567687987625, -18.279642245801654, 12.344304691502872, 15.644535924300165, 15.49993357453187, 6.725969543778532, 103.39532699624014, -53.46644841983046], [-10.904314746521974, 37.677842465719294, 14.108799095665148, 17.474902076524607, -20.75837926308393, -0.3350525447889041, 95.07411239712086, -51.882144100502934, 181.2132551873462, -14.06908275305056], [9.770327445093685, 92.91772022044547, 6.48884214957399, 80.92847866412706, 5.857710041329368, 15.048515480266635, 16.77701886440668, -6.163648192899128, 19.156373540179374, -9.052334659983375], [53.36824616487752, -74.03395805405246, -110.28263093974844, -6.421500442739004, 37.21919899510617, 142.17944204306195, 29.772845192293616, 36.77372498869357, 20.092188941304023, -81.93802842046556], [21.80400214896671, -40.736975028898364, -52.01758578729751, 111.22462758146662, 22.91568419207616, 35.374642926676536, 166.97533433762104, 37.623361265408484, -58.59072840206253, -68.30517063315429], [9.435477590382447, -71.34998743498866, 99.33859438836306, -40.37116056637248, 110.6049774804896, 2.452132959334606, 102.04060773546583, -34.48667085404429, 28.682096460518064, 21.779130197193407], [14.51608368477468, -1.1938423324213745, 64.23350921900584, 8.63283062505257, -72.86629205812315, 80.89657876717496, 59.48547054705223, 104.55913930438838, -37.63446065224882, -24.758865163992073], [81.55352443075397, -69.45663215362468, -55.298928278105194, -5.989811767936437, 86.80673262108124, 70.78099307744745, -50.17939823017561, -62.401856867877115, -47.46868542900519, 23.119573703187335], [181.9905732927464, 101.48960158743569, 18.86029182494688, -47.9276319613631, 171.82482292177437, 112.97277989730564, 21.82803438768028, 102.01774910198938, -42.47865903953582, 7.4664486842935975]], [[31.431919950950483, 150.60182392832814, 19.51890292196398, 37.66657001282411, -2.5568459077013452, -0.9427721984748731, 14.838780370937268, 1.3116390772919349, 3.5637175680545137, -27.37287293724773], [140.42771765032396, -7.6302339868852975, 4.994717348167219, 13.660924736383814, -24.678805472183715, -1.2099818514136358, 55.76269599297478, -44.970204278525664, 65.51430935573633, 69.4745754945381]]], "bias": [[[-11.412347203860586], [-54.7510283269769], [-2.2710744643819107], [40.87432507096201], [40.92390677148362], [79.44513355289759], [17.193178889463336], [174.88410977480999], [-94.80801948138343], [35.330275364360325]], [[-29.109350892920947], [21.91395063992507], [2.7752249902098027], [23.460802923927453], [16.363718265128924], [-147.95414918813324], [-25.608896911980743], [26.520493193742265], [15.718997767496223], [-19.221727100151618]], [[-150.61260971623906], [-117.37543445554662]]]}, "all": [{"weights": [[[-77.20838479120839, -79.24580454572508, 94.5273235884766, 100.54807852345549, -17.350157602901938, -33.0020342307872, -91.20081573305073, 143.61335735044918], [-26.31166303238004, -44.87199017012268, -25.17300717885445, 66.5517007693739, -148.95496011283385, -67.24963221398008, 0.0023804781915732764, -7.7200852752694535], [31.816431093555458, 97.66703783121406, -47.287160494649115, -157.00169591972772, -21.345881416236306, -74.77644284920663, -12.91768148526915, -67.49471445990065], [-74.55905957922863, 63.634718553062356, -88.27299528770985, 46.87479620136991, 25.20341727677321, -14.232867808095614, -60.66529536272016, 74.35635133097881], [-140.2707691231536, 87.1786863093602, 71.60314986157817, -30.785307618511606, 2.811752663400794, -0.15675751533455107, -109.76292493845054, -38.20966613443749], [11.885125086096235, 35.88808355568401, 53.29920015859904, -90.77911527089285, 117.5462684061602, -34.512430938191685, -59.97195479946598, 74.70777985930008], [-82.1377089726014, -43.410597035924184, -34.18388659722398, 11.77766056311265, -156.68024963357948, -65.74010866094149, 12.976465305592653, 61.552766046739464], [18.150167127093155, -8.2716308953503, -29.24224835304727, 10.928790262189683, -39.34712973256201, 22.832488117129817, 98.37281940328785, 47.21728750258211], [-43.550059553451405, 51.035812260909005, 40.51032809914541, -50.186092758146295, 7.0446084311931605, -5.836416639415587, 191.65319041879062, -85.62852571378605], [-59.477893315771716, -76.9453259163153, 24.685177340449236, 25.698294106003512, 1.5325405195921877, 0.1580743946296067, -13.071621001790568, -28.751741502933278]], [[86.88564493829487, -49.006316478520496, -114.33960545926486, -65.23863222737279, 51.81930730655643, -1.9036061859040863, -53.33009825382914, -57.97847984152919, 92.33581932796366, 46.724061245021794], [-46.27452813679449, -28.88593300983499, 62.03567687987625, -18.279642245801654, 12.344304691502872, 15.644535924300165, 15.49993357453187, 6.725969543778532, 103.39532699624014, -53.46644841983046], [-10.904314746521974, 37.677842465719294, 14.108799095665148, 17.474902076524607, -20.75837926308393, -0.3350525447889041, 95.07411239712086, -51.882144100502934, 181.2132551873462, -14.06908275305056], [9.770327445093685, 92.91772022044547, 6.48884214957399, 80.92847866412706, 5.857710041329368, 15.048515480266635, 16.77701886440668, -6.163648192899128, 19.156373540179374, -9.052334659983375], [53.36824616487752, -74.03395805405246, -110.28263093974844, -6.421500442739004, 37.21919899510617, 142.17944204306195, 29.772845192293616, 36.77372498869357, 20.092188941304023, -81.93802842046556], [21.80400214896671, -40.736975028898364, -52.01758578729751, 111.22462758146662, 22.91568419207616, 35.374642926676536, 166.97533433762104, 37.623361265408484, -58.59072840206253, -68.30517063315429], [9.435477590382447, -71.34998743498866, 99.33859438836306, -40.37116056637248, 110.6049774804896, 2.452132959334606, 102.04060773546583, -34.48667085404429, 28.682096460518064, 21.779130197193407], [14.51608368477468, -1.1938423324213745, 64.23350921900584, 8.63283062505257, -72.86629205812315, 80.89657876717496, 59.48547054705223, 104.55913930438838, -37.63446065224882, -24.758865163992073], [81.55352443075397, -69.45663215362468, -55.298928278105194, -5.989811767936437, 86.80673262108124, 70.78099307744745, -50.17939823017561, -62.401856867877115, -47.46868542900519, 23.119573703187335], [181.9905732927464, 101.48960158743569, 18.86029182494688, -47.9276319613631, 171.82482292177437, 112.97277989730564, 21.82803438768028, 102.01774910198938, -42.47865903953582, 7.4664486842935975]], [[31.431919950950483, 150.60182392832814, 19.51890292196398, 37.66657001282411, -2.5568459077013452, -0.9427721984748731, 14.838780370937268, 1.3116390772919349, 3.5637175680545137, -27.37287293724773], [140.42771765032396, -7.6302339868852975, 4.994717348167219, 13.660924736383814, -24.678805472183715, -1.2099818514136358, 55.76269599297478, -44.970204278525664, 65.51430935573633, 69.4745754945381]]], "bias": [[[-11.412347203860586], [-54.7510283269769], [-2.2710744643819107], [40.87432507096201], [40.92390677148362], [79.44513355289759], [17.193178889463336], [174.88410977480999], [-94.80801948138343], [35.330275364360325]], [[-29.109350892920947], [21.91395063992507], [2.7752249902098027], [23.460802923927453], [16.363718265128924], [-147.95414918813324], [-25.608896911980743], [26.520493193742265], [15.718997767496223], [-19.221727100151618]], [[-150.61260971623906], [-117.37543445554662]]]}, {"weights": [[[-75.60097027646448, -76.2219457862234, 98.08320065784295, 106.04246259671989, -16.63633292441896, -33.04826903259284, -87.71762559024698, 149.01103051041252], [-24.734876361003426, -43.988959871992584, -27.886231278352074, 68.46309605656775, -153.20178080404577, -68.16138905622161, -2.5859823241301063, -7.835296308414956], [33.57764147853671, 100.01251679269646, -43.25839163594052, -165.68262068319268, -11.90622699090593, -72.89292140263589, -9.848540808247412, -63.32460264386119], [-70.2012454659884, 69.71655258880905, -78.17170078269847, 49.04126462405426, 37.58483232785403, -10.912355737721038, -67.82741536365049, 75.41643206330033], [-142.58494646611985, 88.45400077011978, 77.11567850460251, -31.87016396222976, 6.231428348662765, 1.4726146116394279, -103.29026009230738, -49.407185741012015], [8.041311669247845, 39.03759624126439, 51.20204461816636, -85.72607227876317, 118.06369871763451, -36.20369394748242, -62.004007964380946, 72.46332392612709], [-82.31203737168731, -44.829540611641775, -34.37763100436413, 12.174612345541911, -154.13285421946168, -65.09043449927842, 10.805574782241534, 62.963173282305256], [18.796242198238446, -13.210218299708462, -25.757575235379978, 11.988597446655769, -41.426422401997705, 24.397971032092062, 101.71599317249245, 48.63127381683805], [-40.18919692342117, 48.59387612831884, 40.200372217746505, -46.78998771533463, 7.349953612025485, -3.9041190042243707, 193.45211587870998, -83.6069365372774], [-66.17519047418529, -78.05900816581914, 29.931751518742434, 30.824794306818603, 1.5097478337306753, 1.7754801297235079, -13.312104805929991, -33.86832548782184]], [[73.22900443324892, -54.35885884625252, -106.24484934437545, -57.639305987283706, 47.734057895108684, 5.8000714870763375, -51.911418313231295, -54.66358032716581, 96.66032097347673, 59.0859907227164], [-42.11406389906628, -29.77448371041506, 62.46957044189664, -14.390968952458067, 8.367948087154573, 11.20095957670437, 5.393705668067362, 17.321493385226788, 111.86120149841902, -49.61257383449116], [-11.590103199514115, 38.28919829769115, 12.501710460678872, 15.42281613049748, -22.19953756436973, 1.7415340815564417, 96.27271023542032, -55.098716635513796, 179.06979880996576, -11.771303483650252], [9.631193491403117, 93.7579242005391, 7.273213729651669, 80.78711733073051, 4.690714809120651, 16.527801026170152, 16.292908286828617, -3.146730729105996, 19.330842157977624, -14.40152345686066], [51.80330448135308, -74.54180787074583, -113.9966276209349, -6.346509289774963, 38.48479397677309, 143.70316024834102, 23.226819440290484, 39.35451574421261, 20.270246389793748, -81.03694106118083], [17.39689340135294, -42.974604006523236, -53.58617643660746, 108.02027453919276, 21.537918802081716, 35.24256927684317, 167.50760897967214, 39.19305921683805, -56.86193181067457, -66.44847118475776], [10.292692538336933, -76.46806559073218, 108.44605979901802, -37.79007396471683, 111.81960700732796, 4.236123377683565, 105.33562851765485, -26.493237505670326, 36.79158573609366, 17.633223359671543], [15.572472631315708, -4.180798250820525, 66.52347933645116, 12.327271733501423, -75.23663788222207, 80.40537083904874, 58.48050766931104, 100.1210843275897, -38.302878124308855, -28.05500036533907], [79.682863327513, -60.91250409640388, -52.949059003993284, -4.741562664305678, 85.42353187241412, 71.35593039349736, -47.067189449230035, -67.39862153122334, -41.76317214369631, 17.804402898106165], [177.99792166703486, 96.626616296228, 10.664921358331151, -43.665514392439924, 172.10632532170143, 121.36311038558779, 19.886481476187903, 99.10369771173265, -45.57936856865966, 1.9961894315388404]], [[25.53466725982851, 149.22028752239493, 14.928368653989898, 38.460502272085776, -3.4796042823122058, 3.327644559867042, 11.294557004945721, 1.9083921254629477, 1.2657902308257714, -27.317741235989487], [141.82803580563817, -8.84344805221147, -0.1888930878102789, 16.730416312365204, -26.254461216386265, -1.9109940708608995, 54.425582903495524, -45.7079207985942, 62.315135879400955, 70.38663728413357]]], "bias": [[[-9.928068320874411], [-35.64345841558717], [-8.518274134574938], [38.32525930948858], [40.98236184624916], [81.91420688631683], [17.193178889463336], [173.7632854267555], [-94.00890271570354], [33.47841074372663]], [[-31.107806853795744], [23.396138739573285], [2.5934331479254635], [27.470284239922368], [13.721862858254333], [131.87696514388736], [-22.207920437120144], [30.409174773146514], [12.076076460171796], [-22.724130715841508]], [[-148.49124071254388], [-113.66883669946795]]]}, {"weights": [[[-73.78957859074625, -76.80100106153989, 95.241982797436, 104.63289451561182, -19.166582131769278, -29.56544237276546, -88.71645990367684, 143.810952168451], [-16.237574887728144, -52.34287169435578, -28.584746278082203, 56.10713924754943, -168.0656785442661, -72.61098800009016, -19.386670208236723, 11.14265467250462], [33.49416044980043, 102.05652436567365, -47.21290739450564, -164.78517353540732, -15.90646192183001, -76.41342008658425, -2.511366230369065, -66.50681831119384], [-75.65713701888919, 62.065695920447325, -89.11345983595864, 46.386117268775735, 24.6803434355046, -13.161582509850495, -61.825043412190794, 71.6687050114202], [-142.4061715916019, 88.74577345238426, 72.1553228548184, -33.10304959491685, 2.265506699016652, -0.33131723929803897, -110.98579650773787, -37.321919677898094], [12.039437700733396, 34.44681195314029, 53.76436493770964, -90.0652476198876, 118.44292289515212, -34.41208323345986, -60.44967264274352, 76.26739993458555], [-83.7787636303528, -44.43380388595916, -35.09549462678186, 13.445161674884625, -153.90861015367346, -64.92556444666731, 9.746680056566253, 63.50504503516627], [17.135359843471623, -13.220033373584936, -27.266402878507012, 14.15642967945324, -40.81763095444073, 23.952374241297232, 97.68437980735997, 46.71872645998217], [-39.53940710763088, 49.21745565965821, 41.047698879261624, -45.14726477760794, 7.358701179253869, -5.236227462273249, 191.20268603889156, -82.15561289227192], [-62.19684630526288, -82.5401934647393, 19.610803063904584, 33.58595590634972, -2.537998949687483, -0.5929035950194661, -11.77950968982798, -32.681834707734716]], [[75.26057019468678, -49.878105535714724, -103.7866097106459, -58.211283842157165, 50.75053738804725, 1.8234310268186698, -50.523837220898386, -55.76966598339261, 99.09440962219152, 55.28101918627594], [-46.047625142375644, -27.637125049402023, 62.96727284626699, -17.05563895567176, 12.902055396026979, 15.935257251837664, 15.935894860263604, 7.524707887086651, 103.1179020814602, -49.01871264947881], [-21.032481391702532, 23.52178248751601, 14.440816394452062, 12.748268355512645, -12.17587271443809, 2.597939006041092, 96.74813031199531, -62.540505391705494, 178.830056736267, -6.123805074144347], [10.183575844621851, 94.41428366464503, 8.738993903974585, 81.52166950078166, 3.7854352204693487, 16.55558252343535, 13.218808932280572, -5.286335711236276, 20.276579614488615, -15.501555093379046], [50.65095547546384, -75.95681187723736, -113.17841711747928, -5.939905375828329, 38.56532272842047, 142.48577883252128, 22.816869372711075, 36.06169023952033, 21.685115822476952, -79.95795574943531], [15.465953411068439, -43.230422850548806, -54.85631433629418, 107.35991964450496, 21.05504320798062, 38.57554849635379, 167.52975097369958, 39.59694052516446, -56.490394106413824, -65.63219539971368], [8.382227243569108, -72.66296387751646, 100.86524156433339, -39.403544235191774, 110.1558666263766, 1.8922371652686159, 103.60989415690295, -26.50147283891378, 28.38761867266234, 26.83321280541424], [15.661316845426004, 4.487461781488261, 57.470334654027724, 13.449779393428095, -69.20399076736084, 81.57959163031764, 54.25747013278982, 98.98699071751717, -41.85106792178951, -26.595683832912368], [81.9810071883735, -72.11933548931403, -57.992637287700404, -3.429555920556915, 86.06582836147396, 72.43091713862054, -50.64079598758823, -62.89777193976568, -45.23868334492272, 22.273356784687014], [185.34256016877194, 98.50021728946142, 18.759881351599844, -46.79759188101579, 167.06111997076934, 120.53981604700101, 22.34032276481985, 102.91872183343877, -34.21704317330095, 8.037514980257967]], [[41.19129065912102, 145.22781014186035, 11.63387194406861, 42.90745633458313, -2.442572321614377, -6.43450115285953, 4.038994969827867, 5.33532770143477, 5.053976965244429, -24.668692357534407], [140.11831215628212, -14.6430993356415, 2.3099977158104994, 18.967747662196707, -19.615642688778113, -7.587381953629526, 53.67156172496365, -45.8797543250768, 69.00954732856705, 72.97499042401789]]], "bias": [[[17.508677062112042], [-35.47990483011514], [-22.44757107740348], [35.93961655152335], [41.432178376873196], [76.7281509708249], [15.707682775483004], [166.00060626777082], [-102.22828619246317], [33.560280348160376]], [[-23.066563250572386], [16.46709404720977], [-6.304140665181284], [23.962516054977332], [12.113326282969908], [138.523612023696], [-14.081169659505232], [36.17687582297265], [9.023463908008939], [-17.543260738026394]], [[-150.7655772959313], [-115.26593358396]]]}, {"weights": [[[-80.46568741133463, -75.35829270233071, 95.3871482100984, 103.92551727601072, -17.57542830689042, -30.898364157339305, -87.2832445637546, 146.58325641669882], [-23.202911097239685, -45.017184211974, -27.349617577104024, 67.34931991900484, -149.3454091931494, -66.77769795840476, -1.3978167591739719, -5.130494314144511], [33.94649008223678, 98.3379310100455, -47.80951796657719, -160.7903831201463, -17.880932683650908, -75.11728391546924, -14.961895907399652, -68.84273890878724], [-70.9046877119806, 67.6820670912551, -75.10531410270329, 48.06497524877674, 38.258648244541575, -10.276487514752992, -66.837490272243, 76.92651733349209], [-142.9399682097343, 89.59164538341976, 76.57453318727687, -34.84510861909256, 6.567842301943651, 2.2586768569681004, -111.30027716700087, -53.29571604802508], [8.605770851525227, 31.244768604049, 45.80474449036611, -97.3202885051628, 123.0957018986853, -36.14675144221731, -56.05860364692255, 82.16926350156787], [-77.08979010573097, -46.37453394069499, -36.661122607361435, 14.964493952941043, -152.97975674046552, -68.95377372356123, 14.748568865070885, 65.42029338733983], [6.894398260534068, -6.838079671203039, -31.771085166630243, 7.265811202462992, -41.52395677873993, 28.745301214847956, 100.68286813118307, 37.62516853089188], [-46.81817642430871, 46.90459640753466, 39.57995195982415, -47.52243317484051, 0.2649293555975119, -3.5584374409330644, 198.32305105650676, -74.79184886774762], [-60.69355542451451, -78.43754778417686, 25.14188740145545, 26.707975743848458, 2.571049310682722, -0.8388655188708964, -12.290478899156815, -30.534478839983855]], [[74.81896260132551, -52.95120385940412, -99.96629662170938, -55.15111550898657, 53.42015048789693, 3.228833379167331, -49.6775912970924, -57.15057044562226, 97.72438421338069, 52.49062126659514], [-41.548467108111815, -28.87314433117664, 66.32978371575739, -14.339509169240054, 10.783622207105251, 11.757647197357327, 2.8747353747095388, 13.735407690235606, 103.9991713758809, -46.54365476329254], [-13.01243731270651, 38.3645721983927, 10.654002321736527, 13.520232498622901, -20.051570289380138, 0.22726522701165555, 95.36228709184901, -54.67942173162934, 179.8731526719283, -11.689138065072859], [12.503316218965239, 96.8690249393262, 9.840035401179318, 83.10552653645007, 5.370758919511092, 16.651417867553125, 15.459606948088316, -5.075965733770759, 16.216129656068713, -14.367409427295218], [52.072923109037646, -77.69364675368129, -112.0693259783885, -8.379644386677379, 38.27870203592038, 139.83482512591505, 24.224696088076445, 37.672778619681225, 23.384253165331945, -81.13907998798507], [25.536290299196793, -44.88822880052721, -44.28097348060919, 121.06491438322995, 19.085486331171545, 19.971327442082906, 161.57305733533258, 32.42073326089072, -57.98963569494201, -66.75606692217279], [8.780314592139266, -70.29500429604064, 99.85870323773383, -39.588314682678345, 110.47755385104064, 1.920554648304337, 104.49268616395226, -30.09587150797878, 28.657013229427385, 25.184062714249407], [15.517914803555106, -1.527392559079121, 64.99248430289721, 8.26274353536869, -73.01719674780753, 81.13937496318711, 58.90127076026571, 106.49873854947863, -39.00076713452936, -25.410478989063726], [82.58932854937798, -71.3916136198825, -55.60215957748801, -3.8113070644311198, 85.63254001056292, 69.15427601726385, -49.960885495998376, -61.2785452033369, -45.392352141688704, 21.843729579124034], [179.22190842679498, 100.32559484574368, 19.244973864270413, -48.44714777569854, 174.58346910339955, 113.29629232750692, 22.129638265025587, 102.44012606209978, -40.60983789892883, 7.409302181549045]], [[24.20362654804987, 147.799951364828, 15.249555414674619, 41.19382323239496, -6.059279063310038, 4.171831104220877, 10.923947369768797, 2.284277742271987, 4.499525369479815, -29.161962497960573], [140.42771765032396, -9.518904650038579, 1.634079815294469, 15.038907636290864, -23.118957245987744, -0.7924953571610545, 56.008201635429145, -45.7500559925063, 64.40614550695592, 68.63772524461656]]], "bias": [[[11.515413405143882], [-56.24522589451535], [-0.7666321278231029], [35.40809176718426], [39.13415466907165], [76.81497912661439], [11.948484824212217], [166.8751414224608], [-101.02754413938787], [35.603380293705534]], [[-30.89421892741032], [19.904310156449434], [-6.869267682545305], [11.737009900161286], [13.041159290526158], [133.0851476439814], [-20.22536153791944], [27.49315081773321], [17.44916745886957], [-15.716118110617114]], [[-149.05742748470198], [-117.5351238639079]]]}, {"weights": [[[-81.24418671893909, -64.38213629511438, 100.55723359096513, 98.42665779882314, -20.66111530702702, -26.872089072721163, -87.36656172343177, 130.1258195772563], [-14.617848858701512, -53.07556414270443, -26.591863821275112, 60.198877805943, -168.25976654530797, -73.58682840858879, -19.597925832827947, 7.798960672425121], [32.35258658061203, 102.25532018059349, -48.63380301540514, -164.8671837649339, -16.849290344650385, -74.39435233837862, -2.588820922908831, -68.40662025343097], [-76.33771364080044, 66.54130011586138, -77.14561542973117, 52.680139945838945, 41.05976723069258, -16.642218328073735, -55.54056661774025, 65.98350604670982], [-149.8067396598216, 88.83786607929795, 69.7098462708559, -35.78124623331023, 9.016199794104146, -1.2785687017487857, -104.77527775736897, -49.64827670371809], [-1.4769480666718664, 27.775398733403055, 57.91568932776173, -93.72669427022593, 120.14559729457322, -29.081223488301077, -59.05928987198479, 69.5014129024174], [-77.76437108178156, -43.78878478962384, -42.927712075980956, 18.56335813474331, -154.15287729471623, -59.80876623185721, 5.651509140873457, 70.89686588449395], [18.383789752021446, -13.098393669523649, -28.353870887513587, 10.277595554996571, -38.90127446875133, 24.294092627942938, 102.06981224888969, 48.10016779288652], [-38.183621780704094, 47.48783978802041, 39.425274832677935, -46.29810861641848, 9.286685137145113, -3.898436410365892, 190.10327609292878, -82.75573691040259], [-66.11714356526609, -77.93015566168205, 29.097137468217433, 30.824794306818603, 1.7477493276129235, 1.4726369039370644, -13.594886104018668, -31.62624494354494]], [[74.58942041289023, -50.00748376298135, -107.41753051703569, -55.00341714236954, 46.26280436165261, 2.32372602236632, -51.07438988252238, -50.49494042955853, 97.48972224562432, 52.18301522183019], [-44.22609937742082, -29.777807819937536, 65.13212182457026, -19.123754603474705, 10.829003356834475, 12.723131307114876, 3.469142469046583, 11.19518811791371, 109.92397585815762, -47.56660829603209], [-10.904314746521974, 34.87262310337928, 12.814127257865918, 16.606649441855343, -22.03009450140986, 0.8858482150144613, 95.60661698550753, -50.50422782001907, 181.42545273437435, -13.28350238621886], [8.382814834672327, 92.4902700712498, 5.476067987524972, 81.96040333662509, 6.519169634866516, 12.256037610466153, 17.902768554398317, -6.776957852432319, 19.71557965196528, -8.86786140584997], [52.37934949308169, -74.25937061104895, -113.17841711747928, -6.574026370008145, 34.97478590580043, 142.98769283954488, 23.196247724567915, 38.444118500747365, 22.32246230759306, -78.05829002032131], [18.387268141544716, -38.44280059477966, -55.25128902928417, 109.09048284475799, 21.507360391109884, 39.01290980808275, 167.5864205105582, 37.77010528932084, -57.53541818392425, -66.99296972618032], [8.21606010216868, -76.11668055025653, 109.43056098510506, -36.33009936515242, 112.58864477664227, 3.47314145554458, 106.40021102004076, -29.029281929774957, 37.61076550392898, 16.988550781271414], [15.090237322425423, -2.720650148829475, 65.07592600257446, 11.646049228787806, -75.3879680728838, 80.12416223784497, 55.771878653005075, 100.2670741694864, -37.67942730810731, -28.664725802353566], [78.00065841084655, -63.58638425014908, -53.110184885748986, -4.606314723039785, 84.34721988724543, 71.74089216288554, -51.39592663135662, -68.01962055414862, -42.311162984035, 17.744874371735943], [176.481241854961, 98.75209760533153, 13.84617404523139, -45.75637896241728, 172.6583564543226, 121.0837207675013, 15.884292542349218, 102.03982547360545, -48.152847962032155, -0.5098193991062896]], [[36.59401064047594, 148.93526368107814, 13.35313295946041, 47.12953929574357, -7.375669530073973, -7.4075450124252455, 12.338516714293224, 4.865777505321187, 2.594561941418794, -33.33467153497608], [143.10649983090698, -8.646678165300983, -0.440874055992618, 19.236511790051487, -27.76973118073258, -3.2814689440205935, 53.23190560683831, -46.15506391741661, 60.8893857836881, 72.40033420083314]]], "bias": [[[-10.000123929233066], [-37.898779648596474], [-11.213802747243246], [37.27933753624502], [38.80934569549375], [76.96181607443616], [12.54999749591773], [164.03295125292786], [-100.9415418864364], [34.87591024940862]], [[-21.734171655219566], [23.794471382583573], [2.5934331479254635], [21.88965598553844], [13.73734227301416], [132.0812331243201], [-20.03043745567409], [26.877026287622826], [18.32530619700753], [-22.465534163430753]], [[-133.6368372179356], [-114.35480818610901]]]}, {"weights": [[[-80.23336023840086, -64.36399977735427, 95.93500139450893, 100.43077353443726, -18.50251784324162, -24.899384024572683, -90.78833495320752, 135.76353342784105], [-14.190975693461937, -50.85246078844936, -30.520338006194237, 58.303867195991934, -169.93378373052363, -78.87458186908064, -22.81798326174888, 10.047765737316205], [31.05655045742615, 101.13374936123928, -43.973634801453805, -167.9222226907116, -13.684213253172757, -70.6366244570787, -6.219057261906535, -64.67394459334076], [-73.92883504181, 55.25208567217556, -87.00891735538058, 50.075115984852474, 30.696817200687395, -6.545295822335539, -67.62943865833404, 73.65433200432796], [-137.25648018219763, 85.63943094590044, 75.92671708357989, -27.153212978682642, 3.266639041047852, -1.737665370510586, -112.71653129825167, -36.02944050456632], [11.908931782465023, 38.104394662420916, 52.509733688678, -91.10019789399429, 113.00015289657887, -35.37114209141006, -63.072139905139046, 79.05093871329213], [-84.4036854434827, -41.112205158471426, -32.84438739137103, 17.45233906349624, -154.5593294605618, -64.78952017325896, 10.610095079255908, 62.650244713717456], [16.23851327875259, -10.107025126076946, -23.7612152076024, 10.719806503913741, -38.821714679299, 24.53303791660194, 96.93483522623772, 48.07426719109401], [-44.88773088798147, 50.95078873413911, 41.64863935191269, -49.65522965279211, 8.38357975012709, -1.8279782606497474, 192.4481584592639, -87.71794131136308], [-67.38499889845737, -77.4217410623582, 22.22926440710633, 24.763432664656786, 3.242748327863205, 1.0413915659551005, -14.210318611292598, -34.107196570399644]], [[77.12290465841672, -50.56959600413603, -105.730614045713, -58.7344648633901, 44.974701048151, 5.079164157614624, -55.16434750205006, -52.76180429511713, 98.27254703236743, 53.949690105217115], [-43.32647899660808, -34.359742843845886, 65.79031991060354, -12.741398630114183, 9.570317169403813, 9.888671836913039, 8.825967195461264, 13.539201941498586, 109.52600002937058, -50.21645182104941], [-17.65944872439458, 30.502288439858322, 13.42291930994759, 13.371512988500246, -15.483836200145328, -0.5072619695914362, 98.73672255454835, -60.117911785546575, 181.2666087633976, -9.305706134332736], [11.646255214614007, 93.21220678361256, 9.329008095729352, 81.72693541146214, 4.831632091799641, 14.38354139791594, 22.878805167928874, 0.8786255098529749, 23.11670238422969, -6.037905400353113], [52.30082078872473, -78.37073739188985, -118.14454624352425, -7.686896641162591, 40.23090549007284, 138.515937836078, 28.715177358059783, 35.92852357461412, 24.963696132453556, -76.58358162095696], [17.7185910639375, -39.371666599697235, -56.33851774954803, 108.99245407222276, 18.195268453777565, 34.2448094524173, 164.88705350866695, 37.30310285634015, -58.600925765654836, -65.62829467952108], [3.168002668502213, -77.93517034619359, 103.75366083016739, -36.736609243340205, 112.52368109578875, 6.376695228368389, 105.38588935966625, -29.717326122406696, 32.283408125855104, 14.669057164977753], [17.868021244557983, 0.7484635270224398, 58.51074381918285, 13.562432134474594, -74.91221796503638, 89.24859520300244, 53.822741669094015, 101.37288652744019, -35.67085004221978, -29.922911162808337], [76.68117324925909, -65.59945430925116, -54.201258474910084, -13.3636424574587, 85.68904233338633, 71.61360305082566, -52.0129868152296, -63.453377006843276, -52.07996489026335, 29.890478151403975], [183.4557485796555, 96.91112282140188, 19.319434052092653, -45.94205497450085, 173.01614475157683, 117.96797527656123, 22.125061309026666, 99.74546107789199, -38.79452423724681, 8.978122121946107]], [[41.19129065912102, 146.14433877988483, 12.191915954434545, 42.90745633458313, -0.19212924855610636, -7.408586080870514, 3.447009053017012, 3.9635895047167686, 5.343040675782718, -25.332904747154835], [143.62346444726018, -13.945521137411012, 4.432731281501636, 15.355474461070726, -26.217591570324515, 0.4965275447479368, 57.621263267146084, -46.171616302956046, 64.16969572280621, 71.36744532854787]]], "bias": [[[-8.8659654905014], [-38.14971662790554], [-4.021245957063958], [34.9916436125813], [41.22447799492501], [76.49582473286004], [15.49371730145819], [164.79848486889995], [-100.85351748529477], [37.55676225419256]], [[-30.234163931688183], [19.564603080496646], [-5.678025261976328], [18.6651660079554], [16.822430769150774], [138.523612023696], [-14.809057192987261], [37.41335335121275], [13.298831621259287], [-25.781126174452407]], [[-149.9119003199982], [-113.36976465061873]]]}, {"weights": [[[-84.27258854381746, -66.80615972750789, 97.9222191098713, 99.59016071411055, -19.603794824015136, -27.21519880565828, -87.96571843935313, 135.8122005100073], [-15.641084213253825, -48.805673759838236, -24.447381835837433, 57.39221951448364, -163.54128599381443, -75.78077915764378, -22.01488708088882, 12.39679883916009], [34.82098126086073, 101.58666731034249, -37.22878099743823, -158.43979523122724, -13.790600031521619, -75.91132021687973, -5.308271908406419, -61.44811463670903], [-75.65982702895582, 64.67193791614756, -76.87503866607278, 54.05272507566625, 40.8862770436847, -16.08930476673929, -55.44800173176905, 65.15678772619158], [-141.56592744629236, 87.85141361331927, 76.57453318727687, -36.17891954485201, 5.861119784045715, 1.2528435702130833, -109.95250426476532, -54.90450699548623], [9.529463599289931, 34.28848507138704, 46.52786874391307, -98.1514663484207, 123.0957018986853, -36.14675144221731, -58.34057247906409, 82.96623541107265], [-70.76097871123768, -44.61625092761425, -34.719611333749434, 17.111168164495464, -151.73121518292922, -58.010197299494244, 11.457363821237685, 59.55899863064166], [20.477140418758587, -7.408162013143711, -34.61912025838252, 2.5284690520896183, -37.426483317763285, 23.860270843726312, 95.98137523220937, 36.44359342966629], [-46.096274563396584, 49.67888219431071, 39.50998884321489, -48.792649325194475, 0.3486756226425771, -5.046851278573607, 197.01977167433608, -74.105270507496], [-61.74611340188947, -77.57565670693029, 24.38568585499591, 25.698294106003512, 3.072761640361173, -1.0621112500981402, -14.154716213702258, -29.74356788855653]], [[74.20868117412812, -55.9854222642714, -101.68949197176342, -58.27727060117967, 39.70282347331877, -0.8798787749195751, -56.7630554659439, -47.67138172392802, 94.75206887939973, 53.90187170579867], [-40.1898424435867, -26.547769276034924, 66.39569500425793, -13.417384404689011, 10.895901760451064, 10.599729698749615, 5.4754591376069, 12.611200465916609, 105.30596508999645, -46.68489149131591], [-12.741438827035836, 36.11914542225789, 13.42386357774823, 16.433623262103858, -21.17783954213046, 0.3122961513115592, 99.23757739910084, -56.56497993816926, 181.9017429739411, -11.967630040201042], [9.770327445093685, 92.91772022044547, 7.229288236703578, 80.92847866412706, 6.9470527816240875, 15.048515480266635, 17.395490218253794, -6.0917383161531005, 17.43045723151772, -10.508606465865839], [52.05420205837983, -74.02004476819565, -111.72298469636202, -7.175915303908687, 38.11723354373422, 146.37719636749023, 29.772845192293616, 36.802259985219514, 21.95406098519391, -83.27107024040602], [21.80400214896671, -40.61039922934274, -53.04514613729674, 108.57285853403805, 20.925936669704555, 34.7520544176777, 166.51599161725713, 39.34310464004692, -59.40392744781442, -68.019029348227], [9.435477590382447, -72.03335197555424, 98.4610938197404, -40.37860462083341, 110.6049774804896, 2.452132959334606, 103.61155966381402, -31.870060565427007, 28.682096460518064, 22.649503980033177], [14.962799299294703, -2.5617749558240175, 64.82125905914404, 10.456183892729783, -73.8872965776971, 80.8056142890323, 60.66269826912878, 105.90461464129517, -35.77366397155089, -25.410478989063726], [81.84796266430439, -69.45663215362468, -55.452801317554915, -4.472006650174247, 86.80673262108124, 70.69717888809346, -49.371470155084545, -62.28407149825767, -46.84422817046857, 22.407139479916854], [179.3896635005739, 101.85408590289484, 21.053111403105433, -48.474139853782674, 172.75385310234637, 114.38770327264115, 22.289581643268495, 102.06237792268365, -44.46009104841045, 8.474029791622442]], [[25.019848690819373, 147.799951364828, 16.663776746131607, 42.32250144283829, -3.5689312044963386, 4.269872018497356, 10.739529256985023, 0.5613462345429941, 2.2930978550089143, -28.352685600733217], [139.19578461309072, -7.862488151336388, 0.11638832621680728, 13.660924736383814, -25.15294183717263, -1.3668667440843392, 55.76269599297478, -46.04667048603432, 65.09883202628983, 68.4708582752951]]], "bias": [[[15.158437228584967], [-35.06744222549336], [-9.465739396896915], [40.18483096378321], [41.35918282399434], [76.00265669111889], [17.47671291559486], [175.33672245023618], [-93.29076551378748], [36.20760093112557]], [[-27.26523887859655], [17.026583316205812], [-3.719879357082318], [11.665688891044846], [21.834714767641177], [135.7842018117784], [-20.03043745567409], [25.876976708781363], [17.44916745886957], [-19.221727100151618]], [[-149.85804093156239], [-117.07412494649964]]]}, {"weights": [[[-79.11985839850047, -66.63424851322814, 99.62824841605196, 99.39263455438312, -19.469557482896665, -27.15976100917919, -96.66766625253041, 140.30116331345198], [-18.044579782539845, -50.051285152284294, -36.51898537145977, 76.16982697164559, -163.55364746031154, -67.62946596633452, -10.018467755221561, -1.0280758020247311], [33.03553778422163, 98.35340523265478, -47.41783317454982, -159.4989559132994, -16.946067575031662, -75.63782119288155, -13.188953135586932, -69.40287748877931], [-74.50440096423554, 56.52675408909543, -87.00891735538058, 51.88070341996616, 29.143535904525137, -6.545295822335539, -66.95555024913969, 73.35962230372154], [-135.71846996923603, 86.97189376116074, 74.18754732020928, -30.683814458138137, 3.3603419653162554, -1.737665370510586, -112.31943866534515, -36.02944050456632], [10.668395262523047, 38.104394662420916, 51.06848562173711, -91.22460725128123, 115.3299588485377, -35.37114209141006, -62.28605868804581, 79.10988065724712], [-82.06847968395444, -42.87193557126884, -34.17039815565735, 15.744442723222484, -154.5593294605618, -66.23286436151618, 10.458629214732651, 62.506692238062996], [15.010237842297952, -10.137486498680941, -24.365652852851422, 11.663098579323464, -38.821714679299, 25.00962993401497, 98.48004491593638, 49.074536985698465], [-44.88773088798147, 50.085486592003114, 40.60152123542627, -49.65522965279211, 7.247139104087818, -2.7001056856172507, 192.4543027417167, -87.29766680310523], [-60.557240341312855, -78.35069001615989, 22.85494435198931, 36.50557487102271, -1.2227942130422043, 1.0670708895348109, -9.37339010519098, -35.51551710239099]], [[79.6240222706606, -56.475698557808535, -101.97510619525873, -55.28138174017295, 51.4066591967999, 1.3709281342064084, -50.20807741915022, -55.9868118365792, 97.26039245723202, 57.08378042280833], [-50.28652049747722, -28.65610966003665, 61.741305762525585, -17.741953004310876, 12.344304691502872, 16.063283850301712, 14.455856349930484, 8.035022072981771, 109.02429620700866, -51.0636728950908], [-11.55837013716234, 35.989469046824084, 10.546703721789521, 13.461240715442733, -23.665439147768616, -0.07468532712018955, 96.4146894650307, -54.09539633971855, 177.10473593648848, -11.837543812240645], [10.901129983912616, 93.71417525787174, 9.238698238567938, 81.32164750610086, 2.6719255711513075, 17.283111357811098, 16.834030464686847, -3.085441351134232, 22.423356418010457, -14.845297020238549], [50.7824726177987, -71.62715821524809, -120.25601032591653, -6.8958634332285955, 37.59784483482273, 140.72303353864925, 30.501533551567878, 37.483372344505426, 19.59278464492126, -76.10331467408292], [25.918842281223036, -46.64533293985258, -46.6270794459788, 120.32746958096614, 16.60914344770286, 19.866770966176958, 165.00634226627602, 31.119056956504235, -59.68027057408416, -67.5897198051226], [9.686209122773285, -77.59142582768229, 99.09050755134692, -38.74235471640999, 110.82627199761824, 1.8708608309412815, 104.0922226777247, -27.321703727805687, 28.405352734627034, 24.166991772931357], [9.949913068707822, 8.382899702568448, 63.993046852173, 0.03820038460671582, -68.55454954816302, 79.67314121063227, 51.225666845506716, 101.5388579851048, -36.590161975434086, -26.610244195007972], [82.78681140625525, -76.89392858674636, -55.599631130848024, -3.3634611382797743, 87.76704562213381, 71.00533156853959, -46.14520221833842, -61.72559227951812, -46.46599154656785, 20.771096235065713], [179.1223243599825, 97.63039007396277, 23.391424493283516, -47.82516422014111, 172.95553070007983, 123.09394457170329, 22.054999114452492, 102.32420315241917, -36.3793913340061, 8.100310450744896]], [[32.73036413747645, 149.98811972781192, 13.458962028002617, 40.64713542099984, -1.6549011406966465, 0.17904531873194918, 14.234977044940065, 1.9128303483916351, -2.9118626341335316, -33.67270568914442], [141.02465961026158, -11.131678363058283, -0.29555788498392155, 20.3913332739256, -22.800225255933537, -9.4866707403623, 58.02899402544809, -45.179200110906095, 66.47527627579584, 71.99591375888629]]], "bias": [[[15.390602672662686], [-36.27579802817529], [-1.3457227346611391], [38.094577109316994], [38.190807549252256], [76.70578590115201], [12.14809996433593], [176.04873725454053], [-100.71896923438223], [37.50918893859433]], [[-23.57979537629026], [23.425416188497337], [3.4114385683246353], [22.550486478822506], [12.721083322394382], [132.7510643484482], [-14.796554549475145], [33.60188872193418], [14.57532293821219], [-15.66560312727284]], [[-148.63199869134166], [-114.11730911675687]]]}, {"weights": [[[-85.93176821693538, -66.65300871246698, 97.9222191098713, 99.18220587707032, -19.18837744275895, -27.21519880565828, -87.94084373123269, 136.74297835429454], [-17.662388111522905, -49.626629838705945, -23.27332802216917, 56.10057955474132, -163.54128599381443, -75.78077915764378, -21.348226793825866, 11.857365209035759], [37.38690892679608, 101.58666731034249, -35.92234420359275, -162.29954297524196, -11.930362807589962, -77.38304309943945, -6.697075482096579, -61.557447958896255], [-76.43590010702165, 63.99022669517442, -76.58306043370621, 52.84574241561798, 40.8862770436847, -16.444103565179457, -58.38239240339329, 66.42844553709158], [-141.8610774389919, 89.68430675189873, 78.30976312300577, -37.92537818585147, 2.5412600451829936, 1.2528435702130833, -109.95250426476532, -53.50836037165706], [9.625468900645108, 34.12478456883315, 46.98014441865287, -97.127251210479, 122.47254497651659, -36.012832422619425, -57.52916949421818, 82.4505763032], [-78.1035646305677, -46.37453394069499, -36.661122607361435, 14.2314760952671, -151.08907384147625, -67.73265239924032, 14.010285879683376, 65.00986179907632], [8.301255532480788, -8.253071411463544, -32.523755573298075, 7.434876088433399, -40.008406299656755, 31.628409943988267, 100.13353609078591, 40.35186543000447], [-41.20276436802098, 49.28885550105625, 41.019959745691324, -49.43964005398273, 7.81446130846467, -3.6937184709631254, 191.55644311084052, -86.22421175844408], [-63.816002819795585, -80.38467211781881, 28.581686443548534, 30.779072993132, -0.2964284576030659, 1.0977840104315482, -14.192019688439961, -35.45514151667174]], [[71.60621600755984, -48.75172283931727, -102.33406518403115, -54.53815077468193, 46.86858189050322, 6.187839200982996, -52.01762282819709, -52.50757570320168, 99.12109175697147, 55.02098116918408], [-40.14691662260841, -27.127000367728797, 66.71771965956819, -14.519396153614654, 11.618399759374203, 10.504796496413764, 3.3331794783476303, 12.168555939467888, 105.30596508999645, -46.68489149131591], [-11.010534320526206, 35.479448148853606, 14.317430616791945, 16.190621191603547, -21.03588150374467, 0.3122961513115592, 99.74587172386974, -55.17787741933308, 181.9017429739411, -11.751370507968675], [13.235019818444483, 94.18247049117305, 2.5521542957678904, 81.58458874545525, 2.6478964425827964, 15.682346205904173, 16.252291194119778, -4.627856935827613, 20.300403055319585, -15.758126012922332], [51.03398022264926, -72.56885020314834, -110.74182784895639, -7.731892543112464, 36.618516489165884, 142.22281906989375, 25.81813813553202, 36.96125940159862, 22.008837368928074, -83.80996014607196], [18.617795546271314, -42.15620212974816, -51.74692800678566, 105.97792481128047, 20.011118062740028, 33.49259410407066, 166.37884860339324, 40.0642213589385, -56.50277056842756, -68.59954525299095], [3.643686312109158, -77.79267011164802, 106.32819474521753, -34.70432447859159, 110.61548055032787, 3.9535043610742377, 101.13238857926015, -30.051059337066324, 33.292620933220796, 10.292052954739326], [10.113473403598702, 12.411822793121477, 60.491364210544184, -0.09022777013140959, -66.60310185310479, 81.28464884316627, 51.96411342901407, 101.39486918338224, -37.69928042376988, -29.33528256977079], [80.4400273152233, -71.54825567708376, -52.04447033388524, -10.144918932202854, 80.97848629341802, 72.6151700832911, -48.31045223610031, -63.678062043827694, -52.02430047327139, 19.410246951311485], [181.04361742853334, 98.9369967906279, 13.445651417075384, -42.2737530193783, 172.10632532170143, 121.68376667566073, 19.62050208166677, 100.94785233066612, -47.78384416790896, -0.5281321330472013]], [[42.21720424735045, 146.25159808450016, 10.234115096485649, 44.701753374238706, -2.3056679736213086, -7.663818341546128, 3.2537956009966353, 8.991889627127716, 4.404582492057168, -25.944796813488445], [138.3020135778833, -7.255126170312376, -2.051131651833085, 17.133111028940927, -24.128058780896822, -1.9486908385349961, 54.5300187380417, -44.99341309246098, 63.90025742322206, 69.0604289089376]]], "bias": [[[15.337521245836045], [-31.980279903581454], [-4.57257234061168], [31.521775426374905], [43.98576868201397], [81.96996654261629], [17.622848674791026], [175.02578092092784], [-101.31485016567386], [33.492599209411196]], [[-24.866505558105366], [16.46709404720977], [-7.327447021367797], [24.55477709787076], [11.215623602200447], [133.36327030019288], [-17.24388157441447], [30.498920968830664], [11.034644373552402], [-23.738973248888282]], [[-147.75399539384887], [-115.74893247916958]]]}, {"weights": [[[-80.47114088698116, -66.26919900998693, 97.79554800042287, 100.21272125007647, -19.469557482896665, -29.21173037879891, -96.41347202861168, 141.02504508568708], [-18.711343011889763, -48.25350988236104, -37.68436300761229, 76.07789365256961, -167.23134291969046, -67.92442991367257, -10.144522810407803, 0.9583170191013355], [33.5786934431506, 97.67803563988772, -47.25567942703571, -160.06175686864452, -18.83519608292756, -75.51084576631558, -15.010210990658852, -68.31015728409393], [-79.61373015693813, 63.81949848859818, -86.30615253345641, 47.486747218693026, 27.596832570767322, -15.084797509599916, -60.27313565444632, 71.8681936398915], [-140.22209225509346, 88.90553480217963, 71.83288973085335, -30.77488426265605, 2.122690557308793, -1.769111427256119, -111.23974429514298, -38.72479091704232], [-4.021202048282163, 28.910273214795854, 56.50994659821904, -97.93342047318617, 122.81093316871431, -27.73864803089625, -60.24279016003992, 67.55324091598223], [-71.51836387322157, -38.19204394122554, -37.069893467159794, 29.05774576990973, -133.46281714590936, -49.69779751602569, 1.9069478208899224, 42.40324276640243], [20.48492145591516, -12.94645159890675, -33.742946598031374, 2.6760500120502333, -37.900269335295015, 23.39209506898491, 97.83380900258148, 37.440284819089534], [-38.41608456383544, 47.790799028908644, 40.58622257165601, -49.58289034639455, 8.393841122667219, -3.874528944757861, 193.72465329899927, -82.89920390695342], [-57.86243496334299, -80.54882121546527, 24.22061555917931, 33.695453858082686, -1.1911086570427918, 1.9677985946530554, -12.494830422234841, -32.952242528480525]], [[76.43731612673126, -55.342283324068376, -100.89734113274436, -54.786874920761434, 51.4066591967999, 0.44379072273801534, -48.73144258279697, -56.60322019925529, 97.40558342675402, 55.66156363038882], [-47.8498960257599, -28.88593300983499, 61.98849825688617, -17.741953004310876, 12.332054216260257, 15.784518089339207, 16.27793036247738, 6.812639335444741, 105.708085553016, -51.56267454671401], [-10.8805857279025, 35.29797832699172, 11.915444900517379, 13.03377266193513, -21.191270550482013, 0.07216929127745547, 95.36228709184901, -55.64112197630766, 177.4083029152399, -15.05830161795348], [10.16545216589568, 94.3501843108732, 8.871722727016563, 82.83423753468101, 3.7329887896500544, 17.34710877869565, 15.575565218693656, -4.978546299055561, 22.737987974677054, -14.675183911752553], [51.77617942538, -73.24608293606683, -117.88538600679628, -4.614263544417199, 39.74760622314299, 142.38070540872633, 30.666114848130015, 36.88703260587752, 22.564689171885743, -70.76756191363096], [27.237585787173995, -44.81408174779253, -43.38667886858179, 118.16771936081471, 15.552605627628196, 18.997676526593715, 165.52402398271883, 31.73063314789741, -54.549043347021446, -69.46145712061279], [9.412564860693173, -73.7057763753331, 99.87155476650587, -38.69313201131967, 109.39938773715066, 4.037999665205414, 102.64846955717131, -31.44857559563772, 30.2655499422386, 21.43100625672631], [14.717732267342718, -3.9653975695887174, 63.69218800553169, 13.811186380314506, -75.23663788222207, 78.92415112687227, 55.53658551385278, 101.61009417002798, -38.00344617867633, -25.90675983527617], [78.78630330322494, -74.39591071608392, -57.722298901228484, -5.417233534277397, 87.51464875604097, 71.29589247412518, -50.47930848728582, -68.82027789153136, -50.09093588786499, 25.039400456883502], [182.77083810844726, 98.3151277310335, 22.69008421474574, -45.968563899735734, 169.24012552589636, 120.6134024656324, 20.77202227525739, 101.06393237329242, -38.69056165327022, 10.472925733665361]], [[37.312735812052345, 148.74431156215033, 9.869172330699103, 49.425518160735365, -6.362816526032961, 0.6487313429939241, 2.154393257961587, 2.0260936786742847, 3.9373527401831634, -36.062094612889624], [138.26684307641872, -10.136519460791032, -1.613203314973564, 20.957970008335312, -21.73653946933487, -11.127543184026734, 53.39199948104163, -45.223103933856315, 61.93661173223904, 72.86609675691993]]], "bias": [[[13.697525832897764], [-32.93830092709532], [-1.5331156263435457], [36.3836675011546], [37.26621478820278], [77.54480231020827], [11.083453116667604], [171.85526355438944], [-100.09853656802193], [34.943911846785674]], [[-24.05405511275414], [22.172110206130192], [4.237203581959758], [21.45794502689246], [17.134012528719644], [-148.448113586364], [-15.515628549449941], [27.910025062332096], [9.219506932599508], [-14.765338518956092]], [[-147.48958468416066], [-113.04025924820965]]]}, {"weights": [[[-77.39332033325415, -74.94452369545209, 99.56122031139212, 102.72278892594997, -22.061613233061344, -30.93361684491708, -92.98660997905122, 133.27313058824663], [-15.015767164486054, -50.20673489627264, -23.566604350845658, 53.66110272507723, -159.3754435029941, -61.6123028370886, -19.200429186709247, 4.2596112059686035], [34.228222727277945, 95.86455260958564, -47.157573956047514, -155.32428406374504, -11.700926437071827, -80.09223513254338, -14.981726520893258, -59.201958987818315], [-74.8352513403035, 61.90965766784124, -85.89866296260489, 47.84443064278986, 26.838271474917303, -14.042432040489588, -61.41634478660686, 73.56400965225522], [-140.49935967251852, 86.85445039152684, 70.91516582916204, -30.729920391856425, 3.953050487142799, -2.7909267648071463, -111.24564187649474, -39.09548225949833], [10.687931602539193, 36.60434307973357, 53.76436493770964, -90.91916224282866, 116.51247325796265, -34.512430938191685, -60.74955280938883, 75.49365633608234], [-82.99662212712556, -42.803091630533174, -35.03660763415203, 13.715776044014499, -155.27833950007408, -67.34344318939404, 7.865811307188427, 62.2412426232039], [18.42166796689427, -8.273326437183178, -27.224195964424123, 12.659613894298012, -37.760614678579515, 22.893541465992318, 97.05158986538238, 45.77707692226673], [-40.21369637415463, 52.19988768544084, 40.380656745244465, -49.196078294186215, 6.378232122060169, -4.017259583611928, 192.20553213918473, -83.63844931426517], [-61.72187256071016, -78.76508189185232, 22.69774325251386, 32.67229347358089, 0.1442756077589124, 1.2470940729546927, -10.063204913179508, -35.17374584312901]], [[75.09739645437475, -54.37372221030142, -102.30278127751454, -61.931771389930624, 43.28660945590705, 1.4294696075391584, -54.37160091179987, -43.33863365755903, 90.61924426566202, 60.48448778483237], [-47.69703214711354, -20.718238194183996, 64.68518082658694, -22.575405010211608, 17.13116692195044, 9.876858316437133, 9.943459337328244, 14.874663881861965, 108.58972801734711, -50.3778177599686], [-16.851379419079844, 25.217171510691088, 21.412196551053952, 18.238384729196344, -10.047222412602434, 0.6872224337579615, 95.19792233462037, -59.04154397002107, 180.80934605301258, -4.207835206852742], [5.5709982558716575, 93.61088680974717, 5.671464950651626, 79.84209373087492, 14.356724711143501, 9.092861658491335, 21.927024657477485, 3.927129934079592, 18.72931775452904, -6.1604478446751], [49.94727797031934, -73.32316596601821, -119.0403279677667, -6.45384826198197, 36.694583907888465, 140.10846033424778, 28.67703281148302, 34.741001097577616, 21.51221277863675, -72.68296251667316], [28.647697762919158, -41.28680296814594, -44.60927848613833, 118.68098774031924, 19.027512274869494, 23.72783220512548, 163.9710192938989, 29.292707439384095, -59.064166448117845, -66.72513605148512], [10.957330937672342, -71.16488254312225, 101.99577530706986, -38.73137698954508, 109.85132825526456, 2.9573121739064216, 103.79840593137048, -27.012137856622346, 29.94727605396916, 23.30759321175159], [15.8062411969344, -4.919943335865748, 63.20059427049549, 11.16331058220665, -74.48177283954135, 81.15495953802102, 56.258649344732596, 104.51553021795006, -39.5723447514982, -25.296728028039276], [82.10793036612347, -72.4750271975665, -54.3533960723492, -4.886282510127972, 87.08369505563311, 70.69717888809346, -49.808238280782454, -61.89265044964295, -48.59305670423556, 22.998102225641205], [179.1510604252491, 98.0311449268231, 18.128005198761223, -48.90617001235571, 172.51960930537638, 122.90538237876989, 19.39475333076627, 101.76526189451569, -37.1897473851323, 9.090037996010416]], [[26.550406615969308, 153.16980757592665, 16.58967612726432, 38.51584564313426, -1.2993804099636423, 4.655309789811515, 14.584347331165088, 1.6091622505603833, 2.00988839375254, -26.552172932915852], [136.991934424477, -8.56350856837362, 2.447615792319993, 17.43524381949293, -23.666380299817266, -6.627885982308505, 56.56334332231158, -42.471273710180824, 65.56002082582138, 71.86668075114866]]], "bias": [[[-11.548534991283816], [-34.393791923334746], [3.388001984846097], [34.86464670801916], [34.97754185877438], [74.29101447768787], [13.289531910006644], [170.85825280158426], [-104.55064414047223], [36.943808875440126]], [[-30.117599510191692], [18.25008664315483], [16.58963700663083], [24.334747698753578], [11.448518256814816], [133.4855427589449], [-26.11648018605552], [29.93885875657638], [11.419591590277566], [-16.120989947373342]], [[-126.74920757971505], [-113.54705968400427]]]}, {"weights": [[[-82.80367799533097, -67.05716088988582, 96.78779810153753, 101.9922652903515, -18.537998090536618, -26.317555969783868, -88.3220509714806, 136.99277924346623], [-25.667845431067658, -46.560644054836914, -29.441186323158288, 67.51389638547721, -147.76959978079816, -63.93160165454784, -3.994347986614203, -2.132269435261991], [31.83337070454387, 105.13853522365018, -48.288057901518656, -165.04711587353367, -14.946407799401403, -74.2302747663971, 4.296685534043994, -66.38364463756754], [-78.71677721379659, 61.648560457101595, -87.10050869337104, 45.22377452519249, 28.143317372877355, -16.139113458019928, -60.89353557245897, 72.36423668786345], [-141.52442153519084, 86.07338779269458, 70.98825161388159, -29.534184476790696, 3.6935671044561786, -0.6107933449735825, -110.85248324439175, -39.16336837966054], [9.626393535702618, 36.42732974712079, 51.58151917411573, -89.84549233708387, 115.0759448862528, -36.623181659977654, -59.6136425711744, 76.76046052719919], [-81.9667177864747, -44.5210755865121, -34.526730793851925, 13.176778768113827, -154.25702749831726, -65.8003994909955, 10.08244668573581, 59.652069113275466], [16.5747302577253, -8.771147896843598, -26.834943418960147, 10.793143487308564, -39.77555610667874, 23.251394109278383, 99.47086500124907, 47.40546518457724], [-42.87178047493367, 49.22202329408548, 41.519642592506365, -49.23917189124021, 6.6929449469492415, -2.6662318326699737, 192.4543027417167, -87.529586593504], [-62.524552640078134, -81.19940675279204, 23.50018729932201, 27.734860077236817, -0.553791397204964, 0.6063052202997717, -15.365258803430244, -29.941548045712143]], [[88.96412887419282, -48.582053163455065, -115.11633036696048, -65.81135079897713, 51.36678255039436, 0.3249765424116235, -53.333035131212846, -55.87396701532037, 91.10607100783426, 50.207511962099716], [-44.672493977832666, -31.574372792063013, 64.6116099955914, -15.989548755672546, 17.177548418550657, 13.610840596664369, 22.36221577863123, 6.354065654011218, 104.03327260259323, -53.08671091220641], [-16.037489110825884, 26.697596104929136, 13.144970646042767, 15.778446682773216, -14.563294101409106, 0.197558985747758, 100.49906738849012, -59.61608373458222, 179.07069321886482, -6.8695957908052065], [11.640950713595943, 89.21630582987659, 7.856820583485816, 81.86415580758808, 7.579125455025839, 19.736566573686495, 20.139200746452303, -1.1479492782533725, 20.88215780329207, -11.541120964088938], [51.0498490460312, -74.96854750467035, -120.40118197099883, -6.351610844111693, 39.808053070041026, 140.85692623434937, 29.293999199451584, 34.29057654824149, 23.684838978989784, -74.96231557215202], [25.235627532634677, -43.61527287024829, -48.13287680168731, 117.53818068931247, 14.797534564661374, 23.93472103331887, 162.3073931288253, 28.751904929805185, -63.40454731956441, -68.58673572006325], [1.782307399998397, -78.95045553383953, 107.74283205132414, -34.279211688627996, 112.72827578066257, 8.269017364559074, 107.64331427483852, -29.294085149323834, 33.773390834768065, 14.902718802622902], [17.705235333573984, 2.5521805780683415, 60.10627610078624, 11.442975741926277, -72.43426052132776, 87.78227735731913, 54.82490788426327, 99.71562814279515, -38.39331046540282, -27.539399771469725], [77.12545948336852, -63.503580895660946, -53.46200114411405, -12.262564419840519, 87.7932839056683, 70.09863797751626, -53.20470900501401, -63.20752054033252, -51.76420008494274, 28.452255371182893], [182.41357623677314, 99.49395114294411, 18.841891038085837, -48.62299222186841, 172.80806440891823, 118.6794371768285, 22.189726475464504, 96.37920261071586, -38.69249170412075, 11.543418161102734]], [[36.71827654825336, 152.07458650700568, 10.025161901699459, 49.72825678789195, -2.9748826148135894, -2.186669458673369, 1.9872786299497833, 3.859056783302637, 4.691551068268426, -37.41592183637079], [138.70749314544818, -8.424260364990856, 0.8576044874483287, 17.109374364209884, -19.16411295956962, -4.952611454311822, 56.286253796738286, -46.93218125091124, 62.61983454584781, 69.97796409508487]]], "bias": [[[-9.436069422743612], [-33.55778553697284], [-0.7666321278231029], [29.223321338914957], [42.33930840249184], [74.18194920824105], [8.59372599096596], [175.42154133662976], [-101.96878590920913], [36.7880666585661]], [[-31.135668064440868], [17.80726470372029], [-6.676579519624003], [20.702569420074642], [16.081040074064347], [134.74433604173652], [-15.79098146336401], [29.14597829524743], [12.295879553579447], [-19.939381780307514]], [[-137.61620693593744], [-116.12184569406068]]]}, {"weights": [[[-77.711347474133, -76.04508216760148, 96.4290009621166, 105.84922281186022, -18.405198401328338, -32.92497961478645, -89.13592995555933, 146.58325641669882], [-23.635671718684936, -45.01749728300747, -29.05605957962879, 65.50687862581209, -149.3454091931494, -66.19677245628122, -2.074996342120044, -5.518896311184517], [35.38709270957779, 99.83754889605159, -44.75075582948481, -156.04187915248983, -19.08952641119947, -74.50038887638578, -15.258796684295907, -68.7411069755471], [-71.21451039329496, 67.2640408136417, -75.10531410270329, 49.159482089963, 37.686398812254005, -9.882607586346863, -63.73109791720441, 74.9093998434699], [-142.36592589840282, 86.43082080909058, 73.39430570591836, -32.885784900447, 4.976448325394524, 0.8649038589126332, -106.03483050544426, -47.101430238299336], [11.385171823894757, 35.555414990161566, 51.00556291275826, -90.71430497571112, 115.76334436622453, -35.9827049901314, -62.25331156329443, 73.68295110394303], [-81.82569383651868, -45.439247597539506, -35.639555892844506, 14.101692983624563, -155.51983972016717, -65.10942513174214, 10.853276322981552, 62.963173282305256], [18.498737160053047, -12.251924750881896, -26.62485756856686, 11.663098579323464, -40.9799286074508, 24.942910779406063, 100.06197759162566, 48.00161005313557], [-40.23678069730525, 51.78884181328243, 40.34531452517322, -46.72091872723486, 5.806977547474759, -3.8601991097819752, 193.4876971682968, -83.10064259807987], [-58.69977503513119, -80.88417172267863, 25.71882872182259, 32.36389654476104, -0.9457290359866979, 1.0168894062293894, -10.217160359868183, -33.37924674821104]], [[75.02114463028619, -50.94528475719271, -99.9067281695173, -57.51749690389016, 52.09202009595437, 3.228833379167331, -49.359286410693656, -57.58676546919952, 96.65731908857572, 54.20223937352791], [-41.548467108111815, -26.794430734615627, 66.763836727651, -14.350841565185505, 11.823517439594815, 12.557170934006518, 2.8747353747095388, 12.658387466916377, 106.64071939304199, -47.98515914559806], [-10.563507315510051, 36.95398344419041, 10.654002321736527, 13.984945807788026, -21.81382155159101, 0.4094651820822216, 95.91821027998938, -54.420257541893356, 179.54336396001506, -13.639996729307269], [9.410428616360429, 94.41906858130216, 10.519327049822927, 83.87195535977969, 4.471888765276999, 17.044148065429706, 15.925353752939236, -2.5768415355099403, 20.843699216721145, -14.644545230650968], [49.30915096367036, -73.70859778485625, -118.04681603451513, -6.732517303581414, 41.29976799063636, 142.96224844316646, 29.79338710994909, 32.873105248086, 23.17213500577346, -71.34136336555507], [24.493685656266802, -43.737995797626084, -43.08447226229775, 121.010699665339, 16.320735463962013, 20.105428475073673, 162.04579096728133, 32.687663293730424, -60.3458076097691, -66.1235897061864], [7.051267534695767, -76.53364874225227, 101.27833192233804, -42.117846276302345, 109.41335013925965, 3.6698215629916033, 101.57108430310859, -28.977838033735043, 29.665961248187877, 25.113190969695], [16.160443548189324, -2.9861701863293075, 65.9897145813689, 16.68437386530045, -74.96368309357682, 79.18485078319118, 56.99952157578548, 100.87617487480465, -37.58982462244544, -29.538595668039598], [82.04251424257386, -74.15909438761364, -55.34858579166025, -7.053271181862115, 85.87052515931735, 73.68478028467244, -49.9939557301711, -65.27819983978796, -49.93558247830138, 24.819732558289108], [180.4808830116802, 94.8444590601453, 21.076363974099667, -50.53364910946915, 171.58738739727426, 123.40659209693781, 20.16164194016764, 103.15673068327335, -38.19244612530969, 10.472925733665361]], [[30.537375732802914, 149.81978119657396, 18.006704695399048, 44.06673170756839, -0.41722157253839365, 1.1417703045520298, 15.200423954251244, 3.8619668253430977, 4.691412672246202, -31.577473814185264], [139.37481085636597, -13.786538262329543, -1.3068269507949628, 19.737918850931557, -21.599941538417045, -8.825838806784546, 54.609227504926125, -44.86754255240641, 62.496768986592336, 71.61099113490025]]], "bias": [[[13.785859422474612], [-31.835225545283798], [-4.881797753207332], [32.031453537264674], [41.18609457642572], [79.0019353785816], [15.021652713326386], [174.5066538372777], [-101.92990687384054], [34.99309117898198]], [[-31.418571903618684], [21.749278014795507], [-6.8219926913455415], [18.071638568127188], [15.868449822281274], [133.88712256077622], [-21.454694780443155], [29.020887050664395], [9.492147111341806], [-14.781424108186336]], [[-149.71557227693992], [-115.83564266156314]]]}, {"weights": [[[-78.87507372376278, -76.24162525863598, 99.71918884255817, 103.45013339304147, -16.65128797720345, -31.997812475805688, -89.9381811023155, 147.40012909658233], [-26.124563959113118, -44.87199017012268, -26.20954821367044, 67.34931991900484, -151.05100412830308, -67.39413462393335, 0.0023804781915732764, -7.041510286294715], [32.63882929631888, 97.67803563988772, -45.93535368208205, -158.3096874464671, -20.708666969197232, -75.51084576631558, -15.20711204002855, -67.26222781239217], [-76.10046543639768, 62.4097587078576, -88.27299528770985, 46.525391327537015, 25.345811983377953, -14.232867808095614, -61.00953220425526, 72.60287732196385], [-140.24354824797072, 87.83961970306828, 71.60314986157817, -29.942854174334972, 1.7428205109457293, -0.47190784431624344, -111.6617871670923, -37.999194215707014], [11.534422108965622, 36.59933985359446, 53.76436493770964, -91.09662676902707, 117.5462684061602, -34.512430938191685, -60.99143100099953, 74.96633256894816], [-82.59423190585562, -44.5210755865121, -35.15682566888981, 11.776137978493615, -156.4385881647483, -65.74010866094149, 10.80602453046413, 61.74637805607461], [17.83416136786354, -8.2716308953503, -27.529886098866687, 10.234120520085856, -39.34712973256201, 22.832488117129817, 99.54210157498161, 47.55313418864582], [-42.532149988688786, 50.805168070270504, 41.01234255189487, -49.17230399968862, 7.0446084311931605, -3.790390720626945, 193.06236884234877, -85.21075300690893], [-61.76659096925046, -82.98124827927447, 27.193671802476253, 28.337148690536026, 1.6793183687386828, 1.1064105026383895, -12.362245688831852, -28.772542335300013]], [[73.02002539979914, -48.73293138183591, -104.93773132137382, -56.58474090767236, 44.4809219765373, 3.337717432381941, -53.67451715867452, -51.417730927469954, 98.86631656479625, 53.52685614007117], [-41.8314890096423, -33.17302597267059, 64.99761610587115, -15.483737388413052, 8.055685907010165, 8.83161481627876, 6.680647821965734, 16.401406506691217, 111.69866848743803, -52.627365016905514], [-16.13311694383047, 31.908893887881902, 14.173447137557368, 16.055626251284252, -22.659082092397227, -0.24386478644538345, 89.00069370439392, -53.05369807462932, 174.7737247849063, -9.2560946551275], [12.758536326948095, 92.75295455433299, 6.598246242843541, 79.86674071159065, 2.3440197658896738, 15.005824094286766, 20.40088362685779, 0.14620012784905534, 23.50300074807856, -9.324335297622122], [50.79990140713194, -69.26541314595268, -121.04941011157226, -6.400370001354318, 42.07179361929348, 140.62906847556326, 30.243095992562687, 33.447697270444216, 20.506689642270135, -75.39442932530204], [26.59181169851593, -45.689219134547116, -48.68735734729987, 115.86662926265406, 16.67554066326079, 23.933320023621924, 161.21323612609285, 30.00064689517282, -60.5661061746357, -70.02723755176405], [3.054586847608896, -78.8675696834236, 107.3632968977024, -34.42220369544798, 112.84215289679099, 7.8696774675574686, 107.99521320501668, -27.622918376933484, 34.16682588085452, 16.35171386277259], [20.5541582366131, 3.712666885175839, 60.070423388036836, 11.35107917563674, -75.03101048364603, 88.66322600026763, 55.46505960105136, 97.08832094463054, -38.85345283921174, -31.398651880854285], [80.75278027031568, -64.33931896526879, -54.83225338116774, -10.867664902186135, 83.49993930559494, 74.55080181404925, -51.82656103517119, -64.07143093251919, -48.74961583393095, 27.56316258143017], [183.26717037603416, 102.85733685643326, 19.7851693048144, -52.38217660783089, 172.11764882497323, 113.80305483900125, 21.438298204956958, 97.31272779716383, -38.69228980619784, 9.904215062187793]], [[33.83778794758484, 151.09337862448962, 10.167340219890091, 38.61898903215409, 2.285133455498375, 0.7207592032388956, 12.5500025329075, 3.934211140206017, -2.700602546828833, -35.16338671234253], [136.76611078712085, -8.605149531805305, -0.4757452778784347, 18.449565159431998, -22.629656248198316, -4.731222992199236, 55.30577472285858, -45.141528868007704, 62.96742256891587, 71.52227516351317]]], "bias": [[[-10.823097701016163], [-33.91707391872963], [-11.147385708489091], [36.68030932174768], [40.98425090485215], [73.18026832874234], [8.709798226369557], [175.3347703877289], [-100.39338120603496], [35.41851712703678]], [[-29.109350892920947], [21.768756484093103], [0.6316345232855569], [22.87334160770448], [16.208547258529812], [-147.13095081606903], [-26.004784702826374], [25.581456819868247], [15.610101889677548], [-19.989422265809903]], [[-151.85364955003288], [-112.9767918360843]]]}, {"weights": [[[-80.47114088698116, -67.01995748101542, 97.33809172517641, 101.96501524691493, -20.073659828619146, -29.593089777863973, -95.60206893920352, 141.94396339910236], [-18.7258527994129, -47.77959582451047, -37.68436300761229, 78.61540250547361, -166.38305214052286, -67.92442991367257, -11.221170869725361, 0.9583170191013355], [33.22057083885587, 97.67803563988772, -46.861419561255126, -158.8231694819562, -18.83519608292756, -75.32610706057157, -15.241397561735518, -68.31015728409393], [-69.94332360663476, 67.41497548230745, -75.79010614879957, 49.29935055457276, 39.175425630550066, -10.989544574687054, -64.97460099715049, 74.84984517310953], [-142.72302333883223, 86.43082080909058, 74.78357388895836, -32.28568258461014, 8.01995212128541, 0.5774882945673689, -106.57013776413514, -49.187937290591975], [9.32988935466033, 34.61007478096804, 53.97333534051383, -90.80191075443061, 115.9676040511804, -36.28769512388686, -63.379446297056724, 74.2153036863401], [-82.96158782844887, -47.05211741495772, -36.040560569341075, 12.352158289064876, -155.34602924451104, -65.09043449927842, 10.853276322981552, 61.642464004024774], [20.129176823924897, -7.408162013143711, -34.26903611266568, 2.5284690520896183, -36.91133712442002, 24.21101259881248, 97.17861869568192, 36.44359342966629], [-44.67811072314649, 49.67888219431071, 39.81595311737704, -48.792649325194475, 0.22914025904611518, -6.818922868883954, 197.01977167433608, -74.2506203984751], [-61.28108382404527, -77.57565670693029, 24.38568585499591, 26.03044336174016, 3.740095427384105, -1.0621112500981402, -14.154716213702258, -27.885792455089707]], [[76.43731612673126, -55.342283324068376, -100.89734113274436, -56.286377269303664, 51.4066591967999, 0.44379072273801534, -47.712627798572534, -57.3432213219446, 98.98305508926408, 57.6161279043297], [-45.1935301632876, -28.88593300983499, 61.98849825688617, -18.735487525778744, 12.344304691502872, 15.488383695097607, 16.0948425664645, 6.592550723073929, 105.708085553016, -51.56267454671401], [-11.844626200559436, 37.726727581564674, 13.360160302886733, 13.946168209701776, -19.39658957973492, -0.9632701752833059, 95.36228709184901, -54.09539633971855, 178.0323571669904, -11.967630040201042], [10.16545216589568, 94.73501527781411, 9.345743926213162, 82.83423753468101, 3.785223529317437, 16.527801026170152, 14.950598653947333, -5.286335711236276, 21.29006031822094, -15.21917174708391], [52.04143132959613, -74.4250689594563, -111.81730375821189, -6.769106142941649, 38.100142751310244, 139.55730479773632, 24.338684377271292, 38.87741951337104, 23.46225982698097, -79.48247118709054], [21.80400214896671, -41.627909997982194, -52.57527400233423, 108.57285853403805, 20.925936669704555, 34.7520544176777, 164.9417823097231, 39.34310464004692, -60.703877755410325, -68.019029348227], [10.10387595726611, -72.03335197555424, 98.4610938197404, -40.37860462083341, 110.6049774804896, 2.1744221320238677, 103.32935092433543, -31.870060565427007, 28.205742487227262, 22.649503980033177], [14.962799299294703, -3.3256566472488536, 64.0168329508759, 10.456183892729783, -73.8872965776971, 82.36630062554417, 60.138295587605505, 105.90461464129517, -35.77366397155089, -24.888567192001467], [81.84796266430439, -69.45663215362468, -55.674784675602574, -4.472006650174247, 86.03629828134012, 71.19540934265865, -48.65405137918996, -62.28407149825767, -46.75994012046101, 22.407139479916854], [178.84820639048112, 101.85408590289484, 21.053111403105433, -48.474139853782674, 172.51132939714083, 114.38770327264115, 22.289581643268495, 102.06237792268365, -44.17600818284279, 9.741425923785538]], [[25.479921375982304, 147.799951364828, 17.644033426904613, 43.85485402269045, -2.6783482998032317, 4.269872018497356, 10.739529256985023, 0.5613462345429941, 2.3465338937165368, -28.966150024563426], [139.19578461309072, -7.505850222399956, -1.0154976835350642, 13.996113101835023, -25.15294183717263, -1.3668667440843392, 54.580658010882544, -46.04667048603432, 65.30129082468271, 70.53773381925491]]], "bias": [[[14.701416855581755], [-34.84292445273726], [-1.5331156263435457], [37.47983961012876], [38.12861952471011], [77.69239100106284], [17.62117483742051], [174.92621264970333], [-93.29076551378748], [36.20760093112557]], [[-24.416039079354697], [22.68808168583114], [3.259466691166585], [22.375944643992135], [16.690840008307106], [-147.60175312618065], [-16.37143406492022], [29.514497197523493], [12.688905471771664], [-19.221727100151618]], [[-149.33662859819535], [-117.07412494649964]]]}, {"weights": [[[-76.88682562154592, -79.24580454572508, 94.5273235884766, 100.54807852345549, -17.350157602901938, -31.84447005867572, -91.20081573305073, 143.61335735044918], [-26.124563959113118, -44.87199017012268, -26.203609574415268, 66.5517007693739, -151.05100412830308, -67.11662420460654, 0.0023804781915732764, -7.041510286294715], [31.816431093555458, 97.974752358902, -47.287160494649115, -158.31520993947763, -21.345881416236306, -74.77644284920663, -14.234230605434128, -67.26222781239217], [-76.10046543639768, 63.19405319492431, -88.27299528770985, 46.525391327537015, 25.345811983377953, -14.232867808095614, -60.66529536272016, 73.66889403175973], [-140.24354824797072, 87.72957790141862, 71.60314986157817, -29.942854174334972, 1.7428205109457293, -0.47190784431624344, -110.16148248939459, -37.999194215707014], [12.006448683076922, 36.05902466127854, 53.29920015859904, -90.53723528839446, 117.5462684061602, -34.512430938191685, -60.99143100099953, 74.96633256894816], [-82.1377089726014, -44.593070341783246, -34.18388659722398, 11.77766056311265, -156.68024963357948, -65.74010866094149, 10.822026624249549, 61.552766046739464], [18.582300826199305, -8.2716308953503, -28.65198659045382, 10.928790262189683, -39.34712973256201, 22.832488117129817, 98.37281940328785, 47.21728750258211], [-43.550059553451405, 50.805168070270504, 40.51032809914541, -49.17230399968862, 7.0446084311931605, -3.790390720626945, 193.06236884234877, -85.62852571378605], [-61.09149090099725, -82.89947634876282, 27.193671802476253, 27.760374898520055, 2.3255935615683336, 1.5108663979391745, -12.362245688831852, -27.612812583866486]], [[86.88564493829487, -49.006316478520496, -114.33960545926486, -65.23863222737279, 52.19145936206077, -1.9036061859040863, -53.33009825382914, -57.7937268428273, 92.46994906811825, 48.352071161189265], [-44.70840512421378, -33.00848035875479, 63.04477099734311, -16.90506544490565, 16.477257566377904, 16.556084757376663, 18.476912636348604, 6.72759989771626, 101.85207640358409, -51.228355960753554], [-18.148640083849187, 29.142088671613426, 12.390517359899476, 13.239630754252245, -14.989375593366294, -2.9599998710138578, 98.4361541836922, -58.91829434173116, 180.46565967202014, -8.49393233144232], [14.82730886043884, 92.75295455433299, 6.598246242843541, 79.27004720449673, 2.9071598128914995, 15.005824094286766, 20.40088362685779, 0.14620012784905534, 23.50300074807856, -9.324335297622122], [50.96572308671099, -69.58968305540184, -122.22579761674939, -6.400370001354318, 42.07179361929348, 141.83293622207898, 30.243095992562687, 34.18403647177695, 19.60618428191318, -75.39442932530204], [26.59181169851593, -46.94309520965372, -48.68735734729987, 115.86662926265406, 16.67554066326079, 23.986776974466547, 161.69679308177416, 30.00064689517282, -62.863090606644626, -70.70035118475099], [3.054586847608896, -78.44880710695598, 106.92525653387084, -34.42220369544798, 112.34492465652293, 7.8696774675574686, 107.99521320501668, -27.622918376933484, 34.68762111528251, 16.35171386277259], [19.82290363946971, 4.369331758430824, 59.87820296531057, 11.1705864835301, -75.03101048364603, 88.48916758051061, 55.46505960105136, 97.08832094463054, -39.95889234592277, -31.398651880854285], [79.96354000644482, -64.33931896526879, -53.87302920318365, -10.472840171016218, 83.49993930559494, 75.20200142078677, -51.76665927419916, -64.07143093251919, -48.74961583393095, 27.56316258143017], [183.26717037603416, 102.85733685643326, 19.7851693048144, -50.99556094719463, 172.11764882497323, 114.18444747979609, 21.438298204956958, 96.59915647313991, -37.21721967723106, 9.388345225629518]], [[32.95907371978402, 151.09337862448962, 10.167340219890091, 39.96331016219716, 1.759853168892388, 0.7207592032388956, 12.53988588204896, 5.365807845621237, -4.754476653636409, -34.326140081987674], [136.76611078712085, -7.903822159194705, 0.6821475837935872, 18.993002259108774, -22.629656248198316, -4.731222992199236, 54.4148871679408, -45.141528868007704, 62.46297972880897, 71.69059901320317]]], "bias": [[[-11.015225589700343], [-54.7510283269769], [-2.5579299085426817], [29.258066225679677], [39.89423355499641], [77.42805795867412], [8.696402183479446], [175.3347703877289], [-100.70926219972196], [35.41851712703678]], [[-29.109350892920947], [21.463573390464624], [0.6316345232855569], [23.460802923927453], [16.92821818902668], [-147.13095081606903], [-25.608896911980743], [25.581456819868247], [15.597677526973861], [-18.14842339729727]], [[-151.36267656686076], [-113.53632551007063]]]}, {"weights": [[[-83.02151484966835, -66.80615972750789, 96.75318334282022, 99.17676148026445, -20.87195555094835, -25.694516779907193, -91.44099072407143, 133.22734937672453], [-16.40583053509542, -50.61754575669491, -24.790419927157156, 55.76286280107012, -162.22891359598663, -75.71685451265553, -19.35862124022602, 10.862667892245602], [37.02958066952232, 99.80680347522207, -38.83604651970685, -157.75720772187626, -13.455763608298149, -77.35121400204515, -5.174591001661055, -65.71161625978894], [-74.93081709530449, 60.47612814569975, -86.40161675649136, 43.680320112820866, 27.73836193807306, -14.904645323384328, -63.5365197492781, 70.23631287169246], [-139.84149525732087, 89.47717225421648, 77.56401327998273, -32.59166570837319, 4.209533830352535, -3.6304037581908055, -104.17204564591408, -47.55591956663392], [2.9962393799017755, 33.126363168146604, 48.43441067404702, -88.32595887349018, 119.11126509325264, -37.48605213952078, -59.985568020631696, 72.54764806798909], [-79.466028892192, -47.59738058348964, -37.29977159455124, 22.977244555927108, -152.43075232576516, -59.27076526802225, 8.855894015403564, 66.36604021266298], [20.218175407912796, -12.53460726303587, -27.635279706375073, 10.551504310642512, -39.69929784872778, 26.462827514615515, 105.14893676227013, 45.78065617035352], [-37.365485477734566, 45.891803494297655, 36.527558193245184, -48.32261481214933, 4.13949296937891, -4.378008927019488, 197.44123525629976, -72.47857099792895], [-60.50484248352584, -78.1135731371842, 24.233418172189097, 23.874036711216327, 2.4700059525891183, 1.0400874761412866, -14.325002282081167, -30.746186222271458]], [[86.88564493829487, -45.818848715670846, -115.61606934267554, -67.16976440923744, 49.7186290745736, -1.4832501567678247, -50.79999932541674, -57.105723128137946, 89.80440538641419, 48.97861063374801], [-45.825408569551655, -33.781495840213395, 61.464906193173256, -16.335614007389726, 15.095907602220269, 15.131770174875783, 21.009219643332564, 6.752294614227143, 101.69757999815607, -53.02479205531533], [-18.36676602207883, 30.88842236302328, 14.677152144100232, 14.042062645881067, -15.47207888207336, -0.14287402332547217, 99.18114310970468, -61.87456390571959, 180.56962936510934, -6.42375114395752], [11.495351955784496, 94.16233726026816, 8.89423948674847, 80.09860806813316, 5.037661001149607, 15.619552378025663, 22.625984709483465, -0.5065512251007196, 23.763402310997066, -6.394750920718287], [51.283163418990334, -75.05851025769235, -113.17841711747928, -5.58986293648685, 37.733520962362995, 144.07496006042973, 22.75702293138288, 38.93977062302069, 21.6201843901671, -81.24121387112685], [18.11785183647839, -41.24126228325708, -54.888377610278106, 108.42500131064394, 22.966300445578426, 32.27161505711902, 169.205325376198, 38.540659769056376, -56.774226033617, -66.90470515253395], [9.810503782919659, -68.7257988395377, 101.84518141650466, -39.43370877624704, 110.82705255660163, 3.082796752755736, 103.08005686031835, -29.970776941187385, 29.11152508839369, 23.287291792225442], [15.391121912702674, -2.103418255827143, 62.463492595689274, 8.027239444003515, -73.60927653249668, 77.08353478941093, 59.19134809957853, 106.31854075328437, -40.67788244525381, -26.055000716843587], [79.58316639672405, -68.50413244738104, -56.0650724030157, -3.4217591479818177, 83.93625146103795, 70.77970893177678, -47.5521714074555, -60.50272017934737, -45.38344716418098, 22.488081160145292], [179.49442814103492, 103.1650099835164, 20.61932262375488, -49.23884848808347, 172.8481842767696, 114.92459205191436, 21.35519179461001, 102.18407201077856, -40.78064042548713, 8.388786374630527]], [[33.64022217937774, 150.97008528574344, 8.270040201136243, 39.732162534329426, 2.0818701867735276, 0.3859644917279812, 12.370597198862999, 4.9348269092087795, -2.05139322078381, -35.16338671234253], [140.42771765032396, -6.257281021266074, 3.4149932487091883, 14.253478064569311, -25.24353344257052, -2.2297364655976035, 56.40365212002637, -45.9906282203578, 64.67442811594937, 65.66697548013387]]], "bias": [[[14.922645906486704], [-36.078073465434535], [-11.378746888264695], [38.27697062920715], [39.75405000380482], [79.96809068915832], [15.254960238148577], [175.62697262906406], [-104.07216124199513], [35.261792718977404]], [[-26.970617265807203], [18.344483875444066], [-6.601182143372988], [20.203246585579645], [15.342142503665032], [-157.07759086164418], [-21.90587028234415], [40.14918107113088], [18.361812707352644], [-19.031114404073506]], [[-147.8494582594713], [-118.39357734124142]]]}, {"weights": [[[-75.34114056678102, -74.80957828656545, 99.1099365938228, 104.0042717314092, -21.46888105168626, -28.794626963873622, -89.17743983426189, 130.3716851174745], [-18.044579782539845, -46.910070696183936, -37.03110015462384, 77.24470569237674, -164.37811391476617, -68.74423534702038, -10.262460986834318, 0.14396923858617416], [32.82372445177229, 95.88133794168655, -47.292260295329584, -159.22310785146522, -18.617775337847437, -75.63782119288155, -15.592217976602631, -66.5400241194335], [-71.09601302845302, 68.12130440228343, -76.2438028445356, 48.49351661635315, 40.277694530375385, -10.790179854522767, -64.32518780611849, 78.03903785821473], [-144.67411458258886, 90.70350058344815, 72.83816995726788, -31.135128961172125, 9.508202960000268, 1.5933926915725, -105.28778893335749, -49.01383753982074], [8.974293187564195, 33.72863385795599, 53.48365424215519, -90.71430497571112, 116.6055931068115, -35.516772590086326, -63.379446297056724, 74.2153036863401], [-83.37072688865777, -46.29170561850986, -35.72736374293361, 12.763193129170405, -154.68236120971147, -64.16042182119388, 10.020602086344127, 61.2716602442151], [18.863575010478478, -12.063403716219197, -26.818341167179113, 10.084575123587546, -40.80020753090421, 28.46200860754569, 103.89447404848684, 45.783031605981826], [-40.5078392937744, 48.07319252774488, 41.00497972854171, -45.877779399733214, 7.78045044014903, -3.583588145126653, 190.28606462754684, -83.44038706264352], [-57.316571370105116, -81.6721878394005, 24.979237777610933, 33.695453858082686, -0.2517669773993154, 1.2997301346226204, -10.477954643902416, -32.42137386665974]], [[75.99837715816336, -51.38726125374219, -100.01878653376593, -53.437499879267605, 50.71548119641372, 2.509548172805376, -48.35719912635946, -52.175804786025836, 96.77791220594816, 57.640007535897105], [-45.52758277776222, -29.453826873064852, 63.60683728762113, -17.47063916168684, 13.376230826691462, 15.737822701747403, 14.636918599063733, 7.610692275954072, 105.63679143415607, -53.134924374310955], [-18.958906960284224, 26.368109705523022, 15.494166546519788, 12.139587829999368, -13.726571495690973, -0.9446732249586303, 96.4128381406093, -63.9518007162155, 178.68187802996928, -11.078776741157741], [3.634778902306337, 97.65828665761447, 5.006716702130695, 77.84482915851254, 13.290799611743374, 8.998527273196046, 22.372971400792565, -0.7724076213153541, 19.53876598444553, -4.04972993623776], [50.36551348411107, -76.23356431640458, -117.1976021154644, -8.069365009202398, 40.4055636408949, 141.7754489406969, 26.686386882537807, 35.053743469943576, 21.85726833015063, -84.53114387833737], [25.301393289862688, -46.85491722229915, -45.01986169400068, 118.50411102587137, 18.420421893892904, 22.583006909347272, 160.39228555563318, 32.6190798455945, -57.54464945794622, -67.50878930460492], [8.594233519356889, -75.8226512986375, 103.12908284687683, -42.34292480299258, 110.48485842984746, 0.9481218116279492, 103.34474464624105, -28.940805426312455, 27.234255376720416, 23.93943824001428], [18.809601507283098, -3.2754969420927043, 67.56416058699139, 14.295645991003623, -74.87156807656777, 84.59128113107423, 56.71463080148515, 101.83838838775655, -37.8943791991765, -23.035897802537587], [77.84848037500947, -72.71712272733805, -57.8757471494182, -5.381758193037621, 87.1015639606096, 71.18317037274693, -49.41796970324627, -69.40161325000776, -52.09788124910754, 23.949199153567108], [181.16266728331516, 98.03847508513539, 22.980570180116572, -46.242902903041326, 173.4370222323864, 123.39075057505538, 19.172591920620953, 103.09442349343406, -38.93675018336813, 9.790100724068333]], [[24.298072560768265, 147.58028665147836, 15.959596875916692, 40.10132171889364, -5.152545404032162, 3.4853964995630955, 12.3374425207886, 1.448876184911286, 3.2145148726420745, -28.26354559828654], [138.08690469514082, -9.531871881525143, -0.4441979319848586, 19.17036800142845, -22.169563161992922, -9.450187471002101, 52.51548645426089, -46.045901412020335, 62.094830226525815, 74.4881919116762]]], "bias": [[[-10.916009289181865], [-33.41117535153708], [-0.5531093427401661], [36.10948378050573], [38.190807549252256], [76.57486845395219], [10.644944429095345], [173.9382413282384], [-99.73008510891283], [33.18817177678682]], [[-33.00797617593005], [18.87631513974821], [-4.163131943526921], [21.753202674258397], [21.00813759696714], [-149.08211158372907], [-21.598732605283296], [28.142208424733294], [9.372669966337527], [-12.52204560210837]], [[-150.68522829072398], [-113.59005340835142]]]}, {"weights": [[[-76.52881327994243, -76.67150380735809, 95.14596324530683, 104.18958296609361, -19.359080780451194, -29.875065271606207, -87.99526871836767, 143.93765440635337], [-17.662388111522905, -49.626629838705945, -24.31947184685652, 56.10057955474132, -164.88137021590293, -75.78077915764378, -21.38759081673358, 11.857365209035759], [37.43988700320362, 101.58666731034249, -35.31100863115987, -162.74319890000783, -12.65832640799318, -77.38304309943945, -7.6838246348726305, -61.557447958896255], [-76.74492733419105, 63.99022669517442, -76.58306043370621, 53.36588463620044, 40.8862770436847, -16.444103565179457, -58.300698175857846, 66.42844553709158], [-142.26832852310986, 91.83424350800792, 79.10054461374472, -37.92537818585147, 1.0747074771775154, 0.7689104039311119, -109.95250426476532, -53.50836037165706], [9.625468900645108, 35.08088449417505, 46.98014441865287, -95.3324670888717, 123.0191995929315, -36.012832422619425, -57.52916949421818, 82.09978303129407], [-78.1035646305677, -46.37453394069499, -36.661122607361435, 15.916244072983437, -151.08907384147625, -67.73265239924032, 14.646165716822438, 65.66229676775123], [7.161180537972568, -8.253071411463544, -33.926749736047896, 7.434876088433399, -39.28681495283145, 32.96069986438659, 99.92037699868902, 40.35186543000447], [-41.20276436802098, 49.28885550105625, 40.2743406866968, -49.43964005398273, 7.6846213525259515, -3.1602059092050734, 191.55644311084052, -85.74514590127], [-63.62677904974997, -80.38467211781881, 28.581686443548534, 30.779072993132, -0.2964284576030659, 1.0977840104315482, -14.192019688439961, -37.138375634811034]], [[75.06270390542322, -56.07793622696549, -104.66407024485542, -56.921458702134345, 45.68177474031291, 4.081406798353931, -55.431598814275205, -53.7758605197407, 98.13910070476072, 57.556356840965016], [-44.220034995755704, -32.93359796349635, 64.63599511031447, -15.947784745613257, 13.043621905631609, 15.456571194945164, 22.77599300251351, 6.439133917690112, 98.71029842755313, -52.5625809027485], [-19.14449223110324, 30.073332197422967, 14.803619327902146, 11.019675419473307, -15.721498577687575, -0.08536738177953303, 96.38466321233233, -61.91083503552445, 182.13965487924145, -6.931258494167395], [13.136097498433168, 93.28973574047373, 7.926901880935677, 78.99812190989238, 2.553807360336978, 14.040571622299534, 23.352129776822206, -0.06745646087200541, 24.549152773098424, -7.413159603369764], [53.67845425057502, -76.79311587200799, -118.92450728910133, -6.188788484698793, 36.96670177087403, 138.26237990008278, 29.575403423944252, 36.68153083362058, 24.984339497373224, -75.24586119550356], [22.501279955397806, -43.76677730421629, -46.05164719255817, 115.04117139330135, 18.455699248839057, 20.627145003440102, 159.47023831688247, 25.96112398289316, -59.53086363051647, -69.24762057897236], [1.9800157971943717, -80.94068992449034, 108.73745786267769, -33.92805036958048, 112.67829439496977, 11.461765523927433, 104.89478512886326, -29.254421632950322, 32.95286064186527, 14.120724888909624], [9.889792685967603, 7.891827058083342, 65.87433320090142, 0.9625199557001984, -69.4153091264955, 79.04600585066966, 49.49038820760848, 100.18692893315506, -37.35503983165036, -26.038535517152475], [80.36869692800518, -71.56626433696121, -52.04447033388524, -9.712374833010994, 80.97848629341802, 71.87950714221276, -48.31045223610031, -64.42139645440531, -52.02430047327139, 19.410246951311485], [180.2656224269518, 97.72905518729308, 13.445651417075384, -42.2737530193783, 172.10632532170143, 121.80111417462706, 19.62050208166677, 100.94785233066612, -47.78384416790896, -0.5281321330472013]], [[42.21720424735045, 145.14717704428614, 9.152386402399218, 44.701753374238706, -2.3056679736213086, -7.663818341546128, 3.2537956009966353, 10.033982129896568, 4.404582492057168, -25.944796813488445], [138.56983592715108, -7.255126170312376, -1.9971387596715648, 16.61354436492693, -24.128058780896822, -2.075448828150879, 54.5300187380417, -44.99341309246098, 64.72082931044481, 69.0604289089376]]], "bias": [[[19.110553142588188], [-31.344969724862104], [-3.2565550659521008], [31.521775426374905], [43.98576868201397], [81.96996654261629], [18.398734470970922], [174.12062393619146], [-101.31485016567386], [33.492599209411196]], [[-24.73051684960634], [15.674204798227057], [-5.295771575603582], [24.410855726059367], [11.34732300109507], [133.00786778573405], [-17.24388157441447], [29.52971802986577], [12.387317217335497], [-23.738973248888282]], [[-149.49342481751322], [-115.74893247916958]]]}, {"weights": [[[-72.32690319153205, -75.0692982897999, 95.241982797436, 104.63289451561182, -19.166582131769278, -29.56544237276546, -88.24722202516392, 145.33982170169048], [-16.237574887728144, -53.481972203006656, -27.835884864850907, 56.964950326740244, -167.3033593574309, -71.82537521893744, -19.20424939286664, 11.772159668038029], [33.83343900071784, 102.05652436567365, -47.97477595889708, -164.78517353540732, -15.90646192183001, -76.41342008658425, -1.6857674986397222, -67.05176942787455], [-71.56925817617326, 64.55116277341888, -74.19187107131452, 53.1440357996309, 39.23905359273931, -23.189812793964233, -56.192254677907115, 69.63611852574381], [-140.7887077209154, 88.84580582519547, 79.01895239354467, -34.979845792751924, 3.3718597203112135, -1.7035597327508172, -105.32083902714301, -47.55591956663392], [10.606951740696731, 36.998531180289, 45.86029081693325, -97.98762854218172, 123.23227960951878, -36.02312122520374, -60.07591871893221, 80.01595443735437], [-71.35785100780119, -45.634365617360764, -38.373109696009784, 16.449830004177905, -153.23340222090027, -58.73563223972546, 11.516852178518253, 59.55899863064166], [21.30669332923451, -7.458446317054541, -34.23514048267719, 1.713993877999931, -37.38815286614382, 21.33561048286436, 96.06343998175157, 38.625387307131156], [-46.02576739454739, 51.735846011512756, 40.02296004063104, -46.964019661495676, -0.09410979530087249, -4.938265815394882, 201.41888724338105, -74.57075872112684], [-59.168445231399915, -77.57565670693029, 24.073477380368235, 25.698294106003512, 3.756124487937792, -1.1755144717183446, -13.071621001790568, -26.515749146295622]], [[75.73922933299949, -49.95721892530517, -103.7866097106459, -58.282274636172644, 51.44553941473627, 1.8234310268186698, -50.523837220898386, -58.523984402030436, 99.09440962219152, 55.3081935388803], [-46.047625142375644, -27.89364738592207, 63.43579374628757, -17.05563895567176, 12.902055396026979, 15.935257251837664, 15.935894860263604, 6.380365639858011, 103.1179020814602, -49.01871264947881], [-21.032481391702532, 23.69768445035635, 14.440816394452062, 13.787180156382659, -14.741949650021782, 3.236726255997592, 96.75033996628402, -63.64583138929059, 178.830056736267, -7.5127185761547315], [9.793938896610442, 94.41428366464503, 8.235289583372968, 81.52166950078166, 3.7854352204693487, 16.715834557258656, 13.218808932280572, -4.000382157243549, 19.991814269647545, -15.548561124216505], [50.65095547546384, -75.95681187723736, -113.17841711747928, -5.939905375828329, 38.56532272842047, 143.5194077612916, 23.56337600370287, 36.06855305556714, 22.012902842247, -79.95795574943531], [15.730766114044792, -44.682753943022746, -54.85631433629418, 107.35991964450496, 21.826629100695822, 38.155934171429905, 167.52975097369958, 40.86786096117688, -57.77956157137619, -65.63219539971368], [8.611868239195696, -73.36003520670091, 100.34304019128228, -39.403544235191774, 110.07606783267327, 0.904631096205786, 104.85990193295547, -26.50147283891378, 29.435688402165262, 27.16703721776435], [15.661316845426004, 5.695932380396261, 57.470334654027724, 13.449779393428095, -68.1565670461391, 81.57959163031764, 54.25747013278982, 97.6996153166674, -41.85106792178951, -26.084194233974273], [81.9810071883735, -70.87431690143566, -55.99128401410595, -1.9577990673504575, 86.60609147453475, 72.02433570996783, -50.64079598758823, -63.23069787745241, -46.208155853466124, 22.273356784687014], [178.67975180137427, 104.2993053136015, 21.053111403105433, -49.766872715396055, 172.19247217691532, 113.89138472731163, 22.35847725169637, 102.36887176999683, -44.42838469291353, 7.445761208867412]], [[40.556418805521986, 145.22781014186035, 12.78221198136498, 43.33834968123971, -2.442572321614377, -6.43450115285953, 5.1406899104716866, 6.87141924869436, 5.475085237152186, -24.668692357534407], [139.7604040165477, -7.35076724275819, 2.637592688630863, 13.660924736383814, -25.15294183717263, -1.6438686990819202, 55.76269599297478, -45.55131837391066, 65.09883202628983, 68.4708582752951]]], "bias": [[[17.508677062112042], [-57.034981090863674], [-11.387678026810372], [39.0984560967645], [43.110128936133044], [78.84517428778572], [18.710624424063116], [175.33672245023618], [-94.37159954900626], [35.87143578697598]], [[-23.75046616436419], [16.46709404720977], [-6.331065877396955], [26.701763727564263], [12.113326282969908], [139.0651103485457], [-13.200314298712739], [34.35277851225587], [17.325153665653414], [-19.033381044918006]], [[-147.82052574030283], [-118.44483938460698]]]}, {"weights": [[[-84.07683223293131, -65.2994189011731, 98.21487624236745, 97.63035407570688, -19.620807059752686, -26.317555969783868, -90.59775561198816, 138.24176254548678], [-25.916985891842312, -44.54600914211938, -25.998878407832763, 66.04576243422842, -148.98365112769375, -66.1452719866554, -0.5645232922606983, -6.367263442672884], [32.80376803570965, 97.33031353049552, -46.777836646832355, -158.3096874464671, -18.349251143724533, -74.97018526911002, -15.350328490084939, -70.0224822340442], [-72.19067611025375, 66.40161962175034, -75.07741825062303, 48.35810269185393, 36.5943633961262, -11.019669280863326, -66.61621035855572, 76.51802296718097], [-142.0689044206201, 86.05244956787062, 77.08293000501263, -32.51274731415856, 8.442837049395571, 0.23719916641261274, -104.19095431088795, -45.40862229079336], [12.355770016680813, 32.03117989752157, 49.56736283667088, -90.71430497571112, 115.44501967948881, -37.59375679744483, -61.511050402216235, 76.44174730256196], [-78.22466055508913, -45.33703430650094, -36.43444186149603, 13.732658676670532, -154.30588337346205, -67.7150164187938, 11.887556600012285, 63.125479665236334], [9.747032040472417, -11.728447945861056, -30.86693436500999, 7.613308074104688, -37.1737784238472, 30.321158824411004, 101.11146370051716, 37.256446940341796], [-37.447469782693844, 46.0590903417076, 35.46994572496777, -47.32976694475849, 3.7526959971252323, -5.215265865926209, 197.44123525629976, -72.47857099792895], [-60.24565393417172, -80.65883343541702, 23.969098547372663, 23.92040271952973, 0.32785360272392783, 0.45986777039051885, -14.325002282081167, -29.628382716034942]], [[88.96412887419282, -49.29590976713392, -111.81866235684647, -65.59233702014743, 51.541868150238564, -0.17416279344963148, -53.26856997477765, -59.78921698384018, 91.50509158126124, 49.66304820836163], [-42.693255294803734, -34.322712074743016, 63.43587519479628, -16.953332854100296, 14.427298387529952, 14.079039413199704, 22.250332323038432, 6.354065654011218, 105.40765333141422, -52.78373279559735], [-15.307078773829053, 34.8619289974014, 14.295577194830903, 15.323519989164554, -19.812144167386204, -0.21342338867770394, 85.71025166624139, -53.42821196063721, 176.62548128521686, -10.187977013367396], [12.205029551882852, 93.87811181937393, 7.376098597593676, 79.39521193075132, 2.7150179994198522, 13.073272694107759, 20.282358424976223, -0.19717930359958724, 22.489935291185944, -8.519976678108456], [46.85314387482528, -71.35334232471797, -120.94966034634975, -5.990829283177221, 40.16958301365377, 141.2003450166736, 31.100822246279193, 38.298272444036634, 20.018337539576464, -73.77530341473242], [27.20462890883966, -45.29315950864792, -45.89242505671744, 119.28580815372565, 18.0948676903825, 18.722742315636552, 165.54966798209355, 30.3136956746526, -58.27469626940749, -67.34345069329054], [11.38853796765361, -76.37259694297401, 100.66538139569545, -38.902406759773555, 111.35188375529505, 1.817917484809402, 103.00641113019067, -27.69071775458035, 28.15375859494075, 22.55827690741967], [13.960366887193365, 8.646752989515168, 63.09706593275019, 5.757659383088426, -67.97417749038513, 80.6927810476261, 52.89528984813803, 102.22376360849344, -37.88730716550509, -29.373341538356136], [79.00678529398915, -72.09629389345842, -59.78765597964821, -11.837163304983974, 79.19963224235792, 71.41789945963855, -50.01251610355074, -60.97384769913362, -48.79861259362589, 21.39532385514899], [179.49442814103492, 103.1650099835164, 20.921862418482384, -48.96213349275636, 172.978293594252, 114.92459205191436, 21.716831187401908, 100.33030270722769, -40.86562031340838, 8.388786374630527]], [[38.14525464974908, 150.8013293721453, 10.025161901699459, 48.732765223437305, -1.9027869760373042, -3.1769466699584674, 1.6571420577483837, 3.0414283597455545, 4.097122796255251, -37.67988405053267], [140.42771765032396, -6.498963885344344, 4.415238884384278, 13.417190426799372, -25.24353344257052, -2.2297364655976035, 55.77689478860874, -45.98497473226396, 65.91439171872736, 66.68594022255346]]], "bias": [[[-7.471259687771154], [-57.90837242179015], [-10.983085364415608], [37.34069349780698], [39.00543453549027], [75.55796553057647], [9.023152381014917], [177.89236099571102], [-102.27843985591005], [35.261792718977404]], [[-31.135668064440868], [17.70925253522929], [-5.2103850231318205], [16.118076170563377], [15.839152984329882], [-149.32713289969195], [-15.449824197607594], [39.3841687045486], [19.119367532115], [-19.031114404073506]], [[-147.50081150655782], [-118.39357734124142]]]}, {"weights": [[[-76.81933087672031, -78.99546655325108, 94.73010158773523, 100.54807852345549, -17.350157602901938, -33.57697015383282, -89.62407170446457, 143.61335735044918], [-28.281944357810872, -44.40539340899299, -26.00522015832492, 65.02805505790143, -148.68470269539517, -67.24963221398008, 0.0023804781915732764, -7.7200852752694535], [32.055072717541464, 97.66703783121406, -47.32332623453012,